985 128
971 -0.0034316608 0.13648365 0.17467976 0.13143793 0.15438093 0.053859487 -0.013330134 -0.31045032 0.032185905 -0.19811754 0.37976447 0.05646101 -0.045317303 0.2082292 -0.34028986 0.19075885 -0.27061552 0.11243446 -0.2906812 0.13719371 0.58808005 0.19153565 -0.19924505 -0.05712016 -0.08701043 -0.15173727 -0.17830668 0.04932069 -0.11845833 -0.41070923 -0.08921206 0.13856067 0.30845115 -0.101356365 0.15332374 -0.06169569 -0.0031540056 -0.119396046 0.0013411469 0.14417349 -0.021023232 0.04639925 0.12485568 -0.15058452 0.1306864 0.52763695 0.1350709 0.018403234 -0.2698551 0.17259729 0.04830717 -0.26700503 -0.15900874 -0.03984836 0.25226998 0.42676285 0.026269104 -0.2652841 -0.11309717 -0.0267226 0.07657199 -0.28067756 -0.038323298 -0.24556422 0.28943312 0.07925652 0.10827835 -0.1349393 -0.3599855 0.024287064 -0.19473842 -0.09589003 -0.38799155 -0.399993 0.47388262 -0.5341896 -0.23556463 -0.020981194 -0.40961894 -0.0809465 -0.35402152 0.07249612 -0.08411814 0.1913713 0.24475266 -0.16317533 0.17946932 -0.0041982615 -0.07050301 0.16806844 0.07054692 0.025036233 -0.09002245 -0.18953615 0.6018259 0.072077304 -0.042759176 0.13840735 -0.16361856 -0.15258642 -0.19655104 -0.106686726 0.11442265 -0.18995826 -0.040714536 -0.13396019 -0.18177733 0.36197 0.013955444 -0.34433967 -0.15274397 -0.018713906 -0.2017264 0.05145383 0.010878803 -0.048056968 0.21479051 0.29448867 0.24726582 -0.017718552 -0.4121849 -0.34598175 0.012374108 0.10498055 0.018816255 0.22247022 -0.17137748 0.0719568
26 0.1285894 -0.030793937 -0.20447491 -0.06663883 0.21490337 0.13179748 -0.029079236 -0.13793848 0.17382053 0.14978728 0.15841813 0.02437346 0.10740685 -0.16719942 -0.2148364 0.13691978 0.036166858 0.15900978 0.13254058 0.18707284 0.22760598 0.4099731 0.003582247 -0.33129597 -0.34225807 0.141647 -0.22873113 0.045189843 -0.06209872 -0.14008984 -0.09765174 0.12883273 0.36655354 0.07942057 -0.095472746 0.019851582 0.25967383 0.119009726 -0.049394704 0.13113892 0.024615424 0.30373618 -0.034747534 -0.37883842 0.23067358 0.27327698 -0.0046607116 -0.07988451 0.062595665 -0.22024189 0.34079012 0.4518497 -0.35870522 0.050228674 -0.11445506 0.14132167 0.10903131 -0.16693622 0.0598898 -0.0020248385 -0.06099822 -0.1471814 -0.03647689 -0.0068837493 0.49956998 0.19365856 -0.110204145 -0.28080323 0.2467801 -0.0048524113 -0.071288854 -0.21519744 -0.20442984 -0.045314826 0.40322632 -0.2791513 -0.037855618 0.16287424 -0.24304633 0.14917716 -0.029179942 -0.19318256 -0.20044412 0.19972208 -0.058304098 0.3652178 -0.053034965 0.008346296 0.3353294 0.38998163 -0.30544743 -0.08242849 0.020283507 -0.19380002 0.24988675 0.14745961 0.09349185 -0.2921154 -0.29906982 0.031991147 -0.1531091 -0.06971418 -0.17044601 -0.34276393 -0.1837443 -0.20387056 0.081739314 0.38144487 -0.21646531 -0.13196352 0.091767035 -0.32943362 0.052602213 -0.21244884 -0.18393035 0.3555684 -0.087938376 0.15175065 0.26586407 0.1840162 -0.3641136 0.0100451885 0.042568848 0.12804924 -0.09813405 -0.282785 0.006988686 0.013649492
384 0.31092316 -0.20175608 -0.14091334 0.13709775 0.28726903 0.049281616 0.3868344 0.0015829452 0.047590267 0.33508644 0.10729626 -0.18206002 -0.072723165 0.1916022 -0.0832149 0.3145684 -0.26335153 0.032748386 -0.13301809 -0.14335954 0.35043138 0.14409246 -0.4415844 -0.28026304 0.002095865 -0.023114651 0.07351254 0.20690128 0.2735195 -0.056619216 0.13261661 -0.10878696 0.16126317 0.1836367 -0.12972352 0.13105993 0.2847118 0.17004502 0.109821334 0.11459381 -0.17908946 0.07830603 0.092815794 -0.100697175 -0.0095621105 0.51161814 -0.17808543 -0.020656712 0.16931963 0.05106341 -0.07185233 -0.15124637 0.39213318 -0.1695188 -0.14277834 -0.07316856 0.043978136 -0.09112039 -0.052929375 -0.120636635 0.023000214 0.22111794 -0.05709347 0.18957724 0.07418912 0.1990569 0.19271056 -0.1076937 -0.16410384 -0.420705 -0.4358563 0.05199732 -0.35318595 0.124061696 0.39311516 -0.09712782 -0.24455523 -0.037779927 -0.23305348 0.19803838 0.19679582 -0.24691138 -0.02442586 0.3456339 0.28278774 0.21470758 0.39738387 -0.1755604 0.09499379 -0.023891382 0.117738225 -0.31142053 -0.18284917 0.045501854 0.58332276 0.23152056 -0.11415476 -0.41768548 0.10526653 -0.087861255 -0.060652994 -0.29083642 -0.045787957 0.018436816 0.3629993 0.31228706 -0.017945383 0.17378613 0.4198744 0.03606937 0.06819947 0.015915247 -0.08672747 -0.02230733 0.02787676 -0.22926979 0.041904252 0.093078285 -0.29594296 -0.25659713 -0.053904846 -0.15014996 0.061430044 0.15923291 -0.18874976 0.22373883 0.18497562 -0.07311241
2088 0.20011377 -0.2596593 0.022506407 -0.04205727 0.037138063 -0.17021403 -0.20800824 -0.23168156 0.022427274 -0.06470948 0.22536145 -0.06187357 -0.017717443 -0.21062692 -0.034339257 0.1324629 -0.30236933 0.13833794 -0.30903584 0.24504273 0.17119119 0.20577972 -0.0434931 0.042563483 -0.26181015 0.25935796 -0.24440868 -0.03874128 0.10272415 -0.1524914 0.14527687 -0.12949564 0.17478913 0.14956239 -0.13978142 -0.20271936 -0.10149821 0.18476231 0.29771927 0.073989205 0.04123047 0.30377617 -0.08334991 -0.108735114 -0.23867273 0.33482328 0.4061183 -0.0958586 -0.04398147 -0.02907443 0.36984542 0.025855297 -0.082561105 0.001804026 -0.2515584 0.32137066 0.24961294 -0.04810935 -0.055664483 0.25955483 0.05810129 -0.21434404 0.050263602 0.22201973 0.0647374 -0.16558042 -0.14575735 -0.4146424 0.028737959 -0.27004954 -0.037478905 -0.11969339 -0.39410108 -0.15318619 0.21236905 -0.34855253 -0.084312744 0.10207398 -0.13601543 0.20720413 -0.30215037 -0.053171437 -0.008089246 0.03834943 0.12240877 0.12531175 0.073274575 0.02856638 0.25882554 0.5255798 0.034961272 0.07478953 -0.25951388 -0.24327302 0.29558805 -0.33226427 0.028408471 -0.10689969 0.12494357 -0.22489871 -0.33212876 0.25660503 0.08015417 0.17971808 -0.049887683 -0.02850534 -0.046687543 0.27015612 -0.3574997 -0.44162938 0.020109424 -0.5606092 0.09467575 0.03374073 -0.09019837 0.080387436 -0.24574922 0.06247422 0.0422401 -0.24222133 -0.5248335 -0.26278183 -0.2345955 0.107085176 -0.32674664 -0.14677553 -0.26785952 0.13503422
2192 -0.108277194 -0.40129986 -0.107414104 -0.1320303 0.24996245 -0.4128862 0.29588446 -0.15826166 0.024077378 0.1289466 0.3175332 -0.036358453 -0.024133768 -0.40931872 -0.08436315 -0.082383156 -0.3388078 0.03383152 -0.45359483 -0.10326445 0.16556554 -0.09282763 -0.15607582 -0.36273247 -0.057275515 0.3658279 -0.1795903 -0.045002576 -0.021665776 -0.2498202 -0.2077104 0.10042861 -0.14316984 0.16062057 0.06955293 0.19687058 0.24731183 -0.13234285 -0.4147385 -0.20093714 -0.04918787 0.43577245 -0.28156543 -0.05356001 0.40309945 -0.14872658 -0.16068895 -0.3055867 -0.08451603 -0.09120033 0.68935627 -0.0955499 0.15906042 0.02412385 -0.1208268 0.106823795 0.029285239 -0.20727015 -0.021336855 0.32461622 -0.24513738 -0.04479176 -0.014095958 0.1758008 -0.19462068 -0.013712113 -0.11426945 0.14526357 0.13036378 -0.22463785 0.20373264 -0.39765704 -0.1820828 -0.5302234 -0.34458652 -0.04694032 -0.23210272 0.29887626 0.150606 0.028600428 -0.33036295 -0.41652855 -0.025607431 0.23284724 0.020258915 0.16330571 0.20756061 -0.03121006 0.27844232 -0.4076094 -0.1206615 -0.05362082 -0.23564543 0.24272032 0.30866906 0.20594639 -0.08408401 -0.43847954 -0.08898191 -0.11059227 0.23138104 0.039077315 -0.0022575369 0.053253755 0.34137958 -0.04642979 0.12398979 0.12163946 0.1019696 -0.028369524 0.22752833 0.057068802 0.10171654 -0.023298377 -0.264248 0.04689784 0.16741069 0.0853937 0.23583837 0.11153677 -0.18560426 -0.08623529 -0.3064321 0.32905748 -0.46877465 -0.09742692 0.08724035 -0.2677887
2082 0.16053553 -0.09501201 0.011401578 0.23193337 0.32646564 0.28611034 -0.1587297 -0.15384303 -0.21307795 0.05408362 -0.028514268 -0.13268417 -0.1789827 -0.20202152 -0.47703174 0.14042832 0.14179483 0.15507382 -0.0035127536 -0.0040857866 0.08560284 0.28740638 0.13974024 -0.36543658 -0.31725642 -0.06486823 -0.27139127 -0.21836431 -0.14798474 -0.13901718 0.23332666 0.24123143 0.14502771 0.098315634 -0.024530806 0.124082975 0.22138567 0.07806562 0.05232481 -0.06954998 0.2588248 0.27132607 -0.13835898 -0.13628982 0.081212044 0.11078882 0.081013165 -0.22241701 0.026591608 0.014798595 0.26165894 0.18573679 -0.011883879 -0.074324965 -0.12814718 0.1153628 0.3193942 -0.14769286 -0.5338936 -0.09282282 -0.048117153 -0.24666493 -0.13488376 -0.1095065 0.3261647 -0.17407842 -0.15264396 -0.11453073 -0.1278296 -0.25225043 -0.10892829 -0.3424824 -0.3646807 -0.34203982 0.19559143 0.12582286 -0.09352036 0.2150232 -0.32633483 0.09115258 0.1752862 0.22968341 -0.25857383 0.32633853 -0.044293776 0.26488796 -0.1418353 -0.08176772 0.20443408 0.19806021 0.20963615 -0.23669232 -0.010339893 -0.24188013 0.24164666 -0.07717799 0.11070182 -0.13121173 -0.018165229 -0.119326495 0.07639606 -0.08582396 -0.039932642 -0.04136251 0.114593655 -0.019520558 -0.21817547 -0.105654515 0.14581272 -0.2764477 -0.20353267 -0.041884527 0.07925093 0.028164137 -0.24468094 -0.0072586494 -0.26279634 0.04993424 0.077297404 -0.15884201 -0.26452395 -0.0650063 -0.16230325 -0.08097995 -0.27183402 -0.01416812 -0.4159634 0.042550243
128 0.21742076 0.15992428 -0.058450755 0.05074691 0.30544442 0.20287816 0.061038844 0.0113910865 0.034738787 0.00994466 0.19317573 -0.2710212 0.14195791 0.11436881 -0.23240922 0.36489347 0.15975079 0.14571413 0.22871095 0.2500786 0.17869046 0.29382756 0.13731447 0.033930477 -0.65699124 -0.088845596 -0.2344942 -0.09449798 0.03870826 -0.08322469 0.2011792 -0.11529853 0.011790584 0.46054038 0.06523181 0.303251 0.39599198 -0.035183687 0.09952923 0.35124084 0.058409896 0.2733593 0.17037088 -0.10470081 0.05775538 0.1506894 0.13460344 -0.052459396 -0.10929464 -0.24848416 0.31958815 -0.086272635 -0.093851306 0.15215123 0.017381921 0.10779601 0.049591057 -0.19807236 -0.29721513 0.0717587 -0.17966525 -0.19724213 0.016452296 -0.0022170204 0.21214414 -0.2317942 -0.09882211 -0.029216612 -0.17736301 0.07200948 0.013008403 -0.5415895 -0.16769542 0.03904292 0.029337512 -0.41995344 -0.012826332 -0.14197464 -0.14980017 0.037876 -0.07100593 -0.024118653 -0.11846983 0.23358296 -0.21640293 0.13151307 -0.05874194 0.0045239436 0.31105614 -0.016819738 -0.059736814 -0.1682034 -0.18761617 -0.18369648 0.6169017 0.020173958 -0.13557056 -0.090147935 0.11764702 0.09584059 -0.431295 0.07783246 -0.46049616 0.13703324 0.028348241 -0.059610736 -0.1656599 0.32934228 0.035986334 -0.077313185 -0.3276149 -0.33781084 -0.054702926 -0.1186448 0.13488019 0.058334164 -0.22744021 0.10021213 0.31198573 0.101941 -0.076099835 -0.10819245 -0.42649904 0.44419253 -0.041727547 -0.18366142 -0.1779687 -0.15057899
19 -0.17386164 0.13002549 -0.1271433 0.00017801105 0.14921303 -0.47770435 -0.18612531 0.15666054 -0.0670095 0.12959334 -0.15479535 0.07264001 0.12068132 -0.13052855 0.15930218 0.080277525 -0.20499602 -0.00890944 -0.25727674 -0.07574653 0.10955253 -0.17022675 0.10793476 -0.68783957 -0.19898456 0.23524536 -0.11826656 -0.09019987 0.043702435 -0.2888682 0.057190977 0.44125274 0.12302421 0.08382278 -0.03245301 0.29002202 0.28588578 0.1413379 -0.34235397 -0.1211266 0.22449508 0.29415637 0.12615778 0.4566323 0.114727736 0.05001158 -0.19315505 -0.45594764 -0.06310783 0.0066805845 0.08524238 -0.16102144 -0.019207122 -0.025719658 0.13375327 0.21462847 0.14936244 0.060296755 0.01356057 -0.21724568 0.10600805 -0.14539836 -0.24073295 0.06373557 0.23276173 0.06518455 0.0877406 -0.43478003 -0.2880188 -0.4931268 -0.16487293 -0.64080554 -0.33697888 -0.2908071 0.16158181 0.045488738 -0.15617624 -0.1507905 0.19657058 0.50028336 -0.10714179 -0.06797052 0.08432858 0.33395028 0.27006838 0.5379762 -0.014792035 -0.30069426 0.2347487 -0.4142834 -0.51437473 -0.22022371 0.107937515 0.19360507 -0.07516957 0.52967364 0.11636684 -0.078632295 0.12707277 -0.0028320474 -0.27975935 0.11758801 0.22040392 -0.1447128 0.19739564 -0.07403682 0.31135696 -0.024788514 -0.31682587 0.036635462 -0.029342802 0.13206317 -0.1454766 0.18065046 0.06687574 -0.1149558 0.28752458 -0.35102737 0.08953546 0.0019443111 0.02511769 -0.10677221 -0.1767664 0.24788313 -0.13956176 -0.031851634 0.10505488 0.010320738
704 0.029830417 0.18797542 0.056139216 0.09424768 0.18040992 0.2033997 -0.031230101 0.078855954 0.24178003 0.33621573 0.23099299 0.14962597 0.08376486 -0.300267 0.0032582532 0.098171905 -0.012189799 0.082890995 -0.38137418 0.0867215 0.20262176 -0.06204744 0.014644294 -0.21775603 -0.3631522 0.0974839 -0.22271591 -0.1608163 -0.071779944 -0.09796846 0.003198488 -0.1345587 -0.019454213 -0.19996986 0.18372267 0.2236828 0.15259391 0.032108255 -0.07117844 -0.0863542 0.029689433 0.38027436 -0.013397043 -0.19287111 -0.21244033 0.1569556 0.019244831 -0.051471144 -0.13917276 -0.18947482 0.35226595 0.34227878 -0.08924597 -0.14526162 -0.20060143 0.15572563 0.2600234 -0.09979234 0.03408312 0.21695954 -0.18109474 -0.01461343 -0.67964417 0.26321533 0.4512269 0.1759199 0.084677294 -0.27069613 -0.11733329 -0.09537986 -0.42747426 -0.44843945 -0.167897 -0.2649918 0.2463715 -0.39758897 -0.03121357 0.12292656 -0.113499455 -0.023106655 0.028954275 -0.20219117 0.07562652 0.49533194 0.21297666 0.32536402 -0.1081054 -0.21473813 0.11266155 0.36296058 0.19793114 -0.30201733 -0.14164717 -0.3404918 0.18107018 -0.19888766 0.13073362 -0.050712053 0.39865446 -0.11793716 -0.36127245 0.071679786 -0.32461682 -0.034664623 0.18505128 -0.13223927 -0.11368425 0.03451117 -0.14094369 0.06122469 0.060269117 -0.13697766 0.21516481 -0.060081996 -0.047764692 -0.082750455 -0.13995565 0.050684296 0.09261659 -0.008727348 0.11153668 -0.36377168 0.24964905 0.038144972 -0.34347853 0.14934565 -0.5271234 -0.036626883
197 0.2560134 0.076369196 -0.25345996 0.18274678 0.0942406 0.20304488 -0.18711747 -0.1265727 -0.031054875 0.06618532 0.2018947 -0.037275292 -0.1591134 0.103385605 -0.00053479726 0.19551972 -0.25809675 0.03988026 -0.071828976 0.10732805 0.17507364 0.10321172 -0.07307842 -0.07702533 -0.2374841 0.18579648 -0.042852473 -0.42591828 -0.005655244 -0.022120932 -0.13057603 -0.022636732 0.13620678 0.19596075 -0.066219874 0.23199324 0.28254578 -0.21040219 0.049322225 0.022117082 -0.2332741 0.17508243 0.034627747 -0.20465766 -0.05019605 0.0845734 -0.027780201 -0.3549401 -0.38974717 0.08494587 0.43987852 -0.21014959 -0.44951203 0.022387356 -0.39271572 0.28542364 0.2510564 -0.047983818 -0.107050754 0.2803378 -0.095219776 -0.21478902 -0.0023745743 -0.3204243 0.37828118 0.09410527 0.19247599 -0.26830852 0.09332752 -0.30615002 -0.022076668 0.08252415 -0.41595837 -0.13464195 -0.015954154 -0.03973403 -0.07430429 0.39737347 -0.46006677 0.13549945 0.08761536 -0.2054153 -0.21491559 0.33794683 0.25645077 0.1345901 -0.16494532 -0.028673239 0.13757011 0.2885046 -0.4784774 0.07086645 -0.118727274 -0.22348584 0.31485695 -0.19867887 -0.12958463 0.021865724 0.18812005 -0.2020438 -0.166509 -0.06408423 -0.07781209 -0.16246375 -0.07300421 -0.15833378 -0.07033518 0.07028308 -0.2917219 -0.220818 0.020114549 -0.5217506 -0.06819403 0.1925126 0.22761172 0.21242017 -0.1415538 0.23685451 0.31105712 0.11970418 -0.1362588 -0.11820592 -0.27177072 0.23828645 -0.18967433 -0.04977829 -0.30174437 0.07415165
731 0.044560004 -0.3450634 -0.35083577 0.3482706 0.102007136 -0.23142995 0.054402936 -0.17372462 0.25172496 0.16457678 0.36833155 0.027693821 0.06391381 0.11235764 0.19171596 0.06068345 0.037700403 0.11686349 -0.26601824 0.19217803 -0.09120567 0.30272558 -0.23393713 -0.3295026 -0.50988114 0.035386022 -0.09144214 -0.053233385 -0.008754897 -0.10866695 0.047388744 -0.077325754 0.117114134 0.07265603 0.037502844 0.158577 0.360814 0.016388938 -0.31665304 0.119449586 0.15026742 0.049854584 0.121683 0.039784517 0.31460053 0.29200643 -0.10658935 0.17409459 -0.16614912 0.002849655 0.09765626 0.22942768 0.06695392 -0.11462904 -0.06614891 -0.20936069 -0.23819555 0.12431912 -0.24109752 0.0022092105 -0.32924902 -0.2085377 -0.019792974 0.13605955 0.05620758 -0.12332256 0.18879576 -0.34248722 -0.03662221 -0.2462349 -0.060636587 0.055889834 -0.15409426 0.0030965374 0.44175363 -0.076008745 -0.062499784 0.16315082 -0.5531619 -0.042675894 -0.058074087 -0.009847788 0.2530672 0.21468066 0.17186253 0.20575815 0.2817268 -0.22866978 0.1444207 0.057711627 0.0235087 -0.11708885 -0.25752276 0.20767933 0.47855166 0.13071872 0.15894105 -0.05472708 -0.16942288 -0.19016492 0.06803438 -0.5226433 0.3420612 0.23631056 0.06420751 0.25315958 -0.021606471 0.47051233 0.16844162 -0.0017633764 -0.016175743 0.29496998 0.18638459 0.22576253 -0.040006064 -0.053319663 -0.055611182 0.09116765 0.32629445 -0.11407581 0.085430495 0.1869595 0.0039931634 0.23368086 -0.11023333 -0.1482365 0.21284497 -0.023655823
1232 0.5887873 -0.5805783 0.0076521416 0.16568139 0.17849234 0.13972165 -0.2756788 0.07843148 0.12668338 0.24075036 0.15902406 -0.010507297 -0.048433542 0.012957534 -0.108058095 -0.051136643 0.19431399 0.06564693 -0.3377681 0.13159874 0.4917603 0.23333399 -0.5110636 -0.57563144 -0.45776093 -0.11414232 -0.21387358 -0.3286949 -0.21835198 0.03325099 -0.016943168 0.021464115 0.3293437 0.07723767 -0.2070421 -0.12004772 0.110895835 -0.01693914 0.0028468631 -0.4038488 -0.12297161 -0.23896237 0.057308823 0.07561377 0.11477613 0.0408828 -0.40235084 0.004476657 0.03434545 -0.11218749 0.028722491 -0.06952723 0.022390675 -0.28332475 -0.08841179 0.25580296 0.0058540558 0.118861124 -0.0665293 -0.020485716 -0.2959912 -0.20188147 -0.15071552 0.080017395 0.22028466 -0.13941452 -0.33455148 -0.30986506 0.2390205 -0.19410443 0.045094546 -0.1372353 -0.28460187 -0.22723715 0.26160872 -0.22653808 -0.23680356 0.0675625 -0.18893561 0.042600088 -0.17499955 -0.034170467 0.008328633 0.36345705 0.16327855 0.1557147 0.29937738 0.25594184 -0.29899016 0.03068595 0.026760522 0.09801228 -0.19871296 0.3522225 0.16344848 -0.020262025 0.20676841 -0.025746688 -0.00027437432 0.124987476 -0.44902322 -0.15422805 -0.12036 -0.20545493 0.04527263 0.013024792 -0.21439299 0.012558537 -0.031069402 -0.018374184 -0.14569937 -0.12196572 0.3637371 0.05871142 -0.17349058 -0.29055592 0.01823396 0.07580057 0.001681387 0.5100264 0.10872086 -0.4546007 -0.15793285 0.20632805 -0.121859014 0.16779414 -0.3312315 0.10682914
1542 -0.031087093 -0.24489784 -0.64388454 0.2133366 0.39798725 -0.3845117 -0.2620326 0.101585604 -0.060103033 0.23278764 -0.011126348 0.059769757 -0.30205265 -0.10940184 -0.1712765 0.14776614 0.07163522 0.1392486 -0.27006173 0.14342266 0.09468279 0.056429934 0.1790707 -0.1715918 0.19989283 0.38406432 -0.3798611 0.07049667 0.15810867 -0.34653273 -0.049579736 0.15125862 -0.1950096 0.16186196 -0.235164 0.316463 0.40041563 -0.008596892 -0.008022661 0.1558364 0.20878512 -0.0023153087 0.03613598 0.072477125 -0.2102184 -0.29306564 -0.3017274 -0.30068251 -0.32093915 -0.11201645 -0.03902863 -0.32806283 0.13958661 -0.0027478132 0.04415324 0.047046613 -0.014115695 -0.26000342 -0.12520324 -0.14975385 -0.0003378687 0.06904677 0.1850404 0.15405719 0.26216504 -0.3651216 0.2654833 -0.0275826 -0.3012095 -0.3215877 0.23626238 -0.20137694 0.03383485 -0.41781306 0.11503473 -0.046499453 -0.25600183 0.25813136 -0.20308223 0.2902375 -0.16196817 -0.16744457 -0.15013368 -0.33420137 0.21424071 0.3080628 0.07932777 -0.073891014 0.43244123 0.22496645 -0.051130146 -0.0022521017 -0.0429756 -0.02297169 0.38760445 0.021690153 0.21241 -0.18823718 -0.04530177 0.35117897 -0.030911978 -0.20854628 -0.23444115 -0.31287837 0.26252526 0.019650767 0.11796743 0.38010627 -0.095111445 0.18132146 -0.40290937 -0.13077892 0.44011617 0.076851085 0.14351532 -0.3343357 0.1321016 -0.23400694 -0.016359426 -0.073585495 0.01766125 -0.39175555 -0.2576008 0.421931 -0.20824067 0.04818867 -0.07398851 0.049235623
1303 -0.07910458 -0.107397676 -0.3727943 0.018400252 0.53906864 -0.04311943 0.38987628 0.09571398 0.07280702 0.03664887 0.08124649 0.11557742 0.35198176 -0.33366555 0.18904091 0.23479559 -0.13328227 0.054482087 -0.76558495 -0.005096374 -0.15054923 0.11021275 -0.12643622 -0.37626025 -0.35533202 0.14115492 -0.025358824 0.121994615 0.2680549 0.18929112 0.043917663 0.5523113 -0.39795402 0.03334754 -0.19231185 -0.123071596 0.22005562 0.419997 -0.36977676 -0.1437922 0.29426044 0.030151857 -0.015557846 0.18429719 0.013777647 -0.05827345 -0.009211903 -0.3304374 0.18902223 -0.33615083 0.5194067 -0.17571056 -0.066536196 0.045891937 0.09090504 -0.18557158 0.20739913 -0.326878 -0.46421677 -0.11110343 -0.080287896 -0.1685581 0.065070905 -0.21211922 0.012438099 0.03724983 -0.0070551154 -0.018718932 -0.12486762 -0.00822979 0.15442885 0.21203268 -0.2364393 -0.22510448 0.0946726 -0.4077642 -0.0101797255 -0.22600861 0.09031373 0.15779963 0.29509336 -0.30837888 -0.2804154 0.4245078 0.1656766 0.3330917 0.42785496 -0.034881916 0.35536763 0.013889935 0.0019001502 -0.009082445 0.4258108 0.071418144 0.4143866 0.12363297 0.05480895 -0.41980448 0.15807348 0.21863581 0.004717877 -0.09097045 0.18292254 -0.10823341 0.14012125 0.07647549 0.019203419 -0.031062238 0.3036181 0.19947058 0.1400344 -0.033042867 0.28632995 0.26808763 0.17328994 0.12965374 0.0048178425 0.026609449 0.17256008 -0.030617943 -0.27504495 -0.20987038 -0.12425101 0.16206367 0.088321626 -0.25321877 0.19266112 -0.15374243
652 0.4054963 -0.18422818 0.04822171 0.4282159 0.37026674 -0.043803714 -0.18180293 0.030488865 0.2669643 -0.03568879 -0.119535126 -0.053770836 -0.33427602 -0.30678287 -0.0134507315 0.25658152 -0.23839532 0.06833832 -0.24409969 -0.028423594 0.30623245 0.16047022 -0.30594924 -0.20190604 -0.3054272 0.16173618 -0.14396389 -0.27389082 -0.009692626 -0.20686619 -0.23066992 -0.24300493 -0.14087448 0.042396512 -0.20461707 0.47729987 0.094110124 -0.047195915 -0.122445315 0.28274155 -0.14972457 0.12817681 0.12973844 -0.20458432 0.14116408 0.4047932 -0.14718969 0.025014583 0.2579322 -0.22958624 0.17458491 -0.16900681 0.222578 -0.09203876 -0.1921107 -0.09015646 0.25429288 -0.41671747 -0.3038626 -0.058262043 0.031911984 0.35584417 0.00841924 0.23805697 0.35816014 0.30222076 0.16203344 -0.05344062 0.5819743 -0.37972763 0.34433654 -0.0035147574 -0.516977 -0.18906914 0.46850708 -0.036818903 -0.13833492 0.13634987 -0.18699743 -0.023885222 0.069348745 -0.3578433 -0.030736351 0.35936663 -0.24764322 0.3036586 0.13741845 0.15881191 0.09632058 -0.07170152 -0.2737086 0.3294767 0.100421086 0.11449407 0.06321185 0.05999885 -0.03186656 -0.08032296 0.26088077 0.23717387 -0.31776893 0.037252247 0.030988846 0.17901146 0.39473727 -0.2537577 -0.14992441 -0.022752538 0.09109363 0.15862155 -0.061007697 -0.072982505 -0.23081024 0.11069968 -0.15722327 -0.34641266 0.30313635 -0.06689322 0.28732216 -0.3499257 0.17131917 0.08014638 -0.074837506 0.21623766 0.47301137 -0.20531291 -0.2321499 0.12786579
921 0.015922178 0.027940875 -0.075414814 0.11475712 0.289716 0.13644916 -0.23400109 -0.24471873 0.017980717 0.3956759 0.051645957 -0.36844444 0.019510875 0.08361702 -0.12218622 0.25820848 -0.088479005 -0.076725364 -0.27485582 0.346288 0.1360005 0.35979006 0.09043006 0.13449752 -0.3044462 -0.013678974 -0.22394904 -0.33514765 0.14984703 -0.09608595 -0.22496532 -0.16432267 -0.012840743 0.1092457 0.068553284 0.38426614 0.32438552 0.08717325 -0.15722574 0.04186816 -0.033670932 -0.043995194 -0.07964402 -0.19332685 -0.100002296 0.12276224 -0.16417688 -0.08140612 0.07753612 -0.24846116 0.18598332 0.29580423 -0.1136567 0.002038194 -0.3183601 0.20769028 0.16336554 0.2970481 -0.020307261 -0.043176632 -0.21903537 -0.08846645 -0.049535215 -0.045632053 0.6623088 0.003480768 -0.086528696 -0.3200482 -0.011750122 -0.025020147 0.05598634 -0.51045716 -0.4490767 -0.05383393 -0.024274863 -0.2534255 -0.17695932 -0.0699318 -0.4506804 0.027391354 -0.034387916 -0.04020786 -0.15291 0.08428766 0.20007814 0.22206171 -0.12981282 -0.07555933 0.17452942 0.0049999594 0.17758743 0.012208396 -0.06511545 -0.117549345 0.43054983 -0.3542469 -0.01775407 -0.11272765 0.1813239 -0.070996426 -0.3651767 -0.0085557075 -0.26900715 0.13896634 -0.061075732 -0.030164562 -0.026146317 0.06222745 -0.13666657 -0.07697933 0.08779597 -0.41251945 0.065041594 0.1449648 -0.05550343 -0.074224696 0.0063217073 0.44584712 0.12856452 0.055971704 -0.13319387 -0.07274105 -0.11698663 0.028245887 -0.27955458 -0.05965911 -0.46844438 0.10195211
80 0.20549165 -0.27584454 0.012421514 0.3391099 0.10524929 -0.050198797 -0.16034319 0.21478552 0.10319946 -0.22040828 -0.13491467 -0.14727564 -0.5010488 0.44281626 0.11565997 0.17383145 -0.26444283 -0.0024955887 -0.16193265 -0.13910116 0.09759807 -0.11961121 -0.26801237 -0.1353621 -0.18742855 -0.3302924 -0.020133097 0.09490596 0.39443436 0.03063594 0.08450665 0.07801692 0.1000392 0.35363558 0.084879704 0.10974557 0.01520523 0.4149807 -0.30480975 0.07868218 -0.48599356 0.5110515 0.05315581 -0.14138019 -0.0026227324 0.11197299 0.09756787 -0.34604734 -0.16817392 0.13126943 0.30927128 -0.31887835 0.27050766 0.03451097 0.2687365 0.047284395 0.07082889 0.22090653 -0.31593695 -0.08225291 0.045655 -0.02739742 0.29556313 0.051593408 0.16233543 0.13315736 -0.11512284 -0.2840007 -0.10517544 -0.48538968 0.16054729 0.012383202 -0.5770482 -0.13865684 -0.15925007 -0.26296112 0.08123953 0.092089206 -0.2604444 0.15056509 0.18952404 -0.33336508 -0.0980324 0.1778285 0.19948487 -0.077731654 0.51362216 -0.15278842 -0.06358361 -0.019857598 0.09043621 -0.22817537 -0.4278568 0.09929496 0.14037496 0.09040174 -0.05223532 -0.38620496 0.19301915 -0.31226724 -0.3209225 -0.104799956 -0.27700642 0.24205938 -0.20073809 0.12222126 0.08111852 0.3497353 0.12394003 -0.09632859 0.13597253 -0.07475819 0.18087092 0.15569702 -0.33268186 -0.38742885 0.13293967 -0.41576457 0.4016144 0.21327735 -0.10042288 -0.21775045 0.05342544 -0.16706331 0.06035084 -0.43280923 0.062254656 -0.22526103
1129 0.15224905 -0.17611103 -0.13391301 0.39597756 0.18232164 -0.15122469 0.40487805 -0.037094917 0.022548057 0.032634392 -0.10915071 0.28348905 -0.10730367 0.08527202 0.36223847 -0.19611312 0.12816004 0.0028209616 -0.16707306 -0.23191422 0.11379276 -0.0018769213 -0.41876096 -0.29348153 -0.42188913 -0.05144672 -0.038774338 0.4005033 0.024937717 -0.35415542 0.2826236 0.151315 -0.078234956 -0.08621902 0.04757114 -0.021953752 0.28002286 0.04044486 -0.22940364 0.2481102 -0.097763345 0.4743096 0.039482903 -0.23259254 0.21800372 0.20767985 -0.13095869 0.22505233 0.041024946 0.24717462 0.10507688 -0.18432553 0.35985127 0.08604465 -0.560376 0.18536203 -0.332558 0.0014954181 -0.20345084 0.3221707 0.16062976 -0.09956353 -0.17647682 0.07076184 0.38486513 -0.07222027 -0.0534609 -0.39782125 -0.17211272 -0.31087303 -0.042807277 -0.25201187 -0.23991959 -0.3496006 -0.17223062 -0.12836817 -0.44284782 0.357998 -0.09388067 0.15266906 -0.01449576 0.24019031 0.1959476 0.3162017 -0.119958065 0.15035833 0.09177031 -0.24206755 0.3384245 0.03325983 -0.18047851 -0.3034767 -0.037159756 0.21183361 0.21572065 0.13281476 0.15196636 -0.11058101 -0.113754086 0.17739321 -0.28938472 -0.10630201 -0.063302465 0.13759935 -0.368323 -0.05228806 -0.020214586 0.22506262 0.092902236 0.29185316 0.05742018 -0.054498952 0.13684045 -0.036589578 0.109755956 0.016783202 -0.18682124 -0.18256019 -0.052324552 -0.048105665 -0.20626561 -0.10289571 -0.03946398 0.25159106 -0.02061605 0.15966235 0.036726996 -0.21126431
87 0.07563436 -0.107011035 -0.2777049 0.091343865 0.3146667 -0.06748659 -0.1874539 0.29702377 -0.09424065 0.41051918 0.28422686 0.023756241 -0.2941235 -0.40981475 0.115035385 0.26403916 0.16732116 0.44134733 -0.36441958 -0.015524578 -0.043429017 0.43305722 -0.3106398 -0.18132272 -0.09603387 0.03549133 -0.21275368 -0.06489683 -0.1211603 -0.22024882 0.15202092 0.16083448 0.06787938 0.3216011 -0.09185166 0.22943106 0.111037225 0.1800835 0.32150418 -0.013369275 -0.10354474 -0.23163405 0.048471488 -0.19451256 0.03918447 0.28606743 0.1024416 -0.16530363 -0.17860727 0.0812049 -0.015646031 0.44576558 0.14410648 0.20525727 0.13393204 -0.2677391 0.52369815 0.19832858 -0.17722982 0.4853218 0.122350715 0.074037544 0.0005630114 -0.25176525 0.4976081 -0.016834276 -0.018127615 0.04786437 -0.1940833 -0.28876427 0.055105302 -0.23118941 -0.12018102 -0.4113255 -0.19608913 -0.13316882 -0.3983184 0.028067503 0.09931442 0.21341495 -0.0814077 0.037360948 -0.13078861 0.46021196 0.021574205 0.19206351 0.21380787 -0.50815296 -0.2501275 -0.38291702 -0.10304285 -0.13357697 0.3811924 -0.18505602 -0.01846573 0.36094528 -0.1521707 -0.18671383 0.017127212 -0.029397685 -0.2248122 -0.58513784 0.31852564 0.20373581 -0.07921739 -0.1696421 0.02937652 0.25061023 -0.03744168 -0.018792575 -0.32826257 0.14483352 -0.06929969 0.23804116 -0.12821348 -0.30814976 0.1196724 -0.033794258 -0.14212492 0.17705233 -0.19626884 -0.6497655 -0.036714043 -0.028185997 -0.0128826555 -0.30680797 0.4215019 0.25132552
109 0.18848696 0.26504514 0.1409754 -0.33539188 0.18479368 0.16660272 0.021763762 0.097960845 0.15260425 0.05269885 0.3210546 0.0013059231 0.10284249 -0.2607275 0.061781466 -0.017629655 -0.1791807 0.3130058 -0.13874567 0.5427703 0.34044313 0.25729826 0.122070335 0.18602477 -0.36481354 0.028464012 -0.3582748 -0.12996931 0.17336614 -0.14332695 0.15836622 0.022489475 0.31495845 0.17456092 -0.20465772 -0.05271092 0.104486406 0.2574486 -0.2835754 0.053304583 -0.08825279 -0.19168423 -0.27628037 -0.13270546 -0.15196668 0.23794845 -0.32761398 -0.0734653 0.17766345 -0.21454315 0.41901237 -0.13445367 -0.043847617 0.3154638 -0.15912779 0.21800105 0.061231755 0.045646913 -0.15638411 -0.19794671 -0.055497706 -0.10489031 -0.059643634 -0.04087873 0.47829965 0.16048712 -0.41944832 -0.20428093 0.06263609 -0.14101532 -0.14641921 -0.1199721 -0.06598869 -0.23485066 -0.13158129 -0.33316532 -0.03481976 -0.15836315 -0.58124095 0.16906963 0.021653501 0.2778453 -0.22809435 0.48630062 0.07827768 0.29656947 -0.0502205 -0.096733235 0.072272815 0.123034194 -0.36968443 -0.33108652 -0.14079739 -0.22011332 0.13584042 0.0040200776 -0.17583308 0.108287245 -0.077618025 -0.061046448 -0.33275157 -0.3434419 -0.1237431 -0.05021922 0.01082142 -0.37422907 -0.1830542 0.20268539 -0.032123778 -0.09174612 0.12879804 -0.1673253 0.063820936 -0.042900372 -0.5074519 -0.2751665 0.03606169 -0.0014809311 -0.15623198 -0.2946835 -0.3736677 0.008092271 -0.26620317 0.1524185 -0.12227922 0.18320778 -0.29957065 0.18202755
2287 0.07499676 -0.21907221 0.26186505 0.32882804 0.32784808 0.02102967 0.54141057 -0.45867953 -0.37610465 0.0066546276 -0.027192205 -0.31539628 0.058358762 0.087779015 -0.13181724 0.3146774 -0.45986703 0.14887162 -0.5106242 -0.14845085 0.09766737 -0.10820567 -0.12948604 -0.5291605 -0.30794233 0.10090758 -0.13907145 0.111320406 0.2397293 -0.11240787 -0.044061862 0.054698575 -0.121962585 0.38977915 -0.11477071 0.13306688 -0.2230284 0.2425991 -0.22214039 -0.09567586 -0.20798722 0.29276666 -0.11078569 0.06711937 0.082513206 -0.009298831 0.039196085 -0.32617602 -0.29811874 0.023471262 -0.21176223 0.11177144 0.065955654 0.07886761 -0.017685682 0.4208907 0.07039476 -0.10291427 0.02303312 0.09103316 -0.06389712 0.085421816 -0.043375444 0.030499069 0.1138413 -0.5177909 -0.037525218 -0.08251366 -0.26085147 0.054635894 -0.10702918 -0.14688314 -0.23384257 0.093751244 0.15361525 -0.07102604 -0.63448936 -0.015123476 -0.625068 0.32268602 -0.022379395 -0.081641726 -0.035936836 0.18859735 0.10241032 0.20572579 0.050777406 -0.29996413 0.18611984 0.11683919 -0.10528014 -0.078903764 -0.040016968 -0.1557173 0.20262147 0.06771785 -0.034064204 -0.23514077 -0.2828769 -0.34585902 -0.3706924 -0.20083539 -0.22616985 -0.26678324 -0.0553919 0.23370911 -0.13995437 -0.09928552 -0.05314405 0.12952504 0.019533603 -0.10739022 -0.11093011 0.3967793 -0.17115028 -0.2401495 -0.017253531 0.15538225 0.09791751 0.13315824 -0.05422261 0.20441313 -0.08203823 0.3146812 0.12163378 -0.018052524 -0.12113829 0.49493802
609 0.22871181 -0.17448755 -0.011459829 -0.057251796 0.42793864 0.21333867 -0.010028056 -0.24507365 0.04632255 0.26396284 0.28997847 0.096437484 -0.004887535 0.11682483 0.30106685 -0.14125216 0.2890965 -0.19718267 -0.038925618 -0.024657521 -0.0009902433 0.17736173 -0.29568818 -0.17567025 -0.48052773 0.086583205 -0.2727273 -0.55432194 0.20237531 -0.4257115 0.18151547 0.19688787 0.05118982 0.3268581 -0.053949922 0.20708346 -0.02339784 0.05187638 -0.31035697 0.3219959 -0.001924982 0.015310364 -0.06913813 -0.26930702 -0.19087872 -0.08045752 0.024216283 -0.108656205 -0.11307723 0.105391555 0.22700563 -0.084911145 -0.15229361 -0.06585015 -0.21756117 0.35894546 -0.009278128 -0.111552685 -0.13132182 -0.28017774 -0.04074198 -0.0044878395 -0.10914932 -0.036597516 0.27507302 -0.016580677 -0.14570849 0.07821167 -0.1468344 -0.07404258 -0.35290357 -0.222571 -0.44972563 -0.39310345 -0.04654402 -0.16165334 -0.21295474 0.00057222194 -0.47501862 0.19037586 0.46865562 0.04716297 0.022471398 0.16593586 0.17670982 0.061996814 -0.5287413 -0.10816352 0.011674392 0.21533868 -0.29961723 -0.050674513 0.052076835 -0.35569665 0.3059527 0.30896473 0.21860334 -0.3369838 0.058846287 -0.0054660873 0.069422774 -0.022979299 0.036065593 0.18818232 0.23438145 -0.27849907 0.03934333 0.21138208 -0.010536315 -0.19846734 -0.04342514 0.025460053 0.038961574 0.3091427 0.07946925 0.0017585156 0.07611286 0.07702312 0.50652474 0.1186296 -0.018768512 -0.085951574 -0.11500467 0.12792987 0.036573824 -0.03528214 -0.44141406 -0.09837354
2073 0.40530992 -0.053130824 -0.10666572 0.508526 0.30804747 0.16218305 0.098764725 0.126616 0.2062284 -0.27888066 0.1090695 -0.34863377 0.13860346 0.38467488 0.2849963 0.31019732 -0.21277529 -0.3139469 -0.28157616 -0.19366997 0.27152032 0.03038499 -0.3393919 -0.32079694 -0.34252837 0.19067992 0.04849959 0.15548708 -0.26086777 -0.25623485 -0.33413762 -0.023698125 0.405111 0.62689054 -0.0028784364 -0.28821045 0.06399471 0.046631657 -0.039401624 -0.17216733 -0.006109136 -0.119782574 -0.20109686 0.034535553 0.11344078 -0.10847869 -0.33396876 0.1708947 -0.25557074 -0.16205344 -0.082279965 0.07200375 0.15848018 0.017150309 -0.36493742 -0.0119508095 0.0048089544 -0.007760772 0.07368212 0.054463837 -0.1299752 -0.036567565 0.07226505 -0.012360949 0.042988773 -0.0722179 -0.07294963 -0.18067645 -0.29090467 -0.23577167 0.057607047 0.057768404 -0.32199156 -0.19473675 0.14839445 -0.18474397 -0.1510215 0.0593148 -0.21463262 0.08943429 -0.22778302 -0.45983213 0.095307775 0.65255857 -0.31735823 0.31555572 0.51519674 -0.09935055 -0.09574392 -0.40728828 -0.094821446 -0.47571048 -0.3494143 0.031623267 0.18252002 0.2008984 0.13980742 -0.2253366 0.2679861 -0.14693971 -0.026327062 -0.30938002 -0.2620444 -0.06798821 0.014743781 -0.07623431 0.0590358 0.41208 0.12455839 0.184819 0.013058325 0.13186812 -0.076512836 -0.05877343 -0.21247393 -0.1791728 0.07905547 -0.17812207 0.11464132 0.06652337 -0.21988092 0.2147299 -0.022686603 -0.067290284 -0.1923402 -0.082717866 -0.10888186 -0.042121507
25 -0.0033915099 -0.25554663 0.13168134 0.31843728 0.15521818 -0.11553626 -0.018647365 -0.08006245 -0.28125304 -0.21730936 0.01327856 -0.41559306 -0.032351203 0.030837173 0.24256444 0.14097261 -0.18362105 -0.26079407 -0.10179935 0.11336515 0.14164837 0.25043705 -0.5112162 -0.46614185 -0.2510545 0.018081365 0.045249794 0.55219847 -0.06600139 -0.24201453 -0.015228122 -0.027283985 0.12168136 0.35751078 0.027210344 0.1390771 0.09228491 0.12720753 -0.06495683 0.025030896 -0.10456142 0.38921016 -0.17707402 -0.17961963 0.35669306 0.1496669 -0.17480235 0.11470389 -0.056618463 -0.04263246 -0.11105357 0.23698631 0.105765834 -0.54740876 0.047167506 0.72274756 -0.11710244 0.0071238386 -0.15969613 0.029398426 -0.21392173 -0.09054481 0.08570781 0.058751285 0.3008364 0.03515994 0.16143043 -0.5209667 0.13457625 -0.21279046 0.108964406 -0.17915292 -0.020782795 -0.18912706 0.06807399 -0.13532013 -0.22309831 0.020463003 -0.20020418 0.15930827 0.31380656 -0.04222363 0.11526696 0.40021372 -0.22382702 0.15906438 0.39354578 0.031993974 0.30783424 -0.01752468 0.13815302 -0.24152353 0.092256464 -0.027593672 0.076450534 0.539557 0.12919164 -0.1795512 0.019339995 -0.2075592 -0.07541332 -0.37064055 0.20818779 -0.11641116 -0.14061701 0.3872126 0.11799591 0.13622934 0.10404962 0.17486914 -0.0816144 -0.015593451 0.21429914 0.2767972 -0.27537662 -0.20285614 0.34267166 -0.374661 0.30565643 -0.10581821 -0.19937414 -0.06425639 -0.1655739 -0.053691614 -0.009861345 0.24233823 -0.023730384 0.164836
1109 0.23698252 -0.033420812 0.22732805 0.14631559 0.093422726 0.3276363 0.09199414 -0.07956448 -0.057249356 0.0029248765 -0.010302532 0.2894715 -0.08453467 0.15545383 0.0141905155 0.06560742 0.1834498 -0.1034587 -0.004230956 0.3236235 0.13115677 0.3718346 0.00078788004 -0.033625085 -0.6015684 0.25346753 -0.45831126 -0.1892722 0.039117053 -0.048887655 0.1910104 0.037056465 0.15732405 0.057198003 -0.15616637 -0.0340791 0.3003044 -0.0015339354 -0.02277828 -0.18090585 0.20544125 -0.06924676 0.34496558 0.0130411405 0.09734812 0.36876604 0.18696046 -0.025341092 -0.06565982 0.058294017 0.26169983 0.06467794 -0.014076573 -0.016695041 -0.12073068 0.17580767 0.5775419 0.198778 -0.2304343 -0.031459417 -0.20564288 -0.3495996 -0.28777567 0.1235575 0.3934704 -0.101904765 0.15847729 0.13086823 -0.05894624 -0.32360098 -0.1367451 -0.41289678 -0.3012506 -0.20024133 0.31044823 -0.13023713 -0.22169904 -0.26079762 -0.098273285 -0.11258889 0.3069323 -0.23693576 -0.22852261 0.11043407 0.1374717 0.328487 -0.14284989 0.23480277 0.05707284 0.43082517 0.10048846 -0.1473672 -0.0152333155 -0.067586735 0.30665377 -0.23954745 -0.078040466 -0.07382263 0.27279752 -0.28892952 -0.37936613 -0.07769912 -0.065215826 0.008117409 -0.2637452 -0.13187382 -0.30898893 0.24873523 0.08646169 0.05081379 -0.07066189 -0.3679493 -0.10757558 0.19330968 -0.1990105 -0.092732444 0.101115376 0.21591662 0.12694952 0.2490996 -0.33604562 -0.06931075 0.065513164 0.26565093 -0.12913768 -0.4147113 -0.41631758 -0.12294746
1435 0.2994996 -0.3531614 0.043374166 -0.07663646 0.11083501 -0.039775852 0.04718223 0.2719346 0.09243737 -0.26793796 0.23273914 0.24662818 -0.102894016 -0.23418751 -0.09951766 0.16546103 -0.10397974 0.13919829 -0.30584666 0.18005198 0.281692 0.16298486 0.018836593 -0.41408712 -0.5015911 0.11753283 -0.11110063 0.243854 0.16258754 -0.13533899 0.0404771 -0.088348575 0.01554064 0.22244196 -0.10419241 0.1303714 0.13959216 0.014028244 -0.22059804 0.28576896 0.26135734 -0.37664226 -0.23543511 -0.38316965 0.19807044 0.034138188 -0.19480154 -0.32126093 -0.31143302 0.08365937 0.1645133 -0.08665285 0.14187403 0.20368521 -0.100084916 0.08948671 -0.19306052 -0.01466149 -0.26561612 0.06352749 0.18484218 -0.18961483 -0.1803628 0.23216227 0.2697859 -0.34073943 0.5219222 -0.17911609 -0.3645836 -0.2637081 0.057944708 -0.19834211 0.08053039 -0.2972586 0.09294043 -0.20844664 -0.35795897 -0.09006383 -0.5373253 -0.25498962 0.2449577 -0.1918418 0.20881337 0.23314805 0.23565285 0.21486463 -0.09020475 0.13882107 0.1953195 0.12600617 0.09983237 -0.21937095 0.14504825 -0.12438574 0.21772543 -0.036218945 0.22960375 -0.02417235 0.12197406 -0.44340077 0.12136514 -0.008295876 -0.015392652 0.35941333 0.04255869 -0.15854521 -0.024356581 -0.02114165 -0.36114064 -0.3946188 -0.1588968 0.09766409 -0.32425737 0.19924544 -0.37600005 -0.08663979 -0.08246831 0.12378818 0.013207094 0.24166596 0.041051447 0.013260615 0.18324584 0.20875715 -0.17644064 -0.034622297 0.15624762 -0.3145485
1620 0.26097137 0.16926563 0.103433944 0.15810296 0.2849506 -0.31978065 -0.15369375 0.31175175 -0.20478536 0.11122075 -0.006630221 -0.3566083 -0.50035655 -0.28748596 0.35789743 0.22054061 0.18659246 -0.030497167 -0.38037705 0.56733245 -0.06897258 -0.013138381 -0.45632786 0.12948202 -0.39535874 -0.1757111 -0.081773974 0.5245385 -0.109102 -0.2865278 0.04361517 -0.15607892 0.058993887 0.046090685 0.24420902 0.3350041 -0.14195243 -0.22179018 -0.019261526 -0.06610713 0.04057991 0.18370505 -0.14126539 0.0960029 -0.31919897 -0.23096643 0.25398985 0.027718335 -0.17557298 -0.092749104 0.37671536 0.122738846 0.2711889 -0.29614908 0.2603255 -0.21650091 0.37057135 0.3297585 -0.23358665 0.012833273 0.08022546 0.2570976 -0.13002074 -0.32977042 0.46865174 -0.13149746 -0.27651057 0.2062317 -0.27106625 -0.5646413 0.29619232 -0.1902834 -0.33516333 -0.43134516 -0.14917524 -0.26518843 0.015199434 -0.052954715 -0.41796556 0.28305358 0.053442676 0.08162827 -0.013035455 -0.094068184 0.28168136 0.48721305 0.35648787 -0.12005096 -0.38378122 0.20923087 -0.0204104 0.08689314 -0.03955089 -0.076073065 -0.07748951 0.36888084 0.02938522 -0.26381987 0.2360182 -0.16221236 -0.17692432 -0.27724147 0.13591367 -0.13467191 0.19444944 -0.07900757 -0.18931286 0.47565633 -0.15953247 -0.16134097 0.055702318 0.09539558 0.42626074 0.055481892 0.317162 -0.2663296 0.0023840577 0.27379924 0.20323502 -0.36036485 -0.23254123 -0.43438253 -0.47012296 -0.25843835 -0.06779983 0.20807353 0.2998211 -0.17569803
960 0.12808247 0.18556274 0.059218995 -0.08415181 -0.116757065 0.15867919 -0.12047202 -0.24096054 -0.31000745 0.10242207 0.18345025 -0.24109636 -0.023099711 0.08324673 -0.2074284 0.21770696 -0.10409311 -0.032116592 -0.16179465 0.24475601 -0.017134285 -0.06528088 -0.29797754 0.033606116 -0.42414397 0.21643382 -0.14730157 -0.058624055 0.26392815 -0.18686417 0.1937262 -0.061486408 0.028369904 0.013452461 0.115705095 0.25757432 0.2542114 -0.1641788 0.08792092 -0.17540142 -0.033841744 -0.011626555 -0.02651252 -0.06796103 0.067292325 0.23259345 0.369841 0.074224085 -0.24641502 0.013825266 0.17354658 0.037318103 -0.1893063 -0.028145026 -0.06369149 0.46344024 0.06477663 -0.15928406 -0.16609472 -0.0068640034 -0.21575277 -0.053838134 -0.02477159 0.32187098 0.45472333 0.034903318 -0.14926994 -0.27469847 -0.077212155 -0.42453617 0.13977073 -0.230187 -0.53925484 -0.26277068 0.10560885 -0.070699416 0.18989737 -0.29893556 -0.12282693 -0.2846208 -0.2745932 0.12137281 -0.37628722 0.25534678 0.10526485 0.3951604 -0.17194653 -0.05328997 0.44135284 0.20297079 -0.21265464 -0.20185697 -0.013450533 -0.6064053 0.38639635 0.1283434 0.10669251 -0.3044779 0.04215116 -0.02688873 -0.23805878 -0.015419817 -0.08882714 -0.052285906 -0.029184412 0.23643452 -0.22062816 0.057832 -0.09088572 -0.2167153 -0.10677666 -0.16659304 -0.12647906 0.188443 -0.289962 0.2197926 -0.085048914 -0.18316625 0.22548854 0.09621747 -0.10677583 -0.031734444 -0.2446661 0.22840185 0.11643319 -0.16468865 -0.347095 -0.0042488775
979 0.013633668 -0.3735251 0.014836721 0.22760269 0.4200458 0.23179893 -0.14630742 0.20016946 -0.1317197 -0.059480034 0.061618824 -0.2089046 -0.20576926 -0.015492341 0.035223115 0.042990033 -0.22476596 0.13501659 -0.047428794 0.23187129 -0.05696858 0.055870388 0.14650297 -0.21264404 0.015758408 0.095091686 -0.070262656 -0.028026091 0.2994152 -0.48998985 0.11976494 0.061579674 0.19690779 0.46934304 -0.0051423633 0.21260808 0.19161856 0.041663337 -0.42295605 0.35207298 0.12750143 0.31415442 0.40738317 -0.055883195 -0.17957895 -0.13924363 -0.38014102 -0.29711688 -0.15850572 -0.5661723 0.2951 -0.090446234 0.24009348 -0.017993629 -0.04338837 0.30854672 -0.26404062 0.015944136 0.039019227 -0.053661246 0.031635165 -0.09503358 0.030616729 0.11020785 0.7057783 -0.07394982 -0.07408812 0.013275362 -0.1725488 -0.18840067 -0.23283257 -0.29531062 -0.06386293 -0.12638149 0.38593134 -0.3460255 -0.0452283 -0.23980893 -0.07682059 -0.013925068 -0.07438645 0.056005776 -0.0022708215 0.38745338 -0.052216403 0.08212175 0.36263344 0.2944772 0.28280592 0.21198708 -0.13200524 0.36635676 0.26394925 0.068217255 0.41727528 0.18555029 -0.035981145 -0.060023483 0.024161525 -0.24100119 -0.11815352 -0.24755388 0.14163063 -0.06845659 0.19394301 -0.016265353 -0.031561535 0.087421395 0.13581496 0.064554006 0.06711127 0.5362162 0.18072216 0.4073484 -0.27895948 0.006591437 0.054135274 -0.09689376 -0.23298422 0.18211496 0.039634675 0.054359656 -0.2356565 -0.13813342 -0.11678832 -0.030323474 -0.13760751 -0.2950855
233 -0.16320205 -0.06824743 -0.16528447 0.21508686 -0.064215235 0.07171527 0.1706145 0.053061657 0.0786787 0.18004037 0.32942244 0.006870828 -0.18457396 0.21439767 -0.36544546 -0.09035236 -0.1750673 0.100673065 -0.19351542 0.17383009 0.036243994 0.18329895 -0.2734354 0.03640538 -0.5837495 0.01642242 -0.4878213 -0.1939058 -0.14939202 -0.12552527 -0.06459499 -0.05335812 0.37659696 -0.011349035 -0.21363777 -0.24822846 0.3075921 0.09277783 -0.3022412 0.032487668 -0.12656105 -0.04572783 0.006655517 -0.056751214 -0.10984184 0.22065076 0.017481912 -0.21895799 -0.011438581 -0.011121509 0.18220684 0.24496405 0.4056958 0.31070524 -0.39382097 0.17918774 0.025824893 -0.12776186 -0.26656798 -0.00678498 0.015018449 -0.053781893 0.24945684 0.3080766 0.55806136 0.13694721 -0.24523982 -0.05344396 0.12979974 -0.11103974 -0.26063988 -0.2648742 -0.25395623 -0.31899878 0.08226376 0.024620768 -0.30544004 0.09099054 -0.4122466 0.028845659 0.040592216 0.13739373 0.14562498 0.02202415 0.40674308 0.23586111 -0.11216163 -0.23168735 0.032837868 0.33098736 -0.14278726 -0.33164665 -0.01806215 -0.10725562 0.3276058 -0.0727616 -0.117919475 -0.173215 -0.015188892 -0.06492435 -0.0380658 -0.0075525222 -0.2672745 -0.09372876 -0.095190845 -0.02461537 -0.045256615 0.015220922 -0.1002194 -0.47070265 0.009774348 -0.35688627 0.1907456 0.08878666 0.19930431 -0.24905801 0.25172845 0.08105929 0.244361 0.24991226 0.06752991 -0.21608143 -0.30108258 -0.064267494 -0.28119826 -0.22583807 -0.4381478 -0.2273685
1427 0.028751617 -0.09664369 -0.23744743 -0.08209074 0.13609138 0.14424549 0.08401897 -0.18848497 0.26041433 0.1043417 -0.015480671 -0.06272183 -0.07379 0.06486743 -0.14377052 0.04231056 -0.09731713 -0.111877486 -0.09246374 0.10224584 0.52493286 0.041527428 -0.053552523 -0.08906255 -0.5648029 -0.19243184 -0.07178448 0.054193612 -0.285747 -0.0016038498 0.08787513 -0.4138406 0.20855588 -0.081526704 -0.14373069 0.21067888 0.14853509 0.32443088 0.30667567 0.06823698 -0.14595446 -0.014203002 0.096312664 -0.19750899 -0.09168058 0.101728186 0.24724095 -0.26425785 0.28512636 0.068116 -0.03239767 -0.031902432 -0.17557529 -0.046074186 -0.3351625 0.2727539 0.084495045 -0.3294521 -0.19524597 0.4929705 -0.12966146 0.13467543 -0.21897541 0.21307068 0.21486123 -0.050409403 -0.16025364 -0.19681026 -0.1800635 0.18975556 0.11941893 -0.27839515 -0.35463855 -0.31950134 0.34170428 -0.34689674 -0.4959781 0.032020986 -0.33822608 0.13282646 0.056703877 0.12215169 -0.08281502 0.14850554 -0.2889553 0.3511646 -0.32771328 0.22633502 0.23317842 -0.03740748 -0.10251305 -0.24902232 0.024119006 -0.40227136 0.5138058 0.018625736 0.045406435 -0.1856881 0.16780445 -0.34380677 -0.020007577 -0.052585732 0.12510493 0.049109697 0.25869492 -0.26456368 0.19525765 0.091685124 0.13239549 -0.2039336 0.0072514107 0.09163038 0.24443549 0.06748351 -0.053451743 0.07206824 -0.2342902 -0.19789931 0.24399447 0.048408564 -0.16949533 -0.37966883 -0.24633011 0.259897 -0.26712614 -0.18794005 -0.26604962 -0.05393417
440 -0.06351576 0.18559691 -0.08859777 0.057468604 0.45346078 0.26846257 -0.13129547 -0.1927168 -0.121806026 0.06652466 0.032262012 -0.14076631 -0.31544718 0.20599438 -0.21771267 -0.10486112 -0.07319955 0.15118119 -0.043123808 -0.03118227 0.09123813 -0.10301474 -0.1475647 -0.11998498 -0.35161832 0.057462428 -0.5325 -0.22143845 0.029870199 -0.05943121 0.16060615 0.06369738 -0.15495999 0.39450246 -0.0280277 -0.14460653 0.12654917 0.05900825 0.15021457 -0.124570146 0.35832635 0.23267306 0.026417512 0.02424927 -0.06548662 0.2365645 -0.1733639 0.058796313 -0.16203898 -0.12876846 0.3704779 -0.14268942 -0.054132473 0.044985253 -0.1481748 0.5597796 0.35035366 0.10031166 0.047304552 -0.08092676 -0.06460117 -0.5016199 0.0038492659 0.2981957 -0.15607916 0.034001846 -0.13448185 -0.3138111 0.078935914 0.17752716 -0.2290926 -0.16849877 -0.15527146 -0.16507791 0.0121025685 -0.3365058 -0.24475399 0.3494912 -0.55634195 -0.07155193 -0.18168302 0.19240944 0.050707307 0.34249812 0.19056179 0.2399776 0.2157182 0.17468636 0.23642085 0.42654696 -0.36434814 -0.18012439 -0.11324251 -0.17464772 0.10730433 0.108187 0.554981 -0.44889963 -0.0729227 -0.08959547 -0.16197918 0.010013921 -0.20803292 0.18525854 0.08825492 -0.14551544 -0.21203977 0.3183281 -0.07314021 -0.42447254 -0.29665706 -0.09844229 0.09877058 -0.07768023 0.011363723 -0.06111886 0.4782626 0.12103154 0.089915805 0.020051025 -0.10781632 -0.16641441 0.1673546 0.40221316 -0.13590957 -0.12233601 -0.3315462 0.058423474
534 -0.15710922 -0.21129037 -0.26843995 -0.14098169 0.06278279 0.45577887 -0.15761764 -0.1896257 0.2297591 0.14171284 0.115369275 -0.18080379 0.18790813 -0.019258838 -0.15366895 -0.010017383 -0.046253555 0.35773382 -0.12626098 0.18740848 0.07560579 0.16809759 -0.3512398 0.047192447 -0.26312605 0.33894274 -0.2374313 -0.017634781 -0.09088946 -0.07870511 0.27452287 0.06197897 0.0761783 -0.017666021 0.0814264 -0.04640959 -0.001861646 -0.21575963 -0.07687121 0.23604983 -0.21396358 0.25794342 -0.20841879 -0.5301983 -0.03359326 0.19261761 0.08480052 -0.21922132 -0.2519765 -0.15613899 0.25841895 0.16736735 -0.34368113 0.2169498 -0.3513422 0.25718334 -0.017839247 -0.10377861 -0.11084855 0.076522134 -0.14810666 0.10685179 -0.19292091 0.29654744 0.55217654 0.16660935 0.04209329 -0.26564026 -0.119539015 -0.2936057 -0.28632435 -0.16396998 -0.076620154 0.1367003 0.3333925 -0.3249427 0.22406802 0.00020889685 -0.188068 0.037171133 0.08374573 0.02849621 -0.048530184 -0.07765006 0.42371094 0.535179 0.040936142 -0.0942827 0.17542562 0.02064682 -0.3691113 -0.010294978 0.04059918 -0.11033499 0.32935134 0.20453529 0.37192592 -0.25471342 0.15709458 0.07749107 -0.37993646 -0.35502014 -0.119796306 -0.022744788 -0.22147965 -0.42890742 -0.42952478 0.066035084 -0.1067233 -0.21733151 -0.06823416 -0.16041563 0.15076824 0.058403324 -0.2520061 -0.06890431 -0.0065612583 -0.0701938 0.19660333 0.04118025 -0.19233231 -0.06537113 -0.41551965 0.2588013 0.3306732 -0.3148197 -0.31096077 0.032915663
696 0.5554218 -0.46139827 0.2864796 0.37050182 0.26939183 0.002967959 0.17443705 0.13425916 0.06542387 0.14339651 0.008535339 -0.15824555 -0.51670295 0.20035192 0.022903489 0.30151007 -0.33425292 0.13024342 0.037295297 -0.19058341 0.5059479 -0.08881265 -0.83381015 0.14974245 -0.21036929 0.018549498 0.092278615 0.35517222 -0.013901521 -0.057308268 -0.07592996 0.39386347 0.36511445 -0.04742352 0.10952555 -0.18831314 0.18397135 -0.10757967 -0.05582775 0.04323365 -0.082812905 0.21295345 -0.03613908 -0.0968492 0.097553365 0.1734947 -0.3886617 -0.043411322 -0.12801264 0.11230816 0.0008740331 -0.30856827 -0.23673414 0.12199911 -0.3827033 0.11692297 -0.11122392 0.28040665 -0.2504635 -0.2581478 -0.10016679 -0.049228456 0.10396735 0.31591597 0.11790867 -0.06701351 -0.29056942 -0.51273465 -0.053557828 -0.10968122 -0.17972441 -0.15575205 -0.55285126 -0.08347165 0.00949495 -0.31922475 -0.21095219 -0.12991923 -0.34427348 -0.060048927 0.14616506 -0.35564396 0.0630764 0.28240687 -0.016628347 0.13971932 0.25541955 -0.1576742 0.1645629 0.05116022 0.3016615 -0.07673433 -0.07270938 0.27506363 0.62509185 0.13353038 0.32216892 -0.15531467 0.2258729 -0.19684358 0.12087413 -0.43495184 -0.16019459 0.07657674 -0.07629598 0.0937145 -0.12910157 0.14496255 0.2326971 -0.056263756 -0.062035646 -0.17612259 0.040018808 -0.23149672 0.010199138 -0.3804125 0.19765437 0.16998143 -0.242244 -0.2015147 0.040350456 -0.0066668903 0.1810141 0.33293447 -0.14000677 -0.16942169 0.27563524 -0.09688282
1237 0.19072926 0.12843904 -0.008799232 0.28354752 0.05124858 0.05122631 0.16615422 0.041379552 -0.009799327 0.08605926 0.2484018 0.33970737 -0.14283656 0.07060458 -0.30993402 0.2791143 0.063177615 -0.18775555 -0.04783772 -0.24993992 0.47330764 0.22029582 -0.43721092 -0.17383865 -0.037301 -0.34568045 -0.40617058 -0.41688055 0.041624155 0.0058459155 0.17383632 -0.038851187 0.066501796 0.27026743 -0.10686013 0.12777965 0.22553484 0.25529826 -0.17126869 0.19871108 -0.055395428 0.07873391 0.062410887 -0.007070465 -0.23852971 0.11608921 -0.026002053 -0.123570755 0.107461676 -0.22898683 0.21292181 0.24457479 -0.13479057 -0.06801129 -0.085049346 0.044246715 0.24625011 -0.015682135 -0.4407965 0.02268357 -0.21800806 0.04568876 -0.32113883 0.23374778 0.36424652 -0.037261017 0.093741484 -0.22539748 0.047337573 -0.23970842 -0.4062061 -0.17931736 -0.19193849 -0.09155825 0.1870392 -0.38811746 -0.03949526 -0.20542821 -0.44400197 0.19308859 -0.19789095 0.38933066 -0.20632543 0.22215636 0.27413693 0.20366842 -0.1698546 0.066256955 0.20803158 -0.14180751 -0.12645623 -0.47921893 0.023990199 0.10742265 0.4250254 -0.13907705 0.4563005 -0.08961788 -0.07881254 -0.47168303 -0.1690782 0.0112356115 -0.06399477 -0.14745726 -0.024324387 -0.20196263 0.0031903384 0.19601703 0.34349468 -0.11784041 0.24615872 -0.21093403 0.09592137 0.24029395 -0.010852628 0.073074654 0.20939957 0.026385093 0.30738318 0.095391214 -0.0012700454 -0.07553095 -0.1981894 0.3125358 0.080842346 -0.09659575 0.072599225 -0.05622302
2258 0.024373258 -0.34678352 -0.30643797 0.5005543 0.38587004 -0.38573933 0.2621123 0.25729147 -0.17893556 0.25296333 -0.18660939 0.2015735 0.081157655 0.023319582 0.3197581 0.2191031 -0.062156286 0.06774932 -0.4010681 -0.313017 0.12471437 0.16487786 0.029951012 -0.24446936 -0.41224834 0.26206067 -0.16025928 0.25480735 0.072078586 -0.20781836 0.36685756 0.34946725 0.38754836 0.13442834 0.098663814 -0.119740985 -0.09862637 -0.0029403563 -0.29868478 0.16027367 0.0033121686 0.09751753 0.10416279 0.3409575 0.28090817 -0.056483872 -0.16498062 -0.029387677 -0.04344359 0.06697874 0.13123685 0.1510265 0.06440227 -0.105686426 0.10437043 0.29256558 0.091468975 0.08751329 -0.1804064 0.20468585 -0.23977372 -0.043560777 0.0037499398 -0.06197172 0.1210087 -0.2592392 0.19446369 0.0853282 -0.078512035 -0.19284098 -0.06108659 -0.15333825 -0.16650829 -0.28801513 0.04863255 -0.16569014 -0.1276789 0.066779524 -0.17337969 0.1280433 -0.051571406 0.012922282 -0.22944735 0.30372897 -0.031806286 -0.04206483 0.28001842 -0.2821285 0.053189162 0.29431617 -0.058390263 -0.21229461 0.102134645 -0.058744714 0.3659364 -0.047085255 0.61016273 -0.2481497 -0.014373303 0.30949128 -0.18576926 0.160119 -0.107764155 0.03313032 0.019955276 0.032747224 -0.04939231 0.0565085 -0.07005332 -0.063402824 0.16353364 0.33901247 -0.15434289 -0.054349445 -0.40116322 -0.48098114 0.025944157 0.09040747 -0.26499972 -0.0689771 -0.3119128 0.111806616 -0.35978678 0.14685881 -0.03249123 -0.08679493 -0.068184696 -0.013391713
1344 -0.051364597 0.13828671 -0.2814848 0.023801727 -0.0008300734 0.026518924 -0.014544958 -0.14490315 0.12839401 -0.3233441 0.3672435 -0.24070552 -0.08637821 -0.009713464 0.011716261 -0.05211994 -0.38638017 -0.07462183 -0.29611346 0.07961028 -0.14789496 0.18385677 -0.20026682 -0.5437071 -0.40334082 -0.30976838 0.35195726 -0.083165064 0.2001672 -0.3126861 0.2566565 0.17586043 -0.19275214 0.2836754 -0.25885946 0.011635091 -0.04039466 0.22314915 -0.15850976 -0.031674765 0.19308406 0.012704104 0.34843764 -0.24352123 0.11862637 0.037326783 0.09786473 -0.0073508015 0.21497352 0.1869465 -0.10060386 -0.18185773 -0.36062986 0.14679947 -0.19261353 0.20276015 0.073600575 -0.15244201 -0.35817987 -0.12426424 0.011710964 -0.31250143 -0.060506377 0.22182137 0.16242206 -0.3782047 -0.17589453 -0.09969695 0.30888718 -0.2606535 -0.08848592 -0.16338046 -0.1390375 -0.2577173 -0.042142432 -0.2649495 -0.086828105 0.2911749 -0.30817997 0.023996167 -0.06846061 -0.31773782 0.14289291 0.58324254 0.19992928 0.4714486 0.27128443 -0.2419688 0.049152877 -0.103906386 0.11889031 -0.38613907 -0.2839189 0.085813284 0.34942713 0.14847703 0.31242213 -0.0734773 -0.06809967 0.050660733 -0.2592986 0.074779525 -0.13671042 -0.1413051 0.11033764 0.042258997 0.020559654 0.39811134 -0.20904268 0.017167974 0.19316797 0.06528991 0.12264428 0.25584525 0.48113912 -0.18624574 0.1502065 -0.09066864 -0.194068 -0.3415257 0.040878024 -0.050105926 -0.05877053 0.053375047 0.15564571 -0.17940015 -0.23886648 -0.07925767
1331 0.014379138 -0.16546148 -0.044413652 -0.044985518 0.20425004 -0.10156228 -0.109575026 -0.2154531 0.019015804 -0.05537383 0.09750298 0.028704721 -0.271303 -0.12351602 -0.117140606 0.15407991 -0.24675 0.14523657 -0.08651114 0.10996523 0.11785571 0.23490383 -0.16481733 -0.05748367 -0.23692699 -0.1363674 0.09092423 -0.15617651 0.031187253 -0.30621216 0.44379067 -0.38434708 -0.059916724 0.11603099 -0.03659445 0.27342984 0.3587698 -0.07851797 -0.3137793 -0.15253434 0.22278464 -0.2801342 -0.2014255 -0.18553199 0.095583364 0.006190156 -0.14259279 0.08856745 -0.077238694 -0.2569417 0.384495 0.021643477 -0.0694974 0.29325482 -0.26849565 0.41920778 -0.039813336 0.1029683 -0.25863445 0.025387293 0.07991381 0.21195103 0.059795797 0.024641786 0.467891 0.19215739 0.0811083 -0.14281791 -0.028727163 -0.34591585 -0.15821487 -0.6196471 -0.41798672 -0.29346958 0.069086306 -0.24336778 -0.0893225 0.39933825 -0.07680566 0.3155797 0.25984526 0.05786862 -0.5294423 0.0029693283 0.21490194 0.50048965 0.12783024 0.13924085 0.023583991 0.18875681 -0.15635568 -0.28016233 -0.0052822013 -0.31073967 0.23575823 0.28998291 0.19013636 -0.10840324 -0.012327203 -0.085776016 -0.12790868 0.13511543 -0.6019487 -0.30711094 -0.13325378 -0.19616546 -0.36921173 -0.14190303 0.096885405 0.038262688 0.29964596 -0.12899075 -0.43057388 0.15576002 0.13915682 -0.04288136 -0.36690596 0.03867545 0.37405565 0.20234789 -0.033249334 -0.16178095 -0.26393542 0.02506172 0.17885527 -0.27932528 -0.21169262 0.049301546
1490 0.3217055 -0.6609295 0.08094146 0.26348114 0.18388765 0.046294566 -0.1807354 -0.1458464 0.067759864 0.08239071 -0.010056736 0.16478722 -0.51407546 -0.53639567 -0.27487776 0.1594045 -0.171389 -0.32814577 -0.20251901 0.18081675 -0.21055703 -0.12718056 -0.08476509 -0.36027616 -0.22911486 -0.13372816 -0.22553499 0.4437525 -0.30023602 0.26913044 -0.19680142 -0.0023828316 0.0150241535 0.26915866 -0.2535385 -0.09721317 0.07753294 -0.29180634 -0.27296588 0.15375103 -0.37007478 -0.18496452 -0.07654382 0.20272781 0.10309852 0.16059214 -0.0243187 -0.1873012 -0.34504783 0.006773459 0.35916263 -0.08559285 -0.34707636 -0.41589704 -0.11956008 0.23682846 0.22371441 0.005476328 -0.1029077 -0.07113695 -0.020905912 0.22858824 0.13142213 -0.2951238 0.55392516 0.14154837 -0.27220562 -0.103144236 0.012908057 -0.19529441 -0.1076858 -0.38714966 -0.47811598 -0.19218805 -0.008705973 -0.24536034 -0.37435845 0.27474746 0.13688615 -0.061431263 -0.014845206 0.1338745 -0.09591212 0.06381131 0.14995791 0.35812786 0.30019665 -0.11553573 0.009291816 -0.23626168 0.063752376 -0.34787053 -0.12304142 -0.19074935 -0.017002255 0.09850519 -0.11732777 -0.30155542 0.23524523 -0.07280609 0.21046717 -0.013672419 -0.08665411 0.3141629 -0.23656084 0.04602822 0.40787923 0.105077185 0.17425801 0.05337129 -0.34548175 -0.11622142 0.12308686 0.246214 -0.26966685 -0.33079204 0.23893966 0.0299473 -0.21385537 -0.08424658 -0.17863797 -0.20715022 0.029384553 0.23822345 -0.10058659 -0.011936854 0.18904404 -0.061500054
973 0.050292607 -0.15624171 -0.13135713 0.25063118 0.29366106 0.19387697 -0.27600473 -0.27593535 0.07663612 0.053091235 -0.10262397 -0.21349972 -0.26179624 -0.07422204 -0.06007388 0.3822228 -0.31754664 0.50011474 -0.14959727 0.28918567 0.1820199 0.21260257 -0.07316265 0.14543499 -0.46721387 0.03125957 -0.09043739 -0.18565434 0.12600619 -0.08820979 0.23028691 0.17528969 -0.043678 0.06957451 -0.040717606 0.04355486 0.5173199 -0.09014065 -0.090788774 0.093098454 0.14702985 0.1984482 0.05238995 -0.038420904 -0.064367205 0.26808214 0.21592604 -0.16752669 0.16710532 -0.4247862 -0.0023770786 0.05039651 -0.22929204 0.17401196 0.20806095 0.2227521 0.36968657 -0.034490198 -0.54889464 -0.17106429 0.008987356 -0.16335419 0.2045152 -0.13021442 0.24234062 0.046665933 0.08146993 -0.2568565 0.054414164 -0.08478418 0.08293495 -0.3861942 -0.2625803 -0.08215862 0.0815167 0.21533737 -0.4436329 -0.08466915 -0.4486084 0.04633814 0.10844215 0.08900999 0.30927613 0.112495676 -0.080690205 0.2944985 -0.34941956 -0.008449949 0.40971488 0.21129715 -0.24642047 -0.05241637 -0.22789851 -0.050137572 0.46103922 -0.004200743 0.046713296 -0.13612966 0.30262864 -0.12661086 0.080350906 0.16322206 -0.27463013 -0.032179613 0.046708375 -0.0063060857 0.039099555 -0.15559885 0.11487298 -0.036709893 0.09979716 -0.13313317 0.04184091 0.101256885 -0.48971984 -0.12877157 -0.20677932 0.018993305 0.24468434 0.0149206715 -0.22119452 -0.17457412 0.011645047 0.16165558 -0.27739054 -0.02860661 -0.3740823 0.08555948
1169 0.08243131 -0.3081257 0.43912986 0.055231042 0.2121547 -0.18885341 -0.23499998 -0.10338161 -0.25405917 0.15464576 0.019423176 -0.17717579 -0.016220693 -0.24323708 -0.04539325 0.3141949 -0.45529908 0.18513538 -0.3753346 0.1070209 0.14182842 -0.01699069 -0.20173475 -0.05265081 -0.24404345 -0.2803047 -0.1753496 -0.47974575 -0.24111441 -0.069189385 0.011239705 0.36749095 -0.3802467 0.12777157 -0.17765725 0.21328872 0.35598862 0.04723249 0.052333314 -0.010830019 0.16729929 0.49405214 0.10667621 -0.06962899 0.016123801 0.15377583 0.091590375 -0.3632029 -0.022999255 -0.0531382 -0.3000766 -0.06409418 -0.21943124 0.34613633 0.023239726 0.05357104 -0.23965941 -0.4559173 0.007837416 0.42864084 -0.102749616 0.12865044 -0.20486659 0.108879834 0.08776428 0.07730323 -0.035173047 -0.10941887 -0.045302715 -0.2564802 -0.13472162 -0.4539419 -0.28547555 -0.37425864 0.39673904 -0.079823576 0.040801413 -0.0826424 -0.2394204 -0.010581195 0.17323346 0.08547272 -0.28235486 0.46216452 -0.08940204 0.49874315 -0.11682045 0.17726026 0.11297452 0.29602394 -0.3580369 -0.30897522 0.12002617 -0.36575398 0.1952566 -0.12571138 0.28723124 -0.39456418 -0.17133525 -0.040829357 -0.010335211 0.47511753 0.13835597 0.03179614 0.20260581 -0.22433159 0.1390569 -0.11806372 0.20853372 -0.2053204 0.18393494 -0.4655458 0.28461084 -0.032250747 -0.071433224 0.06835573 -0.069284864 -0.24191347 0.12157752 -0.13823806 -0.5388395 -0.22379072 0.019724263 0.07041497 -0.03920501 -0.17882851 -0.2949734 -0.21187767
556 0.02613962 -0.41326123 0.013458013 -0.06500155 0.15590778 -0.004827121 0.31094402 0.2592595 -0.14695407 -0.02780284 0.044319533 0.24924876 -0.39799172 0.23592572 -0.07266988 -0.05817143 -0.649498 0.03620538 -0.19410166 0.12948701 -0.21419697 0.16615371 -0.26286057 -0.6893613 -0.43541625 -0.02131201 -0.36986142 -0.33130994 0.15400857 -0.14776607 -0.029325958 0.09860863 -0.3507853 0.19689904 0.036319226 0.03950282 -0.3718789 -0.18850577 -0.21945563 0.0769068 -0.15366104 0.12218726 -0.24458306 0.14551271 0.08177284 0.22353734 -0.09523893 -0.28302237 -0.1577076 0.1542758 -0.012661198 -0.03897006 -0.34912488 -0.1188737 0.01666529 0.18132207 0.2890199 -0.1637795 0.06585799 0.42565513 -0.08567872 -0.13013038 -0.0830097 -0.33026817 0.20747674 0.15833326 0.1622978 -0.3009639 -0.021064611 -0.14236777 -0.124287106 -0.38604477 -0.13708429 0.1276757 0.14281584 -0.1899484 -0.37126595 0.12776442 -0.45423722 0.22900026 -0.18642955 -0.30780944 0.023565656 0.42839524 0.3994498 0.15210797 -0.2615712 0.03596235 0.15966772 0.16065308 0.14825019 -0.13011119 0.028272685 0.10119057 -0.020389091 0.004590544 -0.28697446 -0.2342917 0.19070137 0.37032542 0.035809595 -0.052008588 -0.2760031 0.04296499 -0.16174448 -0.29159388 -0.10363474 0.36014158 0.08904208 -0.39911646 -0.27668312 0.18608354 0.10211373 0.052363366 0.11061499 -0.25173146 -0.35671008 -0.35582864 0.2915194 -0.02127736 -0.26167363 -0.17679118 -0.03668577 0.05761521 -0.25751382 0.023636885 0.35540718 0.25049612
975 -0.013594785 0.035408493 -0.13641892 -0.2745959 0.15888846 0.3694015 -0.027037978 0.1445153 0.07236664 0.16603732 -0.010865199 0.03774351 0.0006558532 -0.2172015 -0.3568311 -0.1623715 -0.03794837 0.005703123 -0.12343311 0.29365277 0.2015028 -0.035220806 -0.059500262 0.000323166 -0.56294745 -0.14227161 0.0008516305 0.09372354 -0.3411773 -0.117552444 0.18228216 0.4536865 0.010088817 0.21160904 -0.15349449 -0.26316062 -0.025473056 -0.1371639 0.0057784105 -0.035169818 0.20748764 0.0975063 -0.026097236 -0.28552145 0.19172613 0.2899949 0.21833512 0.04522301 -0.19197047 -0.15293333 0.31625146 0.104027465 -0.3198562 0.34154165 -0.1948327 0.24306773 0.12761173 0.0037156 0.11174795 0.07550049 0.039341837 0.07676562 0.13411179 0.29434648 0.25688148 -0.2092346 -0.33432555 -0.6756051 0.10084183 -0.12411684 -0.016895417 -0.36884388 -0.3495867 -0.24071619 0.28892416 -0.3526291 -0.14722198 -0.00067271537 -0.34853932 0.3642975 0.22959761 -0.24780647 0.06366152 0.30006152 0.1223877 0.3298183 -0.24445248 0.08349271 0.1316947 0.21938391 0.0043935427 -0.22346789 -0.0023129422 0.061481643 0.5178105 0.0016566867 0.018649658 -0.26646397 0.022699079 -0.31441718 0.011927129 -0.069023885 -0.13221149 -0.04517355 -0.0718003 -0.124792024 -0.30527058 -0.048648734 0.09095166 -0.47655725 -0.050932027 -0.37541375 -0.020364147 -0.09649501 0.110953264 -0.19089803 0.029339042 0.11331933 0.22011156 0.17475279 -0.25488698 -0.033053856 -0.0723337 0.12246214 -0.01728886 -0.070173696 -0.29834095 -0.10897757
911 -0.1612102 -0.5432687 -0.027833695 0.36257184 0.35896465 -0.060953703 -0.30173618 0.06309175 0.16607732 0.22247215 0.13304344 0.035700418 -0.12913491 0.20996708 0.09332839 0.2734587 -0.0066597397 -0.019051045 0.16261855 -0.10512442 0.047035806 0.16778888 -0.24351208 -0.5473599 -0.29715228 0.21598132 0.13401397 0.24409038 0.36505395 -0.15088806 -0.013750397 -0.17097197 0.13799238 0.2259106 -0.11563238 0.037929274 0.22883926 -0.033251416 -0.26518142 -0.118656665 -0.26063123 0.070752025 0.042133514 -0.1445239 0.30925685 0.19667313 -0.17818439 0.112659715 0.014283837 -0.15995921 0.22578152 -0.4429847 0.15114675 0.18734773 -0.124566324 0.21352102 -0.13434829 -0.046547893 -0.15950574 0.19198927 -0.034248173 0.19369839 -0.19668205 -0.24321203 0.060359295 0.0957671 0.13668427 0.09798303 0.12187842 -0.28638044 0.44089782 -0.32268646 -0.45852712 -0.22932391 0.45032483 -0.17610459 0.0820748 0.21929884 -0.31154636 -0.20668598 -0.16170892 -0.20475961 0.07204851 0.5443604 0.21964602 0.17574757 0.16250695 -0.37442875 -0.22122328 -0.051993463 0.013634749 -0.15312241 -0.1371435 -0.017051945 0.36366874 0.25880334 0.28074628 -0.1352715 -0.27525634 0.061794832 0.023987448 -0.15300296 0.343553 -0.086594515 0.065359846 -0.09817059 -0.12132889 -0.1522616 0.21501562 -0.25249824 0.23397325 0.41136876 0.22517318 0.30436957 -0.09320944 -0.09509271 0.44065484 -0.16080119 -0.31464958 0.039967 -0.29072738 0.034091998 0.046701275 0.06350128 -0.47483975 0.08626051 0.1442949 -0.2750371
1355 0.03889401 -0.2972761 -0.013495677 0.5206078 0.17315163 0.0670256 0.23653568 0.29530963 -0.29939127 0.2786993 -0.07802218 -0.094144665 -0.09054523 -0.0052726967 -0.22472998 0.0034862875 -0.20388249 -0.263907 -0.3016943 0.3682094 -0.094426386 0.14888674 0.028549988 -0.2263389 -0.15272778 0.21445279 -0.090544365 0.17371291 0.3945418 -0.054921 0.10226002 0.2264115 -0.06899458 0.242427 -0.053972475 -0.28961483 -0.056317385 -0.23001687 -0.5075217 0.08040758 -0.16728222 0.05901233 -0.003249044 -0.22454925 0.3091811 -0.12841156 -0.41139048 -0.20499457 -0.07513521 0.20838799 0.43374735 -0.011722664 -0.23631084 0.17107333 -0.07157397 0.07237621 -0.019026635 -0.48007497 -0.2355933 0.35147008 -0.2752175 -0.23324671 0.10548203 -0.21287492 0.03157037 -0.334584 0.01946211 0.30515245 -0.006476367 -0.18294042 0.25303215 -0.2734116 -0.32943138 -0.5902159 0.11095576 0.012421797 -0.37258887 -0.30687892 0.054287117 0.072751425 -0.095601246 0.11662733 0.26759836 0.2226482 0.15567192 0.15136346 0.36264408 -0.083976015 0.1475533 -0.49107534 -0.4399115 0.082369305 -0.1743823 -0.0015237065 0.19143204 0.35046473 0.23704708 -0.5063698 -0.25491905 -0.100764304 -0.27587378 0.2669145 -0.0047985306 -0.22903337 0.12895396 -0.07432607 -0.032250144 -0.021070201 0.36765775 -0.07543769 -0.048904233 0.022287242 -0.08693253 0.11568353 -0.34568876 0.007859121 0.2094973 0.05778039 -0.20682172 0.25181353 -0.00081866386 -0.19429773 0.20956552 0.30795568 -0.2278459 0.13541545 0.14728521 -0.33586097
1969 -0.051848203 -0.10914109 0.008374111 0.04580901 0.26427063 0.31519616 -0.22395629 -0.27876353 0.09535964 0.09581249 0.21380353 0.21349023 0.17889325 -0.04655267 -0.13118681 0.5262667 -0.017975075 0.13879 0.04502894 0.1139592 0.39221814 0.0101473555 -0.07303061 0.025368247 -0.17710844 -0.059159465 0.0015302616 -0.31150392 0.23904677 0.012327543 -0.05723979 -0.02768669 -0.048879668 0.07904673 -0.16266206 -0.018013796 0.016934978 0.15300642 -0.07765095 0.10609955 0.44987816 0.49427617 -0.04462959 -0.08228626 0.24487396 0.0069607445 0.07649584 0.14177524 0.003087651 -0.3220813 0.347499 0.0062453626 -0.23897153 -0.02973136 -0.34832042 0.16692051 0.28651744 0.21473595 -0.051983185 0.07283375 -0.16968521 -0.3404301 0.2228763 -0.073655166 0.40300632 -0.00750297 -0.31540677 -0.22293445 -0.12510517 -0.13342111 -0.2812726 -0.41500515 -0.20240985 -0.14090301 0.10320161 -0.049523465 -0.24457173 -0.0055351895 -0.18156797 0.018985283 -0.021320436 -0.3281132 0.027868068 0.2125622 0.21039917 0.4006127 -0.38469392 0.35047 0.21632059 0.11584503 -0.20564468 -0.37325984 -0.0055818325 -0.35105872 0.1725472 0.08090633 0.31231162 -0.092799895 0.010971388 -0.10836443 -0.13404682 -0.089283176 0.23778102 0.076004 0.28726873 -0.12529568 0.15415905 0.2787255 -0.078725055 -0.4295398 0.05372259 -0.35541156 0.25359616 -0.3211127 -0.4014883 -0.17783725 -0.19788979 0.11703707 0.09826304 -0.16007468 -0.46745157 -0.3333238 -0.24852297 0.2354172 -0.19002092 0.15711492 -0.42327413 -0.039883416
1497 0.06435229 0.16212986 0.32743004 0.09578953 0.3266743 0.052875046 0.07627182 0.14760205 -0.32100555 -0.031215025 -0.06746972 -0.023679748 -0.2144338 -0.11703219 -0.14618002 0.11015167 0.19308364 0.16148224 -0.18768393 -0.21864577 0.14683947 -0.16537513 -0.20493402 -0.14165907 -0.29467347 0.5457229 0.21621728 -0.2296666 -0.33961943 -0.5403003 0.13782305 -0.14207232 0.049384743 0.12418626 -0.30697206 0.24526161 0.20947205 -0.4286794 -0.42850974 -0.27326068 0.12799604 0.06200301 -0.3064742 0.061276633 0.051199608 -0.07888152 -0.12975904 -0.024573265 0.034180146 -0.09201933 -0.15368865 -0.12021178 0.2031425 -0.16294366 -0.10586431 0.07292715 -0.011666052 -0.21201342 -0.1853587 -0.044277 -0.3174281 0.15126844 -0.23886581 -0.21008739 0.5054166 -0.08592249 0.43418807 -0.4541848 -0.23210354 -0.04935005 0.106342 0.19112165 -0.08509113 -0.45425895 -0.28337878 -0.4600505 -0.24244976 -0.14485833 -0.03182051 0.3030512 -0.03981277 -0.21428171 0.029511435 0.4742466 0.075359374 0.5098282 0.38726977 -0.26708964 0.30097863 0.07002273 0.08384171 -0.06996656 0.07131236 -0.024137417 0.27726078 0.22002803 0.060810056 -0.25136 -0.08805708 -0.05044866 0.10193823 -0.39380497 -0.03720714 0.049838092 0.34433535 0.25214025 -0.10219717 0.31425944 0.15357633 -0.22801484 0.084011406 0.0014896595 0.0826285 0.17107171 -0.03516936 -0.10012465 0.08262719 0.03061238 -0.30271962 -0.06153581 -0.0005891532 0.085447386 0.0478591 -0.011416316 -0.03460279 -0.36197504 0.23350932 0.07065421
916 -0.009020355 -0.13203575 -0.029741397 -0.09108634 0.17967243 0.25348076 0.028432813 -0.24084695 -0.4545278 0.3095963 0.37030643 -0.33494586 0.103727646 0.19510813 -0.06532425 -0.18341587 -0.16650608 0.19552766 -0.29976588 -0.032208536 0.28801107 0.08311208 -0.14439651 -0.120840676 -0.3185246 0.02062365 -0.051136315 0.07962516 0.39754254 0.00065415504 -0.17143552 0.036571465 0.11797104 0.068308644 -0.052502234 -0.08231579 0.21093826 -0.18472995 0.060713515 0.085144415 0.36492488 0.13667832 -0.14320306 -0.29785258 -0.40199745 0.06228595 -0.040930722 0.14228618 0.20087512 -0.0022571199 0.21603744 -0.06906277 -0.18069656 0.04758093 -0.23682456 0.1682667 -0.12961653 0.04120493 -0.19451264 0.072388105 -0.34927928 -0.3045154 -0.2596431 -0.053690117 0.62466097 -0.027070729 -0.13930786 -0.07355658 0.0731997 -0.10077808 -0.3001254 -0.07722293 -0.3396348 -0.49339816 0.333685 0.044733495 -0.12139586 0.09132587 -0.19819102 0.45175162 -0.02018316 0.060906433 -0.031740665 0.3607169 0.5265205 0.4943484 -0.26098138 -0.0874799 0.15689497 0.309727 -0.30598888 -0.31133255 -0.056751322 -0.31360558 0.30798385 -0.11183458 0.030546837 -0.18963785 0.088185266 -0.5032286 -0.13148636 -0.04228655 -0.24174395 -0.029369572 0.19582514 -0.21195073 0.21761811 0.1284241 0.07371709 0.13951407 -0.20426027 -0.1767904 -0.003919154 -0.09341827 0.11120997 0.20789737 0.07956388 0.08877852 0.16501589 -0.1835626 -0.24889652 -0.0024871326 -0.47217843 0.39859354 0.051568948 -0.2699799 -0.2096166 -0.21668088
732 0.046841837 0.22901541 0.075706504 0.31798476 -0.040012006 0.37812683 -0.14499179 -0.47805876 0.036533903 0.05631965 0.23381014 -0.0775174 -0.0945109 0.026449135 -0.0052544572 0.3933647 -0.045016177 0.07003507 -0.036851782 0.20218098 0.2184298 0.20470968 0.039994646 0.016051972 -0.7647555 0.22539522 -0.11843804 -0.018370641 -0.057916604 -0.17338781 -0.00881571 0.01753154 0.105572425 0.016568232 -0.15832263 0.3166449 0.17145348 -0.15754215 0.0072926776 -0.19305398 0.30900592 -0.36028543 0.25065374 -0.054922603 -0.13036363 0.25578442 0.1992213 -0.14076573 -0.13300294 -0.35731715 0.08849435 0.19094299 -0.022058913 -0.002423945 -0.041261155 0.23261596 0.1835985 -0.26848853 -0.19123812 -0.07496792 -0.033681244 -0.017992241 -0.022746077 0.25477928 0.5801904 -0.121298395 -0.14408492 -0.104557276 0.052386068 -0.11242904 -0.26247367 -0.34036478 -0.58638805 -0.21170977 0.19832262 -0.25508308 0.05035707 0.36941 -0.12699357 -0.0235168 0.24963763 0.044087406 -0.007889266 0.35651582 0.19792902 0.12117065 -0.119114846 0.07050286 0.1757201 0.17833847 -0.083333574 -0.23948945 0.1727061 -0.15011242 0.24648347 -0.21208169 0.021987718 -0.14904198 0.21491833 0.24086595 -0.14578135 0.08297093 -0.025378488 -0.13670495 -0.016129745 0.13894351 -0.34394267 0.21694835 -0.0791089 -0.4560209 0.23775794 -0.3980578 0.2121502 0.14690435 -0.31566823 0.14194237 0.25817513 0.046622004 0.008962109 -0.056379642 -0.055695955 -0.16082837 -0.056067698 0.02315184 -0.33460918 -0.46364763 -0.49290407 -0.084552124
2071 0.22481208 0.20189187 -0.2265997 0.20994854 0.6346525 -0.14114198 -0.2960253 0.31330124 0.33238953 0.081680536 0.26709422 0.18599004 -0.084226415 -0.30623922 0.4162644 0.14064422 -0.3497478 0.009704143 -0.6073501 0.20802602 0.13220027 0.007361833 -0.016988559 -0.0817935 -0.18288796 -0.1263632 -0.030120919 0.3008188 -0.11557679 0.11682981 -0.084677294 -0.24261561 0.050816186 -0.027829047 0.17453411 0.34509495 0.08024218 -0.40498722 -0.044125438 0.1819815 0.02592233 -0.011910864 -0.09616228 -0.306797 0.03899759 -0.18566315 0.09763858 -0.2125564 -0.17363618 0.1564085 0.27935985 -0.23718454 -0.3101681 -0.2892041 -0.095395654 0.02844401 0.28372157 0.14083031 -0.23155113 -0.22213261 -0.031463318 -0.29909366 -0.006327063 -0.48111117 0.076004386 0.1129303 0.09632065 0.0627247 0.43264413 -0.5960489 -0.19213194 -0.34254247 -0.28414246 -0.34053805 0.17100352 -0.35570416 0.03042128 -0.049580444 -0.12360811 0.4042378 -0.07454942 0.22989516 0.11427361 0.0781889 0.12896207 -0.150575 0.11008898 -0.47480226 0.19580054 0.2744772 -0.5905826 -0.18522969 0.29372236 -0.34044513 0.17774338 0.04876052 0.075507596 -0.012106103 -0.28023535 0.017454134 -0.10534614 -0.18852815 -0.053220656 -0.28150776 -0.47945476 0.13341649 -0.40206447 0.4517199 0.05045184 -0.1504155 -0.43620786 0.194402 0.07136488 -0.29796487 -0.007485247 -0.016591959 0.12915608 -0.12057624 -0.18174262 -0.21363877 -0.093027465 -0.039282054 -0.3802097 0.38169914 -0.18156779 0.018410202 -0.2862413 0.040045645
381 0.34576753 -0.20418559 -0.44667488 0.40548965 0.29118553 -0.024615785 0.06953027 0.124071546 0.1005273 -0.16296642 0.47420877 -0.0055778013 0.024144778 0.20110968 0.025999496 0.46853957 -0.24353771 0.21871528 -0.3128693 0.009864509 0.10952976 0.15842515 -0.17354389 -0.02082546 -0.03597123 0.066279836 -0.19617222 0.10728495 -0.2420399 -0.10710314 0.024803542 0.20722154 -0.16675848 0.1154798 -0.17544617 -0.014205443 0.18993498 0.060833715 -0.24779458 0.076993294 -0.3564149 0.2805756 -0.056467783 -0.2147981 -0.09610573 0.016319143 -0.19490905 -0.10188126 -0.2338286 0.034015525 0.20205197 -0.0036466972 0.31221557 -0.10067079 -0.13711293 0.034604497 -0.055781025 0.24028847 0.034346372 0.08192585 -0.22761166 -0.05242456 0.052594386 -0.015989853 0.19303891 0.113468766 -0.040714927 -0.2130913 0.22317752 -0.19483536 -0.13140205 -0.0668913 -0.25715145 -0.38557371 0.34920433 -0.27888045 -0.1976534 0.138206 0.06091008 0.21305965 0.13417627 -0.07995089 -0.06744683 -0.0056800907 -0.23712465 0.32922846 0.22146346 0.09213193 0.11508696 -0.21070363 0.21864843 -0.40358576 0.0026375693 0.1551783 0.036099624 0.11551986 -0.0289682 -0.37356597 0.14584862 -0.3154954 0.027856505 -0.31645963 0.17484838 0.40895826 -0.014988598 -0.047090046 0.20744827 0.1591284 0.22230694 -0.5205005 -0.012340987 -0.013948744 -0.13020192 0.25993967 -0.20986114 -0.038064625 -0.051385198 -0.020111999 -0.09090562 -0.11100566 -0.11947638 -0.16480601 -0.051071964 0.08946776 0.17986174 0.111946285 -0.17830308 0.040025204
75 0.5153287 -0.064628795 -0.13697578 0.13384925 0.050108794 0.38562858 0.009605896 0.016507389 0.19647805 0.07308513 0.07875907 -0.18375292 -0.19019859 -0.20909785 -0.101638936 0.06582103 0.23023392 0.01914126 -0.45714676 0.08687734 0.21717946 0.21413028 0.017604263 0.15687041 -0.29214212 0.098941274 -0.09159852 -0.2206502 0.13588601 -0.31790644 0.18885736 -0.07937338 0.13388468 -0.07639987 0.15948664 0.1334746 0.08927949 -0.06671624 0.025989091 0.1501422 0.014788345 0.34769276 0.032812204 -0.27059126 -0.0016407383 0.10162623 0.20862798 -0.10310021 0.004213419 -0.14964011 0.14773172 0.073164 -0.18835296 0.1563251 -0.0449725 0.086632706 0.2920519 -0.23315378 -0.10959725 0.10844325 -0.30166054 -0.040037807 0.089382805 0.17935784 0.40461582 0.28707752 -0.122372665 -0.3288736 0.10289778 0.007419819 -0.25233003 -0.19283704 -0.44720197 -0.07450242 0.11544835 -0.37332383 -0.3672663 0.29836157 -0.39361545 0.105745345 0.12607111 -0.043023933 -0.2546026 0.27473414 0.21726236 0.16151844 -0.27957022 -0.027356362 0.217509 0.117652304 0.048398647 -0.25217775 -0.10860512 -0.10552548 0.54513216 -0.055643972 0.18883091 -0.086395375 -0.26541528 0.009876122 -0.14024775 0.0697266 0.16791673 0.080248185 -0.022154085 -0.037106697 0.109301195 0.15203239 -0.29580137 -0.22196989 -0.118475385 -0.38866612 -0.028365135 0.26278645 -0.108536035 -0.047111712 0.10595029 0.15846005 0.021314295 -0.009946332 -0.31375894 0.119540215 -0.25741783 -0.072814815 -0.14732966 0.14724842 -0.040522 -0.14028594
1477 -0.03588452 0.13253735 -0.14934994 0.21585609 0.093274444 -0.084130205 -0.084368065 -0.3435955 -0.08680081 -0.09974719 0.23883392 -0.023903446 0.006921022 -0.17323215 0.048340704 0.22339384 -0.53728765 -0.35418844 -0.48682 0.010116305 -0.15727267 -0.1459487 0.15995222 -0.19462442 -0.16757204 0.19925085 -0.38756388 0.16820183 -0.13385835 -0.23533367 0.03967668 0.1621985 -0.21260636 0.0445709 -0.1940098 0.08747506 0.31440306 0.13104059 -0.25650412 -0.41795152 0.20392944 0.07331833 0.46163598 0.26649636 0.096877865 -0.27159858 -0.27858624 -0.47831565 -0.041820083 -0.25586566 0.40611145 -0.19273062 -0.1541608 0.15784746 -0.19758558 -0.12828283 -0.035303116 -0.30643284 -0.2544326 0.13278149 -0.16327313 0.20907818 -0.11032811 -0.23952885 -0.15498284 0.269869 0.16363405 -0.40122816 -0.031995308 -0.07511257 0.0005287619 -0.3244242 0.05058857 -0.364474 0.08959997 -0.20580666 -0.07910324 -0.1250237 -0.03544658 0.2439862 -0.10797774 -0.21210735 -0.1801296 0.22494122 0.3791702 0.1205028 0.3717776 0.070616566 0.062216137 0.23051232 -0.6064528 -0.05930025 0.27080232 -0.40568578 0.3358764 0.09395006 0.119270965 -0.43045938 -0.102065876 0.22038905 -0.089687 0.03905966 -0.24327143 -0.08254479 -0.03322073 -0.19927002 -0.22360179 0.48552585 0.18737394 -0.016970085 -0.2936303 -0.076744094 0.39628685 0.60658747 -0.12130485 -0.38932067 0.0978124 0.12344239 -0.22336833 -0.3968664 0.0023165224 0.23836811 -0.14063512 -0.0099319145 -0.18394999 -0.077541366 0.17345652 -0.3201177
152 -0.05455929 0.0026755962 -0.19588672 0.039376497 0.19709742 0.3103824 0.047149524 -0.013544301 0.23469165 0.101979524 0.35537758 -0.21681741 0.026986172 -0.0239465 -0.04014616 0.24621695 0.109441265 -0.08540665 -0.18501341 0.086623855 0.15919094 0.21499708 -0.20923409 -0.07119838 -0.76670045 -0.025085857 -0.32386667 -0.3404522 -0.10878494 -0.15716957 0.13931775 -0.088914506 -0.19548221 0.25134233 -0.050301224 0.12998217 0.37080246 -0.064018734 -0.04799838 0.472124 0.0450962 0.074772224 0.09139839 -0.2774127 0.030147038 0.22587074 -0.001662922 0.056299962 -0.25615492 -0.04645538 0.04782419 0.2988663 -0.35960954 -0.052472863 -0.010209252 -0.00043312478 0.10661804 -0.25648794 -0.22066589 0.19346887 0.01825137 -0.072125316 0.038340885 0.17027234 0.16642316 0.048017137 0.03686848 -0.1815814 0.26944664 -0.01574243 -0.06845253 -0.40551543 -0.113663524 -0.43718782 0.18967415 -0.14115168 0.07905693 0.25323218 -0.29638964 0.015318923 -0.0055610733 -0.07629105 0.11709998 0.26538467 0.33387443 0.013222135 -0.15717044 0.009542476 0.34936586 0.35431704 -0.046362843 -0.05600401 -0.046226308 0.016393265 0.3157934 0.044276383 0.3523737 -0.36206043 0.20432925 -0.10850794 -0.36050764 -0.028803352 -0.13816684 -0.063114285 -0.07754561 0.15664573 -0.11170696 0.1792401 0.082630046 -0.24869469 0.103900686 -0.21526936 -0.035502966 -0.2817363 0.06336125 -0.2389971 0.23971015 0.27292266 0.46237344 -0.06924325 -0.2809415 0.29442444 -0.061346836 0.33292863 -0.12229751 -0.05220463 0.11933242 0.10021874
1055 0.27347073 -0.31208977 -0.116283715 0.46305186 -0.4656041 0.10100411 -0.196567 -0.20523304 0.19420627 0.51247895 -0.0547259 0.12883049 -0.32099724 -0.039152402 -0.11916378 0.43881136 -0.15912803 -0.11060588 -0.28066835 0.32233244 0.13028082 -0.032740287 -0.22796853 -0.021109432 -0.30822963 -0.08239975 -0.020907275 -0.24574383 0.0015307732 -0.24602053 0.34660518 0.37234452 0.17377907 0.1733088 -0.075029746 0.3839089 0.14772397 0.24700513 -0.16591786 0.07956784 0.21927018 0.18344405 0.045561608 0.061893262 0.010654955 0.15580174 0.06316056 -0.18832645 -0.3000228 0.014008105 0.0020330742 0.013012556 0.041298907 -0.14728862 -0.036157127 0.38562807 0.14141573 0.5071434 0.48717582 -0.03329883 -0.021689853 -0.08418813 -0.08292772 0.08219141 0.12657367 -0.042060126 -0.06623575 -0.5498131 0.18164608 -0.16835807 0.26221043 0.04391798 -0.12759481 -0.049365804 0.5153125 -0.13722384 -0.10458292 -0.016201293 -0.3892122 0.22067249 0.016553767 -0.3909157 -0.09906861 0.15555272 -0.063578695 -0.026314793 0.33834872 0.0909341 0.29566306 0.13769862 -0.06475859 -0.11040837 0.08904137 -0.04316939 0.47335154 0.26257184 0.0710227 -0.15738197 -0.07215884 0.07573023 -0.1289646 -0.37621287 0.21059194 0.028372481 0.16583584 0.09197778 -0.06918227 0.3373045 -0.18042973 0.19494037 -0.12903261 -0.008949057 -0.026567142 -0.27217314 -0.00036381962 -0.16421549 0.007514638 0.15191208 0.36271825 -0.23800445 0.16205417 -0.3874309 -0.14376797 0.092886224 -0.03810718 -0.03447988 0.19802463 -0.3851144
1831 0.038486328 0.1292212 -0.013514523 -0.259377 0.10427292 0.16792491 -0.29513106 -0.3362506 0.039517913 0.07545678 0.4288229 0.055256132 -0.46541497 -0.08067869 -0.20236132 -0.01963096 -0.19683011 0.11061379 0.107309006 0.17401235 0.13693334 0.03045624 0.17836565 -0.12732357 -0.35394388 -0.028359525 -0.021581685 -0.14938098 0.09232841 -0.08597257 0.23482871 0.19455497 0.041657675 0.29007837 0.23160492 -0.045855667 0.44822675 -0.08873596 -0.26804015 -0.23219803 0.039627306 0.24074809 0.021390615 -0.33436245 0.0526794 0.11309494 -0.0045997617 -0.009282873 0.2529709 -0.04888414 0.15931131 0.020543445 -0.4728195 0.103029214 0.004778454 0.10606622 0.16908187 -0.1691041 0.24747191 0.080931075 -0.14331938 0.12975788 -0.009363138 0.049367152 0.3628018 -0.15650097 -0.24460132 0.03236887 -0.1464489 -0.1339656 -0.25059628 -0.5458634 -0.35593054 -0.2139903 0.13497204 -0.24232951 -0.071064755 0.20617601 -0.37667447 0.08179171 0.2103063 0.02522034 0.24422036 0.23644967 -0.13526766 0.3918759 0.24832438 0.12553442 0.28703225 0.20429365 0.1342888 -0.36646482 0.010424585 -0.14294133 0.26519236 -0.20183055 0.30575827 -0.049209908 -0.13586158 -0.3352983 -0.27376515 0.2226355 -0.1827442 -0.06544178 0.2955302 0.09462227 -0.29454714 0.34846404 0.30099735 -0.2846936 -0.10080118 -0.26316813 -0.040648833 0.22210684 0.16746692 -0.14165406 0.06288041 0.10313602 0.26037255 0.11691269 -0.2105481 -0.14446335 -0.21427947 0.32601327 -0.14842555 0.0508232 -0.4907664 -0.32958356
1558 0.09527011 0.007746545 0.07196928 0.14173584 0.014894438 0.38560873 0.010786917 -0.17306533 -0.29191524 0.1907752 -0.07937037 -0.096774794 -0.07149007 0.12432275 -0.019153606 0.1879378 0.12888637 0.133629 -0.043106258 0.22893476 0.28654268 0.052253228 -0.07521626 -0.06647536 -0.33055496 -0.117331915 -0.12967665 -0.1590221 0.004698155 -0.13075157 0.12862146 0.17214884 -0.10125147 0.3809508 0.36466926 -0.010098643 0.3896567 -0.33207554 -0.25879034 0.17432153 -0.13980795 -0.14450537 -0.27643692 -0.057847265 0.054131582 0.46586758 -0.06375506 -0.2668238 -0.035659082 0.12020076 0.22511573 0.070186935 0.220378 0.051963788 -0.6213444 0.22761141 0.497228 -0.24357864 -0.03166165 0.16389346 -0.35544154 -0.18910058 -0.09030044 0.028098462 0.384399 -0.16722307 0.12795936 -0.12698802 0.2877767 -0.5579136 0.22256269 -0.066139415 -0.37160617 -0.141695 -0.05006227 -0.10492068 0.09875352 -0.011802348 -0.4290936 0.115438156 0.13359225 0.077181734 0.0012485782 0.18207258 0.3768547 0.47688356 -0.013853212 -0.034371156 0.3062774 0.04551139 -0.35004961 -0.06558459 0.06263807 -0.12575556 0.0682077 -0.44725668 0.15130053 -0.061149936 0.084862985 -0.36604553 -0.19229017 -0.1854406 -0.50169146 0.062967 -0.013156101 0.05853288 -0.30029786 -0.006000001 -0.14136454 -0.28277358 -0.04061272 -0.36017847 0.15564883 -0.14394772 -0.14901043 0.027513996 -0.23146436 0.18473558 0.25922924 -0.28697696 -0.15652758 -0.24540389 -0.21714477 -0.024629042 -0.22143401 -0.007827559 -0.35908115 0.34675774
617 0.3486723 -0.23528536 -0.10662626 0.1376809 0.32532933 0.29789013 -0.033933997 -0.18511626 0.1101258 0.15956995 0.011087839 -0.010286007 -0.3676097 0.0061030667 -0.14217797 0.53306663 -0.05004515 0.13365248 0.012615531 0.17628834 -0.070396245 0.005783249 0.21867482 -0.055678718 -0.14184038 0.011725308 0.09542279 -0.015411495 0.13203965 -0.05821346 0.067744054 -0.16158774 0.18037751 0.05216586 0.059980683 0.07102366 -0.06643117 0.3669394 0.035214387 0.083784215 0.41163707 0.2510718 0.11923833 -0.08282187 0.35612231 0.26155663 -0.1214425 -0.32135764 -0.069108635 -0.06692975 0.08408604 0.24959219 -0.10308389 -0.13879429 -0.10441285 0.13879274 -0.092796125 -0.23264061 -0.36211124 0.26669908 -0.2555306 -0.052004874 0.020224234 0.20702074 0.2923617 0.09894795 -0.1839688 -0.46692324 0.07133154 0.02936449 0.065835714 0.023488602 -0.33426264 -0.24129032 0.03685187 -0.1934255 -0.35649613 0.22227621 -0.62040275 0.029622683 -0.048569087 0.0023006003 -0.016077444 0.43078 0.26822633 -0.19251364 -0.3808549 0.06155094 0.117428355 0.21697105 -0.204593 -0.041043144 -0.0642286 -0.042278934 0.30902869 0.18761669 0.25178728 -0.4089215 0.1747516 -0.26336342 0.053453013 -0.25438803 -0.11379518 0.056623995 -0.05291123 -0.006592962 -0.084659986 0.03125195 0.41776663 -0.3454582 -0.019304931 -0.31717843 0.017137485 0.018966665 -0.03236666 0.3184143 -0.27784407 -0.20210622 0.26031876 0.11168378 -0.15312944 -0.27467692 -0.2223002 0.43186536 -0.034852054 -0.050608568 -0.07918262 0.15999898
489 0.112545304 -0.005923776 -0.3231156 0.13083749 0.18762045 0.072671056 -0.04835934 -0.18369608 0.09387893 -0.07000789 0.08403253 -0.04755933 -0.0026706848 0.13890469 -0.15953642 0.44501847 -0.051017176 0.10347002 -0.39649415 0.420568 0.34033585 -0.12866165 -0.121582255 0.061836384 -0.4386057 0.24259202 -0.3777348 -0.23899205 -0.2750577 0.01332082 -0.052424937 -0.16029602 0.26268208 0.36360323 0.12693521 -0.0848288 0.22722642 -0.046471007 0.11688976 0.16355637 0.4468523 0.5227418 0.038020216 -0.45088905 0.074114315 0.4113488 -0.17744428 0.20080392 -0.19026835 0.038469616 0.2494296 -0.08791132 -0.06514793 -0.17927717 -0.24406181 0.24128579 0.513414 -0.25244275 -0.4470015 0.043164056 -0.2140633 -0.21342674 -0.048851006 0.42042983 0.42453605 0.15077339 -0.20225658 -0.23631778 -0.0050575826 -0.30423445 -0.10114956 -0.13819055 -0.1278599 0.03498815 -0.15864627 -0.09223636 -0.12897249 0.31317747 -0.22091636 -0.0033356212 0.2799684 -0.054099128 -0.18342555 0.40789798 0.16195874 0.16591355 -0.31791234 0.20314507 0.2245128 -0.09973973 -0.39465564 0.20138288 -0.15238 -0.15492393 0.21315038 -0.14122233 0.11215316 -0.02912803 0.078501396 -0.28247395 -0.25402033 0.19970924 0.0035613133 0.29761213 0.055673238 -0.30622438 -0.24895443 -9.67012e-05 -0.038640298 0.26013377 0.111301474 -0.10765886 -0.03276517 -0.0054578576 -0.14440309 -0.17972794 0.036155365 0.014309137 0.14146331 -0.17378975 -0.08667094 -0.225378 -0.14393002 0.2514488 -0.08251298 0.019155532 -0.4088184 0.062062547
2180 0.11370809 -0.33035746 -0.082425825 0.085302085 0.12785716 0.27637577 0.17141698 -0.11853764 0.25676525 -0.13940084 0.38072172 -0.40570474 -0.08053819 0.022381783 0.31683767 0.21022774 -0.22510454 -0.25560334 -0.020351088 -0.2668688 0.10776607 0.5230833 -0.3178876 -0.11842512 -0.20740911 0.20653553 -0.022311896 0.21447559 0.22677124 -0.42967948 0.21946461 -0.07696319 0.2917172 0.34787238 -0.17274618 -0.018834429 0.48532522 -0.11428537 -0.32508957 -0.13345045 0.1681425 0.054046344 -0.24594316 -0.09793083 0.20536806 0.055906527 -0.28167266 -0.10993432 -0.038580343 0.2300617 0.15636972 -0.13933651 0.061493438 -0.22082065 -0.31778514 0.38244662 -0.2324468 0.17243944 -0.4074213 0.037016783 -0.24450974 0.2078109 0.42507562 0.05465323 0.047642674 0.12641475 -0.07105538 -0.39848906 -0.03638377 -0.21759506 -0.11297321 -0.14779381 -0.17212577 -0.130298 0.16800833 -0.082923286 -0.30230665 -0.072309904 -0.4603655 0.14504693 -0.40186757 -0.25308958 0.09235331 0.087458976 0.007893849 0.19987135 0.48470914 -0.32030338 -0.14528845 0.12327923 -0.14152671 -0.4578107 0.07840589 0.26698503 0.029326951 0.14277801 0.3313008 -0.14939584 -0.15960966 -0.0602917 -0.16949876 -0.26643485 0.080019996 0.18133661 0.120098755 -0.06376686 -0.17106844 0.098682456 -0.3448621 0.0012578011 -0.17020462 -0.122575365 -0.10752528 -0.16270274 -0.02701274 -0.44088253 -0.25758004 0.017742354 0.028323717 0.16990261 -0.018167097 -0.25936106 -0.17623883 -0.0034872852 0.17556627 -0.13274302 -0.0028771758 -0.3583078
837 0.08326957 -0.4056899 0.23044024 0.36970448 0.0061713196 0.023106929 0.12376496 0.31124395 0.20995785 -0.056475233 0.002863439 0.16790357 -0.09435605 0.16872936 -0.10453572 0.20062101 -0.017660668 -0.010318235 -0.022943527 0.20776063 0.1816622 0.45432514 -0.33414772 -0.41084346 -0.23421806 -0.37986884 -0.040000387 0.27137792 0.25165012 -0.104650006 0.112142675 -0.02649556 0.15508556 0.49415764 -0.015326865 0.23635346 0.25127375 -0.0138577605 -0.3793812 0.15616006 -0.20941098 -0.0015724433 -0.046554174 -0.04273483 0.44392985 0.1586598 0.022081818 -0.33660015 -0.027082361 0.3608069 0.053890925 -0.01894905 -0.0728639 -0.07402364 -0.18626899 -0.092255645 0.35528308 0.3832715 -0.10722722 0.05237548 -0.14736865 -0.38242996 0.13927127 0.0776234 -0.08129655 0.34408882 0.09784131 -0.2709728 -0.21565649 -0.12954487 -0.024479037 -0.15989946 -0.37054032 0.17403722 0.13708325 -0.18919344 -0.26796874 -0.029117238 -0.2305498 -0.0047507994 0.23899876 -0.5128206 -0.076148115 0.66443723 0.0765364 0.380034 0.347214 -0.20281239 0.108524926 0.0072364146 0.12548295 -0.45303246 -0.082465574 -0.16610113 0.09961544 0.34585372 0.27066284 0.01826084 0.029964365 0.35772443 0.16446573 -0.051722217 0.10633569 -0.08959726 -0.018689604 0.3426434 -0.020522248 0.46994773 0.30198944 -0.0002857029 -0.09528121 0.0417924 0.04692362 0.09455611 0.12255865 -0.29236034 0.1305567 0.25925022 -0.2263732 0.28425184 0.07377256 -0.20197578 -0.29086986 0.1524588 0.21927026 -0.17240559 -0.18038832 -0.26958695
2156 0.2490365 -0.05797234 -0.16870378 -0.103809066 0.2151602 0.5082646 -0.19869088 -0.03312673 0.027014472 0.11678519 -0.020283444 0.08401802 -0.19445074 0.13191932 -0.12361776 0.03304807 -0.11931151 0.11932044 -0.092867866 0.31096265 0.26150653 0.20550263 0.19014098 -0.33626983 -0.3260462 0.3128434 0.09919938 -0.020908888 -0.15515786 -0.3604338 0.35133967 0.018384805 0.10347687 0.4885294 -0.2973475 -0.07895127 0.2574254 -0.08983039 -0.15696788 0.034023818 0.0013084237 0.0831531 0.017117498 -0.06301339 0.03338723 0.0045377566 0.0850588 0.17213273 -0.12145567 -0.28699124 0.046796896 -0.23759866 -0.2585062 -0.22883046 0.022186771 0.30588853 0.26147974 -0.11505944 0.15667985 -0.07703777 -0.25889045 0.14555235 -0.17490304 0.2742433 0.52041686 -0.063428074 0.20668492 0.1992974 -0.15640622 -0.46389392 -0.19637622 -0.3077533 -0.2730491 -0.07218406 0.27547356 0.08890318 -0.17678191 -0.24710937 -0.34142566 0.005578198 0.547969 0.13770014 0.023895284 0.17259848 -0.049893785 0.2577925 0.019219115 -0.07101684 0.15720385 0.074567504 -0.16941065 -0.19092186 -0.020655623 -0.14496158 0.265848 -0.31865972 0.057038367 -0.24664713 0.036868315 -0.29882476 -0.041261274 0.15584168 -0.07103114 0.065739475 0.19763608 -0.06002114 0.052664068 0.3751533 -0.017255288 -0.67426306 0.23389897 -0.05127126 0.27140024 0.1106768 -0.051084027 0.13882224 -0.24648584 -0.15185326 0.26291752 -0.20242979 -0.0044110403 -0.023574501 -0.02014363 0.41222227 -0.2343067 0.26171193 -0.48905727 -0.30143654
1190 -0.08686457 -0.37330723 0.23901823 0.36501923 0.24473603 -0.4043841 0.34806836 -0.054906297 -0.37173158 0.09824961 -0.10998441 0.0051025376 -0.18584286 -0.08608544 0.18557626 0.18150008 -0.30561048 0.019750884 -0.08502465 0.19519462 0.24827392 0.11397538 -0.5058922 0.029319042 -0.17198825 0.2900798 -0.06321076 0.27520818 0.35420388 -0.4960402 0.30988163 0.2245838 -0.44592637 -0.1411917 -0.17037196 -0.09687648 -0.0047182427 0.26908982 0.16002326 0.10652681 -0.18989258 0.06610112 0.10666007 0.14843738 -0.100336626 -0.28206936 -0.19236368 0.08683562 -0.041285 -0.33114746 0.17728554 -0.40634644 -0.26163653 -0.36152917 -0.18719949 0.054634046 0.09099589 -0.030355638 -0.119509146 0.20264634 0.06176586 -0.13186325 0.102495685 0.36742866 0.18031307 0.15953457 0.031116523 -0.3631854 0.38192424 -0.319472 -0.14208874 -0.020897588 -0.5950564 -0.22694457 0.16608557 -0.48911428 -0.31841365 -0.19971815 0.02025401 0.08720833 0.051739644 0.046032984 0.059554096 0.18663248 -0.07280297 -0.065935574 0.39691892 -0.2021767 0.0074867266 -0.24564217 0.009373973 -0.22968559 -0.14793485 -0.2830994 0.48771012 -0.019592261 0.07438965 0.17434083 0.18327361 -0.21304685 -0.10156927 0.076035306 0.12746309 -0.158878 0.08272745 0.23290476 0.006839671 0.013368729 -0.1636698 -0.22899254 -0.0061280783 0.07221081 -0.22539672 0.30490127 -0.12015991 -0.067111306 0.13710193 0.107898794 0.40327537 0.06524874 0.09229789 -0.38685068 0.03721366 0.0022709095 -0.270486 0.02388637 0.30987722 -0.49054328
620 -0.2794786 -0.38067615 -0.35077417 0.22834188 -0.30377203 -0.09501172 0.2544477 0.10563804 -0.55997944 -0.21731062 -0.30512515 0.109049074 -0.5296448 0.0074870144 -0.022962991 -0.0046406365 -0.15077253 -0.057391766 -0.36790708 0.26140836 -0.047152042 0.08129117 -0.16904211 -0.32193393 -0.13484253 0.30802223 -0.26776513 -0.44728798 -0.04125734 0.042444047 -0.06532941 0.26847324 -0.40725213 -0.17172863 -0.16901056 0.029640978 -0.013759613 0.1443284 -0.3479889 0.14681819 0.12368143 -0.0012006548 0.06775764 -0.13780247 0.46860528 -0.008181415 -0.10894326 -0.18260482 0.046305783 -0.15817268 0.19323976 -0.4444654 0.0028749283 0.21833213 0.06944073 0.20110649 0.44538113 0.124734126 -0.11327309 -0.028151788 0.07970605 -0.19658798 -0.19858997 0.047232118 0.1360387 -0.23301539 -0.052465506 -0.15116568 -0.08763396 -0.2045212 0.46242803 -0.24251273 -0.27573508 -0.32535264 0.40036392 0.005039576 -0.4068483 -0.04636007 -0.17578268 0.18255863 -0.17558885 0.11683006 -0.21975088 0.08335798 0.31761995 0.4239731 0.30363858 0.14053057 0.26888826 -0.17810635 0.008740803 0.068453744 0.026973272 0.16809052 0.17135747 0.44903332 -0.009276406 -0.06648574 -0.1444658 0.07191302 -0.029431712 -0.14061703 -0.11602328 0.09989668 -0.080257185 0.015525833 0.04791322 0.41396388 -0.11814411 -0.04795511 -0.10776919 0.021860635 0.24612646 0.2649536 -0.32735845 -0.15612417 -0.0016543113 0.27275166 -0.13977022 0.065862186 -0.05210886 -0.13031457 -0.5066909 0.053348374 -0.4874486 -0.1642641 0.23489721 -0.22267975
1706 -0.19655713 0.0020746265 -0.10200708 0.15895002 0.38482493 0.25492525 0.046152696 -0.20712043 -0.03472886 0.009109016 0.24999757 -0.051585186 -0.1724353 0.016334306 -0.2849015 0.31291363 0.043219198 0.07917233 -0.1077053 0.40008625 0.15994073 0.3361966 -0.25359425 -0.026029035 -0.40415102 0.11197355 -0.038067833 -0.27728763 -0.065167904 -0.20306608 0.06730089 0.052475147 0.35423416 -0.14805755 0.10280249 0.19788675 0.19185883 -0.15942031 -0.44085377 0.004620918 -0.105044544 -0.028995002 -0.27254817 -0.09142532 0.28265584 0.24327995 0.02061708 -0.096404016 -0.21074843 -0.2966802 0.1919261 0.19066477 -0.14834048 -0.15929484 -0.23476726 0.048240125 0.19755408 -0.14153777 -0.13493699 0.082612105 0.07563286 -0.13505757 -0.21969375 0.09807463 0.43290237 -0.0377843 -0.22232476 -0.117657244 -0.07925403 -0.12625803 -0.097598195 -0.24659966 -0.18743066 -0.467513 0.42474967 -0.08598321 -0.0127324 0.22837406 -0.4398669 0.29478106 0.2634232 -0.20736784 0.13028103 0.22525315 0.09249406 -0.30091637 -0.15744227 0.13898063 0.4137831 0.2511881 -0.19936638 0.006303666 0.20118175 -0.08347774 0.35332474 0.034743037 0.19116236 -0.0017926752 -0.0012479594 0.092759445 -0.020234127 0.029811699 -0.16004924 -0.19710454 -0.093986295 -0.046164345 -0.15082382 -0.015558931 0.16742158 -0.3298873 -0.18488392 -0.40980923 0.14802599 0.06436069 -0.22285199 -0.21630906 -0.14473948 0.31951582 -0.04209955 -0.122278616 0.026440583 0.22704011 -0.12619214 0.15969485 -0.2997708 -0.43919224 -0.077836394 0.045208745
1645 0.15903275 0.4423668 -0.22502701 -0.068706095 0.03693268 0.39057514 -0.08603895 -0.06645032 -0.25161248 0.023998199 0.20090671 -0.090883955 -0.14239094 -0.4755974 -0.077986486 0.19909835 -0.46058396 -0.17747158 -2.8797513e-06 0.11673848 0.10155458 -0.08404 0.24891414 -0.15509784 -0.30823356 -0.30464044 -0.3087479 0.10654838 -0.002124133 -0.26422238 0.34877297 -0.10285781 0.3449072 -0.08310218 -0.34682313 0.21295306 -0.0883672 0.012439483 -0.394257 0.13592894 -0.16721356 0.59065646 -0.27623636 -0.017060272 -0.13134123 -0.032768924 -0.33623004 0.13553114 0.19024047 -0.20771173 0.23145412 -0.01436351 -0.0104154395 -0.075659096 0.08345311 -0.17612559 0.14159667 0.071685866 -0.28473112 -0.06852219 -0.33333582 0.29667094 0.022721646 0.065160096 0.26567715 -0.26689148 -0.03829766 0.16090919 0.05077838 -0.16915995 0.35089463 -0.19388567 -0.36333418 -0.35649106 0.1648669 -0.19778302 -0.33476657 0.18535803 -0.0668376 0.06398182 0.021391043 -0.15011051 0.23112366 0.22423863 0.1302854 0.24576592 0.025641656 -0.12962961 0.3016074 0.5396924 -0.37858263 -0.094106816 0.046018 0.09971873 0.25478187 -0.33170116 -0.035730455 -0.06934281 -0.005840339 -0.08901256 -0.22293 -0.5068596 0.004103806 0.12786293 0.09602549 0.028644266 -0.09859772 0.35257468 0.26536322 -0.012762005 -0.06880291 -0.14016818 -0.19761728 0.08437543 0.12876414 -0.19319111 -0.09143867 -0.35110575 0.118660964 0.35121968 -0.09444584 -0.5198767 0.10569458 -0.4103662 -0.20403378 0.15939295 -0.14306031 0.15590431
658 0.34158054 -0.2581124 -0.06872856 0.3090313 0.6331227 -0.18498984 0.05605078 0.00011014994 -0.35519958 0.13279861 0.36922836 0.40598053 -0.23509352 -0.54178685 0.20281437 0.3482066 -0.43811238 0.18348251 -0.45148227 0.3910158 -0.057049826 0.09082939 -0.1551525 -0.6582159 -0.2911298 0.44332576 -0.35891455 -0.005567005 0.25326985 0.30708322 0.04974873 0.14472316 -0.46180633 -0.29201916 0.31124502 0.15375368 0.18239601 -0.06635779 -0.20643084 0.11716276 0.3142207 -0.15258777 0.33768716 0.052651364 0.115045026 -0.28281692 -0.2238364 -0.3178609 -0.021587558 0.03191624 -0.01948392 -0.052598838 0.021697577 0.157524 0.23699789 -0.08805732 0.14643578 0.05262465 -0.0751222 0.009183693 -0.2322504 0.17938717 -0.22085771 0.08181208 0.011206263 -0.29292533 0.11290777 0.040853135 -0.2460048 -0.30166024 0.27474803 -0.058167666 -0.39415103 0.12041096 -0.15960495 0.01811954 -0.09889636 -0.42638016 -0.053163834 0.56629467 -0.28776726 -0.28423384 -0.18841685 0.2952648 0.03918555 0.34187746 0.11638807 0.024073115 -0.11909626 -0.30452773 0.2523149 -0.0071986485 0.19343115 -0.07801655 0.13124706 0.13503955 0.02540219 -0.6914732 0.051804937 -0.16864523 -0.18323086 -0.23485392 -0.18841074 0.09241532 -0.073455475 -0.18830721 -0.017898614 0.2742769 -0.06334318 -0.07384619 0.2138309 0.27138436 0.3270925 0.2001664 -0.037545048 -0.30473763 0.09452485 0.2665825 0.11973406 0.045034654 -0.048231453 -0.24917334 -0.2783023 -0.0037630433 0.13130298 -0.26245636 0.40633306 -0.10613663
