1046 128
652 -0.17463921 0.039816998 0.15318719 0.13911293 0.10790154 -0.28406593 0.36597505 0.24205443 -0.0060777725 -0.18231869 0.2920127 -0.089922786 -0.053810094 -0.2873483 0.28453115 0.19626494 0.10259327 -0.52152616 -0.18496852 0.1387495 0.023024982 0.21597807 -0.08512227 -0.59644926 0.30860966 0.08904441 0.11301437 0.35031503 -0.14169845 0.0022681623 0.14660928 -0.19904351 -0.08458745 -0.17790382 -0.2898245 0.06574666 0.41604316 -0.08203056 -0.005729735 0.12242155 -0.08398149 0.5750542 -0.0026828076 -0.12371127 -0.088647716 0.049850337 -0.03305153 -0.08273527 -0.081468716 0.08883455 -0.12240626 -0.09290711 -0.21485937 0.07527373 0.19991 0.5269124 0.23351207 -0.22180516 -0.30686417 -0.111627266 -0.20491576 0.18676369 0.19888146 -0.15842418 0.18735397 -0.15687096 0.2502169 0.46107253 -0.08185528 0.011674458 -0.0028782121 0.16498707 -0.0004233906 -0.20479381 0.33943075 -0.2580175 0.35956675 0.058765423 0.03389152 0.031174595 0.084128 0.009620236 0.2507061 0.203547 -0.06377582 0.19646268 -0.023714626 -0.11617265 -0.040235747 0.3014553 -0.0807997 -0.13382743 0.014059352 0.0375261 0.2407256 0.30804574 -0.3802826 -0.29653513 -0.13314514 0.20390467 0.048785474 -0.031101739 -0.12751836 0.14204998 0.110701956 -0.47379792 -0.24966043 -0.05947406 -0.08025963 -0.16357398 0.2716332 -0.31723228 -0.14064166 0.0002755853 0.04812851 0.2223608 0.18400216 -0.04821816 0.06921292 0.1275665 0.077472635 -0.44295904 0.12830463 0.0029983867 -0.027526911 0.17983086 -0.2705004 -0.20500137
971 -0.3031532 -0.09738276 0.2522551 -0.09761358 0.5079877 0.059730906 0.2561396 -0.21682839 0.123176605 0.27942526 0.25442657 0.24565224 0.0853846 -0.0047352645 0.16016404 -0.016246833 -0.18472838 0.18377899 -0.022128068 0.19989333 0.10135495 0.17588437 0.12821303 -0.3617152 0.039097648 0.043575093 -0.07267686 0.2237813 -0.064021796 0.15459076 -0.08556039 0.1135595 -0.21049328 -0.104866 -0.08430976 0.38934347 0.75131494 -0.24779114 0.12834735 -0.30305046 0.30573612 0.20840131 0.20959423 -0.098709516 0.10195844 0.1711641 -0.22884741 -0.05680157 -0.28878707 -0.30085745 0.28880116 0.12164897 0.34420326 -0.15948701 0.18542609 0.11788823 0.43818074 -0.43509164 -0.21730998 0.15052007 -0.038736947 0.14976095 -0.1018455 0.29905647 -0.033293735 -0.07063708 0.2821357 0.11882447 0.03140766 -0.2613624 -0.00019141019 0.044810556 0.0782212 -0.21673077 0.11701989 -0.4149132 -0.07582373 0.040927134 0.08503029 0.4331725 0.107907645 0.030291876 -0.0014793065 0.12609874 -0.008496996 0.45906907 0.14471447 0.0056952676 -0.23334864 0.20725778 0.22321524 0.030459838 -0.16093685 0.06462771 -0.18720011 -0.1557909 0.031427775 -0.07815482 0.13074774 -0.24247122 -0.3748792 -0.18142076 0.10327937 0.0112277 -0.16503926 -0.28996557 -0.15825783 -0.13026786 0.43722773 0.035486367 -0.08541636 -0.08500079 -0.15149309 0.027136764 -0.29572934 -0.06600335 -0.106006965 -0.15345782 -0.13492642 -0.111224934 -0.14001073 -0.123041525 -0.025532434 -0.03238837 -0.41464707 -0.00033767254 -0.19712542 0.00772031
26 0.16941999 -0.2328099 -0.16384618 -0.21491024 0.090814136 -0.142894 0.1948413 -0.061860263 -0.21482174 0.22729331 0.040934585 0.21756558 0.19878224 -0.055872608 0.3674199 0.31636992 0.253109 0.06268821 0.0013260779 0.42339572 -0.14994246 -0.049992647 -0.2032173 -0.20118365 -0.34748238 -0.19443624 -0.25704774 0.15037097 -0.100690864 -0.31044653 -0.09087061 0.07127558 0.10026694 0.045186665 -0.11210686 0.05044316 0.47324982 -0.17568481 0.24300668 -0.102245085 0.15205333 0.28516898 0.10718088 -0.09334245 0.11312339 0.17486584 -0.14737336 -0.074508056 -0.18613794 -0.1153702 -0.058270607 0.2511658 0.30115893 0.039691366 0.2524446 0.49745697 -0.032235786 -0.50741494 0.005698468 0.36287746 -0.0685331 0.2174616 0.058948006 0.19796927 0.12161746 -0.2573403 -0.0010151658 0.2824998 -0.108428225 -0.036070753 -0.17276666 -0.0068466268 -0.058451615 -0.030409193 0.058895573 -0.5907957 -0.26573452 0.039682798 -0.2484948 0.12989235 0.14821827 -0.067119546 -0.16506527 0.04986063 0.26849872 0.5687953 0.1907732 0.24888086 0.13538401 -0.07465544 -0.11585996 -0.22648333 -0.19435331 -0.4020855 0.076493956 -0.06965329 -0.16545805 -0.48262566 -0.08934207 0.025344389 0.13757665 -0.051234514 0.32453924 -0.028031247 -0.38380975 -0.06780533 0.10027866 0.09092564 -0.06929667 -0.36272952 0.21159485 0.288433 -0.17606081 -0.07905623 -0.021325346 -0.49070466 -0.3820187 0.30005592 -0.20643847 -0.17967348 -0.06125519 -0.3852916 -0.26178697 0.39466736 -0.06465248 0.054025948 -0.3965379 0.15391037
1232 0.0054648602 -0.26518682 0.17875718 0.03361364 0.66097397 -0.36011937 -0.34093258 -0.14684299 -0.20881107 -0.0047678594 0.27877685 0.25513372 0.0533833 -0.19666263 0.30566925 0.4065242 -0.2588353 -0.14979284 -0.22395733 -0.024966372 0.04171669 0.14033125 0.121897005 -0.23801857 -0.20550276 0.42401513 0.2839391 0.022852028 -0.16772133 -0.16128054 -0.24130192 -0.22394328 0.21888436 -0.14733675 0.31423673 0.035622884 0.36161795 -0.45238143 0.5153082 0.165945 -0.02864433 0.075536706 0.08419665 0.088351816 -0.008256693 -0.16466893 -0.22815391 0.24290524 0.24028355 0.11098703 -0.009016781 -0.020916706 0.10305294 0.11568507 0.19151388 -0.039599843 -0.009564099 0.102461636 -0.050517116 0.4295416 0.024893811 -0.09956771 0.27607408 0.21521005 0.15356304 -0.09880499 0.30883184 0.23938802 0.29431236 -0.269451 0.07362519 -0.5131105 -0.28285313 -0.32653847 -0.114637956 -0.3991676 -0.21053407 -0.22439992 0.16466802 0.11240119 -0.059282694 0.03686574 0.29003996 0.32425135 0.4697314 0.53929144 0.0042913808 0.06911862 0.26429415 0.0134177515 0.02244389 -0.09739895 -0.08230083 0.1331749 0.13992514 -0.26628125 -0.079556175 -0.42900413 -0.091461115 -0.06534353 0.217222 -0.12550515 0.19018076 -0.02326166 -0.164869 0.10764914 -0.06137261 -0.049255688 -0.010376251 -0.11041496 0.13338605 -0.28781468 -0.2554684 -0.038718786 0.05968615 -0.008567824 -0.12891234 -0.00053707976 0.16216284 -0.09706834 -0.088520035 -0.027261453 0.13487767 0.007167494 -0.22322161 0.04776496 -0.31094685 -0.1985559
19 0.18188193 -0.28077886 -0.25104716 0.25771636 0.18315224 -0.25822863 0.48120537 -0.17208676 0.030359052 -0.09274648 -0.051308647 -0.041184545 -0.024909213 -0.49777344 0.15368618 0.108916685 -0.2735199 -0.03292246 0.17282851 -0.104659244 0.25772372 -0.09713158 0.06740694 -0.056386467 0.05079175 0.27374902 -0.1924388 0.21512365 0.06274321 0.0011709979 -0.087145835 -0.02901172 -0.102823704 -0.11833861 0.054737955 0.18591785 0.26556665 -0.16676293 0.15074466 -0.010203109 0.3782377 0.38138232 -0.28242043 0.07401184 0.5073847 -0.24709104 -0.012922893 -0.2907112 0.03930052 -0.05453175 -0.123438984 0.013771761 0.09745891 -0.25743195 -0.34882253 0.03279364 -0.16122302 -0.009703221 -0.33264926 0.18822958 -0.08450324 0.05611096 0.3993095 0.08533589 -0.31176016 -0.36116436 0.14918357 0.3358266 0.017415188 -0.2801727 -0.030236226 -0.3323936 -0.21293992 -0.7015417 -0.10395483 0.22421886 -0.17432553 -0.25380567 -0.050705757 0.45360819 -0.31122482 -0.14302288 0.2140592 0.28130317 -0.2531991 0.0523138 -0.12511295 -0.034255844 0.40152568 -0.084749125 0.024922634 -0.10628277 0.09387702 0.122664995 0.16463691 -0.07894824 -0.325974 -0.19504108 -0.115424685 -0.24492492 -0.24973212 0.3085505 -0.07064319 0.20400698 0.39637884 0.013411982 0.44349492 0.14804591 -0.26381758 -0.11544109 0.18661124 0.028953208 0.016161198 -0.1998165 0.22398914 -0.357597 0.13143516 -0.02311438 0.19109356 0.048855927 -0.13595979 -0.07624131 0.043243546 0.03786315 -0.31942004 0.13907184 -0.20559256 -0.18847196
1017 0.20615502 -0.26682448 -0.014996653 -0.1374531 0.43475544 0.041482463 -0.24253394 0.05075517 0.01965738 0.15702838 0.30621102 0.24214047 -0.28452155 -0.20906162 -0.25316867 0.46997535 0.08274944 -0.21592163 -0.48560077 0.114178374 -0.124960594 -0.20557687 -0.20376119 -0.43184093 -0.03860371 -0.22638045 -0.112284146 -0.093542956 -0.2723417 -0.29900226 0.026226884 -0.15998705 -0.12613313 0.19270009 -0.13313353 0.26872662 0.51936847 -0.009929806 0.4463646 0.32825977 -0.11347416 0.18686673 0.1587832 -0.08715779 -0.11173092 -0.11700356 0.031451035 0.040032096 -0.21006785 -0.19014663 -0.0022824605 0.29701924 0.4534732 -0.07482962 0.3321721 0.33629847 0.29574063 -0.29440594 0.09086819 0.36025217 -0.042622637 0.22844006 0.15056181 0.1868793 0.111689225 -0.17267033 0.38886675 -0.15651181 0.16320856 -0.108531184 -0.18586609 -0.07128263 0.04972494 -0.07362388 0.103877746 -0.34441492 -0.056207024 -0.10462508 -0.35187262 0.06933213 0.039220713 -0.051319573 -0.12848622 0.04373879 0.06985497 0.08637573 0.16722126 0.20075245 0.050911635 -0.076449856 -0.17437637 -0.22107428 -0.017961016 -0.30714926 0.051981747 0.047304545 -0.26065332 0.053667706 -0.22793157 -0.0963158 -0.14370468 -0.057641577 -0.1072866 0.20231915 0.074780785 -0.5121662 -0.1722652 -0.021650106 0.091021195 -0.44299945 0.072593234 -0.16764386 -0.04599097 0.24617971 -0.1726901 -0.21689498 -0.19405709 0.15420212 0.16205671 -0.15261553 -0.054472998 -0.1455241 0.11959435 0.111235045 -0.49637002 0.052419316 -0.068525836 -0.049211755
899 0.11306713 -0.26151457 0.37042236 0.15787289 0.6600905 0.020369604 0.07058853 -0.34591258 0.13475886 -0.13162674 -0.03821302 -0.36274827 0.07687474 -0.15574367 -0.3442997 0.6065224 -0.106000915 0.074723884 0.0018816207 0.4544726 0.38286307 0.006350419 0.012104048 -0.4028368 -0.2885693 0.049079873 0.2185601 0.2359598 -0.20272842 -0.0041728658 0.27035612 -0.16291733 -0.1528384 0.2611444 0.2251304 0.2056383 0.06845879 0.057370413 0.23606725 -0.04946124 -0.028435117 -0.0935733 0.07409193 -0.06907934 0.25442773 0.20668688 0.10848698 -0.11177206 -0.8988845 0.23265366 -0.056019273 -0.032042544 0.1735383 0.09011865 0.021149918 -0.1527219 0.44781002 -0.11858196 -0.47058988 -0.27401683 -0.24265474 -0.10020649 0.44891614 -0.053922992 0.55350137 0.52623254 -0.06714114 -0.18960656 -0.03424474 0.23420264 0.26792908 -0.3986113 -0.029648446 0.073564894 -0.07036654 -0.0663461 -0.22483067 -0.16547455 -0.03550882 0.16877833 -0.15875286 0.14822263 0.11843666 0.20525633 -0.35501078 -0.17889236 0.2785095 -0.18751453 0.058812775 0.24607441 0.31636718 -0.09287963 0.020297414 -0.32630068 0.2847386 0.16036852 -0.39547327 -0.3525642 -0.46583274 -0.03485417 -0.58897597 0.08794013 -0.39120913 -0.07729639 -0.043458078 0.29745024 -0.04717845 0.08670758 -0.28883666 -0.096234195 -0.31745133 -0.0036920796 -0.07754902 -0.2934078 0.2436463 -0.073663175 0.27029896 0.03524908 0.28364202 -0.12847708 -0.12080013 -0.04038232 -0.23773123 0.08773358 0.21115613 -0.02134823 0.28194913 0.22696732
636 0.07203781 0.027085835 0.1612877 0.2695102 0.119734176 -0.047995623 -0.08459489 -0.22643664 -0.30143854 0.18670127 0.07411992 -0.38148785 0.15950242 -0.48228997 -0.22778086 0.49329317 0.07327603 0.0584561 0.023921754 0.26502824 0.4739206 0.04877011 0.11359383 -0.11296386 -0.0058556474 -0.034278832 -0.10252697 0.14373948 0.22267179 0.009470031 0.06613396 0.17252316 0.25659865 0.17846647 0.5346299 0.011279579 0.09273147 -0.14803582 -0.21906036 -0.22313486 0.21356888 0.10394306 -0.029877527 0.21397734 0.3054981 0.08392074 -0.07390425 -0.16433217 -0.5425237 -0.0020949577 -0.20580015 0.16868137 -0.19591512 0.28762072 -0.13370536 0.1425984 -0.0760547 0.17379972 -0.1783774 -0.34372616 -0.30243954 -0.26671213 0.22623818 -0.0747642 0.099339694 0.18330285 0.57757187 0.038397297 -0.0015660401 -0.08103833 -0.054602902 -0.58791834 -0.23271254 -0.16745874 0.087557435 -0.11588757 0.027847404 -0.43028182 -0.10396027 -0.25861612 -0.007986949 0.074959576 -0.026050089 0.15663595 0.14384635 0.159985 -0.1005076 0.20217521 0.25465295 -0.16094202 -0.29317853 -0.23301566 0.15318474 0.04635923 -0.20304829 0.05036166 -0.0018869545 -0.09366413 0.19862063 -0.10502129 -0.5036106 0.07989819 -0.0068213274 0.058299907 0.15639621 -0.14531249 0.117239125 0.13808621 0.01422409 -0.5692817 0.011734007 -0.30931535 -0.30675617 0.17453857 0.16499358 -0.28620565 0.68259317 -0.11449454 0.20126504 0.30779955 -0.20023414 -0.40689144 0.030674057 -0.087899856 -0.10393638 -0.150272 -0.08680762 0.19816963
128 0.24741101 0.029706834 -0.04858401 0.02076799 0.5269508 0.19181594 0.22853754 0.32837683 0.29281053 0.3679806 0.17284559 0.029207481 -0.45274928 -0.18796322 -0.04529602 0.15886623 -0.11696693 -0.4756021 -0.3276266 0.68802345 -0.1135694 0.07704469 -0.23830952 -0.26540866 -0.47856936 -0.012328157 0.019163907 -0.16135143 -0.1529565 -0.00017630069 0.19527963 0.008774895 -0.1064009 0.10293055 0.0792651 0.2323245 0.34519547 -0.03980825 0.34499663 0.0057302816 -0.020085588 0.22101887 0.0917229 -0.043589022 0.03980913 -0.36415797 0.07650295 0.0014973584 0.030856846 -0.28650084 -0.21900548 0.36376998 0.08349303 -0.4351476 0.27574164 0.3887264 0.25330013 -0.12500228 -0.06610686 0.32511246 -0.17062359 0.09040704 0.20663112 0.22357085 0.19258715 0.056268726 0.42018983 -0.011441952 -0.14777514 -0.3260464 -0.07303813 -0.008354915 -0.38869545 -0.043095503 0.013605314 -0.43376234 0.10174574 0.010850012 -0.24264303 0.0961493 0.0016169009 -0.21062654 0.061514497 0.018864641 -0.18951038 0.00059017644 0.32163644 0.03873871 0.10723077 0.054677602 0.26742503 -0.30661544 -0.11573208 0.022575555 0.07034992 -0.050903432 -0.16832528 0.0042421734 -0.19705512 -0.24116962 -0.033137076 -0.17109218 -0.06334924 0.18032686 0.21785477 -0.12980096 -0.024994755 -0.043926526 -0.136348 -0.015212662 0.06325847 -0.20754342 0.1514966 0.34036568 -0.06196732 0.062777296 -0.0753502 -0.10892099 -0.032863252 0.13956997 -0.20356745 -0.44486263 -0.11657657 0.19381553 -0.3215348 -0.08630894 -0.21406338 -0.23500311
921 -0.39052546 -0.1368711 -0.10246138 0.096363865 0.23641117 0.096796356 -0.004584486 0.15038675 0.28432536 -0.024889808 0.012983186 0.13496391 -0.20358364 -0.24563615 0.18921614 0.22936891 -0.27329454 -0.44674027 -0.38529003 0.39357433 -0.20012273 0.11998789 -0.34797812 -0.04553796 -0.06835934 0.34768486 -0.08765421 -0.018130612 0.021336652 0.09602923 -0.0426299 0.024688963 0.14550927 -0.01663752 -0.16344957 0.13664769 0.5637946 0.29126543 0.07867018 0.013449989 0.0034832123 0.21406479 -0.038462512 -0.0063126874 0.123573475 -0.03118935 -0.219172 0.082011856 0.010114046 -0.3676047 0.028677745 0.20783164 0.20689496 -0.3907158 0.031852096 0.46856615 0.24466811 -0.1704185 -0.14254487 0.12749775 -0.3314263 0.5672927 0.09043216 -0.11158979 0.051624402 0.07563274 0.2332567 -0.15632965 0.13876188 -0.4171104 -0.11753925 -0.16101047 -0.2999304 -0.10303135 0.0072960737 -0.26375794 -0.3947914 0.31186792 -0.27336505 -0.072727695 -0.16317882 0.03597647 0.091510326 -0.06992478 0.26182944 0.5019686 -0.15372695 0.025308043 0.1076492 0.37898642 0.017460328 -0.2421426 0.059463635 -0.36237574 0.17046171 0.09028949 -0.2192204 -0.2814201 0.052067205 -0.27817544 -0.054643244 -0.60517997 0.114769965 0.06814506 0.18651344 -0.17350358 -0.17438832 0.2291167 0.09234053 -0.21641466 0.14029641 -0.27702045 -0.13084698 0.16322273 -0.02633337 -0.23190124 -0.13486536 0.009750534 -0.044638894 0.10653229 0.14273407 -0.1757201 -0.10723366 0.068926334 -0.15241241 0.0115429545 -0.22834574 -0.13150164
486 -0.124379836 0.04360905 0.076154165 0.16774529 0.103336066 -0.029500684 0.45470855 0.09001996 0.03453265 0.31605676 -0.038350172 0.006998431 0.12941064 -0.54747784 0.14130288 0.5090396 -0.3372408 0.04032331 -0.05249626 0.0039434275 -0.046444762 -0.077154845 -0.21413866 -0.41953856 -0.5658256 -0.2853292 -0.3830289 -0.042008422 -0.028735777 -0.32516542 -0.28501302 -0.050471444 -0.21381219 -0.0979051 -0.10333221 0.19128585 0.108947515 0.19037294 0.14044812 0.081896864 0.07221573 0.33085904 -0.071111776 -0.058244456 0.45999113 0.038560744 -0.19523828 -0.12293234 -0.20682245 0.17915827 0.294428 0.04340742 0.31310403 -0.06350547 0.09051634 -0.028856935 0.11011577 0.11530485 -0.006281902 -0.1730292 -0.35728383 -0.20547426 0.089934796 0.043018196 0.05945994 -0.40990245 0.19060874 0.2901362 -0.2753698 0.35001874 0.093624 -0.29900488 -0.39280134 0.059058648 0.055799797 -0.025223678 0.0007797867 -0.22112583 0.19364482 0.28096035 -0.068810806 0.31655326 0.38607088 0.41106093 -0.17638953 0.03648483 0.3383083 0.228433 0.16228785 0.12146284 -0.15344588 -0.043537565 -0.2760523 0.03640342 0.08974286 0.28629714 0.15478964 0.0612121 0.16198453 0.023656178 -0.025204057 0.16368233 0.086370274 0.34321404 0.32317284 0.18160775 0.03899063 0.4486615 -0.12657747 -0.41033766 0.2027031 -0.04266876 -0.12396871 -0.13820519 -0.016372537 -0.34463325 0.35374734 0.0030947227 0.23962453 -0.19156373 0.09604025 0.33849606 -0.18909742 -0.28224957 -0.42586508 -0.13526523 -0.29010338 -0.19832636
241 -0.114623316 -0.33550873 0.40813524 -0.11729189 0.021626445 -0.12524183 -0.37403074 0.08295826 0.15703079 0.2283659 0.18209854 0.08511316 0.09961138 0.022215784 0.13369903 0.28021044 -0.28125578 -0.1372901 0.09631619 0.17658411 0.2119815 -0.18679951 -0.58436173 -0.762983 -0.090154216 0.099471815 0.057500575 0.09022326 0.041593477 0.26015794 -0.12723908 0.46042475 0.05732382 -0.2263245 0.28545055 0.119445704 0.28836703 -0.18592772 -0.057540786 0.09888478 0.20580159 0.09910063 -0.29549843 -0.053955477 0.1048841 0.09808747 -0.21269493 -0.028008489 0.34713796 0.21021917 0.06639107 0.16907355 0.08377182 -0.094264254 -0.07203301 0.27100444 -0.02354068 0.22043432 -0.30210128 0.25908262 -0.11761845 -0.55299604 -0.075172186 0.11371254 -0.17077109 -0.23115136 -0.17295027 0.08346723 0.017040703 -0.12379839 -0.018979356 0.014517543 -0.17369439 -0.15188359 0.29187307 -0.35194525 -0.079334 0.13920754 -0.19910182 0.11698085 -0.14750478 0.2045875 -0.1268844 0.08831209 0.045639396 0.6338269 0.29767087 -0.14795503 0.045015223 0.08111357 -0.10793319 0.38509715 -0.015267415 0.07722119 0.16551445 0.44495806 -0.24824709 -0.10467342 -0.049803566 0.046560623 -0.11273259 -0.010344111 0.06817534 0.13661055 0.27657893 0.2609446 -0.30769113 0.29091167 -0.2562216 -0.016904004 0.024708735 -0.32326177 0.12093563 -0.13520513 -0.05915801 -0.2682546 -0.081464775 -0.09374944 0.28151578 0.15778865 -0.07459651 -0.4441118 0.29248703 -0.046842925 0.18669854 0.16058221 -0.17082895 0.24428304
327 -0.08226775 -0.3342265 -0.05898158 -0.08675628 0.67388755 -0.37716505 -0.12175947 -0.09150865 0.13936016 0.19920422 -0.043063372 0.064727426 -0.0972341 -0.35734496 0.096940845 0.27764732 -0.08331956 -0.19738546 -0.3195041 0.2340521 0.18407045 -0.016332302 -0.11617201 -0.17204192 0.00075672014 0.09679619 -0.19594926 -0.01600122 0.13124791 -0.05787268 -0.0479279 -0.016647877 0.02857642 0.3501922 -0.26900035 0.30062726 0.39608368 -0.18474574 0.041340586 0.123002864 0.061658744 -0.02633516 0.108208746 0.114061974 -0.07578887 0.19923703 -0.24243994 0.04780246 -0.31065267 0.02478984 -0.26130927 -0.03495888 0.40596062 -0.03693027 0.2145232 0.5065454 0.2042034 -0.38039574 0.0673819 0.29644012 0.2780093 0.062162597 0.0020582988 0.20764653 0.06838117 0.07693234 0.056379482 -0.101284005 -0.1474095 0.030924292 -0.1292017 0.07037491 -0.18247871 -0.09380665 0.1484417 -0.14575872 -0.06393515 -0.24197167 -0.13063301 0.36563072 -0.23346446 -0.49266037 0.029395476 0.010340132 -0.0028176655 0.45862326 0.113991715 0.0635653 0.08021852 0.28014648 0.16244532 -0.34859487 0.07871521 -0.10821143 -0.09252393 -0.16650258 0.03767432 -0.18890232 0.09579829 0.010004742 -0.3265617 -0.29687685 -0.13904312 -0.26689735 0.12356398 -0.18039986 -0.2761619 0.06836013 0.10318619 0.10120804 0.13186571 -0.22663571 0.129849 0.24419552 0.15449841 -0.16688952 -0.20012584 0.27786 0.19583069 -0.09065536 -0.20908087 -0.44457528 0.1146271 -0.058287658 -0.35026363 0.07264376 0.09797036 -0.00067107077
381 0.26369226 -0.21419708 0.035918508 0.23697564 0.3925001 0.06224804 -0.00081925147 0.49016267 -0.1279775 0.24716048 -0.059319757 -0.074692674 0.090545945 -0.29942268 0.19527015 0.3648709 0.031593926 -0.42779145 -0.0060331426 0.089408346 -0.06396717 -0.03638305 -0.14110817 -0.094405815 0.145647 0.05411445 0.12762494 0.14374268 -0.18425776 0.21198843 0.08020802 0.4698983 -0.13770977 -0.12855905 -0.16652073 0.22475447 0.18737364 0.086412765 0.066197515 -0.30762368 0.22694495 -0.078141525 0.020509291 -0.15025882 0.37938744 -0.03552449 -0.2579189 -0.19433956 0.051841773 -0.026625233 0.17540058 -0.039361864 0.32903865 -0.23900345 0.017824423 0.36319542 0.43308276 -0.32211855 -0.2808908 -0.108219795 0.18565537 0.102079734 0.76229495 -0.009541705 0.021689087 -0.074175365 0.21957965 -0.009418336 0.015455162 -0.24380615 -0.10855649 -0.35490978 -0.07846273 0.19551736 0.21517262 -0.20530057 -0.18398054 0.02895889 -0.12609465 0.44402334 -0.078919806 -0.11327058 0.041776776 0.0065838266 0.035227593 0.56101626 0.3751408 0.3869142 0.17079715 -0.24609911 0.09498742 0.057845905 0.24420251 -0.03613609 -0.11693377 -0.014446668 -0.17614977 -0.3433431 0.012401328 0.22475064 -0.08710435 -0.047437362 0.2767516 -0.0036460871 0.05412298 -0.3677623 0.12519054 0.042475484 0.3379341 -0.13090129 0.27628472 -0.35417682 -0.03757144 0.09976636 0.06360589 0.11488522 -0.4513577 -0.016054632 -0.25940594 0.04676558 0.35474136 0.02941699 0.30979228 0.22596498 -0.020916583 0.10962275 0.06428921 -0.012198231
384 0.33979127 -0.024651147 0.06513581 0.055228446 0.37196782 -0.06910469 -0.04769358 -0.36595556 -0.08514243 0.12921591 0.27618915 0.20684308 0.028174972 0.10659191 0.22701083 0.26498693 -0.24736758 -0.15840322 -0.12904544 0.12381263 -0.14477502 0.0050831554 -0.1295512 -0.6996413 -0.2995426 -0.029942077 0.41988972 0.3376364 0.05970782 0.0036969585 -0.20677035 0.32145038 0.24407232 -0.15033531 -0.010926997 0.23283795 0.39707237 -0.117073044 0.49701574 -0.13898426 -0.055403493 0.36466622 0.026894132 -0.04679493 0.20300892 0.08242096 -0.33707166 -0.18548205 0.012387859 0.07395152 0.39254677 -0.11533378 -0.26808688 0.22784363 -0.3237267 -0.16806586 0.12724516 -0.3298394 -0.21648885 0.25045252 -0.110714324 0.00024802517 0.060750756 0.1390902 0.2949724 -0.312006 0.3244296 0.17034864 0.042717084 0.12184555 -0.13196908 0.02358517 -0.217427 -0.13218619 0.61290467 -0.1017906 -0.0018180681 0.10759502 -0.29780954 0.07512566 0.03809146 0.017461373 0.018816192 -0.05869125 -0.26382908 0.33804342 0.0017530044 -0.13746174 -0.18835588 -0.11499099 0.16377454 0.18945438 0.1802271 0.09822078 -0.24488835 -0.24197717 -0.039559655 -0.4819607 -0.117376596 0.041273184 -0.098120905 -0.07771827 -0.3695516 0.094711885 0.022328008 -0.02960585 0.2895942 0.12246625 0.07380047 0.02338774 -0.03391596 -0.18516447 -0.16310616 -0.054546174 0.3289069 -0.01741777 0.10804218 0.168673 0.22359389 -0.020940308 0.46687746 0.05454714 0.1848918 -0.027711315 -0.06255111 -0.25020698 -0.23794252 -0.06656193
233 -0.18687703 0.020594973 -0.13766779 0.102619834 0.13683757 0.08238246 0.08497047 -0.12142164 0.23399918 0.3952662 0.017264314 0.03892608 -0.007183535 -0.16248593 -0.029808266 0.3613393 0.2560195 -0.08112603 -0.4703468 0.024919197 -0.07356309 -0.06402825 -0.027749442 -0.08377264 -0.20397912 0.32086423 0.0064899717 -0.08597143 0.024023319 -0.19486332 0.08554254 0.04344583 0.09400627 0.12227396 -0.27376333 0.17816322 0.34811774 -0.04809323 0.41618815 0.0913801 0.1688256 0.05420468 0.040963873 -0.016660156 -0.020538328 0.10796813 -0.42625797 -0.027690155 -0.35475433 -0.08299486 -0.24156491 0.26164052 0.1923563 -0.14776154 0.06360359 0.39563447 0.16725425 -0.034080666 0.2219771 0.0565816 -0.13430402 0.34018156 0.32474643 0.24435829 0.15760443 -0.039027434 0.08610611 0.30634537 -0.15069255 -0.10375019 0.029469794 0.15236662 -0.21726821 -0.010932026 0.024428897 -0.46786276 -0.0012169954 -0.02076843 -0.34361792 -0.032981593 0.045006998 -0.0013230527 -0.11479991 0.21265347 0.445093 0.68104476 0.41564623 0.31573147 0.2411124 0.22610909 -0.13197526 -0.050499275 0.29227126 -0.41836157 -0.012799264 -0.12052762 -0.107906565 -0.3523856 -0.23551476 -0.27471635 -0.15428565 -0.12713894 -0.05103216 0.30897114 0.23492949 0.0047752503 -0.122176915 -0.19858053 -0.09698543 -0.06810418 -0.13273849 -0.32107973 -0.19906895 0.27350634 -0.22238104 -0.14026597 -0.08369683 0.08473219 0.044208888 0.26785582 0.20187508 -0.31409198 -0.04785394 0.23029573 -0.20875114 -0.2343755 -0.03987079 -0.14712034
979 -0.021222753 -0.13880631 0.34890074 -0.0491144 0.51088756 -0.3337428 -0.06769999 0.371913 0.10274664 0.22081394 0.010050123 0.2354431 -0.24863124 -0.09580063 0.12302851 0.41988993 -0.016436726 -0.2638083 0.05459483 0.057839125 0.0055346927 -0.14441009 -0.020930234 -0.5370783 -0.25738594 0.21796912 -0.40584537 -0.13688312 0.115738906 0.09314107 0.07690947 -0.20505697 -0.14817402 0.055184446 0.28059942 0.16235916 0.37421003 0.24318397 -0.03165224 -0.07024732 -0.15018085 0.47297177 -0.2359018 -0.12272753 0.24523221 0.1122421 0.0552816 -0.31680888 0.034119725 -0.057563357 0.19807841 0.0051435535 0.10989866 -0.22427309 0.017760271 0.3016067 -0.16014072 -0.032008205 -0.16855194 0.1023659 -0.062459785 0.72571653 0.054868586 0.26767704 0.23517732 -0.14443614 -0.32085612 0.17054947 0.18125574 -0.23168138 -0.20683402 0.041581392 -0.02323877 -0.1270875 -0.044396166 -0.055797562 -0.28053996 0.29875574 -0.253422 0.09661326 0.012449029 0.2076819 -0.028986504 0.30232412 0.022972463 0.19466312 0.2458361 0.19796567 0.0028020036 0.26781747 0.012842719 -0.034167584 -0.054177813 -0.08250061 -0.15307511 -0.28352675 -0.4407814 -0.05564797 -0.1868668 -0.10820013 -0.4249676 -0.14139044 0.099274985 0.1647583 -0.11413715 -0.09412266 -0.46117795 -0.1482678 0.1050412 -0.18512686 0.046396885 -0.22828394 0.072142296 0.14594752 -0.53204066 -0.25957927 0.0076630604 -0.14032453 0.11340293 -0.032607846 0.030977963 -0.087685384 0.24680233 0.13406707 -0.06708077 -0.35932055 0.10820545 -0.37255117
704 -0.05882816 -0.11934141 -0.048044186 0.0043381504 0.25274003 -0.060800605 0.22366266 0.31823343 0.123802245 0.083733335 0.09320936 0.021036664 -0.18463665 -0.086716205 0.32110453 0.46329814 0.11718273 -0.40140358 -0.18061587 -0.049056355 -0.30067074 0.28779343 -0.2387181 -0.21246192 -0.09927411 0.3348895 0.17872785 0.16505837 -0.11054976 -0.30274612 -0.01584613 0.109831065 -0.06702531 0.3125247 -0.21410695 0.1009995 0.3739179 -0.25117573 0.24662237 -0.05016351 -0.2541817 0.21425734 0.45464313 -0.17072584 0.107474245 0.16113785 -0.0077344724 0.12964565 -0.034806304 0.017699514 -0.06696061 0.16289139 0.47905943 0.061840404 0.20387058 0.51172173 -0.15666835 -0.092902206 0.012782768 0.084419414 0.07089293 0.3561386 0.038849365 0.2585667 0.09259048 -0.26092696 0.054308947 0.000377888 -0.18196477 -0.5864049 0.09284157 2.8648363e-05 -0.54610056 0.08978415 -0.036848824 -0.30430132 -0.52630776 0.15187891 -0.27267483 0.22798619 -0.23398201 -0.120899305 0.21405914 0.12915578 -0.02486451 0.24510553 0.11876564 0.03506855 0.008844976 0.13597842 0.1910107 -0.36477354 -0.07833953 -0.17021058 0.114276096 0.1639095 -0.13309489 -0.5376777 0.17462608 0.1254952 -0.34427094 -0.23125544 -0.034694146 0.13615161 0.06490222 -0.08109432 0.01297897 -0.06359256 0.09078109 -0.2517367 -0.18776472 -0.2297651 -0.020398544 0.15955605 -0.22260988 -0.068264104 -0.22938626 -0.033426683 0.02804229 -0.29978818 0.12462132 -0.39230064 0.11191166 0.23083274 -0.026254589 -0.28288475 -0.10832155 0.11275047
20 -0.35102612 -0.07902612 -0.23923363 0.08506131 0.41992906 -0.16460201 0.18980101 0.13016534 0.098929614 0.54654396 0.32982036 0.27691305 -0.08744327 -0.3130037 0.30432564 0.04077781 0.22344103 -0.28244916 -0.09698915 0.20813017 -0.11723393 0.43522036 -0.35617727 -0.3552496 0.019003939 0.17616117 0.14821626 0.10507484 0.09917369 0.17773858 -0.05455377 -0.10151993 -0.29018092 0.19418661 -0.10563424 0.36764047 0.48947653 -0.058606543 0.29853374 0.09267013 0.010483085 0.41924247 0.057337202 0.01778192 0.11491092 0.21432534 0.033872616 0.01602429 -0.20974062 -0.060825158 0.19673832 0.013635044 0.37193102 -0.2678726 0.19678739 0.2362141 0.24583623 -0.27769005 -0.06572017 0.41880238 0.23812978 0.2645238 0.3555204 0.14430687 0.07917329 0.045129474 0.059687063 0.049150188 0.060033187 0.080245174 -0.16702953 0.10712413 -0.1419413 -0.15601572 -0.08687128 -0.07884444 -0.31841335 -0.029911181 -0.3331262 0.039208613 -0.09651789 -0.20534375 -0.09873868 0.008772238 0.096847646 0.17020588 0.3963424 -0.103630945 0.17740867 -0.063841105 -0.10837526 -0.10305831 0.19770887 0.12194723 0.029756235 -0.059615158 -0.31987557 -0.4076284 0.053238746 0.13752127 -0.2904061 -0.31401977 -0.026144404 0.20202616 -0.087850146 -0.41210175 0.0045590536 -0.27049097 -0.08338443 -0.11296433 0.04032019 -0.18263246 0.081588425 -0.00015093102 -0.34467208 -0.11082749 -0.3335698 0.117550164 0.111138776 0.16522545 -0.24838188 -0.36442584 0.10287883 0.01424231 -0.36923364 -0.4536722 0.13179858 -0.19488548
109 -0.101638734 -0.08330079 -0.16790274 -0.04378276 0.25551707 -0.12001445 0.2273964 0.09904998 0.17819537 0.19554162 0.4194751 0.15381217 0.06079907 -0.073522665 0.089118436 0.60051876 0.35917088 0.18534085 -0.4112961 0.67340124 0.05251968 0.046343934 -0.058249634 -0.040137433 -0.013499918 0.17061521 -0.19185913 0.21137471 -0.13397764 -0.061703704 0.010916368 0.3132521 -0.06359604 -0.2754854 -0.27870893 -0.18601432 0.23709951 -0.046706717 0.014844391 0.19531883 -0.10195192 0.33964938 -0.17071801 0.13796052 -0.056709476 0.17373256 -0.09749746 0.16645204 -0.11345609 -0.121234745 -0.028738502 0.20637335 0.56259185 -0.03398416 0.013351066 0.4299888 0.13994865 -0.19860345 0.08989404 0.067622304 -0.084630065 0.22207803 0.18673062 0.018770033 0.47980684 0.08406479 0.24506836 -0.11834139 0.10465306 -0.388295 -0.2273845 0.0028163083 -0.36948028 -0.30734393 0.0763888 0.06353307 -0.23980467 -0.35084996 -0.45844424 0.23757517 -0.11187014 -0.11112917 -0.054669905 0.14774151 0.14466432 0.09959917 0.12365877 -0.055263948 0.122662835 0.09444943 0.20528926 -0.28701612 -0.053536993 -0.3958489 -0.26330343 0.0319315 -0.047280677 -0.06341147 0.057680693 0.122857325 -0.08204086 -0.2648018 0.10628641 -0.10399384 0.26487154 -0.1545413 -0.21438637 0.15213913 -0.059134033 -0.20238225 -0.02587989 0.06761787 -0.055000234 -0.20854479 -0.024226112 -0.17729902 -0.39214182 0.2981308 -0.10763634 0.14295718 -0.48266762 -0.31121805 0.10795913 -0.2718863 -0.13643786 -0.046536062 -0.39851075 -0.29604775
87 0.074674845 0.054262627 0.27400407 0.27369225 0.4698792 -0.028853724 0.40135995 -0.12712744 -0.11080827 -0.029138777 -0.23956522 -0.21415573 0.07085315 -0.31383196 -0.1635465 0.3735326 0.0060402458 0.21415111 -0.0039467863 0.4422703 0.5318492 0.16925338 -0.19139752 -0.32828587 -0.016809909 -0.1648214 0.13021104 0.21513727 -0.0409552 0.2239436 0.28295225 -0.25320008 -0.26032603 0.058424875 0.14133418 -0.2874909 0.023902232 0.20236959 -0.0034801692 0.13562076 0.05397287 0.05143335 -0.22903337 0.20248608 0.51481247 0.015283328 0.3079668 -0.16041347 -0.474955 0.18411003 -0.21407592 0.23200926 0.1309424 0.25810787 -0.41356024 0.19431116 0.20568082 -0.3259043 -0.33566505 -0.28980634 0.0044032433 -0.22028862 0.7573191 -0.017477604 -0.19831496 -0.4436009 0.022579812 0.10334123 0.15552399 0.3267758 0.075767614 -0.22748359 -0.27176598 0.063012496 0.12384803 -0.08680856 -0.36392337 0.017415168 -0.20212422 0.44688326 0.059224788 0.20015308 0.07524186 0.35894734 -0.032624986 0.24372672 0.16324571 -0.37967288 0.23928016 0.009018079 0.1038597 0.25342664 -0.09900322 0.043998953 -0.13020708 -0.16362497 -0.0715363 -0.20850904 -0.259228 -0.5076273 -0.27932695 0.20235938 -0.10301675 -0.2181563 -0.1794599 0.21594751 -0.13456987 0.15784267 -0.10659988 -0.08784396 -0.10607938 -0.25164047 0.07621077 0.07606165 0.10893301 -0.29615676 0.38784975 0.13232897 0.32312787 0.17272377 -0.48303008 -0.007970812 0.23759513 0.25626934 -0.009513476 -0.24625698 -0.30802873 0.34177226
310 0.12742397 -0.24372707 0.24958286 0.22741525 0.37595105 -0.25531968 -0.045906387 -0.19084632 -0.23859422 0.22193882 0.42184263 -0.08139463 -0.04909896 0.12942047 0.32492536 0.38927308 -0.36670804 -0.28551814 -0.34247303 0.19743219 0.4533902 0.06519193 -0.26179937 -0.8558787 0.12965046 0.050999425 -0.31061947 -0.09231269 0.2525289 -0.059660986 -0.024733052 0.19302624 -0.08184784 0.17676595 -0.11415385 0.09337729 0.4836402 -0.18927856 -0.20845875 -0.16812305 -0.022009308 -0.2193877 0.36997238 0.16853398 0.021682674 -0.007925094 -0.052696675 0.16469365 -0.6727745 -0.020051278 0.20591804 -0.009060867 -0.6493697 0.21599051 -0.14039877 0.037149426 -0.1483682 0.10638273 -0.14007552 0.20913851 -0.15985711 -0.14381507 0.20731017 -0.14659172 0.13059467 -0.33942884 -0.03345719 -0.07936638 0.17524467 0.047045976 0.0017230419 -0.29354542 -0.43635875 -0.22179727 0.13518843 -0.3441296 -0.27577868 -0.15534185 -0.3334605 -0.10908979 -0.048416372 0.07034623 0.091661766 0.14067584 0.12250905 0.2788448 -0.11519426 -0.06444373 -0.17509885 -0.32809147 0.08616294 -0.023220338 0.41047597 -0.09034043 -0.12508087 -0.077375844 0.2083081 -0.16025618 -0.29380357 -0.065538436 -0.07036359 0.025923045 0.021302424 0.25121453 0.0035151406 -0.084038965 0.2963891 0.18502751 -0.06666292 -0.22224294 -0.030308934 -0.09052255 0.14149116 0.23932225 -0.07128383 0.23432937 -0.29620945 -0.15907896 0.30767158 0.08235224 0.028059382 0.2948191 0.26155895 -0.029067984 0.22066371 -0.09140673 0.014917631 -0.34047467
534 0.1990604 -0.32660088 0.0018705647 0.1555689 0.09861196 -0.17337833 0.32371777 -0.21305434 0.066248484 0.13718589 0.16326158 0.1983953 0.17649154 -0.26493043 0.23786655 0.24730863 0.15744634 -0.07689544 -0.15229225 0.25890937 -0.103861876 0.1577434 -0.13688666 -0.15191838 -0.3650153 0.100284755 0.17334253 -0.24589738 -0.022134304 -0.009146484 -0.02742709 0.01044047 0.25837466 0.13134512 -0.41045105 0.30561188 0.34897843 -0.05284011 0.1917529 -0.046690293 0.23830652 0.45909476 -0.1902993 0.14929104 -0.029700628 -0.3165357 -0.24324007 0.050019346 -0.29494593 -0.061522853 0.058633976 -0.025634963 0.49834204 -0.042185154 0.18353581 0.42792323 -0.10488947 -0.25355184 0.31275108 0.42765567 0.059943743 0.1577424 0.12341375 -0.13400234 -0.06493338 -0.49054363 0.032458097 0.089090414 -0.44435585 -0.35963508 -0.17942245 -0.08814959 -0.105287075 -0.21367209 0.042961754 0.0041017965 -0.13528506 0.07749162 -0.2754656 0.2796221 -0.15811086 -0.17941935 0.26613852 0.29552898 0.026221154 0.18298973 0.27404836 0.3136314 0.033644665 0.2576675 -0.19399059 -0.41515467 -0.2179322 -0.08652996 0.07256961 0.18714643 0.021974338 -0.29298544 -0.21284641 -0.2791499 -0.12222573 -0.34976044 -0.18791813 -0.07374052 0.4465887 -0.13599493 -0.29237035 -0.0067948108 -0.08223941 -0.48685965 0.21611914 -0.16723599 -0.035846923 -0.06544792 -0.36006188 -0.2266086 -0.18254717 -0.22207305 0.2699671 -0.11029709 -0.012149993 0.026643753 0.05270628 0.17648314 -0.17962195 -0.15135898 -0.03427791 0.10666315
43 -0.2730921 -0.12498327 -0.1323151 0.53056407 0.487668 -0.4718368 0.022547783 -0.1447675 -0.024652634 0.526863 0.041481446 -0.31266773 0.031287417 -0.1651432 0.3154848 0.30569085 -0.17926535 -0.026244001 0.2287471 0.6048515 -0.11180885 -0.29998127 -0.027697738 -0.17547733 -0.16804934 -0.23629272 0.025630347 0.43194064 -0.44009152 -0.35191908 -0.0822126 0.20450196 0.06499808 0.04602221 -0.14964683 0.5819309 0.010142524 -0.24540535 0.2263546 0.073967926 -0.07167376 0.46097118 -0.10541709 0.2578562 -0.05799564 0.08949967 -0.33769026 -0.0709923 0.03580023 0.21899812 -0.15912524 0.318888 0.069686085 -0.26223284 -0.14565559 0.002690942 0.12860806 0.028158875 -0.21016881 0.12778892 -0.18187663 0.005838158 0.44105095 0.1604597 0.31265238 0.06825285 0.1451947 -0.27553007 0.18617912 0.112604536 -0.38474396 -0.38505554 -0.24490033 -0.15697818 0.100498706 -0.34464175 0.37865415 0.012129297 -0.31832638 0.13265198 -0.14623083 0.034299802 -0.27938128 0.22674684 0.07759933 -0.07149464 0.19106282 -0.07261063 -0.009429513 -0.033113226 0.044668455 -0.349189 0.2883389 -0.17857535 -0.16306295 -0.1232589 0.0075347377 -0.17990735 0.04236198 -0.2515991 -0.07380833 -0.20889817 0.29606 0.14285833 -0.1542048 -0.19441554 -0.20966947 0.24805698 0.008352045 -0.100780524 -0.13838193 0.1766285 0.53465617 -0.16259193 -0.05831883 0.15596749 0.33442575 0.009909166 0.2099783 -0.026962325 -0.061984662 -0.26917422 0.024705635 0.35431275 -0.020825215 -0.011558293 -0.09913819 -0.16113438
769 0.17363809 -0.11196896 0.19045761 0.25984547 0.118557 -0.07219755 -0.13908069 -0.15150277 -0.12458413 -0.14236806 -0.12974076 0.120570436 0.09551531 -0.4415884 0.27178207 0.27433795 0.0780252 0.16878796 0.11217529 -0.010126199 0.26642606 0.09171671 -0.0642483 -0.37123868 -0.66458684 0.04564444 -0.48954734 0.13567568 0.029057154 -0.27926725 0.2167498 -0.0154956365 -0.16244179 0.08651897 0.07853486 -0.200511 0.3197328 -0.28733152 0.21692277 -0.14390272 0.35392046 0.5372571 -0.10303449 -0.06223477 0.30387926 0.033383943 0.026868332 -0.16838536 -0.33132607 0.09124901 0.028303659 0.17098793 -0.10146919 -0.31454325 -0.29961383 0.17197014 0.037218496 0.18484476 -0.5558302 0.27385288 -0.009983435 0.4139235 0.07136079 0.10194688 0.08363532 -0.04392211 0.39266592 -0.025931695 -0.2516884 -0.43722284 -0.16830643 -0.13268115 -0.3618915 -0.021782368 0.018704936 0.19287047 0.19670793 -0.26091847 0.14816101 0.2527614 -0.35358557 0.30393082 0.13564068 0.49808162 0.020239145 0.3086663 0.12476163 -0.094174094 0.19858894 -0.07839315 -0.23594557 -0.13756528 0.23839706 0.26870087 0.25727564 -0.13874571 -0.09147933 0.008162625 -0.17448273 -0.12912728 -0.19552039 0.14920866 0.08704526 0.11880983 0.04402074 0.26550457 0.14619754 0.46224043 -0.055596367 -0.13718581 0.1790861 -0.11239591 0.08699703 0.09218663 -0.15261567 -0.10742519 0.1747872 0.36140093 0.15740189 -0.22309993 -0.50500077 0.09208563 0.43408072 -0.43882287 0.12428602 0.0017930674 -0.17656979 -0.2244061
385 0.29649013 -0.07312629 0.008197827 0.07829582 0.54815155 -0.10015772 0.19237573 0.038171455 -0.01589704 0.21232906 0.1187804 -0.12908973 -0.18909009 -0.11704519 0.34151042 0.12571011 -0.2734619 0.022837639 0.007497707 0.30053383 -0.108566284 0.082919426 -0.14022028 -0.5603348 0.2952961 0.05080289 0.25178215 0.16422792 -0.26367918 -0.011175731 0.1067737 0.22141877 -0.1415182 -0.06926359 0.1744463 -0.10882707 0.1505577 -0.11329651 0.09913748 -0.15102303 0.18856432 -0.19520877 -0.36555672 -0.2275905 0.37666014 -0.21312378 -0.072249025 -0.16044535 0.25459948 0.16935593 0.15572642 0.058143605 -0.08759701 0.33136535 0.1739863 -0.0044269343 0.14283234 -0.025333654 -0.10264526 -0.08832046 -0.16691533 -0.034714848 0.14179046 0.15130721 -0.07502801 0.13717411 0.2602477 0.16727735 0.03583509 0.03735721 0.12844186 -0.21512106 0.012138751 0.02666826 0.12651455 -0.59903705 -0.0148534505 -0.16136017 -0.34094888 0.023366904 -0.2598985 -0.056807075 0.20769222 0.2926099 0.028212255 0.32823658 0.053990062 -0.13335383 0.05100194 0.13140179 -0.050701648 0.13821588 0.28184673 -0.0011433817 -0.25980592 -0.056652468 0.33447006 -0.39520386 0.19789417 -0.43217748 0.14622217 0.37155953 0.004730817 0.15311372 -0.079608776 0.06597941 0.18078956 0.24193023 -0.3271727 -0.60536426 0.07150634 -0.124825135 -0.17651154 0.010000675 0.046696346 -0.38407937 0.22697145 0.016572174 0.80967355 0.30522522 -0.018741807 0.0018005111 0.27181873 -0.07561768 0.30488506 0.16133094 -0.17713363 -0.30544424
489 -0.18898575 -0.060495555 0.06618174 0.0063121878 0.48667985 -0.413873 -0.024682363 0.15929398 -0.17384455 0.22842714 0.42020383 0.017646618 -0.5022649 -0.06771424 0.49473727 0.2414051 -0.0063695135 -0.1946406 -0.21798164 0.40552312 -0.17766225 -0.12657572 -0.055630334 -0.31484768 -0.30277035 0.20577583 0.21807303 -0.024764158 -0.12550494 -0.06569955 -0.034123655 0.063112676 0.047668666 -0.024102015 -0.19798471 0.53493327 0.40397292 -0.18215105 0.05392083 0.005891999 0.2525124 0.21584123 -0.14005314 0.038023382 -0.0025526427 0.09460039 0.5959403 -0.28575844 -0.1359295 -0.62670475 0.07031846 0.024524052 0.37484765 0.25250393 0.14200138 0.009128728 0.2002352 -0.21948093 0.02196018 0.09758425 0.3501825 -0.02066499 -0.13662358 0.3232176 0.42720196 -0.022352342 0.05009027 0.09751929 -0.21581051 -0.25455222 -0.10637471 0.024473174 -0.19829307 0.003264489 -0.0003314292 0.020734038 -0.33754402 -0.089817576 -0.18605238 0.21861766 -0.20904712 -0.1752283 -0.24104077 0.019673197 0.22896165 0.5992637 0.41693804 0.044768773 -0.024187414 0.65088123 -0.28637004 -0.19320352 0.17485414 -0.26515147 -0.11183377 0.043572158 -0.085482195 -0.28728098 0.17898092 0.13124105 -0.30104408 -0.19828728 -0.20677792 0.13841324 0.122668296 -0.2924105 -0.13050665 0.25962797 0.17172776 -0.32289675 0.21134607 -0.19093433 0.18207091 0.108257696 0.22621575 -0.13037676 0.26957336 0.06501866 -0.024031483 -0.06622841 -0.0544568 -0.10840627 0.16305186 0.08381909 -0.48747614 -0.30532798 -0.05080769 -0.057501614
343 0.09709882 0.04515898 -0.1932057 0.09102177 0.44920567 -0.023907539 0.110219225 0.19721374 0.09000145 0.51316005 0.30328855 -0.13761356 -0.10636058 -0.3103009 0.26419178 0.12991247 0.042322326 -0.47303215 -0.51215655 0.72412866 -0.049189556 -0.27525374 -0.0766872 0.011092948 -0.21441422 -0.19170517 -0.12354322 0.23784557 0.0405306 0.15923448 -0.18898405 -0.01601248 -0.1337339 0.43298292 -0.08782271 0.32811424 0.5941174 -0.041854512 0.12484037 0.08651703 -0.21427035 0.16765964 -0.04654653 0.046040952 0.20534311 -0.08968461 0.043835737 -0.2216408 -0.0028753914 -0.31434897 0.027661435 0.16933788 0.07965671 -0.17261705 0.23692119 0.57626593 0.17144915 -0.22039446 0.14546107 0.22504207 -0.12870204 0.30109417 0.03471709 0.41237742 0.22023238 -0.1168253 0.12574202 -0.03915679 0.02580178 -0.23226675 -0.048119877 0.07550815 -0.25102174 0.078765005 0.39134684 -0.33844268 -0.055473514 0.05905795 -0.07709258 -0.12645757 -0.2033851 0.04714262 -0.0027983799 0.064494625 0.21464235 0.1298358 -0.16376285 -0.11932233 0.05699436 0.1769576 0.33006436 -0.20765993 0.092180066 -0.19449756 0.063052535 0.00951262 -0.30806282 -0.23438093 0.21965961 -0.15573834 -0.32390884 0.06447378 0.28636405 -0.04901138 -0.08510272 0.008175228 -0.1381028 -0.27017283 0.07766278 -0.33577105 0.30534065 -0.13953456 -0.037877943 0.41294625 -0.25126 -0.2409824 0.04687741 0.15068157 0.05603916 0.16863088 0.19654329 -0.40499967 -0.31567916 0.40977845 -0.0995424 0.117755085 -0.19863108 0.102959864
166 0.034147836 -0.17747478 0.33472738 -0.11902101 0.47594926 0.044655982 -0.047811337 0.19994093 0.34846455 0.070776604 0.016769052 0.12337239 -0.11848047 -0.2529315 0.2702213 0.16279347 0.084918395 -0.09913537 -0.1822477 0.5866665 -0.22803321 0.16998856 0.010878968 -0.35560417 -0.037538752 0.14566147 -0.10435588 0.14456335 0.116398916 -0.3553172 0.07666048 0.22044367 -0.17331026 0.31142193 -0.19801043 0.50161093 0.29864633 -0.065740466 0.16998959 0.16092977 -0.059356842 0.637586 -0.07697842 -0.060731877 0.19242053 -0.11431888 0.112858444 0.024370385 0.11472948 -0.29462162 -0.25857782 0.51932657 0.8876858 -0.061664015 0.36882153 0.33678934 -0.13441272 -0.24784158 0.39967236 0.1969989 0.10519144 0.008099352 0.13844761 0.51668876 0.1571181 0.08866674 0.08890228 0.07369249 0.21136513 -0.012036072 -0.22894332 -0.34787664 -0.107712895 -0.41899288 0.1101899 -0.36513734 -0.18720233 -0.12559018 -0.50049144 0.10426245 -0.13103667 -0.103643596 -0.0740572 0.36783522 -0.10917839 0.36984608 0.35041824 0.08883957 -0.07295083 0.25392768 0.12608123 -0.10891283 0.10379031 -0.06759457 0.09163021 0.19605015 -0.19202648 -0.091543876 -0.04209669 -0.095821634 -0.16056775 0.060876783 -0.15625288 -0.01884361 0.23586182 0.034102634 -0.029962616 0.29811963 0.18506046 0.2630835 -0.037350632 -0.18884715 0.035032954 0.35413346 0.069666505 -0.12884527 -0.18857321 -0.1554725 -0.20842369 -0.29864404 0.15673012 -0.043999966 0.0821382 -0.03810521 -0.07618502 -0.03865667 -0.13009055 0.03412494
731 0.13931932 -0.26702994 0.03408692 0.16767083 0.42129585 -0.082224295 0.1983523 -0.10206384 -0.12834004 0.396505 0.10039838 -0.46137455 -0.12321322 0.21417424 -0.13631941 0.32055527 -0.47186658 -0.16884467 -0.12612967 0.13954034 0.37355626 0.1167024 -0.46590063 -0.5240672 -0.15135896 0.048076853 0.020660458 0.12691388 -0.099011645 0.10655191 0.042390592 0.18730435 0.07554019 -0.10004207 0.35256198 -0.11662057 0.250142 -0.023818044 0.18392286 -0.15885812 -0.09840937 -0.048808057 -0.19678959 -0.10637832 -0.081830226 -0.06287308 -0.32315877 -0.14914884 -0.16697179 -0.046384536 0.3944953 0.16611129 0.22497192 -0.17947014 -0.2662982 -0.39846492 0.094947785 0.11869025 -0.25097853 0.12382525 -0.059501015 0.008798517 0.474985 0.21425109 0.07280983 -0.2780379 0.09249172 0.13757363 -0.0024998463 -0.24511962 -0.30001867 0.34443977 0.046005625 0.007643957 0.14441247 -0.37629586 -0.43795842 -0.40239504 0.013402356 0.27385065 -0.12922457 -0.15005693 0.109289534 0.35126063 -0.10127975 0.32911256 -0.033245347 -0.21173121 -0.29982734 0.04853625 0.10731169 0.2189795 0.17198128 0.104303285 -0.17887484 -0.04541573 -0.12870437 -0.17428225 -0.0012783296 -0.25485098 -0.06910835 -0.022988833 -0.055328324 0.13137022 -0.2611196 -0.20999439 0.08016143 0.062630616 0.35123098 -0.17964798 0.16582672 -0.030639084 -0.009695079 0.358096 0.39532727 -0.0904888 -0.018154187 -0.036897752 0.39579874 0.20785221 0.058876988 0.019884562 0.23706853 -0.13283324 0.1289576 0.27664873 -0.09982764 -0.08656728
620 0.3449201 -0.3360395 0.29007757 -0.047552593 0.08784008 0.02927356 -0.117182426 0.23886079 0.16684145 0.11790893 -0.12217305 -0.22088039 -0.078824215 -0.14903668 0.18383354 0.1619455 0.10246688 0.13018297 0.09303277 0.13111928 0.4511302 0.26880637 0.024904449 -0.28817382 -0.11418116 -0.52471304 0.12072229 -0.065729894 -0.23432192 -0.038385127 0.38762438 -0.1959184 -0.009395777 -0.04890651 0.16123392 -0.01872091 0.23025213 -0.3156205 0.107768945 0.17602614 0.14634383 -0.102165535 -0.20413113 0.046454035 0.08626723 -0.10450899 0.019212212 -0.30314133 -0.24714954 -0.03944927 0.032595117 -0.2198576 -0.4423687 -0.11792683 -0.10910571 0.36981606 -0.287722 -0.23336032 -0.29940423 0.14549054 -0.29729402 0.053444304 0.08644302 -0.08250826 0.060933035 -0.025425982 0.2538621 -0.0053337556 -0.17745396 -0.16760641 -0.06624504 -0.36446133 -0.50695467 -0.11325735 -0.050735403 -0.19813484 0.020967817 -0.40466478 -0.18631749 0.60731405 -0.10150504 0.074340954 0.26412737 0.15907234 -0.5331431 0.3663686 0.33515733 0.102658585 -0.043097988 0.15919624 -0.2792307 -0.13192117 -0.115625024 0.28413796 0.32564735 0.25743175 -0.23030207 0.026421202 0.02277217 -0.073443435 -0.26353773 0.005592275 0.059239514 0.18994091 -0.22384302 0.07134171 0.20551145 0.19311741 -0.37680545 -0.26501665 0.28628054 -0.17608242 0.00226087 0.038147386 -0.025027147 -0.553413 0.22660339 -0.3097048 -0.0026131726 -0.025538547 -0.1485458 -0.07140083 0.16984881 -0.15649368 -0.33662185 0.19530211 -0.44954246 -0.062493853
118 0.25248665 0.08804081 -0.10322279 0.304738 0.22448078 -0.22167152 0.34915274 0.09595529 -0.033179052 -0.032041926 -0.056087226 -0.074338436 -0.44770178 -0.1265647 0.17580861 -0.05792955 0.04529186 -0.21555883 -0.32646206 0.3041311 0.06206347 0.02747087 -0.13190083 -0.41127795 -0.30700478 -0.17284289 0.08481822 0.04728105 -0.06392085 0.10919878 0.17726491 -0.008171435 0.25899673 -0.24751462 -0.00048089903 0.052244917 0.29456225 -0.18108475 -0.24279976 0.17278327 0.08197612 0.01528742 -0.05147948 0.19043536 -0.0032536855 -0.13115752 -0.33427 -0.15770704 -0.07136943 -0.2753263 0.09969277 0.2891252 0.46365935 -0.046489812 0.18926553 0.0801142 0.3239178 0.03796456 0.10035555 0.12482057 -0.3526631 0.15064879 0.007819647 -0.30058357 0.18716013 0.013358685 -0.024724215 0.3609426 -0.06366438 0.038191948 -0.46231994 -0.19882992 -0.5477511 -0.29567114 -0.10312557 -0.42624018 -0.047014896 -0.27311808 -0.39754552 0.32141483 -0.3048188 -0.28251383 -0.039541222 0.42751455 0.034439333 0.43792439 0.3101224 0.32148463 0.25654683 0.18443376 0.11008092 -0.15929419 0.14503434 -0.28806344 -0.21455745 -0.11269355 -0.107154645 -0.1200293 -0.25338668 0.30768222 -0.034463402 -0.214056 0.27741402 0.20109774 0.100749135 -0.25045893 0.027887013 0.14277162 -0.17022435 0.13627699 0.2103234 -0.15221587 -0.19169223 0.16579227 -0.4246924 -0.09159372 0.008396237 -0.08908391 0.07063481 0.05562127 -0.014754419 -0.37940273 0.2599134 -0.08246524 -0.11041071 0.022095727 0.09957959 0.15801856
960 -0.04081291 -0.2759795 -0.06457028 -0.003374976 0.3267005 0.20539461 0.003497441 0.23222853 0.23798747 0.0393764 0.25402847 -0.07159844 -0.24086665 -0.267629 0.3311538 0.34876955 0.30047607 -0.005325203 -0.3768342 0.2394217 -0.16002545 -0.002475561 -0.14045733 -0.16368555 -0.12239833 -0.16631694 -0.16682813 0.02515625 0.28488544 -0.17096916 -0.11675435 0.14580283 -0.0072213127 0.015233542 0.19127426 0.28445482 0.39048675 -0.021489808 -0.114988595 0.047443535 0.0045939586 0.22453333 0.040904563 -0.06971135 0.3721593 0.04003171 -0.13665384 -0.3552064 -0.2060811 -0.44853285 -0.079952985 0.089359246 0.19762728 -0.073805265 0.095450774 0.5199502 0.38469887 -0.36480567 -0.18338457 0.10752122 0.18807612 0.22709662 0.10457712 0.20158055 0.20208994 0.03550679 0.005799342 0.26332578 0.09357524 -0.531639 -0.04278987 -0.14438006 -0.6575615 0.06857685 0.41284776 -0.2181614 -0.20996015 0.3164517 -0.24856375 0.11296993 -0.11141481 -0.16136354 -0.287428 0.14166218 0.01918312 0.559049 -0.19089921 0.019937735 0.3475437 0.19942676 0.32166642 -0.28034404 -0.13141058 -0.2096833 0.05238277 0.20570119 -0.22747543 -0.021893816 -0.36423805 0.1394752 -0.2568772 -0.22497922 0.15733455 0.06478885 0.03287214 -0.054000936 -0.21153715 -0.21412435 -0.1322762 -0.14840485 0.13081531 -0.2763805 0.19855589 0.47991621 0.103665136 -0.13625771 -0.44478163 -0.33628505 -0.113763586 -0.0777227 0.090847105 -0.13281076 -0.20554471 0.2966213 -0.43851447 -0.08312041 0.18018149 -0.09972063
958 0.083501376 -0.25242475 0.14305322 -0.2367007 0.8651175 -0.007869744 0.16347457 -0.3187463 -0.023637036 0.46878326 0.049659494 -0.18316804 0.071066216 -0.26830897 0.3253188 0.13730673 -0.150598 -0.038672842 0.07862889 -0.26220134 0.18474568 0.009398753 -0.39568937 -0.10285167 -0.021562213 0.064287476 0.107575096 -0.024850026 0.11513398 0.033397302 0.029470196 0.4467756 0.3564124 0.008790472 0.17231773 0.025312815 0.53843 -0.19361728 -0.0098254755 -0.026104735 0.19963793 0.22415853 -0.08285863 0.15034984 0.11955608 0.20551978 -0.23533106 -0.24612072 0.027175248 0.03772876 0.06717748 -0.27789116 -0.04762915 -0.27288365 -0.20185757 0.13280272 0.20589072 0.44972667 -0.3026829 0.0909483 -0.02850549 0.24921782 0.34878844 0.010724423 -0.07877937 -0.26479697 -0.03543974 -0.2562627 -0.24436295 0.25772327 0.21417251 -0.27694273 -0.1161803 -0.3105346 -0.17747435 -0.5528002 -0.0497582 -0.13065122 -0.19424808 -0.41581148 0.27012482 -0.3042384 -0.26356515 0.3959486 -0.14994468 0.41336462 -0.035335872 -0.2080061 -0.05104247 0.38427714 -0.020288493 0.28935057 0.14188482 -0.014385362 -0.023775931 0.05865603 -0.2858464 -0.09926541 0.07315241 -0.24558523 -0.23395386 0.1449767 -0.18739684 -0.033374384 0.16914678 -0.06175732 -0.004453534 0.3891984 0.4898955 -0.08732249 -0.1985135 0.14246452 0.052368764 -0.16280739 0.2154459 0.18169242 0.06586737 0.090645395 -0.11833571 0.06134381 -0.26105976 -0.29075104 0.25769284 -0.091961086 -0.24660903 0.3708065 0.07194528 -0.24648437
197 -0.21156098 -0.04852516 0.3590517 -0.16345367 0.27369323 -0.15675837 0.40963408 -0.24261744 0.22224283 0.40962374 0.3011089 0.049969234 -0.18303852 0.13015462 0.22111532 0.12623575 0.13159032 -0.370242 -0.04086352 -0.0017351903 -0.25392213 -0.02216251 -0.25842226 -0.37011617 -0.28297317 -0.19851716 -0.26265207 0.17401569 -0.076136336 0.07350695 0.23895936 -0.07127186 -0.0042633098 0.242614 -0.10801955 0.3031295 0.2265187 0.03667764 0.17195706 -0.09419651 -0.18753739 0.3395951 0.08231297 -0.069977604 -0.19801885 0.10124531 -0.04827328 -0.1746165 0.018091725 -0.24517109 0.113278836 0.24245077 0.109471686 -0.22969511 0.313435 0.4975813 -0.0152113745 -0.49636042 0.03935459 0.1275845 -0.29483172 -0.025377585 0.12194448 0.29987422 0.069054075 -0.26755527 0.05956751 -0.2259923 0.0400636 -0.18610303 -0.3413945 -0.48526007 0.060674127 -0.105339006 0.043032903 0.052275725 -0.23282431 0.19627249 -0.40686774 0.114644445 -0.49331057 0.15082844 -0.3205761 -0.09007163 0.0381719 0.3989435 0.26802653 -0.1684717 0.26760694 -0.1574912 -0.08031416 -0.12761432 0.019483402 -0.5619554 0.038401872 -0.11618373 0.062259175 -0.30297697 -0.20201609 0.010156036 -0.20392084 -0.19792259 0.015914062 0.2242926 0.4278353 -0.30255982 -0.13210939 0.28082561 0.14350784 -0.020795345 0.16080058 -0.2623212 -0.07375593 0.119708546 -0.2321201 -0.17303795 0.16943187 0.40730998 -0.012659005 -0.0020126156 0.2614569 -0.29103345 -0.024066636 0.0746866 -0.38465008 -0.2486166 -0.14761752 0.09119278
1072 0.49989283 0.10764004 0.11008549 0.495058 0.36395803 -0.37910905 0.33860648 0.18330184 0.046249118 0.039635774 0.08640854 0.32653037 0.3077153 0.014324437 0.19081691 0.11900318 -0.14893302 0.054949667 0.030680528 -0.027673006 0.3632155 0.06038356 -0.3292883 -0.5824566 0.12350232 -0.00030887075 0.0068423427 0.22582202 0.17822753 0.22001837 0.2706607 0.35165453 0.10858073 0.30479226 0.19258812 0.0865323 0.18652843 -0.08321011 0.36488143 0.22136572 0.18413639 0.26870885 0.38318166 -0.061795447 0.357958 -0.1288489 0.13086349 -0.077528775 0.10568346 -0.009170187 0.14635889 -0.2853289 0.10612074 -0.0016201007 0.28704754 0.09886239 -0.05368949 0.2549931 -0.041719973 0.33560723 -0.32728386 0.048475817 0.2225316 0.06441363 0.027553018 0.17385715 0.043651048 -0.0008697318 -0.07707162 -0.43326667 -0.023572532 -0.25759655 -0.025346281 -0.15342109 0.18804084 -0.21571492 -0.2370394 -0.015963634 -0.1751506 -0.24607101 0.0064494098 -0.09710713 -0.05753693 0.27655068 -0.098580636 0.17862464 0.3518282 -0.053427175 -0.006554141 0.1125085 -0.053948037 -0.14354269 0.41691452 -0.059090637 0.21501468 0.09493524 0.07641956 -0.096665815 0.029782556 0.043812666 -0.27471158 0.117479704 0.018579358 0.4476746 0.043368313 -0.16553602 -0.20363644 -0.06826075 0.22368556 -0.031516936 0.3076244 -0.27267662 -0.22148082 -0.23059727 -0.05601412 -0.04570039 -0.0963869 0.31952703 -0.07915828 -0.33715424 0.482107 -0.02527854 -0.2633447 0.3084963 -0.2516177 0.28030017 0.005113212 0.056639094
916 0.0009895916 -0.24467528 0.20448302 0.05855345 0.14774078 -0.38189235 0.23638467 -0.033808388 0.13140903 0.06709943 0.3163328 0.3309262 -0.040655997 -0.2984945 0.11657597 0.37357396 -0.0046405625 -0.2226008 -0.18723239 0.4435225 -0.12981175 -0.028057909 0.09957486 -0.48741508 -0.4757167 -0.40634516 -0.046015203 0.268675 -0.093431234 0.07556455 -0.035779703 -0.089790225 -0.1844388 0.408368 -0.21293837 0.4065932 0.6067472 0.1254724 0.007296045 0.23060653 0.3217446 0.09327732 0.2939715 -0.33679274 -0.079190925 0.0872428 0.11486999 0.13151805 -0.166812 -0.26053506 -0.018867396 0.16063912 0.15237588 -0.2762693 0.007843925 0.19570775 0.3156414 -0.12029616 -0.1717116 -0.0041085174 -0.11948261 0.3183376 0.08702268 0.24683423 0.40713578 0.07775973 -0.054863743 0.08501919 0.06801852 -0.47400206 -0.21437182 -0.08756188 -0.41139597 -0.2481297 0.027250215 -0.25045726 -0.050591655 0.0552359 -0.17035952 -0.097743616 -0.17182527 -0.1955838 0.19122946 0.3097402 -0.0315009 0.2531386 0.2693146 0.32590127 0.24129254 0.57278144 0.2194009 -0.15547171 0.0841468 -0.4002818 -0.16084978 -0.48690736 0.065257624 0.042660106 0.014772158 -0.124490455 -0.021313263 -0.13258362 -0.115333185 0.17998669 0.0815007 -0.25690827 -0.27183712 -0.15272437 -0.11637893 -0.15038024 -0.089502715 -0.09015561 0.13350368 0.33922616 0.12002998 -0.28219956 -0.3215913 0.17467314 -0.18167184 0.14197224 0.051312756 -0.31696776 -0.17861283 0.33645245 -0.17741396 -0.30942643 -0.34680474 0.18949443
832 -0.14044209 -0.07419822 0.34185734 0.023964027 0.5470193 -0.295691 -0.061758656 0.0064297603 -0.0569595 0.34096375 0.18539552 -0.1718891 -0.28836724 -0.11564622 0.053570922 0.25300568 0.030754864 -0.023529854 -0.34871826 0.24800159 -0.09160641 0.0835258 -0.1799133 -0.42574555 0.086708605 -0.1153931 -0.21764396 0.11114199 -0.091921955 -0.02085732 0.19077973 0.03033435 0.0024354619 0.22358556 -0.123152606 0.058830786 0.6997243 0.029800298 0.41775748 0.086847104 0.21127705 0.24087338 -0.14918777 0.0053407466 -0.20017138 -0.06489334 0.05220669 0.021000605 0.09402391 -0.15137288 -0.08954526 0.28052077 0.29678366 -0.14296822 -0.122832045 0.5568919 -0.030066913 -0.35822013 0.20926869 0.16744898 -0.09560163 0.37234303 0.3235322 0.372865 0.18574233 0.23204158 0.13574235 -0.026462661 -0.024033403 -0.1947952 -0.4266489 -0.1605343 -0.2575392 -0.051782757 0.023644121 0.054830603 -0.005145984 -0.13141434 -0.031727858 0.22676158 -0.03656893 -0.17590058 0.057732243 -0.03760044 0.09173978 0.19338955 0.14537553 0.35489544 0.13583647 0.27558982 0.10081446 -0.17947976 -0.0055554523 -0.11543318 0.3079117 0.0798493 -0.05290713 -0.20890193 -0.18321711 0.10224947 -0.07966216 -0.09474348 -0.09713209 0.24302544 0.2035354 -0.08673441 -0.22447705 0.081139445 0.20462722 -0.05264779 0.33897498 -0.073576555 -0.03291565 -0.092592135 -0.107081726 0.19403838 -0.4113433 0.20118007 0.2972755 0.29817903 -0.32585067 -0.48228365 0.15647654 -0.12559925 -0.08455607 -0.008154025 -0.25222066 0.0146141555
732 -0.010748367 0.2184691 -0.09043567 -0.30826986 0.20802425 -0.17949057 0.17398481 -0.33488086 0.0034655458 0.31056467 0.16000535 -0.043133393 -0.33703223 -0.49903175 0.2791746 0.003969491 0.21896924 -0.32230452 -0.25085184 0.25447214 -0.17554677 0.18393089 -0.4204065 -0.5818329 -0.07759906 -0.09463811 0.12432854 0.05513461 0.12386325 0.097447634 -0.053593397 0.072289325 -0.11824089 -0.03750213 -0.21462992 -0.13383086 0.5537533 -0.032034367 0.4416537 -0.1957649 -0.17185153 0.26530093 -0.30498278 -0.15813361 0.08497256 -0.15512314 0.11351267 0.16578834 -0.3847269 -0.11399249 0.05132226 0.19343452 0.33268383 -0.37986696 -0.05513913 0.36846918 0.11133524 -0.08851309 0.042374812 0.13391086 0.15077463 0.36509094 -0.08342261 0.010144864 0.3985779 -0.14179718 0.08358002 -0.167774 -0.0063301907 -0.09665699 -0.21383142 -0.1139613 -0.31824842 -0.17334071 -0.029411513 -0.3183187 -0.2510148 -0.015634246 -0.1370591 -0.009532048 -0.26305592 0.41598275 0.014397669 -0.14578016 -0.033794317 0.4212553 0.18092181 0.13357095 0.31552598 -0.08152503 0.08800165 -0.39255783 -0.063641995 -0.23574425 0.16325451 0.028378744 -0.1750639 0.051782005 0.24050912 -0.09202245 0.040911075 -0.28669822 -0.10349716 0.28775927 0.08134342 0.18992633 -0.12928565 -0.029602654 -0.06173214 -0.3623483 -0.08105244 -0.48938274 -0.15037659 0.039176296 -0.09549713 -0.21787453 -0.13664883 0.33680344 -0.2942123 -0.2402785 0.40519902 -0.27010635 0.1378613 0.28376615 -0.41050985 -0.036882177 -0.34509844 0.20963481
1169 -0.01568407 -0.28217375 0.028345218 -0.11011957 0.04748454 -0.65182656 0.05856801 0.19364205 -0.042365238 -0.015860403 -0.28670612 0.027244627 -0.0931514 -0.22665742 -0.24800651 0.25244913 0.15432933 0.21198264 0.30707687 0.03687339 -0.009442159 0.19386414 -0.15133388 -0.36726183 -0.10950532 -0.31880546 -0.30017474 0.43791905 0.2348068 0.037858523 -0.03906303 0.06602679 0.124750376 -0.26925388 0.070940614 0.1423291 0.43337178 0.0019063666 0.41368037 -0.11536006 0.18676306 -0.27438277 0.11925623 -0.19096857 0.09625854 0.20409782 0.14829771 -0.21308014 0.24997802 0.16901825 0.39338633 0.107750006 0.025309842 0.09024681 0.03946466 0.66375077 -0.0016389977 -0.016177878 -0.19681133 -0.061692465 -0.1576342 0.24146442 0.260687 -0.07831423 0.069552675 -0.020030664 0.65526956 0.16682252 -0.3081539 0.113665715 0.16701849 -0.30557638 -0.487976 -0.22044042 0.30271208 -0.074088395 -0.15220013 -0.032866154 -0.20991687 0.19429871 -0.36941054 0.055376463 0.29204357 -0.088021725 -0.27392247 0.46411288 -0.007183735 0.12870522 0.06786004 0.36557046 -0.34832025 -0.5350742 -0.0895805 -0.19251737 0.26425514 -0.12126503 0.063836716 0.0020519544 -0.22602104 -0.06382469 -0.23333398 -0.1882467 -0.3303674 -0.19055888 -0.03717795 0.26992664 0.008928584 0.050123096 0.03840801 -0.14197734 0.22330774 -0.058056563 0.041675486 -0.12586312 -0.29412284 0.039472356 -0.035590906 -0.16452 -0.013821861 0.13578773 -0.23070732 -0.07955307 -0.20179148 0.38828868 -0.61818606 -0.040989164 -0.36231998 0.10601629
837 0.08593288 -0.17483184 -0.10917128 0.3372721 0.3460145 -0.24990879 0.05587372 -0.114615515 0.14614795 0.20491087 0.0073761814 -0.1915083 -0.07216489 -0.5019127 0.15269521 0.27668095 -0.30461237 -0.0039507467 0.069542676 0.2194649 -0.043682333 0.0057811625 -0.22846709 -0.35905913 0.2957979 -0.1798753 0.07085561 0.084493116 -0.24831812 -0.007657211 0.21104334 0.17833287 -0.27990207 0.06320423 0.263052 -0.076016456 0.2587126 0.06483042 0.3703014 -0.043423478 0.073981084 -0.100327864 0.0013298293 0.3149828 -0.18678229 0.21187982 -0.30109867 0.18072906 -0.2925276 -0.4685713 -0.06100497 -0.20548616 -0.053953152 -0.15061289 -0.0068977927 -0.38027903 0.20526712 0.23534447 0.2615043 0.26538536 -0.034314908 -0.09279757 -0.13024898 0.06716027 0.110510655 -0.20191866 0.09173768 0.46866712 0.085668504 -0.35017997 -0.24249326 -0.39653495 -0.16890202 -0.2812694 0.3704504 -0.33863047 -0.21599628 -0.08908893 -0.5773161 0.17639773 -0.14175782 0.19527145 -0.104823776 0.28164926 -0.4281516 0.4080734 0.119776845 -0.01651835 -0.16015072 0.15008752 -0.018865848 0.025609074 0.26379654 -0.110261455 -0.21704356 -0.06400446 0.0028263775 -0.42857185 -0.36804903 -0.13034551 -0.1177488 0.37508032 0.4472592 0.06829059 0.15750048 0.14558744 0.060343057 0.29903644 -0.017554337 -0.28434834 -0.06837304 -0.24349551 -0.3450004 -0.21472548 0.22861199 0.010524902 -0.38987124 -0.24551392 -0.019473566 0.064150594 -0.20298654 -0.24864969 0.25414428 0.0036924046 -0.026489908 0.10339524 -0.20168917 0.10420085
1123 -0.031437505 -0.10066669 -0.15912738 -0.12609005 0.2877876 -0.38030145 0.12138628 -0.12037761 0.24997953 -0.010817843 0.19219515 -0.12321907 -0.21722916 -0.1537978 -0.10371807 0.233024 -0.34789294 0.05751568 -0.39041024 0.10244201 -0.24716885 0.008118145 -0.44006887 -0.26463327 0.104456425 0.24583662 -0.25675997 0.15829542 0.1751239 -0.22118054 -0.21406169 -0.029551342 0.10204208 0.23721471 -0.08344833 0.03861232 0.114366084 -0.12102198 0.27127844 -0.24602005 0.020783698 0.32796293 -0.059740122 -0.04556859 0.093872 -0.0609829 -0.02423245 -0.094124325 -0.17726205 -0.11571523 -0.47683352 -0.009580118 0.17930338 -0.2026053 0.24782349 0.59749055 0.3307074 -0.2869759 -0.24095136 0.42968708 -0.02849676 -0.061872415 0.2964885 0.027711317 0.027388675 0.062494826 0.034281198 0.28466251 -0.0043995376 -0.08864347 -0.029320788 -0.008539762 -0.034441184 -0.23101555 -0.035395164 -0.18648417 -0.076059625 -0.122258306 -0.3955591 0.5367659 -0.12196594 -0.11803174 0.22866528 -0.06623352 0.044880353 0.58869815 -0.10141391 0.34547904 0.2733855 0.083417155 0.27534038 -0.12371851 -0.07737572 -0.30905646 -0.2556648 -0.13291727 -0.10854365 -0.24315846 0.039532203 0.06692206 -0.19319162 -0.46738178 -0.1322551 0.2145905 -0.01964749 -0.2346918 -0.349718 0.1450488 -0.109769024 0.19321187 0.47774294 -0.11576696 0.26396015 0.0867815 -0.4020478 -0.15026107 0.08458334 -0.13933997 0.17059201 0.17662667 -0.11615911 -0.16420798 0.08448908 -0.15600583 -0.17095721 -0.11343939 -0.15315564 0.007818728
1109 0.2007611 0.0672858 0.164824 0.005356186 0.4425811 -0.31075734 0.10755876 0.20581412 0.11011059 0.07233738 -0.073972665 0.26330924 -0.09045389 0.054986607 -0.26950717 0.14681758 -0.009949231 -0.1220226 -0.1538011 0.3348398 -0.05069923 -0.123195596 -0.12226772 -0.53207415 -0.55532736 0.016818723 -0.0107967565 -0.02015652 -0.12113283 -0.22971256 -0.01997523 0.104562454 0.031685207 -0.07504182 -0.033104718 0.08487441 0.25946411 -0.23611559 0.1752547 0.01706483 -0.15652908 0.27118975 -0.16119254 -0.013233617 0.28317922 -0.2317269 0.059590887 0.06824451 -0.17467056 -0.54718965 0.1525528 0.36844102 0.25491732 0.12083432 0.26650047 0.466134 0.21391246 -0.15011683 0.16431564 0.05815424 -0.38994262 0.51773 0.33098283 0.4017802 0.33474314 0.37370592 0.25237066 0.15833034 0.3202694 -0.35110587 -0.38578555 -0.02025592 -0.3015414 0.14019956 0.018354269 -0.08827441 -0.32317498 -0.11660472 -0.32792264 0.18265308 -0.14608489 -0.12677705 -0.37329498 0.12534347 0.019263972 0.52239424 -0.24999602 0.21257354 0.08468881 -0.04937134 0.12769482 -0.06308334 -0.102161095 -0.34201396 0.05798765 0.17454381 -0.050352808 -0.046042982 -0.035003174 0.16534673 0.03207164 -0.25489178 -0.1075383 0.100869335 -0.30724886 -0.06991155 -0.27989966 -0.14055735 -0.102167 -0.101593 0.21979088 -0.29747888 0.007540565 -0.0093417335 0.18205793 -0.25317174 -0.034658387 0.27096102 -0.108938366 -0.062115774 -0.18641646 -0.3531284 0.011306549 0.10263107 -0.39007682 -0.20035511 0.020452911 0.18425187
814 -0.06951918 -0.17893857 -0.14629751 0.014276495 0.30108663 -0.006756816 0.10588152 -0.16919392 0.015714582 0.37593448 0.39150316 -0.1237634 0.039066438 -0.16443673 0.48190707 0.58430684 0.13081336 -0.32663476 -0.14118038 -0.084281765 -0.13523519 -0.086207524 -0.32283294 -0.301643 -0.39636597 0.013240532 -0.49032342 0.25078157 -0.27907035 0.33737543 0.10495179 -0.13909854 -0.1681691 0.1906429 -0.21323001 0.105675794 0.3520026 0.19606754 0.27512622 0.18252115 -0.29299378 0.08466212 0.15386063 -0.12821592 0.2945399 -0.25590536 -0.19134307 -0.30580118 0.27713546 -0.33037862 -0.22163075 -0.059347995 -0.022488179 -0.063707165 0.1929867 0.5408962 0.17471977 -0.16377099 0.09795916 0.32635045 0.11177761 0.31185707 0.13031012 0.1353437 0.13194467 0.07535198 -0.33353248 0.23978499 -0.034512915 -0.276459 -0.22250177 -0.099773236 -0.42473572 -0.35488614 0.21710178 -0.25752342 -0.011857036 0.06310458 -0.3836404 -0.15341929 -0.23532797 -0.13547911 -0.05067263 0.36058295 0.22598763 -0.002848772 0.46312606 0.20918205 -0.13015643 -0.02647396 0.21655837 -0.43878293 0.25959837 -0.12599915 0.018454978 0.025602948 -0.0631655 0.070223466 0.1899944 -0.08942049 -0.16125657 -0.22329222 -0.101817384 -0.23554845 0.04426239 0.016656173 -0.10114802 0.21726172 0.011120798 -0.29056203 0.0725565 0.049553104 -0.35185856 0.06377801 0.11419723 0.07637395 -0.0111711165 0.05373946 -0.074521214 -0.110967524 -0.37620708 0.09220729 -0.025570251 -0.11847885 -0.12558316 -0.009403334 -0.2624429 -0.22606373
153 0.06191832 -0.30856788 0.18231833 0.06375251 0.36269954 -0.18718213 0.17136765 0.2790905 0.19758388 0.37582996 0.091736265 -0.18058278 0.32401106 -0.49128678 0.012236244 -0.07445598 0.114233 -0.051439982 -0.14007577 0.114112094 -0.01086647 -0.09460009 -0.077927046 -0.38260224 0.028697873 0.06957008 -0.10311852 0.13487959 -0.02505696 -0.26928946 -0.1659727 -0.053082455 0.08141075 -0.13344054 0.2497311 -0.5262429 0.54181796 -0.26767817 -0.079284005 -0.21408792 -0.079703115 -0.030952876 0.044269193 -0.016469315 0.3711554 0.5347279 -0.29429296 0.36617318 -0.42292568 0.16543329 0.07799334 0.46375424 -0.23805441 -0.13267317 -0.5128962 -0.30120376 0.07598278 -0.13175806 -0.20000002 -0.0557913 -0.27201256 0.13318315 0.08513144 0.26352504 0.124027096 -0.11796413 0.027707944 0.2983054 -0.30430388 -0.07464525 0.21296765 0.034549113 -0.24899751 -0.16858414 0.027324451 -0.24051347 -0.23299928 -0.36825886 0.2561295 0.057314783 -0.15473667 0.032018974 0.2240499 0.38893926 -0.098571286 0.40584648 -0.06341677 0.44443324 0.30576476 -0.004126412 -0.38477978 0.23786052 0.17635775 -0.19310546 0.32568577 0.22186477 0.03528865 -0.7995313 -0.056095857 -0.33420599 -0.19567376 0.034783415 0.17407908 -0.15518089 0.28421572 -0.14980857 0.2177599 0.09353421 -0.06729571 -0.04379469 0.031925917 0.30239782 0.08132894 -0.0979655 -0.3063676 -0.036044303 0.25328663 -0.10780247 0.23623899 -0.15230775 -0.109133825 -0.16937646 -0.06387941 0.10543998 0.22299276 0.104211815 -0.27875963 -0.15094674
61 0.104018256 -0.13063136 0.15581514 0.06720622 0.15495381 0.0858593 0.02316407 0.10564461 -0.02240448 0.27510217 0.20588586 0.36767107 0.4886918 -0.18178886 0.11722128 0.33477744 0.21866386 -0.017559437 -0.36923242 0.36535895 0.19304813 -0.04458828 0.0554547 0.0716689 -0.027949823 -0.15699723 0.052438043 -0.6000718 0.00074368616 0.18123244 0.045140635 0.10017656 0.028389936 0.26372662 0.044910498 -0.042959 0.15629572 -0.3156399 0.5070112 -0.15587884 -0.259557 0.40845466 -0.016382534 -0.272087 0.11156095 0.08542577 0.24048439 -0.0694647 -0.18936625 -0.04016259 0.056131437 0.32156804 0.23243415 -0.12524769 0.3171134 0.17072843 0.32588795 -0.39355394 -0.08195471 0.31869516 -0.13807483 0.55552524 0.39854476 0.25603694 0.10503625 -0.11274987 -0.008120749 -0.13975534 0.0033543983 0.0077316477 -0.09927326 -0.2151092 -0.35521474 -0.5153304 -0.027614918 -0.11118253 0.081474155 -0.10647427 0.096081436 0.095909126 -0.20095262 0.21358036 0.15921587 0.2901725 0.115404524 0.3963639 0.1254183 0.13113712 -0.49237704 -0.0667104 0.08479879 -0.21587035 0.18229876 -0.14730391 0.12113923 0.27290657 0.18249753 -0.02678516 -0.050063398 -0.22205554 -0.4000545 0.07659051 -0.15952937 0.21654499 0.22694784 -0.11847073 -0.30290514 0.55360335 -0.0642502 -0.2118149 0.17233065 -0.097911865 -0.08299953 -0.04223689 -0.21233538 -0.07145991 -0.29263398 -0.014773557 0.1521658 -0.05907086 0.016533699 -0.33911413 0.11004768 0.23052429 -0.1479597 0.04327777 0.39929712 -0.19530681
1222 0.1151444 -0.040349618 0.015543768 -0.015508573 0.024507606 0.012284061 0.048476983 0.15139124 -0.117817186 0.34576052 0.33426654 -0.09506371 -0.16212977 -0.23403907 0.37661725 0.027335754 0.016750826 -0.29073524 -0.09575928 0.14249347 -0.08246507 0.0048043737 -0.27231592 -0.3545239 -0.07899723 -0.10248873 0.036979146 -0.12029735 0.09378826 -0.16690287 -0.22082591 -0.18798885 -0.1488942 0.4549555 -0.42982686 0.33117512 0.559532 -0.39803642 0.21672536 -0.16102704 -0.3664666 -0.13600707 0.049653772 -0.16958365 0.123807445 -0.056463312 -0.1672675 -0.07377664 -0.19526227 -0.25081408 0.0636817 0.114343025 0.3194908 -0.4182515 0.39272708 0.70425946 0.29213575 0.055941995 0.016708154 0.011374052 -0.118882254 0.4128577 -0.053371176 0.077425696 0.13689193 0.12607895 0.14237317 0.10206092 -0.002491959 -0.2844627 -0.16534017 -0.19187473 -0.27717263 0.07203815 0.38365465 -0.26311907 -0.4811982 0.22714894 -0.15875569 0.26920766 -0.21083048 -0.07754867 0.23689236 0.037410043 0.020607669 0.33189172 0.15919602 0.035681576 0.12738469 -0.007345147 0.14094979 -0.31787157 0.2486861 0.019373182 -0.101477884 0.12880911 -0.24644893 -0.01140671 -0.08545852 0.09642468 -0.22277702 -0.09186588 -0.31928557 -0.07809936 -0.065879226 -0.17003933 -0.20171085 0.124949984 0.039040424 -0.3800864 -0.013505003 -0.49842158 -0.13822682 -0.083804965 -0.010441289 0.036440615 -0.34369132 0.11133674 -0.14109932 0.094268575 -0.01320927 -0.27905056 0.13032767 0.2515872 -0.146779 -0.2261267 -0.21675289 0.17387202
1087 0.25990012 -0.053480864 -0.14357384 -0.11722875 0.43893474 -0.18477024 0.094987065 0.3507312 -0.01759334 0.4683599 0.4170766 0.14278458 0.12121097 0.021230724 0.38386002 0.25460482 -0.48354852 0.38961783 -0.38175353 0.40500933 0.2760043 -0.20304939 -0.358269 -0.42639917 -0.40135542 -0.13613224 -0.12423446 0.34806913 0.0019518664 0.047155835 -0.040686544 0.2769771 0.04762661 -0.1744494 0.13650842 0.24692403 0.12825704 -0.057442334 0.42731172 0.021617992 0.4756874 0.045950543 -0.12861757 0.021613222 -0.17181815 0.35504815 -0.4344383 -0.15708926 0.07018932 0.15275061 0.15412457 0.088497184 -0.10816256 0.10357344 -0.08737145 -0.29691935 0.22183016 -0.039517585 0.13054052 0.015755573 -0.24955209 0.10622013 0.17223014 0.15063508 0.2687929 -0.14470635 -0.008036966 0.19322181 -0.27717513 -0.07368206 -0.18838929 -0.15571971 -0.03375286 -0.23694567 0.27512175 -0.09615667 -0.09533158 0.069259375 -0.1910303 0.34572494 0.1302085 0.017740974 -0.15614691 0.41668615 0.323222 0.5818571 -0.01947167 -0.29264256 -0.12409806 0.023867479 -0.021073956 -0.08117219 0.5329686 0.3236749 -0.07563339 -0.06127408 -0.006882482 -0.36163574 -0.07075479 -0.18530199 -0.21514523 -0.3188259 0.21552683 0.024986565 0.20954591 0.031538725 0.18076521 0.023091108 0.12858067 -0.14863642 -0.12937662 -0.29176214 -0.15213273 0.14232989 0.1435507 0.4730479 -0.2520452 0.3264257 0.32767347 -0.01301309 0.080157936 0.110315755 -0.034314338 -0.08030929 -0.13519336 0.051209062 0.0069200676 -0.14274305
14 -0.074313454 -0.33201972 -0.18040308 0.10998788 0.5033526 0.004475529 0.06425958 0.021493558 0.16383716 -0.06690399 0.5013222 0.40883985 -0.37863562 -0.24001007 0.3616119 0.31088883 0.07804137 -0.19994538 -0.038587227 0.08492374 -0.0205986 0.11339648 -0.30335093 -0.32530177 0.028388865 0.14027332 -0.04002583 -0.044132844 -0.098105215 0.13260424 0.43400052 0.017397357 0.06679934 0.14882417 -0.19209968 0.017660312 0.4783385 -0.44637686 0.14631781 0.018653534 -0.033816315 0.30122548 0.04468967 -0.15504698 -0.007377946 0.1964616 0.25220087 0.053677004 -0.026235148 -0.09610143 -0.11612717 0.13726962 0.15549186 -0.547894 0.27416947 0.5411211 0.44833127 -0.22938806 0.3366353 0.11043238 -0.13286771 -0.004150655 0.3406942 0.41350722 0.6321277 -0.045102254 0.040426604 0.1288762 0.06495228 -0.053995464 -0.27632317 -0.021313943 -0.41708007 -0.18057553 0.24788322 0.018420152 -0.18361573 0.06108762 -0.15448403 -0.08119268 -0.35986307 -0.17682476 -0.051961612 -0.0464621 0.118694484 0.08896464 0.20514557 0.33787906 -0.07343418 0.15261146 -0.017796237 -0.25440153 0.1881109 -0.08298034 -0.08028418 -0.13703269 0.027850829 -0.07409215 -0.04109722 0.19922058 -0.24141137 -0.07470381 -0.05100353 -0.08556739 -0.09581187 -0.25103056 -0.18894216 0.018898308 0.2206678 -0.16463225 -0.023258032 -0.34079093 -0.26413956 -0.35910484 0.010201428 -0.14988674 -0.18636721 0.39930078 -0.17294477 0.20206478 -0.1885437 -0.16921054 -0.07581191 0.30302072 -0.2802768 -0.22614254 -0.30859688 0.22036073
84 0.055009108 -0.14371593 0.10427775 0.11254199 0.11001083 -0.111763276 0.29214862 -0.06250232 0.18354578 0.12278578 -0.05447264 0.054976366 0.046262156 -0.25830442 0.29030365 0.28398043 -0.5245535 0.021365533 -0.32512105 0.15623222 -0.06215555 -0.047605377 0.10637208 -0.56457084 -0.36517724 -0.011003204 -0.20114356 -0.04607344 0.43528077 -0.09385656 0.26125136 0.123226084 -0.12957191 -0.3344466 -0.15501958 0.0823676 0.03745917 -0.5812088 0.08276157 0.024715964 -0.051183708 -0.21622704 -0.31371248 -0.1295488 0.30209428 -0.1999393 0.15264542 -0.4633115 -0.23217322 0.14133309 -0.283366 -0.044981804 0.19529271 -0.47572452 -0.30685365 -0.20403399 0.15003446 -0.024891812 -0.33423325 -0.19887662 -0.2814868 -0.09329645 0.23029864 -0.29237074 0.07422189 -0.45652178 0.30547127 0.0377314 0.111509375 -0.24648252 -0.03388761 -0.320793 -0.11673461 0.083116785 -0.29166913 -0.29681936 0.079041675 -0.03916227 -0.24680723 0.07057311 -0.17346555 0.3672329 0.4787629 0.60569715 -0.047467526 0.022435613 -0.0320223 -0.087549254 0.43167943 0.051182173 -0.02681791 0.065875456 0.023288008 -0.11242833 0.652902 0.45706385 -0.09317214 -0.2408613 0.16224536 0.003410088 -0.042839892 0.09884921 -0.23040412 -0.31845325 0.07675861 0.07828121 0.2074874 0.39241183 0.05385295 -0.0834928 0.3783364 0.1353232 -0.019263713 -0.037026964 -0.23980075 -0.13757846 0.29844633 -0.44454157 0.19826193 -0.21473931 -0.39062408 -0.0040592127 0.19795477 -0.03636175 -0.16730824 0.20153177 -0.094080515 -0.1800602
398 0.11041708 -0.5051091 0.065255 0.57429975 0.42603746 -0.34173176 0.08096849 0.04374858 -0.0023483532 0.31418127 0.077297226 -0.21810938 -0.16300225 0.26587978 -0.1817731 0.3902555 -0.40598878 -0.114452325 -0.32616517 0.11964522 0.21764202 0.08886802 -0.19393171 -0.65386736 -0.04032158 0.054932144 0.26051742 0.10515377 0.021982607 0.2961225 0.10739174 0.031322017 -0.13607971 -0.09059672 -0.22242616 -0.07516242 0.1989189 -0.08807258 -0.16308072 -0.0029003478 0.3021391 0.29400504 -0.1730972 -0.3973485 0.17715842 0.41767183 -0.09309322 -0.32697368 0.049533315 0.18184087 0.46783078 -0.09532209 0.18150729 -0.44098648 -0.056625683 -0.16507493 0.10871635 0.014008077 0.17046443 -0.03723226 0.02030396 -0.21929437 0.096268944 -0.07001654 0.09899374 0.020188484 -0.11525111 0.4047824 0.011040197 -0.2527865 -0.15226866 -0.36678466 -0.55281484 -0.17168558 0.1465023 -0.1501243 -0.2706425 0.308018 -0.1697195 -0.010792168 -0.0986981 0.17660764 -0.23557813 0.18104105 -0.1133961 0.4301558 -0.009299339 0.03680622 -0.02555258 -0.46634036 0.12320668 0.26623836 0.31079546 0.3341372 0.003039439 0.20259705 0.22848403 -0.4363884 0.058166627 -0.0726977 -0.14687996 0.44278026 0.09961535 -0.17350271 -0.2285623 0.22211158 -0.18368688 0.1310603 0.14209735 -0.046057805 0.011408145 -0.31027678 0.03387287 0.4615707 0.08307942 -0.23959292 -0.089510486 -0.5058834 0.09168886 0.20340241 -0.024990218 -0.11146243 0.07622933 -0.2211164 -0.2955688 0.19502434 -0.37644076 0.0002757611
65 0.10941615 -0.18629403 -0.054801073 0.181339 0.47303623 -0.04591155 0.15114251 -0.06993437 0.5206295 0.22622035 -0.0063273143 -0.21021578 -0.16947177 -0.00013866331 0.18569344 -0.05099438 0.09916795 -0.34495345 0.0017768934 0.36039963 0.037600633 0.14724739 -0.3813906 -0.033895686 0.02700314 -0.103143536 -0.08518162 -0.16664733 0.27977738 -0.33303759 -0.018896323 -0.044197217 -0.07589706 0.16930524 -0.2750078 -0.12995979 0.2642076 0.11158371 0.21229734 0.11897255 0.29203987 0.26801568 0.08794932 -0.15517189 0.12264827 0.15833126 0.016447576 0.36816263 -0.2792021 -0.40565258 0.18523759 0.10744168 0.40554327 -0.020050595 0.3269155 0.36140093 0.18477632 -0.27041173 0.09481945 0.12552826 -0.30024132 0.40099782 0.2894854 0.26951 0.17257611 -0.25766543 0.22465402 0.26726052 -0.109736934 -0.07974825 -0.2722091 -0.08794407 -0.010262744 -0.046561483 0.117553726 -0.32053015 -0.08811559 -0.30729997 -0.5944205 0.23926806 -0.50778306 -0.3859575 0.070375904 0.06229282 0.22921865 0.11315258 0.20954949 0.03542968 0.16596149 -0.0008873109 0.0023992292 -0.25420383 0.15086462 -0.21511681 -0.1365247 0.02180527 -0.16794956 -0.20907013 -0.073755614 -0.1123834 -0.19538887 -0.44953984 0.17971501 0.3874329 -0.35823482 -0.20615776 -0.17050731 0.068761714 -0.124730736 -0.067281656 0.09555366 -0.21826465 0.11631154 0.3420635 -0.18907537 0.04897065 0.16707644 0.23473896 0.058394473 -0.05005943 -0.039366845 -0.6982216 -0.0670101 -0.045621745 -0.18924311 0.22326668 -0.17961624 -0.2481084
80 -0.23236635 -0.20632382 -0.08315113 0.53928584 0.5072193 0.05718527 0.31619558 0.14141665 0.0008759874 0.1862724 0.5836267 0.12142935 -0.09014109 -0.1699401 0.20830086 0.25801614 -0.12043647 -0.08139573 -0.061325792 0.13550198 0.03636671 -0.23147085 -0.19608514 -0.38999742 -0.07199774 0.3638304 0.19911227 0.27599543 0.27799743 -0.15488201 0.35402766 0.4632254 -0.032906573 0.3708436 0.07351125 0.20049554 0.42954418 0.059376836 0.14890972 -0.099505596 0.12358162 0.13816373 0.028096598 -0.24369712 0.27728057 -0.36967078 -0.51326925 -0.2511837 -0.19753407 -0.2657849 0.02453833 -0.47589993 -0.16823557 0.16744435 0.1125103 0.04476582 -0.032714494 0.13936263 -0.1108456 0.21784687 0.056864426 -0.113780506 -0.028439848 0.059417088 -0.14817403 0.057916306 0.25647652 -0.0686893 -0.14952286 -0.13485652 0.12402166 -0.14417617 -0.077803016 -0.24706544 0.15566967 -0.63660103 0.1505829 0.075506695 -0.29884812 0.0703055 0.4999981 0.17172217 -0.12022779 -0.07957742 0.3083492 -0.0015022508 0.09139898 -0.039371107 -0.009914233 0.12875728 -0.24419378 0.21719861 0.08720148 0.018160557 -0.11883223 -0.21324621 -0.14418404 -0.2516867 -0.4042498 -0.21093705 0.04867286 0.14344451 -0.109617874 -0.075666614 -0.031670988 0.19813836 -0.17295705 0.109775186 0.00067122764 -0.25016907 0.241489 -0.11069358 0.08196908 0.0608816 0.051165685 -0.23506482 -0.35866717 -0.2152387 0.14070189 -0.057970922 -0.14976536 -0.4385559 0.49567443 0.21233504 -0.3454613 -0.06885718 -0.046906024 -0.36572745
535 -0.3022766 0.005206962 -0.09517011 0.21606083 0.025194652 0.12907015 -0.11677333 0.15735845 -0.21211809 0.070359655 -0.057286065 -0.17581046 -0.028230878 -0.51962054 0.24863552 0.06869537 0.06484349 0.07351425 0.40522763 -0.36519063 0.33327782 -0.03676426 -0.14622132 -0.4030931 -0.2600673 0.2659048 -0.025015963 0.041725215 0.35593227 -0.21260335 0.23514612 0.08037631 -0.015730752 0.12445866 0.3791438 0.06395449 0.38013643 -0.30529606 -0.028457588 0.010414092 0.11468499 -0.28124517 -0.15669052 -0.07214694 0.03803272 0.23933476 -0.34076983 -0.4006192 -0.2185362 -0.0234499 0.29273114 0.20494895 -0.23952037 -0.0666698 -0.20868924 0.31903204 0.23091921 -0.03963925 -0.24717477 0.021778636 -0.006055045 0.129466 0.7487166 0.18248215 0.10804343 0.15447645 0.7247659 -0.23771195 -0.20259692 -0.18808736 -0.17159037 -0.15780823 -0.236077 -0.3467118 -0.17383231 -0.21294309 -0.21358526 0.0063039777 -0.4651777 -0.12985733 -0.08099018 0.25484598 0.1838895 0.32619607 -0.18389332 0.1482737 -0.28099874 -0.27685404 0.011385146 -0.20535775 0.09046472 -0.071698554 -0.31573662 0.45994663 -0.024356145 0.046034098 0.045876835 -0.2846276 -0.08704245 -0.12079111 -0.18478243 0.16623008 -0.30651832 0.32605565 0.57891846 0.32287177 0.14970034 0.47861877 -0.05822545 -0.28533968 -0.13662939 -0.20024942 0.003006609 0.030701777 -0.03793897 -0.25161344 0.18855493 -0.09576837 0.18848668 -0.36202988 -0.22825132 -0.14438312 -0.02120238 -0.0059131957 0.10288985 0.107995234 -0.24108271 0.19265656
973 0.2596946 -0.4009481 -0.0037854952 0.2440145 0.22175975 -0.17939073 0.07743767 0.13720961 0.13340078 0.27071518 0.1818138 -0.0445298 -0.25623736 -0.05150299 0.24793504 0.5530014 0.095724866 -0.102947265 -0.45892808 0.26791272 -0.17853819 -0.12891479 -0.022338824 -0.37553376 0.005173711 0.00013622918 -0.097672224 0.031229705 0.034139965 -0.13642791 0.13272792 0.21043117 0.26802212 0.18028255 -0.20453534 0.10332134 0.15623404 -0.018130988 0.39669833 0.10128413 0.017099537 0.025643446 -0.03997413 0.037672624 0.47207797 0.22525373 0.011916637 0.074787885 -0.17593211 -0.46191806 -0.2169357 -0.0037865113 0.16372982 -0.11749479 0.32343668 0.352928 0.5574787 -0.41344336 0.3353332 0.073141225 -0.04194652 0.3317507 0.46075177 0.37172204 0.34831136 -0.35112762 -0.010603487 0.0031951345 0.10699366 0.20156081 -0.07868862 0.15780891 -0.23633103 -0.4435532 -0.14147088 -0.22027351 -0.049002353 -0.1842091 -0.15616694 0.16749339 -0.35901684 0.04128272 -0.05787641 -0.1556484 0.06915445 0.20595853 0.08808615 0.12678552 -0.26681408 0.43919143 0.22015096 -0.12672123 0.005879732 -0.01646776 -0.034091998 0.2111691 -0.30755335 0.1908768 0.3005075 0.1575345 -0.275248 -0.2048376 0.21624 0.049716156 -0.026019067 -0.19632955 0.037456296 0.033304293 0.10602813 0.1568428 -0.14828166 -0.18987785 -0.03728995 0.16399787 -0.23220016 -0.23727392 -0.07406759 0.39151257 0.11771471 -0.25002846 0.0050364714 -0.28410774 0.20178246 0.20767114 -0.35114348 -0.092778936 -0.23713265 -0.15360157
1055 0.080138035 -0.030527776 0.048891526 0.21833633 0.59464484 -0.18777037 -0.17746472 0.45329508 -0.20191863 0.49593428 0.1684081 0.3207634 -0.31913587 -0.27200127 0.14571571 0.13582486 -0.41789657 -0.13922942 0.024374954 0.46275756 -0.1808807 0.4625592 -0.21392755 -0.38099214 -0.17364348 -0.3660931 0.005891289 0.15882607 0.013961514 0.11735928 0.20182352 0.16038762 0.032849357 0.084572755 0.2293843 -0.08089742 0.12298834 0.22020237 0.17281424 -0.09175445 0.124615625 0.3195925 0.12361905 -0.082735196 0.10518939 0.117199436 -0.37701562 0.1812078 0.20455933 -0.29214603 -0.22029881 0.1477 0.18417595 -0.14259957 0.18969496 0.037580024 0.49569207 -0.22905219 0.16132505 0.4423252 0.25204846 0.2895158 -0.025037155 0.23945811 0.2589601 -0.109828025 -0.11268141 0.35352623 -0.03689659 -0.09242115 -0.43263704 0.11426403 -0.21894875 -0.16100708 0.08459315 -0.11763512 0.0115314135 -0.093762785 -0.3431363 0.117028564 -0.08252401 0.24684276 0.048789475 0.37358814 0.027715208 0.061428595 0.01702461 0.16990505 0.15225935 0.23608941 0.2928118 -0.45916668 0.4777649 -0.2725051 -0.20507492 0.20398436 -0.013484772 -0.35712075 -0.19188733 0.124955304 -0.20519242 0.08992652 0.06942539 0.0049565244 0.2485794 -0.26450595 0.0889289 0.03725863 -0.25977838 -0.18360505 -0.07539811 -0.076335855 -0.06771486 0.19039585 -0.19996774 0.03535675 0.1685138 0.011963805 0.040523812 0.07047262 -0.11231301 -0.19077733 -0.17216602 -0.06926785 -0.101824105 0.23245604 -0.094892 -0.13387911
248 0.022683593 -0.32789856 -0.25536165 -0.08788992 0.26633215 0.24004367 -0.058821157 -0.18995474 -0.112833135 0.22665904 0.37094468 0.10489474 0.12562269 0.21194959 0.09058081 0.3248473 -0.021466443 -0.020555547 0.14029972 0.30584455 -0.14821316 0.12000053 -0.17653452 -0.45097473 -0.37857762 -0.15906525 0.30337223 0.22386508 0.099341966 0.03312624 0.21383382 0.09940972 -0.1954779 0.1304376 0.15424316 -0.065062545 0.33460832 -0.11893479 0.24831931 0.1555744 0.0836153 -0.15247501 -0.2125064 0.23916942 0.06323025 0.044728324 -0.49696997 -0.033044357 -0.091511264 -0.0040313574 0.44162518 -0.37347212 0.10894482 -0.297706 -0.39022744 0.15228164 0.06599075 0.011402617 -0.062308397 -0.06363913 -0.2608949 -0.27228236 0.13204592 0.35155782 0.12669097 -0.30661914 0.32375282 0.1804507 0.24077669 -0.2508602 0.118547834 -0.089210935 0.100370474 0.06725187 0.5420799 -0.0011194611 -0.10222191 -0.07564518 -0.04444064 0.21207564 0.112939 -0.19482243 0.44102764 0.34554496 -0.46221265 0.5357386 0.056965996 -0.04622451 0.15399995 -0.33759502 0.01031674 0.0981743 0.07233902 -0.19364075 -0.03276708 -0.24929208 -0.09980274 -0.40805608 0.046440855 -0.05689974 -0.5070857 0.33799538 -0.5610232 0.12302126 0.093792394 -0.17818049 -0.14757544 0.10834127 0.12396288 0.1298717 -0.4497325 -0.113932535 -0.3365523 0.028238663 0.15232581 0.20179309 0.44882601 0.17515478 0.019580377 0.02685806 -0.052513704 -0.09359913 0.19429852 -0.029167514 0.021054668 0.5796959 0.103595205 -0.07972175
1158 0.056353495 -0.5526945 0.19870245 -0.12791885 0.3848594 0.061394516 0.03212112 -0.14171767 0.4700289 -0.009608856 0.16714704 -0.23603861 -0.23698412 -0.07511483 0.14759605 0.30418506 -0.1980429 -0.05796985 0.37480018 0.13124436 0.28065786 -0.20880225 -0.14881863 -0.31570923 -0.118465275 -0.064364515 0.23029238 0.46875367 -0.008155269 -0.05611614 0.18630627 -0.0693599 0.19267958 0.23798199 0.29198155 0.099915475 0.31865427 -0.111600615 -0.16814488 0.058164433 0.39226374 0.23163532 -0.20613123 -0.3336348 0.5337695 0.19358316 -0.22201054 -0.2887437 -0.21725692 0.028291594 -0.076707475 -0.07796815 -0.17032443 -0.14970836 0.017885162 -0.28132096 0.15597282 -0.002736742 -0.39322114 -0.26995686 -0.35261288 -0.40027902 0.30922395 -0.074813426 0.3187641 -0.026874611 -0.05556708 -0.37051204 0.2339569 0.1759014 0.21369392 -0.23752646 -0.13194028 -0.18567424 -0.28630152 0.14897609 -0.32551622 0.08530831 -0.5179432 0.5872983 -0.28543022 0.6076119 0.14879239 0.046099268 0.009673368 0.10826212 -0.34601253 0.116365686 -0.3502042 0.08906481 0.034979746 -0.118820496 0.25362366 0.42854142 0.5835058 0.21311018 -0.13826154 -0.3810666 0.22032964 0.13648516 -0.15701017 -0.10760408 -0.21234763 0.029097036 0.085518286 -0.24931496 -0.023000307 0.32170144 0.31484902 -0.7573781 -0.16388129 -0.43298417 0.08532798 0.030974591 -0.22957331 -0.42699736 0.050030593 -0.44634363 0.022062471 0.29735768 0.0046895365 -0.1431722 -0.11240938 -0.0012909312 0.32289895 0.48545912 0.0038530927 0.14842524
62 -0.039118532 -0.24910317 -0.24399084 0.20993268 0.42698127 -0.36113003 0.028864376 -0.08675414 0.2567705 0.6660073 0.17287251 0.45596954 -0.08080878 0.003866125 0.12112109 0.23749597 -0.081778236 -0.23406895 -0.2405777 0.09854114 -0.0012631977 0.011435881 0.006173424 -0.38884938 -0.25268412 0.34520438 0.23535031 -0.0027325316 -0.20291658 0.2110831 -0.03304356 0.25820398 0.15902923 0.23801722 -0.1382322 -0.1081201 0.34695566 -0.11258416 -0.07046822 -0.14612035 -0.17571492 0.25087556 -0.47611466 -0.23827887 -0.011278249 -0.29433897 0.06365808 -0.08221854 -0.49786416 -0.052378166 0.3221466 0.24534151 0.11236249 -0.10263483 0.024695959 0.4802789 0.43749058 -0.41548118 0.12600486 -0.026467208 -0.35336632 0.24986607 -0.0027714102 0.33905745 0.098645836 0.036250334 0.31158122 -0.11885546 -0.38837126 -0.18849649 -0.3824098 -0.13076583 -0.12231949 0.3207578 0.25156158 0.061261334 -0.089814045 0.43474168 -0.2086842 -0.19958429 0.14887094 -0.32541144 0.14739254 0.19472854 0.07419806 0.057742678 0.10766924 0.1562308 -0.20429848 0.07708747 0.17139189 0.08094976 -0.24063094 -0.123524025 -0.07249152 0.017740803 0.048192967 -0.23733294 0.0210177 0.06991735 -0.19670863 0.2992464 -0.32401142 -0.030660337 0.095540576 -0.057107333 -0.15171693 0.20126757 -0.37006888 -0.30036876 0.17018488 -0.22991866 -0.035786122 -0.18277587 0.101336665 0.07380373 -0.2836487 0.027085261 -0.016914042 -0.27463752 0.11033101 -0.35811982 0.48548234 0.0392631 -0.3591067 -0.12416864 -0.18345942 0.086698756
419 -0.0046767243 -0.022394931 0.27592248 0.15883581 0.019544331 -0.08355135 0.081514835 0.1598346 0.2855037 -0.08889105 0.3192414 0.009107306 0.21229355 -0.49547338 0.20063871 0.27449912 -0.37425837 0.10239146 0.37729728 0.018679678 0.22888789 0.16591857 -0.029457998 -0.40576565 -0.048758313 -0.2909804 0.1876358 0.24619582 0.21286488 -0.33642304 0.33501095 -0.45314312 0.12583162 -0.009599505 0.04079118 -0.024175167 0.40774694 -0.39601395 -0.03528761 -0.18793945 0.19882199 0.21995813 -0.5176473 -0.036239743 0.45159808 -0.00992669 -0.22749208 -0.26195645 0.08195651 0.31243843 0.31435132 0.008278377 -0.005539288 -0.22018056 -0.35855657 0.14393993 -0.14115226 0.0124502275 -0.5432473 0.17297307 -0.23582014 -0.007963248 0.048786428 0.041096926 -0.06125842 0.15744781 0.31003863 0.15400122 0.07024614 0.04590619 -0.22125947 0.2204947 0.08823384 -0.103172936 -0.12348854 -0.31692898 -0.20490287 -0.13004708 -0.38438097 0.015219009 -0.31742567 0.017478706 0.28413296 -0.11843904 -0.005453867 0.5877861 0.48618647 -0.02890194 0.13952519 0.14121504 -0.51334107 -0.15256421 -0.07592956 -0.12761766 -0.08632501 0.05507343 0.12979221 -0.20968622 -0.28062207 -0.06148809 -0.12552959 0.13704963 0.14914784 0.4583272 -0.043383695 -0.045271672 0.4526093 0.1538329 -0.20091577 -0.47150016 0.09553344 -0.18578082 -0.2192341 -0.02769005 0.06155735 -0.14300269 0.30731508 -0.106745355 0.19649006 -0.28777525 -0.4588736 0.051121242 -0.06818944 -0.15242632 0.18073122 0.07877314 -0.49127817 -0.32255927
1014 -0.19652125 -0.28253606 -0.08228601 -0.2759082 0.25650242 -0.32498834 -0.09742598 0.13406344 0.054497775 0.17957379 0.08553162 0.10900456 0.21008575 -0.17524743 0.3722795 0.34438848 -0.050181005 -0.15428829 -0.08020759 0.4117643 -0.27516237 0.28174692 -0.35800526 -0.24649897 -0.07342384 -0.23820783 -0.36134285 0.13182086 -0.056586366 -0.012134899 0.25277287 0.0016222867 0.04806886 -0.06542546 -0.09976798 0.11215205 0.43225384 0.045383554 0.39629647 -0.25170094 -0.22902133 0.372901 0.0814021 0.17196642 -0.009220934 -0.077607416 0.37563905 -0.34933755 0.06782849 -0.10761125 -0.29308063 0.11879322 0.39248183 -0.1538523 -0.10374974 0.2328115 -0.09517971 -0.2743367 0.26819447 -0.11125533 -0.14239632 0.3926016 0.31843308 0.48268184 0.35085598 0.10416548 0.17937075 0.08326774 -0.10400371 -0.11930324 -0.16119052 -0.16433321 -0.20868076 -0.13647881 0.24834298 -0.19242556 -0.47427753 -0.17547643 -0.29016048 0.21533747 0.20368506 -0.19431923 0.0952417 0.13664043 0.11555914 0.07432981 0.47223434 -0.07780942 0.21486463 0.2327066 0.039997146 -0.48700398 -0.0137318615 -0.30637482 -0.20125045 0.26544484 -0.4327147 -0.30129758 -0.055715777 0.06976948 -0.11990213 -0.011857701 -0.037416212 -0.04497542 -0.044554684 -0.17125201 -0.19546077 0.2907949 0.057583537 0.078646064 0.64111066 -0.40762448 0.21753977 0.662902 -0.20749076 -0.23416287 -0.29678124 0.16892101 -0.13129535 0.1950458 0.10645277 -0.175416 -0.0050574713 -0.2474711 -0.04891501 -0.0937827 -0.12600064 -0.025801659
770 0.44612992 -0.10829288 0.20410761 0.2775563 0.44702527 -0.0049320944 0.20329264 0.02663935 -0.13039394 0.4831825 0.037298772 -0.16148272 0.23290548 0.06036045 0.26381066 0.31231573 -0.2783748 0.30033848 0.0007801798 0.027148552 0.14731143 0.08025999 -0.37539497 -0.4693394 -0.041531622 -0.1282591 0.13367236 0.19183728 0.09618769 -0.05313916 0.19652873 0.008195652 0.15080056 0.31103957 -0.119468234 0.1096483 0.31994453 -0.33181536 0.22009334 0.14972794 0.34986907 -0.24718617 -0.06907787 -0.14113651 -0.01859027 -0.08478822 -0.26631778 0.2702382 -0.25097373 -0.040674612 0.33820468 -0.11213462 0.13463783 -0.067496605 -0.08965755 -0.020933498 0.21041591 0.04983736 0.08490176 -0.057024386 -0.015008692 -0.10357722 0.23831321 0.039201245 0.194303 -0.27331647 0.3606807 0.2785257 0.015247819 -0.3088287 -0.109469764 -0.064178616 -0.08684547 0.0041426336 0.00041870854 -0.19950427 -0.060482163 -0.19281812 -0.29233643 -0.24828213 0.1973439 0.2993231 -0.051039685 0.3709581 0.14225663 0.24321905 0.19286992 -0.4683716 0.12739876 -0.0151747335 0.24978808 -0.046727195 0.38566536 0.10789321 0.06695461 -0.19310862 0.040810436 -0.22257085 -0.21012509 0.028093575 -0.051296312 -0.3381682 -0.35761485 0.07385897 0.17254491 -0.10777245 -0.06778839 0.3114933 0.29075512 -0.14481843 -0.17104915 -0.16563568 -0.0385906 0.2121289 0.38490695 0.18293417 0.16814373 0.086724885 -0.07595154 0.026999338 0.11937309 -0.18073133 0.09783464 0.034461513 0.22837684 0.28728807 0.0027031405 0.08476094
25 0.22516152 -0.3508828 0.22008549 0.21168186 0.29404202 -0.3928565 0.16528453 -0.042006917 -0.272296 0.2639173 0.49260467 -0.15062332 -0.004463277 -0.14346816 0.3520455 0.0051065055 0.0048092892 -0.04992593 -0.07427149 0.0056828842 0.13364166 -0.29183072 -0.47210017 -0.5553144 0.050144807 -0.061838165 -0.039553113 0.07239448 0.14914456 0.041507863 0.41032705 0.14903417 0.06954986 -0.10033207 0.0308201 -0.055249564 -0.105322786 0.056390498 0.43812183 0.09722057 0.42353356 -0.10054701 0.3008185 -0.043751057 0.020605603 -0.10136116 -0.47560394 -0.10660958 0.0138712935 -0.26076975 -0.03311556 -0.031848036 0.3196105 0.07064392 -0.06862807 -0.5418212 0.2814394 -0.1410617 -0.39116454 -0.06440014 -0.36238003 -0.052439418 0.049247876 0.18538924 0.2659207 -0.35598975 0.17308642 0.19850698 0.12365612 -0.014513741 -0.3463674 0.27945596 -0.054503195 -0.040549573 0.36907628 -0.48675492 -0.24027278 0.21335071 -0.25337517 0.4058176 0.0084998105 0.08885816 0.30291942 0.3930055 0.08176919 0.33637446 0.1648737 -0.1467609 -0.35207912 -0.04661114 0.105176896 0.0686633 -0.18601255 -0.042141918 0.0072478224 -0.023294525 -0.062821135 -0.08877576 -0.06320758 -0.2064679 -0.39090884 -0.17575452 -0.3254196 0.2460551 -0.081674285 0.29388627 -0.23469557 -0.16471423 0.11567824 0.1893785 0.15970935 -0.050062794 0.048836824 -0.023802796 0.14749193 -0.26900125 0.107569 -0.15187694 0.40349254 0.18627469 -0.05188386 -0.08137554 0.62474895 -0.30793348 0.006684004 0.14519839 -0.32668355 -0.17936859
546 -0.031598672 -0.24950592 0.20147724 0.14089173 0.27025992 -0.033187576 0.14426297 -0.34781793 0.13098171 0.35261688 -0.044909645 0.0005182974 -0.21697557 0.019640693 0.021626249 0.2740417 0.25080127 -0.331421 -0.4769828 0.21316251 -0.015389742 -0.036102936 0.23976539 -0.57722753 0.25030136 0.011731322 -0.2053373 0.046993963 0.07917629 0.30964532 0.050478037 0.11023776 -0.11112915 -0.1759039 -0.23332126 -0.076244555 -0.02893335 -0.12177883 0.16228403 -0.1647987 0.21352278 -0.12995215 0.2503031 -0.008961015 -0.034400295 -0.003575737 -0.305465 0.05003063 0.42658743 0.050881106 0.20958062 -0.38912067 0.05781607 -0.21348372 -0.24273126 0.14392988 0.28683499 0.0028536688 -0.17826441 0.42935228 -0.34586594 0.16584173 0.08851952 0.105740845 0.26051882 -0.06963385 -0.047377992 0.16704251 -0.009623525 -0.022569621 -0.16363004 -0.2941578 -0.008511462 0.11399167 0.12092183 -0.23284216 -0.18394189 -0.062003914 -0.39252535 0.14769252 -0.051574603 0.17877309 -0.052132428 0.33683613 0.33432686 0.42608947 0.056544386 -0.20325035 -0.01754685 0.12212333 0.21136083 0.27430612 0.28288594 0.02734596 -0.04677519 0.07539137 0.02167962 -0.49595284 -0.13264133 -0.25593096 -0.065885596 0.14181109 -0.3072253 0.19908047 0.1991737 -0.1480648 0.04344484 0.20090961 0.28703845 -0.032209586 0.0070882514 -0.46808824 -0.27240235 0.4597912 0.17370766 0.14092366 0.08022985 0.3554084 0.2591571 0.09281352 -0.013651728 -0.27863985 -0.017053515 -0.030471956 -0.099780425 0.078603566 -0.18955718 -0.42191657
952 0.017528491 0.23945329 0.16729508 0.05469887 0.5472868 -0.18315668 0.066095725 0.08025695 0.018772313 0.03784013 -0.085531846 0.0525708 -0.013943117 0.24571522 0.3984782 0.2025511 0.098436035 -0.21926767 -0.2500002 0.15719365 0.5591402 0.23815814 -0.29102 -0.6137297 -0.21095976 0.0069979327 0.051152628 0.009389072 0.20068188 -0.48527426 -0.07078664 0.11706382 0.08344438 0.11185216 0.36324492 0.21251673 0.6534808 0.09980807 -0.3734838 0.16181666 0.24327601 -0.17927976 0.08919666 -0.08130178 0.012299309 0.04078079 -0.27300772 -0.14876439 0.21783711 0.12744083 0.01802655 0.19824938 0.37830734 -0.16403753 -0.09118143 0.00847163 0.57923126 -0.06319008 -0.07109347 0.2645951 -0.08961173 0.38030148 0.053913746 -0.22240734 -0.2514384 -0.15572618 0.34997413 0.056292433 0.18101726 -0.2672052 0.07678332 -0.3359945 -0.40577203 -0.23879677 0.4756135 0.08124867 -0.21493946 0.015226954 -0.34151924 0.06611653 -0.036228698 0.18537122 -0.04651059 0.25189495 0.028301673 0.1667594 0.13577752 0.011264383 -0.18927051 0.079570964 -0.2922211 0.08249706 0.32621953 0.17258094 0.025403928 -0.33541873 -0.21574351 -0.13833861 0.07011718 -0.0019364886 -0.12698317 -0.03865748 -0.07743372 0.24822752 -0.09675591 -0.27996138 0.18768924 0.037030082 0.011540362 -0.09152915 -0.16311125 -0.34677073 -0.21039565 -0.090172485 0.058315802 -0.04882673 0.13994569 -0.058139514 -0.0198461 -0.12024355 -0.017109783 0.03316824 0.028991284 -0.37793025 -0.009663823 0.21569222 0.04852243 -0.41953847
172 0.37621632 -0.10024892 -0.0043717925 -0.17912373 0.28831592 -0.38962853 -0.061726004 -0.19536579 -0.44698638 0.15794596 0.13767311 -0.095560245 -0.31460646 -0.5290882 -0.29946783 0.5762356 -0.24139525 -0.34439597 0.010983948 0.019122288 -0.18041243 0.3148602 0.024187662 -0.26963905 0.20505801 -0.12320094 -0.056579795 0.19789946 0.1860924 -0.14005731 0.20877169 -0.11472787 0.12831971 0.0030134858 0.10064116 0.18106452 0.17855395 -0.06095614 -0.29548207 -0.13495708 0.14178431 0.35445452 -0.10029431 -0.022371221 0.052313183 -0.14657244 -0.3378308 0.01780986 -0.054697443 -0.011332733 0.48002568 0.21666186 -0.3634282 0.19428276 0.42864203 0.25155964 0.10191371 -0.06265243 -0.2731565 -0.43002877 -0.44418642 0.04813913 0.33004835 -0.23579381 0.058957554 -0.06797566 0.6416584 0.14627501 0.0278711 0.1374447 0.15694965 -0.12896596 -0.25231972 -0.2712301 0.06705166 -0.08579906 -0.44248587 -0.0246194 0.16936632 0.35064015 0.26012626 0.123378016 0.5272745 0.27801386 -0.048496228 0.05382895 -0.058051113 -0.22149684 0.014836623 0.25905454 -0.35593018 -0.15654124 0.2692742 0.13394976 0.2559771 0.09698531 0.17018329 -0.41907752 -0.3069711 -0.11521948 -0.45595226 0.22244689 0.0582467 0.23476148 0.05271493 0.10413498 -0.019505227 0.41660035 -0.34492135 0.19460574 -0.119573474 0.08864935 -0.27332345 -0.18115234 -0.067765966 -0.37315238 0.36001554 0.07383128 0.17317058 0.40307346 -0.045357913 -0.06712641 -0.14395547 -0.07489198 0.11241637 0.016809566 -0.1792018 -0.32863855
696 0.123931706 -0.22562635 0.2201729 -0.2987997 0.5652084 0.29527545 0.1871464 0.026793882 -0.033644293 0.5457063 0.46907532 0.026952669 0.06982069 -0.20679109 0.47711238 0.29019356 -0.15842253 0.28666338 -0.10359758 0.07744322 -0.008567411 0.004301405 -0.20884562 -0.6503411 0.29637897 0.113835335 -0.3146498 0.17234188 0.2899718 0.010123093 0.322236 0.43266028 -0.16802767 -0.24474618 0.06409687 -0.18881658 0.42758438 -0.05986884 0.2072846 -0.17935057 0.49592137 -0.19390692 0.2850155 -0.18036915 0.1812889 0.15380332 -0.28752604 -0.52284676 -0.08702607 0.039629754 0.240234 -0.12711184 0.05215753 0.22085564 0.09850722 0.013791933 0.6580997 -0.13712893 -0.07110989 0.62760425 -0.08022141 -0.0026605236 -0.02027623 -0.048993386 0.4416144 -0.2605478 0.14740743 -0.012723219 -0.1559436 -0.06477412 -0.07050105 0.045674976 0.040895678 -0.22424209 0.1757525 -0.30656177 -0.081543915 0.34321916 -0.09111374 0.17408167 0.010011569 -0.40180218 -0.1364292 0.52250504 0.12591895 0.4426547 0.09114222 0.010440493 -0.010125892 -0.33616284 -0.26604164 -0.18134423 0.10272187 0.272118 -0.09779278 -0.34798038 0.069080085 -0.35202655 -0.27181745 0.013257274 0.13241962 0.04771679 -0.22712995 0.017442446 -0.32349193 0.21787634 0.2612197 0.20121552 -0.13189548 0.25933132 0.38240272 -0.21540937 -0.046538588 0.03197991 0.003478264 0.41596264 0.12257401 -0.08516213 0.20023513 0.09704565 0.17970048 0.11793704 0.35170436 -0.13686912 -0.1397068 0.17265807 -0.07179232 -0.027796766
