847 128
2807 0.23748858 -0.0036948828 0.11979157 0.09183862 -0.1687399 0.041737035 -0.013222147 0.26688817 -0.029658234 -0.105098605 -0.0035758426 -0.2359756 -0.017710092 0.09044974 -0.04393744 0.21913587 -0.017252963 -0.1414333 -0.09930824 0.10709525 -0.21297447 0.41788357 0.15164572 -0.15036567 0.2605578 0.005333072 0.010894465 -0.15238602 0.11702841 -0.1749628 0.008278344 -0.12891766 0.0073079597 -0.01113674 -0.27359548 0.24909365 0.527511 -0.17463018 0.27505055 -0.0013932653 -0.21190609 0.3169433 0.24072665 0.11638586 -0.14402844 -0.25306797 -0.3114988 0.24814875 0.29660675 0.11364336 -0.08120772 0.020860478 0.3277625 -0.13059314 -0.090295 -0.2026706 0.014081523 -0.09461545 -0.19722559 0.10707139 0.13795114 -0.13459018 -0.03608962 0.037945863 0.3765282 -0.0971937 0.027165717 0.36581978 0.068246104 -0.093226686 -0.049258266 0.10630962 -0.24955805 0.008393962 -0.1606929 -0.48493195 0.13096987 -0.14447466 0.15649389 0.077921696 0.13120677 -0.24003674 0.13612917 0.07145748 -0.009762659 0.41855755 0.018797679 -0.19330396 -0.13799065 -0.11076352 0.215609 -0.24196473 0.04501979 -0.16858941 -0.035308417 0.34339228 -0.059717216 -0.10291913 -0.053052854 -0.10310018 -0.009553832 0.029260518 -0.18160976 -0.10088495 0.063457206 -0.2285865 0.18439078 0.23519297 0.110677406 0.039795328 0.30091947 0.051559743 0.037685316 0.18883583 -0.065769 -0.14523554 -0.03231666 0.25657573 0.24281643 0.016714757 0.07028442 -0.010973984 0.11066267 -0.09141228 -0.25106677 0.07397142 0.005042751 0.115441106
384 0.07790724 -0.25391182 0.27791673 0.20236227 0.029293258 0.15062252 0.092184596 -0.16636205 0.04093245 0.2980502 0.14618243 -0.026458375 -0.08716753 0.02821713 0.11768045 0.30814996 0.07756486 0.06534475 -0.14375125 0.16240081 -0.16885191 0.49950433 0.19917783 0.0330035 -0.04356758 0.03818151 0.23593457 -0.14162561 0.1981254 -0.0031605528 0.03766535 -0.07388081 -0.22167201 0.07494519 -0.2140912 0.022109034 0.42016292 0.07477868 0.37187368 0.2960619 0.03780315 0.22973077 0.0116139455 0.060385026 -0.14078715 -0.27966207 -0.33404464 0.051918212 -0.15020068 -0.034950674 0.31947637 -0.3255118 0.25371537 -0.076946855 -0.11122667 0.19886553 0.4644861 -0.2817982 -0.108076364 -0.20383365 -0.03174184 -0.11112407 -0.045316074 0.16902411 0.091797985 -0.14212288 -0.12851442 0.23354615 -0.079183504 -0.19553883 -0.09028751 0.20118542 -0.1669162 -0.16646746 -0.078586616 -0.1545023 0.034853492 -0.33788478 0.061379984 0.046921168 0.071731046 0.01125945 -0.24310526 0.08032967 -0.012676886 0.1498138 0.10619207 0.12890312 0.117871545 0.09515841 -0.20364727 -0.16154468 0.13005821 -0.24838576 0.18661577 0.033687033 0.1547753 -0.012741735 0.016360724 -0.010187154 0.07095157 0.15512389 0.14111353 -0.06457713 0.20884855 0.0041676033 -0.10828396 0.0983786 0.008133176 -0.005171701 0.3338266 -0.28444558 -0.19236125 0.21643937 -0.13476057 0.007969344 -0.14011769 -0.18533798 -0.03656222 -0.13073371 -0.2787761 -0.102885425 -0.22940142 0.05428218 -0.38472593 0.06194563 -0.1187903 0.1140365
2287 0.12875721 -0.15554687 -0.08194008 0.036583316 0.19121818 0.08052032 -0.08402889 0.05101737 -0.014508626 0.3328708 0.35013106 -0.14757735 -0.0800084 0.107408494 0.21757779 0.006915564 0.12625425 0.09913497 -0.01831875 0.063755274 -0.054283068 0.37761065 0.19643077 -0.1126023 0.1520667 -0.35493866 -0.3257798 0.055710323 -0.15282454 -0.067318015 0.08276136 -0.1922554 0.14165528 -0.025018875 -0.17156957 0.14473403 0.25264773 0.16699848 0.17770405 0.3695335 0.18219842 0.20088199 -0.07376935 -0.060373913 -0.1608324 -0.027389359 -0.36620176 -0.15162465 0.27553636 0.08561969 0.2277517 0.09452883 0.19881025 0.06671565 0.01778691 -0.17127195 0.17736319 -0.12120662 -0.10191369 0.22221191 0.20148872 -0.16400406 -0.03593017 0.3143616 0.3090076 -0.38671425 0.22405744 0.27529055 -0.34246498 -0.038206477 -0.023347942 -0.14784558 -0.10074013 0.08629054 -0.1339993 -0.3916532 -0.05081356 -0.19107224 0.09894891 0.21449809 0.11719697 0.04232939 -0.039688736 0.37632513 0.04123257 0.16515322 0.07416006 -0.30129737 -0.0007136473 0.23513825 0.0540096 -0.3506438 0.21132077 0.14092197 0.27193072 0.075402066 -0.37236014 -0.30849543 0.030247796 -0.04963531 -0.19475274 0.16664694 0.037210718 -0.17835784 0.027562356 0.043886576 -0.031096723 -0.0048464052 0.082707636 0.053317897 0.26995626 -0.20791726 -0.10273338 -0.06167822 0.14573188 0.040246163 -0.12260824 0.14765514 0.062419742 -0.011678855 -0.05640029 -0.15243156 -0.2989012 0.20735614 -0.33983278 -0.22810017 0.059578177 0.20244125
1344 0.1856278 -0.027497634 0.21748188 0.13019744 0.12368714 -0.13257426 -0.015917169 -0.03542078 -0.030545915 -0.09547023 -0.048805773 -0.110029384 -0.023312364 -0.35862336 0.019364256 0.030691357 -0.17983967 0.10988473 -0.10558283 0.13211621 0.16786857 0.17430578 0.062964045 -0.07362592 0.18009229 0.041077036 -0.15072182 -0.09420699 -0.22180903 -0.2847486 0.10958195 -0.012687 0.06429053 0.22417653 -0.024222022 -0.1652543 0.4132855 -0.04603254 0.14238754 0.29647416 -0.16966218 0.3356111 0.2179506 -0.08104831 -0.010716966 0.19054121 0.07299926 0.033080403 -0.004033485 -0.27901956 0.2615252 -0.022346232 0.25727218 0.014049874 0.104686946 0.3496096 0.19028914 -0.16718373 -0.20491406 0.1550886 0.21045941 -0.545971 -0.14082815 0.031899456 0.038552843 0.08697202 0.058324143 -0.03682742 0.015887836 -0.49684542 0.13484901 -0.10683144 -0.32579103 0.019273072 -0.04890448 -0.1330246 0.17438509 -0.35045388 0.005125493 0.25683963 -0.1521614 0.09183866 0.24990645 -0.06262422 0.076330714 0.41253835 -0.07832936 0.051920086 0.18655051 0.0561244 0.19737548 -0.015611724 0.065188386 -0.04957193 0.1854594 -0.06985047 -0.1980493 -0.39660856 -0.049468573 -0.049217433 -0.24129611 0.06189874 0.10259 0.10687944 0.12999609 -0.23963763 -0.17145202 -0.3954991 0.13492364 0.19494118 0.16703238 -0.30287355 0.09749087 0.24138568 -0.050561387 0.1029074 0.30876818 0.006267382 -0.047338318 -0.10544904 -0.06217213 -0.22458391 0.018556045 0.18102488 -0.066438995 -0.064958334 -0.037664015 0.15154019
2192 0.3627649 0.016523996 -0.1123363 -0.30889514 0.15347248 0.09138356 -0.09528462 -0.25430903 -0.24569598 0.20721571 0.18048918 0.14949033 -0.034894153 -0.25636226 0.1418549 0.072695546 -0.03304455 0.045569383 -0.14965218 -0.053663164 -0.13133095 0.083720975 -0.25225207 -0.080991745 0.16114509 0.10775032 -0.030939776 0.038759135 0.021384278 -0.31618035 0.47756365 0.35448155 -0.21447651 0.1750124 -0.05834722 0.60341835 0.3107582 -0.0028761332 0.17235483 0.16238306 -0.18577969 0.2554308 -0.16676997 0.14972404 0.41936955 -0.06562456 -0.24942516 0.17770006 -0.11569991 -0.009815921 0.2537113 0.113867946 0.3871202 0.078392506 -0.13262773 -0.044396963 0.2164659 -0.30246013 0.29780632 0.055402335 0.0115293395 0.10996922 -0.12719369 0.18382862 -0.07652484 0.23599404 0.19112317 0.030501194 0.041135587 -0.022122785 -0.23845796 0.07868243 -0.121072575 -0.13385627 -0.102701165 -0.32175085 0.1665143 0.050729547 0.39534014 0.42348439 0.1085779 0.018095465 0.43155795 0.1670427 -0.12481528 -0.027240403 0.30553445 -0.12219743 0.3259009 -0.03366462 0.28179756 -0.14599898 -0.06316447 0.13811499 0.0739186 -0.05610788 -0.1861707 -0.027056754 0.16592064 -0.09755218 -0.32378387 0.14631997 -0.08905166 -0.08458098 0.21900885 -0.07095207 0.10048181 -0.16619301 -0.06177231 0.28879842 0.06316145 0.16993901 0.16710502 0.090989545 -0.06610344 -0.3124292 -0.011223133 0.23376481 0.18016784 -0.05475443 0.16533725 -0.3340529 -0.30591604 -0.027233198 -0.44224477 -0.31300598 0.25705454 0.1595136
80 0.2320254 -0.11523584 0.4768357 -0.097018056 0.09859661 0.24112788 -0.061562892 -0.08963917 -0.21953624 -0.24527043 0.025331413 -0.24277367 -0.057858963 0.1857571 -0.12557817 0.15192704 -0.18886498 -0.0032751383 -0.32370988 0.0813131 0.10953833 0.51133364 0.030525485 0.014528323 -0.048197832 -0.050819196 0.020092703 0.027659275 0.010456222 -0.10133358 0.13689646 0.031096974 -0.038760316 0.049984965 -0.15150933 0.107890695 0.1489549 0.04589473 -0.011071773 0.11460709 0.16564493 0.104669295 0.12721467 0.22633673 0.03233038 -0.1235908 -0.02259741 -0.17010257 -0.05915563 -0.14789787 0.36880192 0.010782525 0.038238276 -0.17814709 -0.07432988 0.09981969 0.38332623 -0.12984037 0.10059302 -0.029443173 -0.29598457 0.058032952 0.11549082 0.27553567 0.14166775 -0.10529767 0.21951932 0.1519275 -0.067193545 -0.17365512 -0.27178386 -0.20795405 -0.3221285 -0.033517037 -0.11888509 -0.4462171 0.0014419435 -0.16547497 -0.18718143 0.16941224 0.060206473 0.29809046 -0.025244772 0.28243744 0.122549996 0.50885993 0.09443598 -0.058453396 -0.098863736 0.1761205 0.00930375 -0.26678523 0.2141771 -0.2657248 -0.045588214 0.33928218 -0.20840146 -0.10003244 -0.23481296 0.010430413 -0.03170451 0.20763396 0.17673172 -0.21992928 0.32711348 -0.004987071 -0.08893109 -0.3151186 0.14088924 -0.16610265 0.29730248 -0.13016629 -0.049918544 -0.07323809 -0.14035153 0.045444455 -0.029435571 -0.046799324 0.2751199 0.042135667 -0.1227363 -0.132008 -0.22937676 -0.17584284 -0.044384137 0.15003742 -0.22948816 0.39187098
1232 0.25697476 -0.21779901 0.47685713 0.13874218 -0.10540397 0.22192049 -0.12324714 0.06884571 0.022169601 -0.05916303 -0.051769614 -0.31753004 -0.15934937 0.2846443 0.07432429 0.17117122 0.19426046 -0.08818221 -0.15513602 0.27535966 0.08017334 0.13891034 0.014450434 -0.2384475 -0.035024337 -0.17159334 -0.11236369 -0.07257496 0.24234039 -0.53827864 -0.061884798 0.052121975 -0.15646999 0.09476731 0.019498017 0.12538558 0.3666674 0.005436508 0.6253609 0.26293993 0.02508174 0.13522968 0.17696561 0.27460903 -0.24609458 0.113839336 -0.098760985 -0.009760652 -0.28845 0.37243217 0.13068865 -0.05572184 0.17151599 -0.07776466 -0.004996312 0.10149226 0.29137236 -0.0022835399 -0.07480007 -0.19691719 0.14859849 -0.11119003 0.27730238 -0.05158238 0.3122522 0.07803328 -0.07361452 0.14512976 -0.12370058 -0.14509362 -0.055655852 -0.18343474 -0.40123397 0.060240205 0.026286667 -0.31853992 0.13456164 -0.24611638 0.0057247 0.050378177 -0.100586735 -0.09258644 0.1379999 -0.025280628 0.0018131596 0.27707586 0.17335932 -0.22837727 -0.062487453 -0.13429405 0.18915582 -0.18207781 0.09938132 -0.17195803 0.0606974 0.3711529 -0.18898268 0.24635227 -0.2895359 -0.06828264 -0.23744273 0.1686395 0.015204967 0.035743866 0.3902868 0.12047899 0.10388452 0.1363215 -0.21271832 0.046508905 0.1967441 0.032922108 0.004401295 0.16466437 0.20765576 -0.1856028 -0.055318523 0.10075976 -0.053392336 0.11071401 0.099838674 -0.17289889 -0.072642915 -0.19770305 -0.0766137 0.00033835543 -0.073001236 0.40291286
2767 0.3032505 -0.10612166 0.34495685 -0.13338517 -0.08956662 0.07659452 -0.013648597 0.19694334 -0.07394771 -0.16512583 0.03838811 -0.063384056 -0.031257804 -0.18031752 0.06301278 0.347407 -0.13267897 0.16483489 -0.19644459 0.45065024 0.11794112 0.15877064 0.07745016 -0.20424086 -0.09687199 -0.14008611 -0.05958714 -0.18582097 0.22759707 0.015176697 -0.35542756 0.030635381 -0.18925324 -0.16655539 0.12636042 0.330258 0.13678883 0.18869887 0.11946206 0.3754229 -0.15178318 0.19137618 0.06728396 -0.013491775 -0.12605178 0.003190145 -0.42065787 -0.28232703 -0.02568827 0.006744033 0.15346344 -0.03920079 0.21960624 0.34739152 -0.016246725 0.109787226 0.24509768 0.009852923 -0.20587492 0.00023626788 -0.28432202 -0.10543472 0.0076228725 0.06372942 0.06968202 -0.03576025 0.4718111 0.11511896 -0.07206171 -0.11179104 -0.13514389 -0.042260993 -0.22016264 -0.17387652 -0.083636 -0.39808294 0.19148326 -0.26480892 -0.10823781 0.21907572 0.17759466 0.09009334 0.052477825 0.23929498 0.27585492 0.1317176 0.17220366 -0.10940315 0.23978977 0.079427615 -0.24875292 0.0013861503 0.46422914 0.105324164 -0.05233192 0.29843485 -0.022893889 0.12883227 -0.20551774 -0.34682834 -0.10242265 0.075725004 0.14614907 -0.017539723 0.2546613 0.23317909 -0.1709718 -0.1707645 0.108800486 -0.10284793 0.21374404 -0.1148923 0.18001004 0.0044762054 -0.24644215 -0.09505307 0.19513938 -0.088389955 0.13141799 0.17562781 0.24181518 -0.18058404 -0.13596348 -0.14356437 -0.22874375 -0.15962626 0.03176763 0.24135831
3209 -0.015423853 -0.09725793 0.10640859 0.3609693 0.19476181 0.014354274 -0.1203334 0.13101064 0.11704562 0.19705069 0.016224729 -0.039137904 -0.03187725 0.11033217 0.043850288 0.36307195 -0.11866749 -0.025391333 -0.183719 -0.05432771 -0.23173979 0.23494734 0.09000006 -0.35970756 0.0007603206 0.011015179 -0.177196 0.12389145 -0.23108691 -0.3880855 0.14522061 -0.15852119 -0.080724016 -0.059798338 -0.33857808 -0.014514767 0.45821288 0.01573503 0.42464814 0.039247464 -0.1922976 0.1573024 -0.09110165 -0.07478402 -0.017942853 -0.040891152 -0.24353552 0.38888326 0.090366036 0.08836701 0.060836934 -0.059200037 0.24308586 -0.20981975 -0.010946236 0.10111414 0.12005343 -0.011493588 0.0660578 0.11175173 -0.21386275 0.016037026 -0.16558032 0.116092235 0.3989452 -0.19792171 0.01932989 0.2080359 -0.102639 0.0060337503 -0.11724293 -0.07146034 -0.13598965 -0.2693453 -0.1054539 -0.3854844 0.35579047 -0.16090481 0.18426736 0.3516117 0.045861345 -0.15478273 -0.030407755 0.06421327 0.07210072 0.06761738 0.072598904 0.008840349 0.0012675641 -0.13715842 0.23296058 -0.072614305 0.012827005 -0.363028 -0.13597882 0.09271811 -0.022805747 -0.1364399 -0.024750281 -0.1237641 0.19903791 0.184022 -0.41794473 -0.07001546 0.15159874 -0.23835014 0.027600264 0.10319089 -0.1487054 0.24284835 0.23482887 -0.021397104 -0.013066627 0.2339885 -0.17691067 -0.44005 -0.070413664 0.10756748 0.3084696 -0.14713441 -0.14837866 -0.10165381 -0.027427515 -0.19708517 -0.35775343 0.29301906 0.20372699 0.21781184
20 0.30111626 -0.4610711 0.00043217614 0.13126211 0.023011498 0.09968203 -0.13589197 -0.103816286 -0.06216188 -0.029276628 0.18956627 -0.13915095 -0.072934285 0.21872081 0.24500242 0.3173028 0.06389767 0.14752924 -0.34653422 0.1758985 -0.050826445 0.34308946 0.2320906 -0.031052226 -0.09508606 0.14330317 -0.034019805 -0.0075064497 0.0015958209 -0.28417972 0.07083183 0.010773226 0.002626724 0.13102834 -0.15636976 0.16894105 0.39252752 0.32521492 0.2502945 0.17340483 -0.22953331 0.17335375 0.14168042 -0.16247863 0.027491996 -0.11112016 -0.12512912 0.04789191 0.02030152 0.10024301 0.06644179 -0.015482958 0.15359601 0.02581894 0.113104194 0.112480104 0.29541332 -0.2806302 0.019776829 -0.030884326 0.08172867 -0.0102268495 -0.22302273 -0.16031103 0.3508023 -0.096956424 0.22058553 0.027683085 -0.11018244 -0.13030005 -0.099616684 0.03148403 -0.20189446 -0.08545706 0.09461543 -0.23325987 0.03715498 -0.13994852 0.31074792 0.13501912 -0.02947068 -0.1378076 0.028114503 -0.07133575 -0.0656236 0.11900285 0.07006435 -0.045654472 -0.19432978 -0.037934974 0.1777066 -0.113394 -0.052129477 -0.15873367 0.017564122 0.24515958 -0.26160306 -0.24851085 0.09479664 0.09992683 -0.08789341 0.1773031 -0.14999838 -0.037788276 0.2597957 -0.21533588 -0.038254566 0.28275487 0.034735426 0.32580563 0.4213211 0.12058786 0.059858307 0.33823436 -0.1008665 -0.39965382 -0.3088631 0.36706027 0.3259022 -0.18633556 0.07536493 -0.021801041 -0.11271824 0.056242246 -0.28272232 -0.010098863 -0.011409507 0.0691101
3238 0.15021484 0.12345612 -0.1090445 0.034006175 0.05463826 0.10583289 -0.12404553 -0.25200778 -0.036020547 0.07789666 -0.054708745 -0.05358134 -0.12980954 -0.14863493 0.102924325 -0.027370017 -0.18137275 0.10951887 0.14911644 0.25368196 0.013894077 0.17547168 -0.333801 -0.10725561 -0.1385141 -0.10060844 -0.0648099 -0.14912236 -0.0555671 -0.068998046 -0.03446828 0.28328136 0.098141186 0.26234806 -0.0992704 0.25912383 0.4242562 0.30451062 0.23364031 0.3448014 -0.059800815 0.2511641 0.32588476 0.018847965 -0.064540684 -0.1383725 -0.19826305 -0.123009056 -0.08295296 0.20300722 0.24837224 -0.1646158 0.09423918 -0.08043326 0.106390074 -0.069185205 0.12463932 0.054262772 -0.24383385 -0.044350985 0.33208326 -0.017368276 0.07607382 0.20411086 0.42272043 -0.20225535 0.09590595 0.28365412 0.03940108 -0.36317602 -0.01426486 0.09363813 -0.09221521 0.13302769 0.122195855 -0.13112834 0.22577415 -0.07867283 0.16247234 0.175754 0.19379964 0.011965031 0.26527706 0.65461344 0.004413165 0.085248485 0.51175666 -0.038976114 0.021885557 0.36195788 -0.08545538 0.019859744 0.11222489 -0.12232082 -0.0023462018 0.13243084 0.06789083 0.13137577 -0.19273713 -0.021554494 0.0075304545 -0.097192064 -0.0038264634 -0.08576978 -0.10976086 0.06041954 0.03412412 0.18081686 0.11776363 0.036629003 0.21144076 -0.37466177 0.22915377 -0.016345784 -0.06686923 -0.016790813 0.14964296 -0.23647583 -0.37147567 0.1775239 -0.078692794 -0.12095607 -0.2696669 0.25582686 -0.29619494 -0.13899475 0.04488639 0.05818317
971 0.22406724 -0.20469144 0.060329434 0.07397772 -0.012200567 0.06907641 -0.27233943 0.13716362 -0.12390764 -0.056599945 -0.042503677 0.029514326 0.18716614 -0.14795619 -0.035531476 0.16178429 0.0010798133 0.22005442 -0.13566133 -0.09288198 0.15005445 0.28098136 -0.15064584 -0.16378644 0.11122907 -0.3693166 0.09671099 -0.11178133 0.01832656 -0.13739921 0.14014864 0.08691572 0.11488586 -0.16786337 -0.08485142 0.30677578 0.36869183 0.35488373 0.15820847 -0.050760858 -0.048891388 0.08957438 0.17405541 0.15347403 -0.08278535 -0.3194103 -0.15835142 -0.10720487 0.10598996 0.18302873 0.1605469 -0.14457573 0.11866715 -0.21448769 0.07418385 -0.19640039 0.42385378 -0.11018324 -0.1422962 0.07852565 0.035882186 0.0370876 -0.2881917 -0.16823617 0.25817418 -0.1513403 0.06418198 -0.040106475 0.17204496 -0.03399325 -0.07897016 -0.1403468 -0.052866355 0.006253333 -0.021334404 -0.46401784 0.0569822 -0.2980504 -0.08369569 0.27729282 0.020618135 0.018445827 0.3844278 0.085445225 0.18774277 0.29166615 0.18582106 -0.08622582 0.052372668 -0.062037587 0.009644086 -0.052018758 0.1995111 -0.29163438 -0.01442911 0.22422387 -0.05484073 -0.09243055 -0.055450883 -0.05927514 -0.17131658 0.22630286 0.039895315 -0.28027612 0.054075293 0.02406148 -0.14900842 0.16521549 0.10294925 0.044640474 0.16629548 -0.29522267 -0.04496484 0.25033844 -0.2199111 0.037355606 -0.0385582 0.11310018 0.26119563 -0.1775205 -0.075660884 -0.21932381 -0.25959393 -0.11826033 -0.42441374 0.0972124 -0.18893544 0.2884487
1774 0.22591689 -0.12293455 -0.100246616 0.18386267 0.12570404 0.08017278 -0.06480709 0.1333983 0.0007302934 0.16718027 -0.10966986 0.114931434 0.11019512 -0.13627791 0.06987714 0.49121436 0.21969098 0.109857135 0.017552214 0.1729821 -0.23726062 0.2919441 0.12639806 -0.117287695 -0.12633991 -0.02168422 0.29046094 -0.017177064 0.11525357 -0.4430201 0.009253459 0.013323999 0.13201064 0.16685617 -0.28717077 0.15417957 0.36062023 0.088773586 0.39732614 0.21603073 -0.08283318 0.3571224 0.18376951 -0.03673618 -0.11724177 -0.09682599 -0.15108241 -0.0007794001 0.113802336 0.04850843 0.124541 0.073945105 0.12665735 -0.15905507 -0.16851556 -0.07430275 0.26558843 -0.1710918 -0.21512482 -0.10678036 -0.034316834 -0.015866172 0.035668045 0.16066913 0.35957563 -0.3236614 -0.14612056 0.034704264 0.07215551 -0.086768545 -0.013366773 -0.016863633 -0.16139525 -0.37756282 -0.16899358 -0.3030999 0.047672193 -0.14525758 -0.13524388 0.23672774 -0.06874546 -0.09400613 0.12872422 -0.06037026 0.20849164 0.32049146 -0.027713187 0.1604489 -0.023740571 0.012466916 0.13097395 -0.2921118 -0.0066164616 0.032882255 -0.061980423 0.17489332 0.013550602 -0.030227091 0.08843107 0.07479081 0.3094147 0.15200932 -0.25109828 -0.14264704 0.064911515 -0.32251146 -0.050995354 0.20986962 0.08759476 0.1947968 0.24401021 -0.11899211 0.13151056 0.23202154 -0.17368051 -0.18916258 -0.23663701 0.20871039 0.023508536 -0.09814669 -0.09045554 -0.32619116 -0.31581134 0.01831053 -0.35591805 0.093828484 0.2271482 0.08374896
4611 0.20310666 -0.09881393 -0.09437807 0.111330874 0.20935798 0.15328912 0.53409004 0.17770219 -0.27268383 0.013582704 0.19720805 -0.017164687 0.016315917 -0.13315639 0.25466073 0.076652855 -0.18661977 -0.38899425 -0.18550187 -0.103474475 0.16051847 -0.12859964 -0.20118578 -0.18592326 -0.023038033 -0.012064415 -0.1250821 -0.050256643 0.116873614 0.08509812 -0.23096175 0.09959024 -0.12122219 -0.13697189 -0.03913092 0.300907 0.401389 -0.06398336 0.12505703 0.218507 -0.037020393 0.14837214 0.33698004 -0.008375297 -0.28379804 -0.20932135 -0.36773902 -0.038403086 0.40543795 0.09493083 0.28814432 -0.19330929 0.135617 -0.053530797 0.06567671 -0.04727714 0.49149853 -0.11916795 -0.37169245 0.19012249 -0.08604617 -0.020522976 -0.38722727 0.012714934 0.42384714 -0.08069932 -0.02382082 -0.100259855 -0.10689613 -0.19443586 0.3468499 0.14787567 -0.29424706 -0.17584866 -0.07664659 -0.3353141 0.4526671 -0.1398606 -0.0009207169 0.07431958 -0.13259248 0.07884761 -0.066004686 0.40771344 0.115377046 0.19274156 0.23333468 0.19212595 0.03294615 -0.11918639 0.2161456 -0.23565622 0.089519925 -0.16094159 -0.028602432 0.22265793 -0.113103256 -0.42333138 0.13023885 0.01481203 -0.0073219687 0.03328341 0.0009775684 0.0007882908 0.315707 -0.123825304 -0.14418471 0.34896332 0.051850427 0.2727937 0.27231708 -0.035743553 0.23207277 0.09063159 0.2613992 -0.01880603 -0.22158211 0.20495702 0.06447204 -0.18455826 0.069346085 -0.039288327 0.04443822 -0.034792535 0.018055664 0.1564584 0.08326844 -0.10086224
1055 0.28160143 -0.2394649 0.06867896 0.33421874 -0.017736383 -0.0031928509 0.027010925 -0.101250775 -0.14764279 -0.09308475 -0.00020002303 -0.12729669 0.101550445 0.10992578 0.04788513 0.38122758 -0.05512739 -0.021617392 -0.13242291 0.071346104 -0.13730064 0.424263 0.03147951 0.007737094 0.0028663324 0.03462044 -0.072916426 0.15229183 0.14173636 -0.32780463 -0.06579313 -0.05940012 -0.045204654 0.18950815 -0.20289023 0.003960594 0.64860773 0.038618796 0.55419075 0.177896 -0.19028369 0.36891025 0.35879737 0.011429201 -0.16057076 0.112987034 -0.3193131 0.1620668 0.16897503 -0.21560812 0.39407617 -0.06917484 0.2163132 -0.008883078 -0.43814918 0.13955034 0.21061979 0.18300246 -0.07041586 0.13865823 0.055161037 0.24677905 0.039973304 0.088097006 0.25992614 -0.20076667 0.17220998 0.16799344 -0.04947329 -0.24346858 0.10338046 -0.12218349 -0.36882183 0.0027125045 0.17596683 -0.3329976 0.024965353 -0.16028476 0.053748883 0.061957385 0.16427194 -0.2213056 -0.08427396 0.08794042 -0.01518016 0.20663662 -0.11731264 0.052655242 -0.174044 0.13135359 0.2657587 -0.07505157 0.15830404 -0.107647486 -0.06494977 0.1161214 0.061913025 -0.15426043 -0.25151372 -0.12434539 0.00061277265 0.13402647 0.1674096 -0.08225108 0.1628802 -0.10114538 -0.030288698 -0.0067039733 -0.054848928 -0.00792622 0.078564174 -0.07132535 0.2711285 0.33862108 0.101057135 -0.18360046 -0.032453403 -0.017553298 -0.059445523 0.23729452 -0.30817828 0.011700771 -0.10145909 -0.37962773 -0.022270665 -0.012300987 -0.048236653 0.20321669
3564 0.3195229 -0.06509856 -0.21684274 0.19027466 0.00031776718 0.13792554 -0.16312799 -0.19883668 0.02476399 0.36074835 -0.06478517 -0.11281972 -0.13038844 0.107566305 -0.13780862 0.27345696 -0.414948 -0.005408925 -0.39516044 -0.012218122 0.15121403 0.121479325 0.07181478 0.063065514 -0.08127106 -0.011356838 -0.022430314 -0.41361064 0.08213191 0.03453666 0.03437791 0.22514269 -0.08782393 0.19093035 -0.2687967 0.19201522 0.26417968 -0.10010947 0.24843594 0.07980722 -0.22460546 0.030269388 -0.044128757 -0.011166522 -0.11775629 0.0019861874 -0.47300643 -0.22073917 -0.03867159 0.11905787 -0.047026232 -0.027647667 0.2568171 -0.01923841 0.3939375 0.27010068 0.20612022 0.0139806485 -0.11297981 0.19601275 -0.23968792 -0.010066728 0.2287738 -0.032569174 0.24741937 -0.037644506 -0.14580978 -0.30881646 0.2223976 -0.3206587 0.25648215 -0.03655449 -0.27069142 -0.16921146 -0.11505925 -0.33246705 0.11210968 -0.23142196 0.10711966 0.36568537 0.012190926 -0.05799088 -0.23317052 0.39664668 -0.11301253 0.24900028 0.28518727 -0.06270011 0.31946242 0.0024998 -0.08800004 0.10247769 -0.010878304 -0.24676126 0.055082 -0.113887124 0.101023994 0.024348704 -0.2163542 -0.044925563 -0.1366155 -0.021092325 -0.111026585 -0.35639292 -0.05261104 0.013477761 -0.039583996 0.16685806 -0.13171543 -0.11510582 0.116684854 -0.63228226 -0.1283625 -0.06996328 0.14151354 -0.15271725 -0.083139084 0.0906369 -0.074411795 -0.030398104 0.039587777 -0.32386854 -0.08872737 0.12040216 -0.15217862 -0.5622567 0.046454392 -0.28732324
4320 -0.025513962 -0.106164955 0.17050046 -0.31597614 0.18934375 -0.07216038 -0.27384123 0.27830586 0.19321807 -0.09571903 -0.51173794 -0.14727244 -0.16700606 0.15218101 0.32138398 0.1811947 -0.658677 0.20142256 -0.15829813 0.1768764 0.09131424 -0.1595921 -0.12870543 -0.15148722 -0.3001368 0.09054006 -0.16143978 0.25217766 0.24874553 -0.20024614 0.2029279 0.015248017 0.082732536 0.11070987 -0.2611653 -0.1592126 -0.08741302 -0.22274527 -0.0879866 -0.0415457 -0.009112339 0.25009385 -0.07715933 -0.022264611 0.12173512 0.43465266 0.024959844 -0.13697095 0.2512562 0.19935761 -0.29259872 -0.1621687 0.2948208 0.42606768 0.043227028 0.21071684 0.31832102 -0.040809583 -0.31821126 -0.008447153 -0.08655716 0.17110908 0.28193554 0.15258765 0.7517425 0.09874731 -0.20560603 -0.10065913 0.04777208 -0.38370585 -0.27323264 0.034509156 -0.22172539 0.0075449403 -0.31463134 -0.4101359 0.14692873 0.14251605 -0.11052625 0.20893033 0.26727203 -0.087219074 0.4767361 0.020320788 0.16028719 -0.20090765 0.08313355 -0.32400313 0.15527996 -0.12073639 -0.16170353 -0.2749613 0.026609106 -0.32542643 0.08077179 -0.019413814 -0.05728696 -0.07207932 -0.050743908 -0.27363604 -0.26690492 0.062398873 0.09629467 -0.07528307 -0.19721605 0.21559824 -0.054366834 -0.17422487 0.16645327 -0.1637667 0.03277228 -0.0824419 0.24562111 0.5668257 -0.06761814 0.053978495 -0.23443636 -0.14228745 0.41816875 -0.20491213 -0.088997014 0.08567696 -0.15865342 0.21865967 -0.16205417 -0.27442873 -0.2038939 -0.23769392
489 0.36363336 0.031397823 0.29115325 0.15600252 -0.21287894 -0.284821 0.06338835 0.20810175 -0.057334304 0.06625572 0.028389921 -0.071849436 -0.15313084 0.04573445 0.22767073 0.2907793 0.0078083538 0.16573012 0.061627474 -0.18007663 0.071635276 0.6016994 0.16217056 2.9124702e-05 0.075751975 -0.04369245 -0.18115589 0.27619702 0.05949829 -0.5952645 -0.09808511 0.025652545 0.010922529 -0.005869268 -0.2858094 0.102587126 0.40959716 0.27570942 0.2627226 -0.06842418 -0.2964669 0.06405179 0.1890394 -0.046105236 -0.18619676 -0.026729787 -0.10930422 0.12104132 0.012942023 0.31976745 -0.07760842 0.12321975 0.42873734 -0.2861665 -0.07481864 -0.05540141 0.40601048 -0.27238083 -0.083720684 0.21028993 0.1091874 -0.25665453 -0.2612228 0.28896856 0.33314076 -0.12866755 0.053161096 0.04753881 0.052688118 -0.13919677 -0.10242724 0.10941589 0.15355694 -0.10694434 0.1252601 -0.5688907 -0.03021224 -0.13850752 0.35984513 0.31909174 -0.40938067 -0.04548493 0.22568654 0.17793259 -0.13001499 0.2898408 0.1975567 -0.09242104 -0.11940377 -0.14443254 0.11413458 -0.12166117 0.14357382 -0.3643884 -0.0976353 0.12860887 0.07088418 -0.10752503 -0.15831132 -0.07413068 0.03743085 0.20178251 -0.16669437 0.077533506 0.124304935 -0.018761136 0.040587142 0.14402002 0.08075648 0.21539508 0.44405675 0.03155116 0.07102428 0.1506588 0.14472857 -0.111909516 -0.3930671 0.33073324 0.05812115 -0.3788144 -0.23872857 0.122262776 0.056557517 -0.20797178 -0.39439365 0.18090004 0.1314704 -0.07596267
3041 0.1970153 -0.23474424 0.057424933 0.09196146 0.1744589 0.1528245 0.1204396 0.12334027 -0.1281218 0.046695437 0.09850538 -0.061049767 0.074917085 -0.099426344 0.34277406 0.37200066 0.0018290607 0.08984259 -0.14379293 -0.040762108 -0.048717774 0.43381435 -0.040569797 -0.39112517 0.24706948 0.103581555 -0.0431765 0.063280724 -0.13079743 -0.19381131 -0.25307196 -0.09107357 0.10301352 -0.10551576 -0.36633694 0.12306619 0.3614165 0.3906569 0.4182863 -0.033045832 0.08746524 0.17350875 0.10186204 0.033813216 0.010079394 0.14909741 -0.055654626 0.096867315 0.09161545 0.15450342 0.03032751 0.2136556 0.1961251 -0.07327235 -0.06714156 0.11874756 0.2136582 -0.16816327 -0.27835092 0.06577059 -0.08058664 0.18505244 -0.032602172 -0.39487055 0.3591059 -0.18865421 -0.2224215 0.25388068 -0.0015004697 -0.36851433 0.12108605 0.053626433 0.017972417 -0.2031133 -0.19957525 -0.23586428 -0.04569652 0.14300036 -0.14969383 0.1608036 -0.24869764 -0.0022485883 0.077071205 0.18181689 -0.06568503 0.5544653 0.19077812 -0.040281385 -0.20450202 -0.3755193 0.07892507 -0.36153346 0.2558321 -0.11073692 -0.22691868 0.2504068 -0.07307915 -0.12546398 -0.20668985 0.019239724 -0.11267803 -0.049202025 -0.21202512 0.1559 0.07402558 -0.2803239 -0.105437905 0.040196 0.034406334 -0.014002282 0.15283494 -0.065356955 -0.116686635 0.13307256 -0.14740026 -0.22525866 -0.12209073 0.1684003 0.1472546 -0.0644236 -0.1903164 -0.16456978 -0.04254778 -0.19312872 -0.2878559 -0.011701354 0.11545747 0.15984479
3565 0.07996956 -0.24284485 0.348874 0.19083647 0.113711536 -0.05626038 -0.09445197 0.16378462 -0.3570247 0.22581261 0.03924175 -0.3009509 0.010994434 0.025945272 0.23997433 0.0861263 0.14444402 0.084379874 -0.09906796 0.26938188 -0.0026654687 0.2899221 0.060713287 -0.31620747 0.22980069 -0.289107 -0.08149159 -0.20034128 0.20100535 -0.06269379 0.1047326 0.15905982 -0.18282583 0.1845197 -0.075778276 -0.0028793097 0.14445591 0.26944536 0.23799832 0.17837451 -0.08741644 0.13035922 0.14991367 0.12131629 -0.08397012 0.13516025 -0.29707786 -0.022260183 -0.3570698 0.060300943 0.3093252 -0.05655772 0.18907352 0.05384746 -0.37436345 0.08600731 0.17328414 -0.46321103 0.0023265532 -0.06981311 -0.029971324 0.032948874 0.019305468 0.005875727 0.3424664 -0.2532246 -0.07876239 0.3242979 -0.098402195 -0.06239065 -0.0074192993 -0.04470679 -0.46725762 -0.22810921 -0.22311912 -0.33464667 0.15514523 -0.30708635 -0.075072005 0.29060423 -0.15769374 -0.07597036 -0.006703996 0.07156097 0.14007308 0.20656753 0.16334355 -0.26020128 0.1488534 0.01880364 -0.07063575 -0.053319793 0.2628391 -0.09245148 0.172881 0.2636059 -0.088910885 -0.0023812167 -0.26828426 -0.11484766 -0.19915582 0.02019411 0.0026437733 -0.11336326 0.3181712 0.050669998 -0.058414303 -0.11121157 0.048111606 0.025912123 0.08530378 -0.16579853 -0.013463467 -0.21685156 -0.1927255 0.047815725 0.07780576 -0.19410957 -0.009805074 -0.16336113 -0.20085964 -0.08105761 -0.18769242 0.09317684 -0.09172519 0.06411273 -0.18179053 0.27827168
4494 0.24434152 -0.20107017 0.08056385 0.08715107 0.051768865 0.07699371 0.06028309 -0.10451125 -0.1882345 -0.28770876 -0.056508787 -0.29751664 0.08485519 -0.20358314 0.1662408 -0.0136247575 0.03036462 -0.1898833 -0.25750825 0.6196708 0.34381604 0.42434064 -0.07874349 -0.03470012 0.030711569 -0.056103434 -0.09888978 -0.33891502 -0.035779793 0.017311374 -0.05756519 0.068574965 0.041582953 -0.11404298 0.03127026 0.19223653 0.25197652 0.09167762 0.019656325 0.4339969 0.00034932047 0.19411343 0.004072845 -0.012145742 -0.12049407 0.048859525 -0.06318213 0.15014745 -0.45307148 0.3655504 0.23010643 0.22031847 0.15767379 -0.1873027 -0.13001418 0.049203925 0.5239452 -0.32160187 -0.058794945 0.0062757134 0.08150106 0.26297817 0.11274558 -0.06343684 0.0059885825 -0.15972668 0.2218137 0.19974552 -0.21626039 -0.05418771 0.068520784 -0.15802555 -0.32634053 -0.0058211903 -0.11551692 -0.1604458 -0.011853829 -0.25385225 -0.23234096 0.3160991 -0.09945356 -0.019620383 0.14433254 0.13460927 -0.028748548 0.022560148 0.31379053 -0.18871833 0.15324251 0.13551493 -0.13714783 -0.0014078326 0.23862053 -0.27543652 -0.03656961 0.10805481 0.21937872 -0.22523503 -0.21740718 -0.011848932 -0.045227047 0.039753076 0.2391422 -0.13819635 0.057307463 -0.05445658 0.0727196 -0.17916054 -0.085344784 -0.10070779 0.11906625 -0.23145714 0.09083628 0.25201565 -0.38828427 -0.11797774 0.17204675 -0.015030773 0.11567887 0.005591471 0.10237903 -0.27304798 -0.18631782 0.10820176 0.15085883 -0.10747293 0.033328705 0.35158855
4883 0.12664042 -0.22182044 0.17828856 0.23123372 -0.15143977 -0.027463024 -0.03389656 -0.09871506 -0.047116626 0.05581119 -0.0002596516 -0.119166166 0.04040964 0.11816507 0.012976417 0.29963976 -0.00017834322 -0.1412831 0.13619511 -0.42987737 -0.11728535 0.25015098 -0.13605204 -0.27708632 0.19445732 0.30264586 0.14644435 0.16197526 -0.16018048 -0.7223285 0.001469062 -0.103673585 -0.058379885 0.13746785 -0.1093625 0.48167843 0.48825404 0.18296951 0.018191287 0.28867978 -0.32600442 0.3049552 0.10399045 -0.25288606 0.09454319 -0.13569945 -0.3522715 0.06061543 -0.05024025 0.19187643 0.040816203 0.17120083 -0.09754417 -0.25170493 -0.39000776 -0.0897667 0.23087625 -0.33565682 -0.28455964 0.13401258 -0.30998603 0.16884428 -0.2747574 0.20906387 0.24329425 -0.27148098 0.097203545 0.07532038 0.13080354 -0.07598121 0.021325832 0.15588647 -0.13620643 -0.12649272 -0.008858877 -0.23369247 -0.2539288 -0.08527632 -0.020152686 0.12579793 0.05167588 -0.23569977 0.20740755 -0.07420292 0.17084524 0.4468947 -0.048607606 -0.08146937 -0.2357339 -0.1099589 0.03555352 -0.1613327 0.23945305 -0.20836248 -0.00047434345 0.11791978 0.15252551 -0.109023124 0.13302216 0.01808261 -0.02017849 0.22447549 0.026360368 0.22965229 0.035723954 -0.36651325 0.17531256 -0.095915474 0.037459936 0.066711396 0.42737168 -0.11016467 0.32329908 0.2850277 -0.21089137 -0.31148887 -0.24627775 0.08919308 0.49655485 -0.13551837 -0.016794952 -0.07508352 -0.11991322 -0.041249067 0.10915142 -0.1035701 -0.08533232 0.33097184
3457 0.18439992 0.103223436 0.3628915 0.17304686 0.2038441 0.1734799 0.040861044 0.56959885 -0.2751862 -0.14947376 0.084021576 -0.09113342 0.20689222 -0.28450814 0.056830984 0.3760515 0.11468838 -0.21915895 -0.29152378 0.20136021 -0.14962015 0.38831756 -0.0871343 -0.110795744 -0.23572049 0.3670217 0.28027904 -0.12805745 0.30966383 -0.00051539135 0.25080043 -0.10163466 -0.16521378 0.0593583 -0.33257383 0.14385691 -0.16437672 0.18343282 0.40501416 -0.037092425 0.033415835 0.44418392 0.06822435 -0.21139026 0.1967485 -0.32040954 -0.25954637 0.018195698 0.02714338 0.27537876 0.2407921 -0.003556231 0.30539468 0.047644205 -0.03280507 -0.21233082 0.32374683 -0.24894553 -0.17664261 -0.14844297 0.24699298 0.123911515 -0.12303167 0.24968322 0.4303886 -0.13482676 -0.38299546 0.26624602 -0.07510463 -0.21488681 0.26239777 0.16701706 -0.44396687 -0.15291832 -0.056553602 0.11627825 0.19224113 -0.15946087 0.17768967 0.28231195 -0.2876766 -0.19341388 0.17332049 0.16025653 -0.21828303 -0.09322692 0.12499297 -0.26734045 -0.19794586 -0.18169752 -0.04389553 -0.5581174 -0.21636276 0.098745175 -0.07549566 0.007322718 0.24118274 -0.08077328 -0.13497093 -0.32612723 -0.02610916 -0.10389229 -0.2139541 -0.010426528 -0.009390339 -0.26521954 0.1911587 -0.13117257 0.09742014 0.2172016 0.018427756 -0.049012594 0.057420347 0.2417713 -0.019692067 -0.048836805 -0.196811 0.06826227 0.23987488 0.016826743 0.10537678 0.0037621392 0.011215774 0.08692486 -0.14342663 -0.27108875 0.12997493 0.076700486
4948 0.3930083 -0.058025517 -0.03152215 0.31535205 0.0613971 0.006016393 -0.16766001 -0.14558217 -0.10544032 -0.17500462 -0.22292101 -0.27501103 -0.069183186 0.18650755 -0.035382703 0.546574 -0.10661343 0.19016038 -0.011509892 0.14271821 0.010242442 0.21006508 0.14662316 -0.056890067 0.29679307 0.052539885 -0.08115815 0.22342752 -0.034999967 -0.42510217 -0.022338962 0.03406606 0.22938463 -0.014212182 -0.3249224 0.11057199 0.26039708 -0.026430165 0.2636577 0.07108197 -0.3766317 0.3098129 0.26133698 -0.3120194 -0.24782461 -0.26078534 -0.044863995 0.38822258 0.08135576 -0.019568581 0.107777156 -0.051102705 0.3618024 -0.3403028 -0.29240778 0.0999882 0.32262677 -0.03191472 -0.10572105 0.008311592 -0.08548832 0.11118506 -0.052836094 0.019167615 0.3733254 0.036572095 0.010044365 0.04603041 -0.12258469 -0.28819484 -0.17297716 0.13360727 0.022146557 -0.16795434 -0.0883501 -0.35896888 0.0009641741 -0.1095007 0.014502956 0.107130595 -0.14832594 -0.43759495 0.04903802 0.14647955 -0.15570085 0.18168569 0.12163084 0.22625856 0.19350113 -0.076462075 0.0973788 -0.07751947 0.19823894 -0.12436591 -0.16762045 0.3065328 0.17194456 -0.22306497 -0.18766648 -0.11602248 -0.10045049 0.14496283 0.061319847 0.11075818 0.11600862 -0.23210281 -0.062940285 0.10940561 0.18168004 0.068654336 0.2691432 0.11500958 0.090564825 0.0040742527 0.040144168 -0.1884205 0.15601319 0.24421015 0.29327205 0.0029469004 -0.15405267 -0.054612897 -0.027156934 0.14632438 -0.453892 0.30446777 0.013173004 -0.07389068
609 0.30323365 -0.2403064 0.4787247 0.11814551 0.19834803 0.16787419 0.23312439 0.09656734 0.015037509 0.06961681 0.031124953 -0.21174464 -0.27985188 -0.08040452 -0.15525422 0.40401918 -0.08168537 0.14745398 -0.108135365 -0.0064457515 -0.084942795 0.14165854 -0.088917464 -0.20359199 0.031054046 0.20039329 -0.30446097 -0.04248874 -0.13757813 -0.22958979 0.4211751 -0.058492914 -0.115554474 0.18327372 -0.31902644 -3.796612e-05 0.53482544 0.09536656 0.42343926 -0.020729246 0.052534986 0.20521161 -0.21262358 0.13008755 -0.031380855 -0.16883539 -0.17845955 0.15640602 0.27707756 0.14962272 0.13667797 -0.25529605 0.22256218 -0.13823825 -0.28280014 -0.13170914 0.14196704 0.12573577 0.09784172 0.0134457825 0.11328809 0.07002878 -0.114812225 0.0069787563 -0.04253098 -0.11601722 0.08630965 0.09596147 0.022458885 -0.40508768 -0.031344693 0.0037931774 0.07143268 -0.20764674 -0.14631586 -0.3503093 0.07074252 -0.07691678 -0.061668105 -0.0621207 0.20139974 -0.12422536 -0.17515874 0.19109859 0.061133623 0.20600574 0.15756044 -0.18321936 0.012981255 0.20999977 0.07106548 -0.018986471 0.22555901 -0.27385002 -0.12271488 0.35880214 0.25257573 0.111837186 -0.11104937 0.052355703 -0.03880873 -0.0052010347 0.41308865 0.22642249 0.022873595 -0.41983762 -0.09483797 0.26781347 0.20879622 0.038456883 0.0153418705 -0.41273654 -0.08202766 0.16506568 -0.37958702 -0.13018303 0.06540015 0.30721477 0.22397226 -0.23240821 -0.12959166 -0.341886 0.11140043 -0.043557525 -0.41018263 0.059752148 -0.009679535 0.17410578
19 0.32122418 0.025607951 0.26923168 -0.11221764 0.32540557 0.21149863 -0.15435146 -0.50260025 0.0433413 -0.176578 0.41833773 0.14299741 -0.12801115 -0.5169513 0.10218769 0.18101321 -0.16953747 -0.31853122 -0.031505097 -0.0043343613 -0.15144469 0.1629113 -0.2281228 -0.008994255 -0.12154704 0.036197256 -0.17113926 -0.32211125 0.0047094985 0.29482564 0.26120383 0.35966608 0.16866359 -0.022492977 0.020163937 0.25941184 0.36489454 -0.2618628 0.41604254 0.5230028 -0.2073903 0.2671898 0.05160715 0.13307391 0.013736027 -0.08793115 -0.3438227 -0.0653702 0.13901737 0.2926481 0.1514917 0.10890617 0.15365884 0.22275469 0.12442758 0.038640507 0.25295 0.3100177 -0.16018158 -0.081502534 0.051257666 0.3363128 0.23578008 0.2603208 0.26656204 0.2439849 0.22791608 0.29649368 0.07684523 -0.193696 -0.2594858 0.09505712 0.031585347 0.08413944 -0.023658391 -0.6027335 0.15521641 -0.27155277 -0.062461607 0.36224595 0.39000207 0.0027676076 -0.43251982 0.37413684 0.23831747 -0.30210352 0.18432644 -0.21589136 -0.016055724 -0.001588957 -0.17657256 -0.13022135 0.050906748 -0.22399235 0.1505608 0.0051642447 0.13958398 0.04663677 -0.0058986396 -0.14603584 -0.18181227 -0.048948232 -0.06600821 -0.11413197 -0.003353799 -0.14424899 0.12614292 0.13748103 -0.26216948 -0.13864203 0.059873052 -0.0022295844 -0.14154573 0.34590313 0.33576566 0.05919183 -0.152449 -0.14486195 0.2700607 0.35333169 -0.013921641 -0.12868384 -0.13771418 0.033482395 -0.09179208 -0.29530144 -0.007610315 -0.18414098
2585 0.02590212 0.074470565 0.039181434 0.081629 0.20108938 -0.14468192 -0.07136321 0.24311712 -0.1396906 -0.104452066 0.1834884 -0.22550571 0.10437997 0.2581305 0.15248884 0.1887735 0.12078294 0.04565364 -0.38329303 0.063275166 -0.39832065 0.069396496 -0.008494914 0.043779537 0.03224088 0.15579784 0.13735233 0.106649816 -0.07486545 -0.35260552 0.05229214 -0.07426249 -0.06854135 0.26679257 -0.1481351 0.30468747 0.6500402 0.034263268 0.18275991 0.18152197 0.00042765978 0.289668 -0.026513709 0.14362518 -0.01988069 0.08386226 -0.12783441 0.20527983 0.2665346 0.114640884 0.07222163 0.022156764 0.27186558 -0.18133186 -0.21700679 -0.20944676 0.44250077 -0.1637606 -0.055074457 -0.08058003 0.09246882 0.17040741 -0.2633934 0.09408228 0.17877957 -0.048244428 -0.1955572 -0.05275009 -0.04484112 -0.2619053 0.10359315 -0.052285805 -0.24496439 -0.42762464 -0.33887786 -0.18996091 0.19134906 -0.18491672 -0.040777415 0.19559847 0.1474245 -0.3981811 0.13242692 0.10859469 0.07160088 0.16147053 0.19487667 -0.009457863 -0.11885375 0.05822465 0.09014149 -0.089719824 -0.03594918 -0.17399728 -0.1427409 0.20918098 0.08779622 -0.08407962 0.15864676 -0.35382226 -0.29298845 0.3266982 -0.0081959115 0.059647713 0.12011575 -0.2552812 -0.22362839 0.28825507 0.011720648 -0.09050824 0.2639683 0.017372867 -0.075023666 0.24077001 0.13010904 -0.42265368 -0.13215424 0.1768515 0.26844314 -0.23170018 -0.25946835 -0.06472223 -0.19189616 -0.23970154 -0.42605102 0.0058625787 0.16887434 0.014992028
1542 0.1190148 -0.044765458 0.2128608 -0.051193576 0.16696277 -0.18476507 0.23562084 0.031633943 -0.07630133 0.24171068 -0.15138525 -0.02767475 -0.034774426 0.12698698 -0.080219686 0.3177779 -0.18826409 -0.019271089 -0.057972 0.16289799 -0.0854793 0.2821089 -0.52043843 -0.18141091 -0.20432232 0.11720145 -0.23759536 0.01066098 -0.054499783 -0.16115956 0.044709016 0.01754356 -0.024881162 0.15672223 -0.16597225 0.40948236 0.31299743 -0.09091203 0.21660733 0.42243937 -0.16827951 0.21130918 -0.21560805 -0.3131797 0.009738599 0.068519056 -0.35698327 -0.16370216 -0.20771222 0.20274551 0.22955681 0.06925413 -0.09169359 -0.0048536044 0.2592336 0.2923265 0.016051752 0.009643852 -0.011211094 0.030827759 -0.07347202 0.21757552 0.048967425 0.070190676 -0.01457571 -0.12376617 0.43934187 -0.010135037 -0.185653 -0.30152163 0.12601314 0.08766717 -0.010806231 0.10508575 -0.015669446 -0.40543473 0.07799175 -0.0999265 0.080918126 0.26782298 -0.0069106505 -0.12959255 -0.14432886 0.13984069 -0.15417267 0.4174661 0.23246801 -0.27463534 0.13704084 0.10616676 -0.20795682 0.017576914 0.23052329 -0.19719711 0.07651398 0.19042176 -0.19023241 -0.35199615 0.359251 -0.21413483 0.18211329 -0.21435544 0.08391669 -0.28745997 0.07890834 0.1703435 0.16938911 -0.27561256 -0.3399124 -0.02830847 0.3214704 -0.21144326 0.03705141 -0.16394892 0.22656778 0.07908701 -0.018998124 -0.17310917 -0.45494094 0.13312933 -0.02599689 -0.08004624 -0.041950118 0.1116105 -0.42705154 -0.36498997 -0.18012166 -0.02327091
1029 0.30142483 -0.1379194 0.043815453 0.16650915 -0.07164108 0.18655738 -0.086345315 0.24024399 0.023784915 0.04160248 -0.010254347 0.17332181 0.060986914 0.021950787 0.1550836 0.20476533 0.18120638 0.032251257 -0.05342003 0.06954634 -0.31318375 0.6105495 0.5313299 0.012000925 -0.0887764 0.27525115 0.031508967 -0.029382482 -0.07142881 -0.2003207 0.31675923 -0.030932033 -0.10931876 0.2589033 -0.3790888 0.13147514 0.42212522 -0.2643108 -0.029439567 0.091025814 0.014532497 0.1383799 0.022010978 -0.14273557 -0.24734913 -0.2977716 -0.087325335 0.09057731 0.25945458 -0.07007212 0.25973555 0.34367698 0.32009897 -0.09043267 0.06531685 -0.26184204 0.104414396 -0.18069789 -0.21834819 0.08275953 -0.13201062 -0.14311343 -0.010769945 0.12617055 0.32114315 -0.062718116 -0.17753075 0.05335093 0.044733107 -0.19283742 -0.077099435 0.043197542 -0.056928795 -0.20380013 -0.21187508 -0.096484154 -0.0005652824 -0.08413304 0.26427585 0.18969022 0.14321214 -0.16798197 -0.0037555767 0.28819552 -0.0039024628 0.068931445 0.29750788 -0.13515437 -0.3489039 -0.008411629 0.16870143 0.012210147 0.34093142 -0.14081806 0.15821485 0.40831134 -0.15000817 -0.35347158 -0.050252803 -0.18081732 0.012123902 -0.024586122 -0.21616219 0.20354278 0.21760958 -0.24930826 -0.19900937 0.26324788 0.22692598 0.062892854 0.3517666 -0.28592047 -0.1800216 0.4627102 -0.2286989 -0.4141552 -0.16961984 0.2197224 0.19641684 -0.051679485 0.028975638 -0.11968781 0.0078303 -0.031197581 -0.35189193 0.15689875 0.12910666 0.025294611
3359 -0.010972148 -0.24434792 0.26139843 0.12621725 0.081561744 0.41073525 0.051214244 -0.10381509 -0.2528157 0.163131 0.068309896 -0.35589114 0.049903598 0.07261099 0.054451484 0.14239755 -0.18545775 0.103382654 0.039526097 -0.04948983 -0.13437125 0.27917656 0.04385921 -0.02500096 -0.072010614 -0.20686886 -0.20145357 -0.17052115 0.122386284 -0.13221982 0.038857885 0.13801992 0.06800751 0.046169415 -0.22892329 -0.002303365 0.17709905 0.22681607 0.33827603 -0.11947149 0.06535741 0.13580213 0.0029843496 0.03742314 0.08530012 -0.097207084 -0.37191293 0.11353651 -0.27233753 0.24208878 0.5534979 -0.037842244 -0.1406295 0.092221975 -0.070262134 -0.14420685 0.31271303 0.03301836 -0.29598993 0.3269712 0.044124264 -0.08228637 0.2670718 -0.16984084 0.2826789 -0.33807197 -0.21429285 0.27996537 -0.03625995 -0.3716174 -0.18326394 0.10537827 -0.4637221 -0.03379328 -0.027184201 -0.38142928 0.079101294 -0.42068982 -0.36130998 0.41740924 0.025971739 0.01360163 0.15029584 0.18627478 0.115745954 0.51045954 0.012104695 -0.18356846 -0.011348655 -0.18999676 -0.092736214 0.07410653 0.11922495 -0.36306998 0.0047400114 0.11470039 0.0031788885 -0.13076375 -0.23082627 -0.09349725 -0.051991947 -0.04474921 -0.04741481 -0.09887971 0.18683352 0.019177154 0.05813514 -0.023148485 -0.11088968 -0.039574347 0.15843824 0.07297225 0.15480113 -0.06070624 -0.25431186 -0.118190154 -0.12158852 -0.10495742 0.1831041 0.10786525 -0.18877174 -0.16053909 -0.073494434 0.05601357 -0.12976229 0.09971329 -0.17847513 0.301833
4918 0.25344473 -0.34195957 0.2799079 -0.12134478 -0.10748772 0.16441548 0.026800333 -0.10715792 0.054411937 -0.11085715 0.32051712 -0.12266597 0.10600892 -0.1427739 0.19557406 0.33490703 -0.2999976 0.16707516 -0.103661545 0.11815765 0.0045953803 0.48308775 0.41924638 -0.12630446 -0.26493773 -0.20656823 -0.095523134 0.09968144 -0.0802191 0.33748642 0.020624736 -0.15791763 -0.112220846 -0.021804016 -0.33083078 0.10935788 0.75407475 0.19475468 0.22742604 0.095350854 0.16706978 -0.02244529 0.44571367 -0.15508334 0.10213401 0.14438012 -0.19028448 -0.098407 -0.019993305 -0.03867078 -0.005078234 0.036055665 0.013146837 0.0696752 -0.33055848 -0.0770773 0.19839919 -0.53138614 0.17137183 -0.080401115 -0.15233691 0.15143527 -0.13616927 0.047331143 0.19785027 0.28106615 -0.027147556 -0.032576513 0.016374731 0.107929215 -0.09307923 -0.19166194 -0.24149993 0.023377588 0.1625497 -0.48770648 -0.09978334 -0.24519242 0.37157363 0.007956791 -0.054936435 0.2955129 0.27169865 0.020947935 0.15776065 0.24597317 -0.0044755973 0.06696044 0.16412169 0.0137813445 -0.16747546 -0.10120854 0.05889804 -0.0054418817 -0.22805935 0.5376663 -0.24391343 -0.057710625 -0.42123294 -0.05794965 -0.10064485 0.34516808 0.279381 0.2540029 0.012983739 -0.22115394 -0.042547207 0.042492636 0.022823146 0.27404815 0.20320876 -0.283651 0.10321938 0.37371013 0.04872452 -0.02177247 -0.029584834 -0.02878328 -0.07017191 -0.21569876 0.03849715 -0.03952306 -0.08785318 0.119998194 -0.36143276 -0.04436903 -0.18601449 0.1688794
4318 -0.021380855 -0.1544353 0.1312184 0.22114585 0.11999751 0.31376916 -0.10337661 -0.0900014 -0.4709591 -0.031913105 -0.28701118 0.009307127 0.13690512 -0.016183212 -0.008626068 0.1961991 0.077680744 0.25380814 -0.24258214 0.32701868 0.039687082 0.43313316 -0.042097673 -0.3306621 -0.36629733 -0.10129803 0.30413055 -0.38207683 -0.0152849285 0.015157778 0.12030187 -0.037430868 0.04058892 0.14380115 -0.12150041 -0.032567468 0.16451643 0.07630324 0.13225782 -0.16598485 0.38004476 0.070423044 -0.089356385 -0.21941747 -0.06024117 0.21790658 -0.3784258 0.049347814 -0.1554854 0.09354644 0.2496733 0.21645796 0.40330967 -0.09069176 0.30735466 0.16322161 0.36519274 0.016520463 0.1724905 0.10146406 -0.06420814 0.104377374 0.02161012 0.1145397 -0.1754505 -0.11173034 -0.060221076 0.18879622 -0.029087525 -0.04322931 -0.07124408 -0.11544729 -0.49527347 -0.08450165 -0.09574152 -0.5800168 -0.14869723 -0.30338296 0.06389758 0.15211901 0.08240339 -0.0020270196 0.25329036 0.30757397 -0.034338478 -0.15583771 0.33224028 0.049295403 -0.13666815 0.03959814 0.059498295 -0.28335387 0.29337463 -0.27804494 0.15840451 0.2909491 -0.03991241 -0.340768 -0.42533064 -0.3271258 -0.061243974 0.1626747 -0.13607949 0.27371505 0.29844752 -0.07754007 -0.06933009 -0.300484 -0.028072404 -0.08202493 0.3147706 -0.018990293 -0.066045895 -0.016138192 -0.24198492 -0.14214009 0.089421555 -0.25678524 -0.1108585 0.078230694 -0.13465251 -0.2748246 0.14197665 -0.059715398 -0.24402283 0.12031042 -0.00779565 0.21684906
4970 -0.18084905 -0.19201241 0.2785023 0.13309179 0.12611134 0.327866 -0.015675511 -0.32045338 0.12750459 -0.051982988 0.014940579 0.09775598 0.18580836 0.064207084 0.03588418 0.28224915 0.07587595 0.10877649 -0.37096274 0.16557963 -0.18340972 0.34327483 -0.1592244 -0.4880737 -0.10992629 0.063177146 -0.15544033 -0.32601044 0.108357474 -0.088288695 0.20375626 0.006395191 -0.17601372 -0.06920589 -0.088611744 0.35216528 0.004643937 -0.049294356 0.21589741 0.20275274 -0.024362132 0.33637497 0.18094084 -0.086922064 -0.16041008 -0.19878592 -0.12160606 -0.50879204 -0.1878236 -0.10397783 0.12398664 -0.0037602924 0.25843647 0.025422782 0.14632738 -0.09135458 0.3240399 0.040382963 -0.18656482 0.03701887 0.06580138 0.16111603 0.17780863 0.18696685 0.15772402 -0.047484796 0.07810868 -0.09112082 -0.35952783 -0.14087035 -0.3297668 0.031072134 -0.26320085 0.02212314 0.33277366 -0.30890986 0.11806045 0.010388487 -0.22345474 0.15690489 0.14617299 0.05829172 0.038696423 0.28108695 0.3836028 -0.012258008 0.10446969 -0.22945417 0.025236655 0.10706825 -0.17262611 -0.005401724 -0.18456346 0.071405895 0.23980846 0.122480966 0.11311622 0.0061230683 -0.78448063 -0.17826802 -0.045026634 0.16638792 0.0046535577 -0.45566776 0.043626145 -0.35557184 -0.34328568 -0.131357 0.115482606 -0.033317026 0.25934774 -0.070032895 0.16154245 0.02080348 -0.04296327 0.14581609 -0.4004229 -0.28900093 -0.14773522 0.013053129 0.18958986 -0.005728415 -0.24846387 0.24304755 -0.53900677 -0.04152013 0.03806759 -0.06573346
153 0.22562121 -0.21118294 0.2782593 -0.10263744 -0.016610825 0.041677546 0.21228556 -0.22184308 0.15060063 0.38276017 -0.110272795 -0.36745247 -0.03024035 -0.08896226 0.35098156 0.122717865 0.009288906 -0.028414646 0.012972257 0.14170279 -0.23306271 -0.018425673 -0.40670022 0.1007863 0.021365697 0.20005801 -0.22351828 0.031148762 0.13792667 -0.028943293 0.05862302 0.3215991 -0.02586477 0.02778472 0.108114764 0.17582501 -0.120371714 -0.59419847 0.0019857516 0.12850137 -0.09033894 0.041646313 -0.10627317 -0.19983906 -0.15529747 0.054972973 -0.7884871 -0.16705875 -0.027707031 0.13153319 0.35540798 0.12041039 0.3132559 0.0014471605 0.17218783 -0.015158921 -0.14051588 0.25438166 -0.1068633 -0.053818937 -0.29581496 0.06391227 0.10013788 0.018693501 0.11642189 -0.08528992 0.07989477 -0.32319188 0.12387641 0.18436417 0.003311844 0.10065308 -0.43759444 0.03803096 -0.122722656 -0.4121049 0.2516597 -0.05842861 -0.004274214 0.15314178 0.30690673 -0.16323149 -0.031335138 0.43854862 0.19230731 0.12940785 0.20237392 -0.06397689 -0.07595629 0.20342638 0.0753409 0.10751898 0.2919429 -0.083200075 0.19720016 0.035632353 0.007277451 -0.34990776 -0.13811457 -0.08287726 -0.21575809 -0.008180198 -0.030132039 -0.23537548 0.15387104 0.07764547 -0.14496379 -0.08308978 0.33357975 0.1323726 0.26714638 -0.28418455 0.2414509 0.22622962 -0.23998003 -0.0955818 -0.12192885 -0.046601117 -0.28380117 -0.20752156 0.024317876 -0.2544529 -0.2167908 -0.11091755 -0.48257282 -0.31509084 0.11178505 -0.1345912
4851 0.23483682 0.10511817 0.3602287 0.2854739 -0.08060089 -0.21104725 0.117698014 0.19679219 -0.35652545 -0.12089912 -0.04719354 0.18748061 -0.1363689 0.1513658 -0.08575753 0.3469827 0.21979184 -0.014805972 -0.22674663 -0.25570354 -0.10583451 0.28756392 0.109385245 -0.23054431 0.06223012 -0.32032 0.014713185 0.39927283 0.041001614 -0.2938752 0.10687408 -0.2393958 -0.03261682 0.18205228 0.07339395 0.43473485 0.26126403 0.11413667 0.50719106 0.16530378 -0.6013139 0.1299007 0.19654845 -0.03314228 -0.092652254 0.0772345 -0.14786577 0.27244976 0.16083524 0.049811088 0.17363518 0.06791535 0.24326266 -0.19028988 0.07857573 -0.016892806 0.2844045 -0.4528318 -0.031222774 -0.07915495 -0.14396317 -0.2354631 -0.34911665 0.12736487 0.21303977 -0.24831295 -0.09773982 0.079542734 0.11070263 -0.19929247 -0.22635108 0.1527548 0.06938998 -0.22119147 -0.029287696 -0.48536783 -0.0697329 -0.1923308 0.19047785 0.19568443 -0.06511639 0.07488751 0.01773517 -0.07788121 -0.19172671 0.24281159 0.117193274 -0.22305726 -0.035945375 -0.14477935 -0.0034055305 -0.06126166 0.28443012 -0.31558862 -0.0059933313 -0.083590955 -0.0034030483 0.03463645 -0.14143482 -0.19926047 -0.10231471 0.05643125 -0.1259026 0.14614946 -0.043661386 0.1835876 0.13573265 0.20843533 0.11475323 0.16066037 0.2268877 0.05090624 -0.026776576 0.3515187 -0.25448522 -0.26364362 -0.006206059 0.10025265 0.10796158 -0.29924268 0.0406332 -0.033172403 0.049232926 -0.1405392 -0.61570543 -0.12516233 0.005493315 -0.02433178
3979 0.15313388 -0.35262161 0.3967293 0.31223705 0.43288693 0.12274956 0.124425605 -0.23802418 -0.26607886 -0.0013353257 0.060289502 0.10999121 0.24300165 0.23541114 0.21455659 0.24719222 -0.049193703 0.014544044 -0.21477228 0.058958456 -0.105553046 0.34818274 -0.26841086 -0.40940526 -0.035182536 -0.21155266 0.2712187 -0.11609612 0.042144522 0.060466938 0.10983844 0.0046178787 0.015294888 0.08605393 -0.16129942 -0.19342256 0.31068364 0.17553493 0.32533187 0.037920933 -0.005341311 0.27509996 0.1503936 0.27419358 -0.094908684 -0.055479426 -0.30187005 -0.0020522824 -0.2967791 -0.06786527 0.1935362 -0.17884196 0.49812979 -0.21792665 0.030338684 0.3683303 0.43966866 -0.25578198 -0.18227047 0.0008491237 0.16599102 0.022761727 0.30135122 -0.021085577 0.25326926 -0.026344351 0.029933678 0.115374535 -0.12903059 -0.29991174 -0.19480097 -0.27177614 -0.12913144 -0.07052914 0.080351785 -0.4172949 -0.15277019 -0.19987224 -0.15738511 -0.20990755 -0.025351176 0.1742118 -0.14929642 0.13137512 0.008455608 0.20317787 0.21824853 -0.049042888 -0.01027742 0.027689544 -0.047199458 -0.09704494 0.030122349 -0.18093047 -0.048300665 0.30683973 -0.00025867217 -0.19039376 -0.16460373 0.09714595 -0.2062394 0.029879034 0.065069884 -0.25901413 0.119145185 -0.22363724 -0.27988118 -0.052305687 0.09223365 0.08085081 0.29692623 -0.2513152 -0.19140598 -0.12688355 -0.3527025 0.008229032 -0.012875205 0.010422769 -0.08350261 0.03638972 -0.25063553 -0.056692183 -0.33713073 0.20351234 -0.18465278 0.32008243 -0.20403408 0.36168587
4251 -0.023927625 0.15639362 -0.08082503 -0.07120003 0.03148533 0.11656998 0.2715735 -0.17902668 0.045757018 -0.26645 -0.21432497 0.011407063 -0.14701125 -0.26360577 -0.13539147 0.20104231 -0.4411064 -0.20259584 -0.32180658 0.24773185 -0.33053607 -0.095713854 0.08248896 0.110577375 -0.50497216 0.012496032 -0.11894639 -0.031956304 -0.1518938 0.16181792 0.16168378 -0.2239569 -0.40318984 -0.11933128 -0.29469594 0.2252237 0.11005555 0.0011777929 0.072967336 0.05353091 -0.22501604 0.18885572 -0.09352386 -0.23078902 0.1485076 0.28454316 -0.005644692 0.1370538 0.039463557 0.32756454 -0.0045113117 -0.11479617 -0.115436494 -0.02002504 -0.10817588 0.17747042 0.2354265 -0.24899805 -0.22955713 -0.20073253 -0.13448338 -0.17733431 0.30972585 0.06802878 0.49129063 0.035142384 -0.017829603 -0.26539838 0.013773607 -0.55053544 0.33827537 -0.079861835 -0.3354253 0.29836175 -0.18546565 -0.47930244 -0.024601934 -0.013050791 -0.1611685 0.2605419 0.22288609 0.28672612 0.28129902 0.18523468 -0.3991194 0.579029 0.110246845 0.053791136 0.13689442 0.08981474 -0.0269005 0.052119423 0.045259513 -0.21472561 -0.031197736 -0.28436717 0.20032305 -0.079091966 0.023539614 -0.31229615 -0.41009167 0.18455681 -0.21501829 -0.12587908 0.089625716 0.0403363 0.040451776 -0.27268457 -0.0651913 -0.22247654 0.2465736 -0.25527126 -0.03431625 0.05239786 0.10320069 -0.32138702 0.22049126 -0.072753504 0.06421368 -0.18998386 0.2498949 -0.36890435 -0.17635286 0.31867445 -0.11450275 -0.19718578 -0.21130693 0.13864131
1804 0.16227686 0.061707087 -0.05414435 0.20221266 0.10046552 0.19758275 -0.0026344156 0.08294811 -0.14015505 0.33824375 -0.01468321 -0.113702975 -0.11269839 0.13360661 0.14629212 0.28970492 -0.19149433 -0.07637446 -0.03765161 0.046769243 0.19771604 0.4754851 -0.321533 -0.31125626 0.30649585 -0.1339822 0.13409816 -0.24249518 0.36414745 -0.044949524 0.16235474 0.14192884 -0.28652835 -0.1547956 -0.12193496 -0.0032101716 0.13723224 0.02543923 0.23323748 0.37020007 0.13630356 0.0067607677 0.11362869 0.16894487 -0.19824508 -0.03855863 -0.54282576 0.051782805 -0.40974897 -0.10333204 0.18506223 0.20461239 0.47598162 0.057437774 -0.22229567 -0.0060951984 0.37848768 -0.19095218 0.0944566 0.21446408 0.01046818 -0.043132313 0.34342042 -0.10356296 0.35129002 -0.2516365 0.18834868 -0.078233555 -0.041100886 -0.10510203 -0.064187735 -0.24646771 -0.039618757 -0.15218824 0.1018855 -0.026786119 0.16533262 -0.19300121 -0.046221003 0.1422199 -0.2118325 0.35780394 -0.028066348 0.28232294 -0.05302113 0.13132359 0.38806766 0.04823695 -0.28228197 0.07724412 -0.30729714 -0.07473697 0.049326837 -0.53680915 0.026241362 0.23479529 0.18576166 0.11122104 -0.48400423 -0.2667949 -0.08237376 0.28166285 0.20387903 -0.030135935 0.0888488 -0.0327946 -0.2784602 0.07668391 0.32418445 0.1312731 0.078640565 -0.20485342 -0.12386494 -0.018603904 -0.17106327 -0.128541 -0.00082976365 -0.14964563 0.31152362 0.26449242 0.0027824023 -0.31919792 -0.007230726 -0.17228217 -0.23438437 0.32624438 -0.053942017 0.5238457
1550 0.21949126 0.2310503 0.18995158 -0.07907959 -0.05761059 0.27303648 -0.2972944 -0.08767486 -0.23932305 0.029111939 0.052303568 0.049228378 0.013617399 -0.33274338 0.022809928 0.18247707 -0.24371292 -0.06057033 -0.2201843 0.17401776 -0.2907737 0.31405988 0.2811311 -0.34377497 -0.038773566 -0.1491767 0.071039215 -0.1683237 -0.1316682 -0.095928036 0.061723847 0.0515001 -0.027234087 0.3190393 -0.11091214 0.101568654 0.03928752 -0.10837682 0.085299544 -0.034293815 0.08183334 0.056514822 -0.10803181 0.10679141 0.11846216 -0.14787625 -0.10120925 0.05165323 -0.38538867 0.17582889 0.38823506 -0.039181635 0.26200932 -0.024478143 -0.0027555604 0.055311304 0.4156342 -0.21028315 0.09723715 0.14474213 -0.28506202 -0.17433125 0.106249794 -0.23805517 0.1920886 -0.14226823 -0.1008459 -0.1252198 0.24553339 -0.012174768 -0.3099059 -0.3160753 -0.08451863 -0.2634575 -0.32690015 -0.451102 -0.19071224 -0.29995757 -0.20199606 0.5414863 0.21191306 0.08744423 0.027344318 0.3990374 0.5058401 0.25525936 0.3004678 -0.20144612 0.14189175 0.17526336 0.0020372064 -0.06632259 0.15377179 -0.22808523 0.3231536 0.10726165 0.06689729 0.07130134 -0.0687154 -0.14810506 0.0005204866 0.07302929 0.1279145 -0.17612293 0.11359221 0.13326235 0.12202451 -0.016084958 0.045132246 0.011644977 0.10943204 -0.036122292 0.06843579 0.25193855 0.080093846 -0.12988572 0.09323992 -0.1999457 -0.29846746 -0.116342425 0.049352024 -0.36177427 0.12840258 0.14085364 -0.21700983 -0.09118126 0.18298708 0.23204252
3031 0.246961 -0.31008175 0.3970098 0.39755625 0.018496744 0.14193425 -0.12159923 0.23780407 0.11112016 -0.115126036 0.03613311 -0.0051503847 -0.104242295 -0.17362069 0.25965318 0.11376594 0.029432865 0.31668463 0.006385291 0.013216253 -0.18755968 0.6113013 -0.047746364 -0.22567889 0.09394373 -0.20597534 -0.018986944 -0.18740743 0.17150186 -0.06297846 -0.05355086 0.09796841 -0.124529585 0.12486241 -0.045050293 0.22249389 0.24482185 0.058115363 0.4311129 0.10653028 0.120708846 -0.0030972268 0.25879472 0.0033420597 0.070991054 -0.12972748 -0.3525454 0.06837671 0.11363992 0.24032816 0.23403145 -0.004256575 0.14563407 0.01341293 0.099851824 0.21449159 0.33708617 -0.11597847 -0.31995192 -0.19792141 0.23930469 -0.028496511 0.31009206 0.22304757 0.2569972 -0.15818559 0.42265582 0.24881367 0.122044705 -0.44746956 -0.031751342 0.11126029 0.056077525 -0.2839619 -0.075010866 -0.30109325 -0.005818356 -0.2575821 0.021427147 0.33532766 -0.1286537 0.0697227 0.075986154 0.06046348 0.111721195 0.21267594 0.16015323 0.2025702 0.3759593 0.46336547 -0.04279437 -0.103714496 0.024920253 -0.44904906 -0.047441382 0.093400836 0.20150702 -0.05220096 -0.09414574 -0.034263704 0.17482813 0.011741612 0.14977501 -0.037490316 0.29232228 0.104783304 -0.051899903 0.09804272 0.15138903 -0.17862609 0.14493494 0.13906446 -0.08807163 -0.07499706 -0.24690396 0.098800816 -0.091223285 -0.030037627 0.21715094 0.017839877 -0.094613664 0.13096659 0.06803015 0.015369143 -0.23112802 0.09307411 -0.060788993 0.22684516
3245 0.33133394 -0.12969318 0.20343012 0.107913196 0.09520095 0.07204873 -0.26212087 -0.25611728 0.017762179 0.05052548 -0.08985973 -0.103379205 0.18009746 0.08781213 -0.03510905 0.18421108 -0.12930024 0.07600869 -0.040946517 0.09464607 0.21619603 0.5676756 0.021736892 -0.34438518 0.10411827 -0.42101824 0.070007615 -0.10648525 0.027283465 -0.024730649 0.072668895 0.09055161 -0.15682548 0.10297001 0.15839058 0.121666566 0.5029541 0.28666285 0.07764567 0.1446508 -0.21628039 -0.022108115 0.23273793 0.073569044 0.06597335 0.15020765 -0.3378751 0.13935417 -0.003207782 0.059149515 0.31154227 -0.29804143 0.265294 -0.15328665 -0.117068805 -0.1321197 0.30699188 -0.12860492 -0.18970792 -0.07763846 -0.12674622 0.2054989 -0.050035052 -0.005708999 0.31013554 -0.14074613 -0.035706755 0.16736656 -0.026792435 -0.1877492 -0.15255788 -0.027012099 -0.11939335 -0.22117117 -0.18818937 -0.18993317 0.0029883862 -0.22867131 -0.055612728 0.21390048 0.049421508 0.12088799 -0.13990682 0.19813113 -0.36523953 0.24696252 0.14676009 -0.02818565 -0.056858204 0.07469909 -0.17513524 -0.20841226 0.13532548 -0.18437332 -0.03397963 -0.04714418 -0.051343016 -0.24667898 -0.15380551 -0.31634685 0.06403438 0.13810435 -0.110981524 -0.02653071 0.3540404 -0.09351639 -0.26577935 -0.26646087 0.0588686 -0.02989129 0.08491645 -0.42639935 0.19746669 0.044173244 -0.108515255 0.13352232 -0.08619997 -0.14663677 0.07349576 -0.03693352 -0.32029635 -0.14654735 0.0666677 0.07238281 -0.16457413 0.027191099 -0.23084605 0.17704809
364 -0.15387772 -0.17698908 0.22077638 -0.23398559 -0.115103595 -0.26922438 0.27803087 0.012441912 0.1492941 0.11137359 -0.074374534 -0.07115354 -0.13463078 -0.43013892 0.07681037 0.2691797 -0.5177715 0.0017050653 -0.030165123 0.43108916 0.36319178 0.093373634 -0.6164713 -0.3419963 -0.052151013 0.25842896 -0.70116276 0.17155157 0.2707145 -0.074772276 0.1802689 0.12886433 0.10779042 0.529089 -0.45830673 -0.14057902 0.042785205 -0.80577826 -0.41915715 0.014172035 -0.511155 -0.25468507 -0.02139575 -0.13166758 0.19420049 0.1768386 0.1363588 -0.4334136 0.051131036 0.24760263 -0.042190567 -0.25031164 0.10206702 -0.2864997 0.12951382 0.25680676 0.44178158 -0.24669875 0.21194777 -0.19591051 -0.0021210585 -0.21888943 0.126805 0.15822622 0.14725713 0.39975187 0.08511451 0.36767778 0.012483558 0.03903322 -0.13070151 0.03163774 -0.49743176 0.37204364 -0.22267272 -0.22207716 0.12026988 0.033682108 -0.1796885 0.15744053 -0.3062329 -0.19694848 0.46371755 0.19921234 0.080491304 0.34045303 0.019597914 -0.2829315 0.15713204 0.13640358 0.18299288 -0.37309825 0.115614206 -0.18221149 0.14406785 0.16851543 0.19340548 0.24512234 -0.13331656 0.10683843 -0.17772657 0.007901157 -0.31100738 0.12965351 -0.28518486 0.20290942 -0.2708637 0.100850135 0.24645834 -0.16040374 0.60662395 0.075247794 0.085870326 0.3478385 -0.15310977 -0.08848694 -0.044043664 0.030961 0.3551364 0.01907655 -0.1349835 -0.08932345 -0.15259366 -0.14635834 -0.32286105 -0.29123512 0.043708455 -0.16680913
3626 0.115899734 -0.4478383 0.2308508 -0.1912837 0.08649109 0.23182873 -0.112612516 0.12582003 -0.56990504 0.25002405 0.04797575 0.008531191 0.2594247 -0.16224946 0.1488308 0.18286148 -0.024363998 0.34765378 -0.2218596 0.29947165 -0.037531797 0.66856605 0.11528041 0.0021188597 -0.09699474 -0.4220793 -0.05036205 -0.15352969 0.12236875 -0.039976597 0.12242555 0.0137186395 -0.061777864 0.08301041 -0.38197044 0.06044242 0.33176693 -0.0018310456 0.17720737 0.16845027 -0.042805273 0.06510208 0.11444726 0.06506737 -0.14335422 0.11465208 -0.49801183 0.14334504 -0.18698403 0.27749607 0.54150945 -0.046692833 0.17162858 0.12707965 -0.21734087 0.2271162 0.18998776 -0.19550148 0.09120094 0.24165045 -0.04298828 0.009271392 0.1985596 0.12654078 0.24230048 -0.32121158 -0.111692235 0.10348317 0.08378603 -0.32059515 -0.0681947 -0.1327976 -0.08891319 -0.17130521 -0.10352302 -0.33042634 0.0062756618 -0.13004862 -0.20112745 0.37461996 -0.08532195 -0.17329684 -0.07979435 0.10980185 -0.35789347 0.4967696 -0.09546121 -0.07672851 0.112494536 -0.096804 -0.09920067 -0.06852324 0.23945446 -0.23679343 -0.18244258 0.18335049 0.22036038 -0.08822608 -0.17207949 -0.279033 -0.021021739 0.032608923 -0.067479536 -0.2659027 0.23478797 0.09629967 0.05660134 -0.32823336 -0.009239501 -0.2764768 -0.087753505 -0.1411422 0.05146686 -0.108620614 -0.07833584 0.057439275 -0.068917565 0.028849531 -0.07426133 -0.06608126 -0.22105154 0.029957805 -0.21212003 -0.010348419 -0.18021151 0.0954248 -0.35459828 0.6139567
247 0.3184069 -0.31329992 0.39715442 0.35406423 0.0521507 0.2431185 -0.086956814 -0.113471664 0.1682854 0.12347607 0.19082774 -0.021119308 -0.033561163 -0.17637326 0.35760742 0.25205496 0.11621594 -0.079955265 0.008096794 -0.054566927 -0.1806647 0.30454773 0.35738674 -0.24912587 -0.16506384 -0.10809751 0.010344203 -0.010657613 -0.014832959 -0.29215622 0.28508276 -0.16395369 -0.008085903 0.08669366 -0.11028063 0.078273796 0.41530713 -0.000952313 0.34240112 0.11450816 -0.38217235 0.2647147 0.17140402 -0.016187388 -0.14675745 -0.28570065 -0.14674403 -0.012222767 0.09394474 -0.022774875 -0.106208555 -0.061966483 -0.07120083 -0.42141813 -0.27093107 0.13902552 0.13772802 -0.2610731 -0.266441 0.17771633 -0.087367825 0.120953344 -0.4211519 -0.13228601 0.11191877 -0.061143935 -0.36862996 0.09581194 0.35554296 -0.25160137 -0.028841805 0.20116651 -0.08021245 -0.18525425 -0.1393561 -0.40405878 0.18336754 -0.09885011 0.03184604 0.26154444 -0.052653674 -0.47585458 0.37541303 0.24039307 -0.015067399 0.26815826 0.093609504 0.06520384 -0.13332054 -0.3006266 0.16697556 -0.4487558 0.16840059 -0.31875658 0.05137992 0.1939369 0.090127714 -0.24801022 -0.100559846 -0.32757437 -0.11027137 -0.0034799408 -0.003222463 0.18602802 0.11070071 -0.273137 -0.037828784 -0.051575743 -0.07140454 -0.16805765 0.21675159 0.16027161 0.12557377 -0.019703537 0.04245248 -0.18674184 0.0631319 0.26890475 0.06549685 -0.26984787 -0.12114187 0.03118891 -0.112945296 0.0047615566 -0.36513305 0.16645502 0.270583 -0.018385662
173 0.23695685 -0.21892545 -0.003460956 0.19124648 -0.10322339 -0.1637342 -0.05845802 0.13206807 -0.379735 0.105232276 -0.12151501 -0.024498167 0.06940572 0.09963971 0.050140243 0.2080786 -0.050671745 0.018370287 -0.33712694 0.3788822 -0.27401534 0.29211155 -0.1258531 -0.3859818 0.06754759 -0.31897998 -0.10803523 0.013289063 -0.051424753 -0.07886636 0.051208705 0.11094491 -0.34040007 -0.05063805 0.1017321 -0.0086723585 0.011752208 0.036566015 -0.043614894 -0.07007771 -0.2933379 0.16401118 0.28826195 0.30556548 -0.04725552 -0.0053293505 -0.44923618 0.03741552 -0.16713987 0.101355135 0.20943809 0.096014336 -0.03410874 -0.090169474 -0.21278606 0.05111494 0.05101355 -0.24302746 -0.005856178 0.123534225 0.08653484 -0.03703337 0.27172256 -0.021228557 0.2854536 -0.23032545 -0.17286526 0.15007417 -0.49806312 -0.17584766 0.12276563 0.07434751 -0.16799648 -0.22348401 0.03847373 -0.39876044 0.084502846 -0.44319218 0.18937787 0.38424 -0.13792576 0.053767443 0.04497213 -0.0016109247 -0.00030003462 0.21683466 0.06732411 -0.19596551 0.014289261 0.074146636 0.08466268 0.105020486 0.23721059 -0.18669102 -0.09880033 0.41399118 0.056403164 -0.34970134 -0.06182119 -0.18176316 -0.18485042 0.16796778 0.29348963 -0.13295528 0.14215982 -0.08617194 -0.0032538034 -0.055792026 0.07664895 -0.023657875 0.09630743 -0.21586683 0.005154577 0.26013586 -0.24475022 -0.050704926 -0.11985731 -0.18297596 0.29658508 -0.23006037 -0.16403504 -0.014383063 -0.15883166 0.2649273 -0.025971942 -0.1236626 -0.004597627 0.011874431
507 0.31640828 0.1560367 -0.017174287 0.27305025 -0.08734699 0.07439651 -0.08220911 -0.02495899 0.0011983425 -0.24137804 0.079602584 -0.056531318 0.22843708 0.06632508 0.26588 0.31335172 0.06133751 -0.18802267 0.057172548 0.16280608 -0.013869158 0.3184719 0.046275683 0.05178633 0.1927267 0.18979548 -0.3655911 0.193847 0.10529288 -0.49134326 0.1860144 -0.06133709 -0.1361491 0.21921432 -0.03220727 0.18930577 0.12545757 0.12077645 0.33189443 0.25935525 -0.31546953 0.28292662 -0.09584868 -0.1325432 0.17687464 -0.107475206 -0.2592855 0.29678535 0.21233056 -0.05461472 0.10979105 0.2530852 0.13228518 -0.07050177 -0.15467875 -0.13139132 0.22796449 0.041140433 0.0335697 -0.13012594 -0.3103725 -0.077721454 -0.0062520946 0.03709342 0.44412172 -0.15154414 0.14527608 -0.124912366 0.054713283 -0.33615366 -0.07736608 -0.33789945 -0.19474985 -0.017506484 -0.051750835 -0.31924546 0.112405494 0.086200856 0.20445706 -0.0052377842 0.09540377 -0.24552713 -0.12869723 0.09096326 -0.07341895 0.23374906 -0.15589021 -0.04529254 -0.028650263 -0.08007514 0.3687785 -0.31299153 0.1313204 -0.14589965 0.19029307 0.34612098 -0.06682862 -0.06338154 -0.36834374 0.026366333 -0.17837012 -0.07800664 -0.14647757 0.241408 0.2354752 -0.16685116 -0.023065787 0.09574718 0.26288566 -0.17131853 0.08463646 0.051916674 0.009924024 0.32778245 0.051850736 -0.19176978 -0.52695024 0.24232149 0.07327165 -0.28804994 -0.09016412 -0.2562447 0.019266466 -0.19949326 -0.21434101 -0.13710527 0.21368822 0.020529345
818 0.075576134 -0.26984042 0.281962 0.16389912 0.21561974 0.06583829 -0.017761279 -0.029818768 -0.16726628 -0.022942906 -0.0757881 -0.13315368 0.017698964 -0.08490295 0.014777798 0.1972313 -0.0715411 0.14686441 -0.075976446 0.24259716 0.07036264 0.3389063 -0.21181923 -0.20138618 0.18093899 -0.103869654 0.20323372 -0.23149158 0.23169339 -0.15458603 -0.024173217 0.00055473985 -0.045620523 0.1897136 0.0060925614 -0.036090873 0.41639075 0.29126334 0.5096983 0.16044496 -0.04056048 0.09745883 0.07395759 0.066696905 -0.040826388 -0.03965141 -0.16626583 0.018828461 -0.3363827 0.05621924 0.27303588 -0.17199197 0.40996376 -0.004767667 0.04546428 0.4483586 0.17836553 0.0332766 -0.13279405 -0.2647894 0.00091907015 -0.023380969 0.094683595 0.03693493 0.20495057 -0.14574663 0.19225068 0.026024764 0.06721638 -0.1350135 -0.24431613 0.034008708 -0.31118703 0.11711864 -0.10728908 -0.4848392 0.030159445 -0.3142435 -0.16209722 0.13972647 -0.029415017 -0.14103743 -0.0048885387 0.2370937 0.11163886 0.23439136 0.030003652 0.087340064 0.27291003 0.23711614 0.1647039 -0.016278693 0.1262276 -0.3119804 0.12711892 0.23030308 -0.052505203 -0.088370554 -0.31951353 0.0044515925 0.02093323 0.0017780351 -0.03621275 -0.24000098 0.58943254 0.015411187 -0.14627749 -0.27958748 0.18711397 -0.1315254 0.18778001 -0.13275775 0.046655457 0.10838258 -0.24480155 0.09133984 -0.0232603 -0.41122615 -0.055541757 0.1244762 -0.29709762 -0.047267172 -0.16599277 0.23112844 -0.04470203 0.23298465 -0.23951875 0.16859534
4487 -0.068372875 -0.18040249 0.30276576 0.1400932 0.21460576 0.37686893 -0.02824592 0.308005 -0.20397656 0.3705102 -0.0057372786 -0.06370839 -0.038621463 -0.0026755119 -0.08101965 0.18543299 -0.030715907 0.24454233 -0.17872082 0.09781193 0.10129638 0.33572382 0.043584574 -0.21007589 0.15042064 -0.10512385 0.13647081 0.18802091 0.18233795 -0.08447499 -0.05514505 -0.07707963 -0.29421222 0.15039767 0.0630161 -0.0150069315 0.36246252 -0.024134522 0.3172567 0.55639863 -0.034282934 0.009370488 0.43824792 -0.03281812 -0.12945606 0.1194821 -0.11920192 0.06181368 0.13373725 0.07929593 0.31673357 0.027922155 0.02302373 0.11952694 -0.1442515 -0.08093504 0.47371334 -0.135648 0.37875873 -0.19564772 0.14727591 0.041046593 0.045206595 0.085899144 0.46148118 0.037288282 0.116836816 0.1574415 -0.029562281 -0.055097867 0.1636329 0.02616378 -0.3431157 -0.044548083 0.31157526 0.03486516 -0.048111655 -0.10224501 -0.15315294 0.33124185 0.013866741 -0.10152406 0.10688749 0.16182676 -0.025893584 0.1077937 -0.0045684706 -0.20678881 -0.16754304 0.13876373 0.07291712 -0.3712644 0.21145292 0.12679356 -0.059069272 0.19831836 -0.061552916 -0.082518294 -0.22697546 -0.19343963 0.059422396 -0.085232265 -0.11787993 -0.12764138 0.1441724 -0.15650332 0.27152818 -0.041029554 0.03896543 0.34208858 -0.063989 -0.5410837 0.22923286 0.24713264 -0.11735832 -0.13251384 0.06321272 -0.034632377 -0.110344626 -0.044961773 0.32661763 -0.14085197 -0.41625118 0.1821939 -0.14151114 -0.1347367 0.020511623 0.047353465
4562 -0.13729782 -0.20331 0.04970813 0.14785725 0.09434169 -0.024408922 -0.04828318 -0.4580354 -0.014403142 -0.066839255 -0.21344444 -0.03410463 -0.17931522 -0.23037298 -0.12015877 0.35588238 -0.13934769 -0.38187486 -0.22313845 0.17742676 -0.052327864 0.084345795 -0.04175503 -0.11580898 -0.031234277 0.03840337 -0.36188686 -0.062757075 -0.2545431 -0.46025237 0.2648268 -0.19661753 0.023273956 -0.06811864 0.062083166 0.4720969 0.11940306 -0.12800847 -0.37239456 0.062314924 -0.14803697 0.047312316 -0.031718846 0.2799766 -0.08192363 0.4557172 0.036226183 0.055634603 -0.012633522 -0.18134259 0.24725375 0.039535075 0.16849776 -0.17388771 0.20721383 0.023825683 0.22218713 -0.11366176 -0.2744399 -0.14018357 -0.004124051 -0.0749272 0.013207087 0.23830625 0.23192176 -0.0863123 -0.018954482 -0.1408581 -0.53249055 -0.1515692 -0.32291207 -0.018440224 -0.29808602 0.08237243 -0.11096048 -0.41355768 -0.048396282 -0.05765224 0.2892187 0.32434872 0.0077370973 0.109865054 0.08141678 0.29264158 0.19454707 0.03606305 0.52933973 -0.23095475 0.11773645 0.30112797 0.023621708 -0.27754188 0.4881634 0.042074617 -0.09124368 0.036451396 0.30044994 -0.3330697 -0.1868116 0.22722839 -0.08530211 -0.065908976 -0.17802405 -0.3287219 0.15133195 -0.08877018 -0.38309208 -0.024751041 -0.1598037 -0.08267607 -0.3610924 -0.33322316 -0.16955884 0.3120093 -0.17958462 -0.18530527 0.08458825 0.21203248 -0.02248309 -0.08249063 -0.04635125 -0.3571126 -0.24902488 0.22451246 -0.099880196 -0.36880544 -0.118337914 0.2293899
2750 -0.08078849 -0.12385138 -0.07767824 -0.07655532 0.28102008 -0.18114255 0.15870646 -0.058558702 0.36330298 0.24831045 -0.2389639 -0.010718428 0.4396066 -0.11098286 0.36546957 0.25241417 -0.62419426 0.0925536 -0.57566386 0.34081608 0.31864074 0.08510983 -0.1383793 -0.4847694 -0.029134946 0.17595118 -0.22189094 0.45109344 0.31808892 0.17701866 0.044327136 -0.2004171 0.2910554 0.14304581 -0.03132835 -0.022022743 -0.17107433 -0.920907 -0.0631686 0.3608146 -0.36076543 -0.22155 0.027147321 -0.18193322 0.13627578 -0.071436726 -0.07821301 -0.3592715 0.06018587 -0.1494141 0.10105133 -0.16099532 0.3329106 -0.09003614 -0.30609566 -0.06406242 0.09460701 -0.14677666 -0.14352457 -0.42345852 -0.06830124 -0.14147794 0.3074761 0.0788202 0.19781123 -0.06390932 0.15506731 -0.013083751 0.21084727 -0.5919183 -0.31125954 -0.28030634 -0.4987403 0.13592127 -0.12071486 -0.6411825 0.12494511 0.111077756 -0.43407 0.15331353 -0.5137444 0.119280666 0.53775036 0.31858972 -0.17119187 0.1752264 0.34201187 -0.2692188 0.16654278 0.0503407 0.13341047 -0.2224197 0.073178545 -0.42499325 0.39980975 0.0041255173 -0.199087 0.0757943 0.10796806 -0.37882245 -0.34893188 0.21224259 -0.2162351 -0.026688877 -0.38084975 0.19368166 -0.17885134 0.17228006 0.3450282 0.088522404 -0.034315113 0.38068593 0.24967667 0.1066833 -0.19174494 -0.13052781 -0.07510625 0.16373019 0.21725185 -0.24942452 -0.24529962 0.1261766 -0.29415408 0.12310795 -0.028310869 -0.28434646 -0.1855649 0.19676404
2148 0.14520136 -0.21839888 0.04386334 0.39598972 0.15528196 0.18652785 0.0010703799 0.20628552 -0.2685773 0.100587256 0.0691829 -0.2480218 0.16683875 0.07277171 0.027566915 0.022358933 -0.004618695 0.14427719 -0.11434538 0.2519164 0.051334996 0.4847837 0.02048738 -0.09774401 0.1271649 0.050721556 -0.021549279 -0.27680182 0.09386986 0.059980538 -0.027071234 0.06104654 -0.27957502 0.021609364 -0.23925346 0.03160817 0.11338634 -0.123130076 0.21066868 -0.06381998 0.12705325 -0.010722794 0.17395552 0.040986322 -0.10593895 0.44686013 -0.2885435 0.07771885 0.044904295 0.3401889 0.2101703 -0.3146093 0.24774013 -0.09438013 -0.27730116 0.32727244 0.28741768 -0.16562438 0.019780621 0.017456714 0.13821223 0.24959293 -0.06309224 0.10679924 0.38601658 -0.13649298 0.061312348 0.4394297 -0.17401834 -0.3389599 -0.28131014 -0.20130317 -0.37221044 -0.38510728 -0.02943 -0.21004231 0.13080125 -0.4961558 0.019893214 0.046242148 -0.1212696 0.13463487 0.09734165 0.15289316 -0.122143425 0.18679461 0.13816948 -0.0023970348 0.06285274 -0.0063590454 0.045436274 -0.27792642 0.029957103 -0.0963173 0.11046078 0.40337914 0.062323824 -0.27264768 -0.27163845 -0.12056028 0.048860695 0.2822839 0.31021732 -0.064894654 0.26382273 -0.23838851 0.0928843 -0.06032057 0.034082234 -0.18166497 0.025382455 -0.4920901 -0.06868594 -0.08154107 -0.19530478 0.034617808 -0.068295315 -0.19915369 -0.038768195 -0.22694959 -0.16647038 -0.15023908 0.10619728 -0.1415839 -0.37732026 0.022953864 -0.4110566 0.27512145
2638 0.23582256 -0.24819018 -0.008635887 -0.14205848 -0.014457914 0.10957724 0.043345273 0.19818203 -0.19290508 -0.09635715 0.04840758 -0.02484285 -0.02674754 -0.093595184 0.105507985 0.23818977 0.030111436 0.13235939 -0.14146349 0.012856191 -0.17946555 0.34568176 -0.23128434 -0.032790292 -0.1431135 0.0366045 0.038233425 0.034048155 -0.1422463 -0.33056417 -0.050093893 -0.1608039 0.06753722 0.04831238 0.30674884 0.29056057 0.17286043 -0.017576186 0.36858943 0.21102099 -0.05406873 0.08614314 0.25627437 -0.07082995 -0.15516208 -0.103215165 -0.1484732 0.42268336 0.15571405 0.061027914 0.1887097 0.08877849 0.18596458 -0.048026852 -0.1173454 -0.016437346 0.38060734 -0.19841096 -0.13001588 -0.08143459 -0.033367638 0.15420865 0.117024034 0.18635036 0.20594591 -0.049078014 0.08449881 0.102302656 -0.116466895 -0.3012409 0.10303217 -0.22416249 -0.14703064 -0.2153257 -0.18453749 -0.27274725 0.02706565 -0.21042581 -0.042743336 0.0376588 -0.29883045 -0.36098546 -0.025390254 -0.027829679 0.039558403 0.33187824 0.06344197 -0.052075148 -0.14807324 -0.0430887 0.36009884 -0.2212369 -0.100367665 -0.09021589 -0.1149193 0.35686043 0.08633079 -0.20121203 -0.06495343 -0.03187807 -0.06419403 -0.033250004 -0.012098676 0.18148601 0.013078663 -0.42356005 -0.013526705 0.09977616 0.02127431 -0.10650588 0.1438766 -0.19942108 0.13719994 0.5159057 -0.039437395 -0.33369586 -0.12590367 -0.05637998 0.14416511 -0.116521105 -0.4828793 -0.21271865 -0.099543415 -0.06308693 -0.29680634 0.0808879 0.025216013 -0.21356721
2830 0.07245013 0.0024166536 0.21554731 0.39174414 0.02794 0.1880702 0.16866688 -0.06565987 0.02160893 -0.1107532 0.12501505 0.14356542 0.14704907 0.122858755 0.28459114 0.3715252 -0.28853744 0.0077670254 -0.12340784 0.37113 -0.059818946 0.12965283 0.38487583 -0.043292504 -0.068974935 0.19545074 -0.23094302 0.051351424 -0.22263561 -0.18564352 0.18029465 0.13501583 0.18551765 0.14320895 -0.21925 0.35525465 0.4324575 0.19085978 0.21919589 -0.022422114 0.07786408 0.31966743 0.48496577 -0.023140104 0.0051443526 -0.32012495 -0.20038687 0.14946078 0.042925566 -0.18941376 0.123099655 -0.16336235 -0.10239798 0.2849509 -0.3949964 -0.16915734 0.4409876 0.014431753 -0.24565925 0.1474566 -0.35479873 0.22665474 0.13578577 0.12406187 0.018280353 -0.084267534 -0.08177247 0.40667495 0.038503826 -0.05255274 -0.30892926 0.20580402 -0.23108797 -0.4920176 0.2512142 -0.36351067 0.31940266 -0.35005558 0.29562512 0.29240006 0.20359974 -0.048693053 0.3856827 0.086905755 0.12729754 0.17062873 0.079633415 0.26059473 0.112484045 -0.004048068 0.008877095 -0.056525793 0.16609517 -0.44769618 0.22549692 -0.06744682 -0.06568568 -0.064857684 -0.34052807 0.03372899 0.20606093 0.096605495 0.12823842 -0.17141074 -0.020170273 0.0833263 -0.054485425 0.14044945 0.20277461 0.05091075 0.36021224 -0.13563292 -0.15689294 0.1690716 -0.017370889 -0.102630936 -0.21822055 0.059005298 -0.13169606 -0.06385467 -0.10136141 -0.07868973 -0.1730204 0.21125889 -0.4575272 0.097746484 -0.025160583 -0.13661282
617 0.23600194 0.117302984 0.38508877 0.22957613 0.35343525 0.27330777 -0.20676768 0.20026094 -0.106895484 -0.019761482 -0.1693492 -0.023569262 -0.08117831 -0.020782866 0.05531886 0.08744602 0.16864923 -0.11868351 0.11587078 0.15447418 -0.13186567 0.39493486 0.19085614 -0.023200443 -0.03254796 -0.009896817 0.06783914 -0.09020203 -0.03802556 -0.41162178 -0.06440681 -0.06322589 0.0900834 -0.06199174 -0.043211095 0.3238946 0.2854806 0.023014203 -0.059807338 0.07697947 -0.20638537 0.27359518 0.2483798 -0.018037677 -0.21561268 -0.07273088 0.099836744 0.33124375 -0.19415602 -0.025339335 -0.00021635724 0.025622264 0.28694355 -0.09824858 -0.25567594 -0.07028696 0.2176373 -0.36180043 -0.074762166 -0.0809546 0.13187486 0.28720787 -0.08759662 0.0079181725 0.4706522 -0.020460518 0.062215805 -0.15919812 -0.091097385 -0.43207547 0.15371811 0.030830134 -0.39271495 -0.0758327 -0.19451532 -0.20838998 0.03675188 -0.1950171 -0.14762662 0.26479363 0.091794215 -0.25724998 0.32827997 0.121410154 -0.0058043418 0.11178223 -0.03236487 -0.062388293 -0.08335463 -0.027460841 0.36949012 -0.17352074 -0.15634611 -0.14911775 -0.07898152 -0.019332182 0.073916 -0.14769319 -0.0757975 0.11574514 -0.12245013 0.55193657 -0.13178763 -0.24055165 0.14088918 -0.1730059 0.07949633 0.31224322 -0.06255975 0.113037795 0.4839807 0.04242116 0.2933289 0.055291932 -0.027912343 -0.43223062 0.043492686 -0.06299602 0.09300078 -0.114885174 -0.2831405 -0.02225598 -0.09843014 -0.09243743 -0.56705683 0.12876378 -0.20038289 0.21306713
2353 -0.035334323 0.03710878 0.24738078 -0.047340833 -0.036235154 -0.077042915 0.030006152 -0.2795204 0.0975063 0.27949536 -0.044566996 -0.24476385 0.01938304 0.09801645 -0.061412346 0.11174622 -0.027838038 0.34505728 -0.107353985 0.08405289 -0.1831815 0.021791859 -0.27503282 0.05416613 -0.34456044 0.24804708 0.28100988 -0.040642712 0.23473646 -0.1769648 0.20587836 0.20735237 -0.1511226 -0.038790572 -0.023727274 0.4396124 0.2594753 0.1195468 0.0869636 0.35274974 -0.19894427 -0.040518805 -0.30166388 0.029394962 -0.03172368 0.4912822 -0.53361696 0.02546064 -0.011297774 -0.15011376 0.27115908 -0.01252526 0.30299228 0.051850937 0.27632132 0.36522985 0.40539354 0.01074232 -0.18905209 -0.13153294 0.009072754 0.13367875 0.26894027 0.10798773 0.09955158 0.26268673 -0.049700562 -0.2567527 -0.09698369 -0.18116814 0.23115972 0.16375077 -0.1913237 -0.23537838 -0.20278679 -0.26793805 0.11760455 -0.28517088 -0.2185134 0.28358772 0.0015451047 -0.39920363 0.12461711 0.39799953 0.060595322 0.04920636 0.12257139 -0.23166412 0.064560786 0.17775245 -0.11872946 0.123101 0.4770642 0.06487704 0.06629929 0.42976564 -0.110193245 0.16887361 -0.23693843 0.1028309 -0.27753735 0.032600254 0.21508195 -0.035300393 -0.08205499 -0.1741985 0.0936392 0.24080242 -0.01448101 -0.025751572 -0.355006 -0.21681614 0.07591459 -0.16265714 -0.019316565 -0.5853202 -0.12821668 0.0052372883 0.10037369 -0.057673708 0.15403998 -0.31397498 0.15791136 0.12928967 -0.3177358 -0.37114626 0.05671222 -0.026458995
4462 0.54066235 0.0022274738 0.53322804 0.40115118 -0.020879759 -0.093947046 -0.066122964 0.49462903 -0.14376757 -0.008507247 0.057276975 0.22547124 -0.063291684 0.11558686 0.17780763 0.21072118 0.25959966 0.116387285 0.016826587 0.3021079 -0.03461466 0.35129672 0.13321747 -0.31518692 0.059463423 -0.06454955 0.17517152 -0.14487188 -0.28716227 -0.37809455 0.36309794 0.26745263 -0.030491564 0.2644238 0.17665422 0.24773525 0.53562754 -0.02146597 0.08050224 0.15602218 -0.13175407 0.20878288 0.35983658 -0.2217517 0.0053235274 -0.33787978 -0.25995383 0.31321552 0.026077231 -0.07360154 0.036604878 0.005438767 -0.28610182 -0.055053744 -0.21366097 -0.02940471 0.06043927 -0.17011327 0.03628018 0.13202032 0.32228136 0.03213527 0.16259478 -0.010210862 0.21806651 -0.09508772 -0.13331604 0.34876725 0.123837486 -0.17868222 0.0041290782 -0.24477434 -0.26945522 -0.13013293 -0.12865499 -0.26245186 -0.034296084 -0.017364874 0.109764814 0.12545477 -0.00093981606 -0.4657002 0.1818999 -0.04443216 -0.067825906 0.1750104 -0.023461075 0.008348602 0.14625628 0.20425141 0.55067617 -0.24109602 0.034321576 -0.45732415 0.16065568 0.019272713 -0.007950491 -0.35339588 -0.16251464 -0.1561401 -0.040055804 0.38330674 -0.34829742 0.0156199355 -0.021197181 -0.08182087 0.14772385 0.055854034 0.289658 -0.07582693 0.38922322 0.021602519 -0.012682161 0.3884369 -0.08101782 -0.48786443 -0.14028706 0.17298827 0.37646422 0.017967762 0.034139264 -0.14367355 -0.1812097 0.25457475 -0.31349134 0.30010667 0.08951686 -0.1631967
3259 0.14790764 -0.054287624 0.26734343 0.21138158 -0.21468915 0.06983588 0.19751993 0.11691948 -0.09923396 0.14573193 0.007891773 0.18089496 0.007396058 -0.039992742 0.12943332 0.54735094 0.12320698 0.29055002 -0.05218992 0.49527007 -0.36596945 0.15255375 0.19173437 -0.2169068 0.11738868 0.15002711 0.05329011 -0.19509858 0.023426734 -0.12267321 0.05504579 -0.18149273 0.007885541 0.34514335 -0.22179565 0.14034326 0.3474051 0.032640237 0.07908942 0.24184261 0.40009108 0.14700252 -0.029263001 0.084300146 -0.18319091 -0.26617697 -0.3567184 0.19116642 -0.045161378 0.22663629 0.08748972 0.25667554 0.10382166 -0.2236074 -0.16506273 0.019696554 0.41620898 -0.3641176 -0.22416496 -0.0077512832 -0.28323987 -0.037861455 -0.12529783 0.44564158 0.3184106 -0.3211086 -0.17006075 0.16194536 0.22932234 -0.11829311 -0.24729966 0.147805 -0.055556156 -0.23421067 0.05793651 -0.17181921 0.41880462 -0.1547312 0.039847277 -0.06908811 0.06268137 0.0113146845 -0.10777357 0.22296034 0.28066066 0.031817358 -0.005455305 0.09338824 0.06224261 0.22492296 0.30011806 0.02571944 0.12799379 -0.2609387 0.100668885 -0.0799735 -0.30954203 0.10102287 0.036027525 -0.15026212 -0.10713537 0.1386473 -0.30144453 0.15462908 0.19426656 0.005803998 0.18670557 0.056855038 0.045560073 0.06637162 0.221759 -0.32321733 -0.006130556 0.35657138 -0.13646989 -0.14886598 -0.17040691 0.16463563 0.2372417 -0.1798331 0.07687359 -0.18616717 0.05173803 0.060123637 -0.4454729 0.42660567 0.06609722 0.39980933
3069 0.29538152 -0.36684984 0.2767278 0.38660443 -0.021107977 0.13798256 0.2379156 0.052436143 -0.23355456 -0.28690442 -0.08902172 0.21160394 0.2073073 0.12366454 0.026940193 0.41370586 0.11058787 0.16879646 -0.21756524 -0.052508533 -0.13673565 0.33760545 -0.019192459 -0.044988506 0.08854769 -0.041083563 0.07819781 0.009168353 0.02406641 -0.35648698 0.1844337 -0.16418563 0.22812138 0.16788587 -0.10926625 0.30756608 0.35866678 -0.02663146 0.31326628 0.11017904 -0.085979894 0.2970931 0.008239489 -0.09327316 0.20117082 -0.27956712 -0.19228831 0.1710907 0.24457175 0.20840715 -0.011090451 -0.11553901 0.3497158 -0.004970205 0.025956938 -0.2521775 0.28280994 -0.2759163 -0.30237153 0.09372718 -0.028080951 -0.14229591 0.09583741 -0.0688914 0.32844275 0.050319623 0.036626466 0.007604765 0.09998676 -0.03907616 0.048436727 0.041570805 -0.11513961 -0.1398815 -0.12324036 -0.09655147 0.18045956 -0.022590877 -0.190737 0.42815852 0.06347677 -0.07426459 -0.07365486 0.14346689 -0.09929376 0.10955713 -0.025210004 -0.11528142 -0.0041719186 0.011466463 0.39462203 -0.20551029 -0.031108305 -0.04559531 0.14663048 0.24335076 -0.14106779 -0.060662005 -0.033619326 -0.090836585 0.3992274 -0.048396643 -0.23216426 -0.032977518 -0.14554465 -0.18616767 -0.1368746 0.2467389 0.3866676 0.05181575 0.1118273 -0.1746896 0.0124699315 0.3730366 -0.3698226 -0.14626051 -0.32342568 -0.043168556 0.3134282 -0.039110612 -0.13876411 -0.109011866 -0.21657288 0.15488473 -0.41087663 0.39551827 0.1364721 0.28144008
960 0.46629512 -0.09074627 -0.107554734 -0.03895563 0.06614349 0.012289798 0.21468814 0.04492816 -0.16200808 0.050798304 0.13281499 0.0052829795 0.13087076 -0.22977377 -0.37927243 0.5300063 -0.07871596 0.31919008 -0.24319509 0.34566006 0.00934949 0.297263 -0.35925546 -0.19004153 0.15077959 0.21762791 -0.38529456 -0.037780736 0.15147813 -0.08641189 0.137053 -0.073112816 0.33902237 -0.14753473 -0.024612172 -0.03675936 0.40122938 -0.100746766 0.3705041 -0.09962788 -0.2796917 -0.015885519 -0.08351362 -0.16012946 -0.28046885 -0.14992592 -0.462872 -0.08062868 -0.15288194 0.04861302 0.23932508 0.2755916 0.17744976 -0.12555 -0.5780538 0.046814267 0.29884657 -0.22495234 -0.110251315 0.1875512 -0.24122638 -0.022091374 -0.017474744 0.3434912 0.17707169 -0.0750951 -0.21331854 0.15242596 -0.21560372 0.24939683 0.045629874 0.022720035 -0.1511883 0.06394871 0.034590438 -0.12349847 -0.4232902 0.09469563 0.22193293 -0.05356752 0.05004551 -0.44959235 0.11295437 0.11149858 0.20556465 -0.062211346 -0.2850626 0.17131564 0.34619758 -0.12583332 -0.076938 -0.45212513 0.36993387 -0.29540426 0.12295336 0.07429831 0.1360587 -0.4103063 -0.2610216 -0.17566925 0.07538344 0.1289161 -0.060453437 -0.11688198 0.20795968 -0.14681272 -0.1650239 0.0875404 0.13438706 0.22390357 0.06273512 -0.0023327416 -0.054391347 -0.026693441 -0.052331645 -0.01886207 -0.26049662 0.03921719 -0.040047243 -0.14725065 -0.20113471 -0.07272108 -0.08819256 0.0073996675 -0.45141435 0.04838518 -0.175847 0.07056682
4573 -0.054564647 -0.05605656 0.26460466 0.17560221 0.31065777 0.23318955 -0.09510758 -0.14589465 -0.04648199 -0.053865947 0.06694893 -0.13285515 0.034545492 0.26458067 0.027811376 -0.0081506455 -0.033439144 0.3460012 -0.17516167 0.07422213 0.2208809 0.4370903 -0.07391772 -0.19042148 -0.13642836 -0.24316412 -0.1281826 -0.0072795586 -0.056045268 -0.042255774 -0.011865135 0.19171597 -0.0017445387 0.14463668 -0.01790872 0.14239724 0.40028808 0.31557697 0.11686498 0.162628 -0.09753814 0.19611406 0.14658158 0.18567008 -0.034136165 -0.16044553 -0.13468805 0.03488263 -0.18947273 0.09180184 0.3341041 -0.1422444 -0.05292479 -0.20601639 -0.016193075 -0.08370439 0.3102034 -0.053015262 -0.03258795 0.12643994 0.083356224 0.1311779 -0.032362718 0.10694529 0.29632267 -0.119649276 0.07313545 0.06636096 -0.024582325 -0.12252956 -0.07939997 0.2019846 -0.34500027 -0.2696898 0.074087 -0.2636589 0.04753781 -0.24775866 -0.22837362 0.36084756 -0.045222357 0.28353703 0.10871921 0.22763653 -0.006666059 0.32292292 0.13557586 -0.1937308 0.15710837 0.076110035 0.08162332 -0.11430714 -0.07727008 0.06347766 -0.029542094 0.34255967 0.08581481 -0.13332503 -0.38027284 -0.048132733 -0.2558361 0.20836878 0.05717448 0.19995484 0.15636063 -0.31282967 0.06568637 -0.096861765 -0.06802908 0.19199401 0.18712819 -0.40656367 0.050225522 -0.019004581 -0.16308227 -0.014354009 -0.0123600345 -0.35385454 0.23386131 -0.10552291 -0.1142624 -0.24756044 -0.20650516 0.0068361256 -0.2017024 -0.021865426 -0.26723784 0.21511923
2464 0.3206009 0.11847174 -0.11440935 0.48018044 0.23309837 -0.13218144 -0.005656434 0.3648171 0.033056565 0.18406613 -0.15908065 -0.22361997 -0.07419153 0.13790098 0.31935674 0.45968282 0.30222255 0.32631385 -0.04907303 -0.0714832 -0.14335999 0.46163702 -0.030886108 -0.25045452 -0.14053121 0.12571742 -0.06616553 0.32299018 0.0569279 -0.47292733 0.2035327 -0.027682563 -0.14946185 0.07189936 0.00027906842 0.28652528 0.3152302 0.22801441 0.059501085 0.16017479 -0.24010104 0.06606569 0.10827771 0.22474162 0.2508591 -0.0017374007 -0.18985747 0.038362112 0.4381283 0.018466996 0.23084038 0.1407188 0.16349728 -0.04771427 -0.21030952 -0.12151518 0.16345462 -0.16531192 -0.2111857 -0.0042575533 -0.0015862434 -0.0912125 0.13548076 0.12501526 0.2697103 0.047752656 -0.031773303 0.06590753 -0.28088704 -0.14353241 -0.1469459 -0.108982265 -0.25611463 0.08818536 0.058440953 -0.19675396 -0.35916272 -0.241815 -0.04808534 0.11274087 0.21414831 -0.2856667 0.17545627 -0.073783726 0.004863573 0.29043332 0.10617937 -0.01584938 -0.073352575 0.3171332 0.28495327 -0.18550117 -0.13294205 -0.32102665 0.017587407 0.40047672 -0.088899255 -0.21051271 -0.15426432 -0.037835095 0.014130964 -0.052329425 -0.007527617 0.046598922 0.09456583 -0.33471373 0.08583823 0.29621285 0.070663504 -0.035174835 0.54396254 -0.08525331 0.06570204 0.29423013 -0.032505155 -0.2293732 -0.36068383 0.21190442 0.11601397 -0.06996931 -0.13337861 -0.16641067 0.037894823 -0.24899808 0.052993864 -0.21603636 0.26697674 0.059983063
2289 0.50159925 -0.18246245 0.3626225 0.121636175 0.06421399 0.26520202 -0.26114076 0.09970771 0.015482906 0.21615206 -0.1573777 -0.17379981 -0.12367915 -0.09212007 0.28890643 0.18265559 -0.1440315 0.27875525 0.24661252 -0.2834923 -0.37859085 0.27383032 -0.008481615 -0.2501821 0.12419355 -0.05471217 -0.2531591 0.30560166 -0.10100351 -0.20515038 0.25537145 -0.032725908 0.35427 0.47115922 -0.06900777 0.065453336 0.56709534 0.20262817 0.44718987 0.31411892 -0.024231398 0.10286647 0.3740831 -0.30936694 -0.28450817 0.15555236 -0.190843 0.14214884 0.14166115 0.15502846 -0.03317995 0.18644524 0.13920471 -0.14694348 -0.18948127 0.031219298 0.20129326 -0.1961335 -0.092171706 -0.24789818 -0.27124462 0.025704972 -0.19037658 0.2620736 0.39789224 0.08601944 0.24534835 -0.14775704 -0.07770472 -0.25537574 0.17015198 0.17050648 -0.10183944 -0.13358282 0.01526261 -0.26254463 0.02270048 -0.12927705 0.11808418 0.19167365 -0.15909564 -0.03724099 0.32071054 0.3903979 0.14161752 0.0964445 0.10049779 0.037117533 -0.12995462 -0.045755327 0.2610921 -0.29874665 -0.09603117 0.10128486 -0.11578402 -0.16445227 -0.045142483 -0.16848317 -0.053129967 -0.14011697 0.09731378 0.25485876 -0.10951155 -0.007991331 -0.020711264 -0.28443766 0.14988765 0.37834713 -0.11872031 0.11526257 0.20127682 0.0831662 0.045125034 0.36917073 0.069320284 -0.3051975 -0.13087901 0.20067012 0.42496794 -0.18949671 -0.043311875 0.1440137 -0.10063443 -0.0011165078 -0.29413342 0.38532853 0.047531374 0.34389716
1838 -0.11486159 -0.39381465 0.120918304 0.3165314 0.20117222 -0.022522613 -0.28524205 -0.06434497 -0.1280184 -0.0039655343 -0.1411698 0.0064860284 -0.22826901 -0.4088721 0.14558484 0.10935723 0.053036597 -0.1614583 -0.1453838 0.25584105 -0.017723454 0.40050918 0.14512831 -0.07672076 0.015095558 0.21977034 -0.26304334 -0.3496574 0.0144951185 -0.42164007 0.07281383 -0.0111900605 -0.13044772 -0.066721275 -0.2604405 0.27326012 0.23080063 0.011844235 0.29523385 0.20264742 -0.086766414 0.28398427 0.5660981 0.08533208 0.07736452 -0.01335957 -0.25850007 0.116243824 0.03999978 -0.19504334 -0.17408447 0.056073006 0.091326155 -0.20798014 -0.16330785 0.019797109 0.16437055 0.0017089784 -0.029718464 0.15200792 -0.2078194 0.003563502 -0.18495391 0.07978823 0.510846 -0.20344703 0.008320257 0.08701121 0.3409369 0.22434914 -0.12594165 0.20140967 0.0047146874 0.15903038 0.050909054 -0.52815956 0.060943227 -0.052983835 0.033526152 0.09564089 -0.09931516 -0.23069401 0.3089292 0.38929674 0.013367197 0.1523275 -0.021463463 0.08639431 0.25886682 -0.2902403 0.3045539 0.031787988 -0.077542886 -0.07703612 0.08802127 0.28253192 0.16656324 0.1599813 -0.2081969 -0.26527038 0.27642864 -0.021681013 -0.08017397 0.07750133 0.06856478 -0.18133214 -0.29241842 -0.12744626 -0.14422558 0.0010193031 0.5026033 -0.08528441 0.15118077 0.18374854 0.2555257 -0.17226006 0.0014803978 -0.019845229 0.4392373 0.023959227 -0.043393563 0.033188 0.15672503 -0.19511056 -0.5438857 0.24004939 0.3663031 -0.07583089
4438 0.08156489 -0.2916853 0.30695328 0.35482377 0.27658665 0.22995791 -0.11120392 -0.22174609 -0.17223312 -0.12906794 -0.19652623 -0.14306162 0.071237236 0.37515584 -0.050605804 0.25787437 0.094104126 0.32180753 -0.31424436 0.14757617 -0.16504523 0.17895071 -0.033673376 -0.2949704 -0.03982314 -0.24713078 -0.2260989 -0.1615791 0.13493308 0.11664268 0.11100546 0.30572253 -0.20803328 -0.08583727 -0.0077407737 0.070985466 0.035501186 0.20749281 -0.04663522 0.051499866 0.07113165 0.1363742 0.21752122 0.09885574 -0.067451335 -0.03433197 -0.17910013 -0.07582363 -0.15999316 -0.011629097 0.71276665 -0.23536974 0.11467406 0.11806711 0.10083541 0.17079534 0.57478553 -0.07732677 -0.5060328 -0.06095035 -0.073137425 0.05695292 0.071311794 0.0756059 0.20581387 0.08487677 0.12867391 0.14300972 -0.36176968 -0.14350533 -0.34605396 -0.11663306 -0.00995429 -0.20104493 -0.07808834 -0.17588557 -0.219615 -0.27403808 -0.26647723 0.4940904 0.039745383 0.20174447 -0.022129454 0.07931537 0.10631827 0.56565344 0.051187836 -0.04582108 0.107517116 0.043065123 -0.025541795 0.1473098 0.19926493 0.073270485 0.041485503 0.18923105 -0.054036994 0.031515293 -0.3429295 -0.24528049 -0.38156518 0.211087 -0.114310525 0.06864947 0.27425876 -0.08956236 -0.07606137 -0.078019924 -0.08031319 -0.028110817 0.46332806 -0.39992303 -0.19104296 0.23863347 -0.13871813 -0.0272885 -0.10732371 -0.049322326 0.026663268 0.07211586 -0.22091365 -0.17525055 -0.29215878 -0.001928524 -0.39855668 0.12526976 -0.043152932 0.21735837
2885 0.1613167 -0.0356534 0.20164636 0.34768572 0.26903674 -0.1274193 0.19954298 0.0936614 0.13610815 0.050727855 -0.06532471 -0.19838063 -0.15645282 0.16727918 0.115972646 0.43123102 0.13752848 0.17255302 -0.041275967 0.01561739 -0.27671888 0.43713892 0.22646092 -0.06318578 -0.055963013 -0.052957304 0.058499843 0.12603076 0.18521108 -0.60419184 -0.28001612 -0.038009364 0.029227396 0.06987485 -0.41423944 0.20464624 0.43294147 -0.19566706 0.35035482 0.31310576 -0.20755963 0.35645744 0.1309996 -0.25042248 0.23592006 -0.016233882 -0.2587918 0.20690003 0.017715255 -0.07933578 0.054826338 0.12098631 0.39790702 -0.010935453 -0.09132657 -0.05310568 0.29364198 -0.28034377 -0.2145385 0.21548413 -0.060556244 0.20267442 -0.13198894 -0.067775965 0.18494084 -0.4274219 -0.061864786 0.07294277 -0.026347315 -0.20660011 0.0937501 -0.15453313 -0.14833775 -0.12473197 0.06324445 -0.09367604 0.0049236943 0.019788036 0.17644179 0.49127144 0.09228819 -0.65167505 0.22801171 0.14736426 0.10648842 0.00031900537 -0.11065391 -0.17521493 0.13825399 0.14036289 0.30439252 -0.35293707 -0.10430694 -0.3411392 -0.079625115 0.302584 0.14782706 0.072037965 -0.086297944 -0.15316552 0.14081767 0.0653416 0.23677428 0.031091113 -0.062283926 0.081392616 0.18994705 0.06756977 0.0027119666 0.15616556 -0.005361383 0.15160523 0.13382399 0.0146731585 0.14850129 -0.31090793 0.17920424 0.05889397 0.055189587 -0.26730165 -0.3233761 -0.16551562 0.07810979 -0.21377547 -0.36599514 0.1453183 -0.08112836 0.13090174
381 0.3368221 -0.15287034 -0.026840266 0.1894918 0.18563057 0.03820758 0.19905479 -0.25433862 -0.065306455 -0.015976857 0.08359604 0.20604953 0.21153228 -0.18232961 0.055070065 0.18010493 0.01725066 0.15312915 0.010578508 0.031148981 -0.08775874 0.04395378 0.12921356 -0.049375877 -0.12580465 -0.25874445 -0.45618853 -0.051943745 0.37634775 -0.106987566 0.043604735 -0.13016836 0.16696714 0.09238855 0.002288882 0.11379319 0.16432963 0.13385464 0.23472145 0.309278 -0.04537937 0.36178023 0.21056107 0.16059159 -0.32713446 -0.058619738 -0.49213365 0.29965833 0.22547658 -0.11116135 0.39127666 -0.016864026 -0.2099368 -0.007005301 -0.32424667 -0.2458315 -0.0744435 0.25696743 -0.04653943 -0.2565488 -0.3670801 0.19086416 -0.20021823 0.081985705 0.18796626 0.03529986 0.055794787 -0.059260137 -0.08385474 -0.27652657 -0.048222344 0.12266324 -0.22058289 -0.2840001 -0.25525886 -0.18416615 0.37130702 -0.20599721 0.23795995 0.112947315 0.07520701 -0.3427236 0.10198926 0.21264403 0.16601597 0.31651258 0.30825585 -0.22680107 -0.030865345 0.18113492 -0.020300122 -0.2601322 0.28200516 -0.034310367 0.21083216 0.3537304 0.20632571 -0.27466002 0.033013668 -0.15201165 -0.17327313 0.041697197 -0.29354823 0.22304472 0.17182457 -0.13017888 0.3294993 0.16968206 -0.10732267 0.02539117 0.20330893 0.16948225 -0.026466645 0.39951944 -0.051945686 -0.27876547 -0.2580838 0.16350576 0.315846 -0.03316235 -0.14580077 -0.2850458 -0.13173443 -0.17672479 -0.22129713 0.17230465 -0.11353539 -0.035053268
2356 0.25628838 -0.21102625 0.04083474 0.11271146 0.16531926 -0.00244781 -0.09669437 0.08287095 0.030458568 0.19503632 0.045531638 0.14597888 -0.17818567 -0.021289047 0.02027965 0.60531074 0.3071396 0.7003805 -0.0012185343 0.03363099 -0.307 0.47308227 0.250342 -0.2325834 0.040241085 -0.25178772 0.0026787755 0.077399164 0.043161754 -0.22055624 0.08130816 -0.08889712 -0.1144921 0.013686062 0.104007035 -0.06995341 0.5968342 -0.1638722 0.07196421 0.5461599 -0.2449656 0.11728941 0.22899164 -0.10494439 -0.10533281 -0.3421741 -0.2912647 -0.080337904 0.11487015 0.047318015 0.14875272 -0.16145965 0.12673002 -0.36549187 -0.14254482 -0.0028622642 0.051998276 -0.10465511 0.016080596 0.032918446 0.08493639 0.037490442 -0.01188241 0.048490405 0.57340616 -0.17032722 -0.011206086 -0.14730282 -0.14814998 -0.07942379 -0.02215459 -0.0653814 -0.14312385 -0.13779762 -0.30154297 -0.19103445 -0.119713604 -0.16496287 0.32915902 0.3909471 -0.04380843 -0.2987435 0.16235752 -0.06685939 -0.107289806 0.1703853 0.34975842 -0.2965396 -0.13058195 -0.12246024 0.10524409 -0.36031297 0.07016966 -0.09729527 0.08156053 0.13775077 -0.13480379 -0.23916967 0.06011984 -0.18214062 0.22321834 0.20773354 -0.0020977175 0.22421615 -0.10911534 -0.058741365 -0.08852002 0.019552073 -0.01660209 0.10585504 0.30369878 -0.23735142 0.13058758 0.3089279 -0.22709255 -0.17500345 0.06497746 0.29674804 0.10825159 -0.17451419 -0.0054316204 -0.24045123 0.02430675 -0.021228256 0.08936007 0.17373139 0.2724288 0.07998432
