833 128
3238 0.120266736 0.10282806 0.108822495 0.0813817 0.19616774 -0.13358033 0.312082 -0.018201012 0.1656075 -0.32245913 0.3117708 -0.1246404 -0.057479434 -0.1714241 0.07416657 -0.21120004 0.10895252 -0.14306682 -0.174318 -0.31398803 0.14598309 0.15523063 -0.053500537 -0.06855439 -0.18305512 0.18697393 -0.3610367 -0.20396559 -0.054856893 0.11487458 -0.06492579 0.060507014 0.2678838 0.28273803 -0.051147122 0.24538232 0.41458988 0.04222637 0.02318913 0.14137085 -0.2715641 0.06529135 0.18993407 -0.079964705 0.03036388 0.22223248 0.07810015 0.013249801 -0.32236445 0.10551686 0.04255832 0.19378473 0.07326988 -0.09602426 0.15876363 -0.073903084 0.4045642 -0.23499739 -0.08790978 -0.03780307 -0.053099915 -0.03251588 0.19600722 -0.25827533 0.03380424 0.25617644 0.1287229 0.06643077 -0.057749894 -0.08928025 0.06228605 0.1494269 -0.39378047 -0.35616142 -0.00099362 0.051972117 0.23142277 0.015701951 -0.09730124 -0.17803061 -0.1614597 0.059732273 0.017997788 0.13462983 0.14417745 0.07054912 0.30175394 0.096714504 0.003545333 0.11741288 -0.09956541 -0.037994888 0.21103331 0.010420442 0.17680314 -0.22732829 -0.026069459 0.035998136 0.023278782 0.19890402 -0.14563033 -0.03474566 -0.08805382 0.2436924 0.21982524 -0.1296056 0.011598529 0.13956508 0.25687417 -0.30746055 0.12527418 -0.24554008 -0.18109673 -0.29887685 -0.032190017 0.07945715 0.043487728 -0.022295047 -0.2301565 -0.05068647 -0.19193816 0.0021955972 0.1434673 -0.06083884 -0.073777474 -0.026498409 0.017678583 -0.11140812
384 0.14689602 0.04212642 0.043552555 0.1363764 -0.12569954 0.077330284 0.013146001 -0.10673477 0.24079724 -0.15253715 0.09808659 0.18406603 0.14041126 -0.17317541 0.036649294 0.04313689 -0.078791566 0.0056705503 0.066922255 -0.34596258 0.067879364 -0.012559843 0.16023244 -0.2259537 -0.21313325 0.04609872 -0.03230664 0.18349928 -0.24117793 0.047028802 0.039057005 0.033131786 -0.17384961 -0.008612473 -0.112990454 0.48859355 0.27218735 0.15169972 -0.041149154 -0.23030412 0.031209012 0.3122023 0.007241452 -0.18327527 -0.02493673 0.5859762 -0.034582905 -0.25320718 -0.14247735 -0.03841562 0.027550016 0.04240664 0.005708774 0.004766551 0.10878782 0.054104265 -0.021659086 -0.43751132 -0.15693457 -0.09867843 0.0606726 -0.022260299 0.02571514 -0.23526601 0.052792303 0.027504656 0.0018743199 -0.18453704 -0.07790102 -0.08114752 -0.1773228 -0.032668177 -0.3843455 -0.09600102 -0.10152069 0.061370023 0.038548715 0.27427053 -0.014870623 0.16115703 -0.14281003 0.035016302 -0.029877398 0.31848744 0.13952999 -0.085019656 0.3632287 0.08944992 -0.048464954 0.13729309 -0.38409865 -0.13594425 0.15682061 0.17169097 0.20846498 -0.11817821 -0.017746298 -0.24139644 -0.29240417 0.21360418 0.06935245 -0.059180003 -0.09850331 0.008450337 -0.30591652 -0.13813162 -0.07663279 -0.14181721 -0.064125225 -0.17950274 0.37526485 -0.066097684 0.07687937 -0.11705021 0.083921805 0.20675868 -0.01773411 -0.17568527 -0.30138755 -0.34886423 -0.19195028 -0.082654215 -0.018054172 -0.103691235 0.18054774 -0.100879155 -0.11047203 -0.23612158
2807 0.27638364 -0.027471498 -0.11272153 0.16515635 -0.08185469 -0.0032169304 -0.015389176 0.08751282 -0.055974346 0.3850744 0.12053728 0.003544705 -0.04859922 -0.38485894 -0.009820403 0.3036035 0.09269331 -0.034427382 0.0050957734 0.14040694 0.12748529 0.21631038 -0.3070994 -0.12663676 -0.16164634 0.13875856 -0.3486777 -0.16232829 -0.19700561 -0.15940978 -0.22695673 0.123424925 0.16911495 0.034148704 -0.20654245 0.28703478 0.4090432 0.116648935 -0.15244459 0.23387815 -0.20101067 0.15123828 0.04056937 -0.11481576 -0.34911662 0.24296843 -0.16315405 0.10690802 -0.25369543 0.0098688435 0.02548021 0.31744084 0.22798724 -0.17410906 0.054176264 0.09720078 0.122951806 -0.0874969 -0.046450496 -0.21280275 0.09030588 -0.1172175 0.041414358 -0.0016711712 -0.061199278 0.076279506 0.26664332 0.068267085 -0.3621606 0.09757727 -0.07594299 0.086131446 -0.50426733 -0.09598641 0.042603575 -0.16783433 -0.14571665 0.12741137 0.0703421 0.28859392 0.25852597 -0.15762085 -0.3168908 0.17445439 -0.17043774 0.40565005 0.00043967913 -0.22383204 0.106036715 0.044346776 -0.30219635 -0.11365824 0.05926732 0.1016337 0.13723944 0.20414834 -0.111703515 -0.18876615 -0.26876378 0.101108685 -0.14095967 -0.032867324 0.09045771 0.07680834 -0.080170825 0.018647812 -0.051520217 0.12370479 0.18225193 -0.08430017 0.10300126 -0.046131343 0.061596856 -0.5241972 -0.017388294 0.062169135 0.04802632 -0.08836576 -0.053789873 -0.276666 0.028219605 -0.28834748 -0.21101733 0.45039693 -0.40823984 0.007101028 0.03164309 -0.12921114
3565 0.06474548 -0.09479748 0.19420351 0.15426244 -0.16610062 -0.21324012 0.05201426 -0.048513427 0.22095022 -0.14694776 0.21150938 -0.09589855 0.13616075 -0.1089711 -0.108113594 -0.07458582 -0.091234215 -0.22908354 -0.013074295 -0.39582276 0.338675 0.29137647 0.017312163 -0.13941014 -0.3956099 0.2546861 -0.056203008 -0.06236339 -0.24356614 0.19091754 -0.0043983557 -0.059215784 0.13265258 0.15357865 -0.07123221 0.18198118 0.29313678 0.000114448085 -0.01620817 -0.029868424 -0.022667913 0.18328851 0.28386635 -0.16713235 0.029677216 0.053329404 -0.03258269 -0.16183078 -0.16645864 -0.08340133 0.20807794 0.17173387 0.18197557 -0.049779985 0.028055532 0.09316214 -0.013824143 -0.29239544 -0.035722237 0.16086322 -0.022552526 0.102264956 -0.037344296 -0.07279412 -0.13427678 -0.042185664 0.016037194 -0.099239625 0.054871913 -0.20900114 0.01815466 0.012479267 -0.4123127 -0.12786338 0.016344743 -0.080512464 -0.01761719 0.22889517 -0.008852584 -0.03263332 0.0496837 0.16508879 -0.031709667 0.13584347 0.27718058 0.29966626 0.19705635 0.13117123 -0.24504817 0.33237875 -0.1852376 -0.05723792 0.20698225 0.20599687 0.30998588 0.032728292 0.101399146 -0.18555133 -0.29002804 0.23941198 -0.076221466 -0.29592007 -0.119721785 -0.08649895 -0.18688251 0.0025240842 -0.10418746 -0.18346374 0.008623312 -0.14416789 0.25555393 -0.123708986 -0.047468502 -0.16913551 -0.0058584833 -0.09644012 0.05275386 -0.104406945 -0.26889047 -0.3509735 -0.19792955 -0.23443475 -0.09020072 -0.038991738 0.073372595 -0.13567594 0.014953022 -0.28041506
1658 -0.07829471 -0.101494566 -0.06506633 -0.25137588 -0.13142748 0.073698 -0.07267663 0.111743785 0.08689351 0.03701746 0.34135413 -0.14753579 -0.24257998 -0.40692613 0.23016822 -0.032125484 0.08640685 -0.086986996 -0.08373432 -0.017795537 -0.26191023 -0.10838315 -0.18778451 -0.25410146 -0.28350544 0.045187186 -0.31499088 -0.28696242 -0.079982944 -0.016122617 -0.011730759 0.00743811 0.21842185 0.14695638 -0.15781432 0.6317163 0.37385896 0.31857234 -0.03137343 -0.06275274 0.2959218 0.1341047 -0.16966513 -0.057630852 0.032174777 0.38747436 -0.062101383 -0.21945874 -0.24068029 0.08459534 0.22153707 0.017144218 0.10072432 -0.17868389 -0.046131603 0.054211125 0.027519073 -0.2470953 0.06345636 -0.061265785 0.39637324 -0.075241216 0.15993766 0.04051002 -0.29269195 -0.1099375 0.010619073 -0.04392506 -0.14656824 -0.10720286 0.12785147 -0.41998032 -0.24978961 -0.3368408 0.024268072 0.25932252 -0.17948529 0.014003015 0.2054944 0.2891095 0.19075136 0.2669035 -0.21571884 0.2518165 -0.07057222 0.11919126 0.04472343 -0.12999678 0.08170988 0.06877294 -0.48505577 -0.18544252 0.112672895 0.091616005 0.022836722 0.13434273 -0.09885084 -0.039227474 -0.21479855 0.19739418 -0.019860227 0.027499866 -0.23684688 -0.03671874 0.24496529 0.16042101 0.11388439 -0.011397736 0.2981255 -0.5047006 0.20201552 0.02161606 0.02754308 -0.23197816 0.0033109428 -0.2535995 -0.27949628 0.04233303 0.08658172 0.25413987 -0.062276583 -0.10021739 -0.09591141 0.12422247 -0.107754216 -0.10402702 0.08468877 -0.12352047
3457 0.07263466 0.12289608 0.13215607 0.07551044 0.22633524 -0.14566575 -0.27733672 -0.031586234 0.10649862 0.15745917 0.20165281 -0.06804726 -0.014445014 -0.13434543 -0.0018005208 0.14485762 0.011730734 -0.13916518 -0.2369357 -0.17384379 -0.20280921 -0.0842446 0.09759954 -0.2605225 -0.22959296 0.27967012 -0.2814344 -0.06731655 0.020211538 -0.16344912 -0.14868698 0.34402668 0.036269404 0.19854446 -0.035020825 0.1981578 0.59280366 0.17734128 -0.089913644 -0.04617734 -0.19797434 0.07069076 -0.23119025 0.0850129 -0.07656849 0.21529533 0.022816896 -0.30865744 -0.3357382 -0.13199554 -0.015828429 0.16305701 0.13771245 0.064926974 -0.015684878 0.0017541748 0.120556645 -0.023794446 -0.16859017 0.08232701 0.025441201 0.09030936 0.38863724 -0.3049672 -0.27153063 0.16470931 0.21487756 -0.03624909 -0.15452464 0.012769679 0.053073112 -0.014351155 -0.3457586 -0.06679874 0.11721076 0.02000042 -0.10012468 0.037948407 -0.041203562 0.0802178 0.16255336 0.2354447 0.11218185 0.07085066 0.053561814 0.14951372 0.3913951 -0.07418324 -0.04725494 0.19438013 -0.4062073 -0.34699756 -0.051613484 0.018958991 0.115396865 0.33162016 -0.10352924 0.24837698 -0.4480936 0.12760709 -0.057696648 -0.27903926 0.156034 0.017191445 0.017964356 0.01881603 0.055897065 0.07863953 0.22721542 -0.15756525 0.0032925121 0.1251114 0.28642917 -0.2814311 -0.12997885 -0.15050672 -0.19249362 0.12745751 -0.036081452 -0.2405393 0.32357788 -0.511167 0.032950427 0.10288623 0.037493814 0.23228994 0.02843122 0.15140088
1232 -0.05444947 -0.040962394 0.0604902 0.54824585 0.13992417 -0.056022964 0.08277037 -0.03362851 0.3176747 -0.45426878 0.429985 0.06558309 0.012052819 -0.20028201 0.17752743 0.08521748 0.14257267 -0.14118753 -0.11585722 -0.18311058 0.25444588 0.5012656 0.13919094 -0.22076787 0.009386968 0.00448259 -0.32357946 -0.2624949 0.041294016 0.20156223 -0.12773243 -0.11930199 -0.009074478 0.04310333 0.018066637 0.114685744 0.20495997 0.26578754 0.30409777 -0.04759706 -0.032782517 0.11489802 0.03998617 -0.015590823 -0.024600364 0.17556143 -0.058717705 -0.3827647 -0.1718988 -0.16535491 -0.09588518 0.078478456 0.041139163 -0.062056698 0.17363846 -0.095662594 0.12738119 0.06975281 -0.0731708 0.2240326 0.30407298 -0.059469897 0.35465613 -0.13631557 0.15502428 -0.0025745505 0.08224421 -0.08824637 -0.19752192 0.20982474 0.08840904 -0.08752804 -0.37692645 -0.27554503 0.071995206 -0.017931027 0.0020862625 0.1165664 0.23813944 -0.07588337 -0.09742427 0.19912572 0.14049591 0.40026706 0.026785059 0.21187824 0.2961407 0.13068676 -0.02999501 -0.013792617 -0.26429155 -0.11987152 0.12954997 0.04284322 0.41748637 0.17994386 -0.15423888 0.050771426 -0.18407787 0.32993907 -0.18866211 -0.18638003 -0.25711533 0.17078055 0.03499449 0.017659998 -0.09342423 -0.07069968 0.06328616 -0.14065109 0.01762807 -0.2047626 -0.08915704 -0.18131855 -0.10297044 0.09061147 -0.11625873 -0.27085847 -0.12715286 -0.45522875 -0.15713626 -0.2809835 0.07499161 0.1664022 0.3511001 -0.068693094 -0.022952778 -0.12862448
2780 0.20133065 0.2221413 -0.07207453 -0.034952708 0.16077791 -0.062435765 -0.2932663 0.41550878 0.2091117 -0.23065633 0.01559957 0.012855997 -0.18114282 -0.31942558 0.15010902 -0.028318092 0.10023408 -0.0753667 -0.30165184 0.11861368 0.041629463 -0.22371662 -0.017536487 -0.44147858 -0.1586359 0.19740477 -0.4388102 -0.037559893 0.14816293 -0.1752482 -0.12813273 0.03687796 0.34549883 0.07809598 0.22461316 0.46056458 0.39869407 0.21755484 -0.12146731 0.25050828 -0.09282354 0.06779159 -0.09545629 -0.38089964 -0.019657187 0.31142345 -0.20759615 -0.20477027 -0.2063801 -0.03742427 0.18163662 0.35716438 0.31608266 -0.07201882 0.092231095 0.1823253 0.16342853 0.057950135 0.13584621 -0.28800768 -0.0015887448 -0.06634961 0.44022685 -0.09177427 0.10298296 0.12452244 0.46207586 -0.18550333 -0.1273741 0.022796992 -0.1844661 -0.23560381 -0.3331592 0.11107851 -0.29221797 -0.14271511 0.10741647 -0.10781533 0.010517675 -0.15845689 0.080315314 0.31095526 0.07869654 0.37192604 0.072457224 -0.053520914 0.35356548 0.02851344 -0.08939048 -0.021309892 -0.19011074 -0.2264236 0.13927957 0.12366188 -0.003365628 0.25867918 0.07358753 -0.16839786 0.038887434 0.19571349 -0.16519691 -0.14142622 0.101081684 0.16766089 0.15714155 -0.21246201 0.0048498544 -0.0728908 -0.0024573896 -0.11115404 0.047317892 -0.06475601 0.068513155 -0.2732373 0.12269056 -0.014737715 -0.12133114 -0.07635805 -0.030495448 -0.11684615 -0.17564936 -0.21173497 0.041153617 -0.13762179 -0.34214762 -0.07059961 -0.014003751 -0.17051737
971 -0.08054916 0.21990502 -0.012480009 0.14227384 0.043526035 0.0702083 -0.08893288 -0.025132665 0.1325948 0.06264337 0.16399227 0.053431567 -0.06120524 -0.20435181 0.047384303 -0.07825014 -0.0469316 -0.21754265 -0.21783926 -0.26966807 -0.051955793 0.017860873 -0.116137855 -0.021047194 -0.51449716 0.23607092 -0.35126776 -0.015088971 -0.14160934 0.20468003 0.17386532 0.054702207 0.05133452 0.10092741 -0.17628369 0.116445236 0.2085688 -0.0046597845 -0.08216403 0.21393807 -0.09769391 0.051611725 -0.03997578 -0.16295211 -0.090890676 0.1814228 -0.070447266 0.07000823 -0.18119045 0.13738535 0.18664838 0.33157104 0.31716096 -0.2251757 0.08781208 0.13119315 0.1813115 -0.2233515 0.00027341157 0.07292526 -0.102153935 0.2640724 0.09452525 -0.06122516 0.15951172 0.14790854 0.14864708 0.22440213 -0.3050908 -0.13336179 -0.15953325 -0.04912872 -0.2485033 -0.35913256 -0.005536097 -0.25229815 0.1713058 0.18472114 -0.028080955 -0.06380416 -0.05627235 -0.012974134 0.09668515 0.063668095 0.027686434 0.33350194 0.21030994 0.15855706 -0.096296236 0.11844265 -0.09496104 -0.10848431 0.18659656 -0.07824563 0.15328859 0.03128582 -0.11794762 -0.009080249 -0.09504469 0.06369708 -0.21891215 -0.12808634 -0.3060691 0.16388157 0.25595537 0.058657076 -0.12235405 -0.037756983 0.1317292 -0.18659027 0.27372688 -0.32319912 0.0028246343 -0.048135184 -0.13889931 -0.22848487 -0.21747008 -0.1402891 -0.09206946 -0.1698999 -0.1617849 -0.52924883 0.15016952 0.16536891 -0.23226944 -0.20769997 0.12623022 -0.16793366
3635 0.13739888 -0.11914799 0.07327605 0.052508704 -0.06548819 -0.016871877 -0.046732232 -0.015170022 0.113778025 0.19590028 0.013565738 0.13619186 0.037722718 -0.26702744 0.097757906 0.27201143 -0.08868338 -0.25090095 0.07390367 -0.0868719 -0.13495491 0.31029975 -0.24662493 -0.3380981 -0.33694646 0.21568933 -0.16025484 -0.19579136 -0.10981715 -0.19502161 0.03523696 -0.022128336 0.04347478 0.18522839 -0.23407276 0.1947008 0.26474065 0.07482743 -0.17739472 0.01888433 0.10380298 0.031353407 -0.12010792 -0.058077797 -0.12598234 0.20451961 -0.39689347 -0.07907546 -0.046998378 0.19304347 0.14668745 0.09272389 0.2100262 -0.10435839 -0.16725817 0.27524224 0.3209343 -0.10805468 0.1396388 0.0044817603 -0.05709126 0.048149705 0.23618826 -0.10676968 0.1529983 0.18497442 0.14436276 0.074606076 -0.32111385 -0.0057291053 0.06077255 -0.048840936 -0.36821774 -0.018158896 -0.25567472 0.0662691 -0.0584245 0.03945126 -0.10139944 0.18886411 -0.17534316 -0.08616528 -0.22107126 0.1319413 -0.30245364 0.12516743 0.25166798 -0.2431063 -0.00541164 -0.08533003 -0.15870395 -0.1950994 0.07187859 0.08523991 0.20935993 0.27266446 0.016163789 -0.25853765 -0.36676255 0.3086294 0.036139086 -0.11400247 -0.15162803 -0.117747135 0.23583178 -0.029545976 0.19986251 0.12839931 -0.025103608 -0.05574567 0.38820672 0.0840182 0.0006246037 -0.17167477 -0.18716852 -0.083391994 -0.57981545 -0.21636632 0.06853727 -0.07346854 0.1762051 -0.5972286 -0.14626256 0.16851898 -0.081335 0.026159253 0.06488984 -0.12383296
3868 -0.22823541 0.12808701 0.21953277 0.33039087 0.084889665 -0.1461231 0.39022374 -0.0019306333 -0.001701949 -0.08998114 0.1156866 -0.13086061 0.16013671 -0.4392925 0.059735067 0.0800234 0.02927452 -0.29636514 -0.06234805 -0.30821273 -0.18188749 0.32270405 -0.16424716 -0.21174543 -0.342992 0.08909833 -0.26442763 -0.109168276 0.11547634 -0.2515686 -0.1546293 0.2069369 -0.06528779 -0.09945477 -0.16197829 0.40877292 0.2431108 0.123059526 -0.09366496 -0.22396654 0.04484481 0.17879342 -0.1308044 0.0989406 0.06106236 0.1836215 -0.33890018 -0.26772544 -0.017141176 -0.15654634 0.30487263 0.024904631 0.02751511 -0.026392756 0.19525072 -0.16183819 -0.11857819 0.098378256 -0.23075269 0.099551104 0.2225792 -0.10258964 0.12485749 -0.085195564 0.003224571 -0.08822548 -0.01372824 -0.05263796 -0.0716087 -0.042201634 -0.05031477 -0.09724654 -0.38443795 -0.47388202 0.010959906 -0.08056114 0.21818271 0.3246196 0.15738578 0.21681544 0.118645966 0.256184 -0.26580495 0.17123906 0.08831563 0.14511117 0.18754558 0.07568185 0.0078914715 0.020466503 -0.16351949 -0.08783319 0.08296975 0.25944403 -0.040008605 0.28093544 -0.15642235 -0.07454948 -0.3512198 0.11400724 0.25578707 -0.14570273 -0.37822685 0.020042412 0.27639702 0.009262457 0.25954765 -0.115858346 0.4380268 -0.29350206 0.46920514 0.011815767 0.058296047 -0.21572407 0.022844194 0.04778254 -0.13744482 -0.07410265 -0.13717446 -0.026319586 -0.04100516 -0.42828095 -0.025737846 -0.10621824 0.062227074 -0.015723228 -0.22414164 0.12552
3547 0.12239405 0.07806782 0.11780365 -0.008991868 -0.06039193 -0.0033477407 -0.23621593 0.15756403 0.2009004 0.06762841 0.3550388 -0.08171319 -0.0016968511 -0.024343744 0.11173904 0.023914076 -0.14945324 -0.050867077 0.04575772 -0.041405812 0.11023504 -0.040603206 -0.3625123 -0.27622294 -0.4362451 -0.009379702 0.056794617 -0.22381212 0.134676 0.1198823 0.10917166 -0.06387821 0.0011700025 0.14975022 0.05761552 0.45631185 0.16614176 0.19696009 -0.09833673 -0.104661524 -0.07105627 -0.08707619 0.036350187 -0.18800221 0.088078626 0.16244018 0.09740395 -0.25190115 -0.3070693 -0.049234528 0.059973627 0.005540504 0.17613386 0.1846621 -0.26778606 0.100401536 0.34722766 -0.111744806 0.08503892 -0.042370997 0.17570175 -0.19825661 0.059357114 -0.20401934 -0.09575769 0.020890508 0.13866387 -0.07070063 -0.03393773 -0.09223245 -0.010437999 -0.1687229 -0.31551725 0.15489894 -0.023316728 -0.25709257 -0.1839563 -0.028226823 -0.09317474 0.14039849 -0.004096045 0.08949371 0.115316436 0.51890767 0.21782643 0.2029249 0.34767592 -0.118630156 -0.278277 -0.04808415 -0.37784633 -0.21055499 0.022657469 0.23693644 0.22789286 0.12672032 -0.11156493 -0.042731874 -0.30444363 -0.05664631 -0.2658665 0.015551591 -0.15929702 -0.27913702 -0.10568301 0.21359037 0.0017316474 0.02009826 -0.13232806 -0.023695832 0.313107 -0.21301982 -0.07806781 -0.17932996 -0.12002444 0.071307994 -0.19639209 -0.064670786 -0.11665699 -0.011877314 0.02615027 -0.2250383 -0.1618003 -0.045745123 0.17130895 0.00085990236 0.04964827 -0.07431303
1055 -0.016650133 -0.11330611 -0.1012883 0.18584499 -0.0005049188 -0.12264745 0.018980343 -0.21376124 0.16898032 -0.21243204 0.1525503 -0.13368016 0.19419816 -0.31230187 -0.035565335 -0.19468428 -0.14394003 0.027850619 -0.029658657 0.13409728 2.853258e-05 0.119521685 0.068412766 -0.04871982 -0.24960198 0.007723998 -0.19348444 0.12982574 0.024733143 -0.09473391 0.29144973 0.21154049 -0.08611373 0.23229253 -0.14023258 0.31403396 0.13921359 0.15730557 -0.0200243 0.30252326 0.120357245 0.008617735 -0.18124159 -0.021244122 -0.12444558 0.5865489 -0.255795 -0.18154363 -0.12092799 0.05014291 0.106006965 0.097295284 0.22577305 0.13324508 -0.12874638 0.11969143 0.32473776 -0.28699473 0.0035869558 0.118827954 -0.08285126 -0.14575684 0.28611487 -0.12529813 -0.01094321 -0.19058692 0.4108607 -0.1477396 -0.23749562 -0.02247113 -0.03227517 -0.17218895 -0.21639097 -0.17422435 0.05405011 0.099046476 -0.02172859 0.16896413 0.019877743 0.21695702 -0.018148467 0.2671278 -0.008144511 0.21113743 0.086827345 0.04728876 0.35490847 -0.06895383 0.06347856 0.20105332 -0.3682113 0.040466525 0.12910537 0.26257363 0.4018755 0.27664843 -0.043178316 -0.39830008 -0.3600002 0.03477878 -0.20848475 -0.12787569 -0.010666639 -0.09396992 -0.080674045 -0.21285725 -0.2264408 -0.03493323 0.043261133 -0.21664593 0.15607993 0.16254202 0.2575781 -0.019499188 -0.18807115 0.05527155 -0.23962438 -0.17631297 -0.00037351708 -0.106802516 -0.03443957 -0.2027563 -0.044015024 0.16438943 0.14911649 -0.060055807 -0.1658436 -0.15303345
2585 0.22589664 0.009131267 -0.11947101 0.3007452 -0.010045454 -0.009413738 -0.10075909 0.109002315 0.1867932 0.040155765 0.14510065 0.023183445 0.05186776 -0.3618115 0.34402484 0.21914423 0.26900762 -0.32733116 0.036143262 0.04075953 -0.25030565 0.0636811 -0.30167446 -0.31703722 -0.17244925 -0.059306536 0.07502439 -0.030186689 0.029181743 -0.15112408 -0.18250881 0.22204703 0.0038073394 -0.054829814 -0.09340992 0.367274 0.21615288 0.28247127 -0.12707144 -0.07053085 -0.023890056 -0.002922869 -0.21352509 -0.1632621 -0.112375885 0.13087186 -0.22065672 -0.37123853 -0.2666361 -0.14952007 0.01161441 -0.043563433 0.295085 0.064687125 0.12690382 0.16559534 0.23207994 -0.34839624 0.034646086 -0.04145756 0.093766 0.06916156 0.31173027 0.020745764 -0.06466632 0.056253828 0.38603052 -0.05869884 -0.34222835 0.03460723 -0.0046936525 0.13567019 -0.4092078 0.019510362 -0.04491799 0.0205151 0.10119405 -0.008363726 0.25754988 0.35299122 0.05853996 -0.058492687 -0.12709986 0.29378438 0.032475546 0.11099002 0.4418554 0.061127413 -0.1490885 0.037962165 -0.18110007 -0.22760613 0.2338301 0.08529194 -0.042401552 0.40008128 -0.11615469 -0.21218865 -0.2285773 0.15192756 0.07564633 -0.040599275 0.029003581 -0.19066712 0.0073328298 -0.17510098 0.18554026 -0.05073743 0.29001763 -0.030431429 0.18644461 0.06276646 0.13020793 -0.2241072 -0.01658262 0.063056916 -0.18694644 -0.0056782844 -0.085248634 -0.11466529 0.06006673 -0.31571153 -0.03944937 0.12433425 -0.033410594 -0.042085323 0.0077395453 -0.052480057
3450 0.18219557 0.124167494 -0.04748046 0.116920635 -0.044838116 -0.09894018 -0.068319865 -0.16677427 -0.023758758 -0.08438725 -0.04850657 -0.048126448 0.07418609 -0.24915043 0.039531376 0.011967761 0.024129925 -0.27042314 -0.0043706545 0.11296974 -0.03450263 0.2511215 -0.18158391 -0.17899919 -0.12908484 0.14455995 0.1062768 -0.09829993 0.06836728 0.090882726 0.076247394 -0.27808675 0.107092775 0.058023732 -0.2626392 0.24255024 0.24938697 0.11191383 0.10376274 -0.0083818035 -0.14981331 0.04190477 0.046052616 -0.25761342 0.23014127 0.36290136 -0.2633778 -0.38797864 -0.23653494 -0.18870918 0.13749665 0.08638338 0.122575864 0.00060224487 -0.07680056 0.061179135 0.27564442 -0.07628354 0.34401762 -0.24420762 -0.07723576 -0.23569536 0.37138104 0.18479869 0.11080614 0.04602744 0.3344831 0.08953698 -0.3204627 0.018839624 0.22232734 -0.02615318 -0.716069 -0.026338529 0.16400005 0.06451034 0.036871236 0.087858364 0.10937659 0.051101483 -0.0012143891 0.026697803 -0.102212295 0.48485574 0.14175105 0.17701118 0.23430021 -0.0106717395 0.004666936 0.32206774 -0.09646583 -0.031784013 0.10931555 0.114134744 0.23449126 0.039829906 -0.06312369 -0.18847528 -0.11336297 -0.025221769 0.023895375 -0.061239485 0.019667247 -0.04020361 -0.0004819724 -0.067864105 -0.06306969 -0.010490825 0.21016692 -0.07621528 0.14973806 0.05953135 -0.17349203 -0.19693886 0.23063555 0.09462152 -0.15912542 -0.2391422 -0.10179556 -0.2737538 0.0587492 -0.2578745 -0.13640048 -0.015708994 -0.103357196 -0.19451995 -0.01677413 -0.2806227
4201 -0.21196823 -0.07157984 -0.053895928 0.10783077 -0.09116724 0.016048148 -0.1888129 0.0018146114 0.39756787 0.06992255 0.022070207 -0.060174197 -0.019058773 -0.25166658 0.21810964 0.06397548 -0.008491449 -0.14390059 0.03927239 0.058433376 -0.19195741 0.14101423 -0.0015044498 -0.027440976 -0.07971983 0.057519104 -0.14126912 0.17658682 -0.2702557 -0.080400154 -0.29139218 0.09602328 0.08306209 0.025561914 -0.20702429 0.5474841 0.32050136 0.2691936 -0.24527946 0.22852749 -0.15935373 -0.174625 -0.090639226 -0.0464766 -0.17019217 0.34419373 -0.15888332 -0.14014815 -0.26517957 0.032971736 0.051949915 0.09172672 0.1561409 -0.0012390605 -0.026607834 0.008119556 0.2016548 -0.044901986 -0.0017766405 0.0018307171 0.09899947 0.09254016 0.20684756 0.07157576 0.06582777 0.08846905 -0.05377258 -0.08834072 -0.30968657 -0.062043607 0.015566938 -0.028558595 -0.25810027 -0.06413923 -0.06680022 -0.0008355624 -0.14381619 0.12746042 -0.028660432 0.40380442 -0.012852305 0.07685197 -0.08597967 0.35793674 -0.20151772 0.29970363 0.26841855 0.2103734 -0.04991009 0.2786912 -0.16640183 -0.103636734 -0.01287664 -0.15717466 0.09470171 0.24491754 -0.14800628 -0.020774715 -0.3573003 0.210034 0.18064165 0.055894736 -0.023674082 0.10399609 -0.14062403 -0.05296078 0.069120966 -0.13926895 0.1673442 -0.31983197 0.3423893 0.061504472 0.1300182 0.03126795 -0.40759706 0.21835981 -0.018874587 0.03156113 0.0626909 -0.26984623 0.06576722 -0.2142222 -0.37841395 0.20763521 -0.11056198 -0.07970711 0.07831058 -0.13795756
3259 -0.00993113 -0.07318536 -0.07069861 -0.058819726 0.10622365 0.17636752 -0.2523375 0.083535425 0.27007028 0.1411972 0.031478826 0.00995274 -0.008151129 -0.22403564 0.3039571 0.2245474 -0.13181388 -0.117879905 -0.14574295 0.048204713 -0.17636809 -0.18574603 -0.11340047 -0.2922115 -0.31993815 0.19749486 -0.25464293 0.048450656 0.09476244 -0.22896428 -0.17031299 0.08112394 0.12529063 -0.024478752 -0.3964206 0.35936463 0.3061688 0.1688061 -0.20603916 -0.06470237 -0.33358544 -0.02264056 -0.057526615 -0.0022597252 -0.063796654 0.27888 -0.2338622 -0.23448488 -0.25833282 -0.1701252 0.29907635 -0.06602029 0.16575809 -0.040701423 -0.15387882 0.19141154 -0.16299893 0.01675886 -0.098632224 0.14914921 0.13798647 0.2402163 0.2510214 -0.38298252 0.13166904 0.079468824 0.111477256 -0.3384596 -0.07221574 0.062364984 0.045614988 -0.028576918 -0.20879908 0.06727219 -0.06377829 0.05893232 -0.21720636 0.102994986 0.026816946 -0.083923094 -0.22191036 -0.020467453 -0.029569557 0.19024622 0.17814879 -0.04128023 0.3691362 -0.17499042 -0.14665703 -0.15141922 -0.10319147 -0.1947992 0.14974865 0.28912917 0.17249829 0.12739682 -0.30113056 -0.35426873 -0.29088914 0.073752634 -0.14349103 -0.08202774 -0.015012501 0.0022401793 -0.07736616 -0.052230593 0.09527698 -0.18287656 0.5556622 -0.08689409 0.25064301 -0.17730004 0.13090971 -0.2800962 -0.28562802 0.012310778 -0.05980695 0.11665348 -0.049658332 -0.23834658 0.013976098 -0.23457034 0.034058157 0.113176085 -0.21223779 0.15585394 -0.007849109 -0.2575042
3833 -0.12172836 0.28117198 -0.012926652 0.28370592 -0.11554663 -0.083299436 0.0697288 -0.23217244 0.094348796 0.34849012 0.04484239 0.1665272 -0.13875912 0.050342266 0.1689715 -0.026216755 0.19729054 -0.08749801 0.0454751 -0.013834884 0.15884158 0.17207135 -0.08146446 -0.27733213 -0.2126376 0.13242483 -0.018468983 0.05396633 -0.2620674 -0.3483775 -0.12179822 0.109052934 -0.110677406 0.07708057 0.05102304 0.101254866 0.18997045 -0.12977016 -0.3142834 0.045096703 -0.15140688 0.15800247 0.14584695 -0.326754 -0.22609513 0.114102 -0.29162535 0.0019440171 -0.07653184 -0.040612265 -0.3164714 0.15083857 0.05440595 -0.41208193 -0.17118624 0.065356955 0.033654686 0.2739351 0.13834684 -0.14250064 0.22159709 -0.14885466 -0.17345601 -0.030164422 -0.00498572 -0.3760438 0.033730052 -0.14938338 -0.27774343 -0.0856725 -0.04501075 -0.10862317 -0.6054755 -0.16709395 -0.13010299 -0.06893932 0.07076272 0.0038963333 0.010751904 0.06334771 -0.23696285 -0.03745875 0.10097606 0.32929277 -0.025343666 0.0141416155 0.42911363 0.16410287 -0.19709218 0.0961977 -0.22116762 -0.1884067 0.25680205 0.11591167 0.3542176 0.25054368 -0.106770635 -0.21215574 -0.30798164 0.3490455 -0.062007893 -0.059839375 0.20348543 -0.19429834 -0.093523875 0.04851209 0.109328955 0.09060607 0.17180823 0.05586167 0.41863865 -0.008231786 0.26930243 -0.23554723 -0.40036693 0.108683124 -0.29074973 -0.232573 -0.021721048 -0.31593555 -0.2604342 -0.53150517 -0.031876553 0.21371466 0.018766562 -0.29691583 -0.1573959 -0.17634133
3742 -0.037961952 -0.11429537 -0.14163963 0.07134174 -0.17603493 0.041311767 -0.13477011 -0.045016598 0.12345735 0.19906875 0.03989679 0.117428415 0.031714473 -0.43875638 0.30852693 0.20873109 0.2872986 -0.10823053 0.11937472 -0.09439243 -0.29294875 0.033819906 -0.32447845 -0.24374844 -0.042514913 -0.010761256 0.05962718 -0.28816086 -0.36939356 -0.16285688 -0.17671533 0.09644065 0.19061363 0.115118526 -0.16218007 0.399794 0.09570537 0.2926513 -0.044280965 0.12650627 0.11913403 -0.06337467 -0.038470976 -0.077707045 -0.32731435 0.41217437 -0.01859417 0.078309834 -0.15734224 0.049221072 0.09699651 0.071046084 0.4644284 -0.124543756 0.16371901 0.03150272 0.08225782 -0.2557318 -0.0031088246 0.10539097 0.0011213394 -0.07147991 0.20856243 -0.18759409 0.020305073 0.11062259 0.067659095 -0.18806899 -0.33163068 -0.04600433 -0.123283245 0.10867433 -0.06694686 -0.10910958 -0.024608163 -0.045090802 -0.25833428 0.17370042 0.14813933 0.15442629 -0.09767459 0.00881324 -0.25739864 0.25383368 -0.12219221 0.22269955 0.46665153 -0.0012711149 -0.25139093 -0.13627945 -0.25453222 -0.0050607445 0.34566292 0.0655925 0.13808213 0.16601181 -0.22106798 -0.14854424 -0.33524263 0.12496689 -0.06960418 -0.3571892 0.14635433 0.16638131 -0.10590758 -0.052611046 0.23744725 -0.12031518 0.14475647 -0.16942528 0.047392048 -0.08547562 0.12408243 -0.0030903777 -0.3378388 -0.15157594 -0.29518357 -0.06650398 -0.13037202 -0.21993873 -0.08190397 -0.4200128 -0.07265849 0.2113883 -0.1316592 -0.26805145 -0.04432776 -0.028924145
440 -0.14900005 0.029529572 0.05185216 -0.14104497 0.04153072 -0.061069448 -0.041561298 0.013898602 -0.011428289 0.09893226 0.13952991 0.067640476 0.0490746 -0.3540504 0.16435212 -0.037017766 0.14188631 -0.30503377 0.022403432 0.091200575 -0.11419209 -0.100526355 -0.10027201 -0.07178566 -0.13135526 0.2120839 0.03973736 0.10982215 -0.017934522 -0.14400047 0.13894871 0.18949786 0.15436602 -0.038529154 -0.39296326 0.32549313 0.44283745 0.23008068 -0.12998092 0.068226986 0.06405652 -0.016208693 0.011717201 0.036787905 0.040024668 0.5997476 0.044060834 -0.30337334 -0.1465055 0.067533515 0.023424054 0.22536428 0.26672062 -0.16550073 -0.23700236 0.21533032 0.4454044 -0.25339282 0.14066452 -0.08515417 -0.07411794 0.1727058 0.14403692 -0.25428572 -0.14880575 -0.03173744 0.07535228 -0.12291113 -0.28000262 0.1253071 0.25122654 -0.18011418 -0.45269972 -0.03704688 0.016621148 0.25713688 0.017531035 -0.32256067 0.09560366 0.2397695 -0.047417413 0.079841375 -0.09210775 0.33352855 0.026702754 0.26937187 0.29447305 0.31175897 0.08647765 -0.16634478 -0.18823755 -0.2765474 0.14015837 0.18455748 0.17607714 0.14894223 -0.046832267 -0.10896841 -0.34949097 0.23724471 0.11657848 -0.17344211 0.002438642 0.02921679 0.102894865 0.025017522 0.038120117 -0.1747682 0.2285813 -0.17583516 0.113886915 -0.05939092 0.1311593 -0.08745224 -0.07303555 -0.18322381 -0.122163266 -0.116049126 -0.015940445 0.027127778 -0.039904054 -0.26460487 -0.020684253 0.13107817 -0.19868895 -0.018063419 -0.19233084 0.0056506004
241 -0.20604464 0.03154519 0.010713463 0.03524436 -0.005002162 -0.061650157 0.26631516 -0.18105651 -0.17778002 -0.22678013 0.19174443 -0.016440444 -0.17697826 -0.15404993 -0.15432897 -0.06899978 -0.2679246 -0.051243417 -0.1083506 -0.32274005 0.2864895 0.38936695 -0.22395241 -0.21865292 -0.6083546 -0.030976519 -0.3470116 0.030288354 -0.1982505 0.1461164 0.005154415 0.018829789 -0.06451936 0.16129826 -0.06602774 0.21965443 0.05606947 0.23275554 -0.09841784 0.26022896 0.10864854 0.04695327 0.22800454 0.11866632 0.12100086 0.50356185 0.26568863 -0.4633869 -0.34697178 0.10277998 0.05159905 0.123302855 -0.1503824 -0.021780698 -0.17922017 0.0033127796 0.5175351 -0.18829642 -0.10767006 -0.12137769 0.2737211 -0.04700876 0.3302406 -0.2394923 -0.2344748 0.17357941 0.24318574 0.065068975 -0.24064006 -0.09112038 -0.19273545 -0.059230436 -0.29801717 0.0013127766 -0.24891274 -0.066078916 -0.2831903 0.38250616 0.23748694 -0.04638058 0.013695469 -0.18148607 -0.034520056 0.26558384 0.059303343 0.14307752 0.056047805 0.07478511 0.0041263425 -0.044052392 -0.052493833 0.12870461 0.1524862 0.18366808 0.19276942 0.04897291 -0.1763217 -0.080959365 -0.41710666 0.03047817 0.007302718 -0.124490306 -0.4213417 -0.23516929 -0.29369763 0.026683753 -0.10307748 -0.038730137 -0.102388404 -0.08056666 0.27514502 -0.24067646 -0.2534252 -0.1860158 0.060906243 -0.21611805 -0.1556266 0.09575053 -0.25212967 -0.17320901 -0.04201552 -0.013600333 0.0075705685 0.06512908 -0.10393897 -0.21035491 0.00069091795 0.055815715
4152 0.14794806 0.18695019 0.10565356 -0.06347614 -0.17611378 -0.109157495 -0.05665646 0.0274944 0.15881857 0.24232444 -0.14484347 0.075796485 -0.15706676 -0.15290183 0.11390855 0.09251839 0.13679503 -0.24180833 0.042021476 -0.17324838 0.20046456 0.19855961 -0.0015129058 -0.3068677 -0.07820209 0.13301823 -0.18065621 0.12338231 0.14846264 -0.29880735 -0.05852446 -0.036380474 -0.18262692 0.10167714 -0.33544555 0.5646228 0.3348769 0.1231008 -0.28886884 -0.06321437 -0.13553976 0.41382292 0.10390396 -0.043517716 -0.4479258 0.33195895 -0.1110888 -0.2326797 -0.10924261 -0.026595308 0.089945585 0.25879452 0.27102798 -0.28795612 -0.08851104 -0.03664802 0.12544487 -0.26174667 -0.011163675 -0.105115525 -0.053515244 0.027425798 0.28790164 -0.21555698 -0.10358044 0.07247517 0.3069302 -0.017185636 -0.2292358 0.03731159 -0.0557323 -0.014634162 -0.5426254 -0.14573407 -0.12774572 -0.06514304 -0.18301028 -0.15735511 -0.07439406 0.27512863 0.01969418 -0.053348113 -0.08628709 0.141526 0.06844333 -0.0013054837 0.055380963 -0.07502453 -0.32788163 0.14977619 -0.079304606 -0.37499037 0.034001224 0.13604127 0.14041658 0.12126905 0.10955489 -0.23105401 -0.23301966 0.19947635 0.2952528 0.086726874 0.098485604 -0.018099993 0.04723791 -0.36106285 0.0095535815 0.13785085 0.32002723 -0.019255567 0.12496491 -0.026229093 -0.022849938 -0.16699027 -0.3808404 -0.050517607 -0.2894373 -0.006088015 -0.14459997 -0.23765792 0.13061792 -0.20292996 -0.18616524 0.14309525 0.37914607 0.091673695 -0.2315262 0.14925309
4163 0.15738569 0.05248345 0.07173039 -0.07564565 0.1506239 -0.011918498 0.15416145 0.13903649 0.12098396 0.16059093 0.10530702 -0.02901171 -0.008705343 -0.3239577 -0.11033425 0.31720862 0.4108223 -0.041803237 -0.24160649 0.37872568 -0.15370469 -0.21602684 -0.14970721 -0.34777066 -0.18577881 0.056235738 -0.14069697 -0.29444674 -0.072251685 -0.12019549 -0.36682776 -0.106765226 0.2944971 0.1635547 -0.15304978 0.10320344 0.29138795 0.12634298 0.23548108 -0.23227605 -0.25330746 0.070124626 -0.012286747 -0.101352796 -0.09324235 -0.18084633 -0.3175305 -0.1401797 -0.39890903 -0.19411576 0.06962852 0.048301794 0.103212304 0.072157 0.024326596 0.11790769 0.1637099 -0.031531375 0.30125222 -0.25202802 -0.1451679 0.47272095 0.10536175 -0.10670519 -0.26855966 -0.18011831 -0.099145845 -0.015429786 -0.5088733 -0.034918945 0.19413757 0.047402695 -0.4291317 -0.43402168 -0.27660376 0.029655607 -0.2976616 -0.18883057 0.10663314 0.11969704 -0.17759524 0.14376281 0.037096985 0.44090676 -0.041800395 -0.015082384 0.41302088 0.0679251 0.16054772 -0.067151375 -0.22414808 -0.49903247 -0.023562387 0.022565693 0.104690805 0.103197545 -0.08662403 0.1689861 -0.49073437 -0.08131097 0.12111853 -0.23031414 -0.39757696 -0.463723 0.006697623 0.13355534 0.16819589 0.15082917 -0.12264186 0.26395795 0.0033134252 0.12252328 0.25737166 -0.33581513 -0.3995356 0.06078563 -0.2842964 0.17118339 0.2262324 -0.22274293 0.20586051 -0.17943698 0.31564042 -0.093861505 -0.19634935 -0.048699003 0.26522782 -0.20445701
3633 -0.17853989 -0.05664249 -0.09414067 0.27301368 -0.15640989 -0.12737142 -0.25424218 0.18399629 0.111772016 0.09632698 0.13511147 0.030674616 -0.060978696 -0.4881031 0.08559531 -0.014022823 0.17693484 -0.22664213 0.13028833 -0.028820205 -0.1616033 0.067818426 -0.35106218 -0.21538432 -0.119444795 0.3662994 -0.26073697 -0.07660778 -0.3714577 -0.17840935 -0.0500302 -0.0673558 0.06848529 0.11234883 -0.14090812 0.24857476 0.17271078 0.15068196 -0.006566071 -0.00805503 -0.2517632 0.12678567 -0.07085352 -0.025080258 -0.14977767 0.566326 -0.23326977 -0.25105494 -0.19957536 0.13375433 0.00450261 0.1479228 0.17060862 -0.23824474 -0.1215812 -0.020009082 0.17199071 -0.11507575 0.07184671 -0.046694253 0.008053229 -0.078303136 0.21888773 0.0683547 -0.12705962 0.07215095 0.07762613 -0.1452652 -0.1470286 -0.11603907 0.08045711 -0.21585357 -0.4370438 -0.11994212 -0.03618254 0.027413404 -0.04661977 0.011897782 -0.046197135 0.12048969 0.14071405 0.3227427 -0.047004305 0.26130453 0.028550532 -0.16971415 0.09950164 -0.06270429 -0.043719772 -0.0018723952 -0.2989404 -0.25007626 0.18709327 -0.13142046 0.028961265 0.2649904 -0.060568526 -0.491925 -0.15238559 0.22667076 -0.14209929 -0.070436776 0.17653154 -0.19884495 -0.058050424 -0.11669222 0.09604464 -0.10124181 0.030835383 -0.08508219 -0.029546881 0.14528687 0.08204061 -0.30388707 -0.26497063 -0.08251407 0.03126323 -0.16738394 0.05190636 -0.09685226 -0.18920827 -0.38040802 -0.08046911 0.13304707 0.058801014 -0.1962724 0.13133904 -0.1442265
19 0.35104796 0.26287472 0.2725916 -0.16577123 -0.28943256 0.25190756 0.17755131 0.07519493 -0.4028128 -0.11484292 0.19907147 0.1039135 -0.21628295 -0.104330264 -0.1809458 -0.2565969 0.11143768 -0.33023602 -0.22048026 -0.33214998 0.21808758 0.011612226 0.23940207 -0.37917188 -0.15443955 -0.10030961 -0.37048718 0.20702821 -0.05452794 -0.0014679632 -0.2116647 0.19158547 -0.036712572 0.26613855 -0.23768342 0.020399883 0.23319085 -0.19963005 0.089457035 0.04361817 -0.06260192 -0.09919648 0.057323977 -0.09009406 -0.19987808 0.357335 0.21226686 -0.061629444 -0.41724238 0.13236578 0.3531048 -0.2812071 0.046385717 -0.14684442 -0.10159516 0.30852395 0.17177661 0.15325338 0.2409245 0.4552163 0.05817961 0.29049638 0.3139668 -0.19104311 -0.08027685 0.040377744 -0.21460469 -0.029940106 -0.20087129 0.03458565 0.10344044 0.05737896 -0.3940662 -0.083482556 0.25300506 -0.035944495 0.07069448 -0.12359967 0.3545403 0.010938915 0.27411798 0.015868891 -0.19002193 0.34618002 0.01613179 0.23323223 0.2959813 0.2863719 -0.011199323 0.18737608 -0.22431268 -0.24939045 0.5077371 -0.23051575 0.21079083 0.019065617 0.14833805 0.16332184 -0.07174349 -0.042747397 -0.23459926 -0.15492088 0.18124637 -0.39727083 -0.2522172 -0.13982442 0.022712892 0.38896835 0.14317918 -0.056333523 0.1265972 -0.30975166 -0.1435452 -0.040109634 -0.0018296381 -0.125058 -0.10627992 0.062832326 -0.048884906 -0.17568298 -0.23904435 -0.24030536 -0.16240181 -0.17352681 0.15449989 0.04243298 -0.07476676 -0.22748855
1542 0.09473937 0.075892165 -0.035901073 0.119012505 0.1967643 -0.2603256 0.22492856 0.15830803 0.0010939189 -0.19123565 0.5399644 -0.052910935 -0.044505633 -0.266669 0.037383758 -0.056224648 0.006098066 -0.29089263 0.022150433 -0.24012588 -0.13545038 0.29741523 0.13184808 -0.5616824 -0.05865792 -0.034044676 -0.1052474 0.16474694 -0.23106776 0.2565387 -0.2068649 -0.13051161 0.096473314 0.18057008 0.06526461 0.34102222 0.54438657 0.006412917 0.064973585 -0.100836396 0.18735677 -0.12075683 0.25756094 0.034222204 0.09931866 0.07763799 0.15505634 -0.4276302 -0.15002142 0.01948282 -0.02469306 0.17193334 0.064982004 -0.53907543 -0.18540578 -0.20353392 0.3791411 -0.14713383 -0.11894881 0.2127956 -0.17865719 0.021056663 -0.24827704 -0.12580408 -0.16525388 0.034387484 0.040415257 0.020418093 -0.3179253 0.21528882 -0.14686376 -0.26648313 -0.12923488 -0.09990271 0.011599882 -0.074684724 0.08470287 0.06605697 -0.52163327 0.011940443 -0.07030152 -0.06381759 -0.3362297 0.2675024 0.10026011 0.43937817 -0.052266974 -0.11357269 -0.2472586 0.0086478405 -0.20206699 -0.16762492 0.31075278 0.09810201 -0.05631032 -0.0107727 0.07681165 0.2400212 0.3960708 0.15258105 0.121327505 -0.03176188 -0.09884645 -0.14708227 -0.19481188 -0.072113976 0.21298212 -0.11450201 -0.016144983 -0.35773683 0.22170706 -0.08745719 0.041139375 0.03701337 -0.3628989 -0.043428097 -0.2592222 0.06394152 -0.13393599 0.10684693 -0.20768137 -0.053425975 0.05835918 0.03871026 0.04585024 -0.1926601 0.2803988 -0.17468494
87 0.13088275 0.39747292 0.2031617 -0.05533194 0.17102869 -0.3159748 -0.012583862 0.1194605 -0.048926264 0.13890693 0.27026317 -0.04463401 -0.28843293 0.061369084 -0.063449025 -0.094991885 0.26162574 0.097589165 -0.07444733 0.13779746 -0.28023487 -0.03981872 -0.29242706 -0.012777196 0.026212897 -0.0064911977 0.10094041 0.17875423 -0.07134938 -0.065898955 0.13429657 -0.12181517 -0.19624451 -0.02627683 -0.29512382 0.35780525 0.2619777 0.14560775 -0.17452632 0.047852326 -0.0848224 -0.34071913 0.1924972 0.2099247 -0.11963314 0.13120376 -0.26844612 -0.1640801 -0.12993027 -0.17951044 0.39565086 -0.13015905 0.2971697 -0.31749678 0.3681904 -0.24193075 0.23707582 0.15414368 -0.03989154 -0.007514786 0.18871152 0.08264756 0.12339829 -0.24105914 -0.20048226 -0.07048413 -0.28917232 0.2568731 -0.31222633 -0.3347608 -0.07408981 -0.13396353 -0.21324772 -0.082830206 -0.14883204 -0.13865958 -0.088668995 0.0049128304 -0.5839871 -0.0037724571 -0.04342144 -0.1999093 0.21105377 0.33629897 -0.08708268 0.3404652 0.32463792 -0.19160149 -0.3011369 0.33675689 0.36881799 -0.46983677 0.45270395 0.2094855 0.21353301 0.02664285 0.010059089 -0.23458359 0.11166345 0.2122155 -0.21520649 -0.19857183 -0.5014336 -0.16499758 -0.2781359 0.068214685 -0.39515328 0.28573987 -0.11961972 -0.13327466 -0.087824926 -0.09353765 0.0382338 0.2044935 -0.03170936 -0.08325413 0.056112394 0.117531344 -0.023013795 -0.08364612 0.21785496 0.15133853 -0.4579512 -0.21936911 0.45594347 0.2428615 0.46119007 -0.17497973
2287 -0.2661348 0.108174846 0.08712579 0.16041404 -0.05061859 -0.21135098 -0.042433042 0.099808455 0.0052498733 0.21336307 0.3508407 -0.020711523 -0.11501098 -0.21333091 -0.0757957 0.018546462 0.30255055 0.013921508 0.24463224 -0.08507872 0.04897361 -0.037758745 -0.31377748 -0.03984736 -0.2762977 0.08219563 -0.22584161 -0.032141812 0.22018717 0.094385214 -0.18950997 0.115152024 -0.0862474 0.12097463 0.10175071 0.07330474 0.38919333 -0.033481117 -0.08335408 0.25154656 0.1550924 -0.14776672 -0.11471026 0.28737643 -0.030057622 0.35202023 -0.06819023 -0.24193446 -0.26820052 -0.10249405 0.28509864 0.10193138 -0.06608538 -0.42679313 0.2657258 0.017652871 -0.061777987 0.064884424 0.16009066 0.23578738 0.10974078 0.19097339 0.19412409 -0.25089112 -0.04641041 -0.015740713 -0.102989465 -0.0133857345 -0.29258892 -0.2866463 0.16608039 0.026116002 -0.59955096 -0.031961653 -0.006426283 -0.08722766 0.003244743 0.087042205 0.38633075 -0.21883853 -0.42639217 -0.26229188 -0.21698129 -0.09326152 0.11862871 0.05378287 0.070353225 -0.07456569 -0.09739548 0.097704396 -0.24271403 -0.06468666 0.44962433 -0.08422562 0.16757959 0.21758968 -0.105127305 -0.28266174 0.11494231 0.13388504 -0.22376122 0.25385913 0.033730857 -0.07973842 0.09420162 0.06570785 -0.07235709 -0.0144325495 0.03637393 0.06070642 0.005344693 0.034832343 -0.18941648 -0.25321254 -0.27499905 0.0922923 -0.23203722 -0.28341177 -0.19545153 -0.23244955 -0.027801301 -0.21317534 -0.26189348 0.004791276 -0.107689194 0.12284004 -0.15491758 -0.14951572
3506 0.02920988 -0.07217916 -0.058235206 0.12146074 -0.059261207 -0.15500341 0.14983222 -0.088919625 0.07378555 -0.04707044 0.52965003 -0.051734835 0.061592333 -0.38001677 -0.03381855 -0.27445623 0.15892325 -0.15453686 -0.33205932 -0.33397678 0.19315653 0.16763803 -0.03698624 0.07034554 -0.41493434 0.3302989 -0.013323523 -0.15092081 0.10431058 -0.0043188184 -0.07485406 -0.10741079 0.00716932 -0.042769857 -0.17962432 0.29930446 0.029155202 -0.105834365 -0.22137322 0.31022894 -0.109145485 0.27188116 0.22427891 -0.13941848 0.1586504 0.080081895 0.0059717176 -0.18779019 -0.2547805 -0.09152755 0.18166257 0.1800959 0.19946425 0.07327747 -0.10967148 -0.0003964989 0.056392998 -0.23960988 -0.08052599 0.26161304 0.16196659 0.15007484 0.13602392 -0.021852452 -0.018430308 0.18809424 0.20388536 -0.016692692 -0.3939433 -0.084832214 0.04645069 -0.118473284 -0.3690513 -0.2900914 0.103542894 0.037932653 0.018422024 0.5720942 -0.022927905 -0.096356064 0.04384144 -0.2524882 0.041887034 0.29186493 0.13121414 0.14885296 0.19059129 0.048608832 -0.22965285 0.0023724614 -0.16170561 -0.068948045 -0.020025343 -0.015432936 0.42177078 0.2677033 -0.14960532 -0.21457712 -0.36637858 0.029084789 0.089954734 -0.06593499 -0.17093107 0.049467653 0.09591087 -0.0029937532 -0.23229389 -0.027808826 0.12654866 -0.105348095 0.18200552 -0.13446304 0.025518853 -0.01194039 -0.059634484 -0.057949603 -0.004465759 -0.32153696 -0.21448164 -0.19638896 -0.2233959 -0.12608923 -0.16329154 0.051525272 -0.082359254 0.108188756 -0.023357615 -0.17396027
3967 0.019362275 0.09923803 -0.03709874 0.24618258 -0.04045857 0.066515855 -0.09632398 0.005930344 0.30176708 -0.049809054 0.062319078 0.10885027 -0.024036065 -0.18567081 0.28798458 0.13160059 0.07282971 -0.14852856 -0.23179151 0.10242558 -0.029137751 0.06589238 -0.41716665 -0.12395857 -0.47994286 -0.13714017 -0.25114217 -0.098947994 -0.02054076 -0.26939836 -0.02789674 0.17836513 0.17014363 -0.11440693 -0.13397336 0.23820058 0.14098044 0.2714383 -0.061552677 0.2393266 -0.2854778 0.2059363 -0.2218824 -0.19549927 -0.27183104 0.3845729 -0.12260601 -0.25186878 -0.15689269 0.036834043 0.15013951 -0.0058067427 -0.015558277 -0.024728464 -0.047156032 -0.17169762 0.10566453 -0.03240089 -0.06433929 0.29787964 0.09155742 0.13709147 0.25993013 -0.035304755 -0.11435142 0.15166907 0.1569741 -0.090198666 -0.1517405 0.03528261 -0.20432588 -0.1551023 -0.312878 -0.1505942 0.002825484 -0.3438985 -0.0052920696 -0.11558056 0.049273323 0.13088052 0.18653177 0.17208706 0.4771732 0.18656133 0.0890593 -0.01140068 0.16711529 -0.11532479 0.021406181 -0.004423151 -0.48769298 -0.35392672 0.20348875 0.18093102 0.1184461 0.1408395 0.02869928 -0.24470791 -0.5337099 0.12814483 -0.111084476 0.20464462 -0.044794753 -0.115684114 0.06295589 -0.19228718 0.16130622 0.15758185 0.088159174 -0.112603776 0.25400764 0.058194235 -0.042753406 -0.13014762 -0.13224036 -0.107687004 -0.0949488 -0.10964425 -0.1359268 -0.07509832 0.19362648 -0.3076147 0.008980719 0.21125133 -0.2621516 0.14275387 0.12196288 -0.04670295
1838 0.077600144 -0.005052856 -0.13551375 -0.008440912 -0.048860006 0.052733365 0.14695193 0.07963272 0.1108909 0.0022797766 0.007281442 0.013457977 0.0037283506 -0.44365993 0.17595413 0.1413529 0.023379862 -0.20287894 -0.067283414 0.17078748 0.10681987 0.13714653 -0.1370544 -0.25935793 -0.27019262 -0.024718093 -0.31847438 -0.04444381 -0.14164434 0.023910962 0.076744296 0.09153084 -0.13795081 0.087988876 -0.16144946 0.2320324 0.4037535 0.1953062 -0.08993543 0.1395416 -0.09444498 -0.13573772 -0.13121872 -0.18974404 -0.2110406 0.2935713 -0.10212094 -0.18779667 -0.054097917 0.18318821 -0.1442801 0.1383649 0.019470833 -0.057170864 -0.15644526 -0.06256568 0.18440501 -0.28608158 -0.040518384 -0.061185393 0.017331384 -0.09718779 0.0068135895 -9.336303e-05 -0.2833298 0.14963594 -0.0375246 -0.05695799 -0.23795596 0.1022139 -0.08288427 -0.31807193 -0.38275668 -0.08534529 0.27259725 -0.11674864 -0.07887658 -0.15135816 0.10551858 0.3527116 0.18035452 0.16766037 0.1599095 0.17329678 0.12217281 0.21947487 0.2869493 -0.10609262 0.07456408 -0.15841372 -0.42245802 -0.22279555 0.35240942 0.16305856 0.4324244 0.08680583 -0.27619383 -0.25526363 -0.4146583 0.23327681 -0.17461297 0.082996905 -0.0012794982 -0.024103345 -0.03676404 -0.1788659 0.06407495 -0.12989062 0.15653072 -0.00922329 0.3506362 0.07945534 -0.030390712 0.15929317 -0.2027952 -0.21814701 -0.08554628 -0.1964259 -0.027901143 -0.4298474 -0.07537887 -0.052221257 -0.41743118 0.17428978 -0.22874944 0.0045372667 -0.2759509 0.02222739
2356 -0.11350846 -0.15378115 -0.1317246 -0.0068871803 -0.20528033 0.105165236 -0.084711894 0.027207674 -0.057564452 0.14466083 0.057677798 -0.045915697 0.045725726 -0.178173 -0.13948558 0.1226013 0.2939842 -0.41193452 0.07211787 0.05983345 -0.16421656 0.119523056 -0.11855184 -0.13063465 -0.32521448 0.026455013 -0.20197965 -0.016500948 -0.014174779 -0.011916757 -0.26809752 -0.13916181 0.14636867 -0.21774946 -0.2383911 0.2071471 0.27804363 0.28999215 -0.059131883 -0.1020319 0.060293328 -0.06076047 -0.14294408 0.040643845 -0.50220704 0.21672936 -0.019207535 -0.1270076 -0.11294211 0.03403846 0.25335285 0.04678761 0.46533042 -0.12912276 -0.04060726 0.0687374 0.23668277 -0.03770023 0.06863887 0.11047962 -0.008203506 -0.0932558 0.16744204 -0.13940468 -0.088374175 -0.16430248 0.10323182 -0.10258697 -0.15329188 -0.065295614 0.09288333 -0.3081262 -0.7053106 0.10653872 -0.12364018 -0.04250067 -0.12469766 -0.14545749 -0.26391095 0.22124316 0.008218883 0.032106854 -0.10585263 0.21334171 -0.32094386 -0.034538753 0.22785982 -0.017141974 0.22536255 0.020890197 -0.4921542 -0.05451053 0.23699714 0.04906495 0.31145754 0.2115688 0.0051707705 -0.2946172 -0.5376162 0.1012336 0.016818643 -0.17265682 -0.15436566 -0.021761373 0.24980739 -0.24255288 0.089638785 -0.26119927 0.33189064 -0.044887908 0.24040937 0.2510507 -0.16190638 -0.08762378 -0.43891793 0.054021582 -0.2554286 -0.1715554 0.04708643 -0.3593185 -0.104731515 -0.34781834 -0.08823522 0.107962035 -0.13721511 -0.07949786 0.11736211 -0.18397042
3437 0.043816157 -0.18943256 0.0018759144 -0.2257399 0.091986716 -0.07934425 0.27029553 -0.07059096 0.074148975 -0.06366923 0.4569842 0.0915763 -0.16224833 -0.22439222 -0.09677313 -0.23959023 -0.06641763 -0.06271833 -0.031966105 -0.36621377 0.37651202 0.07196577 -0.3130677 -0.40492243 -0.06264953 0.1394645 -0.24262963 -0.18559457 0.23446667 -0.04344143 -0.029007047 -0.2576517 0.112686396 -0.18590678 -0.056228504 0.33283198 0.08737397 -0.1953817 -0.048083644 0.22374675 -0.051506918 0.18007545 -0.00063113327 -0.18119371 0.054460183 0.1989821 -0.12671633 -0.11377972 -0.19329846 -0.20576912 0.16622038 -0.03867184 -0.11145615 0.018967696 0.24367848 -0.052349087 0.15622917 -0.32645836 -0.17061272 -0.042994194 0.22760738 -0.041690562 0.100439675 -0.13658975 -0.1037831 0.013810746 -0.0007956749 0.31251657 -0.06954288 -0.24391219 -0.22221467 -0.3042187 -0.73585767 -0.33762532 0.20528588 0.18336746 -0.010819107 0.16248158 -0.15010019 -0.061561313 -0.088736326 -0.052101452 -0.10859253 0.32529613 0.29062462 0.1703003 0.08425652 -0.15275292 0.2674278 0.13126883 -0.15170555 0.15303743 -0.11694403 0.097789586 0.27252433 0.19753382 0.070765205 0.17980328 -0.320004 -0.24767204 -0.104624204 -0.30411687 0.0159591 0.020591374 -0.011500217 -0.11847066 -0.12184535 0.10832347 0.19183457 -0.34641987 0.25267413 -0.18563272 -0.19537246 0.14639889 0.10511064 0.14736016 -0.05700575 -0.30058232 -0.3101398 0.08593405 -0.105783045 -0.1190856 -0.05577661 0.029573504 -0.14372793 0.13115764 -0.081279375 -0.24100749
3717 -0.0692833 0.011082639 -0.07117549 0.22997223 -0.040310625 -0.35442138 0.07839188 0.057776697 -0.015919939 0.03269589 0.49682626 -0.13159108 -0.0070392652 -0.11936706 0.16958779 -0.1536076 0.0019757263 0.11349633 0.14898719 -0.3160564 0.236114 0.13949496 -0.22491644 -0.21276467 -0.1065134 0.34911776 -0.2730378 -0.09698196 0.16649647 0.18938908 -0.03205538 -0.28368947 0.20042758 0.31093603 -0.289817 0.1004387 0.2592236 0.08328452 0.106720455 0.14285538 0.15026459 0.14273098 0.07749775 0.034327764 0.043732226 0.07575276 0.042791817 -0.1896184 -0.2533499 -0.005637576 0.04768197 -0.07276943 0.027418846 0.0003378143 0.04618944 -0.2402463 0.32954103 0.48520207 -0.0055953073 -0.3339154 -0.04087102 0.040241696 0.05258051 -0.35387853 -0.09527266 0.25042927 -0.079367526 -0.055820923 0.054354586 -0.049835347 0.06782301 -0.14142384 -0.33010587 -0.16292451 -0.075035736 -0.006889146 0.1186474 0.03857489 -0.05989006 -0.22904658 0.106753424 -0.009146733 -0.04163677 0.45256913 0.3993966 -0.090438426 0.2378562 0.06621977 -0.19504462 0.19398145 -0.4517712 -0.17480369 -0.024495807 0.05362526 0.29556572 0.21403916 -0.03361187 0.11711664 -0.112524696 -0.12505119 -0.09821268 -0.32921773 -0.12508783 -0.2782762 0.067050554 -0.101972 -0.0962336 0.38535988 0.06205515 0.17354462 0.24837363 -0.1624793 -0.07535675 -0.03571798 -0.10188934 0.052288722 -0.08874809 -0.36083198 -0.44705123 -0.28823322 -0.014187686 0.08053084 -0.26627406 -0.049067732 -0.1706077 0.16024548 -0.19342779 -0.23459792
3969 0.00995636 0.09188463 0.03227873 -0.002051097 0.1448061 -0.15035154 -0.24768922 -0.015438247 0.035829157 0.019780885 0.06378995 0.049939007 -0.038406797 -0.18840453 0.015167777 -0.01839589 0.03868881 -0.057882342 -0.014363342 -0.111091256 0.31693718 0.14548683 -0.23228842 -0.5301218 -0.26190603 -0.09272777 -0.084192276 -0.055772614 -0.07173282 0.101290725 -0.067930624 -0.018619478 0.18182027 0.12375735 -0.36789635 0.37183547 0.31082323 -0.027540706 -0.08688904 0.36961296 0.25140604 0.20479234 0.21100824 0.059538435 -0.0036859417 0.31849054 0.053819865 -0.042459298 -0.13015363 -0.2394309 0.1933461 0.25115013 0.01509569 -0.089854375 0.113246866 0.10384894 -0.008450499 -0.15902469 0.25317553 0.09862264 0.016388457 -0.16787353 0.21326661 0.03584488 -0.008541851 -0.096069515 0.28418294 0.0013766666 -0.46669912 -0.10771524 -0.037261736 0.09499766 -0.3387083 -0.19408049 -0.13384753 -0.059293017 -0.267374 0.0059755873 -0.17151587 0.07630736 -0.13319455 -0.115853004 -0.10405709 0.007844725 0.033610996 0.24932362 0.30884504 -0.033340186 -0.029843079 -0.015017095 -0.41354418 -0.2831409 0.11061128 0.0828064 0.27900615 0.09712165 -0.100929454 -0.133978 -0.15923354 0.0043807067 0.029029533 0.016705414 -0.35747635 -0.048341263 0.020232983 -0.12247292 0.13990945 0.0877806 0.19759259 -0.12841912 0.35822886 0.04798979 0.043932047 -0.06019712 -0.31132552 -0.07932805 -0.1259321 -0.18760416 -0.27807796 -0.090002954 -0.19014703 -0.029143244 0.06550352 -0.14513558 -0.08200521 -0.0012567336 -0.19657859 -0.40089804
3594 0.09701512 -0.24298379 0.13667777 0.11521091 -0.16157058 -0.17032462 0.13941978 -0.22239813 0.14341456 -0.14957862 0.08558234 -0.27541608 0.09121963 0.03196375 0.07409273 0.10354296 -0.05105357 -0.20035712 0.019638604 -0.22535273 0.42711964 0.16606624 -0.28889814 -0.3633338 -0.43415338 0.18647307 -0.27505767 -0.052176468 -0.101635225 0.29951382 0.019276418 0.15832987 -0.018710677 0.0691475 -0.020157946 0.1987333 0.14217383 0.22724588 -0.17992753 0.22422479 0.17691302 0.024430528 0.22198385 -0.11231732 -0.13650596 0.091390684 -0.01862771 -0.24364313 -0.25960207 -0.06285785 0.023823636 -0.12243794 0.19533236 0.22741792 0.11385035 0.1564448 0.11871162 -0.27519462 -0.28133285 0.09945944 0.14551999 0.0568383 0.11194783 -0.24252886 -0.054944534 -0.04202881 -0.10322209 -0.14107355 -0.20526034 -0.17106985 -0.045695387 -0.14521067 -0.4704916 -0.24663635 0.0009565888 0.074116066 0.10502607 0.31874916 -0.14495051 0.02627092 0.15445119 0.16407879 -0.09461074 0.34640193 0.11954277 0.016364658 0.28392744 0.087806776 -0.11375193 0.2984148 -0.1646195 -0.08537089 0.09439019 0.08804806 0.18538833 0.050015397 0.14816855 -0.24897105 -0.42153752 0.24004406 -0.011190871 -0.0125027625 -0.18230169 -0.07922432 0.05373254 -0.27410877 -0.1386334 -0.11585854 0.098594025 -0.16506644 0.20124383 -0.2162446 -0.21051 -0.020681435 -0.057649855 0.013094363 -0.00035985716 -0.04860767 -0.35228592 -0.23509419 -0.11294449 -0.10141972 -0.13142508 0.16039117 0.10905232 0.014959565 -0.19041112 -0.11451087
1804 0.032883484 -0.08385811 0.031480934 0.19565667 0.029418688 -0.059525967 0.10097401 0.22471008 0.3377747 -0.19333069 0.23405625 -0.10724668 -0.060417093 -0.31759506 0.23858549 -0.0640172 0.11221901 -0.22273417 -0.20478362 -0.31743452 0.003370992 0.061838116 -0.06828366 0.00346238 -0.29669324 0.042438976 0.21345063 -0.1844108 0.046298023 0.38729215 0.039731417 -0.30557498 -0.0581086 0.4434504 -0.16533786 0.10005096 -0.009142997 0.014742476 -0.04684781 0.24899258 0.23171279 -0.14874756 -0.0055921255 -0.1358921 0.11173903 0.19450498 0.18412514 -0.2405944 -0.3498978 -0.007016531 0.10264412 0.30656967 -0.14630812 -0.18497548 -0.03213163 0.018591864 0.48488158 -0.10698262 0.09879101 -0.11992316 0.2208426 -0.085925005 0.39202094 -0.08816887 -0.020875562 0.02748719 -0.012135815 0.05688229 -0.22891553 -0.3982725 -0.053864826 -0.12249083 -0.45787048 -0.087717 -0.11480487 -0.07501762 0.18393113 0.39598528 -0.04312541 0.11525806 0.013467944 0.14930326 -0.1736222 0.43844855 -0.009235162 0.23869346 0.3312833 0.089465305 0.011622249 0.08832183 -0.20057432 0.050891068 -0.045863863 0.04505676 0.27650988 -0.07037037 -0.08647102 -0.050292395 -0.31804797 0.18806994 0.002825696 0.15411963 -0.18248498 -0.20790644 0.09215233 -0.23208371 0.024855146 0.028758988 0.04164245 -0.39164463 0.21950938 -0.2019216 -0.035794362 -0.04718605 -0.15632278 0.031092338 -0.09795655 -0.39379507 -0.0558894 -0.27422723 -0.09134726 0.09911294 -0.09221623 0.24101737 0.0016867679 0.11009663 -0.09212712 -0.1590427
3979 -0.08387529 -0.012587072 -0.020748746 0.053243723 0.18650931 -0.14701173 0.31622306 -0.010803314 0.092301816 -0.15547533 0.21556307 -0.3976871 0.116519295 -0.12221897 0.057803866 -0.058231585 -0.075134195 -0.1972932 0.07759491 -0.4240488 0.3743487 0.24488835 -0.05617645 -0.2057802 -0.04512969 0.17695673 -0.03257213 -0.10119864 0.029758219 0.1639571 -0.02644666 -0.2331032 0.13778108 0.14894858 -0.16159429 0.46205106 0.049806688 -0.08436631 0.2265229 0.026178725 0.15256542 -0.0871383 0.07509117 -0.05612921 0.23358965 0.3069623 -0.26771852 0.052745394 -0.1316242 -0.19240129 0.057172142 0.25122157 0.14799176 0.1161309 0.027396673 -0.09439469 0.18181816 -0.035037044 0.23045364 -0.075790174 -0.104195826 0.067798816 0.1341446 -0.022171533 0.033948965 0.031074889 0.039550245 0.065514736 -0.16066773 -0.109993055 -0.0845192 0.029161956 -0.5147267 -0.15383676 -0.020629618 0.11857467 0.2781585 0.41783497 -0.04494959 -0.064203486 -0.01929054 0.012141577 -0.08897391 0.08675805 0.4531903 0.06981592 0.47298315 0.14570607 -0.2667937 0.070547245 -0.32124558 0.042038627 0.20087302 0.14026752 0.36168113 0.28127843 0.007885225 -0.03407544 -0.47760776 0.1107245 0.02113369 -0.3169614 -0.14396156 -0.11103435 0.076136075 -0.026115863 -0.12602568 -0.14124049 -0.047792926 -0.12852062 0.12765796 -0.07937695 0.022558069 0.047042113 -0.028313296 0.1570527 -0.17405736 -0.09203021 -0.4051752 -0.40765843 -0.2214232 -0.062658735 0.06470961 0.06516137 0.35366046 -0.19007078 -0.06545934 -0.040200226
2289 0.02189469 -0.22697493 0.030329224 0.13822688 0.11654989 -0.08484174 0.06211538 -0.06751318 0.1417382 0.09485626 0.2776727 -0.08527878 -0.006517002 -0.63818824 0.06374355 0.4571826 0.33780515 -0.3258648 0.046337795 0.009031154 -0.09049259 0.27315035 -0.011848993 -0.3865519 -0.22026573 0.22662856 0.05220344 0.16729975 -0.056552224 0.02530454 -0.026155276 0.23207486 0.08752464 0.049405 -0.0014135966 0.4206393 0.37046733 0.076559894 -0.17707258 0.13661785 -0.10576019 0.26816177 -0.048626117 0.16599491 0.027972324 0.36169204 -0.17177774 0.17343567 -0.33809137 -0.31407374 -0.051078312 -0.0070173093 0.1440916 -0.07107796 -0.14937495 0.03143876 0.10393073 -0.02261576 -0.094520904 -0.25415337 -0.015470974 -0.10820409 0.102188356 -0.28781548 0.07836703 -0.13111262 0.16579416 -0.12255983 -0.16605796 0.113963634 -0.008607277 -0.31289947 -0.4622479 -0.005313307 -0.13360304 0.14013676 -0.08330807 0.055428036 -0.011444116 -0.015794914 -0.0009676563 0.19654894 -0.2791178 0.20864794 0.08477106 0.24548915 0.23709565 0.07614565 -0.109745786 -0.123113856 -0.22872053 -0.069786616 0.24683455 0.031231519 0.33341023 0.31890175 -0.021214481 -0.40002933 -0.2967877 0.13164565 0.058969963 -0.08460072 0.062315583 -0.10399676 -0.043910667 -0.22941476 0.1328138 -0.09018561 -0.01769275 -0.03505692 0.14213198 0.0892572 0.051290575 0.07755592 -0.2699942 -0.04737393 -0.14733854 -0.09854592 -0.12259429 -0.13811705 0.19542491 -0.14400613 0.17930187 0.050016087 0.06873796 0.22597867 0.09997979 -0.04943592
2638 -0.050248995 0.010343982 -0.13991933 0.26000422 -0.011064707 -0.07428352 -0.2599318 -0.037266687 -0.03642263 0.11420542 0.19934025 -0.19622667 -0.2180213 -0.45718083 0.022021955 0.26134738 0.028743986 0.04014314 0.09312903 0.10044466 -0.014690866 0.4183174 -0.36337212 -0.2627674 -0.35047147 0.053990856 -0.2618842 0.05114387 -0.15977566 -0.29605165 0.11349865 0.15430097 0.04222203 -0.14810866 -0.20689689 0.21122478 0.4837469 -0.14969166 0.005746162 0.16742794 -0.03192852 0.12686288 -0.12280156 -0.107180886 -0.040707015 0.4016477 -0.0065939506 -0.20954461 -0.27442265 -0.1043123 0.11926743 0.09602189 0.025452731 -0.3348549 -0.25020036 0.014739141 0.21724296 -0.2324731 0.07678532 0.1401751 0.10904625 -0.0564801 0.08534644 -0.0071901297 0.1031595 0.074414864 0.20353936 0.06718927 -0.21947116 -0.1720706 0.14614113 -0.19057308 -0.4151884 -0.4443682 0.011875824 0.06425404 0.0013110818 0.08455157 0.0011195084 -0.10890889 -0.05260415 0.14278919 -0.06781169 -0.1770734 -0.060236204 0.17188577 -0.0120773995 0.08510375 -0.16497923 -0.012420699 -0.38959032 -0.45171675 0.010692814 -0.101423725 0.2689214 0.03704424 0.067006774 -0.055729315 -0.33993858 -0.0412206 0.06505881 -0.0042819586 -0.14745036 -0.27397627 0.13710715 -0.069137275 0.09457551 -0.05812748 0.056099456 0.013023937 0.19522533 -0.16033399 -0.018752765 -0.19290756 -0.21458979 -0.032418206 -0.17796178 -0.2289208 -0.09174368 -0.103556775 0.007964771 -0.3917305 -0.08758784 0.21165466 0.07834724 -0.0031662777 -0.06363416 0.03430229
3701 -0.08870501 -0.08748566 0.0172533 0.13789116 -0.17244881 -0.23430276 -0.2441061 -0.025169747 0.4795455 0.06883544 -0.0689247 -0.13312493 -0.032854095 -0.5723451 0.2174739 -0.12411741 0.1835283 0.06474796 -0.0068621365 0.029871164 0.010183417 -0.036250845 -0.32115355 -0.2663372 -0.27731913 0.09897037 0.008080004 -0.026412863 -0.20742537 -0.104612045 -0.15819977 -0.0058895787 -0.12829556 0.050358072 -0.025193097 0.21458197 0.5473218 0.2953318 -0.057305545 -0.068760104 -0.19275679 0.0076570353 0.0052789194 -0.12134493 -0.21764845 0.42039222 -0.17654473 -0.16935675 -0.18950953 -0.020339048 -0.22510128 -0.019316675 0.19160813 -0.009023414 -0.2574649 -0.24611188 -0.010161267 -0.08064623 -0.05290219 -0.14543565 -0.012908079 0.07444817 0.11273386 -0.06238211 0.10200398 0.1562608 -0.03686459 -0.055935618 -0.12145405 0.009508669 -0.14167918 -0.077148005 -0.40664005 -0.10718946 0.28598198 -0.09188123 -0.11735408 -0.027932523 -0.285431 0.29046938 -0.017943004 0.16993152 -0.12351836 0.2963569 -0.1462383 0.037919782 0.17051584 -0.107092425 -0.12756428 0.08375078 -0.24098836 -0.38522395 0.09890619 0.051108178 0.02286315 0.09147621 0.07683358 -0.2808979 -0.3413334 0.29712763 -0.113698654 0.16721708 0.07897905 -0.018304905 -0.077181235 -0.06743206 -0.05456302 0.10936703 0.23972239 -0.20838529 0.07168475 -0.322006 0.14437875 -0.07102674 -0.28512985 -0.22112209 -0.08925475 -0.22261004 0.18031831 -0.32147953 -0.06813911 -0.22098419 0.07867784 -0.028066393 -0.012931907 0.1490524 -0.055902068 -0.2702938
3729 -0.2505209 0.25504717 -0.09295519 -0.09922509 -0.120550096 -0.021282861 -0.074255906 0.368291 0.17404163 -0.24865687 0.06902085 0.118888535 -0.33342206 -0.42228183 0.019614918 -0.10054978 -0.091298744 0.09759652 0.067039005 0.12599061 -0.079749905 0.2529338 -0.184634 -0.3220535 0.112337135 -0.3173609 0.11489666 -0.104918756 0.11379485 -0.3648467 0.033692624 -0.02461293 -0.11848777 0.27952912 -0.23993826 0.20032191 0.02020526 -0.23666032 -0.4100499 -0.1266877 -0.31643295 -0.16411127 -0.22607026 0.09310741 -0.16004796 0.19952674 0.16362302 -0.07668829 -0.25694546 0.02045407 -0.1351363 -0.15866585 -0.010194072 -0.24207786 0.3433421 -0.039859354 0.24898015 -0.07646663 0.1719726 0.24845889 -0.005958665 -0.06640716 0.16292453 -0.36213583 -0.41463116 -0.11805362 0.059836417 -0.044439033 -0.31237286 0.12900075 -0.17757481 0.27326554 -0.164787 0.28952652 0.031606052 -0.16817486 0.06995386 -0.26060686 -0.48271248 -0.095741354 -0.16550952 0.08104612 0.06583438 0.086895265 0.21317987 0.37118074 0.08470773 0.30159435 -0.1639503 0.1719014 -0.020733617 -0.35822222 0.4579819 0.1165015 0.28813866 -0.14980537 -0.073901825 -0.12116404 -0.32232797 0.5003818 -0.09648367 -0.1863006 -0.107495636 -0.21887955 0.054887224 -0.14240353 -0.20685564 0.23796396 0.10361081 -0.16068473 0.47323433 0.41425648 0.18741518 -0.020419026 -0.24121557 -0.071298465 0.16146697 0.26991865 -0.08600189 -0.055305284 -0.12772363 -0.026248625 -0.132484 0.33426678 0.023648214 0.13709556 0.1426879 -0.3522102
3690 0.0050780303 0.2812865 0.18351452 0.04756874 0.19917914 -0.33913276 0.15929884 0.41211337 -0.34051272 0.5316524 0.23783368 0.06906416 -0.09985226 -0.50700176 0.0580475 -0.22672148 0.3771516 0.20559189 -0.18040276 0.10610316 0.073503636 -0.16951309 -0.31905463 -0.20613936 0.11438684 0.17747664 -0.112528816 0.38614905 0.22936405 0.0075658374 0.12123149 0.14870578 -0.023447892 0.055644784 -0.039136227 0.36841783 0.16007398 -0.022322115 0.10652916 -0.005969382 -0.25052017 -0.07597327 -0.011994382 0.15890855 -0.018294232 0.10835841 -0.008015154 -0.03660703 -0.14593114 -0.047337122 0.60543823 -0.13133799 0.013665175 -0.2096776 0.007915699 0.016673585 0.85557926 -0.051142894 0.10901839 0.34189355 0.000457999 0.2026899 0.12190753 -0.1082146 0.27463713 0.12597732 -0.07570085 -0.1622914 0.1916373 0.07965371 -0.09336063 -0.025128651 -0.06955637 -0.067457415 0.31050387 -0.13072994 0.18538271 0.16708918 -0.33750167 0.25322053 -0.41139337 -0.03518372 0.11974773 0.33769894 -0.44314367 0.2686377 0.10154846 -0.024828259 -0.011970902 -0.03145758 -0.06351112 -0.044703368 0.18854354 0.2734641 0.1939662 0.4429966 0.30065814 -0.046100914 -0.06194282 0.09355182 0.25499544 -0.4008354 -0.3693093 -0.12058823 -0.61337245 0.08997826 -0.15361492 -0.043380916 -0.24510023 -0.4523209 0.14577255 -0.11316999 -0.10060277 -0.06640709 0.28469485 0.23139371 0.050258458 0.09789486 0.04658008 -0.008461679 0.11969955 0.054804668 -0.24989578 0.27340028 0.096489325 0.2777356 0.23188458 0.042909045
80 -0.030060796 0.11797263 -0.079698466 0.17528257 -0.040349346 -0.05979189 0.19381173 -0.12872712 0.17428857 -0.2583363 0.26152962 -0.0706593 0.016229548 -0.21406591 0.091124676 -0.051644467 0.26437053 -0.059598107 0.29602554 -0.5839012 -0.14000559 0.44687393 -0.35311913 -0.24785113 -0.18331805 0.079491876 -0.11835828 0.19899903 0.025007159 0.20786253 0.09743795 -0.23858935 0.085241795 0.22207412 -0.09828168 0.0030159676 -0.010295506 0.3358551 0.14977735 0.22809447 -0.26216653 -0.2992522 0.29541257 -0.33852988 0.27249122 0.07945929 -0.37993407 -0.49577534 -0.49573475 -0.26048383 0.18070574 0.078610614 0.022680124 -0.111169614 0.09860917 0.009295986 0.4175589 -0.06678953 0.019286592 -0.070345365 -0.08730009 0.1800472 0.19691174 -0.08956717 -0.019273844 -0.005382787 0.0014372383 0.10383733 -0.1716578 -0.07346672 -0.10810849 0.058197714 -0.2890529 -0.1099086 -0.0234741 -0.056518346 -0.03180923 0.58471656 -0.02916068 -0.5002633 0.09235595 0.024435451 -0.0053691366 0.23788726 0.36175758 0.15165433 0.15433769 -0.12468886 -0.32022408 -0.271558 0.01364196 -0.099426955 -0.019466598 0.38948935 0.40718 -0.03337103 0.044292293 -0.16484694 -0.4438226 -0.20549214 0.040440194 -0.5380229 0.03068828 0.1649712 -0.18899341 -0.3032945 -0.024355337 -0.12843537 -0.17287922 -0.028218448 0.27615896 0.069091976 -0.011311208 -0.19721432 0.19591346 0.07961209 -0.04992505 -0.16758864 0.069649264 -0.18358733 -0.18879941 0.013759672 0.079161875 -0.04411373 -0.14140034 0.04605624 -0.048195038 -0.10313186
2192 -0.36870417 0.2653615 -0.22498675 0.14265941 -0.3510695 0.06069776 -0.010886652 0.13683252 -0.06677811 0.35948512 0.26395395 -0.036333457 0.04525522 -0.19918893 -0.34776255 -0.17087758 0.079566576 -0.08698016 -0.103414536 0.17739765 0.26616296 -0.22164293 0.103995435 -0.60227984 0.006603518 -0.0029216968 -0.39001065 0.0997248 -0.024179518 -0.11964812 -0.205522 -0.15967605 0.10563926 0.123880036 0.07116545 -0.042958725 0.46727043 0.015887251 -0.09495256 -0.02074696 -0.18789439 -0.18202662 0.053792413 -0.12998249 -0.026935656 0.45358932 -0.16332404 -0.46721253 -0.11842313 0.24066383 0.19460468 0.3817476 -0.0050197644 -0.0644656 -0.23642665 -0.1304743 0.17681788 -0.42097294 0.20552395 0.20778964 -0.21475634 0.019458063 0.123667374 -0.16311488 -0.06856217 -0.11295411 -0.4495408 0.13091606 -0.13947546 0.11750934 0.24209255 -0.16090864 -0.115786545 -0.38821113 0.31446853 0.29469058 0.15913361 -0.06334713 0.047857866 -0.15348496 0.030197492 0.104712114 -0.16135325 -0.0008199738 0.027096199 0.008185054 0.10610845 0.09892183 0.02892247 -0.1660661 0.00418538 -0.06607342 0.32116082 -0.11303326 0.23138422 0.2345635 -0.18601485 -0.17910518 -0.27747986 0.19211608 -0.11568325 0.11888142 0.11181027 -0.4238136 -0.14120747 -0.2511986 0.069299914 0.1300383 0.08148719 -0.265838 0.3087609 -0.4473485 0.12068662 0.047513258 -0.30996498 0.073654965 -0.19725534 0.14849532 -0.13215734 -0.38761252 -0.09532683 -0.1337977 -0.16465297 0.0035004537 -0.2995968 0.029923663 -0.24685025 -0.20720816
209 -0.12196943 0.04241379 -0.17299749 -0.14564215 -0.19220479 -0.06096817 -0.002496988 -0.11938296 0.4479634 0.19117215 0.12454725 0.0724461 0.26506022 -0.4392935 0.03374223 0.2409518 -0.0002017274 -0.17304584 -0.34928307 0.036031064 -0.20326619 0.054993935 -0.23621462 -0.15429404 0.07836115 0.10620509 -0.18837 -0.06592174 -0.23000832 -0.18261783 -0.03807008 -0.082540534 -0.23272195 0.2118136 -0.042500224 0.32990932 0.64788866 0.06273261 0.0015353922 0.18509738 -0.105245456 0.061709788 -0.10731246 0.07903093 0.1818212 0.49955893 0.028781082 -0.2008239 -0.18467675 -0.079667665 0.27601352 0.031343274 -0.05717484 -0.11895542 -0.029824475 0.09596765 -0.006157312 0.13003454 -0.2428109 -0.10004854 -0.09801689 -0.17430305 0.3206391 -0.32737306 -0.032973867 -0.059341576 -0.073873416 -0.40014607 -0.31713042 0.042362753 0.25682193 -0.20470096 -0.46008927 -0.08817873 -0.0027980085 -0.124090604 -0.06582299 -0.033804428 -0.012852931 0.0010691376 -0.03173005 0.15135795 -0.17901166 0.13521756 -0.014374899 0.10395738 -0.08708 -0.07995157 0.004959559 -0.05114745 -0.19051272 -0.4913681 0.10082614 0.05055059 -0.15527646 0.13058914 0.102216996 0.02263943 -0.3777434 0.03472968 0.046216987 0.030828869 -0.16762577 -0.0132445665 0.23506895 0.028849497 -0.057387408 0.012578705 0.29662138 -0.09956595 0.18499899 0.06807591 0.13981436 -0.014475873 -0.06116985 -0.31151208 -0.30150777 0.026219249 0.076728776 -0.019842317 0.15287095 -0.16528012 0.0003987851 0.059178274 0.09291841 0.033845823 0.22336613 -0.29871163
3499 0.039499003 0.11910331 0.16573854 0.11971365 -0.10108771 0.029121824 0.18014017 -0.15453428 0.10550287 0.20586234 0.33105156 -0.24451129 0.31554526 -0.3299046 -0.14549284 0.103630416 -0.011185247 0.12263226 0.08021511 -0.38413668 0.08577371 0.11489975 -0.03564002 -0.008104772 -0.28660285 -0.10589199 -0.10373766 -0.40490928 0.14408457 -0.16369714 -0.21207465 -0.32137555 0.10870246 0.21477754 -0.18022409 0.24820209 0.37780765 0.074685484 -0.12028425 -0.028736642 0.010245831 -0.017067209 -0.28318962 -0.039280806 0.11412544 0.29397294 -0.14898334 -0.040549856 -0.13942206 0.09565906 0.102003954 0.22487304 0.30589288 -0.068612 -0.09931146 0.07119391 0.21131198 0.016742887 -0.22364396 -0.10518988 0.118517734 -0.0051945616 0.129865 -0.23210438 0.36940396 -0.07012408 0.13984975 -0.24844141 -0.24689645 0.14015026 -0.08941556 0.045088444 -0.4185295 0.2151971 0.22618118 -0.27484572 0.048577752 0.061490826 0.009962072 0.15683241 -0.18573834 0.16988826 -0.059415214 0.18743095 0.037558142 0.05482517 0.14303117 -0.13781409 0.12447724 -0.079445496 -0.080025196 -0.18279241 0.17902571 -0.034466773 0.33353156 0.40988365 0.06837887 0.20479208 -0.34262696 0.53174675 0.09968255 -0.32484484 -0.07272862 -0.3143042 -0.03468192 -0.08574374 -0.110182524 -0.008519646 -0.2034897 -0.041529942 0.09671444 -0.14591573 0.23975946 -0.2976543 -0.1186319 0.031995423 -0.32281932 -0.1273548 -0.36314717 -0.049427595 0.006898858 0.058232456 0.03469715 0.11139996 -0.20438774 0.10464767 0.16427706 -0.008956934
2902 -0.1470373 0.11043122 0.10430539 -0.14868997 0.25543016 0.10337542 0.021981167 0.12486689 -0.57290715 -0.07284591 0.23334229 -0.029061098 -0.17936604 0.09725894 0.102575 -0.278916 0.101139285 -0.099115 -0.36750183 0.1967765 -0.055727433 0.044024035 -0.38549778 -0.33099422 0.074031845 0.07578094 -0.093309276 0.28348154 0.30400944 0.1617401 -0.009035928 -0.035273485 -0.17055316 0.06835639 0.17917582 0.2996182 0.123804964 -0.013886345 0.20582029 0.13836394 -0.26116395 -0.29111335 0.031972304 0.26562202 -0.17918421 0.42756924 -0.15066507 -0.16209553 -0.31967184 0.01285623 0.20869416 0.13171184 -0.17566904 -0.03136041 -0.39602652 -0.33629465 0.14986236 -0.21689925 0.18972544 0.28469104 -0.030951615 0.05535385 0.1634898 -0.35165516 -0.015335954 -0.09856272 -0.2768971 0.36524177 -0.044434987 0.20473625 -0.0060454803 0.15171592 -0.24484178 -0.1410174 0.24350178 -0.29707474 -0.15629728 0.43809706 -0.23880261 0.08666963 -0.09699813 0.329253 0.17719464 0.37906036 0.2915927 0.15822077 0.114138566 -0.39394137 -0.22295275 0.049002446 0.27046445 -0.14931986 0.27698305 -0.053307906 0.19838011 -0.11950534 -0.2836741 -0.10727768 -0.20210508 0.05197402 -0.26549745 -0.5496104 -0.3573713 -0.15947892 0.08892103 0.31952307 0.012825913 -0.1944775 0.026733428 -0.36028212 -0.021292325 -0.26888233 0.15594189 -0.15307632 0.19940867 0.17981672 -0.029943196 -0.17582995 0.0017993393 0.08919985 0.24090597 -0.09429611 -0.55592537 -0.026207557 -0.13607173 -0.28917694 -0.0761437 -0.4076291
3031 0.2659803 0.045537196 -0.04817357 0.104046084 0.33518 0.018718928 0.090558976 0.05153072 0.0661659 -0.1430424 0.08845984 0.03964068 0.036757495 -0.11844181 -0.11342863 0.12776397 0.07606917 -0.116669856 -0.04819702 -0.04126847 0.28924263 0.010105918 0.043494444 0.02864908 -0.30140248 0.08060319 -0.10675185 0.10440495 -0.036053676 -0.039664757 -0.20617692 -0.043226887 0.25365493 -0.054116923 0.13054253 0.46259657 0.16974685 -0.22891924 -0.094358936 0.1271563 0.22588606 0.07831975 0.08146824 -0.1768988 0.058124967 0.5461517 0.0016227119 -0.3432806 -0.25313187 -0.17319845 0.16219567 0.32551593 0.3039755 -0.027990663 0.0015454614 -0.03938545 0.100721195 -0.1800115 0.18277897 -0.09161793 -0.01989547 -0.19994311 0.19905663 0.09589741 -0.1199591 0.053451616 0.06481485 0.07204977 -0.096817255 0.111076005 -0.2858304 0.0042431382 -0.5252826 -0.28826863 0.04861762 0.1096166 -0.15106656 0.38023067 0.12925059 0.088922426 -0.22913747 -0.051896937 0.21971644 0.044757105 0.23940708 0.06511118 0.20654391 0.2075283 -0.22125587 0.1907107 -0.11411608 -0.36549753 0.03974956 0.6711193 0.040447943 0.10624737 0.024804601 -0.027436092 -0.44596493 0.5305421 -0.00070223806 -0.19428778 -0.27659422 -0.05987445 -0.14311449 -0.24875747 -0.14055103 0.046378024 0.42322344 -0.28611636 0.052426435 -0.30960387 -0.120900795 -0.33126938 -0.0879215 -0.07121329 -0.14175913 -0.23873852 -0.15125978 -0.21654947 -0.1126823 -0.3893562 0.08971234 0.002383805 -0.107717484 0.03295917 -0.21840376 0.04316621
1344 -0.04953387 0.31432065 -0.20624948 0.23531142 -0.07219303 0.031850614 0.21151823 0.17111093 -0.006883224 -0.2329521 0.103604056 -0.07054257 0.35810265 -0.09104416 0.13672984 -0.0051702177 -0.17982617 -0.36932617 -0.20258218 -0.22769503 0.14765322 0.06495361 -0.031468287 -0.14505029 -0.35716558 0.35642654 -0.12537363 0.059155144 -0.2583723 0.32311952 -0.17953718 0.1405602 0.000348313 0.3524266 -0.18198314 0.39561996 0.28268284 -0.12200829 0.13316402 0.11849026 -0.08531441 0.10523068 0.17042725 -0.1456706 0.18707891 0.2122828 -0.043635983 -0.29841396 -0.22898175 -0.15953913 0.15025762 0.13502191 0.054518234 -0.25892305 -0.016492175 -0.21294224 0.03423557 -0.06460246 0.0037969998 -0.28733975 0.3267545 -0.06926931 0.013356354 -0.17546292 -0.19152439 0.054347467 -0.17568798 -0.13315205 -0.008762442 -0.10424119 -0.013250668 -0.15834366 -0.446246 -0.034139004 -0.14151347 0.008054788 0.1173673 0.20604035 -0.05380251 -0.050024707 -0.13297766 -0.041228615 -0.13543119 0.25436065 0.03216132 0.1077324 0.60548574 -0.031327136 -0.05259354 -0.1677846 -0.44658417 0.0143092405 0.17955598 0.06529291 0.48114192 0.19623448 -0.07618269 -0.04613494 -0.07622298 0.06978333 0.1701791 -0.13650827 -0.22297372 0.15738064 -0.24881858 0.11489928 -0.19345689 0.054896902 0.057807416 -0.092500314 0.21096951 -0.015931057 -0.26515406 -0.038033348 0.10179781 -0.024766564 0.15971747 -0.057643425 -0.054644506 -0.19263564 -0.2789221 -0.20905101 -0.16453794 0.056269318 -0.06726274 -0.28524998 -0.101445 0.20299453
4105 -0.19441837 -0.28420982 -0.048365083 -0.06730609 -0.017152503 -0.30264428 0.39886078 -0.0611214 -0.2153147 -0.07674904 0.3330899 -0.32553327 -0.09434426 -0.24604274 0.059989236 0.1352563 0.13304207 0.42825818 0.049451627 0.02790409 0.26573947 -0.09384771 0.009849241 0.16306959 0.010575192 0.13172048 -0.15489076 0.04347308 -0.024372073 0.3803016 -0.36068925 -0.18686469 0.24721697 -0.18899645 0.008708752 0.21568166 0.06600389 -0.012489859 0.06254984 0.115326874 0.20088361 -0.08298779 0.42632332 -0.42259014 -0.059873167 0.30981067 -0.15511316 -0.2693883 -0.15032838 -0.11556209 0.29178014 -0.03944355 0.37325448 -0.12290778 -0.20879763 -0.2011714 0.27719674 -0.08071311 0.029821256 0.16605258 0.05343045 -0.15313779 -0.19226302 0.011909829 -0.028118167 0.22665109 -0.15630184 -0.09380237 -0.17738864 -0.14615625 -0.06945235 -0.113145046 -0.65928894 -0.1311187 -0.026486628 -0.063561775 -0.0056227823 0.19218062 0.22686252 -0.32983473 0.045578215 0.06102265 -0.25141034 0.11861734 0.22793002 -0.046836242 0.32106286 -0.058500182 0.09385182 0.31220534 -0.12837882 -0.15389554 0.3454505 0.16010405 0.23998354 -0.06692839 0.073160306 0.057068564 -0.22384866 0.14089847 -0.16575642 -0.06855695 0.080361694 0.11350447 -0.04121766 0.11415383 -0.19878106 0.16110112 -0.15836391 -0.35298437 0.09651825 -0.07243916 0.22306114 -0.16772123 -0.053423367 0.15065548 -0.23155075 0.019324861 -0.23462111 -0.2089013 0.027058769 -0.28169075 0.07135615 0.0957849 0.108131014 -0.21451293 -0.022039346 0.018870598
3524 -0.24433376 -0.052192472 0.03632298 0.016965229 0.2115185 -0.012009849 -0.041951455 0.010379611 0.14459783 -0.21436366 0.15039656 -0.21251334 0.26068562 -0.23501086 -0.2184075 0.241371 0.005364344 0.07858307 -0.23208445 -0.1658119 0.123165846 0.13378869 -0.042533513 -0.30132765 -0.24919023 0.10613749 -0.2598391 0.015153733 -0.21804152 -0.018690005 -0.022255711 0.052685473 0.11904692 0.11509704 -0.104279764 0.5944609 0.13830999 -0.072421804 -0.3181367 0.36717027 0.33147997 0.036525115 0.352254 -0.21046142 0.013012261 0.4383177 0.15516743 -0.09564413 -0.3204666 -0.010389882 0.041042216 -0.030603593 0.31588465 -0.05544838 0.1326308 -0.19142132 -0.13858412 -0.14611529 0.061096508 0.1632115 0.1514662 0.050309986 0.14187834 -0.08266337 0.1562545 0.2280837 -0.07697356 0.09188514 -0.1590211 -0.001994127 -0.18960421 -0.233353 -0.5910135 -0.07496351 0.0471667 -0.1041136 0.19917169 0.03895244 -0.007555023 -0.18001342 -0.20649154 -0.33421004 0.018923558 0.04113632 0.52225745 0.09189028 0.3064962 0.121106274 -0.11230021 -0.12047769 0.14004572 -0.19965439 0.1394497 -0.020576049 0.34638432 0.07082095 -0.15502593 0.1294495 -0.51423824 0.34731895 -0.072656386 0.12114047 -0.17979589 -0.24739201 -0.10495337 -0.3603641 0.14337541 0.2457708 -0.26770708 -0.28757343 0.1401901 -0.18886358 0.019929731 0.3278655 0.17764796 -0.04736438 -0.13302532 0.21522151 -0.15883493 -0.3496998 -0.12393185 -0.04693288 -0.077750444 -0.16980053 0.07237548 0.25125456 0.000867517 -0.034685712
1420 -0.0776446 -0.15807962 0.059120487 0.13148426 -0.07475116 -0.24175386 0.012113669 0.1367054 0.22891344 0.29663306 0.21328788 -0.043655526 -0.07123225 -0.13813522 0.01760711 0.27236274 -0.101153366 -0.20087714 0.11026254 0.09260027 -0.25548205 0.055643573 -0.0824737 -0.28313604 -0.34582192 0.20862159 -0.044956915 0.06926135 -0.047491696 -0.08281353 0.06967129 0.081164286 0.16613418 0.17411757 -0.3587367 0.13096021 0.39435834 0.483378 -0.10018392 0.09087952 0.048282217 0.03995954 0.058540408 0.029001705 -0.1318876 0.2763088 -0.27740407 -0.05827874 -0.15548605 -0.17985246 0.27746904 -0.052766137 0.13534327 -0.07247485 -0.09018184 -0.0062525915 -0.07791282 -0.29358548 -0.018163657 0.09187451 -0.034590345 -0.019201376 -0.043015644 -0.24534577 -0.12162749 0.03777089 0.015586649 -0.14921406 -0.19831087 0.034962546 0.05411773 -0.22156483 -0.35532573 -0.058560103 0.051070355 -0.0094172275 0.03934284 -0.27836677 0.04077125 0.25837034 -0.01612476 0.3081936 -0.082233705 0.19284329 -0.07498443 -0.03219913 0.108817816 0.09985021 -0.07175161 0.008091013 -0.34012654 -0.16101278 0.14922068 -0.16299555 0.301684 0.24875662 0.099348806 -0.48934948 -0.31116664 0.1887817 -0.03982633 0.19724208 -0.2213199 -0.1252117 -0.09542487 0.047535166 0.13364196 -0.08628759 0.018145366 -0.1647084 0.23473042 0.067274824 -0.06843318 -0.13001004 -0.14773104 -0.25275007 -0.14272496 -0.047662396 0.05653553 -0.22992508 0.1282912 -0.3771709 -0.015193701 0.20153403 -0.10735474 -0.032485124 0.029958744 -0.27609062
4197 -0.069647685 -0.22088347 0.084669255 0.14604454 0.17968707 -0.07486508 -0.23446372 0.30823907 0.3816344 0.11801289 0.039880887 0.123641804 -0.06493535 -0.32470715 0.30747485 0.030559245 0.28962046 -0.052548897 0.048903227 0.055549465 -0.121381566 0.09371005 0.10501528 -0.36048225 -0.097258545 0.19427575 -0.022405023 -0.05491912 -0.11002342 -0.258515 -0.008893683 0.012047182 0.1378811 -0.019218473 -0.45019728 -0.017814407 0.28774026 0.25397974 -0.29411155 -0.0963638 -0.30048445 -0.016079199 -0.1312181 -0.14716285 -0.32679975 0.28244585 -0.101261534 -0.24401242 -0.16161421 -0.046701375 -0.07390901 0.16141844 0.44749272 -0.03339433 0.06723263 0.12703976 -0.0059749354 -0.16579038 0.075885095 -0.04724263 0.061644316 0.021133259 0.14551927 -0.27867836 0.032935835 0.07810008 0.19695657 -0.13520555 -0.15863672 0.025249982 -0.18531787 -0.015681751 -0.35344547 -0.10236755 -0.15120116 -0.019174576 0.056955542 -0.021657107 -0.26449135 -0.07958268 -0.027161006 0.20488328 -0.31600168 0.2609497 -0.3008441 0.16550918 0.3131848 -0.08461289 -0.16027093 -0.24746999 -0.2263165 -0.29186085 0.13922453 0.30584347 0.0798238 0.25377473 0.054569043 -0.30073944 -0.3509026 0.25158584 -0.03408623 -0.13839729 -0.12448186 0.009902645 0.17367212 -0.027066246 0.1601238 0.0297702 0.095194034 -0.24169001 0.25116098 -0.2081904 -0.028194265 -0.24258788 -0.18484518 -0.008999686 -0.0724916 -0.13761011 -0.0020557772 -0.06432677 -0.13219613 -0.3685331 0.004249649 -0.049563717 0.17309833 -0.12855631 -0.21967648 -0.15017429
1775 -0.17885582 -0.16189307 0.13340594 0.13659284 0.07448187 0.04911382 -0.104373544 0.17475884 -0.02672157 0.27214164 0.1968132 0.17488307 -0.016944056 -0.2167864 -0.0154289445 0.16877942 -0.012653278 -0.17285845 -0.002048444 -0.19157872 -0.18264672 -0.117932834 -0.20409189 -0.33647758 0.045532722 0.10983901 -3.062449e-05 0.017058287 -0.15739278 -0.2064941 0.12113424 0.026207235 0.26973557 0.1792548 -0.35104075 0.48716316 0.3771397 0.15545988 0.016242923 -0.049717057 -0.0615742 -0.0933821 -0.24361232 -0.042997174 -0.27396402 0.50920886 -0.054492805 -0.037835363 -0.13426492 0.16184017 -0.17747013 -0.026446346 0.30784106 0.11808695 -0.009781272 0.10731298 0.0135678975 -0.23690788 0.09218022 0.067570485 0.19504082 0.027874533 0.31643075 -0.03308752 -0.101922296 -0.07318537 0.06633675 -0.24315932 -0.11755934 0.13388324 0.07117174 0.11150367 -0.2649503 -0.21083337 -0.02383686 0.21854457 -0.22866479 0.17545913 0.023521556 -0.015090205 -0.08896327 0.14605802 -0.0980727 0.14013056 0.02322007 -0.024325447 0.40101093 -0.10728135 -0.16986461 -0.017518355 -0.16910344 0.038448997 0.2847088 0.1599026 0.16800413 0.003432719 0.068904996 -0.31033543 -0.50306237 0.20325935 -0.075436845 -0.24691702 0.14996755 -0.15007573 -0.0031310252 -0.012718633 0.25644886 -0.022863412 0.4226389 0.036404304 0.31311283 0.014835021 0.1648579 -0.33085197 -0.3062762 -0.084768556 -0.69549376 -0.0060347514 -0.13325644 -0.19931395 -0.12919411 -0.28968507 -0.06434329 0.28892657 0.2497415 -0.047461126 -0.17626426 -0.11741326
3559 -0.09932639 -0.06550961 -0.01791353 0.1520915 0.039700717 -0.014117092 -0.24498424 0.005400522 0.2339324 -0.064778484 0.13239366 0.17867875 -0.08710354 -0.3349131 0.21298891 0.16741483 0.024951456 0.056514405 0.09192142 0.07872803 -0.114950776 0.1976819 -0.14868256 -0.40167624 -0.14430322 -0.15245996 -0.04195957 0.113178186 -0.20384367 -0.35931206 0.12014251 0.07027494 0.028187038 0.028170038 0.0971113 0.20479259 0.18976068 0.08248153 -0.4159955 -0.05265439 -0.080563925 0.1987987 0.01569571 -0.19347739 -0.11180308 0.21986829 -0.07197598 -0.14559604 -0.046055216 -0.010982989 -0.010168935 0.24435829 0.12592667 -0.07840823 0.109442145 -0.08106406 0.076155014 -0.093015425 0.08574397 -0.13640417 0.08802857 0.10930105 0.17417195 -0.33669934 0.12050907 0.12634608 0.0062657567 0.14501084 -0.20730303 -0.26900807 0.095240735 -0.27706662 -0.34158742 -0.057930507 0.08252939 0.041440018 -0.06379567 -0.10405627 -0.06024826 -0.073714755 0.031495556 0.19841237 0.084132954 0.083329685 -0.2807894 0.18849273 0.60600126 0.1460094 -0.13454878 -0.14364682 -0.05915043 -0.47473735 0.27231324 0.05070383 0.037211612 0.30346832 0.13940808 -0.29041725 -0.44396642 -0.11233097 0.023742625 -0.07592252 0.027235387 -0.1969006 0.22194621 0.15737058 0.12432795 0.043140985 0.009020262 -0.3352573 0.39028287 -0.06414945 0.12608492 -0.1422627 -0.36468166 -0.24458346 -0.30796918 -0.017584508 -0.08694948 -0.27077106 0.19710559 -0.5960064 -0.07065215 -0.016765516 -0.075887084 0.006829429 0.03035884 -0.17224593
4074 -0.08024804 0.13385823 0.12041256 -0.08980935 0.0037678757 0.18645462 0.15727949 1.7436396e-05 -0.45694405 0.17390904 0.061253425 -0.13223706 -0.10056295 -0.09717748 0.39552075 0.07512717 0.37335962 -0.02694481 0.29278362 0.08226099 -0.23487973 -0.20549308 -0.21626244 -0.5317696 0.19062093 0.15160425 -0.08114196 0.10856249 0.15728976 -0.19786687 0.1881544 -0.061048776 -0.07374464 0.18662554 0.008781081 0.31729758 0.16130899 0.015154978 0.27714863 0.046988774 -0.20355798 -0.198929 0.55332345 0.28933486 -0.11159728 0.2439047 -0.22355634 -0.23615205 0.06266401 0.0039670807 0.5403923 -0.12542316 0.08745803 -0.110696 0.032147296 -0.21277161 0.5001156 -0.144293 0.0829612 0.2131904 -0.0037500046 -0.3336145 0.14183587 -0.084291145 -0.025217472 0.12385023 -0.06452053 0.16611937 -0.0335013 -0.5587194 -0.21293275 -0.012948644 -0.47298148 -0.23431465 0.089228265 -0.27940765 0.18330684 0.16966139 -0.36959386 0.10464743 0.026465815 0.0071943756 0.17714484 0.39759043 -0.12908985 0.1836973 -0.029413788 0.017397573 0.16423245 0.27053604 0.13433136 -0.19443485 0.40676358 0.22347295 0.32879314 -0.28478003 0.067981675 0.1724481 -0.14513408 0.14491957 -0.26133227 -0.1554445 -0.32495394 -0.16708235 -0.32347715 0.15889472 0.07847515 0.3822321 -0.4337 -0.26791713 -0.15071015 -0.17352866 0.5329394 -0.052435875 -0.20980355 0.21298975 0.029978245 0.23447908 0.11281354 -0.28254145 0.109195404 0.20945787 -0.17848542 0.16060388 0.08901811 -0.011268789 0.22628273 -0.08367458
3317 0.017857607 -0.09834135 -0.02591916 0.04008128 -0.042426746 0.14592084 -0.14111942 0.20099893 0.14886199 -0.08167424 0.18888113 0.1436358 -0.060528718 -0.3104535 -0.008302286 0.06004197 0.3046222 -0.1675905 -0.18326211 -0.015235538 -0.091832004 0.05149437 -0.13391991 -0.060796537 -0.11561886 0.22081201 0.075449124 0.14029261 -0.13540547 -0.16906112 -0.193415 0.013994019 0.42756724 -0.16851136 0.09549316 0.27646282 0.3096274 0.10458778 -0.32637042 0.17692763 -0.2363211 0.16798449 -0.29313406 -0.42481032 -0.14039917 0.53714675 -0.08094038 -0.13954893 -0.3260932 -0.0023441166 -0.28997695 0.17758526 0.4444292 -0.15251055 -0.13894224 -0.11669584 0.26459247 -0.14794344 0.108736865 -0.23088995 0.06672612 -0.103659086 0.2604185 0.028617278 0.13899638 0.26762515 -0.010602506 -0.1284514 -0.15879291 0.11141125 0.07547104 -0.097271204 -0.4485369 -0.2060768 0.015852965 0.26701084 -0.11736084 0.25670573 -0.16734129 -0.080561504 0.084488526 0.086279154 -0.053875305 0.10282234 0.023122314 -0.02292804 0.27622893 0.27292848 -0.32618874 0.098502144 -0.09852705 -0.3370798 0.27172953 0.1579181 0.32300496 0.34494007 0.07751215 0.0051415544 -0.12684289 0.04485408 0.31040365 -0.17048246 -0.20388404 -0.21873726 0.1069921 -0.2166127 -0.05172797 0.059309505 0.31114468 -0.120232 0.04204854 -0.21241546 -0.001117409 -0.047105104 -0.18492103 -0.009704517 -0.36508432 -0.07913769 -0.080649175 -0.095326975 -0.12621588 -0.4667854 -0.10528533 0.04650265 0.09381096 0.052697364 -0.017684538 -0.0588268
1237 -0.18976028 0.06354647 -0.03657311 0.21809494 -0.20134792 -0.118693046 -0.13863315 0.14185666 0.3011623 0.3138386 0.14351358 0.19588712 0.096324846 -0.1277296 -0.05382648 0.2521649 0.25452143 -0.23335735 0.024853714 -0.01113049 -0.11927785 0.0075728027 -0.23443358 -0.19782832 0.059795804 0.10615487 -0.097398736 -0.08468487 0.010417825 -0.21891621 0.429227 0.16057275 0.15764607 0.008907386 -0.36917028 0.47213277 0.34032163 0.14889385 -0.3087468 0.016962735 -0.11835756 -0.15637717 0.043512795 -0.073880516 -0.046757597 0.4782385 -0.18733567 -0.04682065 -0.22143309 -0.0030764677 0.14890808 0.17799829 0.23846512 -0.123335555 -0.13644412 -0.0923299 0.13096778 -0.25769797 -0.16064177 0.13778464 -0.20306353 0.020840611 0.034561906 0.041072626 -0.133986 0.024365889 0.016295038 -0.19266304 -0.34517553 -0.037002113 0.1328201 -0.07699957 -0.23065746 0.13568944 -0.17745316 0.08462927 -0.21852489 -0.13545124 -0.14434007 0.011429155 0.03474567 0.15872622 -0.12885879 0.41190094 0.087672964 0.08541868 0.16052416 -0.20864616 -0.05171334 -0.32924294 -0.16886207 -0.27490872 0.19705693 0.13594052 0.40978193 0.021868568 -0.08087573 -0.5438178 -0.41733745 0.19770072 0.0025741474 0.19190554 0.020436615 -0.0041888864 0.0043632276 -0.33812425 0.30911 -0.1900286 0.218676 -0.22814117 0.039496582 -0.013722094 -0.073417336 -0.21990335 -0.073004365 -0.038651988 -0.39063597 -0.063510776 -0.1371988 -0.23986426 -0.016188035 -0.23553589 0.03140218 0.10884269 0.09582137 -0.17227918 -0.13749321 -0.24059394
617 0.00682866 -0.15589459 -0.13997227 0.13960922 0.25006095 0.25563928 -0.08013641 0.207206 0.3348816 0.27303737 0.21549632 -0.27075216 0.14527297 -0.06244504 0.14578365 -0.1506698 0.11481114 0.20403881 0.08098065 -0.07656189 -0.15312342 0.07561239 0.020440372 -0.16143094 -0.16293633 -0.2760191 -0.0034924718 0.14488246 -0.12039621 -0.29085904 -0.06503052 0.044311073 0.3436709 0.13065334 -0.14214644 0.51843506 0.49319303 0.098650545 -0.13827531 -0.157759 -0.115539506 0.18133691 -0.1393863 -0.35308295 0.17741062 0.023918407 -0.086220704 -0.10592798 -0.43598005 -0.17416586 0.3125707 0.13580802 0.07537435 0.07723166 -0.00082143734 0.26538286 0.19970076 -0.10009432 0.020239241 0.055399027 -0.06484111 0.20526259 0.47133136 -0.055893365 -0.15116371 0.061273795 0.2311422 -0.097404234 -0.43957826 0.07719824 0.044366352 0.12144654 -0.52395505 -0.21412045 -0.222163 0.008647777 0.008135927 0.19072908 0.014906165 -0.22483645 -0.03927365 -0.023460057 -0.14040115 0.09416004 -0.028093262 0.26592943 0.34316552 0.09272131 -0.11086284 -0.04282593 -0.27073574 -0.018801428 -0.011209712 0.17836893 0.080085605 0.21258342 -0.16912338 -0.34977213 -0.4899026 0.32065862 0.2732028 -0.17771532 0.120034344 0.102837235 0.23572035 -0.034369517 0.03769622 -0.09723805 0.03213995 -0.01947566 0.1111866 -0.22667396 0.0713766 0.026408425 -0.18501285 0.19753458 -0.105438665 -0.24564669 -0.040696368 -0.25840652 -0.42929208 -0.30398172 -0.1616556 0.016475009 0.07765042 -0.015710883 -0.02518151 -0.17310491
1659 0.12579957 -0.15726756 0.0062303725 0.16004984 -0.082944736 -0.027592769 0.054044936 0.17527567 0.3087286 -0.09877605 -0.106918946 0.01644972 -0.15961576 -0.33779287 0.16492222 0.13730101 -0.03343994 -0.039061856 -0.08333142 -0.0013157723 0.19981089 -0.017990569 -0.09644516 -0.25237653 -0.423906 0.07529028 0.002023157 -0.028369416 -0.11966136 -0.21330905 0.04530964 -0.095834516 0.24127252 0.20140277 -0.13403505 0.15999375 0.29877624 0.14981683 -0.17140469 0.29320493 -0.3205188 -0.10588975 -0.013282981 -0.14223166 -0.09516213 0.45705715 -0.030977875 -0.33503765 0.19668482 -0.08804549 0.044831607 0.54287493 0.09632742 -0.22375475 -0.2990618 0.15090628 0.1947778 -0.28448755 -0.18634632 -0.26512328 -0.0056735515 -0.12897383 0.3682313 -0.043939516 -0.0037618934 0.1240184 0.13930394 -0.2025281 -0.4647791 -0.08292861 0.08917995 0.2055416 -0.37126067 -0.052149616 -0.03769193 -0.21830676 0.057028726 0.14941725 -0.020174406 0.19359587 0.35024863 0.013732842 -0.1669256 0.26716116 0.10270735 0.103335135 0.16953938 -0.17442472 -0.065815024 -0.21058857 -0.46546897 -0.33527532 0.21999875 -0.1730412 0.25030735 0.21185471 0.12229629 -0.2649044 -0.2822137 0.08688064 0.15888979 -0.08042321 -0.2208865 -0.17359138 0.02374445 0.08170754 -0.2527766 0.017579034 0.017804937 -0.11381476 0.39569384 -0.12007015 -0.01368362 -0.123800285 0.048489913 -0.15517372 0.02834751 -0.25130525 -0.30276123 -0.16046995 -0.11776284 -0.16792327 -0.034619033 -0.04482762 -0.04214757 0.054259997 0.10355754 -0.15703039
3209 0.047224715 -0.15290004 -0.07197424 -0.40132996 0.21043761 0.17967413 -0.06505876 0.26443213 0.044877965 -0.14342655 -0.11473954 0.082696244 -0.09789513 -0.22409186 -0.062609926 0.051450316 -0.16348907 -0.10027604 -0.05919901 0.02982036 -0.15503508 0.06567227 0.06852535 -0.2742347 -0.12766199 0.16106063 -0.085124485 0.20254415 -0.14685157 -0.11688317 0.008281609 -0.30637267 -0.03546801 -0.061008297 -0.35600019 0.20494437 0.23583141 0.2518221 -0.119179204 0.124363095 0.18113208 -0.07328438 0.07347039 -0.29567778 -0.2699954 0.5476249 -0.3379167 -0.12550169 -0.14598134 -0.08477062 0.27470013 0.0011422879 0.5162865 -0.21522695 -0.25006407 0.06555431 0.29670936 -0.24000262 0.1890089 -0.21180114 0.052883077 -0.09426276 0.12530793 -0.10798059 -0.0037027935 -0.013684861 0.04802351 -0.121102095 -0.08782864 -0.046603408 0.2290144 -0.07069719 -0.5533989 0.022150679 -0.01494251 0.06572765 -0.24855286 -0.15062696 0.25691882 0.022052376 -0.035687964 0.13718076 -0.14109768 0.41806597 0.025847007 0.011392091 0.37544486 0.030250924 -0.18862882 0.029712917 -0.32702047 -0.39790517 -0.0033666599 0.14860691 0.14499661 0.19054426 0.08740308 0.05064782 -0.54477847 0.23447895 0.24215107 -0.021429827 -0.22764106 0.020998467 0.0075879884 -0.37291992 -0.17672674 -0.10321629 -0.040558062 -0.26576155 0.42044994 0.091752075 -0.13759257 -0.0012069702 -0.24504563 -0.21489342 -0.1321923 -0.24513584 0.16315024 -0.119690984 -0.039553743 -0.35138538 0.015799453 -0.2203983 0.044124104 -0.020085286 -0.37159336 0.106865145
3477 -0.21408448 -0.041564405 0.19549297 -0.11518078 0.23868467 -0.32004395 0.4118182 0.008319996 -0.103984214 0.10824532 0.35278222 0.24290557 -0.051525686 -0.23506871 0.31273153 -0.40048668 0.24812251 -0.26102388 -0.10862821 0.13188611 0.16034433 -0.38704267 -0.35867125 -0.32829484 0.5488896 0.35254222 -0.39377046 0.18917166 0.2991895 -0.10686944 0.1437891 0.12392042 -0.034117155 -0.27341896 0.010345146 0.14288135 0.043565203 0.024230303 0.040621657 0.36887825 -0.2952121 -0.45076683 0.48947784 0.23269285 -0.2567595 -0.028583119 -0.49080575 0.09185312 -0.017024757 -0.07416557 0.48844218 -0.3570891 -0.085767835 -0.22363971 0.2419233 0.021784212 0.4416711 -0.25201994 -0.052774914 0.22030611 -0.22075884 -0.1389652 0.50633234 -0.004313661 -0.005926541 0.2831962 0.08375866 0.28465307 -0.11567438 0.0463217 -0.20129211 0.03795809 -0.51906794 -0.17983441 -0.12655364 -0.2696833 0.0015225996 0.34669584 0.012298115 -0.1999334 -0.22712554 0.15251468 0.13286577 0.38692644 -0.23549674 -0.19304186 0.5079464 -0.18836012 0.14442334 0.42815664 0.3037993 -0.26164436 0.23670563 0.064198025 0.2720251 -0.12652077 -0.034708053 0.48446846 -0.19250385 0.1549211 0.041921396 -0.35296658 -0.2952713 -0.2540606 -0.2853927 0.45290375 -0.187968 -0.05299657 -0.2692197 -0.276177 0.2514135 -0.07810563 0.16270791 0.118611865 -0.091481276 -0.0122273555 0.15098096 0.12595232 0.10166122 -0.21032518 0.16870262 -0.29803753 -0.058030237 -0.21305257 0.2948978 -0.016875336 0.1601534 -0.31905714
3993 -0.39294955 -0.40618598 0.049644165 0.32714632 -0.19062378 0.162858 0.14452775 -0.19228512 0.16141188 -0.10650491 0.014765049 0.20340282 0.04907557 0.11000006 0.3231555 0.012872434 0.20196919 -0.1213705 -0.08742878 -0.07522424 -0.1035156 -0.06218421 -0.23862422 -0.3606668 -0.09274094 0.06819091 -0.17469165 -0.08464339 0.265102 0.078427814 0.25105408 0.08200603 0.41810507 0.19650376 -0.32075846 0.20274445 0.11841957 0.24567367 -0.31916162 -0.100196704 -0.06033649 0.46267533 0.12548839 0.0013041764 0.24332894 0.32265392 0.2837365 -0.05453625 -0.09426395 -0.16441314 0.13685189 0.111246124 -0.024905918 -0.21054204 0.15135328 -0.2514371 0.3093135 -0.3171545 0.26494643 0.03682783 -0.051643066 0.11939775 0.0023824119 -0.25982904 -0.12343029 0.44753024 0.046172764 0.026050484 -0.3451736 0.26191005 0.10083991 -0.12847298 -0.4223477 -0.11679695 0.010903649 -0.20232013 0.21687321 0.07330693 -0.022528416 0.24955054 0.036825005 0.21399358 -0.08504784 0.29444253 0.3121045 0.39397112 0.13022704 -0.2652879 0.11159762 -0.11470814 -0.37384853 -0.18389069 0.17079929 0.3055858 0.42947742 0.5448108 -0.011353935 -0.06207833 -0.52876455 0.18292497 -0.14526899 0.16888858 -0.12170969 0.020550057 -0.09832161 0.30523106 -0.035037607 0.038307462 0.008362431 0.045144565 0.07770446 -0.18266304 -0.19698761 0.15497796 -0.1438392 0.16217409 -0.12336444 -0.090121664 -0.42398563 0.14077613 0.18600224 -0.10158439 -0.02885267 0.07716722 0.218893 0.021432828 -0.10505188 -0.07694209
227 -0.12268124 -0.08451982 0.18008333 0.23410004 0.03948092 -0.104662 0.040923316 0.084017545 0.098468 -0.017146692 0.057634134 -0.26151496 0.13619749 -0.13749325 0.161829 -0.06751432 -0.045501947 -0.064423814 -0.1174148 -0.2615338 0.36705425 0.0017235178 -0.29738685 -0.27264363 -0.3630716 0.2654022 -0.10782795 0.010188589 -0.11907545 -0.017940849 -0.03650627 0.03489777 0.057929203 0.14276385 -0.10726938 0.096080214 0.1734346 0.16825622 -0.076636314 0.33263162 0.16023791 -0.18587197 0.22247191 -0.09306629 0.13885015 0.18216932 -0.32820067 -0.14953516 0.06568633 -0.046458077 0.16727082 0.015781097 0.032694913 0.00862211 0.019218795 -0.13893479 0.4467124 -0.08781538 -0.2384228 -0.088739656 0.18709445 0.07186576 0.09156492 -0.13779078 0.07206637 -0.056108538 0.09439907 0.039303083 0.038792133 -0.029363621 -0.20440444 -0.15074433 -0.25584823 -0.1436997 0.024312844 0.086783804 0.2490962 0.46439043 -0.26502725 0.02839455 -0.10552707 -0.025741132 0.022244226 0.28793728 0.35674882 -0.016726237 0.38509685 0.2602085 -0.108287595 0.020375215 -0.33427894 -0.21410918 0.04045731 0.18938193 0.25133058 0.17503333 0.10393692 0.08204021 -0.45508298 0.03308883 -0.08453074 0.10904057 -0.18133108 0.07451727 0.08850555 -0.27247298 -0.13539702 0.0076086465 -0.035236664 -0.1675616 0.21818373 -0.3400266 -0.096424945 0.01264059 -0.095224805 0.22954737 -0.038729258 -0.17189813 -0.13138759 -0.54456824 -0.149016 0.005384163 0.043658495 -0.09165716 -0.046451837 0.14415757 -0.2869946 -0.13047557
1453 0.077970244 0.023742449 -0.112565264 -0.080627255 -0.028814685 -0.19040224 0.012532626 0.12464405 0.078899615 0.06776186 0.26705077 0.07352814 -0.23561671 -0.03175892 -0.1502653 -0.06482695 -0.059434526 -0.42913046 -0.23574401 -0.46201384 0.25195965 0.13486876 0.2270545 -0.2147003 -0.17656954 0.069425754 0.19585815 -0.19434871 0.0864984 0.24380966 -0.01935537 -0.27190626 0.011102949 0.1909792 -0.13274977 0.45908812 -0.2498353 -0.1031983 -0.45665282 0.083848834 0.0128978565 0.16762169 0.0755399 -0.17901811 0.040785465 0.26515713 -0.25410455 -0.18405467 -0.16762516 -0.26706427 0.085841276 0.05605557 -0.078900896 -0.0017924577 0.066584654 -0.09882736 0.21447372 0.19260949 -0.10118442 0.013468088 0.018595044 -0.062075984 0.09049269 -0.2894097 -0.13987027 -0.0024826813 0.17475127 -0.046681874 0.16111277 0.11363632 0.3492314 0.07749197 -0.29733568 -0.35103184 0.40422493 0.08651737 0.22803509 0.27497467 0.003827081 0.15360324 -0.06108874 0.15510412 0.32565388 0.22890536 -0.12736274 -0.051320776 0.39894363 0.22337982 -0.23731603 0.33104002 -0.29258028 -0.079354115 0.17223418 0.058233675 0.5362274 0.20882179 0.003489555 -0.072228156 -0.412622 0.037589632 0.058270052 -0.14046873 -0.047715403 -0.056879647 0.007900605 -0.29354334 0.07896936 0.07835189 0.03585515 -0.16363972 0.44771042 0.04167284 0.09362033 0.073247254 0.0208215 -0.36432484 0.09123042 -0.46796376 -0.4889031 -0.21188895 0.0017587362 -0.15004967 -0.14553733 0.052566122 0.10216626 0.08653468 0.056176208 -0.24195126
