1054 128
2807 0.05311829 0.06508178 0.01133305 0.24834529 -0.035955273 -0.12753682 -0.021080228 -0.0839477 0.051873844 0.14694579 -0.37827834 0.03997152 0.10389766 0.19893278 -0.18573037 0.18497297 -0.108951524 0.2777669 0.046966255 -0.16423133 -0.08000279 0.056837156 0.07047337 0.21297458 -0.1345808 0.004191349 -0.2793997 -0.243949 -0.0070001245 -0.14968276 0.13009176 -0.15960564 0.17416449 -0.23219033 0.13309497 0.33520448 0.36983222 0.098735176 0.26785842 -0.063334584 -0.04213903 0.21248318 -0.14272821 -0.28777385 0.34246147 -0.16712217 -0.08812097 -0.082205765 -0.109599166 0.032655243 -0.091208346 0.079727694 -0.3297072 -0.3487093 0.13566858 -0.09981841 0.28558406 0.03507289 -0.065833144 -0.17465265 -0.35176745 -0.29395407 -0.050653912 0.019350925 0.40634167 0.17600201 0.15505113 0.16231813 -0.17472525 -0.37338528 -0.0325299 0.19672276 0.2932192 0.035879295 -0.22519386 0.23267423 0.048733354 0.25802907 0.016764184 0.094717644 -0.13822514 -0.011261361 0.17494135 0.3140038 -0.07494822 -0.21928129 0.18818237 -0.056149058 -0.040869445 0.08111945 0.1802797 0.124591395 0.3106381 -0.32491332 0.19583079 0.20555605 -0.20595944 0.11416984 0.022137638 -0.10833735 0.15580817 0.24848834 -0.39297816 0.030309623 0.0023084504 0.09817505 -0.2876235 0.24838568 0.16493043 -0.11756986 0.048112653 -0.061469726 -0.17002635 0.25940436 0.02637196 0.09398083 -0.3171677 0.044365756 0.2301946 0.23594314 0.07257978 -0.23782553 0.25612244 0.007112234 -0.015236542 0.16407886 -0.090737395 0.08103428
2287 -0.08998415 0.16424032 0.065111 -0.049185432 0.2673946 -0.06709156 0.17804483 -0.3562692 -0.03350066 0.07252615 0.16900703 -0.13054718 0.1677645 -0.14106245 -0.14755994 0.24952544 -0.19923533 -0.0086658085 -0.015191732 -0.017362777 -0.21661115 -0.0067660813 0.06282412 0.11091511 -0.1518677 0.025495902 -0.19286402 -0.2504086 0.06389088 0.045545507 0.17088677 0.12469001 -0.06981876 -0.01308498 0.016197316 0.26223558 0.31195718 0.3231581 0.3297893 0.17569709 0.050485507 0.01374673 0.03698842 -0.27780575 0.17093778 -0.15515962 0.2076772 0.0505179 -0.18742685 0.13673978 0.33891538 0.1540182 -0.17555411 -0.2576181 -0.14762722 -0.21509427 0.40491953 -0.18526642 0.2119753 -0.077445224 -0.18495476 -0.07191649 0.07051424 0.058479227 0.37294725 -0.022507954 0.018699307 0.21087918 0.300115 -0.50676847 0.044142768 0.11601327 -0.02997899 0.5126953 -0.039756298 0.10162903 -0.08873177 0.16736011 0.11491313 0.24450976 -0.010379527 0.052447755 -0.40359417 0.4477157 -0.18361291 -0.16839772 0.010992671 -0.2740231 0.5018551 0.05829342 -0.048129056 0.117863014 0.1148738 -0.27528572 -0.08779294 0.17972748 0.23149736 -0.10165835 0.06881426 0.34216377 -0.07634056 0.049742155 -0.16120727 -0.15147704 -0.07862321 0.41982913 -0.00724756 0.10661717 0.18845849 0.10003989 -0.16698791 -0.2792591 -0.1966432 0.45980823 -0.11445896 0.3000503 0.15424983 0.025038984 0.07874397 -0.22875305 0.090987444 -0.028424496 -0.08027299 0.03422745 -0.4418475 -0.12771277 -0.1686232 -0.089780755
971 -0.0073789265 -0.09687041 -0.094784416 0.0016464418 -0.04200695 0.045363802 0.012663376 -0.32017958 -0.124100424 -0.048050415 -0.16873749 -0.1895311 0.05715083 0.122012116 0.023387313 0.21554668 -0.024048598 0.046249155 0.13312499 0.25434393 0.1697591 0.23666844 0.12188659 0.38064083 0.0143778715 0.055644948 -0.43787846 -0.1150944 -0.38064995 0.05819723 -0.104459405 -0.12149781 0.105334066 0.15617527 0.013732966 0.03972842 0.22672555 0.14996281 0.1769083 0.22341228 -0.12374888 -0.02119827 0.07600212 -0.11315555 0.13697192 0.07978347 0.06761765 0.19379808 -0.018829552 0.27641812 0.33231342 0.17578974 -0.0007071248 -0.5792423 0.31335256 0.008555189 0.40413144 0.08889683 -0.048938535 -0.17966717 -0.30637088 -0.025885474 0.28009582 0.104200184 0.14031264 -0.020165706 0.4363342 0.20330891 -0.23189402 -0.22460292 0.6118965 0.18694866 -0.039231654 0.15202658 0.25136137 0.3841163 -0.41371033 0.003236592 0.3292939 0.32089633 0.09357623 -0.26873866 0.101976626 0.39862034 -0.15607515 -0.26805958 0.36899722 -0.035265345 0.35175118 0.10683445 0.07034012 0.22383413 -0.123801865 0.07872655 0.30301034 0.063857466 -0.24295734 0.06583159 -0.07834357 0.274809 0.2996694 0.19374904 0.24864756 -0.16907476 -0.011510578 0.049454756 -0.02507384 0.36051837 0.21431585 -0.21504746 -0.0395544 -0.35352403 -0.16600388 -0.04272602 -0.15116148 0.027091593 -0.13458015 -0.18612279 0.32029843 0.35508186 -0.17261665 -0.17592579 -0.12202859 -0.26977178 -0.15263028 0.18007909 0.076858416 0.09924132
2564 -0.34779227 0.1985267 -0.10962889 0.092537425 -0.13259114 -0.15159215 -0.087103166 -0.19621822 -0.06598587 0.17991653 0.3815052 0.077993125 0.1492486 -0.20000257 -0.11175506 0.11037683 0.09786763 0.0039699813 0.34475017 0.20282097 -0.18529584 0.39232004 0.1194329 0.40659574 -0.40543923 -0.059337914 0.071957625 0.058902543 -0.33017838 0.15251732 -0.08711816 -0.1939849 -0.16800873 0.24263601 -0.042554595 0.05952429 -0.09506741 0.082433745 0.3981434 0.04304207 -0.09140103 0.21544611 -0.12343929 0.24080548 0.08052815 -0.07995141 0.5201334 -0.36362284 -0.054454513 0.23329116 0.06926249 0.17292695 -0.0007575331 0.20118034 0.25921452 -0.04484649 0.40811476 -0.06555073 0.07634928 -0.13215834 0.35494414 -0.30657852 0.06371162 0.07359238 0.16851155 0.19995269 0.13209915 0.097428754 0.13930324 -0.46467614 -0.0908258 -0.12924545 -0.1432568 -0.45664096 -0.25853813 0.3062025 0.36294863 -0.2859725 0.15731746 0.0051406045 0.061869696 -0.21132532 0.5139334 0.47202381 0.081907734 0.053701606 -0.20276982 0.30696568 -0.22230203 0.011607224 -0.20670573 0.17100388 -0.09764339 -0.023260245 0.15316132 0.08383564 -0.22632168 0.26192898 -0.15304574 0.16693658 0.16165975 -0.25081864 0.02977966 -0.22838807 -0.7781182 0.008353365 0.040168025 0.111400925 -0.11941545 0.12967023 -0.07832153 -0.12179003 0.0061206003 0.16196702 0.09728657 0.38250667 -0.5073935 -0.113551795 0.06265848 0.006921827 -0.054217964 -0.068737224 0.118906006 -0.058392897 0.012714935 -0.33695954 -0.051689073 -0.15349987
384 -0.359559 0.0905156 -0.30345732 0.18069008 0.10621014 -0.36404762 0.035820134 0.13087288 -0.25240284 0.22658545 0.33695626 0.1671075 -0.18937387 -0.024456402 0.01300035 0.11229424 -0.10375997 0.28460374 0.3251541 0.3280012 -0.13113038 0.28227645 0.25895602 -0.096517965 0.10095347 0.05489621 -0.6801992 -0.3231539 -0.070020884 -0.02373209 0.3049099 -0.010769175 0.10736961 -0.036950156 0.19643144 0.05638535 0.3124752 -0.05467672 0.13792484 -0.117721036 0.08795816 0.33275524 -0.19567312 0.014365123 0.27144042 -0.24218196 -0.16776516 -0.34608877 -0.025297325 0.36527303 0.26065227 0.18133686 -0.16406111 0.35230914 0.07413988 -0.07836362 -0.048839696 -0.22994103 0.3095514 0.21574102 -0.026961192 0.02845336 -0.03830012 0.20866667 0.0007543371 -0.18444058 -0.072350815 0.16572131 0.2124218 -0.24137817 0.20634654 -0.05264093 -0.38414112 0.007386824 -0.017906839 0.20370924 -0.33371252 -0.067229964 0.31390193 0.31728682 -0.17285042 -0.0012309157 0.3156888 0.24786991 -0.12027991 -0.22951032 0.138757 -0.21522321 0.28701627 -0.13847297 -0.24394132 0.43879646 0.20246477 -0.16261393 0.491905 -0.045134883 0.3100513 0.028336678 0.097427875 0.13011613 -0.014004221 0.3972066 -0.42065808 0.060391534 0.156171 0.17406178 0.034704197 0.15186948 0.11926238 0.16302246 0.21389043 -0.093431406 0.22098471 -0.01682855 -0.42907846 -0.1479032 0.037673112 -0.066952795 0.08729213 0.20990302 0.061870493 0.071453996 0.07071977 -0.08632289 -0.4169139 -0.2451299 -0.26750103 -0.04019153
2767 -0.24486887 -0.04535799 -0.28529972 -0.13496101 0.24086285 -0.07097434 -0.0598714 -0.29973692 -0.1711398 0.17496692 0.12569919 0.13833636 -0.049295872 0.013964029 0.1415073 0.09229286 -0.2516129 -0.01397328 0.24753088 -0.11432188 -0.013041716 0.16386947 -0.015051463 -0.3272841 -0.24330986 0.052060712 -0.3943867 -0.2910084 0.059321593 0.16471076 0.1612694 -0.029213963 0.14376378 -0.01263401 0.2730479 -0.24917282 -0.092421554 0.2983018 0.13405667 0.12000832 0.4325639 0.09632491 -0.052959267 -0.06717294 0.14630572 -0.30439872 0.28550547 -0.14024055 -0.14972234 0.53475165 -0.07022737 0.22046201 0.17766999 0.21988939 -0.24829188 -0.3821701 0.40859744 0.20520388 0.0042191413 0.3992927 0.25870427 0.1401304 0.16350478 0.23628233 0.04016385 -0.26270682 0.03505035 -0.049368985 -0.06471383 -0.28371254 0.33318824 -0.24855106 0.2042564 0.03266631 -0.12044858 0.15370622 -0.025857233 -0.10922641 0.024664134 0.05299009 -0.17649536 0.20752363 0.0044964114 0.11670108 -0.207888 0.047284316 0.18252233 0.0061126743 0.2600524 0.1722511 -0.18142942 0.3197227 0.2431689 -0.26878408 0.088418655 -0.066894 -0.06592423 -0.06485174 -0.09838179 0.03984778 0.07794598 0.100914106 -0.3891215 0.011130941 -0.25773332 -0.08038051 0.1857574 -0.11505119 0.42700967 -0.052461714 -0.2564925 -0.30640745 0.015609456 -0.0067023346 -0.34469292 0.5502203 0.14835915 0.028630372 0.111990415 0.64188915 0.24851336 0.038049847 0.14664613 -0.41172457 -0.2218597 0.2773815 -0.42321068 0.25435504
921 0.070131995 0.0055790185 0.053786162 0.25821215 -0.12056521 -0.34564397 -0.16692066 -0.28589234 0.14152539 -0.016280556 0.033074044 -0.13977236 -0.13213582 0.040426657 -0.48993984 0.35689133 -0.10465504 0.19540215 0.31497014 0.08385647 0.26582164 0.061182044 0.008268737 0.11523875 -0.41469052 0.13642961 0.20316006 -0.056611646 0.08194782 -0.11644373 0.27036422 -0.18208422 -0.071401365 -0.18506323 0.50272125 0.07504649 0.29086292 -0.15164275 0.2607443 -0.2955102 -0.28317207 0.2994635 -0.30153847 -0.43305403 0.38465416 -0.1875918 0.001636385 -0.01896118 -0.3384737 0.07144977 -0.021143325 -0.28054103 0.0049962797 -0.1121207 0.3286433 -0.030518059 0.14003836 0.41099107 0.11570904 -0.28894144 -0.28829455 0.06004339 0.50011957 0.23042157 0.25020614 0.41577676 0.081748955 0.111151226 -0.43462297 -0.2800345 0.14749631 -0.110728554 0.000551084 0.15159392 -0.037569292 0.33577782 0.12573133 -0.010262059 0.10751517 0.4376949 0.062305216 -0.1727203 0.050369576 0.018973637 -0.19456391 -0.052106198 0.46078345 -0.117681466 0.1810375 0.108623795 0.068637975 0.07039817 0.055920728 -0.41118526 0.21927077 0.0818075 -0.35649842 0.19770503 -0.011239631 -0.14137335 0.0010600515 -0.07031016 -0.29350805 -0.2161643 -0.13199203 0.21080472 0.0791333 0.23937841 -0.06923495 -0.016529372 -0.20253669 -0.060997024 -0.11856592 0.013021235 0.0066417763 0.16222991 -0.08239248 -0.23425862 0.21442303 -0.13484287 -0.03072109 0.06895809 0.035347402 -0.00722927 0.010260602 0.08467498 0.0029991004 0.20330022
80 0.056684412 0.34489223 0.0036725658 -0.2599662 -0.017583009 -0.27517822 0.22432362 -0.20641932 0.25010413 -0.11133546 -0.5074645 -0.048457462 -0.18727617 -0.2732199 -0.34486654 -0.106191576 -0.35360867 0.20013557 0.33162823 0.39261058 0.21216084 0.15169327 0.006667888 -0.22283311 -0.6069746 0.29003417 -0.3514211 0.115365155 0.09476149 -0.013337247 0.14328453 0.13300791 0.14815159 -0.1154931 0.31176078 0.08365736 0.18537423 0.30127722 0.24449204 0.3353395 0.16297543 0.068951696 -0.20311265 0.4033814 0.30266634 -0.18144755 0.08515573 -0.0059633357 0.0067075174 0.47373852 0.12429073 0.27676257 0.13489847 0.10432322 -0.1508579 -0.23252696 0.27317813 0.15939502 0.0019129608 0.08561637 0.1328634 -0.08284448 0.4313081 -0.2460792 -0.2690238 0.15806367 0.18737642 -0.16627435 0.08216051 -0.5970501 0.009102133 -0.16845314 0.11134527 0.060697835 0.24496303 0.02431548 -0.2542214 -0.3223586 0.19762757 -0.16243784 -0.15052658 0.25426295 0.45290145 0.19067706 0.123279415 0.030486027 -0.15799667 -0.0988133 -0.02382073 -0.010606579 -0.22753099 0.20472331 0.05452961 -0.21986996 0.14150916 -0.047889862 0.08302005 0.025676223 -0.01011557 0.3753612 0.013578968 0.0432567 0.018840913 -0.21458456 0.23949228 -0.06924888 0.307182 0.041266706 -0.03162703 -0.047901258 -0.2701648 -0.1046157 0.17137328 0.068894185 -0.17247419 -0.29627335 0.12783715 0.075087644 0.18872072 0.3582382 0.3808057 -0.29687694 -0.13528438 -0.26557484 -0.22519949 0.04210818 0.046630826 -0.02156906
3259 -0.08321705 0.43496117 -0.18282208 0.3822695 -0.108389705 0.08071786 0.15882903 -0.051398356 0.1369032 0.03420703 -0.12499846 0.17378063 0.0014980148 -0.37550253 -0.20566785 0.3863923 0.04524201 0.23021437 -0.22403802 0.16543414 -0.1333115 0.22179341 -0.08069076 0.08602822 -0.39413613 0.1283577 -0.0968003 -0.1887166 -0.22736385 0.03690248 0.0071846717 -0.04619377 0.059048753 -0.0315231 0.2047553 0.22631028 0.084435895 0.047955357 0.19078541 0.107728206 -0.22310299 0.16643442 -0.097981945 -0.48460326 0.49400246 -0.18642738 0.23212592 0.094444655 -0.19564186 0.05582263 -0.011040296 0.38336608 -0.2308194 -0.14703731 0.08506962 -0.03360864 0.23292476 0.4845145 0.27595228 0.200357 -0.28757298 0.0011172253 -0.053701483 0.12411828 0.14707601 0.2710517 0.38822195 -0.044236224 -0.13881628 -0.17217076 0.2055268 0.021000924 0.25183466 -0.1578149 -0.014218976 0.30020157 -0.101543956 0.24495995 0.08432174 0.10082894 -0.03648106 0.014255604 -0.09200022 0.14546764 -0.12720391 -0.28858176 0.102916434 -0.07835445 0.20902309 0.30272087 0.17837664 0.1880816 0.5180969 -0.21726708 0.08060874 -0.20419641 -0.36434737 0.17788576 -0.11168384 -0.2323372 -0.14546084 0.035485093 -0.25700003 0.11284666 0.13846876 0.28537878 0.0008635713 0.20595875 0.19896173 -0.042469792 -0.19559045 -0.053954497 0.060915414 0.34345338 -0.12304944 0.1269252 -0.27017662 -0.019771101 0.36699742 0.20829016 0.4172948 0.010400664 -0.059675943 -0.017028417 -0.14506194 0.032922417 0.0013935593 0.13276619
2142 -0.06696366 0.099119745 -0.33320206 0.24125336 0.22098495 -0.1855674 0.025719417 -0.15109502 -0.02622546 0.0408023 -0.014286596 0.026533177 -0.075673334 0.1019215 -0.32353374 0.36345586 -0.22769098 0.21023402 0.055279918 0.21068081 -0.03874178 0.23734082 -0.059451975 0.015650943 -0.16193338 -0.06402611 -0.22157551 -0.20686907 -0.14492792 0.22515237 -0.06970202 -0.016246049 0.111696966 -0.29628474 0.00522202 -0.06855407 0.3135751 -0.071310155 0.11949354 0.26853284 -0.22509022 0.30512738 -0.04275853 -0.26792824 -0.04939376 -0.3450245 0.044612996 -0.30923215 -0.2810598 -0.008991487 0.058242302 -0.058097728 0.28771338 -0.25895813 0.41598186 0.13936873 0.43465444 0.21409847 -0.113968134 -0.01256727 -0.46039927 -0.10194985 0.08717704 -0.27529085 0.15776679 0.15716529 -0.011418199 -0.052621633 -0.15126768 -0.42396584 0.17606898 0.07470352 -0.05265875 0.3781751 -0.33025214 0.39555022 -0.034851227 0.12879519 -0.0068968353 0.06726393 -0.02285192 -0.015987193 0.17621978 0.19224644 -0.1061144 -0.15379979 0.31618616 -0.16085054 -0.038045116 0.28564462 0.20249943 0.18812892 0.066143885 -0.55819005 0.44784716 0.017526276 -0.3372183 0.30559 0.0002868371 -0.26575232 0.19833359 0.08455971 -0.2188158 0.19425231 0.037515532 0.34905148 0.15598793 0.052462354 -0.1310475 0.29553768 -0.16715409 0.14483508 -0.08350919 0.11012552 0.044508066 0.024528595 -0.032501377 -0.2523869 0.09389861 0.16294777 -0.04789177 -0.08323145 0.086298 -0.21368398 -0.22458483 0.085900456 -0.08176215 0.0027783175
2237 -0.115227625 0.17708318 -0.0693542 0.18250191 -0.30063692 -0.054974858 0.03231175 0.01607302 0.008626784 0.41025737 -0.14846817 0.113466404 0.28147694 -0.18752588 0.06179771 0.3461169 0.020768488 0.15996705 0.088984184 0.3068364 -0.36939102 0.26108626 -0.20185775 0.03624175 -0.16869688 -0.035768617 -0.23306063 -0.06071064 0.057507206 0.015938072 0.26975355 0.21876216 -0.32858062 -0.21827853 0.25972068 0.6523344 0.1684846 0.12579624 0.29983553 0.10049694 -0.0562634 0.3420972 0.13659424 -0.13631214 0.12459081 -0.062028635 -0.27025497 -0.16250978 0.19190702 0.40187633 0.17453194 0.26886624 0.17973985 -0.2968495 0.2199001 -0.12475203 0.13452746 0.07018466 0.09994786 -0.07186487 -0.24750239 -0.22255698 -0.11485765 0.05019481 0.24565846 0.17265102 -0.024330303 0.20292763 0.16982509 -0.062991336 -0.20385964 -0.1152067 0.18356796 0.4249275 0.093015306 0.2834573 -0.1028661 0.38652864 0.0056370543 0.11632891 -0.100216 0.011318363 0.28532392 0.12982254 0.017853335 -0.079156905 0.10277249 -0.05517522 0.18837295 0.03725694 -0.2510836 0.30997384 0.16532972 0.07387074 0.50254256 0.14257757 0.22007 0.20995101 0.0342114 0.11321058 0.28078464 0.20177275 0.058551706 -0.16371275 0.09191316 -0.102237314 0.27419826 0.3916461 0.10159309 -0.18513584 0.083910584 -0.15443297 0.07689519 0.12893394 -0.37137887 0.11139245 0.31281602 -0.007283714 0.12427204 0.50741917 0.2351114 0.29211882 0.02430467 -0.096128576 -0.06899843 0.19294971 -0.053261038 0.21599607
2830 0.113295436 -0.09727541 0.10992374 0.26177382 -0.017469788 0.16228952 0.062037203 -0.3643663 -0.004351654 -0.27075282 0.10170896 -0.08317982 0.1835252 -0.07006035 -0.07371334 0.03543034 -0.48399606 0.2284017 -0.07912538 0.23553076 0.108364865 -0.15210369 -0.4152673 -0.013629611 -0.18535337 -0.29767048 -0.116727605 -0.10075483 0.027829561 0.319421 0.14167714 -0.01960888 0.23213722 0.04091021 0.24588768 0.26849723 0.0666686 0.111854106 -0.3809902 0.094275944 -0.2606259 0.25130522 0.10010532 -0.10433124 0.63911796 -0.4441494 0.053553168 -0.012817745 0.10202929 0.30514184 0.36081767 0.22238855 -0.34591317 -0.02243172 0.11010856 0.33626816 0.3260175 0.21991484 -0.36696687 -0.1636651 -0.055793714 -0.1765452 0.07640786 -0.011105605 0.2548471 0.36524063 -0.048442207 -0.15981351 0.20101622 -0.14929806 0.049606662 0.09530615 -0.09523112 -0.10532641 0.072331786 -0.011914467 0.050284002 -0.21388373 0.2860583 0.12408877 0.021783564 -0.0763194 0.5085771 0.44748676 -0.030312685 -0.048786204 -0.0072876746 0.08180917 -0.0052690655 0.1680806 -0.06405823 0.41948438 0.3799709 -0.26125148 0.33441815 0.3516218 -0.22662005 -0.010222309 -0.007595883 0.30201977 0.079334654 0.32595864 -0.03454419 -0.29465294 0.05821107 0.29006505 -0.28757337 -0.05015044 -0.19725075 0.30845192 0.23757015 -0.039562587 -0.1410173 0.25958288 -0.0035444994 0.24112411 -0.20887904 0.032805305 0.16927281 0.26781288 0.04455261 -0.50089175 0.2919081 -0.14363314 -0.0630468 -0.32754138 -0.09516845 0.26994073
617 0.30353144 0.33680022 -0.35148466 0.31335428 0.24109791 -0.31713018 0.08337202 -0.21955456 0.18515925 0.34908953 -0.33225426 -0.36908183 -0.021862093 0.025402728 -0.32952404 0.05085334 -0.088954695 0.08188518 0.024860576 0.4733712 0.23983887 0.10056954 0.118601285 -0.0451499 -0.22206736 0.05867406 -0.02030485 -0.17961474 -0.2817527 0.00094287214 0.015823822 0.052515015 -0.22669856 0.4078497 -0.09415821 0.2096988 0.32538718 0.0528239 0.2672847 0.20711324 0.12930399 0.37920696 -0.33261746 -0.30522868 -0.22934322 -0.18955117 0.102093674 -0.5173289 -0.13378501 0.21871543 -0.06807858 0.2016165 -0.06789958 -0.048521176 0.20986098 -0.18887132 -0.07308786 0.1549397 0.026481744 -0.090306744 -0.44678208 0.14131805 0.09770158 0.14230487 0.2883707 0.37301287 0.40020928 0.1878303 0.10362363 -0.10118993 0.15900834 0.09616848 0.0074545583 0.25276306 -0.45469835 0.07521339 -0.41579452 0.18338877 0.18806945 0.05688175 0.20115662 0.04726979 -0.012373134 -0.017814623 -0.19822298 -0.19046554 0.083348386 -0.12747034 0.20660473 0.15802577 0.0016601586 0.06336594 0.06308328 -0.21540704 0.09607289 0.023465935 -0.1392031 0.01029061 -0.024713423 -0.0017687487 -0.15421914 0.10874616 -0.16921428 -0.1948927 -0.06761102 0.12866925 -0.1915331 -0.0479185 0.1351164 0.06829 -0.2764624 -0.29525074 -0.28670913 0.017091155 -0.06184956 -0.04174399 -0.31329083 0.018394576 0.25749776 0.42089233 -0.41136697 -0.62401956 0.24969943 -0.119572885 0.22205426 0.28641266 0.0026230852 0.3925764
2192 -0.23363335 0.2667851 -0.42906302 0.35626525 0.3077868 -0.20921399 -0.11342822 -0.055814452 -0.07151686 0.00040763163 0.18947466 -0.07718712 0.5440461 -0.24968974 0.028605342 -0.068003856 0.043891814 -0.2084863 0.45291916 -0.212041 -0.28183156 0.31235588 -0.0006083355 0.12571897 -0.29047352 0.06293241 -0.19648658 0.3397523 0.08903013 0.2640536 0.031575266 0.29482436 -0.032532938 0.26127428 -0.3707555 -0.32930338 0.12113968 0.15947519 0.036863793 -0.06878115 -0.14218199 0.023875762 0.080572106 0.2963921 -0.010247924 -0.13319694 0.11615836 -0.1917164 0.20867312 0.5922196 0.3696242 -0.38627803 -0.50407135 0.009040718 0.17932007 -0.23814687 0.22881491 -0.18788403 0.19829807 -0.092839256 0.06542311 -0.21750937 0.104751766 -0.35819754 0.37783706 0.318715 -0.12463512 -0.0392514 0.024553696 -0.31650615 0.17563467 0.14713132 -0.16692013 0.1204468 -0.14469074 0.37187257 0.08181267 -0.011631212 0.11505815 0.17031956 0.064450234 -0.073010884 0.25064662 0.1507698 0.02260382 -0.19637519 -0.115426116 0.009913902 0.3363405 -0.07563542 -0.21262911 0.03191776 0.42423853 -0.35532415 0.16486828 -0.100688525 -0.0121504115 0.24335909 0.004408648 0.50765187 0.14763078 -0.122466266 -0.08823301 -0.24480195 -0.19423768 -0.2985516 0.08895067 -0.0031775557 -0.28363448 0.33746344 -0.36895058 0.059966926 0.4158053 0.32678586 0.025058843 0.10899221 0.12961772 0.18352988 0.1539968 0.21926904 0.24776697 0.059455726 0.092695564 -0.25242618 0.08505068 -0.083174296 0.007077765 0.17923395
1029 0.23656197 -0.08394374 0.034571756 0.23350458 0.06355678 0.010500377 0.04640669 -0.42492476 0.21933362 -0.23821463 -0.35682327 -0.10392762 0.2426557 -0.16111973 -0.42973012 0.06584906 -0.23150428 0.1247301 0.033476617 0.13630013 -0.13103642 0.28176638 0.24076442 0.16915467 -0.06990448 -0.055159617 0.12393861 0.1913084 0.08225325 -0.29164073 0.22116557 -0.07283618 0.21406011 0.13842067 0.10321863 0.26832905 0.076373845 0.05175409 0.386179 -0.18300582 -0.39388964 0.38209656 0.009561624 -0.15326522 0.28268912 -0.27152702 0.1597867 -0.061616845 0.14890635 0.33422253 -0.0971207 -0.055059694 -0.298365 -0.30070943 0.26897585 -0.1653903 0.091861226 0.19375636 -0.05262051 0.11157233 -0.059162967 -0.14771724 -0.09126728 0.22299947 0.13121665 0.2940738 0.20476346 -0.15728267 0.059755556 -0.38428447 0.2717575 0.097635835 0.16481544 0.12315197 -0.018803405 0.5728331 -0.26015332 0.49032524 0.21231893 0.07589969 -0.12124399 0.26257282 0.13311172 -0.009509763 -0.119158484 -0.068033636 -0.07611429 -0.21033953 0.2018651 -0.011792285 0.1567861 0.08736557 0.486778 -0.09780267 -0.0089767715 -0.11080615 -0.20270938 0.08823688 -0.15794669 -0.05972791 0.006056593 0.36071515 -0.23984236 0.121595584 -0.007831633 0.14039132 -0.22010876 0.24370377 0.28273767 0.19444984 -0.08078037 -0.090556815 -0.14951406 0.24072218 0.073996104 0.12802753 0.114347726 -0.16817047 0.19007647 0.065156296 0.10571414 -0.23486358 0.55358136 -0.074102215 0.29691473 0.021846687 -0.31924322 0.1316807
2464 -0.1749286 0.23516932 -0.12815301 0.13056168 -0.066323675 -0.20420669 -0.115995914 -0.13956451 0.2767768 0.16998234 -0.1537374 0.103705496 0.16567934 0.026094737 -0.27113047 0.22845851 -0.3047283 0.15595075 -0.041096535 0.14295365 0.10545126 0.22317158 0.04318015 0.0662969 -0.11978819 -0.112917036 -0.011564806 -0.15767737 0.05021545 0.15013811 -0.12258995 -0.12686561 -0.097341955 0.2007539 0.45286784 0.19253488 0.11509002 -0.009449564 0.060845185 0.19180731 -0.29806328 0.13095127 -0.05827959 -0.22839077 0.1413566 -0.070345104 0.028962811 -0.038441565 -0.22756468 0.19905198 -0.0735338 -0.03507951 -0.18588856 -0.14828129 0.00719341 -0.016172156 0.16269124 0.18107031 0.19495276 -0.30020052 -0.37860647 0.03542408 -0.028804632 0.27663562 0.40483493 0.10125636 0.30198964 -0.31257823 0.07587955 -0.34027013 0.43322295 0.23877437 0.07361937 0.44943923 -0.33674887 -0.17558312 -0.048215345 -0.1366552 0.07928772 0.089187644 0.13109834 0.23578998 0.008107759 0.2927349 -0.1811312 -0.29732528 -0.07810539 -0.26986286 0.55374795 0.22422604 0.27956823 0.30364752 0.4477753 -0.19475825 0.3204116 -0.11345724 -0.19414654 0.62708974 -0.07675914 -0.23352967 0.017446809 -0.050964136 -0.14942978 -0.040068164 -0.10996284 0.22311358 0.02772711 0.010128913 0.09414836 -0.05934403 -0.0049172873 0.07363059 -0.111851364 0.3896212 0.04653495 0.04161241 -0.19016074 -0.13791864 0.091211274 0.37469766 -0.20025294 -0.10982318 0.15841763 -0.014873718 -0.32439157 -0.010611815 -0.06346439 -0.074299276
440 0.14980648 0.29446292 -0.078718826 0.40893027 -0.086917624 -0.081737675 -0.08830777 -0.4555463 0.17349333 0.0802346 -0.2206579 0.06271663 -0.004432866 -0.1330341 -0.059315767 -0.035575036 -0.12904473 0.25953013 -0.21792562 0.24423568 0.11282349 0.12183593 0.21615632 0.26115263 0.27625662 -0.004990528 -0.10582858 0.28836307 -0.21930176 -0.06100466 0.07549896 -0.113291115 0.15038085 0.06993621 0.08001013 0.22898774 -0.06638739 0.14845529 0.24060409 0.029584544 -0.06237187 0.3835639 0.2043261 -0.30927595 0.14252599 0.062002227 0.19175231 0.13631247 -0.41567856 0.049839668 -0.0020024588 -0.17184843 0.041486643 -0.13631532 0.08638577 -0.047535785 0.11586673 0.096267454 0.22931962 -0.23463875 -0.007833632 0.06084261 0.079178944 0.1523567 0.3202365 -0.05664999 0.032276213 -0.15488532 -0.14302047 -0.5363684 -0.09482775 0.32185403 0.119055 -0.072299235 -0.17689659 0.1782321 -0.38493922 0.05207944 0.24029294 0.13775733 0.13561226 0.2738998 0.5013139 0.30420658 0.07669905 -0.16061935 0.09284017 -0.18058315 0.35425007 -0.13713332 0.23052369 0.07358152 0.36776525 -0.5015659 0.32408503 -0.30318546 -0.34711176 0.18591022 -0.01959661 -0.32149488 -0.024600716 0.17640658 -0.182841 -0.055140156 -0.15739542 -0.037803326 -0.045236252 0.2063769 0.05043393 0.2285408 -0.013299548 -0.19791971 -0.077420846 0.4866717 -0.087107964 -0.02574804 -0.20545007 -0.15272279 0.15075013 0.16047454 -0.09010965 0.1652596 0.21664736 0.0014592424 -0.23877676 0.06097495 0.24061944 0.4302716
2811 -0.1627793 0.5298803 -0.15955283 0.51106393 -0.13823323 -0.32389876 0.21425423 -0.1879013 0.00011959218 0.28342992 0.16151422 -0.2913019 -0.0353714 0.1707431 0.02239745 -0.14903358 -0.36280596 0.14466724 -0.07349497 0.1514763 -0.13275824 -0.054683764 -0.032079507 0.14975654 -0.09588154 0.02157284 -0.31289244 0.44873378 -0.00076923775 0.096512064 0.0072944406 -0.041646056 -0.01096103 -0.32245275 0.37358347 0.06274208 0.27475065 0.3620406 0.4947414 0.29185712 -0.14620179 0.18864246 0.2962849 -0.007387863 -0.06538006 -0.08715847 0.23682107 0.40218323 -0.030149125 0.27962032 -0.13293292 0.088843144 0.20624095 -0.5487429 -0.172062 -0.21763669 0.076606326 0.35632202 0.30956185 0.026028011 0.43624267 -0.1308223 0.042498875 0.40710196 0.17701058 0.18029432 -0.09238563 -0.28783196 0.025053965 -0.2272602 0.02123082 -0.21050374 0.08977206 -0.25772393 0.26380053 0.06295999 -0.3702375 -0.10666524 0.025322286 0.67137545 -0.32663414 -0.15117829 0.24100296 0.1951027 -0.2336008 -0.2451552 -0.08462736 -0.015598809 0.15413158 -0.0016249829 -0.20977627 -0.05170948 0.023968045 -0.18426926 0.097080275 -0.0041959616 -0.07365867 0.1726987 -0.52441955 0.4326348 0.001275103 0.40313566 -0.28560176 -0.31582662 -0.37096342 0.03765973 0.51534915 0.028046962 0.16791949 0.21517292 0.31600177 0.12404172 0.4141192 0.17453425 0.43208027 -0.09028974 -0.05911027 0.13878424 -0.4095033 0.2862964 -0.019040013 0.028439054 0.1900962 -0.25940144 -0.004785124 -0.086416975 0.14270847 0.09645585
1550 -0.6494324 0.06489447 -0.2679188 0.097453095 -0.20914827 -0.25310335 -0.11285674 -0.20109646 -0.06449091 0.03520998 0.49215043 0.09630707 0.19442065 -0.13254897 0.013336018 -0.09881908 0.042355943 0.07991666 0.12753841 -0.102965 -0.018549558 0.23969989 0.25862285 0.054235052 -0.10081557 -0.11055154 -0.18875147 -0.07926083 -0.115427725 -0.03833741 -0.034475222 -0.29182184 0.110433996 0.1181971 -0.3370631 -0.017322363 0.5790434 -0.244382 0.021865651 -0.12564223 -0.02490815 -0.09120421 0.12745771 -0.090157524 0.28184247 -0.33560574 0.25451255 0.038906854 0.13277203 0.36539644 0.08284682 -0.16269584 -0.06175334 -0.13641341 0.25228545 -0.35568875 -0.06390494 0.07473569 0.08858572 0.16678184 0.054995358 0.15816247 0.09891375 -0.17530829 0.35281572 0.4825536 -0.031821296 -0.09429071 -0.17574973 -0.37283155 0.24364915 0.372088 0.15646186 0.15162459 0.09845059 0.2016405 -0.28929663 -0.06767782 0.48816276 0.18623632 0.13352841 0.051811658 -0.16136307 0.13148442 0.009704799 -0.11950575 -0.22455807 -0.18146484 -0.26105246 -0.2828573 -0.42637566 0.3808972 0.30610234 -0.287242 0.034920666 0.14358279 -0.09364547 0.2671168 -0.17784151 0.15550798 0.119637005 -0.22402503 0.069352165 -0.13290083 -0.08425118 -0.22141445 -0.3312988 -0.22294319 -0.02411332 -0.09485623 -0.22021721 -0.06557069 0.17278682 0.24600156 -0.26032332 0.3065505 -0.017736517 -0.1796941 -0.38123524 0.06827821 0.092241175 -0.03394156 0.24042337 -0.09762074 0.0023301225 -0.15515876 0.21839201 0.18760952
19 -0.5436021 0.36006147 -0.04094899 -0.027120348 -0.09150613 -0.44368732 -0.21209542 -0.041463803 -0.05894279 -0.03591737 0.5043697 0.016055837 0.20442359 -0.113818206 -0.010441723 0.07792096 0.15788202 -0.019100046 0.36412138 0.12560959 -0.10667224 0.34308684 0.048485085 0.165125 -0.107385 0.35239273 -0.04162558 0.2032475 -0.108982064 0.25773516 0.345208 -0.215131 0.09443298 -0.15644895 -0.21737783 -0.2510941 -0.1692394 0.28724703 0.21782899 -0.21595952 0.122057155 -0.25473693 0.09701004 0.030198868 0.2769345 -0.40901956 0.26445752 -0.19859645 0.1633831 0.30344307 -0.15010467 0.285831 0.22760321 0.2344279 0.18531783 -0.11283185 0.031947743 0.08489687 0.010421149 -0.18182263 0.27246052 -0.14197885 -0.002017966 -0.37042764 0.603277 -0.061225675 0.05488393 0.097323 0.3179689 -0.27275458 0.1852559 -0.07053643 0.22245657 0.0461521 -0.32018617 0.30292505 -0.30643988 -0.017600682 -0.032015365 0.13109931 0.058324337 0.3014834 0.20049325 -0.055118587 0.14013556 0.22460543 0.11196077 -0.37056637 -0.084923886 -0.034565803 -0.7568065 0.023171067 0.118487895 0.025761189 -0.10822734 -0.02108836 0.1508335 0.667224 0.01700356 0.088058025 -0.014791636 0.14324959 -0.22239392 0.046970405 -0.12453936 -0.05146529 0.14260443 0.13521032 0.2449821 0.12613486 -0.09028081 -0.06414634 -0.20613885 0.29713902 0.092971526 0.18688583 -0.26091003 -0.08814496 -0.12254949 0.28488463 0.077166945 -0.17110834 0.65152127 -0.37133384 -0.18832351 -0.30212906 -0.104236566 0.23478806
976 0.012940271 0.06910178 -0.5218425 0.06719229 0.48046762 0.053593736 0.3455183 -0.53062755 -0.07144659 0.23838894 -0.1599888 -0.34798953 0.12337379 -0.13863793 -0.088100776 0.07049935 -0.45529047 0.085910745 0.115539305 0.2923096 -0.121031426 0.01991933 -0.09155999 0.06047749 -0.17370123 0.51462317 -0.15767017 -0.007978746 0.12052437 -0.13215055 -0.055513717 -0.2568981 0.48461816 -0.20034955 0.13525145 -0.05398022 -0.23562498 0.17414519 0.09187499 0.27088508 -0.18565068 0.19904906 -0.09109709 0.03999972 0.409398 -0.23463537 0.02072082 -0.2679005 -0.14054556 0.3533314 0.005085474 0.23554642 -0.3389487 -0.16503815 -0.2537976 -0.35155442 0.22589444 0.092318945 0.1164157 0.15477033 -0.14515617 -0.24603717 0.3417588 -0.1319736 -0.26371327 0.23033512 -0.07647756 0.3037239 0.124530844 -0.056001864 0.15206373 -0.10776928 0.08748029 0.22647266 -0.046662465 -0.05211666 -0.39253026 -0.06512732 0.22661963 0.31332785 0.27383393 -0.22225222 0.19567944 0.3275404 -0.07432842 -0.30449712 0.014697877 -0.28982258 0.11921102 -0.26164937 -0.16628087 0.33836824 0.3110134 0.0058522653 0.05680564 0.16975944 -0.2830275 -0.055446874 -0.1799773 -0.0205817 -0.012773364 0.072711185 0.01252093 0.055614535 -0.08111363 0.1679817 0.50806123 0.061965127 -0.11823413 -0.08384015 0.25855428 -0.22729266 0.18568186 0.15339538 -0.2530755 -0.13543129 -0.07952951 -0.24364147 -0.0032363846 0.2674283 0.18544532 0.01570374 -0.24348086 0.001972797 -0.26686376 0.22274011 -0.30157858 0.14128578
1232 -0.22268195 0.031346597 0.19169515 0.23533027 0.17485277 -0.70541674 0.1454785 -0.47018135 -0.11104132 0.09241185 0.0424726 -0.029286297 0.019343298 0.16334131 0.028742427 0.17109716 0.08811206 -0.22956285 0.12693009 0.039118 -0.009706226 0.56514 -0.059322905 -0.15363862 -0.23619488 0.009886034 -0.5350184 -0.15757425 -0.017238673 0.044816643 -0.14069436 0.27169418 0.25656587 -0.21366303 0.16681655 0.5525215 -0.123195626 -0.11097667 0.25963533 0.04799011 -0.29558566 -0.07389692 0.13909915 -0.07742776 0.0207665 -0.3356287 -0.14180264 -0.06303283 -0.10314283 0.5408522 0.15935317 -0.13406195 -0.21035506 -0.1748357 0.020375932 0.13394268 0.021928305 0.16218238 -0.18008941 -0.027099947 0.034274615 -0.025921656 0.31805584 -0.23827237 0.42567703 -0.14954129 0.1710195 0.009274472 0.34021536 -0.10071303 0.2393378 0.017084166 0.12161484 -0.04311558 0.06721875 -0.01395648 -0.43467063 -0.14369543 -0.11542984 -0.0030098574 -0.27506346 0.30936784 0.15074824 0.22446802 0.12561741 -0.57935977 -0.05010446 -0.23779728 0.071501836 -0.014968485 -0.21369927 0.21611863 0.011994062 -0.15449275 0.20187531 0.1192494 0.03102528 -0.22611661 -0.2720457 -0.051773544 0.1354465 0.062687516 -0.54180473 -0.16885298 0.068880305 0.00065787893 0.33888537 -0.22384241 0.20742305 0.1576284 -0.20054725 -0.29838222 0.14200768 -0.017432442 -0.31402558 -0.0040497906 -0.25828645 0.08117032 0.1932213 -0.17261103 0.40058583 -0.15115502 -0.08126472 0.07882855 -0.09801955 0.22875428 -0.32153466 0.14947559
979 -0.019869514 0.11605889 -0.25347233 -0.14066967 0.058376927 -0.06428769 0.032193787 -0.61844945 -0.12281414 0.04807325 0.22557288 -0.120036505 0.15455954 -0.0848328 0.13442302 0.13462444 0.1351476 0.01916838 0.14581591 0.11345545 -0.20806602 0.12999725 -0.1432554 0.050763182 -0.4880829 -0.20537475 -0.26440528 -0.16501828 -0.19600384 -0.10081871 0.10001481 -0.10274436 -0.17102379 0.24745819 -0.32142273 0.090976655 0.04872411 -0.15183249 -0.24619767 -0.12263044 -0.21752386 0.04667278 -0.16414699 0.16405928 0.3696531 -0.3892813 0.057739392 0.1386371 -0.053430527 0.16907212 -0.20201235 0.031094808 -0.06105484 -0.031222459 0.1976589 -0.28846928 0.17708658 0.3817101 0.26225087 -0.40672785 -0.18618757 -0.05548767 -0.12372297 0.042096645 -0.1620859 0.185269 -0.21712086 0.20120618 -0.13502686 -0.605901 0.097600795 0.27177018 -0.2697958 -0.18328734 -0.19256222 0.064226374 -0.15349334 -0.35304135 0.08392642 0.2620834 -0.14726269 -0.11332732 0.17663185 0.24807711 -0.35249874 -0.3646557 -0.037484232 -0.09269179 0.09192553 0.06466812 -0.08143531 0.11876417 0.20585468 -0.1034377 -0.14824401 0.080996566 0.023271292 0.23807086 0.21966654 0.104965486 0.23983753 -0.0283919 -0.031954918 -0.26029143 -0.22089322 -0.032400224 -0.2726631 0.40766165 0.22817555 0.42661703 -0.25439298 0.13463585 0.10855983 0.0058638128 -0.20985627 0.21489872 -0.080820724 -0.13114937 0.13029955 -0.03932169 0.010317852 -0.21345395 0.33994558 0.11229347 -0.5256437 -0.25359586 0.17152317 0.3268034
1190 -0.2612982 -0.07894479 -0.15659553 0.018273776 0.034048244 -0.10078276 0.12218673 -0.066268735 -0.23998383 0.47963044 0.020976089 0.02960001 0.40053937 0.06464152 -0.070077725 0.15678337 -0.3090353 0.012707099 0.39718422 -0.02482208 -0.20115334 -0.033419263 -0.17955893 -0.098208986 -0.27182382 0.15239784 -0.18840507 0.24026392 -0.2030786 0.017798062 -0.044519838 -0.22565523 0.28743452 -0.1061758 -0.22952153 0.037698884 -0.21002722 -0.05216998 0.28859606 -0.0011187886 -0.1652802 0.18093885 0.1150811 -0.04742772 0.16397008 -0.09172528 0.28651044 0.37265852 -0.13747151 0.32036144 0.28067672 0.12472529 -0.12476502 0.019925183 -0.05953521 -0.056495756 0.33643052 -0.026371436 0.54436934 0.077187635 -0.058446042 0.30113095 0.3176818 -0.016553136 0.32881817 0.09709183 -0.07578139 0.046559744 0.03019247 -0.33771476 0.15314424 -0.03781981 -0.30405027 -0.076640844 0.25229356 0.22615388 -0.2106914 -0.33978212 -0.06398233 -0.059003167 0.20188235 0.38120952 -0.12111252 0.32999727 -0.17305276 -0.4050998 0.052149493 -0.12054931 -0.13949306 -0.28076285 -0.19565217 0.032794148 0.31089288 0.021254586 0.047129005 0.14196523 -0.16386922 -0.060144406 0.16686966 0.7392977 0.08687726 -0.032092992 -0.39990872 -0.12880924 0.26947272 -0.0063844174 0.063838094 0.34682405 -0.16583152 0.27469143 -0.2523245 0.11123935 0.031800993 -0.004192913 -0.25831115 0.06510374 0.22489822 -0.5884346 0.0584684 0.2473004 -0.15327293 -0.14741807 0.04235478 -0.14293392 -0.14183386 -0.22317673 -0.26672304 0.1294966
1055 0.13865522 0.19950466 0.085917674 0.23817076 -0.09819299 -0.11487038 -0.028474487 0.027973222 -0.19062288 -0.3289974 -0.26136222 0.1732756 -0.3150806 0.04006305 0.13843356 0.56725 -0.16406994 0.12282025 0.38202348 0.16028528 0.25324395 0.11262342 0.1894106 -0.10372655 -0.29286373 0.14099191 -0.38926867 0.16073394 -0.2687505 -0.075052045 0.49010408 -0.26790613 0.09132169 -0.23355496 0.12349613 -0.24057037 0.16074397 0.105503544 0.113458075 0.045411818 -0.072741196 0.6020629 0.14433004 0.1015273 0.32207936 0.057852834 0.26137635 0.053910676 0.037593693 0.29293677 0.18872884 -0.16632569 0.008383534 -0.05804529 -0.09150182 -0.038883995 0.0049443864 0.054513656 -0.3056313 -0.08321801 -0.055750277 0.010489323 -0.15358402 0.014918603 0.18077841 0.2687643 0.048599187 -0.21788117 0.042545922 -0.24380843 0.2651142 -0.18354104 0.16880089 0.29354596 -0.22794044 -0.054346256 -0.377829 -0.042457577 0.10230382 0.31905696 -0.064569 0.10782633 -0.031657517 0.33891955 -0.11790326 -0.28221154 -0.04620197 -0.3038146 0.48069164 0.06410417 0.109484196 0.14452834 0.29805672 -0.05552509 -5.8745296e-05 -0.056696158 0.27085942 0.35225663 -0.33367944 0.25126085 0.035199404 0.19638668 0.055549275 -0.07258979 -0.22114009 0.120180346 0.14420749 0.19933605 -0.078986645 -0.2155989 -0.36842945 -0.112937704 0.074021004 0.12504867 -0.34352046 -0.05546434 -0.053124964 0.0006300207 0.5076765 -0.05309714 -0.2609786 -0.14224574 0.2532112 -0.25351885 -0.385867 -0.129335 -0.28634962 -0.034769714
1483 -0.14296734 0.18778674 -0.17898148 -0.18107648 0.10550497 -0.40696698 0.31774345 0.15166585 0.46590757 0.3008591 0.36074278 0.018037926 -0.27719206 0.035953104 -0.05558861 0.07588866 0.28547257 -0.14007133 0.20873562 -0.23863633 -0.37354463 -0.070480496 0.2649455 -0.18738316 0.09132641 0.18107173 -0.3612766 -0.008971748 -0.063115485 0.1290337 0.039222248 -0.3634097 0.011192546 -0.39935714 0.2818603 0.19253501 -0.11106385 -0.20274818 0.48449466 0.23792084 -0.039282616 -0.46366924 -0.23667398 -0.39033544 0.061522983 -0.45953757 0.13837697 -0.3130561 -0.09122726 0.35904187 -0.11927352 -0.10300826 0.122454144 -0.22032243 0.11930821 -0.3248602 0.11284661 0.12461232 -0.09455157 0.2855805 -0.0495674 -0.003696713 -0.1005207 -0.036030445 0.19575755 0.4863728 0.099178135 0.10756475 0.12282411 -0.105433114 0.19973099 -0.2095266 0.21392566 -0.13901521 0.074296035 -0.0682492 -0.12277475 -0.30613327 0.20624977 0.08702902 0.289035 0.2736138 0.18453288 0.3544723 0.26872924 -0.17428403 0.025757022 0.22613457 0.07537205 0.041749306 0.12811624 0.28049526 0.30367672 -0.27548707 0.3450843 0.16088212 0.10377808 0.34179676 0.15090463 0.21407989 -0.12386838 0.1632882 -0.21200351 -0.43221506 -0.063274674 -0.16826546 0.14695996 0.3833239 0.09142367 0.054772064 0.18186806 -0.19498736 -0.38398638 0.12294066 -0.050231718 0.37209862 -0.16181341 -0.22196998 0.17679054 0.43182403 -0.18388793 -0.21000786 0.060359083 0.13300352 0.034767747 -0.05357949 0.1586376 0.0793953
218 -0.020729743 0.6656889 0.0321813 0.042487152 0.08399284 -0.40485486 -0.08424275 -0.3231703 -0.29140866 0.32097507 -0.11322196 -0.23401688 -0.016799912 -0.42689022 -0.11520187 0.24795844 -0.038534347 0.1538328 0.21124355 0.1656137 -0.28449178 -0.053883966 -0.2316584 0.002611824 0.049971633 -0.11402283 -0.42086735 0.37425944 -0.012728943 -0.043697197 0.017214032 -0.42599612 -0.015392976 -0.47121012 0.23818785 0.25844717 0.021756435 -0.13882992 0.29602388 0.19161633 0.100892186 -0.21855736 0.014933911 -0.040136084 -0.009864879 -0.11816385 0.5390125 -0.10355226 -0.24218684 0.104930654 -0.16007972 0.12672701 -0.043373585 -0.32730258 0.17954549 -0.12652062 -0.044351168 0.23626398 0.05458723 -0.013708524 0.057224855 -0.058686763 -0.09872926 0.12729597 0.16898163 0.09765693 -0.23849954 0.23915468 0.04129385 -0.4143732 0.33795428 0.14659184 0.08212067 -0.22597075 0.026217092 -0.015779035 -0.5687149 -0.17614801 -0.044804983 0.22965482 0.17631643 -0.1666833 0.44547367 -0.16991942 0.051412273 0.17664024 -0.019236134 0.18993276 0.2178039 -0.040637963 -0.3147451 0.3293579 0.038304877 -0.04300194 -0.30268636 -0.14344278 -0.2160317 -0.015765244 -0.21335134 0.18880837 -0.05724368 0.6395844 -0.33810624 -0.2426171 -0.10078016 -0.05876827 0.2191166 0.14173897 0.049662847 0.18947862 0.26389405 0.19247258 0.18797742 -0.04852666 0.13077696 0.15287285 -0.052913863 0.1662932 -0.07148298 0.020726493 -0.15674476 0.31809673 0.18991967 -0.23961344 -0.49905384 -0.05134082 0.019872384 -0.019808395
128 0.089335784 0.25542292 -0.123972826 -0.12320116 -0.042817436 -0.14505062 0.22604948 -0.25492403 0.016167175 -0.106255285 -0.33876282 0.026852742 -0.22155774 -0.0024693662 -0.1273375 0.03020822 -0.24986178 0.13571416 0.00048326445 0.3314736 0.016005868 0.35643706 0.11549232 0.3117749 -0.020964056 -0.20296028 -0.1763065 0.052797683 -0.21277227 0.091646194 0.14082082 0.017548034 0.100092165 0.0814278 0.026905993 0.07836488 0.12592769 -0.01287635 0.4386435 0.0072380253 -0.15280612 0.11157088 0.13079806 -0.080001675 0.2743338 -0.17597635 -0.04698059 -0.260922 0.014684889 0.0050229956 0.06088761 -0.21187355 0.08630757 -0.23527147 0.22817653 -0.16309619 -0.1257666 0.14617588 -0.15006101 -0.17097399 -0.36540782 -0.0664105 0.067538485 0.17178854 0.73149306 0.4430314 0.09130817 0.053683646 -0.35518253 -0.08435716 0.19003883 0.27940756 0.21574707 0.14801252 0.063973084 0.30622634 -0.3697853 -0.22433221 0.07812876 -0.06507103 -0.35180247 0.02691943 0.11765521 0.18397097 -0.13188367 -0.33053657 0.3911606 -0.0022650876 0.1629341 0.19112848 0.13088833 0.120790474 0.6774803 -0.44585702 0.20031954 0.24085513 -0.2782197 -0.19984035 -0.10978008 -0.13010463 0.19664927 0.056204047 -0.201463 0.044354644 0.12738934 0.22311923 -0.010912669 0.08673254 0.1515727 -0.08810627 0.1484839 -0.31274408 0.11752927 -0.0218543 -0.18178667 -0.16499607 0.2244792 -0.26680747 0.3614844 0.20923953 0.08213813 -0.08204394 0.004797281 -0.2903707 -0.13324776 0.20891197 -0.18333893 0.16734153
3237 -0.20620362 0.35863107 -0.2415448 -0.0017476282 0.03275966 -0.21578148 -0.105306946 -0.1966023 -0.080192216 0.33967263 0.023513975 0.052736387 0.07149249 0.36729917 -0.3352596 0.1308866 -0.16477717 0.09038501 0.30613902 -0.15197217 0.08400711 0.2054609 0.1714006 -0.19218019 -0.25760183 0.1318708 -0.33820164 -0.19236337 -0.23362201 0.3259791 0.05830843 0.045847427 0.25905454 0.2739342 -0.0946674 0.38198024 0.06329825 0.3580913 0.0026204826 -0.1460864 -0.053085413 0.2843107 0.23698516 -0.16457385 0.11952875 -0.1151007 -0.24103907 0.16227823 0.2003666 -0.060518898 0.088586114 0.25847006 -0.19704475 0.1933448 0.10597615 0.14635988 0.030687176 0.57553494 -0.16191813 -0.050383896 0.11838906 -0.12376639 -0.12469887 -0.11618322 -0.0038527932 0.33859512 -0.19180731 -0.17948936 -0.38847953 -0.5317772 -0.12327404 -0.19858097 0.05773499 0.2685678 0.10028073 -0.06935929 -0.47320086 -0.027219318 0.29620886 0.29988405 0.27493492 0.0038269756 -0.10784016 0.6068165 -0.26613647 -0.5637085 0.24404424 -0.09879751 0.11972645 0.0067533944 0.15839107 0.2837555 0.241649 0.13596347 0.26884636 0.18281575 -0.20579536 -0.20154247 -0.08389958 -0.2717206 0.29428583 -0.059983935 -0.35668892 -0.041385725 -0.04326652 0.0043376153 -0.13674131 0.12290729 -0.12970874 0.2914936 0.08744273 0.053288255 0.094565205 0.091939434 -0.092035644 -0.4253716 0.050912526 0.018536719 0.2320508 0.25687075 -0.16085717 0.26279867 0.11686424 -0.4224127 -0.066553906 0.13282089 -0.3891415 0.33701712
1427 0.14406571 -0.16805513 -0.13739172 0.44046012 0.23070756 0.12106089 0.096034266 -0.18280788 -0.19005297 -0.038273882 0.08406932 -0.05122875 0.4031023 0.3086138 -0.3385284 0.026043553 -0.2510484 0.35160637 0.2628276 0.056842934 0.13018963 0.3443552 -0.29004776 0.19683352 -0.11172924 -0.2636272 -0.12814538 -0.38911965 -0.18581718 0.30547562 0.03929777 -0.093203664 0.21580562 -0.2744795 0.3540861 0.14850886 0.32738456 -0.10849786 0.051886685 0.05278765 -0.05347947 0.035150986 -0.27094924 -0.29772788 0.088554524 -0.37115437 0.081368506 -0.2687774 -0.21224405 0.08898668 0.1478414 -0.20020857 0.03524593 -0.12719475 -0.12889653 -0.20833467 0.05735917 -0.11995379 -0.1771592 -0.2696261 0.100874044 0.06632962 0.20759241 0.23179787 0.46277982 0.22770229 -0.0073072235 -0.07875298 0.24471729 -0.4785358 0.036239903 0.027048206 0.09982197 0.24022794 -0.11808754 0.32486278 -0.34366935 -0.1228225 -0.054884247 -0.120825164 0.15060663 -0.12539019 0.064506836 0.17006549 -0.18100461 -0.36669284 0.1946398 -0.26575243 0.15115955 -0.005561522 0.05466904 0.011382741 0.30235374 -0.18816195 -0.40920752 0.20471275 -0.16799316 0.12595727 -0.10903684 -0.24786788 0.118438125 -0.04093303 -0.058199 -0.3769325 -0.08389698 0.3879514 -0.043334436 -0.00040837692 -0.035683047 -0.19661544 0.20650478 -0.060745157 -0.13320537 0.37768397 -0.0813612 0.019098757 -0.27021447 0.12551741 0.2211367 0.22856358 0.22573112 -0.20195445 0.13673337 -0.32666528 -0.19377944 -0.046248354 0.31763047 0.5922562
2615 -0.2769638 0.15496461 -0.13029343 -0.28476703 0.118679054 -0.13214426 0.41883206 -0.3950059 -0.0728639 0.12187617 0.225475 0.1490721 0.1626786 -0.20304352 -0.20974228 0.21460257 0.21977358 0.18083437 0.19922356 0.30016163 0.057530914 0.32590377 0.1948691 0.055713635 -0.124278136 -0.1910117 -0.03810704 -0.19703731 -0.5207947 0.48041576 0.5588704 -0.16243748 -0.10486209 0.20297788 0.00602481 -0.29339743 0.23509295 0.19377612 0.34240678 0.23046239 -0.21108231 -0.27838355 0.4086512 -0.20647666 -0.010153638 -0.17730284 0.37231004 -0.073280156 0.23201418 0.094767 -0.26306656 0.09322382 -0.26013884 0.14898722 -0.015602649 0.007344874 0.08666393 -0.3347886 0.13086459 0.11215429 0.22913367 -0.14977546 0.25538668 -0.29941085 0.08449916 0.09083044 0.3038142 -0.2526464 -0.096581236 -0.056896396 -0.05941912 -0.088325724 0.2580839 0.30329725 0.08217112 0.5407298 -0.1357271 -0.30943656 0.08689886 0.03230302 -0.00068449636 0.4312306 0.24835679 0.48982757 -0.2722453 -0.271609 -0.16556501 -0.1156608 0.0527593 -0.03911445 -0.24146165 0.11105742 0.49212295 -0.011145774 -0.24542436 0.30643833 -0.09928237 0.32263753 -0.015968759 0.606675 -0.09903167 0.17034496 -0.0904762 0.08851414 -0.44836077 0.17424925 -0.055901736 -0.12025018 0.112948656 0.128987 -0.69195807 0.1014006 0.21238677 0.5691875 -0.1380339 -0.14626656 -0.1434192 -0.0017355083 -0.14676262 -0.10416716 0.17449637 0.16573775 -0.0101027265 0.073938735 -0.2914437 0.112701364 0.050219145 -0.07907936
2729 -0.49368426 0.31603232 -0.38246992 0.23287791 0.070627205 -0.48901626 0.015833877 -0.18637834 0.0015211335 0.2467856 0.16923726 -0.24245921 0.25272647 0.007945285 0.1400378 -0.083224304 -0.25171244 0.31113955 -0.044445448 0.14178966 -0.34121597 0.23486836 0.031726096 0.05471761 -0.3114078 -0.15250908 -0.1803587 -0.04748061 -0.6445693 0.34277543 0.10391119 -0.20909901 0.016765688 -0.05734047 -0.16152051 -0.17513268 0.20375401 -0.13655041 0.076992854 -0.03225796 0.12829621 0.1292974 -0.007819635 0.1950073 0.12110423 -0.114097565 0.102899626 -0.1488162 -0.36164168 -0.05931462 0.46810937 -0.08248391 0.16706127 -0.27121127 0.3076179 -0.31232873 0.2728916 0.21189411 0.14648399 0.04968905 -0.47367138 -0.061555415 0.34058166 0.00010569027 0.19104429 0.4599558 -0.07488291 -0.04114289 0.042633142 -0.09359605 0.043459162 0.285537 0.10848656 0.17675646 0.0528624 0.12210448 -0.21817017 -0.29230586 -0.035795316 0.010673996 0.26966566 0.12146693 0.50317866 -0.10520739 -0.053752877 0.07799514 -0.12334771 -0.0913599 -0.14347531 -0.23308381 -0.1144572 -0.09538869 -0.3078181 0.0697938 -0.2159519 0.027531544 -0.20887724 0.080920905 -0.36706954 0.08312848 0.09829873 0.27858812 -0.37071162 0.04389828 0.26599276 -0.037120633 0.06278117 0.07775896 0.17237929 0.12988418 0.022841616 0.008605059 -0.13058439 0.37777495 0.00076860574 0.35433188 -0.057055313 -0.23235586 -0.15143242 -0.07318215 -0.53430086 -0.49016228 0.54823303 -0.021546595 0.47446236 -0.31558257 -0.13161096 0.6285119
1344 0.053721186 0.28259113 -0.13526466 0.015159441 0.062335096 0.25765112 0.31273067 -0.315447 0.14695348 0.06693638 0.45853436 -0.08604455 0.14579937 -0.26518977 -0.23466603 0.14606154 0.185921 0.393903 0.13876736 -0.07109063 -0.14860477 0.12842128 -0.003081644 -0.052258033 -0.31380898 -0.005385819 -0.42367247 -0.2610538 0.05071772 0.15485987 0.33862334 0.020863863 0.0854328 -0.08864782 0.43250054 0.36540014 0.15017992 0.09414963 -0.19579075 0.22765043 -0.21477306 0.35064936 -0.071593866 -0.33650607 0.19364029 0.18627961 0.024543758 -0.22479372 -0.19254313 0.2760872 0.12160815 0.064539574 -0.18409345 -0.16231526 0.26508108 0.10832501 0.06236641 0.14144963 0.010067704 -0.075902715 0.10962344 0.488728 0.14379783 0.06143532 0.064546295 0.21878716 -0.14227936 0.15723276 -0.14083062 -0.36332926 -0.06519963 -0.099662565 -0.26595357 0.09756299 0.13225958 0.2077614 -0.12731898 0.06785779 0.26419225 0.10540119 0.05927027 0.26353982 0.09398107 -0.044762105 0.0155377565 -0.06164718 -0.20072936 -0.51227534 0.29312932 -0.047021806 -0.42340466 0.14317177 0.23300657 -0.14569788 0.017314047 0.33537275 0.046786595 0.04979297 -0.40939522 0.23435608 -0.051389944 -0.003847452 -0.18747245 0.11412995 -0.2836763 0.016456194 0.122226074 0.16129331 0.48337346 -0.11794388 -0.061235595 -0.0880393 0.2152719 0.08984556 -0.08912818 0.10746363 -0.20589626 -0.5789364 0.21693742 0.099676 -0.095422 -0.17614482 0.028839936 0.04320265 -0.2967251 -0.48388657 0.16865547 0.01563253
109 0.035052083 0.17455524 0.0970717 0.081599146 -0.10418178 -0.19336137 0.109765954 -0.5492271 0.28641975 -0.09155103 -0.12963353 -0.22797239 0.047263082 -0.019985953 0.061011896 0.28732705 -0.35291895 0.1416711 0.24003647 0.41150495 -0.08437568 0.42265156 0.1087661 0.26469895 -0.12217033 0.016801555 -0.14838256 0.05583105 -0.057270586 0.24012484 -0.3164539 0.0048878463 -0.15149264 0.02630335 0.33606356 0.092430934 0.19403423 -0.16334362 -0.0059893406 0.12142238 -0.40040684 0.24998799 0.007079764 -0.31326264 0.2854827 0.01454964 0.045430526 -0.2789949 -0.45374742 0.07637416 0.12844485 -0.014110561 -0.027726443 -0.29409167 0.122400224 -0.2243036 0.06576181 0.14378312 0.04181501 -0.24794298 -0.43037033 -0.21865033 -0.087787 -0.12674482 0.16513087 0.19843835 -0.041050926 -0.3496324 -0.13988881 -0.2224502 0.15579788 -0.05459215 -0.14623037 0.14696012 -0.15623218 0.11677942 -0.16762659 -0.20615833 -0.07870615 0.12068984 0.005235052 -0.060614657 0.018591886 0.45237425 0.009014636 -0.15010147 0.26737913 -0.2877302 0.10573787 0.029698616 -0.009442144 0.10914355 0.49964795 -0.33402637 0.18624568 0.028368406 -0.09416715 0.12709413 -0.19851078 -0.1644929 0.3873206 0.15738836 -0.346695 0.04428626 0.108746305 -0.044076093 -0.43040392 0.019426014 0.116575524 0.02354359 0.42753878 -0.024500469 -0.055419877 0.13580318 -0.006578048 -0.13593784 -0.10601368 0.2519387 0.32270068 0.38137868 -0.17388949 -0.35868567 0.2319414 0.15157627 0.1475068 0.18324676 0.07523636 0.23146139
381 0.18935639 0.2861568 0.17973405 0.6708666 0.14651874 0.014644134 0.085006036 -0.17165421 -0.4435328 -0.1383971 0.06934442 0.23344813 -0.07415047 -0.04293455 -0.30630866 0.1826382 -0.5336946 0.3383113 0.38182062 -0.09077117 0.5380748 0.32558337 0.005217655 -0.30423397 -0.11197854 -0.24846743 -0.14088887 -0.1881043 -0.6739119 0.2722136 0.2336734 -0.25392583 0.06694555 0.40688446 0.17192037 0.61162496 0.11354301 0.28767666 0.3419463 0.083813705 0.23468868 0.11535734 0.06198351 0.01628826 0.33519948 -0.32381737 0.050746836 -0.21491793 -0.1690514 0.1622522 -0.0135083 -0.071316406 -0.24790324 -0.042420983 0.1560627 0.14780334 0.32580537 0.025837244 0.23746602 -0.23716107 -0.16690134 -0.01708375 -0.01778846 0.17601158 0.08673202 0.022627471 0.07991894 -0.00019982451 -0.38099042 -0.17667404 0.11281658 -0.024966795 0.35856026 0.13344575 -0.14741191 0.14840764 0.0970697 0.31571016 -0.1233004 0.13310397 -0.16934894 0.054766886 -0.13739032 0.35935873 -0.03204016 0.031847067 0.12623887 -0.46166927 0.16911794 -0.028026301 -0.07418638 -0.004192494 0.25804457 -0.3121231 0.13520274 -0.1161583 0.013993778 0.082764864 -0.03362641 0.025075696 0.060023017 -0.068195075 -0.35533655 -0.046182565 -0.18639688 -0.24783373 0.16351922 0.060472578 0.16209336 0.114765316 0.13175353 -0.13330373 -0.27850515 0.23190793 -0.15575524 -0.19089246 0.15356417 0.34879148 0.20503387 0.10529049 0.00016241644 -0.024767864 -0.04101546 -0.1968836 -0.49342898 -0.0734456 -0.17158318 0.414188
3225 0.08778822 0.19772346 -0.031917162 -0.10544428 0.1168789 0.077234566 0.094987266 0.036159962 -0.3540047 0.33989215 0.06101737 0.14602897 0.1958836 0.37814966 0.08249611 0.25812203 -0.22720689 0.34758326 0.19286181 0.056488246 -0.012006505 0.38924482 -0.07008005 -0.38752007 0.017260097 0.04354036 -0.2865597 0.19854409 0.021697592 0.2766551 0.42361706 -0.048473068 0.032856185 0.009069869 0.24624336 -0.14736679 0.40720838 -0.17581396 0.36772794 0.0052694906 -0.3111808 0.0982969 0.004929333 -0.23805496 0.19800273 -0.37335017 0.009293879 0.068732895 -0.16331725 0.5767605 0.38422778 0.063384846 -0.26805535 0.07199925 0.022112325 0.13478316 0.30780104 0.17231412 0.23813769 0.25602058 0.20886762 0.16994183 0.41169992 0.09965878 0.10221013 0.22338459 -0.16276601 0.22892222 -0.036487598 -0.23464824 0.066931464 -0.1734813 -0.18665935 -0.16055481 0.036437187 -0.0044049593 -0.44466788 -0.00624346 0.005423758 -0.007678737 0.13624834 0.067034066 0.231044 0.50916034 -0.21677305 0.013186959 0.099026226 -0.13335213 0.042871322 0.47041723 0.022261806 0.44570398 0.40445855 -0.4335376 0.20445643 -0.05512577 0.12881045 0.11476574 -0.14484572 0.49373996 0.18392804 0.32717103 -0.330807 -0.2373507 -0.07877903 -0.1825198 0.20951489 0.111065924 0.20263259 0.07181419 -0.100732654 0.018923732 -0.35268718 -0.35597524 -0.26519164 -0.05657866 -0.14847934 0.046381462 0.0006301038 -0.07459348 0.038951356 0.0832384 -0.24533054 -0.085850604 -0.09584694 0.24579549 -0.36122972 0.1296092
704 -0.09145325 0.23926416 -0.055244677 0.08111249 0.13965486 -0.12279831 0.13981117 -0.16791971 0.009188893 0.14869772 -0.059013378 -0.4975043 -0.21112892 -0.06493381 -0.083377816 -0.055979513 -0.4609165 0.10116601 -0.18092729 -0.33471742 -0.04482976 0.24985643 0.26116377 -0.054685876 -0.37939706 -0.0980154 -0.247942 -0.30682 -0.02869085 -0.065447144 0.21996048 -0.47133836 -0.28822628 0.24906167 0.03090654 0.15243171 0.18526946 0.2518717 0.06907752 0.060763206 -0.12281655 0.35259938 -0.0771016 -0.35648897 -0.03598565 -0.08119989 0.2409394 0.28558952 -0.2506947 0.2882136 -0.28027445 -0.15039197 -0.2552023 0.05412006 -0.01027546 0.07123157 0.6139903 0.049888924 -0.36347523 -0.21901958 0.16178013 -0.1291454 0.015617058 -0.23376596 0.39965084 0.36206087 0.2821149 0.03777965 -0.035639953 -0.13542056 -0.09966867 -0.25386485 -0.107225664 0.08411983 0.012910229 0.51156074 -0.41893923 0.15089206 -0.46946612 -0.017350862 0.06323456 0.17059976 0.2694666 0.49508733 -0.23026232 -0.13955227 -0.07066289 -0.1476747 -0.13663329 0.108006716 0.08193182 0.0036261713 0.33802694 -0.009576464 0.24608292 -0.10963156 -0.11718716 0.30158046 -0.1443005 -0.09265444 0.01702328 0.29080835 -0.14239763 -0.12584364 0.46113077 0.15216868 -0.28864747 0.40005177 0.05466766 -0.15534008 0.15527311 -0.27981794 0.22057001 0.40907675 0.22988527 0.08317055 -0.015582829 -0.10291605 0.45745343 0.29638198 -0.17777696 -0.06777365 0.14915812 -0.007861264 0.005427044 0.33348957 0.33512136 0.046006214
1838 0.0020582948 0.12447288 0.15429547 -0.25168857 -0.11268314 -0.16404936 0.02705246 -0.3075628 -0.063412935 -0.0010039358 -0.7549039 -0.19473453 -0.42557812 -0.19467498 0.012546234 -0.16388245 -0.34650853 0.38341573 0.22578369 0.022537075 -0.060156647 0.20893787 0.13387045 -0.24570048 -0.21788561 0.1317562 -0.07658367 -0.20228563 0.31120008 0.17637016 0.2229809 -0.0032128629 -0.11320948 -0.14754868 -0.01641668 0.16106284 0.14340034 0.09328554 0.41291136 -0.23246251 0.09618709 -0.149475 -0.00051889644 -0.103044786 -0.04479231 -0.09187466 0.3929607 -0.16455057 -0.14675102 0.13847043 -0.107901946 -0.22748601 -0.12300394 -0.17608647 0.084582746 -0.09722078 -0.02253629 0.36144567 0.27616468 -0.0056923367 -0.17594205 0.023414548 0.19417034 0.12042856 0.42010444 0.48634586 0.109144896 -0.07485134 -0.2034309 -0.49527967 -0.08117379 -0.13155174 -0.2140509 -0.044289984 -0.27970904 0.0022408818 -0.07204119 0.17558864 0.18979724 -0.037698515 0.005278415 0.028797766 -0.14222817 0.23404582 -0.068232186 -0.30751482 -0.089330666 -0.16022018 0.28037527 0.066811815 0.13443406 -0.035109755 0.023864813 -0.50973654 0.34401873 -0.10200074 -0.049367953 0.023741111 0.017618686 -0.16522342 0.2833921 0.09663732 -0.13899529 -0.30979976 0.10756054 0.17047156 -0.38374132 0.1937714 0.13700381 -0.047747944 0.12536974 0.14803712 0.1053034 0.6484247 0.11483005 -0.07551041 -0.4900868 -0.15566294 0.6011975 0.21680197 -0.044551097 -0.020126197 0.2196372 -0.25053626 -0.25232 0.04301911 0.15082107 0.27116343
489 0.16966951 0.28547242 0.20349851 0.4017053 0.08012448 -0.20576291 0.048571408 -0.54674315 -0.0004372037 -0.082548425 -0.2693879 -0.112082355 -0.12986185 0.26913002 -0.22264323 0.10173392 -0.11241147 0.051097754 -0.10492625 0.19121248 -0.08090519 0.31116098 -0.03196905 -0.119118065 -0.12123786 -0.08153002 0.078704625 -0.45575204 -0.4369649 0.22226974 -0.039763715 -0.08947649 0.16887695 -0.014097806 0.063668914 0.1786537 0.042996127 0.26904365 0.054771803 -0.15813796 -0.26108935 -0.10116623 -0.34938133 0.023710212 0.19283068 -0.28125313 0.08915407 0.081216276 -0.3485662 -0.036142718 0.25434494 0.23332204 0.038477954 -0.4758668 -0.11013138 0.1970882 0.3116186 0.43826592 0.1377402 0.020911703 -0.036331035 0.051696535 -0.28613073 -0.09048226 0.43839914 0.12258319 -0.116529435 0.11822548 -0.088418216 -0.4100054 0.2042627 -0.02488905 0.15085132 -0.104400896 -0.120340854 0.3899925 -0.3925143 0.19138156 0.07444437 0.078126326 0.04072536 0.17600681 0.4211959 0.44504035 -0.16827391 -0.12355929 0.1606505 -0.2676414 0.42171186 -0.23704998 -0.15502475 -0.021222174 0.30927143 -0.25153384 0.41950282 0.032399245 -0.27995455 -0.12898842 -0.15494274 -0.19566102 0.17100273 0.11327543 -0.28310356 -0.17360994 0.15861359 0.12383581 -0.24975309 -0.1377161 -0.07681506 -0.088645354 0.16174963 -0.2222894 -0.05497059 0.29238802 -0.08405971 -0.00071392296 0.062384177 0.07668678 0.07667972 -0.06825506 0.2592271 -0.25808308 0.4754509 -0.16300796 -0.17353445 0.28770447 0.047556475 0.06592292
609 -0.16706641 -0.08775346 -0.19329517 0.3809899 0.13012663 0.07662654 -0.407965 -0.4174809 -0.008363996 0.13490129 -0.16349879 0.082286954 0.19205455 -0.19112691 -0.003046363 0.3862379 -0.20855549 0.48450163 0.08285968 0.11774685 -0.01619357 0.42415562 -0.41476917 -0.09811848 0.07818025 -0.16279623 -0.24085443 -0.06575982 -0.2551009 -0.10042363 -0.30129427 0.082812846 -0.10078235 -0.25318277 -0.03993679 0.18576413 0.0958587 0.2911339 0.0130475145 -0.14388533 -0.1436663 0.16947818 -0.033727773 -0.2837182 0.3297241 -0.010230181 0.0385882 -0.13151748 0.022466417 0.03355044 0.065481946 0.27118623 -0.023059482 -0.38824978 0.2043826 0.09425803 0.2732942 0.4563759 -0.06362711 -0.15282229 -0.3816528 -0.06821453 0.40210775 0.1677957 0.06995962 0.6820855 0.13311383 0.1827483 -0.012929709 -0.48651138 0.012875983 -0.41070172 0.06750003 0.06371088 -0.01939348 0.13276036 -0.23843363 -0.22421312 -0.36180347 0.107954815 0.13012724 0.25119644 0.124225274 0.124771565 -0.25507504 -0.16463822 -0.009466375 -0.24202327 0.10299659 0.2735104 -0.19942452 -0.21209854 0.33734632 0.021817448 0.3747039 0.026626514 0.2345289 0.11315962 0.030925969 0.066186935 0.032749206 0.07462721 -0.14840098 -0.15194958 -0.020812267 0.25884882 -0.008758469 -0.022777349 0.16404481 0.28067338 0.10783271 -0.24971364 0.008142927 0.2183069 -0.2999352 -0.028016686 -0.19106343 -0.2902679 0.3285146 0.0076344563 0.058828317 0.022209829 0.3087809 -0.28965625 -0.07021084 0.38187784 -0.109995335 0.21367514
1237 -0.00933458 0.12269104 0.11239203 0.069206774 0.08374539 -0.22044764 0.27752185 -0.30070102 0.023238337 0.2160271 -0.067049146 -0.21670543 0.015337833 -0.30746874 0.16506195 -0.052189097 -0.15174726 0.3647014 0.41041365 0.25501457 -0.076650195 0.24621138 0.17762794 0.18502486 -0.14878926 -0.3398856 -0.14260799 -0.13262875 -0.1700779 0.17553723 0.21566823 0.1070805 0.13704821 0.3117132 0.17837967 0.09914074 0.26090118 0.16599135 0.37715748 -0.017661944 -0.14032029 0.5896051 -0.07471191 -0.021847216 0.1389166 -0.07307317 -0.28069365 -0.20807229 0.19726855 0.22308005 0.18657218 -0.043862086 -0.1073432 -0.1427448 0.41841912 -0.0529617 0.27049616 0.21901791 0.03456046 0.15688832 -0.40008345 -0.3050863 0.14017336 0.041720722 0.09585167 0.10198952 -0.046623006 0.18582523 -0.1075059 -0.29455432 -0.032554984 -0.0260145 0.21455346 0.13128264 0.2566554 0.19730164 -0.12932417 0.11833062 -0.060136013 0.04637653 0.19435637 0.0233313 0.112807184 0.5990208 -0.4488344 0.20013969 0.5338458 -0.21983741 0.2578621 -0.17124653 0.12802877 0.15847632 0.22491309 -0.29948542 0.077354886 -0.027797623 -0.32287136 0.3978237 -0.08042822 -0.35723463 0.0142558515 0.20783535 0.13530008 0.10042243 0.31407788 0.2881952 -0.015095875 0.22422649 0.15527862 0.08019346 0.05308352 -0.41100532 0.05773385 0.049964327 -0.1101778 0.12620822 -0.14011317 -0.16101512 0.28492883 0.16498095 0.12694883 0.051864084 0.36396003 0.13456783 -0.06173968 -0.3395345 0.1812958 -0.029285643
2335 0.17438254 0.272248 -0.10776723 0.359083 -0.3908879 -0.11276044 0.23554458 -0.44442514 0.2520334 -0.2023887 -0.20857327 -0.11163664 -0.31160724 0.3907932 -0.24285479 -0.015127286 -0.42061773 0.2586946 0.08082747 -0.07870437 -0.15468101 0.35896596 -0.11652827 0.13170394 -0.34772038 0.29145816 -0.08270106 -0.21936584 -0.0039189477 0.108564645 0.097608075 -0.030251686 0.027671592 0.042660613 0.13061614 0.13564083 0.25693265 0.04287961 0.013487427 -0.23810738 -0.2661205 0.1160549 -0.10792818 -0.14680806 0.24106644 0.3310386 0.24509546 0.235668 0.16940084 0.13810249 -0.14271027 -0.30365902 -0.057456985 -0.4055999 0.15389493 0.004247508 0.34436917 0.24940784 0.2906588 0.1008282 0.07090387 -0.0021139635 -0.2731322 0.20768712 0.042629976 0.18551129 0.096503936 0.121547334 -0.09571043 -0.18113433 0.08583669 -0.059527755 0.34408152 0.35979518 -0.019762032 0.08059369 -0.30139074 0.24678144 -0.15853271 0.1565038 0.025754504 0.091184326 0.31377807 0.29132333 -0.13400477 0.12277053 -0.23314248 -0.35630894 0.5236269 0.20312823 0.17653655 0.06665673 0.43719026 -0.16655746 0.1687104 0.12441571 -0.04837871 0.56158334 -0.14313988 -0.0920256 0.38789046 0.116033934 -0.14730035 0.09171907 0.12454181 0.0658407 0.101040594 0.47142664 -0.1432733 0.13237718 0.046305276 -0.24539042 0.022753842 0.416019 -0.18084405 -0.21513033 -0.20669802 -0.12200511 0.1929631 -0.0019049058 -0.18464297 0.068032674 0.23316096 0.19199659 0.17482387 0.12817694 -0.06215462 0.25785035
2677 0.28459272 0.005526397 -0.11377554 0.14308487 0.091272995 -0.05827636 0.09383532 -0.17851752 -0.049477786 0.3807598 0.11403542 -0.044423833 0.10312138 -0.15767305 -0.0055704997 0.24976034 -0.08442135 0.0020391766 0.2854743 0.3622614 0.030750282 0.22023265 -0.06383948 0.04130467 -0.3070402 0.22778521 -0.37660614 0.2555168 -0.16046049 -0.026348583 0.13943028 -0.13013513 -0.33696875 -0.09100703 -0.20573479 0.19890143 0.2510364 0.0659604 0.27189857 -0.03555861 0.0018967501 0.49060315 -0.036987044 0.09762024 0.36835212 -0.4247584 0.17810002 -0.13909595 -0.05937399 0.12969995 0.05656547 -0.2524169 -0.027989408 0.39038762 -0.015796531 -0.06069015 0.13258752 -0.16745588 0.08745717 -0.020924753 0.3724355 -0.08996896 0.059622876 0.2334134 0.28421178 0.31791228 -0.069446154 0.044336412 -0.058428872 -0.16484517 0.4138343 -0.21275342 -0.14900427 0.12753756 0.16770822 -0.083513424 -0.28131238 0.25713214 0.014115917 0.1691476 0.033964332 0.22634514 0.2719076 0.3381221 -0.0795235 0.20273033 -0.24883862 -0.72012347 0.42188987 -0.06438233 -0.39016488 0.42752436 0.39635772 -0.20940875 0.33246002 0.29067594 0.21114133 -0.050583083 -0.086851984 0.0569907 0.15800628 -0.106087744 -0.14168656 -0.23022252 -0.066587016 0.24050108 0.14930779 0.2409257 0.0911382 -0.48656934 0.047631927 0.12959208 0.043485716 -0.09175122 0.16173288 0.44573024 0.09389104 0.18044935 0.12853958 0.21591857 0.09376075 -0.4081603 -0.18666998 -0.13539997 -0.20084648 0.24298686 -0.4270726 -0.13058482
1169 -0.28494057 0.039752614 0.08553416 0.18169612 0.11708553 -0.32063684 -0.17158394 -0.32588494 0.0630801 0.19138075 0.17543182 -0.17975457 -0.06944248 -0.21291162 -0.093402505 0.15228362 0.20094697 0.12381029 0.21820608 -0.27451873 -0.11055889 0.35629907 -0.34397447 0.31668684 -0.3952984 0.093104854 -0.24367037 0.10860397 -0.17284684 -0.01571628 0.32600024 -0.27774468 0.27695334 0.20681925 0.27708474 -0.15284461 0.12772635 0.2922607 0.48370093 0.18759519 -0.21767002 0.073962286 0.2804473 -0.42250356 0.049595453 -0.46241578 0.027052434 -0.27751145 0.33195117 0.38479498 0.17330946 -0.21115641 -0.007825727 -0.029164914 -0.06850122 -0.083780974 0.19784863 0.026510023 -0.058894917 -0.091639556 -0.12728176 -0.08130889 -0.019352742 -0.26251817 0.49123308 0.36961764 -0.17826116 -0.1794416 -0.036013123 -0.21927525 0.051985815 0.21495007 -0.0821229 0.18430085 0.12589899 0.041086648 0.031020667 -0.13573848 0.41272554 -0.1545224 0.06449053 -0.18159615 0.58458287 0.11929959 -0.08631361 -0.21302053 -0.055674642 -0.24926752 -0.077689216 0.08649955 0.17066014 0.065690115 0.2648131 -0.18052888 0.012842951 0.31373048 -0.03261484 0.19689186 -0.023704197 0.059149545 -0.028172571 -0.16525273 -0.08050463 -0.31208405 -0.021699898 0.3197048 -0.045133494 0.14461835 0.10226405 -0.18613 0.08663901 -0.029241838 -0.10739339 0.0017195332 0.0312354 0.013156423 0.15187864 -0.31711504 0.015587922 -0.015950568 0.038198408 -0.19817564 -0.002351424 0.03995358 -0.031165613 0.27544364 0.22276686 0.09003044
958 -0.103759974 0.56267744 -0.0812197 0.30211985 -0.059310555 -0.30699828 -0.22495338 -0.24390689 -0.11787966 0.45502096 -0.026458567 -0.24207427 0.087025106 -0.16547991 -0.20069452 -0.15465912 -0.20801817 0.092924654 0.37832415 0.15971789 0.22114594 0.096403636 -0.13488375 -0.144827 -0.11796963 -0.16244538 -0.22177008 0.156067 0.2472393 -0.018629314 -0.03904342 -0.17036709 -0.09008999 -0.44665655 -0.00831937 -0.09387271 -0.36185458 0.1337792 -0.09787061 0.12981194 -0.024514116 0.13504016 0.2432392 0.07047477 0.21647477 0.092676856 -0.15665841 -0.13227694 -0.28005454 0.08990567 0.10511079 0.61039346 -0.2510971 0.014132454 -0.18832248 -0.15979862 0.03684073 -0.053894985 0.25028417 0.10229255 -0.22445537 -0.3390205 0.25878748 -0.04068566 -0.19450341 0.30454084 0.13293858 0.27964538 -0.33925813 -0.084390394 0.1804504 -0.31468037 0.1642753 0.21570364 0.014657791 0.107973166 -0.33437145 -0.15694328 0.27523777 -0.2072676 -0.16025217 -0.08921608 0.25051096 0.3841587 -0.21981563 -0.014066795 0.1894785 0.13504075 0.35314384 0.15821768 -0.621821 0.33097816 0.12535825 -0.5097951 0.021181295 -0.02114945 0.13046709 -0.0776483 -0.21870366 0.3619256 0.20072165 0.37972295 -0.18450855 -0.45063496 -0.111550465 -0.21290582 0.47499958 0.041152954 0.25091723 -0.11472848 -0.13823108 0.0020556194 0.029963465 0.37169158 -0.3475702 0.22854298 0.11483359 0.20707764 -0.19317375 -0.18146558 -0.25287703 0.1045686 0.15937366 -0.28794166 -0.2904168 0.036203116 -0.16739225 -0.100617886
2585 -0.059462115 0.20173064 0.037644543 0.28983012 -0.0084195165 0.026977304 0.15748711 -0.11970594 0.38116324 -0.13341945 -0.3440917 0.04750891 -0.1834412 0.013109817 0.042006154 0.32863715 -0.07527245 0.10449596 0.2954472 0.049228285 -0.08841762 0.3133406 -0.11108013 0.32575744 0.09477054 -0.03458894 -0.17039289 -0.21755278 -0.36267662 -0.12492803 0.16220799 0.053232186 -0.119793296 0.14336649 0.1550734 0.13595153 0.44638172 0.1453477 0.40280834 -0.13395113 0.18619415 0.19586822 0.035675872 0.010329276 0.48050743 -0.30821496 0.2740323 -0.3733388 -0.031273786 -0.18933077 -0.10694838 -0.106642425 -0.11302535 -0.15213889 0.15328689 -0.01877962 0.086973906 0.4554268 -0.06790445 -0.04048815 -0.10161194 -0.3566089 0.16546817 0.084328696 0.10576593 0.100451365 -0.15579592 0.011483717 0.010551184 -0.07560386 0.024491295 0.1628218 0.13953124 0.15743884 -0.18179674 0.220264 -0.42455608 -0.19715677 0.312957 0.03359163 0.06407174 0.0028974926 0.13585019 0.37717426 -0.104004964 -0.19963366 0.10425465 0.25621244 0.39015564 0.46835002 -0.15293543 -0.17732234 0.18222107 -0.7408984 -0.13633297 0.19057325 0.20283979 0.046107203 -0.22880673 -0.36668795 0.1100853 0.36987138 -0.29775438 -0.12597485 -0.08314529 0.27564862 -0.26404762 0.29099014 0.12760793 -0.016474573 0.16510494 -0.09069532 -0.21247154 0.30540904 0.08196789 -0.19872428 -0.27698213 -0.25955144 0.43518084 0.07104939 -0.09244406 -0.18208067 -0.0023392376 -0.37912643 -0.2107265 0.2509393 0.20900498 0.25592265
2664 -0.06456289 0.36806077 0.06424572 0.549672 0.10007667 0.08011901 0.32921517 -0.2882088 0.21566035 0.26773307 -0.32170108 -0.20262836 0.015368798 -0.29498395 -0.13427831 0.41222543 -0.23553497 0.24227044 0.38287234 0.2724932 -0.033183757 0.012576798 -0.1460431 -0.19940594 -0.07605795 0.11012404 0.051576167 -0.032487683 -0.0655343 -0.02135294 0.21583402 -0.12681808 -0.18961619 0.16451076 0.3951137 0.46493286 0.32188493 0.09553367 0.4224272 0.03450283 -0.086421154 0.10087742 -0.2227369 -0.21113718 0.37750986 -0.17326647 -0.007684336 0.13295364 -0.2096075 -0.028587678 -0.11732811 0.017093914 -0.13587292 -0.052194055 0.06908629 -0.21956323 0.1268604 0.21263258 -0.14893755 -0.19024126 -0.38268295 0.32334104 -0.035270005 0.3569318 0.37155172 0.28428906 0.17230915 -0.1119631 -0.16634233 -0.26976693 -0.1523661 0.16504133 0.19188999 0.28654853 -0.14785399 0.23945916 -0.1274543 -0.024685998 0.34847286 0.20488808 -0.07697854 -0.1375038 0.22321789 0.19283439 -0.101595275 -0.094007686 0.023890467 -0.15156937 -0.10797669 0.2286728 0.31186685 -0.07960978 0.41086617 -0.23401561 0.0389685 -0.17712842 -0.4270984 0.22715439 -0.23043339 -0.13771684 0.2041325 0.15567097 -0.31957415 -0.25680208 0.46970105 0.23914343 -0.2723954 0.024293194 0.41048875 -0.090861276 0.38688886 -0.34831658 0.024569614 0.057704274 -0.07821885 0.3544259 -0.37963814 -0.3792766 0.04310022 0.020972623 -0.015469814 0.041189916 0.08346084 -0.44359544 -0.13469526 0.23857549 -0.11909185 0.059372522
25 0.006854024 0.011665008 0.2089295 0.08081454 0.12597784 -0.12843916 -0.08329444 0.026516028 -0.2877522 0.6033978 0.19920526 0.22528489 0.03119107 0.2236117 -0.003565099 0.10887852 -0.17322998 0.46816507 0.35099098 0.25276354 0.19242291 0.30849385 -0.0042844424 0.03432114 -0.36488834 0.18862289 0.23770113 -0.089570634 -0.035562962 0.12365766 0.077966414 -0.042760447 -0.2259663 -0.07996064 0.24165657 0.31849417 0.15176205 0.051548563 0.41814172 0.22325157 0.003835714 -0.026006507 0.1883385 -0.027545756 0.13058159 0.0018448414 -0.018458478 -0.21961923 -0.33248824 0.53083116 0.26523393 0.28373495 -0.139724 0.0034829967 -0.26072136 -0.32737014 0.36056596 -0.18762495 0.2876137 -0.05601282 -0.011240133 0.004392816 0.2850036 -0.038903918 0.17313759 0.124741636 0.23777547 0.17992687 -0.012838296 -0.28399137 0.10374038 -0.071861446 0.030874822 -0.043579224 0.4515962 -0.055402987 -0.48529017 -0.16020913 -0.05631564 0.24754608 -0.20372967 0.17658323 0.0061690584 0.47510207 0.1274032 -0.11603359 -0.010902932 -0.0921271 0.11594536 0.41309717 -0.048596703 0.1317873 0.4541006 -0.049837515 -0.09218111 0.28116712 -0.27160868 -0.09929008 -0.6319166 0.14372872 -0.0050928686 -0.121753044 -0.19220687 0.05561411 0.05983931 0.021718754 0.1320882 0.17987186 0.5612233 0.1287073 -0.2972073 -0.27286473 0.16261855 0.12592758 -0.27848732 0.35860744 0.22674409 -0.047857463 0.16719396 0.28075725 0.19210175 0.02860501 -0.07450948 -0.14324608 -0.3063915 -0.24161528 -0.2798808 -0.14514321
2477 0.017276952 -0.0797191 0.04279594 0.20009631 0.3098404 -0.043691713 0.027299576 -0.3870086 -0.013695589 0.07054437 -0.12675539 0.34441617 -0.35336214 -0.1201045 -0.14874466 0.44339883 -0.3114692 0.18929233 0.26602602 0.03572526 0.07279081 0.24910134 0.16629417 -0.005951001 0.0005543917 -0.055844028 -0.40172032 0.09383476 -0.21210252 0.26015884 0.18312868 -0.3334017 0.38807237 -0.26494595 0.07178689 0.22083613 0.08502475 -0.083946235 0.19319235 0.14192177 0.030335475 0.05842211 0.30265975 -0.15841839 0.33339912 -0.003930792 0.17410807 0.33684695 -0.030769726 0.37202454 0.07317282 0.22485094 -0.20960401 0.17141244 -0.13169369 -0.10967651 0.21348183 0.3198315 0.25696218 0.16021597 -0.012297784 -0.24974383 0.43378377 0.20036758 -0.06359286 -0.18675403 -0.42066306 -0.020550895 0.052605473 -0.11515941 0.028270576 0.20897262 -0.29192963 0.12137002 -0.27507392 0.33666915 -0.099972874 0.1322267 0.122187234 0.09996192 -0.11526665 -0.05772976 0.13941583 0.429165 -0.092033945 -0.06330465 0.020352809 -0.21717529 0.15124872 0.22911952 -0.2905573 0.29116485 0.15755545 -0.037471257 0.30940738 -0.117327616 0.2432378 -0.10449143 -0.44689548 0.6946167 0.13392775 0.25661913 -0.3343874 -0.3606225 0.22137234 0.16470224 0.19076157 0.50393057 0.08278277 -0.2063617 -0.028676942 0.020842338 -0.031715203 -0.0490888 -0.015405098 -0.05087047 0.17029545 0.25546664 0.09811761 0.09256462 0.26361987 -0.39117938 -0.072451375 -0.18822946 -0.19739772 -0.29638207 -0.18258263 0.097379416
2736 -0.1624136 0.43049437 0.020928076 0.32037398 0.09780446 -0.29524755 -0.042523287 -0.08530988 -0.23933792 0.27061042 -0.09980766 -0.151024 0.19742838 -0.12965724 -0.19661038 0.013753228 -0.47338948 0.2609489 0.14745641 0.043164227 -0.17377788 -0.19723976 -0.06478255 -0.035463795 -0.2420517 -0.24159482 -0.3671968 0.21658394 0.21997014 0.09934411 -0.01526917 -0.19793189 -0.14189662 -0.13012366 0.12028482 0.25055444 0.1624088 -0.07088265 0.51719767 0.11392199 0.009106668 0.2798817 0.014902257 -0.05458164 -0.28445 -0.25729647 0.5480202 -0.07478226 -0.0057482254 0.24901281 -0.1678584 0.20286533 0.27675763 -0.51288426 0.29142344 -0.18443617 -0.29056823 0.30700263 0.3238984 -0.23076583 0.093268536 -0.13963254 -0.026102453 0.08817891 -0.03052826 0.2671744 0.23458599 -0.05313494 0.12400053 -0.109493315 0.009833526 0.013850331 0.15014295 -0.06551608 -0.106967665 0.041023478 -0.3733068 -0.15607636 -0.18339714 0.32618576 -0.38523403 -0.22804599 0.21644807 0.30622515 -0.22084297 -0.042809904 0.17209125 -0.051351078 0.07975098 0.044333275 -0.33530372 -0.24270213 0.14484654 -0.4805965 -0.05778407 0.105722465 -0.38103017 0.065874 -0.5602891 -0.17946064 0.008273791 0.27383736 -0.0063637514 -0.36527762 -0.3564469 0.21192323 -0.15265737 0.28506202 0.10946293 0.14010985 0.28211135 0.2028053 0.32131726 0.2316757 0.050957374 0.080395915 0.23097326 0.24526423 -0.050223153 0.12764427 -0.22430535 -0.12997204 0.19375452 0.03639693 -0.21578583 0.16085744 -0.18711278 0.32792708
1651 0.04681143 0.0435314 -0.22679546 0.46474934 -0.37872505 0.20352708 -0.01550095 -0.2258457 -0.1563814 0.04614885 -0.0032236136 -0.04402205 0.34446126 -0.09618647 -0.09159117 0.033208217 -0.1815284 0.5845192 -0.022239305 0.2720718 -0.0020786377 0.35614684 -0.092411235 0.047581777 0.05872463 0.14012504 -0.24683754 -0.2791663 -0.09560248 0.048708558 -0.12704122 -0.037177853 -0.36646503 -0.066773385 0.016333103 0.120360404 -0.12411239 -0.113646924 -0.051202416 0.10020028 -0.082776524 0.08584423 0.12841576 -0.15982655 0.32029605 0.18977457 0.15115859 -0.42871812 -0.24454446 0.4654275 0.021101937 -0.2712439 0.13137902 -0.18565889 -0.035013385 0.050979745 -0.15462625 0.22871478 0.22304396 0.031870835 0.087447464 -0.27281693 0.1688565 0.0691066 0.038522486 0.4039245 -0.11199754 -0.16018637 -0.043693755 -0.67272556 0.08662975 0.036805052 -0.13038008 0.16031393 0.11650694 0.34041536 0.11314142 0.363407 0.022730025 0.014948039 0.133838 0.37607294 0.3017996 0.041481305 -0.31068224 -0.0914774 -0.116895564 -0.28322953 -0.06435827 -0.1335966 -0.061787464 0.10967414 0.3598327 -0.3535541 0.20668201 0.29997528 -0.14078796 -0.050492138 -0.42112702 -0.027891343 -0.11600958 0.22651356 -0.23496014 0.1567693 -0.27918282 0.2612738 -0.23929387 -0.09129881 0.09593778 -0.063340865 0.16517659 -0.23676822 -0.14922482 0.2102328 -0.20778874 -0.00972823 -0.2316536 0.055385936 0.3620758 0.30800596 -0.051055416 -0.13581172 0.21972287 -0.13849811 -0.10817248 0.3666949 -0.15657823 0.43221125
486 -0.51240546 0.107425734 -0.3914824 0.026222099 -0.024836432 -0.13951348 0.04345927 -0.6221744 -0.011220945 0.5198568 0.4072822 0.29974866 0.42173842 0.09638323 -0.12185992 -0.07866866 0.030575275 -0.13820057 0.017759293 -0.15373993 -0.08102155 0.3296771 -0.27812168 0.109652214 -0.36481804 -0.32035467 -0.23058365 0.012903541 -0.22207783 -0.12003194 0.34905645 -0.053063143 0.13345543 0.04366559 -0.3951695 -0.18749353 -0.1514088 -0.08105529 0.28238735 0.05343697 0.10698223 0.13173983 0.11910728 -0.1807769 -0.028517185 -0.09504013 0.36678717 0.25324735 -0.023411175 0.27466267 0.08865835 -0.23104835 -0.58426374 0.06625546 0.02660457 -0.1986887 0.3083119 -0.22513968 0.24655233 -0.018531555 0.04062528 0.0089441305 0.095852494 0.039043058 0.69235617 0.10362152 0.11042852 0.1280558 -0.044347875 -0.24021177 -0.0054493947 -0.021337045 0.0019547665 0.371256 -0.28057674 -0.20400742 0.20509794 -0.23130752 0.13563578 0.23446102 -0.10281162 -0.033112742 0.17367323 0.16190164 -0.07993422 -0.23561522 -0.111743025 -0.066121005 0.09997126 -0.3859141 0.014929062 0.0637092 0.22765279 -0.2571365 -0.031188024 0.14404535 -0.28870654 0.26548833 -0.04677763 -0.096126884 0.12834968 -0.011063015 -0.08340475 -0.080314286 -0.3836787 -0.05165807 0.16559024 0.048999716 -0.08640931 -0.12129967 -0.2587935 -0.011692557 0.04594012 0.5224361 -0.14667457 0.025050906 0.10727938 -0.023823334 -0.15411618 0.2669671 -0.07108975 -0.025977654 0.27682945 -0.15351717 0.15969905 -0.110535376 0.18628857 0.16788688
3317 0.095252514 0.25275618 -0.08282912 0.45396918 -0.1252099 -0.12160237 -0.029248888 -0.18637747 -0.08093851 -0.34788498 0.040604137 0.0957417 -0.06333675 -0.24428216 -0.27946702 0.29992673 -0.2946678 0.0021568884 0.09939169 0.22110763 0.17974699 -0.04207149 -0.0012242722 -0.09582876 -0.65678936 -0.042699456 -0.09148029 -0.22070302 -0.20735453 0.25488108 0.0871924 0.45259118 0.20287366 -0.35192522 0.07084058 0.048576187 0.20963962 0.061353665 0.14926472 -0.010570593 0.16607194 0.28484368 0.17205112 -0.16968201 0.25743103 -0.04393557 0.008662529 0.116010405 0.11596925 0.11915761 0.058269512 -0.124532394 -0.27280056 -0.053504568 -0.033939864 -0.09197488 0.0029826954 0.14412327 0.07281054 0.31900513 -0.28959006 -0.022876807 -0.24062927 0.07327898 0.46359548 0.50953346 -0.15031193 -0.13866757 -0.39172733 -0.18128867 0.084212855 0.07123376 0.3213697 -0.109620586 -0.17266259 0.11078947 -0.20201358 0.18040934 0.4075444 -0.0009729444 0.26961264 -0.00076453877 0.18009779 0.13577405 0.07660853 -0.4363524 -0.099629685 0.19906156 -0.05247555 0.32069218 0.06713277 0.03843572 0.0052102893 -0.32943973 0.34247112 -0.10159482 -0.03631425 0.28870454 -0.48690408 -0.13908781 0.16819923 0.0050721923 0.008267938 0.080125324 0.2598314 0.6678463 -0.03764582 0.51219225 0.29579875 0.2913675 0.26480538 -0.01244993 -0.043691386 0.1956238 -0.21843861 0.09186364 -0.16264449 -0.055206746 0.3090741 0.10901127 -0.16242084 0.03942967 0.40003788 0.01686302 -0.28471705 0.28615117 0.15969473 0.19426824
3341 -0.12358333 0.035464685 -0.025324088 -0.008502855 0.09036183 0.16129217 -0.21355067 -0.093416244 -0.08697863 0.16511497 0.0031425797 0.29348373 0.022162415 -0.20463894 0.01841347 0.34074026 -0.30869085 0.10546186 0.37942323 0.17017363 0.16285236 0.22262552 -0.29486534 0.0127565805 -0.42525724 0.018235138 -0.2361748 0.021742275 -0.17434855 0.04620701 0.31781545 -0.10990108 -0.16478202 -0.35890114 -0.017059674 0.32095224 0.2870153 0.12530456 0.24516049 0.06846907 -0.20777002 0.15198489 0.19722119 0.16342638 0.089458644 0.12554814 0.12868528 -0.08535595 -0.12276857 0.15383638 0.17403433 -0.15332401 0.025265783 0.256166 0.30829528 -0.2234552 0.62684685 -0.15901901 0.19755566 0.3019593 0.46138778 -0.028280227 0.3155694 0.3444361 0.29152393 0.23955654 -0.029650196 -0.16390173 -0.13769205 -0.42814657 0.07567656 0.15228485 -0.012577803 -0.22923154 -0.10545134 -0.31018788 -0.21374066 0.17541653 -0.06113375 0.038439173 -0.113905564 0.49776652 0.24058996 0.65807295 -0.40174487 -0.04803595 -0.043826327 0.068045855 -0.048783347 -0.20648646 0.021587707 0.41941682 0.046719857 0.028004788 0.05066356 0.31419477 0.0659581 -0.07178732 -0.26656944 0.23110217 -0.31441277 0.33583605 -0.1988771 0.032977343 0.12743473 -0.068509705 0.354245 0.37374434 0.29847553 0.29414302 0.052645884 -0.3471105 -0.05104837 -0.14374672 -0.52005297 0.1734721 0.19996363 0.054298323 0.24034564 0.3038222 0.14016242 -0.23052587 0.22540139 0.11786996 -0.38566706 -0.0676343 -0.41712567 0.10676159
1327 -0.02969367 0.11793419 -0.023584992 0.06634894 -0.05708346 -0.1091472 -0.06417984 -0.3896467 -0.1775997 0.039149873 -0.2800009 -0.04844209 -0.06493379 0.10604595 -0.4030448 0.42293847 -0.09307601 0.17926557 -0.30464298 0.167177 -0.27117229 -0.024539918 -0.24025847 -0.03550731 -0.073362626 -0.14587839 -0.026416121 -0.08235555 -0.1868998 0.11168908 0.26780742 0.03893841 0.23684512 0.11936325 0.23175177 0.4389876 -0.043498125 0.061834697 0.22390841 -0.029982973 -0.12483263 0.074519895 -0.07693431 -0.13826802 0.095015205 -0.31555784 -0.047310326 -0.11329301 -0.10880562 0.02079545 -0.42622694 -0.020150462 -0.1610048 -0.20247406 0.42495114 -0.17438193 0.12879504 0.22069833 0.4064156 -0.052754026 -0.14263326 -0.07334296 0.020737896 0.3310038 0.17461073 0.2454648 0.25698793 -0.16783296 -0.014754242 -0.13471416 0.05002927 0.21524204 0.16205896 0.044252325 0.041021056 0.17489947 -0.45989406 0.22837564 0.06765204 -0.009268296 -0.08157574 0.11444374 -0.010299521 0.27549082 -0.05191376 -0.0698745 0.112164974 -0.13141808 0.18119292 0.12899195 -0.05626329 0.21235746 0.54483724 -0.38645217 0.06994636 0.19100587 -0.4688368 0.1653018 -0.12780261 0.09752778 -0.115270495 -0.10632612 0.33757696 -0.11818121 -0.3444318 -0.062542446 -0.1062363 0.39579028 0.051270287 0.34209284 0.15377748 -0.020739796 -0.10303306 0.42521077 -0.01686527 -0.094529785 0.02552459 0.20262672 0.053510435 0.33808166 -0.17140922 -0.11333554 0.41398996 -0.24811529 -0.23470798 0.0875776 0.27332377 0.098179534
960 0.24585223 -0.028258447 -0.08314035 0.11696834 -0.1875475 -0.23913592 -0.13803555 -0.22270128 -0.15716709 -0.19352409 -0.15415506 0.096288554 -0.2741974 -0.042507797 -0.1883437 0.0923851 -0.25925866 0.061528973 0.18785487 0.105013765 -0.08974994 0.264625 0.08658777 0.017135898 0.121442094 -0.08885791 -0.17581813 -0.35430375 -0.007990815 -0.08637502 0.21837565 0.13080007 -0.24689835 0.2426964 0.26299658 0.19095309 0.11991689 0.08479018 0.3626202 -0.3453175 -0.22534864 0.3785271 0.19778036 -0.19506699 0.023335071 -0.257841 0.061482467 0.034235943 -0.19989645 -0.18379767 0.23061557 -0.13341118 -0.331772 -0.3525288 0.17448805 -0.05661524 0.2634577 0.13184273 0.16398442 -0.17602932 -0.083722614 -0.14771557 0.21749239 0.15210311 0.18362726 0.5911284 0.02852464 0.23600842 -0.287836 -0.29663315 0.41388744 -0.07787488 0.0019514005 0.28210327 -0.05951799 0.61588824 -0.28639042 -0.38948733 -0.15083066 0.021898426 -0.16083997 -0.022737028 0.17578128 0.21776208 -0.21824835 -0.13359651 0.3834214 -0.03985134 0.015933562 0.07582984 0.20000006 0.14863984 0.55007905 -0.2538898 -0.12537059 -0.001171235 -0.092246845 0.06230212 -0.30315432 0.11736386 -0.07820075 0.25673702 -0.31735227 0.049395088 -0.05194838 0.254995 -0.12394882 0.21381414 0.062889494 -0.25152075 0.0700741 0.14688453 -0.23574671 0.389754 -0.052388206 -0.5671132 -0.06063084 -0.06194202 0.4702276 0.07980096 -0.10534708 -0.09949766 -0.0050320327 -0.18189317 -0.14970289 0.16055313 -0.13536018 0.3019983
1774 0.16148429 0.12811355 -0.5586429 0.3440047 -0.2598086 -0.095278926 -0.04089416 -0.46324572 0.038690627 -0.074241824 -0.37781775 -0.05386831 0.24310726 0.18815584 0.08828924 0.28640637 -0.09459309 0.4580157 0.2361108 0.1455695 -0.38488486 0.2093785 0.09815659 0.10669224 0.03365781 -0.0048115198 -0.07478101 -0.017811691 0.012166942 0.0067972024 0.28715226 -0.23060273 0.22998925 0.25268158 -0.04779399 0.14235997 0.30578962 0.11322947 0.2751516 0.043787517 0.06819684 -0.068705454 0.010438495 0.16309007 -0.11706946 -0.24210611 -0.036673065 0.047369394 -0.15140933 0.20858184 -0.32820937 -0.020793581 0.070854664 -0.093161516 -0.2160057 0.11759962 0.32543272 0.12996757 0.047194794 -0.20368625 -0.008198901 -0.16226524 -0.053781543 -0.18841039 0.13768035 0.055565458 -0.03395952 -0.1512389 0.35621333 -0.6395491 0.041428704 -0.12334115 -0.2544102 -0.054559644 -0.0155465 0.23518369 -0.09302142 -0.056396943 -0.035907708 0.049028397 0.5676641 -0.26742822 0.46098793 0.60441554 -0.03849952 -0.15035723 0.40665016 -0.123070985 0.192683 -0.16891618 -0.1475506 0.055625018 0.29235113 -0.24907513 0.20045161 -0.22906356 -0.00224649 0.23155938 -0.04100234 0.06602586 -0.11239024 -0.0497134 -0.5976494 -0.030561838 -0.04729317 0.2254259 0.020990992 0.16605671 -0.023689723 0.095632866 -0.035502333 -0.20242818 0.054390214 0.24773625 -0.5891694 0.23566365 0.21838208 -0.023987822 0.3647212 -0.07058626 -0.15881045 -0.20584251 -0.15397678 -0.24414006 -0.3852926 0.032752126 0.007230379 -0.040125415
2780 0.010295961 0.14985335 0.11797628 -0.10161916 0.12343956 -0.033084173 0.098791026 -0.22732185 -0.23239589 -0.012942503 -0.23825485 -0.1382826 -0.16401169 -0.027188051 -0.100377046 0.2332482 -0.17244977 -0.06167874 0.16299514 -0.01889032 -0.43847147 0.34138325 -0.3571089 0.1529183 -0.17547709 0.068881825 -0.083976276 -0.21433578 -0.24588694 -0.025686316 0.102378584 -0.30132255 0.3281258 -0.027308179 0.31845397 0.32792264 0.08610548 -0.049315896 0.23864004 0.086858295 0.16808245 0.4884613 -0.30813625 -0.41727436 0.57236 -0.2974775 -0.012359706 -0.26852277 -0.26824254 0.18750325 -0.011736401 0.2464874 -0.13831428 -0.23695806 -0.06538306 -0.043035813 0.20699577 0.17596357 -0.14328496 0.009093598 -0.21037456 -0.36462942 -0.022483567 0.0025178152 0.18004438 -0.030184321 0.21167791 -0.22795746 -0.1166551 -0.1351019 0.0064101196 0.11897133 0.030370057 0.15642713 -0.027295465 0.3549969 -0.21353175 0.24254976 0.12912634 0.02440279 0.16034825 0.11070328 -0.15844841 0.0121226 -0.26260167 -0.1670627 0.03779309 -0.06330764 0.15480681 0.24978472 0.053977124 0.14144263 0.28980651 -0.24894418 0.15971595 0.26860163 -0.3023493 0.3446283 0.004966399 0.10667882 0.21754748 0.01768387 -0.27484596 -0.12166831 -0.32918093 0.05302474 0.1523815 0.06029684 0.0017918509 0.25477618 -0.064805605 0.027768424 0.28147033 0.48248312 -0.29672262 -0.17130679 -0.27210844 -0.2190854 -0.020714402 0.16538264 -0.17485398 -0.20315725 0.2653448 -0.36054692 0.054212928 0.0058048773 0.013971146 0.2895198
488 0.15162452 0.007975423 -0.21082509 0.06687723 -0.083422944 -0.35593033 0.08308142 0.08498625 0.022582334 0.12609951 -0.091873005 -0.12637806 -0.022988807 -0.03325319 -0.10174353 0.32669607 -0.34568918 0.22223245 0.17901377 0.16198097 0.1418071 0.07162962 -0.0045752167 -0.22904946 0.042714477 0.24347761 -0.35514122 0.068687625 -0.25821096 0.13025421 0.33611557 0.2686534 0.025333235 -0.16330834 -0.3470364 0.004187269 -0.09607574 -0.0065735634 0.32002068 -0.0754957 0.018930659 0.02900225 -0.024543377 -0.3963536 0.062387567 0.2591855 -0.26182956 0.089695215 -0.0235943 0.45758924 0.022531262 0.20828848 -0.023428913 -0.24093276 -0.46197143 -0.005737534 0.4763583 -0.062992856 0.26994687 -0.2199185 0.22877374 0.2031678 0.17720495 0.18364613 -0.027749803 0.3563376 -0.4399368 0.023940139 0.07208631 -0.5122488 0.22413461 -0.2292162 -0.085098885 0.16552153 -0.51275426 0.20669448 -0.21195194 -0.08903795 -0.2077885 0.08134406 0.07045094 -0.04541008 0.2730821 0.57425743 0.06308255 0.28045797 -0.12267218 0.05365638 0.23522276 -0.15855896 -0.06372246 0.3547652 0.24273875 -0.39350364 0.3925414 0.1261901 -0.0025742066 0.0046353205 -0.101914145 -0.031031385 -0.1384146 0.36531764 -0.1970541 -0.1003651 -0.2632281 -0.0753803 0.16908279 0.024570417 0.33221948 -0.003700566 0.13203494 -0.042837206 0.36125985 -0.04878192 -0.33948404 0.10932779 -0.049606364 -0.11200589 -0.080890775 -0.086742125 0.03188451 -0.0035854096 0.20876814 -0.42515546 -0.36021432 0.08315634 -0.52717495 0.41929892
2520 -0.0042527383 0.2338158 0.058323238 0.111793555 0.01318685 0.06609974 0.309623 -0.042768255 0.030287508 0.09065667 -0.12545522 -0.10559646 0.29996666 0.1421941 -0.18877365 0.2651517 -0.0036902435 0.23034516 0.27350575 0.34002373 0.33598095 0.19114241 -0.37620863 0.1252424 -0.5434117 -0.23296879 -0.54483324 0.6177795 -0.44933343 0.18436591 0.0633031 -0.3171366 0.060205273 -0.13190648 0.051226735 0.04671578 0.3407615 -0.2610817 0.3891613 -0.386988 0.115094855 0.004029213 -0.1047013 -0.20565271 0.2386169 -0.75883317 -0.14364555 -0.040027145 -0.086138606 0.49722776 -0.028911397 -0.2894902 -0.17878419 -0.12611578 0.06338579 -0.060855135 0.32517892 0.18932314 -0.1197 -0.2207809 -0.10179928 0.057199277 0.06269705 0.20224914 -0.22653994 0.09354054 -0.3017414 0.28601736 -0.068235494 -0.23243997 -0.091016464 0.15736118 0.11253885 0.2782553 -0.05170862 -0.042103507 -0.062904574 0.4429551 0.017340267 -0.24201784 -0.284073 0.088396244 0.25297624 0.227005 0.04236536 -0.35044903 0.1576561 -0.054164052 0.44424847 0.0031559737 -0.1772589 0.10099648 0.05573449 -0.09339848 -0.016121512 -0.271087 0.22742914 0.011364789 -0.22255695 -0.023025604 -0.20296422 0.042424634 -0.07606953 0.20758213 -0.087167285 0.06681676 0.026300754 0.3421849 -0.018525358 -0.1413285 -0.19657408 -0.07365954 0.08937602 0.26781353 -0.38881367 -0.1354393 0.054104842 0.16979021 0.3562445 0.12244325 -0.04237044 -0.19404812 0.44265252 -0.26004234 -0.22772875 0.06634212 -0.22407068 0.020069974
1477 -0.28085324 0.10964723 -0.528851 0.2528392 0.066535525 -0.59862685 -0.0829685 -0.07308561 -0.053431895 0.19994977 -0.1701991 -0.3362608 0.20624162 0.3202948 0.34157056 -0.22151077 0.024097212 -0.079518534 -0.102036156 -0.16691887 0.12027251 0.3685341 0.006019427 -0.004712968 -0.39079 -0.31090197 0.1706575 0.035224665 -0.07037028 0.042883348 0.29774666 -0.13724145 0.06759168 0.05782568 -0.034099434 0.6123663 0.025953297 0.04950991 0.121443026 0.2788693 -0.0883988 -0.07454376 0.046692334 0.08963368 0.30980211 -0.1842584 0.33130148 -0.13920084 0.42002508 0.61841476 -0.2332818 0.025331084 0.11056544 0.003983488 -0.03263941 -0.2310062 -0.121869996 0.14854725 0.29994833 -0.0043595494 0.19956517 0.07190387 0.2488506 -0.05536358 0.1307482 0.341021 -0.21184005 -0.1893035 0.0059240963 -0.14479445 -0.13569956 0.09534885 -0.21439108 -0.024976818 0.22247837 0.12379458 0.06961074 -0.4617422 0.045134783 0.1265187 0.20161489 -0.15558527 0.3820579 0.2364952 -0.13773683 -0.16344613 0.13054453 -0.23835152 -0.2219009 0.10216217 -0.09485598 -0.03889274 0.024971517 -0.4357697 -0.23548606 0.31684208 -0.32917067 0.37405753 -0.23568945 0.23194164 0.2086315 0.083571844 -0.0934715 -0.6537096 -0.26657853 -0.04559885 -0.20727259 0.2743336 0.3013033 0.296473 0.14620541 -0.1747323 0.077730305 0.056792643 0.1646161 0.31898227 0.13415289 -0.19395302 -0.23415262 0.06223856 0.060539085 0.06340888 0.385735 -0.29677486 0.31109548 -0.3339539 0.27954757 0.27729774
2502 0.27260032 0.073646136 -0.29499707 -0.016725874 -0.22713256 -0.3362473 0.034766298 -0.5615013 0.0025468462 0.06803049 -0.17342263 -0.18360354 -0.26786023 0.008280853 -0.30891424 0.0743728 -0.07140343 0.20951036 0.38838595 0.0011836838 -0.39124689 0.39020455 -0.057936445 -0.010249113 -0.04419425 -0.24714184 -0.09644519 0.14576958 -0.17736062 0.0908423 0.17764194 -0.065213196 0.13771957 -0.22492795 0.15433143 0.04993994 0.05269097 -0.14246707 0.26206058 0.16914244 0.18537615 0.1376027 0.08589993 -0.42125076 0.184233 0.11269136 0.049657244 0.024684297 -0.1523585 0.0113140335 -0.0007728566 -0.065205574 0.033309598 -0.18201761 0.29701427 -0.06695711 -0.04848196 0.024021134 0.23274882 -0.25360703 -0.14741896 -0.031147078 -0.05732092 0.22058186 0.6095118 0.15283512 0.24869281 0.08799225 -0.43270612 -0.47881198 -0.15790328 -0.33225453 0.23468442 0.1455958 -0.24391821 0.044590216 -0.21230665 -0.013501376 -0.0023487273 0.06352727 -0.27341938 -0.101135574 0.15116546 0.43798447 -0.014173653 -0.19090126 0.544325 -0.15470164 0.16851003 0.14963695 -0.07994635 -0.08186393 0.42868254 -0.24049112 0.11230672 0.13111676 -0.2103309 -0.036463723 -0.3461185 -0.24030298 0.08140594 0.22549719 0.10373908 -0.11725105 0.15767395 0.21083127 -0.04093125 0.22242977 -0.009344112 -0.1785212 0.056495633 -0.10034982 0.04984799 0.4112188 0.21791284 0.062098548 0.05129716 0.16171028 0.46127483 0.07856098 0.023725355 0.033478424 0.362435 -0.13674487 0.059841488 0.19245198 -0.1666547 0.10024572
3260 -0.07640484 -0.18841548 0.044601064 0.06202428 0.27750933 -0.30404565 -0.024555154 -0.30343497 -0.23033558 -0.1154044 -0.045418162 -0.1773116 -0.003790574 -0.3318144 -0.13392471 0.13151602 -0.18557501 0.20446329 0.16835563 0.28287935 -0.3532021 -0.078891866 -0.10149763 -0.12727185 -0.11938476 0.3034338 -0.16145645 -0.31364205 -0.059865028 -0.19211394 0.19318356 -0.17689742 0.1466683 -0.40473738 0.01887417 0.27192667 0.005953702 -0.23004386 0.44036394 -0.03881182 -0.09404265 0.41515252 0.12928553 -0.3868909 0.16611598 -0.5272732 -0.07612963 -0.12315273 -0.05472647 -0.0034474058 0.073739104 -0.035807617 -0.2331042 -0.33766747 0.2929763 -0.17556088 0.34071597 0.17173786 0.08344389 -0.022588292 -0.30472457 -0.16553818 0.36172575 0.2282986 0.03584386 0.113164395 0.34640467 -0.42470604 0.068217024 -0.21771462 -0.018947443 -0.0052876864 0.21138106 0.07414132 -0.09763249 -0.12534834 -0.38778588 0.42351177 -0.15721951 0.25280818 -0.36003357 0.13944554 0.26188985 0.2194472 -0.041566104 -0.35154882 0.2177807 -0.2464074 0.059048317 0.43610254 0.334425 -0.0021287578 0.14893971 -0.41596273 0.17953564 0.045124315 -0.07203546 0.17335401 0.010535439 -0.22593464 0.31369108 0.16018191 -0.34812668 0.055451084 0.041004747 0.5476183 -0.24699515 -0.025860855 -0.13451475 0.3158315 0.05178655 -0.1559698 -0.03699831 0.69728434 -0.12468062 0.12907515 0.021625806 -0.11962198 0.38137138 0.42987883 -0.08207336 -0.10767269 0.32494897 -0.059659913 -0.06837947 -0.28086933 -0.020884838 -0.16795814
2444 -0.2811036 0.29946968 -0.4839714 0.39366278 0.121865205 -0.20515515 0.42298618 -0.62003607 0.18292354 -0.10268859 -0.06577984 -0.209328 -0.26488563 0.291777 -0.16347675 0.042279202 -0.13261136 0.13859108 -0.023545021 0.16485347 0.15918118 -0.071522355 -0.21002616 -0.4261457 -0.30798987 -0.17094092 -0.12818077 -0.030131456 -0.0058447155 -0.034398492 0.17819028 -0.24724714 -0.5746473 -0.4759197 -0.051842332 0.29105362 0.3619219 0.38175693 0.3098523 0.35393324 0.0801 0.12481957 0.07459732 -0.0013251493 0.18862094 0.20107476 0.35602513 -0.060769264 0.14897484 -0.21219222 0.12946351 -0.20345736 0.011536592 -0.1732777 0.19913928 -0.09873906 0.25214693 0.35083726 0.107863255 0.07119698 0.03644988 0.14556296 -0.036274176 -0.21097037 0.2543686 0.12394819 0.17821889 -0.08839777 -0.41097793 -0.048316784 0.1921205 -0.31807792 0.08991859 0.05963718 0.25564903 0.10954658 -0.6392676 -0.40754622 -0.018660255 -0.11117832 -0.6173839 -0.40865102 0.06983391 0.19816673 0.36033484 0.015285241 -0.3469503 -0.30829647 -0.051542435 -0.36194587 -0.15675911 0.019700354 0.17912617 -0.081603356 -0.05982552 0.0888084 -0.06300206 0.09311371 -0.24940172 -0.00053761783 0.005954644 0.32507 -0.38134268 0.22987686 -0.23476838 -0.10706517 -0.3039244 0.18180388 0.032266986 0.025767554 -0.010603163 -0.16389386 0.10265124 0.4123412 0.013512629 -0.19954008 -0.29879224 -0.014195891 -0.11527488 0.17006144 0.24344002 -0.008060329 0.08163416 -0.29484 0.28670922 0.10126698 0.09903956 -0.069674
2289 -0.06370183 0.4121658 0.17676988 0.31994888 0.102108404 -0.08548484 0.25798532 -0.7458323 0.17816398 0.3433906 -0.5741926 -0.28604427 0.07469044 -0.059338134 -0.16320552 0.14476672 -0.103165366 0.02065298 0.093589395 -0.0035951538 0.04494659 0.05529046 -0.35393357 0.0047141737 -0.01350411 -0.039224494 -0.16971849 -0.06893562 0.18260159 0.0615451 -0.41440904 -0.0132266795 0.21218579 -0.1761897 0.6115235 0.1264708 0.26437742 0.15533753 0.1602816 0.3850296 -0.0680347 0.35989717 -0.07710314 -0.30324122 0.14954472 -0.47364888 0.15072581 -0.23267178 -0.096908554 -0.14219284 0.062522344 0.02321179 0.14724483 -0.52464855 -0.11114423 0.15576492 0.16945015 0.18274155 0.1949699 -0.061868537 -0.27601245 0.008450778 -0.007442009 0.22104025 0.08314404 0.24997343 0.13869712 -0.5343333 -0.24860331 -0.08816509 -0.11689872 -0.09238391 -0.06478315 0.008235054 -0.17572218 0.14556432 -0.1605699 0.1383561 -0.08475025 0.42160702 -0.33225694 -0.025312984 0.12430172 0.309612 0.06993441 -0.3359179 0.12605265 -0.15797114 0.23988605 -0.019248264 -0.11218922 -0.09451132 0.5329651 -0.2047777 0.19695838 -0.112371646 -0.18095769 0.238441 0.18880269 -0.016317626 0.05554867 0.22741932 -0.31640923 -0.1263685 -0.103133224 0.20698962 -0.05925545 0.22012633 0.014551474 0.06779263 0.04620995 -0.24079879 -0.29303816 0.16415195 0.2946278 0.16623883 0.14790256 0.4697197 0.15120324 -0.05063204 -0.28104722 -0.031889837 0.2388838 -0.5401268 -0.36636153 -0.007772808 0.018016126 0.19212419
3359 0.22020048 0.3229202 -0.06020807 0.13620579 0.27668008 -0.16960621 0.095519446 -0.28013515 -0.2698274 0.26986068 0.12951462 0.06317801 -0.2512725 -0.21451926 -0.55151415 0.21223275 -0.3982533 0.16102046 0.65536094 -0.030950274 -0.055887777 0.48319164 0.13956621 0.16358846 -0.25723726 -0.13973422 -0.043258086 -0.207605 0.0203418 0.28950563 0.53212816 -0.18161066 0.19665442 -0.18165807 -0.08685352 0.55671734 0.020026537 0.14949109 -0.101543345 -0.034301206 -0.033719923 0.23239909 0.001908809 -0.17536676 0.18745422 -0.18386766 -0.11332227 0.12515415 -0.15573192 0.08679071 0.3266454 0.015185772 -0.051923405 0.06272561 -0.18330333 0.105613925 0.024374641 0.06462535 -0.060202572 0.11507711 -0.09198645 0.13842243 0.13071439 -0.0018989032 -0.20170489 0.073023476 0.15487553 0.16736948 -0.2666846 -0.10741906 0.34144622 0.16354525 0.04820919 -0.061755568 -0.193919 0.2653071 -0.18338545 0.024560064 0.23410895 0.44101226 -0.11988171 0.25318614 0.46577916 0.29114112 0.13326022 -0.19596918 -0.02296762 0.051062323 0.29748842 0.5762225 -0.24135968 -0.4766056 0.15638918 -0.086658016 0.2433023 0.07802274 -0.014633505 0.1710441 -0.319144 -0.17877753 0.26213416 -0.15297772 -0.0014945234 0.01679208 -0.35753667 0.23984975 0.27922052 0.2646518 0.44661814 0.22334157 -0.043999154 0.08532465 0.09698976 0.079436995 -0.20071304 0.08370028 0.018728927 -0.1935322 0.24116166 0.35435277 0.020933527 -0.142175 0.070504114 -0.05316707 -0.061129298 -0.17673177 -0.13075377 -0.11521856
1330 -0.030946823 0.06123443 -0.2574259 -0.011038792 -0.19535932 0.20813903 -0.12495518 -0.48488033 -0.26753953 -0.122573435 0.2588275 0.02773111 0.24444218 -0.47685006 -0.37978843 0.27872574 -0.11379119 0.2901361 0.28650627 -0.21408708 -0.04167897 0.15900086 -0.13813007 -0.24583605 -0.18462783 -0.0066971537 -0.09667999 -0.02399454 -0.40052536 0.16101646 0.21669485 0.018894156 -0.2595706 -0.16486761 0.43469614 0.084561855 0.16728175 0.07197162 0.012602399 -0.13401283 0.021193001 0.39492115 -0.1699638 -0.050939817 0.09233461 0.056991145 -0.22219801 -0.021063488 -0.23820767 0.37262166 -0.14007968 0.26408395 0.032586392 -0.14946844 0.3466941 -0.17121366 0.11413647 0.51416373 0.07209087 0.08278293 -0.05799978 -0.28641665 -0.15118755 -0.064675406 0.28365102 0.24569009 -0.22812901 -0.16831768 -0.23966224 -0.2127357 0.015967112 -0.12031477 0.2099699 0.35727295 -0.5229325 0.18022786 -0.31316277 0.18592158 0.24343966 0.2517183 -0.22488752 -0.22444071 0.019059874 0.41535005 0.0034122036 -0.29774362 0.25490567 0.06656369 0.16926743 -0.051225968 -0.286958 -0.027847629 0.50233084 -0.247232 0.13593763 0.24277794 -0.35713348 0.022165123 -0.2079603 -0.010698368 0.32760853 0.1067919 -0.4243293 0.06773562 0.12974817 -0.08918651 0.19390176 -0.02809022 -0.10539411 -0.11599506 0.17517684 -0.22818501 -0.06401865 0.22528195 -0.00662781 0.06025972 0.17685802 -0.14997308 0.1801699 -0.14293064 -0.11074845 -0.1070433 -0.13063514 0.08334291 0.04354995 0.028897509 -0.12287485 -0.13399397
