1113 128
5096 0.20805524 0.11527275 0.05561484 0.024078952 0.036400974 -0.46802577 -0.4747097 0.0051784283 0.26023048 0.022699244 0.25442955 -0.2199477 -0.1855581 0.104896486 -0.063771084 0.13726428 -0.20725979 0.042609278 0.058662575 -0.11408038 0.27316058 0.43352032 -0.3613234 -0.045969617 -0.103090756 -0.14368734 0.019482924 0.18457365 -0.20830229 -0.17053436 -0.22774021 -0.14114583 0.10720951 -0.5571648 0.21786468 -0.31284365 0.11633601 0.12131674 -0.29327217 -0.28320628 -0.5795259 0.03950512 -0.7099899 -0.21813118 0.073347084 0.07779214 -0.11461799 0.011370667 0.12805156 0.25897965 -0.31099606 -0.12090135 -0.13186686 0.2734992 0.24716297 -0.71504354 0.20419319 -0.01902051 -0.24199413 0.5632022 -0.28350598 -0.06816195 -0.30871695 -0.25268 -0.004611435 0.50220186 0.30367193 0.5614221 0.009372029 -0.06274595 0.29950085 0.08579682 -0.045872852 -0.29740193 0.009887095 -0.06909373 0.30488122 -0.17246532 -0.3014444 -0.7312968 0.058935653 0.2457895 0.020028224 0.12208516 -0.35376918 0.11001038 -0.32734165 -0.21843722 -0.41682836 0.010172562 -0.4146797 0.045708682 0.18541586 -0.018752959 0.03729909 0.06714818 -0.08304763 -0.3103629 -0.15669166 0.3539715 0.0026071456 -0.19264652 0.17815243 0.42294753 0.2539479 -0.020576017 0.13459307 0.20099163 0.040170945 -0.37925923 0.17656036 -0.052420482 0.22423892 0.12253391 0.20446397 0.2604751 -0.00052140956 -0.02006167 -0.50479144 0.18348594 0.33194 0.279494 0.645974 -0.03780355 0.30100876 0.079584256 -0.024181819 0.66921186
5081 0.10558571 0.055920266 0.26177236 0.02349894 0.22880603 -0.30426466 0.12235271 -0.2713754 -0.03428052 0.01203275 0.30596694 0.5353449 0.09184397 -0.42610392 0.03732255 0.11582037 -0.23257363 0.20557538 0.22523628 0.31405097 0.09278599 0.21985577 -0.26928595 -0.3526016 -0.40872547 0.41755253 0.02594135 0.011413012 -0.11509655 -0.20144999 -0.10746165 0.20015419 -0.11545395 -0.1668778 -0.036273554 0.03486863 -0.012037042 -0.04707997 -0.46820453 0.15861835 -0.2541944 0.041996986 -0.05344735 -0.3491114 0.37584752 0.41405684 -0.3173592 -0.3112296 -0.20462053 -0.2696618 0.1128548 0.0904323 -0.039307404 0.1556231 0.47507554 -0.4435344 0.57197076 0.22238271 0.02760913 -0.27551615 -0.11803447 0.24453564 -0.15801649 0.066319935 0.01479005 -0.12267304 0.07051692 0.21275128 0.37273458 -0.24788882 0.14914472 0.04905191 0.09437839 -0.31249756 -0.05380738 0.16237153 0.05099351 0.12167278 -0.007922585 0.24716124 -0.13773966 -0.46053147 0.13021368 -0.07452287 -0.05705997 -0.42834687 -0.24273099 -0.2444328 0.07615543 -0.09671717 -0.26496157 0.0064116167 0.07104838 -0.030725589 -0.39996174 -0.30100003 0.44863498 -0.36515293 0.43337733 -0.14644116 -0.08091098 -0.04974478 -0.008622398 0.033765722 -0.17708777 0.08177691 -0.035473064 0.67538166 0.44597507 0.116520196 -0.022330977 -0.15577598 0.029925123 -0.5315343 -0.26326886 0.27904403 0.10142666 -0.054716565 0.21184796 0.349575 -0.043813627 -0.118842155 0.30621257 -0.007870261 -0.059143957 -0.17816958 -0.011649194 0.19912061
5059 0.15948908 -0.09745459 -0.03845969 -0.018503001 0.12171211 -0.44868517 0.14390446 -0.049075376 -0.32693914 0.049000315 0.46288317 0.36642 -0.042530566 -0.3925579 0.16082399 0.045066863 -0.23873015 0.09540259 0.080274455 0.5968981 0.16446337 0.08394637 -0.5487428 -0.24170394 -0.5031838 0.292294 -0.11494285 -0.08375455 -0.024836512 -0.21312852 -0.16108637 0.12381917 -0.1503505 -0.057224397 0.18340507 0.1671655 0.18379313 -0.09028277 -0.6425789 0.2329982 -0.26771376 -0.04011993 -0.009980776 -0.4275071 0.12772863 0.29071605 -0.14705794 -0.2794476 -0.110673025 -0.07237364 -0.005867609 0.2837336 -0.034563717 0.042505402 0.2089101 -0.4241502 0.4619093 0.0639884 0.24472786 -0.23616858 0.17331369 0.12617931 -0.15912284 0.06588302 0.07661462 -0.25061175 0.29216817 0.12252637 0.2029644 -0.36999285 0.10137337 -0.00566133 0.28337032 -0.52130896 -0.25891563 0.15803973 0.23740104 0.07894335 0.058382317 0.4266514 0.015561305 -0.60507864 -0.11436216 -0.17591478 -0.062756136 -0.51393807 -0.09523415 -0.25190336 0.13143651 -0.19496955 -0.36253953 -0.27410585 0.14036158 -0.22651306 -0.23165734 -0.23682682 -0.07966194 -0.24703735 0.1552098 0.05388602 -0.21293624 -0.2822242 0.23965475 0.06953003 0.12951577 0.05958098 0.13683076 0.7013793 0.1058705 0.2611341 -0.19698681 0.24322005 0.15935048 -0.45810598 0.031856935 0.17529865 0.22790848 0.10008794 0.13868947 0.1537235 -0.087838404 -0.063757405 -0.010330054 0.08418031 -0.36863008 0.21932325 0.027686546 0.12454646
5284 0.018974261 -0.19857003 0.0056965384 0.2369579 -0.016391367 -0.24337415 -0.47066268 -0.4599234 -0.11558045 0.04284099 0.49414042 0.10578833 0.016179567 -0.27502492 0.39406353 -0.051547494 -0.15501022 -0.038703997 -0.07571334 0.5653811 -0.15707912 0.45690316 -0.5265278 -0.49407697 -0.051981423 0.00692243 -0.46012795 0.10439008 -0.3466196 -0.24006093 -0.13433209 0.059954997 -0.35478762 0.15321083 0.4576654 0.1584821 0.003038038 -0.18835856 -0.122118674 0.29360503 -0.21291934 -0.060815167 0.039359696 -0.029661106 0.2105321 0.09099977 -0.23198497 -0.26337647 -0.0831961 0.04226898 0.47011456 0.106351316 -0.022060094 0.17850657 -0.03889652 -0.2713024 -0.027812036 -0.41218856 -0.08300799 0.40609676 0.0015898993 -0.013139455 0.09815163 -0.004376827 0.19535406 0.04430389 0.14472772 0.045676943 0.23685332 -0.24800476 -0.03646791 -0.5070335 -0.3405593 -0.25312522 0.30289575 -0.028330201 -0.12201975 -0.23307201 -0.09261033 -0.046978362 0.028242605 -0.29369736 0.14420584 0.12747845 -0.06857564 0.11243778 -0.42241532 0.05247263 -0.15077753 -0.44691852 -0.22025743 0.012323331 0.14142412 0.01791556 0.040189706 0.017078817 -0.13313678 -0.47473153 -0.14370003 0.058005925 -0.33480752 -0.6357482 0.30167118 -0.090463236 -0.018812865 0.19952591 -0.20356686 0.29989362 0.16071561 -0.024519611 0.25962204 -0.23293644 0.5007693 0.032900337 -0.2743424 0.31929332 -0.15862924 -0.28941646 -0.1021818 -0.09516696 0.1419313 0.48068124 0.33511153 0.016178284 -0.10037707 0.16981524 0.01231091 -0.3039731
8058 0.2553215 -0.6256316 -0.14450271 0.14868245 0.33081272 -0.4769171 -0.5498346 -0.067496926 -0.35771993 -0.07044257 0.2568017 0.08221182 -0.3511105 -0.36365315 0.23704529 -0.0057620155 -0.32819313 0.13166954 0.17428109 0.31712043 0.24209623 0.22068134 -0.19902587 0.37307385 -0.10428505 -0.066166654 0.12417271 0.112901464 0.21864338 -0.36054668 -0.14323817 0.3612272 -0.12684558 -0.21247353 -0.14467835 0.37900013 -0.0421191 -0.16632526 -0.31361392 0.1166499 -0.18865585 -0.15441944 -0.6833631 -0.5332623 0.21849313 0.20802097 -0.0585042 -0.40594044 -0.1615051 0.005802275 0.03636827 -0.25258166 -0.08569213 0.12464185 0.07475101 -0.30073485 0.08853014 -0.1009725 0.18579936 0.08784245 0.053140935 0.5389956 0.05218698 0.31704044 -0.066865325 0.111740515 0.043005366 0.10180076 0.24435534 -0.16316232 0.2016386 -0.18873926 0.15693405 -0.39059 -0.04008015 0.3143368 0.09154113 0.43102834 0.07358536 0.22636782 -0.3337081 -0.26544663 0.26034382 -0.4609624 0.071573175 -0.68889105 -0.21102384 -0.16592483 0.1096344 -0.09590944 -0.31890357 -0.22211169 0.25443769 0.14234589 -0.03987 0.021057725 -0.00402765 -0.10164525 0.5476603 -0.12154403 -0.12556459 -0.18269426 -0.50881076 0.21245837 0.09533414 0.07931428 -0.055331126 0.34415528 0.30060166 0.1589866 -0.069502875 -0.02023592 -0.019911168 -0.1836546 -0.4101838 -0.21442813 -0.07369182 -0.21639071 0.16592702 0.31859425 0.07336824 -0.029249853 0.04359128 0.22471063 -0.01378328 -0.1360124 -0.19894545 0.16094226
6936 0.02612917 -0.13151693 0.2618784 0.022893362 0.4146664 -0.14937948 -0.09602897 -0.09252729 -0.09022039 0.02313696 0.54122764 -0.1307709 -0.04541624 0.36326635 -0.29619217 0.14671673 -0.02499237 -0.19471665 -0.28201813 -0.20625655 -0.10048024 0.05357671 -0.4226251 0.13181007 -0.21037906 0.04266682 -0.21318114 0.019051582 -0.5575199 -0.040994093 -0.16428347 -0.0054061296 0.009216321 -0.3838404 0.2946812 -0.41664913 -0.043338735 0.13191092 -0.46854493 -0.013312075 -0.22092223 -0.14856428 -0.40050045 -0.30688214 0.045572255 0.08102953 -0.28412673 -0.29443264 -0.034227435 0.23381631 -0.09992238 -0.046180654 -0.28478587 0.38747165 0.16128428 -0.6433658 0.17051925 -0.035256695 -0.25173712 0.6673426 -0.0060390797 -0.054880224 0.07920491 -0.105046876 0.03902235 0.29134044 0.30502537 0.42049965 -0.071365364 -0.16545036 0.30108956 0.2389011 0.060795113 -0.43221784 0.15745868 -0.13324864 0.1267612 -0.32677925 -0.30700377 -0.5069232 0.13472861 0.20429692 0.079521246 -0.036324296 -0.71005386 0.027007498 -0.3035613 0.062457755 -0.21719368 -0.080959044 -0.29476127 0.14160071 0.04658917 0.14357498 -0.2571364 0.18741375 -0.11233299 -0.40849346 -0.19665419 0.46638972 -0.06357028 -0.39448583 -0.034030415 0.33056366 0.10516427 -0.1856773 0.30159715 0.22637707 -0.009154819 -0.3118976 0.07130937 0.25025997 0.24417211 -0.29520196 0.06169666 0.30462098 -0.21581404 -0.060350623 -0.37829736 0.34693083 0.55093 0.3665133 0.7120437 0.0505973 0.5251365 -0.25988638 -0.2071103 0.67330486
8226 -0.12961437 -0.2172947 0.18309282 -0.16348444 0.23487748 0.013388005 -0.24618192 0.02338604 0.62959796 -0.26678783 0.539532 -0.61256987 -0.38811746 0.048751034 -0.4007922 0.37734792 -0.15316892 -0.16689022 0.20007588 0.8544154 0.25692767 0.15458469 -0.21630682 -0.15918104 -0.7037653 -0.31406233 -0.25112748 -0.39931726 -0.18474591 -0.50114655 -0.11580778 -0.10068586 -0.40807515 -0.07258149 0.29306376 -0.12866785 0.33013096 0.21879709 -0.1792709 -0.53129077 -0.22176972 0.014469306 -0.5417236 -0.5988273 0.49476933 0.0023237173 0.29150423 -0.15936805 -0.08630682 0.29121935 -0.22175485 0.060452983 -0.23834077 0.25492924 0.38500032 -0.07187869 0.096208915 0.33150783 -0.25634328 -0.26936528 0.10445193 -0.1898629 -0.046243057 -0.33556026 0.4531296 0.21650901 0.10060663 0.25456566 -0.13810661 -0.4072281 0.27467823 -0.17973168 -0.20729133 -0.1909201 -0.38712022 -0.09243622 0.3016489 -0.47263315 -0.11509116 -0.3465598 0.12046647 0.1457589 -0.18486659 -0.326486 -0.20769055 0.1310203 -0.11448989 -0.18004188 -0.06503578 -0.015310581 -0.09304605 -0.28065565 0.022500543 -0.19069006 -0.48253655 -0.23910429 -0.06470717 -0.100455746 -0.58331335 0.55160666 0.11581664 -0.22372873 -0.25350288 0.28569782 0.24026991 0.3363743 -0.1499012 0.0796976 -0.38890138 -0.48411727 -0.4677284 -0.11624915 -0.031548765 -0.35437918 -0.007825881 0.28801876 -0.01205691 0.0755463 -0.24853267 -0.010441511 0.2460176 0.3104622 0.2800669 0.16399996 0.5820129 -0.0935095 -0.001963171 0.2135447
5409 0.019221146 -0.58319473 0.091647044 0.0576534 -0.044348564 -0.5744393 -0.70433056 -0.24048205 -0.2722595 -0.05797438 0.49131307 0.3845917 -0.13517463 -0.18099654 0.1543116 -0.026420595 -0.11681428 0.2781629 0.011128373 0.5119796 -0.09923625 0.21621755 -0.5444346 -0.5376169 0.1575806 -0.104569435 -0.45782557 0.24529755 0.12002298 -0.30399013 -0.14074196 0.16267735 -0.20602399 0.010664993 0.34369847 0.24749956 0.1157671 -0.035984118 -0.21433029 0.16769807 -0.011234428 -0.07368736 -0.2225441 0.093271926 0.33681986 -0.18307927 -0.19754227 -0.23961414 -0.16546512 0.35971352 0.00072522997 0.23195826 -0.0098259095 0.26649937 -0.13257337 -0.25902128 -0.16195917 -0.14907812 -0.10668703 0.31324363 -0.04575816 0.0748249 0.44719756 -0.026503848 -0.22403504 0.24491125 0.075250685 -0.01783028 0.17070599 -0.195293 -0.21602279 -0.7843372 0.06818772 -0.17614853 0.3070067 0.15148145 0.02058844 -0.12733583 0.043693844 -0.037778873 -0.17278682 -0.30328026 0.10013195 -0.073164955 0.040967166 0.10981077 -0.38368428 0.05839866 -0.13279824 -0.60724074 -0.44204426 -0.20526533 0.35420886 0.06561998 0.19912334 0.16005726 0.13321917 -0.23161754 0.27491343 0.024386175 -0.22517762 -0.26193258 -0.00048360034 -0.11509921 0.2796949 0.1274942 -0.21981984 0.24482386 0.06877584 0.15598898 0.2224292 -0.25929886 0.107591696 -0.09749563 -0.18610157 -0.041214608 -0.06237195 -0.14532016 0.058322962 0.03966491 0.26168117 0.3780784 0.05662759 0.15663916 -0.18736991 -0.063557275 0.083354406 0.123732634
6289 -0.031460043 0.09111394 -0.017029677 -0.10310908 0.28660974 -0.27883714 -0.07886244 -0.18370046 -0.1956051 0.3439903 0.40238318 0.4763762 0.048267275 -0.23167819 0.13948148 0.22961971 -0.34821206 0.19359836 0.0110504525 0.50998735 -0.10021867 0.023017302 -0.38415197 -0.10813668 -0.14229602 0.23918335 -0.37690628 -0.00024919608 -0.034248523 -0.1614614 0.13120309 0.34112072 -0.064155035 0.035324182 0.05989779 0.19136192 -0.119501404 0.15529758 -0.39775416 0.09173371 -0.4782146 0.17828904 -0.36715922 -0.3249592 0.3241641 0.23688747 -0.014546862 -0.50179327 -0.08239989 -0.095567 0.39352217 0.18628517 0.064082585 -0.019769836 0.09747989 -0.12081135 0.4633451 0.43008128 0.28013125 -0.1042617 -0.04333536 0.25688505 -0.2026246 -0.099608935 0.35604495 -0.038058966 0.46499354 -0.018294562 0.293168 -0.2482245 -0.016993675 -0.05035037 0.2195742 -0.58770144 0.12694886 0.0072900015 0.2938594 -0.17474955 0.059874415 0.41503343 -0.24352328 -0.3890246 0.22129017 -0.02528777 0.054456484 -0.7011952 -0.13037051 -0.28646606 -0.22251765 -0.23128141 -0.266705 -0.4773006 -0.005816493 -0.23322694 -0.27621397 -0.2970328 0.01522225 -0.31211507 0.25079498 -0.2308825 -0.22369152 -0.2989937 -0.139548 0.06543094 -0.196515 0.40274268 -0.24509805 0.37015185 0.44951573 0.40225363 -0.103454515 -0.08849648 0.2559303 -0.44984907 -0.18712859 0.24834563 -0.17250986 -0.0009569474 0.19453372 0.5171104 0.020239245 -0.24893482 0.43869767 0.09782168 -0.19311191 0.18964785 -0.06144186 0.065049455
6429 0.3209558 0.08227364 -0.24972084 -0.013536844 0.50487894 -0.13510677 -0.15633748 0.16600634 0.1161228 0.22557013 0.5762343 -0.24308391 -0.07965546 0.565059 0.34891737 0.33709198 -0.592108 -0.02479099 0.17239368 0.6555779 0.50471956 0.28490826 -0.41177663 0.4043337 -0.111512005 0.30326524 -0.42282897 0.03896534 -0.15405938 0.20852624 -0.33455142 0.26462027 0.18969974 -0.7423056 0.2590572 -0.52697676 0.36063692 0.2592936 -0.111038335 -0.30423945 -0.59844935 0.040326312 -0.40587527 -0.5302035 -0.11614607 0.033068616 -0.36367455 -0.71029264 -0.08930577 0.03994166 0.3369269 -0.07767562 0.2772802 0.7335165 -0.060358793 -0.48072648 0.21649142 -0.020136299 -0.46969306 0.4617368 -0.3076337 -0.2227727 0.32177556 -0.2297899 0.109127276 0.19448425 0.59757346 0.54527175 0.23963356 -0.0416661 0.33072942 0.31906816 -0.08131042 -0.053935546 -0.27756888 0.1765813 -0.2824818 -0.15065376 -0.76759565 0.09509496 -3.5443307e-05 0.24795799 -0.075373165 -0.24547695 -0.7286807 -0.14049993 -0.7759257 -0.4279717 -0.24962425 -0.0453637 -0.891146 -0.05082604 -0.23090212 -0.04326327 -0.09900952 -0.26816496 -0.278388 -0.0008038365 0.17253031 0.1414797 -0.055308457 -0.7974449 0.031231532 -0.16452694 -0.26663718 0.117858775 0.37042594 0.52586097 -0.26729295 -0.8441529 0.67156696 0.23942281 0.32888445 -0.7156655 0.46017528 -0.05487591 -0.2366995 -0.31534868 -0.6475851 0.63861555 0.5239665 0.053278826 0.7219906 -0.14922276 0.08631142 -0.5308759 -0.5259004 0.46419206
5209 -0.052750643 0.057006136 0.07255354 0.11356383 0.18228906 -0.16599055 -0.123881295 -0.23791483 -0.0037486467 0.24498025 0.29301643 -0.07503335 0.1449472 -0.057736125 -0.031835455 0.24819922 0.15095285 0.037027925 0.18183783 0.039802883 -0.3814944 0.2587837 -0.6491187 -0.027643776 0.06913602 -0.056284055 -0.10885851 -0.07786748 -0.5163167 -0.21373774 0.036628522 -0.17036434 -0.203109 -0.31697372 0.19379018 -0.18314943 0.052398186 0.1057128 -0.358241 -0.27754906 -0.26431036 -0.035004027 -0.050095484 -0.40103436 0.3382972 0.10686461 -0.26492468 0.02689157 -0.011794758 0.22268277 -0.13067658 -0.22338106 -0.25483388 0.32861528 0.1382756 -0.63547957 -0.18788905 0.19489408 -0.08350124 0.4327704 -0.32466725 -0.15960103 0.014703953 -0.2672092 -0.023492139 0.15197396 0.1254285 0.23209496 0.003580627 -0.031648606 0.32526115 0.068488665 -0.2742948 -0.23220068 -0.21214968 0.06202971 0.3017844 -0.33539072 -0.5912504 -0.37958303 0.3110479 0.3113082 -0.094065405 0.09835866 -0.2868854 0.01230791 -0.14076331 -0.14414269 -0.16842736 0.02966649 -0.32701764 -0.08775679 0.16993774 0.1287237 -0.22118533 -0.11468712 -0.013152715 -0.3120532 -0.27923018 0.26266 0.016333153 -0.18507636 0.074700125 0.43867385 -0.0035866827 0.1483329 0.41766596 0.37878722 0.038223352 -0.39390507 -0.048004553 0.03247831 0.018379811 -0.41589892 -0.103116915 0.28871018 0.12298879 -0.18397696 -0.68095744 0.22119643 0.59048367 0.5615425 0.61578745 -0.022053253 0.6854302 -0.19027969 0.11334025 0.77357346
5570 0.06651321 -0.22069785 0.14823274 -0.03908492 0.08371658 -0.08443086 -0.44424784 -0.0024406181 0.43105257 0.052449703 0.20689188 -0.49943763 -0.004545466 0.018404612 -0.10298081 0.066701986 -0.12759584 0.006869777 0.03371942 0.2352568 0.54597914 0.25599813 -0.41702783 -0.04274767 -0.26708767 -0.09610048 -0.05793751 -0.25141153 0.17451312 -0.3745271 -0.23557772 -0.009110949 0.03861926 -0.29964074 0.5727807 -0.20223477 0.42138603 0.24931423 -0.13189054 -0.46530733 -0.2061044 0.09285118 -0.5175498 -0.3046202 0.51355946 -0.15142144 -0.074575834 -0.2083292 0.24226494 0.41510618 -0.29444906 0.022270296 -0.056268375 -0.0838704 -0.011382793 -0.018020552 0.042141654 0.31211784 -0.40639642 0.25003657 0.058862496 -0.19039135 -0.07952706 -0.25969213 0.46478072 0.1868617 0.061834615 0.1016952 0.035473228 -0.30813456 0.14153054 -0.051901743 -0.48197258 -0.17896813 -0.45024982 -0.22046356 0.55846953 -0.27853054 -0.0036778406 -0.2986915 0.41438195 0.13131267 -0.19726051 -0.22141674 -0.11484721 0.20263521 -0.33649752 -0.54823166 -0.12185357 0.12737812 -0.1339584 -0.08826817 -9.2270544e-05 -0.13381553 -0.28926477 -0.34030145 0.187842 -0.44860408 -0.7716265 0.04001888 0.07763344 -0.18183702 -0.081127174 -0.27804327 -0.07860697 0.069906704 -0.065062106 0.052266404 -0.5287847 -0.50915426 -0.24291924 -0.025525775 0.05470907 -0.08737821 -0.29128665 0.2844261 -0.37235644 0.016216462 -0.67621845 0.3389801 0.26813897 0.06348135 0.7181589 0.246057 0.5259506 0.10317703 -0.2523132 0.42088965
5315 0.40473437 -0.3674773 -0.08225199 0.31198177 0.30527106 -0.19156776 -0.57860494 -0.12611233 -0.20972645 0.30306143 0.12337245 -0.05276052 -0.13326535 -0.35416916 0.2909789 -0.10466585 -0.11123245 0.10037015 0.21144159 0.56216335 0.4886288 0.4794533 -0.13949123 0.1159521 -0.02596825 -0.22922243 -0.23816742 0.20789766 0.27999565 -0.2750813 -0.029050227 0.3966991 -0.09007536 -0.018117854 0.017294535 0.27231106 0.14424275 -0.22342642 -0.37774852 0.4353488 -0.3689657 -0.1510303 -0.77875394 -0.33340454 0.3211138 -0.1535529 -0.06766936 -0.29336503 -0.43987367 0.116167836 -0.1376765 0.06996677 0.18463871 0.26746517 0.051894866 -0.18014234 -0.1141693 -0.17385359 -0.07629214 0.03439858 0.13824014 0.4586551 0.45741314 0.4334786 -0.15269361 0.14120892 0.27632937 -0.1485992 0.42596874 -0.16961181 0.037516624 -0.5402474 0.056962937 -0.07718211 0.11239874 0.26517698 0.07793986 0.3856489 -0.20320168 0.4340956 -0.31018662 -0.057952497 -0.0368322 -0.2636573 0.12579198 -0.09719687 -0.048540678 -0.079740204 -0.121812776 -0.119291686 -0.19859883 -0.22584496 0.17925003 -0.023143766 0.16103835 -0.17420678 0.11056922 -0.39139047 0.19971605 0.017806727 -0.17196463 -0.1772415 -0.59819597 -0.30213448 -0.044118844 0.22019117 -0.34908476 0.50987226 0.37734368 0.10474874 -0.098956294 -0.2346858 0.1408445 -0.13611956 -0.5546201 -0.25476906 -0.055988315 0.017569624 -0.13546479 0.19546562 -0.030006316 0.1294464 0.011744952 0.117516994 0.009986241 0.1441598 -0.15276249 0.4120329
8381 0.40392533 0.17471787 0.045123316 -0.008069826 0.38322514 -0.22718404 -0.19729273 0.12460231 -0.041414604 0.06326595 0.4644151 -0.21389058 -0.113114856 -0.29556397 0.09682931 0.18374741 -0.17158599 -0.07642097 -0.09490245 -0.046108264 -0.18847412 0.19804731 -0.4575027 -0.117832616 -0.4245581 0.11235524 0.3356186 -0.033793896 -0.14034867 -0.2512949 -0.16157494 -0.05994014 -0.111541905 -0.29143906 -0.3388415 -0.27891535 -0.24150944 0.21233442 -0.52362436 -0.08553017 -0.12592697 -0.19995897 -0.15841144 -0.23364855 0.0023091154 0.08446718 -0.075754605 -0.13962223 0.25242853 0.13471003 0.0754674 -0.06664972 -0.49144903 0.24380833 0.112956375 -0.66562086 0.14943694 0.29126608 -0.27754045 0.21478927 -0.5524223 0.061587054 -0.2758597 -0.35466442 -0.05137161 0.3541987 0.16609539 0.23798789 0.05037207 -0.20687912 0.38515297 0.3355328 -0.26043254 -0.5544079 0.06868622 -0.28982943 0.30178478 -0.3988967 -0.11402801 -0.5596994 0.2837164 -0.051841162 -0.05690249 -0.036984053 -0.29844669 0.04459684 -0.14041679 -0.08279892 -0.06725664 -0.2728419 0.031769484 -0.098782174 0.17250599 0.29338533 -0.27673903 -0.04362947 0.02637115 -0.50564665 -0.16823937 0.11281444 0.12689449 -0.22370604 -0.08562667 0.5517092 0.13998151 -0.19238399 0.3010659 0.28788602 0.08331504 -0.00558023 -0.018203616 -0.040738605 0.21948293 -0.3051765 -0.21257438 0.33596694 -0.026641406 -0.17253818 -0.053666484 0.32845274 0.5490999 0.4126921 0.74829984 0.04085167 0.16862251 -0.26430765 0.06927732 0.62680256
5708 0.3901973 -0.58775294 0.13628197 0.12658422 0.4959422 -0.5775588 -0.25113073 -0.46652687 -0.13542566 -0.40622357 0.12651828 0.08007984 -0.23873298 -0.07176522 0.5286749 0.2883611 -0.43368092 -0.009736869 0.066650674 0.2967037 0.3475936 0.7919416 -0.35392147 -0.25101972 0.2889556 0.038590036 -0.10102687 0.32125017 0.17977552 -0.33935198 -0.14521202 0.22361164 -0.032705687 -0.1252666 0.42199767 0.38344985 0.11068466 -0.27148023 -0.018357288 0.25477132 -0.47496113 0.00020265926 -0.38803622 -0.3046308 0.05313575 0.013412832 -0.19532982 -0.35542852 -0.4099866 -0.44059363 0.02306569 0.34765458 -0.27588224 -0.03514642 -0.10852977 -0.07915024 0.047288444 0.124019906 -0.19868265 -0.32462138 -0.14004111 0.34651187 0.3584985 0.45445204 -0.16357267 0.31041935 0.30736387 -0.08879498 0.25374228 -0.30538586 0.118322596 -0.2892036 0.04460199 0.27995688 0.09418092 0.36649722 0.04282879 -0.01264919 0.1963324 0.10858055 -0.12351881 0.05106881 0.090893246 -0.4203363 -0.02059044 -0.20716852 -0.48524106 -0.2653404 -0.26219246 -0.19214459 -0.31399834 -0.05741189 0.6479797 0.0041387244 -0.0033432154 0.09139576 0.06207705 -0.4858918 0.38065454 -0.16810738 -0.15537933 0.003966461 -0.069270276 -0.0076718894 0.12659271 0.2919164 -0.3296997 0.47495413 0.11613389 -0.0040634735 -0.12487387 -0.09133144 -0.37546962 -0.13248636 -0.46137774 -0.19677047 0.061375864 -0.13265112 -0.09737185 0.19543475 0.07750217 -0.053844642 -0.06848356 0.034138363 -0.0413951 0.123009935 -0.06957861 0.3580156
5002 0.029720914 0.2930564 0.08471165 -0.1680596 0.013924741 0.05242977 0.017063059 -0.33919856 0.50845927 0.08338961 0.15717025 -0.18146344 -0.15686205 -0.09638649 -0.47484046 0.34758306 -0.0048159463 -0.077147365 -0.026159665 0.23196404 0.2790145 0.49457136 -0.5840788 0.26291654 -0.4771012 -0.4475599 -0.09083038 -0.3435238 -0.22403777 -0.58124584 -0.28503323 -0.29484463 -0.40994948 -0.44459033 0.74442476 -0.0247764 0.27523223 -0.1160439 -0.028365996 -0.20104189 -0.04715153 -0.15254693 -0.55041707 -0.34802032 0.16598612 0.1148601 -0.20076163 -0.27525878 -0.093416564 0.11345288 -0.49109283 0.039100185 -0.17365474 0.14483285 -0.25348493 0.00047702662 0.25954667 0.70612735 -0.21403101 -0.1903683 0.057066385 0.22545654 0.04888543 -0.090159826 0.4841943 0.13875583 -0.10088983 0.0074207927 0.1592946 -0.593364 0.18810196 -0.39232764 -0.3341768 -0.49485964 -0.5927911 -0.23778753 0.4661422 -0.37332678 -0.41327587 0.0044040475 0.46636546 0.1577991 -0.23347856 -0.22230645 -0.20284018 0.181578 -0.37029415 -0.601948 -0.21340485 -0.20296872 -0.30232328 -0.42291826 0.30994317 0.08754751 -0.5534004 -0.4183286 0.18636335 -0.36687306 -0.7215446 0.13190486 -0.027109459 -0.33183235 -0.102156244 0.37388423 0.073169336 0.04392701 -0.06928362 0.103974156 -0.6490114 -0.5028147 -0.12315609 -0.41070548 -0.1338643 -0.03482529 -0.27421913 0.120947964 -0.26524633 0.0732924 -0.4273955 0.25812963 0.24649878 0.26029232 0.14343798 0.6150253 0.25498667 -0.22125173 -0.3454107 -0.1422471
373 -0.059500575 0.05949081 0.3233632 0.040654268 0.09601747 0.052705213 -0.33492562 0.110734455 0.6760593 0.032984976 0.24819481 -0.47639173 -0.2888788 -0.08511178 -0.39325967 -0.04251723 -0.09671746 0.07869709 -0.111846745 0.33502567 0.31674454 0.07968437 -0.11976805 -0.15301758 -0.2824454 -0.23394479 0.04064553 -0.31789598 0.08454763 -0.28332677 -0.27896652 -0.10659668 -0.36978632 -0.2651256 0.35983205 -0.204439 0.14400178 0.41285297 -0.10091863 -0.33491385 -0.37328333 0.25556633 -0.7567953 -0.41934565 0.16156414 0.31434664 0.1896381 -0.28396308 0.3042435 0.06640059 -0.4102288 0.12279317 -0.24908106 0.2327768 0.3752846 -0.060849324 0.03969875 0.41268983 -0.39300382 -0.15509684 0.25026178 0.1941489 -0.015096505 0.17768794 0.5350479 -0.055099387 -0.25769398 0.23490594 0.042826034 -0.5649141 0.23672135 -0.09388974 -0.2604269 -0.35429412 -0.69433534 0.19051158 0.3373804 -0.33694348 -0.21484517 -0.3705046 0.7768498 0.31447417 -0.21738788 -0.42331892 -0.18637757 -0.093928345 -0.43367597 -0.42386025 -0.06854117 -0.5924687 -0.21910796 -0.32573625 0.2609189 -0.19404693 -0.4222778 -0.17044106 -0.0140483575 -0.33235747 -0.3887925 0.032414343 -0.40619585 -0.32575783 0.25397345 0.30505013 -0.20317009 0.10135762 -0.17237948 -0.055628266 -0.34638557 -0.6184853 -0.33530363 -0.39419052 -0.04946464 0.007235063 -0.42313644 0.3169813 -0.5243282 -0.06385442 -0.3628061 0.19066776 0.14062208 0.43770593 0.69118845 0.51918304 0.3178547 -0.08869257 -0.24305713 -0.19205235
5213 0.14052434 0.023465827 0.20543061 0.37003145 0.037056375 -0.39871728 0.003603278 -0.2609513 -0.23167019 0.068990864 0.33636576 0.18487474 -0.24150446 -0.44400254 0.3934241 0.06382443 -0.5105201 0.2076076 0.032987397 0.24975759 -0.0043977024 0.28454816 -0.56299365 -0.013464661 -0.42723462 0.12458333 0.04953974 -0.038120624 -0.24119914 -0.25452492 -0.011788625 0.3359881 -0.2172794 -0.120941736 0.10030443 -0.020965783 0.122555554 -0.123955846 -0.33120003 0.32153228 -0.37421086 0.08653282 -0.3085609 -0.3931862 0.21542622 0.4680804 -0.2905719 -0.15021248 0.13148516 -0.5370482 -0.13735108 -0.04122969 -0.20320442 0.047091883 0.030643439 -0.032395456 0.33798575 0.1739696 0.20899338 -0.24176227 0.25134462 0.06907685 -0.2877387 0.2765511 0.2664547 -0.34959978 0.16526969 0.092191964 0.24603145 -0.46431172 0.040701218 -0.20739475 0.055771805 -0.5420947 0.12748985 0.21907122 0.27484065 0.028421026 -0.097902745 0.47111753 -0.18472683 -0.44114056 0.3355378 -0.16309796 -0.29746172 -0.6610919 -0.301882 -0.23789547 -0.025795044 -0.052990925 -0.36221144 -0.2848869 0.026122127 0.10439642 -0.37761617 -0.20347749 0.086417794 0.037631832 -0.122690044 -0.029908182 -0.18557142 -0.27163813 0.0603539 0.22850068 -0.07188712 0.15120624 0.23540676 0.16982736 0.34432808 0.27733952 0.0403197 0.060608797 0.12971853 -0.60539687 -0.33306795 0.1160687 -0.22867334 -0.097364984 0.2561572 0.059836473 0.04310647 -0.09287282 0.39242527 -0.054514326 -0.17288785 0.15038423 0.295707 0.18430427
5153 -0.15276206 -0.43169022 -0.23369619 -0.09000997 -0.099500954 -0.36232284 -0.4618101 -0.36213216 -0.21673624 0.02240188 0.43455696 0.1750553 0.18795739 -0.37781465 0.24041332 -0.003900216 -0.08167347 0.056273393 0.1017554 0.56866354 -0.21775904 0.44833672 -0.6211157 -0.26648125 0.06067811 -0.05754755 -0.25900337 0.3575269 -0.3801128 -0.3762284 -0.15084118 -0.11411281 -0.19357686 0.06250831 0.44888878 0.16642673 0.14183673 -0.09816417 -0.11546926 0.12864615 -0.016254911 -0.062755965 -0.04511075 -0.07697511 0.27906013 0.12747926 -0.42831323 -0.03889344 -0.113331966 0.18212035 0.27156457 0.21713023 -0.09443112 0.45819265 0.0777541 -0.31146717 -0.013365745 -0.23675074 -0.30379575 0.5398166 0.1625137 -0.1566145 0.39285687 -0.0332171 0.23272784 0.20485586 -0.00071564905 0.047701336 0.09795373 -0.18778875 0.18364197 -0.56667954 -0.011159289 -0.20704101 0.10350492 0.051766425 -0.13677324 -0.18523976 -0.19755106 0.21470827 0.11583725 -0.35832828 -0.15916134 0.05107953 -0.10322687 0.15992986 -0.28871498 -0.099514306 -0.230866 -0.47772262 -0.3378323 0.2709746 0.34271485 -0.09250064 -0.032094885 0.194319 -0.060436055 -0.2759182 0.13139696 -0.054102838 -0.36249146 -0.43143755 0.13380279 -0.3515989 0.035500273 0.014951492 -0.33450234 0.25870475 0.17247386 -0.08191784 0.04171984 -0.111810066 0.54274356 0.0022760134 -0.30694187 0.19905604 -0.18606095 -0.41651845 -0.20453516 -0.0928732 -0.031392064 0.41688207 0.2835699 -0.014967432 -0.3391517 -0.13715272 -0.13459349 -0.07202823
5715 -0.044859793 0.22239357 0.023115238 -0.033994872 0.6757424 -0.47795525 -0.25441992 0.046060864 0.14246677 -0.12966718 0.7210045 -0.40950668 0.30044982 0.31968814 0.28337252 0.2847632 -0.33028615 -0.030018965 0.3475763 0.4622252 0.35200524 0.24261108 -0.40307924 0.34742364 0.3515194 0.33240855 -0.044825006 0.20477612 0.20131981 -0.027440108 -0.28201565 0.27566588 0.2212046 -0.5220019 0.086372025 -0.8577629 0.092085704 0.50723284 -0.20250331 -0.34953037 -0.2885961 -0.05059632 -0.13937895 -0.26958376 0.091596656 0.22770222 -0.12779203 -0.7236975 0.21116881 -0.028392749 -0.0027469408 0.28385696 0.27555877 0.641094 0.024888288 -0.53270364 0.093356326 0.5454503 -0.33860308 0.29510456 -0.23445182 -0.34598142 0.3872293 -0.14790456 0.37942302 0.11657896 0.5172894 0.2126536 0.3259578 0.25814492 0.23041883 0.014599678 -0.27949956 -0.10638888 -0.28985742 0.08204794 -0.16693078 -0.36408046 -0.6558338 0.07358784 0.032291368 0.26882562 -0.339177 0.16582824 -0.38472867 0.22037779 -0.786639 -0.6103434 -0.23236349 -0.09448857 -0.8818083 -0.3418423 0.065231144 0.05677637 -0.394256 -0.29228014 -0.06809742 0.12993416 -0.16194957 0.23920229 -0.09492412 -0.6633895 -0.23916642 0.36416268 0.26819128 -0.010298613 0.45758304 0.20611677 -0.043520547 -0.59854376 0.62141263 0.07284626 0.3514002 -0.64865595 0.31775436 0.006917911 -0.11049883 -0.44575784 -0.6436218 0.37456045 0.44397318 0.060309988 0.88974905 -0.18742053 0.03976072 -0.3445162 -0.19924301 0.56568205
7751 0.04949766 -0.4101719 0.008447908 0.16574891 0.35262722 -0.13956378 0.0015908087 -0.2784811 -0.56497335 -0.17581306 0.25435588 -0.13526678 -0.44808397 -0.20053792 0.114019774 -0.09074989 -0.25272283 0.20155674 0.43520507 0.7726775 0.4625829 0.49281123 -0.6021912 0.056116987 -0.123548664 -0.20991358 -0.30410153 0.27303624 -0.1295781 -0.046410933 -0.05274009 0.14777678 0.02103875 -0.23117118 0.06348669 -0.2005619 -0.43475658 0.06006843 -0.36183554 0.29869944 -0.5836225 -0.058105595 -0.7160112 -0.12561369 0.31519777 0.07664396 0.04618901 -0.32981223 -0.4421427 0.049801752 -0.046514623 0.21860354 -0.03965048 0.013518719 -0.06754465 -0.28569597 0.24069546 0.3041361 0.0034539453 -0.17890891 0.19753854 0.2634574 0.58883536 0.18457785 -0.31468144 -0.1589043 0.03314676 0.02991286 0.13068637 -0.027237099 0.03097505 -0.54274267 0.2829563 -0.06376748 0.055743933 0.43260464 -0.23839569 0.096889935 0.0017327638 0.18598582 -0.07199358 -0.09126286 -0.15619978 -0.072083466 -0.22829552 -0.06810873 -0.31708395 -0.18071471 0.087199435 -0.23377006 -0.2631643 -0.03430152 0.15447554 0.032968257 -0.124193415 0.33889815 0.055502765 -0.36116546 0.388137 -0.37264925 -0.11170572 -0.39482626 -0.38398317 -0.16330354 -0.27636275 0.31580162 -0.20919335 0.44519654 0.03255041 0.26969224 -0.04822882 -0.3947645 -0.13537984 -0.25940868 -0.6798427 -0.41187704 0.15049459 -0.083289854 -0.20511755 0.23016238 0.006036408 0.098896764 -0.25504652 0.40632525 -0.23291135 0.035035525 -0.13977392 0.60276735
6150 0.123019874 -0.036156844 0.044054765 -0.1098368 0.33136785 -0.48887727 -0.18443514 -0.3345203 -0.44011152 0.18457973 0.44044098 0.30901688 -0.11761209 -0.1422648 0.17973576 0.13895312 -0.106913514 0.14406145 0.2700613 0.40932682 0.25022286 0.31014946 -0.2924435 -0.31615877 -0.4247748 0.1134865 -0.009779051 -0.17066418 0.34938687 -0.18347973 -0.09755881 0.21967815 -0.17075105 -0.08519241 0.07704334 0.3232176 -0.3768542 -0.34517628 -0.642595 0.17185679 -0.1939024 0.14658073 -0.2122357 -0.392826 0.18026496 0.26104605 -0.35883522 -0.12531637 0.025007946 -0.18928716 0.16862269 0.028175674 -0.17321786 -0.06073761 0.21622872 -0.28450117 0.11994151 0.0797754 -0.069407515 -0.15712209 -0.070821084 0.26119462 -0.08817288 -0.084789075 0.05784781 -0.24509181 -0.06040109 0.1657192 0.33471298 -0.26958564 0.04723512 0.13207822 0.2691935 -0.28939447 -0.05286682 0.015134903 -0.0964387 -0.12079747 -0.27075136 0.25095227 -0.054581333 -0.6974133 -0.20458764 -0.123400636 0.11218347 -0.458029 -0.4049968 -0.24044739 -0.12224469 -0.26465684 -0.17591375 -0.05096963 -0.025764588 -0.044000655 -0.16558601 -0.05511536 0.31169263 -0.0752452 0.2654203 -0.04622032 -0.20678833 -0.31002003 0.044406977 0.16279678 0.07658352 0.20640619 0.048080515 0.48701704 0.41875467 0.20015074 -0.24611168 -0.07405192 0.38400325 -0.34031415 -0.35315976 0.24553809 0.0912879 0.10436238 0.29376224 0.22109163 -0.24726601 0.06168396 0.18634263 -0.0027374537 -0.26525655 0.12508751 0.038018785 0.31390452
7274 0.41773033 -0.0030760434 0.11944753 0.03053111 0.33463326 -0.377726 0.026331523 -0.121156484 -0.10373577 -0.10293103 0.27573285 0.42572367 -0.084067926 -0.24307457 0.108822085 0.11708644 -0.16018821 0.049932495 -0.14686143 0.4856987 0.25789517 0.041175872 -0.4131141 -0.07663185 -0.6977269 0.121998385 -0.053884186 -0.1586993 0.002209374 0.002236864 -0.03589376 0.11746481 -0.0013352496 0.07599042 0.0626323 -0.089521 -0.043803565 -0.21322039 -0.24184984 0.28863606 -0.34398344 0.0845585 -0.40119058 -0.25315905 0.26040477 0.24556877 -0.05946553 -0.33105755 0.014540334 -0.205279 0.060171578 0.09189511 0.10918857 0.3046805 -0.051755022 -0.42610973 0.38611382 0.42516783 -0.0065761907 -0.2406566 0.13385661 -0.12844352 -0.24852057 0.39061344 0.22642326 -0.31522346 0.037651543 0.20701934 0.025184264 -0.3680566 0.15457956 -0.27497452 0.27910683 -0.67923653 -0.040481854 0.23985171 0.16296765 -0.14836843 -0.08490676 0.26087934 -0.043365348 -0.63065857 0.31134585 0.13592078 -0.24110731 -0.6222525 -0.50452566 -0.08300126 0.084417015 -0.170587 -0.49372694 -0.2090749 -0.014207247 -0.11278204 -0.26920134 -0.1735518 0.10474526 -0.12263845 0.16369006 -0.15632254 -0.38612446 -0.4411095 0.13579398 0.022537539 -0.1324345 0.12944391 -0.0031121662 0.3320252 0.43038315 0.39543605 -0.260436 0.12385601 0.3710111 -0.2993126 -0.24313094 0.112912335 -0.18868396 -0.08935327 0.31228635 0.1488744 -0.08957283 -0.25692973 0.47480798 0.12935445 -0.36795253 0.093194455 0.2963565 -0.021092664
5655 0.084293894 -0.35411558 0.017884918 0.095964886 0.0077262144 -0.53375816 -0.5489953 -0.4413979 -0.19810824 0.15721998 0.6303972 -0.11916889 -0.027538707 -0.48126984 0.44762346 0.31942758 -0.11321565 -0.15812786 0.18798773 0.6715279 -0.24077208 0.2194839 -0.57982224 -0.5476307 -0.038060173 -0.022116194 -0.15365691 0.2852875 -0.44376442 -0.3748774 -0.1730787 -0.07446445 -0.30447596 0.2669643 0.36469218 0.117998004 0.14844508 -0.04969151 -0.3434696 0.46690002 -0.26403746 0.097329974 0.025586024 -0.004843183 0.25213268 0.2759484 -0.22244704 0.055615887 -0.02444953 0.35568032 0.17496918 0.252313 0.047911942 0.111549586 -0.18864201 -0.35954535 0.10244637 -0.4631223 -0.32055727 0.41837633 -0.08433368 -0.018690452 0.25713432 0.105496205 0.18158098 -0.10517716 0.0111611 0.12565628 0.34211028 -0.37700075 0.0345999 -0.18336582 -0.10044432 -0.19935286 0.11083158 -0.020300642 -0.14016008 0.013145258 -0.201166 0.12766518 -0.014314167 -0.18276766 0.044374283 0.109575436 -0.15976517 0.105944864 -0.03285233 0.059916787 -0.159788 -0.35018775 -0.17041546 0.1440512 0.0728621 -0.145916 0.024672816 -0.048503377 -0.076051265 -0.119074546 0.21655068 -0.18046612 -0.24533175 -0.56081766 0.32006592 0.03672402 -0.017466076 -0.02220508 -0.14720252 0.23271903 0.083076544 0.06918561 0.32671204 -0.11138002 0.4038602 -0.33624542 -0.060830846 0.25605327 -0.06104751 -0.51617235 0.091665715 -0.04843155 0.11677186 0.36348507 0.38143325 0.16019101 0.068659306 -0.10111235 -0.049537305 -0.18678679
5125 0.048420507 -0.21990976 0.440355 0.18086268 0.105935305 0.12458316 0.010097446 0.046257123 0.32126907 -0.2472804 0.032848097 -0.4908908 -0.38018686 -0.20616788 -0.36180782 0.34610096 0.20581234 0.017363194 0.14737007 0.42413664 0.5209228 0.61428785 -0.24538699 -0.0070409565 -0.37577146 -0.668752 -0.29557106 -0.7094644 -0.017717822 -0.406178 -0.21630138 -0.09790231 -0.28042915 -0.34643704 0.30041882 -0.4158102 0.45942217 0.11296569 -0.23607649 -0.47980142 0.18155082 0.039614674 -0.46635816 -0.71197885 0.14660004 0.13164249 0.079024814 -0.42124894 0.20016803 0.29654986 -0.009726032 0.074412376 -0.06857804 0.11050175 0.07234667 0.14416689 0.17418718 0.46237445 -0.23735929 -0.010661781 0.059415605 0.06458468 -0.0639659 0.014286659 0.49292842 0.077718414 0.037606273 0.09283379 0.027173145 -0.65733737 0.23294842 -0.4164716 -0.3591814 -0.13186853 -0.5509641 0.109539464 0.5638285 -0.57928765 0.095307425 -0.23737012 0.36284497 0.064001724 -0.3631305 -0.15342782 -0.20850077 -0.061200198 -0.37294528 -0.14191537 0.043226484 -0.21370542 -0.12825865 -0.35278398 0.3676808 -0.38820738 -0.6691127 -0.25065914 0.3162775 -0.07570919 -0.62114984 0.30348197 -0.28123736 -0.32217714 0.2109964 0.15056275 0.0065958938 0.19694208 0.1649509 0.47544485 -0.39272448 -0.52300096 -0.46230403 -0.32964247 0.17370605 -0.14545825 -0.3348778 0.086062565 -0.15425228 -0.055934016 -0.43118438 0.2143578 0.10162704 0.14841561 0.4586493 0.31033808 0.54515857 0.018857224 -0.277151 0.04337898
7757 0.056750182 -0.07456478 -0.119807824 -0.16361357 0.35812944 -0.15001641 -0.4754674 0.06958344 0.22790568 -0.011253549 0.42871836 0.129371 -0.044810142 -0.052923128 -0.06574375 0.21770674 -0.45757452 -0.08516165 0.0306937 0.009032569 -0.15499775 0.14697734 -0.47095335 -0.034257323 -0.3635226 0.120585196 -0.08153531 -0.046199474 -0.19383763 -0.051690213 -0.1538259 0.012524936 -0.02056977 -0.4637236 0.28868777 -0.25297576 -0.25155008 0.0018624335 -0.11372575 -0.1777624 -0.1338641 -0.23776445 -0.32388207 -0.018336913 0.17583041 0.034260247 -0.16851638 -0.22777519 0.061616726 -0.0020515195 -0.06278103 -0.09867283 0.034939855 0.77338046 0.44777507 -0.60785866 0.049594864 0.23248492 -0.14616284 0.5306841 -0.44675893 -0.22213654 -0.13877183 -0.18980643 0.13275158 0.38589364 0.2949241 0.62781954 -0.10752725 0.21915096 0.4772948 0.16254741 0.038987447 -0.29674846 0.100950584 -0.03264382 -0.13209052 -0.43314695 -0.32436144 -0.44886655 0.17447752 -0.10691058 -0.20778945 0.13501269 -0.29838654 -0.07668028 -0.22526734 -0.18106763 -0.26133052 0.13917091 -0.40394878 -0.02160136 0.069703005 -0.18310453 -0.22158334 -0.14067541 0.2591309 -0.13753413 -0.029678755 0.28728297 0.17606732 -0.27554128 -0.100293286 0.23350836 -0.057951316 -0.070148006 0.1917578 0.13828556 -0.0796886 -0.20751502 0.18144299 0.006965136 0.16477655 -0.15480462 0.30756354 0.49248576 -0.07302863 -0.19101077 -0.28365996 0.31466088 0.4548789 0.19173908 0.88833404 0.09502346 0.28309786 -0.09425576 0.17057599 0.6194581
5628 0.32003388 0.109399624 0.111643344 -0.057329983 0.14404948 -0.6673999 -0.25659776 -0.036509257 -0.3929405 0.17080554 0.50920105 0.38301352 -0.46351692 -0.41654205 -0.109752804 0.35713366 -0.10013046 0.27202702 0.29732698 0.35160282 -0.08698713 0.23575611 -0.3415967 0.101228945 -0.4260475 0.041164484 -0.13185985 0.08866372 -0.15892236 -0.19427335 -0.028821437 0.25265715 -0.27360973 -0.15285926 0.16360609 0.23971236 0.029337874 -0.08948969 -0.19146627 0.23505263 -0.010362061 -0.034852337 -0.19882858 -0.25386974 -0.099494316 0.2452707 0.21201706 -0.35346392 -0.36117104 -0.16037047 0.29432145 0.08536135 0.0035426999 -0.30022898 0.29298517 -0.6629501 0.53898597 0.14034273 0.11527202 -0.45790696 0.21415596 -0.10393631 0.039875325 -0.08602465 0.17479351 0.06034519 -0.0359234 0.25716025 0.27684122 -0.54224056 0.5621576 -0.029691588 0.47175023 -0.55519384 0.022366088 0.1959687 -0.010650631 -0.19166058 -0.28911874 0.56855315 -0.027136454 -0.6612789 0.08472049 -0.3307419 0.032366443 -0.093536526 -0.26418063 -0.33953974 -0.029156867 -0.116993874 -0.40925863 0.13771403 0.07262608 0.32440868 -0.37133023 -0.309937 0.17875868 -0.15425012 0.45677024 -0.40155715 -0.08715288 -0.28668535 -0.1184849 0.12786129 -0.12324183 0.106987566 -0.17566134 0.54538685 0.13257708 0.026701763 -0.021640401 -0.14922377 0.27612987 -0.24981733 0.06099638 0.11498248 0.032368936 0.07365351 0.26508158 0.48782185 -0.093096495 -0.08165451 0.23285572 -0.07244522 -0.4018158 0.17215988 0.05824095 -0.039782703
7527 0.32095623 -0.3239657 0.14438672 -0.013496923 0.13148388 -0.2597174 -0.06645219 -0.018394548 -0.57470906 0.16450699 0.27869385 0.08627206 -0.24985884 0.038085196 0.5730039 -0.110302694 -0.08048937 0.11670801 0.34502894 0.5066473 0.33274978 0.40740097 -0.61628014 0.19305201 -0.17943613 0.081036136 -0.37363946 0.33776417 0.06336484 0.20499422 -0.08446506 0.11544086 0.049284346 0.051420797 0.15183523 0.1011854 0.30527866 -0.19905464 -0.29524842 0.13723688 -0.44148886 -0.11969618 -0.6642155 -0.21738085 0.38774967 0.027429683 0.24577145 -0.2620019 -0.63581413 -0.20133942 0.060631063 -0.13292398 -0.15201767 -0.009326201 -0.026211949 -0.2928593 0.013120615 0.2598538 0.017514989 -0.2759089 0.040960066 0.26310313 0.2948192 0.32534614 -0.098151214 0.13105132 0.13506167 -0.044466607 0.058968235 -0.20700425 0.07216417 -0.2335779 0.040411253 -0.20385899 0.15392098 0.34048626 0.16299401 0.11768078 0.016152484 0.06384105 -0.20354745 -0.19247241 -0.0060720993 -0.33950382 -0.17719632 -0.43296504 -0.34251076 -0.4650757 0.22785343 -0.21109363 -0.1835893 -0.19111235 0.44396618 -0.08471082 -0.26351097 0.09851841 -0.30661482 -0.2571674 0.16654651 -0.15143561 -0.21445484 -0.11949292 -0.3148218 -0.23894821 -0.1732988 0.09085306 -0.22854365 0.44844544 -0.00055526476 0.2680641 -0.31635085 -0.2816777 -0.13765611 -0.30081198 -0.39306495 -0.03674343 0.07798269 -0.04309706 -0.15887366 -0.034507092 -0.021908976 0.02513708 -0.011656706 0.18340556 -0.25670534 0.25567788 -0.08134229 0.44248053
8562 0.026870774 -0.21471041 -0.035955217 -0.06657518 0.7745062 -0.19698294 -0.3497222 0.095393844 0.33443436 -0.11145609 0.33254614 -0.005253349 -0.055970386 0.10319336 -0.09682911 0.21298513 -0.3275432 -0.017837187 -0.0921249 0.06149488 -0.08248294 0.30626705 -0.64433455 -0.0005871581 -0.08360962 0.042357706 0.2932713 -0.3074322 -0.30365524 -0.18671684 0.035202414 -0.010976319 0.07762736 -0.17776453 -0.16781841 -0.21659738 0.050034635 0.19193359 -0.57277745 0.056045245 -0.44250637 -0.27521113 -0.29219824 -0.31320658 0.043544926 -0.00064408605 -0.23698588 -0.32353458 0.09263727 0.19379015 -0.635021 -0.03920951 0.083854824 0.23712307 0.14420384 -0.57949203 0.11198976 0.15709338 -0.033204284 0.41004628 0.11404119 -0.037163675 -0.14861752 -0.15680183 -0.06704809 0.46437922 0.276095 0.43884695 -0.010417653 -0.29155195 0.5021595 -0.009639877 -0.22005673 -0.40702382 0.09309969 -0.3483748 0.27330294 -0.36807752 -0.5110222 -0.38129082 0.3038025 0.2309311 0.13664074 0.12632209 -0.60805 -0.046875577 -0.10552396 -0.12877041 -0.12094478 -0.023139566 -0.18086892 -0.08451908 0.122693904 -0.16600227 -0.11449934 -0.07077534 -0.09151917 -0.2096362 -0.12524538 0.029138738 0.29924703 -0.47800627 0.07324724 0.5349586 0.3600791 0.13164595 0.22580858 0.2670734 0.018292291 -0.49427947 0.1014289 0.27683744 0.36745402 0.039403066 0.17117482 0.3800792 -0.22901045 -0.35583007 -0.29866242 0.2922281 0.5119983 0.43137124 0.81133723 0.2314373 0.52156943 -0.23397547 0.1234389 0.7385834
6204 -0.010720441 0.15327995 -0.06939921 -0.012281038 0.4441951 -0.063586 -0.2732851 0.1037088 0.024533655 0.050820317 0.3479181 -0.3781723 0.031856123 0.53052455 -0.08077702 0.22594693 -0.53030306 0.12090434 0.33290985 0.1454072 0.3394981 -0.03178985 -0.40529644 0.33062005 -0.0033128532 0.113788 -0.17572282 -0.025554447 0.019273035 0.023855008 -0.19163053 0.39227596 0.22649087 -0.6477787 0.4859515 -0.6524654 0.056944102 0.29815271 -0.18979006 -0.3427983 -0.48677212 -0.24555147 -0.59548515 -0.35371298 -0.22310214 0.074445635 -0.13241287 -0.7007619 0.13427891 0.13048294 0.12727119 0.09149828 -0.057800084 0.7030498 0.19233355 -0.6958246 0.004412812 0.20101026 -0.30391076 0.56970763 -0.25480878 -0.34154904 0.21669121 0.0156044755 0.077141754 0.3163292 0.15990965 0.563711 0.29131123 -0.043289103 0.3102182 0.3074591 -0.11711474 -0.262145 -0.040557563 -0.048362084 -0.22939709 -0.2732088 -0.41694915 -0.21517847 0.040713087 0.27639803 0.0803391 -0.04299908 -0.4004871 -0.08568668 -0.7022349 -0.32545426 -0.3080926 -0.10342846 -0.4760413 0.012398844 -0.049248535 0.032703176 -0.18481536 -0.29562798 0.027180832 -0.1482621 -0.10865877 0.16154818 0.05354835 -0.2726211 -0.18627605 0.040772215 -0.13203052 0.10525177 0.4260146 0.38436687 0.069944635 -0.67054874 0.31010595 0.2902299 0.37479857 -0.60938436 0.26281932 0.24751294 -0.017591935 -0.15243472 -0.6870599 0.5370097 0.5723035 0.08044473 0.91458076 0.042092845 0.11694023 -0.148704 -0.15951152 0.5573228
6342 0.11477104 0.017842762 0.018986383 -0.3616782 0.23482612 -0.19677876 -0.4382225 -0.22190133 0.04555003 0.1723652 0.27723753 0.0464582 -0.14423536 -0.22134335 -0.10684549 0.29107493 -0.29679513 0.10440426 0.011925309 0.05039956 -0.22275977 0.11107536 -0.6752541 -0.14465515 -0.036006637 -0.12848681 -0.010774005 -0.08162191 -0.5050814 -0.22171429 0.06225995 -0.203516 -0.16872604 -0.08111971 0.21330546 -0.4101642 0.23945321 0.121378966 -0.011776767 0.096958175 -0.33650878 -0.39533532 0.04280003 -0.045126624 0.07295668 -0.04480965 -0.13241121 -0.06951652 0.05062082 0.1045657 -0.14955151 -0.22912237 -0.08396065 0.18153253 -0.09632805 -0.7285785 -0.023417246 -0.33056247 -0.24692135 0.6018025 -0.36609438 0.168351 -0.28746447 -0.0024443963 0.0807603 0.18654898 0.02656566 0.33241355 -0.033206325 -0.11026308 0.27136192 0.10521825 -0.12338552 -0.23657562 0.049581133 -0.4104907 0.17363887 -0.31289342 -0.23894508 -0.19508338 0.34326348 0.08850475 0.033769667 0.05597092 -0.095606014 0.2854722 -0.31355825 -0.22073562 -0.18584375 -0.46395877 -0.62730837 -0.05109512 0.34623572 -0.1573483 -0.10521201 -0.047293395 -0.064942695 -0.16740312 -0.28901294 0.34364608 -0.1641879 -0.35828596 0.15866664 0.4740229 0.20509675 -0.06527288 0.32138342 0.116722874 -0.043757007 -0.21193947 0.05490609 0.18270072 0.49568218 0.26020983 0.07360337 0.42221963 0.026343666 -0.4704695 -0.24412067 -0.018117765 0.60476965 0.49036515 0.5587824 0.20957744 0.097274 -0.0055172336 0.06671779 0.2925351
6017 0.018520558 0.0025121055 0.15972833 -0.23876378 0.31447738 -0.20443386 -0.26399443 0.22413777 0.20295122 0.030454658 0.151045 -0.030227553 0.058534387 -0.18474117 -0.003067142 0.11206723 -0.12757437 0.05759491 0.09945495 0.07815866 -0.39797357 0.2755998 -0.2830028 -0.20157434 -0.40188223 -0.20665233 -0.08093141 -0.0035629014 -0.13051754 0.03703053 -0.0016001117 -0.13065465 -0.3556024 -0.27853847 0.18901259 -0.13604367 -0.023470625 0.0077289995 -0.30310768 -0.2920681 -0.20211074 -0.36942917 -0.35348698 -0.19759597 0.070121534 0.09218442 -0.03468948 -0.20628549 -0.050658025 0.020723904 -0.14358743 -0.0049023703 0.114372335 0.40203363 0.5020346 -0.62330955 0.28837463 0.25293797 -0.03865722 0.7610408 -0.37279654 0.05912304 -0.03303907 -0.24829218 -0.17397968 0.19976993 0.25848016 0.38504007 -0.032033 0.11050639 0.54331964 0.21473388 -0.1344342 -0.15945481 0.04517674 0.016150026 0.22331366 -0.23150794 -0.5921317 -0.3114832 0.24538234 0.08227152 -0.025741184 0.08638087 -0.34067562 0.09151359 -0.27199885 0.122901 -0.31896776 0.12065363 -0.31179467 0.10449936 0.10522166 0.011837153 -0.34383956 -0.48988822 0.07855172 -0.28869674 -0.25398874 0.16941036 0.284459 -0.2474604 -0.07929733 0.47405553 0.28806207 -0.06158426 0.2738919 0.37815076 -0.11489095 -0.4154623 -0.0924364 0.042366795 0.09368626 -0.10823659 -0.27226597 0.6225145 -0.19327919 -0.26147434 -0.40907684 0.24283616 0.24663816 0.13613574 0.9869698 0.18462716 0.56756777 -0.2534302 0.21978089 0.4702398
7616 0.259643 -0.43146232 -0.044879414 -0.034157433 0.044468537 -0.257291 -0.35791305 -0.29828018 -0.0062385527 -0.17748831 0.4777721 0.039245695 0.15672666 -0.36868897 0.082452 -0.18652305 0.005073094 0.30799216 0.000138785 0.45474616 -0.16153894 0.3960604 -0.81766117 -0.08403926 -0.13403799 -0.0605827 -0.33866435 0.35710564 -0.29648075 -0.23444325 0.07571616 0.06760766 -0.5049884 0.031604763 0.60718614 0.27227113 0.045760296 -0.2107783 -0.13230371 0.3482851 -0.141924 0.07432571 -0.071635194 -0.36232418 -0.016626075 0.10364781 -0.2949536 -0.17356455 -0.23767665 0.092839986 0.42591786 0.06224368 -0.02310567 0.5179364 0.16365775 -0.6086528 0.079957336 -0.14648676 0.012151142 0.2853782 0.1016144 -0.24778892 0.13326666 0.03648385 0.12304558 0.19867381 0.122656144 0.23783147 0.15501626 -0.17183307 0.043574914 -0.61077124 -0.1276663 0.0815847 0.05602168 0.14848718 -0.19831684 -0.2153051 0.14039966 0.08619019 0.0802183 -0.52170354 -0.26182547 0.22743496 0.25353476 0.20592517 -0.6422358 -0.16084568 -0.22274742 -0.43466705 -0.3323901 0.20419739 -0.0819865 -0.22985491 0.18831415 0.12554006 0.17594858 -0.34311497 0.0114687 -0.088465005 -0.17748655 -0.51489 0.2640927 -0.3164778 -0.056664284 -0.008407002 -0.42094013 0.05999025 0.054287322 -0.18465245 0.20429403 -0.16435356 0.37782437 -0.033287942 0.00032510032 0.45103347 -0.398992 -0.5357163 -0.39516187 -0.015736626 0.107121006 0.42161286 0.1302942 0.20326236 -0.2389435 0.04951643 0.2676594 -0.23977928
6030 0.24503392 -0.57532376 0.21405599 -0.009665733 0.13874853 -0.7101766 -0.2767869 -0.3329773 -0.27831313 -0.16718268 0.363644 -0.15011719 -0.14526579 -0.47678927 0.303412 0.17379956 -0.30255494 0.13612127 0.15639809 0.4052971 0.33561283 0.42847538 -0.57107246 0.18743108 -0.24239637 -0.17557025 -0.23385648 0.3181416 0.05859823 0.12682518 -0.06864712 0.22298579 0.17003076 -0.25387648 0.36163923 0.4874382 0.15365341 0.039104234 -0.13543622 0.05183553 -0.18226665 0.13424546 -0.5936865 -0.48541865 0.07034767 -0.15163125 -0.24571241 -0.44073808 -0.5364945 -0.07611435 0.25964543 -0.109423056 -0.086904965 0.11789864 -0.20317419 -0.21279536 -0.17876294 0.030185927 0.028194826 0.007062734 0.22769558 0.35722885 0.3080791 -0.16572307 -0.20390143 -0.04474379 0.1146733 -0.29730505 0.09518625 -0.17030783 0.11329434 -0.6211485 0.19671169 -0.11451879 -0.04925911 0.13789469 0.18131948 0.14740238 0.019792547 0.19231209 -0.2650417 -0.24061722 -0.07115057 -0.40085718 0.26270062 -0.4633304 -0.25659752 -0.2772057 0.23123874 -0.10190045 -0.45172322 0.030435495 0.48630786 0.16887942 0.03810018 -0.22425613 -0.25346088 -0.35575417 0.39632717 -0.15412968 -0.14340967 -0.2618488 -0.08583943 -0.074046336 0.0966744 -0.17792799 -0.27491137 0.5650826 0.3114543 -0.07387173 -0.20178714 0.06900297 -0.17987584 -0.43492773 -0.5219266 -0.1944771 0.2725983 0.14890812 -0.31117362 0.017320752 -0.08799787 0.13442987 -0.26335394 0.25375748 -0.2586938 -0.046044204 -0.1449804 0.580405
5299 0.36955225 -0.04899729 0.11970223 0.015221804 0.19873284 -0.48850587 0.16011655 -0.07328193 -0.31693602 0.031692803 0.53737706 0.23688343 -0.029456176 -0.44707283 0.18827078 0.16785003 -0.0102664465 -0.032101557 0.40340126 0.2792717 0.22902234 0.24627051 -0.4601512 -0.16657564 -0.34420326 0.06514774 -0.3957502 -0.36172822 -0.053894218 0.08488973 0.04755617 0.19684686 0.35593915 0.201295 0.07536216 0.34161913 -0.061445393 -0.20430614 -0.4124373 0.26725584 -0.45925024 0.15264185 -0.2743837 0.08047551 0.2265562 0.28705347 0.03137318 -0.22236045 -0.06840151 -0.079941094 0.13758865 0.15040398 -0.20776196 0.29120636 0.29526415 -0.3908688 0.5455013 0.11768602 0.008919425 -0.20650092 0.23229417 0.04759259 0.01619027 0.10981792 -0.018478675 -0.13919939 0.41311622 0.17159848 0.1251902 0.0866589 0.0005401871 -0.016458368 0.31382224 -0.21890531 -0.044610072 0.24638681 0.08345854 0.27582562 -0.27207074 0.4273502 -0.2299978 -0.27830297 0.25390807 -0.2954701 -0.24758692 -0.51229936 -0.49478155 -0.41309243 0.18520398 -0.12046538 -0.4041462 -0.3742854 0.06130971 -0.23691441 -0.080278024 -0.34244233 0.026255278 0.005000208 0.281633 -0.025661506 -0.07740198 -0.23777063 -0.109855674 0.012707178 -0.083473265 0.1836135 0.029182268 0.62486506 0.2177897 0.108274415 -0.19512787 -0.3255974 -0.122898385 -0.3162339 -0.46935952 0.25041896 -0.063022956 -0.093604885 0.35583246 0.5601527 0.16599563 -0.17660001 0.23241559 0.048986536 -0.1403375 -0.07777021 -0.08474755 0.02983766
5231 0.32021743 -0.63062197 -0.13437438 0.16322708 0.18435434 -0.42550382 -0.40719026 -0.3186982 -0.08635772 -0.17992765 0.1847248 -0.03236168 0.13598405 -0.0003068008 0.78163344 0.043772038 -0.4025784 0.23177105 0.013791804 0.49273112 0.71630216 0.40196425 -0.30224052 -0.06973842 -0.16059679 -0.37001717 -0.2607269 0.22233498 0.09874466 0.11273047 -0.22719042 0.42804748 0.14318043 -0.024971658 0.2535086 0.06331787 -0.16959815 -0.09194711 -0.19691432 0.39483804 -0.13726896 0.113987796 -0.29913518 -0.2520323 0.19794993 0.14930153 0.15947604 -0.08924384 -0.4559989 -0.1457313 0.08411817 -0.23104732 0.14189225 0.22885676 0.23470055 -0.06391216 0.10002716 0.37351108 -0.29060292 -0.097769365 -0.2092007 0.40546116 0.48337722 0.021277603 -0.10269406 0.124282755 0.06858721 0.15565512 0.20369239 -0.28921562 0.045374136 -0.3320004 0.19014294 -0.08350647 -0.00012204711 0.17674513 -0.10085664 0.5175996 -0.32966238 0.2364944 -0.45430386 -0.19775361 -0.022021027 -0.11271161 0.11285685 -0.050471444 -0.3102541 -0.47967002 0.077104874 0.11024179 -0.30341345 -0.24164136 0.3014941 0.031192323 -0.044259142 -0.14664268 -0.017695792 -0.24555337 0.10049611 -0.016093407 -0.41933796 -0.37196887 -0.34553444 0.019306837 -0.075934336 0.42006037 -0.20397472 0.4815582 0.17693199 0.02730391 -0.13400929 -0.41464886 -0.16062829 -0.6085227 -0.72024584 -0.53145885 0.19821374 -0.115504585 -0.08454652 -0.09771226 -0.03925843 0.26017585 -0.12706132 0.26014617 -0.029119939 0.12885492 -0.41034845 0.59062856
8152 -0.19214645 -0.03084218 0.035252534 -0.098681174 0.27264866 0.18737464 -0.16971007 -0.19043794 0.35349533 -0.18228644 0.36571518 -0.38139072 -0.5492161 -0.100460075 -0.24392393 -0.13774012 0.0675939 0.18489404 0.019707736 0.28098112 0.14083621 0.0008383491 -0.16434263 -0.21477099 -0.44630554 -0.25175703 -0.13896944 -0.27712065 0.09758982 -0.41711077 -0.016009774 -0.15585563 -0.3791471 0.10778712 0.508819 -0.3190365 0.3831348 0.23672332 -0.5101043 -0.08652297 0.02378313 -0.007835075 -0.23576756 -0.43471155 0.40045685 0.1120542 0.4283369 -0.27383602 0.12771861 0.09125702 -0.02264785 0.008479018 -0.33766142 0.31944898 -0.31573117 -0.030495359 0.13008492 0.20463294 -0.5145258 -0.1553494 0.054451838 -0.15519418 -0.08522569 -0.085281335 0.5325686 0.15387826 -0.22951281 -0.086844996 0.05002412 -0.3945397 0.13409336 -0.3824513 -0.32435375 -0.083481215 -0.7006463 0.11681112 0.42512336 -0.11528212 -0.011923756 -0.04868193 0.78377223 0.32084942 0.013063782 -0.4781226 -0.052484676 -0.03921934 -0.6154271 -0.35701436 -0.06009426 -0.1434358 -0.20112024 -0.5701662 0.3188325 -0.11462872 -0.8667272 -0.37614375 0.2501737 -0.3018232 -0.32694653 0.034698993 -0.2606747 -0.2208703 -0.106228806 0.042752836 0.0153430905 -0.36370984 -0.08107539 0.33548337 -0.22136949 -0.9047647 -0.29755124 -0.315168 0.2822898 -0.21255372 -0.15368354 -0.057089448 -0.15641233 -0.19620706 -0.32938808 0.16232084 -0.19745463 0.2754838 0.77116716 0.38734624 0.66634506 0.0766716 -0.3825715 0.13984223
6206 0.35134712 -0.5991096 -0.04697795 0.0080799 0.26666528 -0.5174872 0.08347952 -0.111669846 -0.49021083 -0.2597818 0.21473649 -0.22946292 -0.21442357 -0.24236743 0.5944967 0.022184309 -0.18129157 0.038028218 0.12509458 0.17349936 0.4588048 0.5866626 -0.7877307 -0.07889438 -0.1467819 -0.13651896 -0.29616192 0.25096098 0.19229008 0.03646698 -0.13724214 0.11123746 -0.042770017 -0.023893764 0.08126047 0.43891087 0.22208269 0.029180702 -0.22453468 0.12850657 -0.21150841 0.032891445 -0.61613214 -0.116105914 0.1701509 0.10846884 -0.18315217 -0.42390603 -0.4303644 -0.20184566 0.1080349 0.11299386 0.030776506 0.15063965 0.03795092 -0.22015512 -0.227398 0.44409204 0.06254369 0.044858832 0.08516626 0.2493119 0.4353529 0.35231248 -0.23038563 0.12666829 0.11221105 -0.005973414 0.14832088 -0.22338594 -0.20588571 -0.39737368 -0.012525315 -0.23448421 0.08960453 0.43318892 0.2191311 0.38467687 -0.08683145 0.27661934 -0.067990676 -0.17470609 -0.0065554036 -0.47564456 0.1334157 -0.36201873 -0.47757864 -0.4269672 -0.16106214 0.00050348724 -0.31083217 -0.07770151 0.27192858 -0.07885931 -0.07162536 0.084501624 0.059623867 -0.4232751 0.10270065 -0.22249758 -0.19367866 -0.06643706 -0.3025628 -0.33991078 -0.12861973 0.14236946 -0.12219198 0.40121922 -0.0770079 -0.11858679 0.017792009 -0.07138538 -0.04135931 -0.26887286 -0.21510492 -0.2249925 -0.084234275 -0.12878338 0.13738492 0.200991 -0.16752075 -0.07095177 -0.13698009 -0.051689133 -0.09896225 0.43557853 0.045656852 0.35079864
7758 0.26488018 -0.043598693 0.19235101 -0.1553316 0.17742318 0.1279092 -0.33574215 -0.11584775 0.42868963 -0.078984946 0.48816025 -0.17604634 -0.3135835 -0.36766908 -0.30692583 -0.001254784 0.046543676 -0.016069304 -0.15863545 0.57098234 0.33339742 0.13954595 -0.011052337 -0.37617826 -0.3783829 -0.36864716 0.01471627 -0.37671825 -0.09399269 -0.23701617 -0.38052505 -0.08541909 -0.17389314 -0.3762356 0.18340954 -0.4071789 0.12293254 0.21174242 -0.4193593 -0.35806707 -0.31100613 0.055265795 -0.60323113 -0.49129817 0.4652077 0.1942617 0.25450635 -0.287707 0.01300419 0.21443829 -0.13744299 0.11607059 -0.12152745 0.19205324 -0.4451281 0.14958075 0.10165822 0.37367955 -0.29392254 -0.28100967 -0.0009779392 -0.047252614 -0.09417658 -0.17317764 0.50648427 -0.0488497 -0.05055506 0.22476554 -0.116462484 -0.37486506 0.13657165 -0.5498966 -0.5638433 -0.21788648 -0.5173721 0.09257341 0.27573076 -0.2695348 -0.24637552 -0.3687557 0.4073907 0.35826787 0.08709984 -0.46894968 -0.2284101 0.61363584 -0.15455084 -0.048505384 0.1197349 0.059470598 -0.269201 -0.4308903 0.084113576 -0.47676384 -0.75922203 -0.097494684 0.21911398 -0.14123707 -0.24421251 0.045878164 -0.03306661 -0.33467287 -0.24151108 0.27710873 0.12524249 0.22924262 0.05596075 0.1987305 -0.4344553 -0.5798056 -0.3092472 -0.39936754 0.161109 -0.25613463 0.08102774 0.16535407 -0.095591195 0.013187493 -0.5343612 0.031078681 0.27799872 0.28666276 0.7388855 0.34250692 0.6445697 -0.124785475 -0.060900748 0.084617905
5035 0.06899846 -0.28422177 0.14292747 0.16653134 0.34337312 -0.036976468 -0.17187814 -0.4097501 0.026924126 -0.07174738 0.140832 0.19177358 -0.34584063 -0.42380702 -0.0018819971 0.351731 -0.43432808 0.29687658 0.16826941 0.44724658 -0.16944046 0.36100155 -0.38394862 -0.16912636 -0.42712232 -0.075606905 -0.3029737 0.048252683 0.30441684 -0.076763585 -0.031509258 0.12951481 0.2121029 -0.21785195 0.104095206 0.20277406 -0.263302 -0.049393445 -0.15852666 0.29897094 -0.21959479 -0.3012579 -0.24469376 -0.38643602 0.32123706 0.35758296 0.041115966 -0.44063354 -0.07624691 -0.2927005 0.097755685 -0.04165629 -0.3251862 -0.20877272 0.089783244 -0.11571862 0.41065174 -0.10902062 0.051887512 -0.53183925 0.20380445 -0.18555287 0.21157151 -0.1966522 0.056950383 -0.17086433 0.34881026 0.18412083 0.32952783 -0.36516446 0.24219586 -0.312675 0.018240832 -0.41024497 0.33976796 0.2970206 -0.1747277 -0.011338351 -0.12928025 0.49377987 -0.3232527 -0.19614406 0.2921314 -0.33436128 -0.01600928 -0.32190698 -0.6179964 -0.16269502 0.17086038 -0.07611223 -0.22805646 -0.040073656 0.0060694357 -0.13296254 0.07325263 0.0012281158 -0.016666137 -0.050947923 0.5295918 -0.19323438 0.1533619 -0.038059834 -0.10303313 -0.20620131 -0.10011328 0.34361795 -0.051461805 0.5344536 0.36880115 0.31318575 0.09038861 -0.09686933 0.41951498 -0.37103513 -0.36151573 0.107451305 -0.12704355 -0.3669143 0.22575872 0.46015474 -0.089076795 -0.033803377 0.40975222 0.13818651 -0.2732647 0.22193639 -0.02059964 -0.024592077
8175 0.24403837 -0.5035029 0.11863242 0.1511918 -0.24721664 -0.23881122 -0.40218827 -0.60246444 -0.2201383 0.22893757 0.5333523 0.10897935 0.14733993 -0.41974285 0.21891378 0.1709807 -0.26519832 0.33742663 0.21351579 0.60177517 -0.3909617 0.21696407 -0.5565102 -0.25382832 -0.08623276 -0.028864983 0.026387962 0.34334406 -0.31159383 -0.12616605 -0.1261146 0.1986317 -0.49924394 0.028396584 0.22830535 0.14409797 0.24385175 -0.09291702 -0.1823583 0.2594977 -0.266316 0.22382402 -0.16580191 -0.12254648 0.045744743 0.28035003 -0.32987276 0.033714037 -0.20386142 0.35809967 0.12880082 0.16054642 -0.051730514 0.463855 -0.0077468227 -0.41252536 -0.045582555 0.17234056 0.12126319 0.5390119 -0.03096974 0.009165481 0.22311594 0.2504214 0.16680403 0.024321154 0.06722137 0.09714021 0.19559476 -0.28175035 -0.076839924 -0.6068699 -0.24258353 -0.086939834 0.34411198 0.10978431 -0.17056914 -0.213205 -0.19040339 0.12532146 0.04693305 -0.30671224 -0.31821036 0.38093767 -0.11612281 0.1918193 -0.30279922 -0.06821038 -0.6185024 -0.46211928 -0.24505143 0.09789336 0.31029892 -0.3464339 0.025225993 -0.01743892 0.048685182 -0.34597793 -0.15172757 -0.07115606 -0.3908544 -0.33369237 0.478265 -0.27231568 0.11289825 0.08712529 -0.17144786 0.30639875 0.16377206 -0.1148472 0.0047302726 -0.28306174 0.44283295 -0.13021025 0.07949627 0.36105838 -0.327084 -0.44112468 -0.26162064 0.11515748 -0.0012287336 0.15851292 0.23751682 0.104453325 -0.035000354 0.14797917 0.04911088 -0.20985927
5806 -0.15418388 -0.27393752 0.24259712 -0.2000597 -0.037769098 -0.05043871 -0.19420433 0.1996327 0.45758277 -0.312075 0.06671969 -0.4145733 -0.17240222 -0.2080626 -0.2569545 0.13794869 -0.4163575 0.14328429 0.13077001 0.54427254 0.25594163 0.21733397 -0.42062944 -0.106753364 -0.23782206 -0.25915888 -0.15760739 -0.43196997 0.19881463 -0.35225204 -0.25483555 0.0549961 -0.22404918 -0.22893949 0.44814256 -0.26411653 0.2491825 -0.12667745 -0.19398242 -0.36126986 -0.12834433 -0.007045986 -0.60591453 -0.65243727 0.20088418 0.0338032 0.24695408 -0.2316386 0.13971168 0.22706394 -0.049146865 -0.13724552 -0.34536302 -0.1317334 0.24745034 0.23901215 0.34571898 0.26000628 -0.06056554 0.010335671 0.15219808 -0.11390161 0.037397712 -0.18242432 0.3919876 0.15059155 0.47137868 0.21405816 0.089576505 -0.4887335 0.13639836 -0.08923451 -0.3454121 -0.14094159 -0.5549718 -0.16070987 0.46444803 -0.4926817 -0.4689083 -0.15065987 0.36108193 0.15417847 -0.063023 -0.40176043 0.11392339 0.31804997 -0.542031 -0.3332171 0.016637912 -0.04101573 -0.23646577 -0.30162957 0.33589682 0.122750744 -0.5494869 -0.35691348 0.17208861 -0.12047563 -0.7487259 0.44886026 0.09360369 -0.3676945 -0.14354 0.21115412 0.4653637 0.2554228 0.060246043 0.3977054 -0.3341375 -0.8144543 -0.19428018 -0.13847464 0.0779871 -0.057283342 -0.29036623 -0.009127193 -0.16777109 -0.03319301 -0.37695855 0.14232053 -0.097024664 0.090666294 0.23358028 0.30413654 0.53166544 -0.116146915 -0.27407497 -0.195205
7806 0.46341664 -0.358054 0.008741762 -0.035307895 0.43014282 -0.32272694 -0.16854477 -0.23215471 -0.1272541 -0.026915861 0.34798878 0.30357453 -0.20572016 -0.58888876 0.27792653 0.12311646 -0.35789317 0.2003664 -0.13987982 0.83271366 0.33727083 0.53063804 -0.55434203 -0.036805466 -0.61920005 0.058454257 -0.11430188 -0.07950976 -0.24089678 -0.050839394 0.1347917 0.17220095 0.12664145 0.005357214 0.01562932 0.3323031 0.17159441 -0.14149141 -0.56273896 0.10393265 -0.41797662 0.043244634 -0.35011417 -0.050599128 0.0030202975 0.3431232 -0.22717722 0.005866882 -0.20362295 -0.48170185 -0.01240595 -0.11938458 -0.12824018 0.028696135 0.12996037 -0.29622138 0.5053665 0.18960434 0.19692741 -0.2787258 0.111342795 -0.2726287 -0.084467985 0.39017153 0.036077883 -0.2121539 0.059730243 -0.21179377 0.18036225 -0.089708745 0.064309105 -0.34860817 0.3625131 -0.29078582 -0.17384171 -0.0011553736 0.077630796 0.15515997 -0.11159352 0.4952605 -0.26174095 -0.45928696 0.046429485 -0.0013654975 -0.08322347 -0.3757612 -0.35924977 -0.10887843 0.36191985 -0.16505718 -0.13960977 0.05729143 0.20024587 -0.041155964 0.20400277 -0.008338704 0.26506034 -0.17385256 0.18524824 -0.26554224 -0.24039488 -0.12637873 -0.13777068 -0.038351 -0.3247356 -0.019220093 0.0843958 0.15391155 -0.098421104 -0.04512652 -0.3210645 -0.14896528 -0.002434473 -0.5112256 -0.29060313 -0.12058872 0.059329916 -0.0011600447 0.061655805 0.20801994 -0.06680437 -0.024891587 0.11750907 0.17461604 -0.27979898 0.08453132 0.10791354 0.3454095
6414 0.2703434 -0.47964984 0.00037446088 0.13195814 -0.27593496 -0.17164747 -0.13390258 -0.26535589 -0.26096755 0.05484348 0.4649812 0.007976246 -0.0042562587 -0.13649663 0.30548933 0.21239993 -0.0485561 -0.15920801 0.17573638 0.43260497 -0.19848512 0.37058753 -0.7136954 -0.7730085 -0.18280317 0.10144798 -0.28137833 0.26286837 -0.34082416 -0.42999905 -0.3207696 -0.028526995 -0.38470674 0.10100404 0.2924638 0.004804397 0.16052516 -0.07809638 -0.070501834 0.29357406 -0.5004572 0.035868667 -0.10418511 -0.24689405 0.63968253 -0.0010890746 -0.30498886 -0.08923806 -0.18036896 0.17049426 0.16682477 -0.10885334 -0.10933848 0.088960126 -0.013139231 -0.15798219 -0.03779524 -0.088952914 -0.078325704 0.50489753 0.029249592 0.05533703 0.2154293 0.019012513 -0.1465401 -0.10024066 0.014788588 0.16901244 0.240152 -0.21304882 0.03377984 -0.5604181 -0.3081584 -0.21251592 0.19879605 -0.14759897 -0.06677547 -0.29303026 -0.040413916 -0.07497141 -0.15555231 -0.5615709 -0.19757359 0.3631874 0.11272052 -0.15593222 -0.4762285 -0.052114055 -0.2206402 -0.59804076 0.017884847 0.06781436 0.084203005 -0.122975044 0.089871146 0.09781416 0.20637077 -0.4673615 -0.19770569 -0.010280206 -0.27843854 -0.4829663 0.16515844 0.06641452 0.2204667 -0.2558172 -0.21393146 0.3803888 -0.16379604 -0.2003454 0.2427576 -0.252102 0.31385902 -0.0411703 0.13653362 0.5715822 -0.16216254 -0.28179616 -0.23892209 -0.24373373 -0.27380928 0.37924454 0.29648492 -0.008118253 0.06300001 0.20314954 0.2331386 -0.3804586
5872 0.11427394 -0.14757757 0.1348349 0.07327531 -0.1545797 -0.28756723 -0.30716294 -0.07093501 -0.21600208 0.08507124 0.17340617 0.019878523 0.05737609 -0.27123874 0.01343685 0.11715966 -0.20443986 -0.16469325 -0.08905881 0.32807258 -0.11055325 0.1676642 -0.7340829 -0.5009628 -0.06444593 0.028624091 -0.33009306 0.11506152 -0.28361273 -0.19136414 -0.04397913 -0.07088693 -0.25833604 -0.068544455 0.05699488 -0.2099405 0.07929318 -0.1626816 -0.2921914 0.27026567 -0.092539445 -0.2276738 0.3540659 -0.030010931 0.10773464 0.089323014 -0.40330812 0.013765323 -0.28252617 0.1924789 0.3413696 0.16350754 -0.08680285 0.12943256 -0.10491081 -0.42944926 -0.112801865 -0.27009362 0.097188294 0.45427057 -0.044648297 0.01710383 0.22044417 0.07135715 -0.05503957 0.030495778 0.12041725 0.079233 0.005971804 -0.018294659 0.17337646 -0.20609759 -0.0574897 -0.15989582 0.0733412 -0.2040625 0.004968523 -0.26075286 -0.008500576 -0.25947708 -0.21265954 -0.2791616 -0.007644316 0.29365057 -0.18077207 0.0046973946 -0.112107195 0.042155135 -0.45037615 -0.4393513 -0.4991984 0.11296092 0.21887687 -0.07093978 0.1921156 0.08858703 0.17024109 -0.37978536 -0.20294039 0.09404796 -0.29171488 -0.53409743 0.32316256 0.14322954 0.20340149 -0.079415694 0.030131852 0.07104137 0.07269494 -0.07004485 0.19244695 -0.1274656 0.3765617 -0.13355504 -0.34089434 0.43928736 -0.075009964 -0.51089466 -0.37294665 -0.12696236 0.26654717 0.31535468 0.741479 0.13220981 -0.119776204 -0.0647861 -0.0087322 0.003787571
8447 0.10155921 -0.45657635 -0.11854002 -0.055433314 0.08600656 -0.1764966 -0.49574158 -0.4224607 -0.20303726 -0.09618602 0.50876635 0.26849926 0.31888783 -0.41574213 0.09461178 0.3564845 0.10068581 0.11749677 0.23880163 0.51149285 -0.124816395 0.072167255 -0.70247656 -0.29866543 0.05597305 -0.0973372 -0.23476878 0.15566869 -0.2816517 -0.34979454 -0.10930417 -0.0046955436 -0.45409665 -0.15797508 0.49261144 0.18887983 0.16452698 -0.20785539 0.0048231506 0.43136224 -0.2855033 0.16404963 -0.2693608 0.044037744 0.49316043 0.012190857 -0.23854211 -0.20794904 -0.15926228 0.082032144 0.21048793 0.2617171 -0.2526852 0.49055338 0.08672725 -0.44506767 -0.12780188 -0.12819134 -0.3000427 0.41997984 0.023086747 -0.07343683 0.23825568 -0.03694544 0.0765996 -0.076913066 0.08575061 0.26595455 0.13981126 0.051409457 -0.22355826 -0.48608232 -0.21540278 -0.08478481 0.13712247 0.097747155 -0.018689191 -0.2645127 0.114416525 0.23483 0.029719623 -0.2036595 0.009563018 -0.0071190232 0.02914393 0.15007882 -0.5318724 -0.07885724 0.090263665 -0.4958874 -0.21665238 0.19088285 0.3795731 -0.23806788 -0.030258095 0.16643271 -0.022100976 -0.05684195 0.015783248 0.11700762 -0.048366413 -0.3821011 0.26649734 -0.21590552 0.31678656 -0.021321164 -0.31592458 0.20596832 0.1909463 -0.16588399 0.17210199 0.057079334 0.5875167 -0.036065627 -0.04862423 0.20803325 -0.25488433 -0.40935647 -0.08483286 -0.23378736 0.051245324 0.34370476 0.094622284 0.010731778 -0.18588868 0.07901889 0.17234784 0.03678719
5260 0.40611902 0.10141729 0.06853564 0.17113054 0.28421766 -0.23944 -0.33148345 -0.25080213 -0.29300353 0.2727099 0.56356657 0.2370523 -0.14762121 -0.26893976 0.17854069 0.29137748 0.023215238 0.2047912 0.05891751 0.41405594 0.08697719 0.09378458 -0.16945328 -0.28730166 -0.47084984 0.110220514 0.18040344 -0.19216993 -0.31928253 -0.28524157 0.08513107 -0.034097966 -0.2591756 0.04802271 0.10699751 0.33819285 -0.15420136 -0.17162703 -0.37688622 0.28027377 -0.34824938 -0.15581945 -0.23043518 -0.36203134 0.3408101 0.19582522 -0.13177724 -0.24434477 0.03885578 -0.16152881 0.24610972 0.08848469 0.24824417 0.0005750364 0.018937983 -0.16463618 0.40588766 0.23992284 -0.17347264 -0.080263555 -0.045128923 0.20722935 -0.14501297 0.17303404 0.27434096 -0.39187235 0.3305274 -0.32170936 0.14888957 -0.26404113 -0.060913526 -0.0015651195 0.030846221 -0.32086018 -0.015308305 -0.14839655 0.034121793 0.12548406 0.09113996 0.4823197 -0.045858115 -0.48605493 0.26599696 -0.07895025 -0.014470234 -0.73580724 -0.23398258 -0.39662468 -0.31677237 -0.29377994 -0.24391168 -0.11245903 -0.12779021 0.03924188 -0.47204477 -0.14377002 0.17625917 -0.009528356 0.036563966 0.26248214 -0.011424541 -0.417376 0.022809358 -0.29616618 0.04527794 0.32008913 -0.36873105 0.5268489 0.19016108 0.12383732 -0.111260176 -0.2501475 0.29947224 -0.50789297 -0.012681677 0.024944544 -0.0056020203 -0.07595379 0.029759867 0.113154404 0.18227245 -0.1995564 0.35371166 -0.05299151 -0.43940622 0.19326577 0.26748702 0.2859659
7861 0.047323503 -0.41476193 0.03685941 -0.053185116 0.107802086 -0.07052328 -0.17911933 -0.28990176 -0.20757298 0.057505414 0.43962365 0.21769375 -0.14566416 -0.22830226 0.51779664 0.035876133 -0.14450088 0.34262395 0.14721763 0.65545905 -0.29635918 0.16297926 -0.55600184 -0.2956191 0.10934887 0.02115141 -0.18703356 0.2555934 -0.1484825 -0.21181957 -0.27042857 0.1729057 -0.55711293 -0.0013323338 0.57921827 0.24873583 0.060872797 0.003999089 0.01765907 0.4321472 -0.12001268 -0.08748426 0.028579919 -0.00445322 0.009528162 0.27184978 -0.48189533 -0.052350137 -0.19343138 0.15033996 -0.011248548 0.22660679 0.0069253766 0.36584237 0.017319296 -0.37618226 0.10719929 -0.11328189 -0.07821397 0.5276766 -0.04820653 0.19035111 0.08113956 -0.1813061 0.29385123 -0.18294062 -0.15011756 0.3324572 0.26608622 0.11263237 -0.06938755 -0.51959383 0.058896173 -0.36811703 0.304243 0.062434904 -0.09091427 -0.25441846 -0.10357679 0.40373006 -0.027819604 -0.13896333 -0.1278771 0.09419296 0.11452426 0.15635759 -0.57910836 -0.15086117 -0.47659895 -0.36184368 -0.1357087 -0.056003135 0.29991993 -0.3713475 0.062004905 0.01712299 -0.18429703 -0.14436561 -0.037200626 -0.20888467 -0.33111882 -0.57222915 0.22439672 -0.22506353 -0.0024673997 0.20156927 -0.26162642 0.18682648 -0.038377475 0.04848901 0.021297233 -0.12118204 0.50629586 -0.18456411 -0.25951764 0.6641217 -0.12083324 -0.5513675 0.031183546 0.24971783 -0.081585385 0.46586412 0.14873925 0.2200618 -0.1098353 -0.12768824 -0.16252361 0.016942028
5380 0.1686211 -0.15063044 0.19155332 0.060006768 0.2281405 -0.26507354 -0.10709429 -0.33793408 -0.16700375 0.2043586 0.5350182 0.4905032 0.26074618 -0.38362357 0.023376048 0.02216561 -0.09812183 -0.016198741 -0.1483032 0.33165067 0.11072761 0.012014181 -0.28115466 -0.020783085 -0.40588 0.35467777 -0.30894446 0.0375435 -0.44268858 -0.07440589 -0.10953625 -0.061996974 -0.0820603 -0.122099146 0.2372455 0.13399144 -0.20210306 -0.4644452 -0.2517808 0.25148612 -0.075653814 -0.30930677 -0.088980734 -0.11396999 0.32016432 0.32444993 -0.2310658 -0.2484339 -0.18749219 -0.13862252 0.2312251 -0.0014119057 -0.13276733 0.3841501 0.38080522 -0.46439913 0.31252888 -0.0098601105 0.11488629 -0.032537613 -0.019783566 0.049601953 -0.06820648 -0.03986942 -0.109895736 -0.14690536 0.22581525 0.28095666 0.17610627 -0.1649667 0.040053315 0.08852915 0.017936222 -0.6595417 0.09953215 0.009380203 0.3943037 0.03855222 0.26562515 0.37459287 -0.23503356 -0.3281519 0.0064973766 0.058488857 -0.25837496 -0.33513108 -0.032449875 -0.091198 0.051442966 -0.13295281 -0.28685063 0.08950587 0.120722726 -0.16639689 0.023256838 -0.11969951 0.6768193 -0.15310375 0.10664575 0.29295513 0.03934234 -0.23577085 -0.108923584 -0.06633337 0.055581223 -0.015294726 -0.1686492 0.4551985 0.3098317 0.0828337 0.021100251 -0.22894111 -0.0013861425 -0.2521127 -0.2840816 0.18255037 0.058746878 -0.12762849 0.33561736 0.03177058 0.21143919 -0.039222185 0.36048168 -0.018379685 -0.37914613 -0.044182595 -0.11415627 0.17955461
6008 0.40036818 -0.32776833 -0.07162164 0.2129193 0.31051415 -0.27728474 -0.5493984 -0.124297075 -0.0025144839 0.27874503 0.26788634 0.002526645 0.13097845 -0.19294734 0.5513209 0.10487387 -0.5210215 -0.06786344 0.31333452 0.54678434 0.22110835 0.35069343 -0.07275359 0.055960197 -0.24625067 -0.31002757 -0.44072193 0.44310397 0.21266744 -0.07340678 -0.23969996 0.1069199 -0.077147745 -0.21925803 -0.21214035 0.28723204 -0.020501422 -0.49573916 -0.03649089 0.013832633 -0.4620919 -0.053760506 -0.43407056 -0.6607585 -0.07591925 0.15212561 0.33879513 -0.31678155 -0.65443605 -0.09453969 -0.26053804 -0.2114744 -0.25913823 -0.22790803 0.04734697 -0.5171456 0.06024187 0.18648688 -0.13247031 -0.37698063 0.29461643 0.25059032 0.23679753 0.011318102 -0.24132651 0.06678417 0.16029815 0.014340975 0.28484666 -0.29148114 -0.17612019 -0.5149139 0.015851293 -0.09178967 0.29422158 0.022717055 0.05343356 0.05737534 -0.3149405 0.33286676 -0.31451273 0.15147217 0.076992996 -0.2343587 -0.16323093 -0.3957098 -0.2333295 -0.26421222 0.13727956 -0.26741883 -0.42926922 -0.20643501 0.25737548 0.029644275 0.2480633 -0.054840185 -0.065100975 -0.24760419 0.16902351 -0.16019632 -0.30955192 -0.13422625 -0.31231657 -0.16464007 -0.17705731 0.11271469 -0.3593166 0.71568245 0.14315161 0.038454913 -0.28003693 0.15969941 -0.032700457 -0.3052169 -0.5510194 -0.16802792 0.28116956 -0.08536881 -0.097179085 0.05038283 -0.13555242 0.0676502 0.17243847 0.058040515 -0.059491735 0.11853169 -0.16799001 0.24105868
5982 0.06406709 -0.082756415 -0.06079572 0.20358953 0.416521 -0.34165552 0.038828332 -0.027955022 -0.27628964 0.061821785 0.44173366 0.06615619 -0.077248916 -0.3030064 0.27701095 0.30097067 -0.20524983 0.13464597 0.13850568 0.55920666 0.102161564 0.09702425 -0.46341872 0.044071123 -0.64355934 0.25451595 0.0939224 -0.32518092 -0.17383824 0.09488975 0.013446253 0.13306244 -0.17404105 -0.21927194 0.15746489 0.3899536 -0.20417432 -0.22740322 -0.6580137 -0.048744537 -0.35565412 -0.19516234 -0.1764668 -0.61742765 0.21458274 0.40980342 0.11701204 -0.49154466 -0.1201237 -0.18643521 0.14339404 0.024595726 0.03454814 -0.021645851 0.09185279 -0.3674747 0.46605247 0.3367867 0.026096104 0.04375346 0.07235556 0.11268432 -0.20431183 0.13369733 0.09715797 -0.17390151 0.14744727 -0.10100111 0.4325515 -0.30189678 0.10012729 0.007531074 0.0953682 -0.7859034 0.2315053 -0.056559455 0.30576637 -0.14179382 0.17411861 0.4031585 -0.109465085 -0.278745 -0.0820656 -0.14947984 -0.23158424 -0.6367528 -0.15174101 -0.16433363 -0.021475585 -0.33677226 -0.15862758 -0.037795693 -0.019334823 0.114808105 -0.18397468 0.12656754 0.1802463 -0.034678806 0.28509286 -0.037064828 -0.0608402 0.0664868 -0.016958505 0.07053854 -0.021103002 -0.060704563 -0.16554964 0.5556967 0.3658401 0.21656547 -0.18912704 -0.14233324 0.025129016 -0.19415914 -0.35436112 -0.045180924 0.07240853 -0.25172308 0.070771545 0.38028228 -0.018497549 -0.34229776 0.15823407 0.13564594 -0.13912089 0.056045715 0.16090204 0.075830564
5722 0.41067803 -0.35997492 0.11264908 0.096643485 0.16831648 -0.37433282 -0.2668536 -0.23817708 -0.25430787 0.008590625 0.36385515 0.10568131 -0.052115455 -0.20137855 0.41702917 0.055430375 -0.15878282 -0.020122146 0.036314737 0.6210242 -0.15017404 0.44633627 -0.5718733 -0.18809876 0.11939534 0.105398886 -0.16555372 0.4448114 -0.09405646 -0.07081873 -0.16070098 0.021468312 -0.14343826 -0.13096279 0.035400804 0.19778532 -0.06575756 -0.0946314 0.13734956 0.4583553 -0.122976705 0.30554342 0.03412584 -0.07390042 0.09320047 -0.03906275 -0.17925124 0.13401346 -0.46521568 0.10735182 0.042353995 0.16024728 -0.1575524 0.1826283 0.0130741345 -0.5930455 -0.16098814 -0.38660035 0.037068304 0.25529474 0.07176349 0.18242589 0.38834342 0.30002847 0.19245118 0.22901879 0.012024318 0.11790069 0.17524853 -0.0293636 -0.14645635 -0.37294573 -0.19644262 -0.13564248 0.1052812 -0.07406934 -0.07991715 -0.17978136 0.010009635 0.3118418 -0.15543234 -0.28175107 0.023388198 0.096794 0.3192801 -0.19883111 -0.4603952 -0.16824722 -0.2795899 -0.5329853 -0.2576967 -0.15169547 0.2923262 -0.15919681 -0.024639348 0.41539645 -0.1350448 -0.48756453 -0.080504864 -0.34301025 -0.5052328 -0.3529852 0.1672564 -0.0859299 -0.11227976 -0.030391812 -0.3860466 0.16249987 -0.08631558 -0.2076152 0.18312801 -0.31891462 0.2844903 -0.050148338 -0.5470323 0.13318472 -0.1633054 -0.40624022 -0.4053695 0.09113748 -0.24832506 0.04651079 0.13235575 0.11995676 -0.063802436 0.0036732447 0.29716945 0.36831215
5991 0.20465197 -0.3456477 -0.25143886 0.21297128 0.27097136 -0.46517697 -0.41170916 -0.29804423 -0.26553836 0.10095859 0.38558266 0.23993543 0.16998924 -0.2321499 0.288424 0.23255797 -0.29702532 -0.16708456 -0.21253152 0.55831516 -0.1072602 0.39074165 -0.6045318 -0.5141161 0.010791525 0.16039535 -0.3318598 0.35985017 -0.055991337 -0.3195817 -0.10802469 0.07906034 -0.44137436 -0.08485219 0.21132633 0.016016439 0.37093964 0.07895319 -0.19838175 0.14634417 -0.05736119 0.08198984 0.12102161 -0.042274628 0.18892513 -0.049320564 -0.31206173 -0.40001294 -0.16932127 0.27301115 0.21015301 -0.08710698 -0.021708755 0.34730962 -0.15630603 -0.40785223 0.08338875 -0.29003155 0.031922497 0.5625125 0.1449963 0.09695553 0.051220782 -0.01517878 0.16249706 -0.015807958 0.13331516 0.10666368 0.102718666 -0.06025613 -0.12373571 -0.5206837 -0.084846884 -0.107086815 0.46924812 0.2545992 -0.19684167 -0.2501859 -0.060108803 0.062183045 0.10129343 -0.33434248 -0.019237919 -0.12233791 0.32067853 -0.09973087 -0.3768387 -0.011923883 -0.14370722 -0.5096493 -0.3386948 -0.0002820993 0.2988303 -0.46810517 0.09841347 0.06041013 -0.068212666 -0.038687997 -0.17785591 0.032149337 -0.27376366 -0.63988924 0.09979396 -0.16953355 -0.13165587 0.14388743 -0.21539408 0.3551665 0.04747221 0.05058159 0.43081522 -0.102930255 0.6698614 -0.004063826 -0.21304217 0.09737797 -0.22323138 -0.31661442 -0.19806546 0.04824625 0.047803845 0.47062385 0.2475774 -0.0831577 0.0655006 -0.06702186 0.024848161 -0.11143448
7962 0.16146064 0.027980726 0.17295533 0.031089367 0.28936562 -0.3321002 -0.17447205 -0.33209345 -0.22793701 0.08719437 0.3703913 0.38810313 -0.2006018 -0.56614876 0.12817842 0.3221723 -0.52063775 0.116741806 0.5132796 0.22355384 0.23645921 0.18165426 -0.18063945 -0.49817282 -0.79082006 0.31201527 0.04180779 -0.16857727 0.09712292 -0.038635336 0.15799525 -0.010119737 -0.1721304 0.02652914 0.22137709 0.22382174 0.018654995 -0.14477912 -0.6241772 0.33266315 -0.54731804 0.07725011 -0.10301756 -0.2233988 0.22104368 0.17415264 -0.079343185 -0.40992093 -0.28857422 -0.45268306 -0.050602175 0.15408094 -0.040731315 0.23767394 0.23274487 -0.40969187 0.5087888 0.23203096 0.091647275 0.061354827 0.01662155 0.14809825 -0.35296345 0.23072492 0.00075004075 -0.30067152 0.33165723 0.026972486 0.3221683 -0.3818061 0.18021864 -0.03316492 0.086842105 -0.32701552 -0.20246387 -0.06283014 -0.02255859 0.07669136 -0.022199817 0.13855986 -0.063338995 -0.319706 0.307351 0.025477549 -0.20231889 -0.72018266 -0.0941553 -0.31912142 -0.1902519 -0.43368468 -0.1430866 0.2591611 -0.1948903 0.13032031 -0.18431512 -0.3250724 0.0012959483 -0.18250202 -0.050786506 0.03194569 -0.19305563 -0.069518976 -0.09220053 -0.15260491 0.04066684 0.3533785 -0.08524536 0.73364085 0.34695572 0.056477923 0.04966733 -0.33589837 0.001983114 -0.5387146 -0.15327856 0.30006903 0.14626168 -0.17018804 0.1909651 0.3665913 -0.061939657 -0.1939603 0.3402781 -0.038333315 -0.19895898 -0.008965793 0.11020711 0.1172978
6741 0.36053118 0.2211552 0.24748313 0.30887243 0.2243179 -0.40344724 -0.21352662 -0.426621 -0.21483009 0.22558828 0.4194459 0.23684035 -0.08101376 -0.44254127 0.09106549 0.19297682 -0.19117099 0.20151578 0.15118423 0.39194188 -0.0453433 0.32556397 -0.6442158 -0.19675262 -0.51193804 0.14380702 0.16284288 -0.2510509 -0.18816482 -0.3888045 0.21917106 -0.006705929 0.124268785 0.026102891 0.007199123 0.23549241 -0.28104436 -0.18070702 -0.3064116 0.38583475 -0.3853721 0.00927904 -0.28954056 -0.4548182 0.32506046 0.32939556 -0.3318363 -0.06696758 -0.07102827 -0.24984966 0.0820596 0.24269028 -0.049785685 0.11701525 0.015735686 0.0036297743 0.3756205 0.337845 0.08719097 -0.22104587 0.3631973 0.056203578 0.15981413 0.1071956 0.1700258 -0.117401846 0.28700426 0.19124947 0.11545531 -0.20770577 0.13010667 -0.05841207 0.27942812 -0.39360577 0.1142901 0.20808329 -0.054519013 -0.011837349 0.042793147 0.3050147 -0.034171898 -0.338368 0.23107347 -0.10374956 -0.16690876 -0.43213305 -0.46162125 -0.41751635 -0.0043678735 -0.16708967 -0.033924617 0.056935083 0.22780032 -0.16549586 -0.1443296 -0.11105307 0.088462256 0.25367132 0.023190897 0.12292524 -0.20392378 -0.24424681 -0.09439915 -0.03654077 -0.111633435 -0.09351425 0.063698776 0.46381918 0.23235093 0.26537597 0.024693899 -0.3330314 0.17931527 -0.52865636 -0.3996327 0.034409113 0.08896854 -0.19317909 0.039472386 0.25143734 0.0034431557 -0.14013582 0.2391385 0.22056876 -0.52212954 0.026586402 0.27957827 -0.057103403
6231 0.23170327 -0.61874837 -0.18324444 0.06024391 0.11661827 -0.36759013 -0.38717312 0.20580424 -0.28709534 -0.1559006 0.45363784 0.24015667 0.06253939 -0.2820154 0.5598545 -0.022892071 -0.32408726 0.25874934 0.375496 0.6009868 0.29050604 0.6785729 -0.18646345 -0.028953386 -0.15319036 -0.23064718 -0.13098085 0.1557392 0.0007310911 -0.25202414 0.04767239 0.24076313 -0.019560685 -0.17240573 0.032313224 0.04683265 0.14811324 -0.21739355 -0.3674071 -0.058829766 -0.16224134 0.032907315 -0.7733103 -0.33363235 0.064096 -0.1545262 -0.1358768 -0.3168738 -0.3285371 -0.15223132 0.045929607 0.038054854 -0.039257172 0.22520027 0.033291586 -0.42577475 0.0043675113 -0.06441416 0.00016508473 -0.23156573 0.08239811 0.5548103 0.08127346 0.3538074 -0.3065525 -0.048405584 0.14786454 0.06612306 0.08039997 -0.0847111 -0.011437772 -0.45844838 0.18962966 -0.17526875 0.14298566 0.4498651 -0.04784053 -0.0016129573 -0.14872576 -0.018034756 -0.18512632 -0.023089321 0.12936126 -0.33421722 0.019617856 -0.17162386 -0.00791049 -0.17941923 -0.0025566434 -0.29894814 -0.2835302 -0.081102476 0.70586187 0.26301852 -0.13266076 -0.15103863 0.41064665 -0.32764113 0.2562937 -0.25470415 -0.25627285 -0.058823336 -0.2777884 -0.032602575 0.22450784 0.3943912 -0.0965543 0.30694747 0.26489198 0.015070201 -0.21274133 0.25201228 -0.38542822 -0.3063234 -0.7601253 -0.1779444 0.007171705 0.06342287 -0.08772142 0.117103025 0.12722729 0.15822993 -0.21890266 0.40076962 -0.13814053 0.1300385 -0.3284696 0.582864
6047 0.41396204 -0.60683304 -0.28046116 0.09914546 -0.1525743 -0.011101308 -0.3862722 -0.1686005 -0.32544136 -0.035506092 0.3118961 0.26293316 -0.12289599 -0.3769116 0.27693716 0.0029919446 0.15651058 0.22327392 0.2161619 0.5563828 -0.22029161 0.17138167 -0.64080495 -0.5825778 0.13757686 -0.21359132 -0.007573768 0.26557955 -0.2895335 -0.47800216 -0.0077372305 -0.030787501 -0.62914973 -0.0161598 0.43353406 0.14784282 0.47816357 0.123036265 -0.29705825 0.41756865 -0.26245883 -0.02538012 -0.00244084 0.10358557 0.32424533 0.010098193 -0.1490174 -0.01643875 -0.03522315 0.1929124 0.057704303 0.06572567 0.027004894 0.14627819 -0.1258654 -0.49453318 0.07869536 -0.10982108 -0.25222883 0.7503066 -0.08851649 -0.05771969 0.26276746 -0.021364527 -0.07879115 -0.0034564582 0.10113913 0.07088485 0.07972314 -0.30573207 -0.17893927 -0.29294345 -0.1712232 0.04129487 0.11301297 0.07945697 -0.025277315 -0.10478771 -0.036187507 0.12500073 0.3317405 -0.34325904 0.03360172 0.035015535 0.01963691 0.28813243 -0.4894935 -0.22839369 -0.111372106 -0.5790103 -0.033296987 -0.09218857 0.28641677 -0.14709496 -0.09616765 -0.13551745 -0.16021599 -0.19243617 0.11139129 -0.20971228 -0.27002615 -0.6724117 0.17672786 -0.09670829 0.21578816 0.0128199095 -0.08389316 0.39488778 0.02929708 -0.11094941 -0.004830326 -0.09739724 0.5930065 0.11710838 -0.25362584 0.3246179 -0.18534598 -0.20238379 -0.13217351 0.018491844 -0.065761425 0.26111606 0.39855483 0.15167038 -0.1427893 0.350623 0.081001006 -0.0022235217
5288 0.097967915 -0.45450982 0.32309005 0.1032763 0.25411138 -0.1203493 -0.3028307 -0.14106102 -0.16100805 -0.14788406 0.22297631 -0.29396445 -0.4132843 -0.18630804 0.14697936 0.09724487 -0.2734794 -0.25081196 0.37477556 0.31779188 0.25205633 0.6998786 -0.39918765 -0.14186059 -0.333877 -0.33982974 0.017480157 0.38485453 0.07079091 0.003164447 0.005519241 0.16606443 0.11176728 -0.14844137 0.12772496 0.43082 0.09783235 -0.022608548 -0.26466066 0.23305519 -0.30697727 0.121680714 -0.67602557 -0.57540166 0.3882564 0.13695109 -0.050305244 -0.5172327 -0.2681427 -0.042319417 -0.06543894 -0.008534195 -0.062083412 0.03409467 -0.007008513 -0.34690884 -0.16701709 -0.11643147 -0.009572944 -0.22688429 -0.015319077 0.15250841 0.26468116 0.357465 -0.08383496 0.29297695 0.14297415 -0.09375535 0.3062975 -0.02029954 0.21139756 -0.4005914 0.03201107 -0.2077273 -0.116800286 0.0623731 0.119166166 0.40918058 -0.1731669 0.37350476 -0.43824628 0.082632326 0.078395 -0.23028582 0.101399414 -0.6613316 -0.23694047 -0.15924627 0.10883892 -0.1609556 -0.3376538 -0.2329246 0.341925 0.100010715 0.06016628 0.16748336 -0.08454845 -0.3775303 0.5183109 -0.41289163 -0.20195387 -0.15167296 -0.39280218 -0.2603251 0.13314432 0.042952836 -0.36015013 0.44423622 0.18947615 -0.2912328 -0.34319153 0.018511793 0.16724655 -0.19659616 -0.41751292 -0.106593296 -0.2818876 -0.19525394 0.03697414 0.017076857 -0.15661667 -0.06639286 0.055192996 0.038245995 -0.3824364 -0.18951775 -0.050540056 0.52782905
5389 0.33024326 -0.516873 -0.02856958 0.06606299 -0.00011684242 -0.24856903 -0.5161097 -0.38018358 0.005333077 -0.027985753 0.40449956 0.11851299 0.03880967 -0.3967011 0.13486312 0.1711495 -0.046982944 -0.117335826 -0.03831199 0.5839337 -0.06463065 0.21498984 -0.6893547 -0.46566364 0.01712721 0.16210362 -0.4862436 0.20907113 -0.41300836 -0.25116768 -0.26484236 -0.07056897 -0.22779278 -0.0313735 0.37294337 0.067462474 -0.091127686 0.04446615 -0.06468992 0.35541388 -0.016754424 -0.09777181 0.07659569 -0.072519824 0.36796442 0.2157808 -0.3506932 -0.18902992 -0.29033417 0.27821222 0.45996463 0.15316956 0.029819574 0.27419102 -0.009545065 -0.41497427 -0.06468429 -0.37327912 -0.23172973 0.3446455 -0.1458448 0.013392757 0.24511452 0.07906693 -0.07008255 0.08436115 0.03699254 0.09380491 0.13484505 0.043732565 0.05426634 -0.57513857 -0.40508053 -0.26408213 -0.115399465 -0.04478516 -0.12073508 -0.083753794 -0.11871043 0.016672486 -0.040251553 -0.3149967 -0.055544425 0.26948604 0.08901846 0.10953745 -0.34369525 -0.046285037 -0.18585022 -0.5715833 -0.30737257 0.07957563 0.10777883 -0.0019842035 0.109338194 -0.08284569 0.09871759 -0.21360311 -0.07973778 0.10363163 -0.05639607 -0.6471598 -0.015595694 -0.06378814 0.21425259 -0.15387456 -0.46497095 0.28721002 0.091020815 -0.06657322 0.3783973 -0.17328471 0.23599656 -0.13613977 -0.15708728 0.2985773 -0.024232028 -0.41790554 -0.20266573 -0.14807107 0.19620216 -0.0627843 0.40938264 -0.08718986 -0.30743852 0.19754602 0.00863246 -0.018792946
5014 0.18690845 0.068917714 0.36000434 0.15367922 0.10287732 0.18305948 -0.24641588 0.21871305 0.3819319 -0.43958464 0.1514212 -0.52610815 -0.24623394 -0.05811584 -0.265012 0.23312266 -0.24341406 0.29714555 0.097143225 0.17848463 0.30099696 0.27635717 -0.2901524 0.06889161 -0.45909482 -0.38850284 0.01063664 -0.2780943 -0.031622067 -0.5772722 -0.498104 -0.23358473 -0.1942427 -0.13254225 0.24399148 -0.27659002 0.25192314 0.10754317 -0.3713333 -0.5454674 -0.051950395 0.08737558 -0.4896715 -0.5749612 0.48880216 0.08610544 0.059587784 -0.22607209 -0.11874125 0.024789417 0.020970447 0.0075153545 -0.16382124 0.24600564 -0.08110084 0.1818704 0.19744034 0.32959217 -0.41622534 -0.079857945 -0.05258606 0.10224783 0.14440878 -0.0130308885 0.22466587 0.17002708 0.025674006 0.14885159 -0.003498649 -0.40275803 0.046634357 -0.18958174 -0.48184812 -0.26167354 -0.39275804 -0.09241581 0.76877373 -0.4686325 -0.24899401 -0.24735302 0.1358949 0.14144522 -0.24723127 -0.4024389 -0.027459256 0.21411711 -0.35197538 -0.317416 -0.1179084 -0.004117784 -0.38431546 -0.1415076 0.12027651 -0.01596112 -0.73015076 -0.34126782 0.24053064 -0.34478313 -0.64438623 0.4138602 -0.060594987 -0.541547 0.008507404 0.4899544 0.344286 0.1560801 0.16341217 0.19152695 -0.3326524 -0.4129336 -0.15047733 -0.2522491 0.14600359 -0.18740465 -0.13623615 0.21840025 0.030956168 0.020830529 -0.06801869 0.1848904 0.05933203 0.35867068 0.19334975 0.14957973 0.726346 0.008033415 -0.06848628 0.06562095
8407 0.21152388 -0.48803973 -0.04415064 0.20435056 -0.19864498 -0.63421476 -0.39337724 -0.081210785 -0.1857013 -0.22551563 0.2060218 0.17721209 0.14483799 -0.45980832 0.2666872 0.11851292 -0.2067622 0.1210673 -0.07298672 0.34821358 -0.13565364 0.5912951 -0.556779 -0.38671765 -0.10226145 -0.23770975 -0.4238639 0.25891307 -0.23994805 -0.37675992 0.07392072 0.048064496 -0.5869426 -0.016004149 0.42565382 0.11910148 0.16780195 -0.23607087 -0.15313868 0.3171468 -0.23463747 0.04816161 -0.09450105 -0.14792782 0.2854858 -0.013800534 -0.21835832 -0.34167078 0.13853087 0.12745945 0.38526496 -0.022656549 -0.20921916 0.56178534 -0.19961685 -0.30402702 -0.11867487 -0.24142951 0.017499965 0.3455346 0.2527607 -0.22164932 0.38511038 0.11241779 -0.017276263 0.084909156 0.08241426 0.13894387 0.3282356 -0.06507248 -0.073087975 -0.4826506 -0.029785085 -0.21308184 0.09236119 0.15496178 -0.1595195 -0.19600223 0.14939271 0.06786041 0.109110855 -0.48899764 0.02620155 0.28731796 0.016942924 0.045492243 -0.4609811 0.08049691 -0.20816533 -0.2900679 -0.17856514 0.01712872 0.0558289 0.027404271 0.0991449 0.025977511 0.05217381 -0.361773 -0.1754426 -0.044151682 -0.21198669 -0.60725284 0.19103998 -0.036484275 -0.009215635 -0.18128261 -0.13679413 0.3173279 0.11919363 -0.10857353 0.3909593 -0.12959525 0.41415247 0.10951664 -0.31055424 0.108661495 -0.3544429 -0.43177724 -0.29073873 -0.09441129 -0.11674758 0.4801913 0.42145407 0.032249246 -0.052309915 0.011359471 0.036377177 -0.22871195
7957 0.18128514 -0.13682121 0.21249492 -0.09282007 0.058102123 -0.09752708 -0.49637982 0.10407658 0.054730613 0.106117755 0.08137047 -0.057604536 -0.03808588 0.029791841 -0.113445096 0.3538101 -0.19996653 -0.06409761 -0.00013403353 -0.239143 -0.43198976 0.28852946 -0.50843984 0.027641498 0.028226273 -0.12980023 0.11590976 0.24115361 -0.47060618 -0.2673655 -0.064416066 -0.40005803 -0.11134018 -0.3447884 -0.11064833 -0.45288712 -0.015063079 0.23817177 -0.3400856 -0.04274997 -0.21806614 -0.09785294 -0.27690846 -0.34688973 0.23645145 0.2846254 -0.27999005 -0.09292703 -0.24595109 0.23723266 -0.010906555 -0.20384175 -0.031621404 0.19928095 -0.10263791 -0.4705746 0.12792538 0.3657707 -0.05738956 0.52831954 -0.3357515 -0.22542061 -0.17574191 -0.09714936 0.14068806 0.16799933 -0.032304417 0.35218358 0.07969442 -0.0560186 0.29883245 -0.06680237 -0.31090963 -0.3976782 -0.10645794 -0.36201254 -0.04993287 -0.3293903 -0.36588675 -0.3463197 0.17203802 -0.09335206 -0.103492394 0.3480564 -0.28089425 0.20496196 -0.1864548 -0.22261207 -0.31359497 -0.17817403 -0.416969 0.011279955 0.24083151 0.18474329 -0.24985524 -0.07476089 0.12292547 -0.50127566 -0.30221343 -0.01680471 -0.0012284972 -0.41211876 -0.00078213646 0.30893114 0.28314966 -0.16500808 0.10176778 0.3636561 -0.34900144 -0.42213967 0.29134578 -0.20997295 0.14895906 -0.092105664 -0.012900386 0.09388253 -0.39313516 -0.31316933 -0.34826174 -0.13559636 0.49789625 0.4158596 0.8405022 0.1948302 0.3182712 -0.055251297 -0.116809614 0.3566699
5579 0.08014706 -0.31886572 0.08220777 -0.049727656 0.21115564 -0.49009082 -0.37101606 -0.24318956 -0.2774176 -0.108551554 0.4354882 0.100410394 -0.07050943 -0.41720128 0.16092189 0.12480794 -0.019268574 0.03363299 0.096789554 0.5785731 -0.17651908 0.20048168 -0.7191193 -0.39447334 0.10345493 -0.16553116 -0.4588274 0.34529367 -0.12563486 -0.5628012 -0.29477242 0.02497857 -0.48481724 -0.11265057 0.44297746 0.1628181 0.18032606 -0.03379475 -0.042206816 0.42581087 -0.2032771 0.08052223 0.14318945 -0.009907484 0.05506475 -0.14592327 -0.14773282 -0.20460457 -0.007493208 0.15385969 0.36810815 0.18375316 0.06907698 0.2271691 0.1317511 -0.5345039 -0.14548121 -0.41588318 -0.06395944 0.5777999 0.016841354 0.035534568 0.37811923 0.08770781 0.18955831 -0.03318336 0.21524124 0.10015081 0.30780876 -0.16879383 -0.28452435 -0.72423744 -0.1111936 -0.26265308 0.058509808 0.11453777 0.047008306 -0.35195613 -0.04821019 0.09840682 -0.014933531 -0.11505841 0.051572256 -0.025722597 0.24146645 -0.05865707 -0.36011505 -0.0376829 -0.37611833 -0.5085336 -0.36767372 0.123193614 0.053108566 -0.091003194 0.030840142 0.39048436 -0.11579391 0.086060986 0.03382358 -0.05813434 -0.06539756 -0.50753254 0.035183623 -0.14104007 0.053918988 0.34036794 -0.279975 0.12717178 -0.060442135 -0.011587262 0.18431939 -0.18404628 0.4773377 -0.029911894 -0.2568285 0.16025315 -0.2531994 -0.35121152 -0.32606933 0.10674472 0.016304389 0.14412151 0.47189328 0.07352228 0.1841256 -0.038320255 -0.07218222 -0.11035944
5601 0.15534782 -0.5857213 -0.13490178 0.18341824 0.22362673 -0.33186993 -0.18814726 -0.22154479 -0.19712795 -0.20580119 0.013369758 0.08283604 -0.54988015 -0.3049348 0.45668817 0.14639114 -0.08723917 -0.11697961 0.16998734 0.3554652 0.19092995 0.35860568 -0.5846195 -0.1449816 -0.08299823 -0.17723507 -0.21364057 0.15044044 0.12262291 0.030270021 0.12965026 0.16464603 0.0391316 -0.33279088 -0.11300354 0.17979644 -0.15324634 -0.1191555 -0.3172733 -0.027301962 -0.33530945 0.05841557 -0.6170405 -0.22244336 0.33925268 0.01589243 0.25603372 -0.2645129 -0.31276375 -0.06652685 0.31591865 -0.35115582 -0.22859347 0.13286717 0.016075594 -0.36689365 0.045628525 0.1823255 -0.10959316 0.03561988 0.079018846 0.5109206 0.32005718 0.28764126 -0.0196769 0.14614528 0.16777748 -0.00813541 0.19542201 -0.0053793616 0.20114933 -0.41542673 0.26602113 -0.43843397 0.08248093 0.35998452 -0.10319742 0.111326754 -0.3711602 0.37294292 -0.1642704 0.25693086 0.09543788 -0.03660079 -0.13968603 -0.016392905 -0.23812658 -0.31456923 0.17922343 -0.36993754 -0.6479729 -0.18725102 0.4314712 0.31240988 0.09213919 0.24689011 -0.09472351 -0.4622193 0.14690037 -0.41605344 -0.46493354 -0.1734228 -0.33211595 0.029912502 -0.07917491 0.40486997 -0.28922433 0.5971039 0.28911644 -0.118093185 -0.052430745 -0.21142016 -0.21087164 -0.04365298 -0.639096 -0.24846302 0.27499586 0.12543859 -0.1343316 0.2214477 0.22054192 -0.14002973 -0.111138225 -0.057878654 -0.09672748 0.009030739 0.029140735 0.3609529
8531 0.27391958 0.17549738 0.12192141 0.2548278 0.46833497 -0.3831525 0.052594535 -0.33477893 -0.26503256 -0.08086564 0.5329652 0.22199157 0.03276683 -0.25066373 0.3358418 0.081164256 -0.48450798 0.07547025 0.019762594 0.46181133 0.08040651 0.36750555 -0.41044536 -0.13129719 -0.68644476 -0.0060015707 0.039456345 -0.06291981 0.060889438 -0.4510059 -0.31130502 0.17565373 0.060744684 -0.20568655 0.4793061 -0.22434887 0.2036565 -0.082538046 -0.5784863 0.31422618 -0.37634647 -0.20098342 0.07245472 -0.028317375 0.22704534 0.26679838 -0.20174648 -0.48110512 0.105438754 -0.10358245 0.15935889 0.3078848 0.1878665 0.16142592 -0.0023040408 -0.10949312 0.7154523 0.015928408 0.05659115 0.0067133335 -0.012273096 0.17306083 -0.34124768 -0.23869257 0.06028053 -0.08667261 0.0037937977 0.09321634 0.11231426 -0.14933366 0.18441902 -0.038685378 -0.06512473 -0.45147678 0.14557463 0.32520276 0.18756048 0.3660224 -0.15347001 0.76398546 -0.018336523 -0.5542618 0.40412742 -0.15703627 0.17556542 -0.7540072 -0.26085773 -0.30163354 0.12859735 -0.35804102 -0.25672248 -0.24029647 0.108238496 -0.11810751 -0.23781781 -0.038408827 0.1881412 0.24831973 -0.17794299 0.21323285 -0.32455832 -0.028594967 -0.26804432 -0.062151928 -0.16727564 0.315629 0.085604616 0.808791 -0.07089847 0.20655183 0.074960515 -0.08309529 0.35310045 -0.3283809 -0.22404371 0.24113908 0.13966252 0.07317129 0.14303158 0.0062476913 -0.11255323 -0.037385218 0.2223461 -0.0046232864 -0.029227968 0.058747735 -0.033505023 -0.18220401
7819 0.40447065 0.23882312 -0.12627423 0.03139591 0.25373828 -0.33562845 -0.09089444 -0.38826704 -0.4452819 0.02975085 0.40196812 0.41149208 -0.045999363 -0.64820355 0.036722623 0.21368131 -0.35519823 -0.08049552 0.18429361 0.3912521 0.01342437 0.14480583 -0.23030932 0.043096565 -0.6750831 0.24092619 -0.040434666 -0.3116694 -0.054245565 0.046452526 0.21853475 0.31922075 -0.16355857 0.08203052 0.23805982 0.2709821 -0.115210265 -0.11884099 -0.58272564 0.07179289 -0.35505617 0.14878936 -0.2291163 -0.41785604 0.23797607 0.0720525 -0.20329764 -0.30432504 0.2590441 -0.30861896 0.21500318 0.35574275 -0.1073718 0.34964308 0.20492382 -0.17714493 0.20888813 0.34230167 -0.0634126 -0.29397267 -0.037118923 0.27414882 -0.006901919 0.119429685 0.10018537 -0.08076805 0.28054842 0.112261035 0.21212372 -0.21144211 0.2136692 0.11314429 0.19919555 -0.513418 0.06215134 0.2794 0.3377097 0.41977906 0.24584208 0.47141522 0.11311377 -0.52408284 0.24130659 0.06366697 -0.20922647 -0.57236457 -0.5408405 -0.1717526 -0.32743195 -0.07971192 -0.42272532 -0.3171731 0.054312326 0.09896489 -0.15989363 -0.26092088 0.10653338 -0.14154944 0.015824433 -0.097553514 -0.53728795 -0.58259696 0.0072983284 0.13014747 -0.13102555 0.42169684 0.16589406 0.5468694 0.17873947 -0.022231698 -0.083371826 -0.014970203 0.013751738 -0.5740278 -0.04956804 0.0877844 -0.0118661355 -0.2099417 0.18973371 0.45226347 -0.013844354 -0.44693795 0.50889283 -0.049219064 -0.18826981 -0.16667475 -0.18688217 -0.23974125
8534 0.2833257 -0.52724427 -0.19337644 0.28886208 -0.031049768 -0.29174164 -0.5559111 -0.23700589 -0.39466223 -0.23140275 0.5792302 0.27980694 0.10340712 -0.36204836 0.14776246 0.17554821 -0.05986792 0.237176 0.24769075 0.7413171 -0.1317039 0.26608422 -0.52115214 -0.3575366 0.008087969 -0.25744265 -0.5743221 0.4717426 -0.06816744 -0.24937025 -0.058317702 0.054957423 -0.47364768 0.10525978 0.27567244 -0.038349126 0.03297741 0.20944408 -0.12967591 0.19989571 -0.17604768 0.009486063 0.0859721 -0.26779643 0.06051353 -0.009946034 -0.20224237 -0.32437658 -0.15136522 0.18121192 0.37434942 -0.025608063 0.04895177 0.42716223 0.029938096 -0.38290542 -0.024470547 -0.16015331 -0.07057293 0.49941963 -0.05928614 -0.032490995 0.15031894 0.22732301 0.14878127 -0.04769461 0.14658819 -0.10662712 0.06731945 -0.074898496 0.05509358 -0.6786216 -0.23744553 -0.17178008 0.006030568 0.009028521 -0.11004213 -0.37638706 0.040882915 -0.054657865 0.03626676 -0.28620178 -0.071823694 0.279678 0.09584069 0.34201148 -0.54371524 0.086349204 -0.41205704 -0.4774445 -0.36918238 -0.14961147 0.13756779 -0.074802384 0.26499745 0.017731309 -0.011024768 -0.15918934 -0.120312676 -0.024767414 -0.16654094 -0.63988364 0.13147569 -0.19822511 -0.07581826 -0.007369562 -0.43174952 0.3137966 -0.05981693 -0.093297616 0.5663791 -0.12462086 0.60030967 -0.200705 -0.32996237 0.4903898 -0.05165949 -0.25756496 -0.19952628 -0.005303303 0.043141205 0.11067056 0.16528891 0.09538875 0.013486105 -0.09674846 -0.019327663 -0.12515916
