1004 128
6507 0.24820553 0.04697297 0.51142275 0.20101416 -0.25132763 0.11955144 0.39233166 0.253808 -0.54210186 0.19078274 -0.12026607 -0.19325154 -0.047704652 -0.12155926 0.4855429 0.3507417 -0.26676318 0.02692014 -0.21222961 0.14955997 0.07735093 0.384562 -0.009958843 -0.2911898 -0.2811039 -0.15169698 -0.20062533 0.14799371 -0.4645801 -0.072675586 -0.0022436446 0.14942884 0.32560688 -0.25025493 -0.31128913 0.022090126 0.37545642 0.002069699 -0.07215467 0.11193197 -0.115461186 0.099890634 -0.2401426 -0.16759822 -0.0067016594 -0.03678707 -0.32211325 -0.21725477 -0.0722974 -0.23352534 0.25930533 -0.18518196 0.11573333 -0.06493586 0.27949625 -0.17694299 0.44485563 -0.49629474 -0.35705787 0.3633675 -0.22567031 -0.10920502 0.43098235 0.05637402 0.38017952 -0.19275565 0.11914111 -0.3616567 -0.2061047 -0.20451225 0.06326826 0.029184839 -0.4972662 -0.18783738 0.18368241 0.1949431 0.048172824 -0.16458015 -0.18817364 -0.22922006 -0.2102879 0.1846955 -0.28698027 0.13529617 0.49303833 0.14147556 0.022786675 -0.45727456 0.1446234 0.21840712 -0.037029866 -0.33470157 -0.29137766 -0.39499667 0.14924306 0.13191053 -0.29713693 -0.37808865 0.15950274 0.027725704 -0.58975226 0.16747671 -0.28966522 0.03193746 -0.14628732 -0.08251078 0.27877626 0.37266415 -0.15458603 0.006500697 0.36808196 -0.3880888 0.07976375 0.3449235 0.1905632 0.26138592 -0.11694853 -0.120157436 0.34134898 0.22022049 -0.254573 -0.29071888 -0.20649585 0.0031741315 -0.05227598 -0.27222943 -0.61208385 0.1914425
5081 -0.35083136 -0.3357835 0.106054544 -0.0900064 0.18346494 -0.3382154 0.24399935 0.06534021 0.26466557 0.11692673 0.5003379 0.24913348 0.38994697 -0.15683043 0.20258538 0.12402576 0.001968158 -0.036833312 0.0017184472 0.26437208 0.12151513 -0.32509434 -0.18724301 -0.22719887 -0.001511854 -0.2822238 0.052478895 0.37336805 0.39530557 0.112071 0.15156136 0.08883212 -0.32192093 -0.34960875 0.043327115 0.35515684 0.2782153 -0.16261 -0.125012 -0.29201046 -0.02244005 0.34524742 -0.21539791 0.01817784 -0.030098844 0.08488737 -0.33989966 -0.2983791 -0.030541543 -0.051169574 0.3155635 0.22430708 -0.13595891 -0.3025906 -0.16930884 -0.20858401 0.097663864 0.22328562 -0.1670995 -0.46446785 -0.13356024 -0.15044016 0.26760924 -0.29478398 0.51033837 -0.37339634 0.09023329 -0.28895545 -0.15255858 -0.3340711 -0.13531193 -0.035518076 -0.21197672 -0.20659323 -0.08014151 -0.3633927 -0.100933805 -0.047254343 -0.14391181 0.44443148 -0.48672834 0.17992726 0.1566393 0.26806298 0.1988764 0.14025226 0.25374144 -0.36849722 -0.09026244 0.14603181 -0.34564263 -0.1319029 -0.05386892 -0.12595269 0.44301534 0.14938352 0.50366455 -0.05295114 0.031194648 0.40067798 -0.16857624 0.07493823 0.031070301 -0.25426164 -0.17244081 0.010546524 -0.3932428 0.13532834 0.22361849 0.2674989 0.4910396 -0.3149805 -0.53915995 0.12601689 -0.17468284 0.36417112 -0.09909157 0.54054016 -0.0959328 -0.345278 0.050782375 -0.16572757 -0.20733751 -0.072525404 -0.5108281 -0.2297056 -0.1906752 0.05400047
5708 -0.06762245 0.012815605 -0.4019341 0.06470847 0.24189398 -0.18839686 0.4370638 -0.14201728 -0.11962793 0.49154264 0.61075366 0.27018267 0.14171368 -0.3621567 0.36577624 0.17857523 0.048044678 -0.09848812 -0.091551565 0.6004355 0.27067733 -0.27410972 0.01429888 0.033648394 -0.11834202 -0.22204478 0.13978596 -0.13702677 0.112503156 -0.23161334 0.18096025 -0.28405836 0.3991862 0.1537744 -0.08103291 0.26392594 0.41772997 -0.15352574 -0.28151125 -0.25126663 0.08929443 -0.06242335 0.11051591 -0.41592836 -0.012488385 0.015782434 -0.114194185 -0.29806387 0.18149664 -0.12249651 0.2438375 0.48399362 0.1053551 -0.17460148 0.24444616 0.41952923 0.0867851 -0.25270212 0.026517412 0.31779382 0.011304422 0.257489 -0.07878866 -0.21862802 0.26924333 -0.37328446 0.5844948 -0.29865587 -0.1896806 -0.13796501 0.6942274 -0.0551724 -0.08648354 -0.20663045 -0.18229347 0.23822826 -0.12313268 0.07331953 -0.1125256 0.49110398 0.052393448 0.030568575 -0.4309863 0.5726588 -0.009297197 0.015212966 0.37800828 -0.3691392 -0.17269225 0.05799472 -0.25895524 -0.35659578 0.19795477 0.06809485 -0.11904813 -0.08672209 -0.15466769 -0.32831556 -0.071119964 0.030880572 -0.449424 0.41351444 0.15900818 0.049667098 0.011072168 0.30024016 0.010002076 -0.14180626 0.456066 -0.1982591 0.27393913 0.28227928 -0.14171937 -0.27955756 -0.13105088 -0.25747436 -0.023347886 0.47634032 -0.2217177 0.016759997 -0.3094478 -0.239567 -0.6773937 0.07461293 0.07510399 -0.06857598 0.023237538 -0.19085816
6888 -0.051610127 -0.10052679 0.13717239 0.19320446 -0.06684233 -0.17982939 -0.036746956 -0.39477685 -0.25187352 0.15926816 0.07080629 -0.30390072 0.01184581 -0.46550164 -0.14509566 0.19565958 -0.22430022 -0.017145783 -0.06580799 0.18419875 -0.042899862 0.7653982 0.0071283346 -0.5599114 -0.14062013 0.28314385 -0.43282264 0.3387823 -0.48500058 0.37408194 0.011767499 -0.11687842 0.1644486 -0.10649782 0.13224359 -0.15404725 0.22366336 0.11671439 0.17114049 0.3374353 -0.24473521 -0.3742979 -0.041002344 0.086852625 0.3487159 0.1613561 -0.2583895 -0.19094439 -0.033960376 -0.29917708 0.3288765 -0.07727454 0.014700428 0.10870676 -0.33454224 -0.0358107 0.33113968 0.10701702 -0.546825 0.059819195 0.16173598 -0.09654135 0.4022854 -0.13886231 0.41177577 -0.25018454 -0.123975135 -0.26566 0.095013775 0.11270022 0.024612026 -0.092827916 -0.31501704 -0.45452222 -0.024586024 0.06434867 -0.3701238 -0.17671989 -0.091573216 0.41701686 -0.17036082 0.29250285 0.070215814 0.39628246 0.19692579 0.59287095 0.16590047 0.15154864 0.17828088 0.18901896 0.31396562 0.058502167 -0.18859708 -0.034391638 0.23164931 -0.017738488 -0.3433845 -0.32113308 -0.013269188 -0.2322449 -0.6130649 0.15318619 0.02783443 0.30951717 -0.11105731 0.20557487 0.30619624 -0.34423047 -0.17308427 -0.10719214 0.2756019 -0.037069384 0.24067795 0.19217493 -0.14929394 -0.0973934 -0.23981804 -0.24045403 0.26968628 0.08514586 -0.6936447 0.09358071 -0.14534922 0.05386494 -0.25822812 -0.52520263 -0.60227466 0.1377647
5386 -0.29997528 -0.05789393 -0.23138349 0.036982026 0.20006824 -0.07685404 0.046985324 -0.23781124 0.023847712 0.3456509 0.40704906 0.05698248 0.20330392 -0.53632075 0.15178739 -0.27803114 0.17499454 0.15635394 0.1201107 0.22976851 0.27789065 -0.5422788 -0.1405853 0.24474587 0.13278589 0.10776338 0.23414908 0.01142617 0.3049658 -0.21645269 0.13952868 -0.32697278 -0.034586776 0.013700554 -0.13545229 0.30196822 0.46307668 -0.054997854 -0.30528823 -0.3898386 0.29084682 0.15893939 0.1338784 0.1584696 0.23143288 0.0011018773 -0.32288584 -0.373486 0.122558616 0.0892852 0.43067282 0.47440776 0.3509825 -0.03844426 -0.19703779 0.33256552 -0.16154306 -0.22676058 -0.3882592 0.16050516 -0.09283325 0.2257412 -0.043197017 -0.35458407 0.10362201 -0.072520606 0.35756287 -0.41377696 0.17285544 -0.37298462 0.51684386 -0.2572125 -0.077007756 -0.12295945 -0.4487108 0.38971317 0.082698904 -0.013688848 0.07151122 0.69500124 -0.2990979 0.074500896 -0.06404722 0.42661485 0.0028885955 -0.035814106 0.5096004 -0.35464856 0.055807065 -0.2739606 -0.22495455 -0.27063692 0.25285777 -0.06784341 -0.077588335 0.08121071 0.1322698 -0.37515733 0.019741748 0.11635984 -0.571674 0.41191393 0.029606959 0.24133414 0.5058072 0.27639428 0.21503507 -0.24083921 0.30312663 0.0030831506 0.35239473 0.24070008 0.08686769 0.24506731 -0.3979656 -0.18162185 0.28101897 0.30429575 -0.37693557 0.23118542 -0.45007986 -0.1451562 -0.50609213 -0.055279493 -0.17890576 -0.55038345 -0.44072083 -0.60040957
5284 0.5593785 -0.24986698 -0.059268463 -0.12487209 -0.0018304539 -0.18998662 0.114573896 -0.29030916 0.03944395 0.22028273 0.17875743 0.16787381 0.23614964 -0.44077897 0.6490639 0.2973054 -0.14547808 -0.27478895 -0.4622726 0.30066496 -0.016004594 -0.28293785 -0.16094956 -0.39627755 -0.5945296 -0.117552586 -0.052004095 0.1939499 0.20660645 -0.14195503 0.030787824 0.1847423 -0.08502447 -0.40909007 -0.15223897 0.20115869 0.28079784 -0.15937041 -0.025720535 0.037134074 -0.11470109 -0.089383915 -0.4867243 0.1804693 0.25474137 -0.22375347 -0.5663343 -0.36679286 -0.052716553 0.039039 0.31159037 0.017262923 0.021985611 -0.25452614 -0.2391039 -0.06394081 0.3677712 0.17037942 -0.40901574 0.104365066 -0.3038445 0.10790695 0.06747676 0.10382623 -0.029022586 -0.10993144 0.17064619 0.033782404 -0.18092124 -0.41063058 -0.109755374 -0.16606975 -0.49340898 -0.23290023 0.19376765 -0.17916052 -0.09107226 -0.17291988 -0.086261086 0.19907339 0.0012443274 -0.18894461 0.31078142 0.023723707 0.5196397 0.38304308 -0.07903738 -0.3676484 -0.218152 0.15150717 -0.36649603 0.21933752 0.30745155 -0.07122957 0.12964718 0.2934452 0.42691886 -0.07194484 -0.1162552 -0.012956607 -0.16947426 0.07324838 -0.20281166 0.062254276 0.19985051 0.12223495 -0.124888964 0.059487827 0.57576776 0.048982736 0.38307554 -0.15321806 0.2454759 0.3986483 -0.081237964 0.4155658 0.05369369 0.39624652 0.032915417 0.054244936 -0.0013866724 -0.11066074 -0.28436598 0.058260072 -0.09176962 0.034361176 -0.23219657 0.120089434
7047 0.16214357 -0.16394545 0.20056476 0.12610959 0.03855477 -0.31017005 0.059725255 -0.061868962 -0.040382046 0.20026056 -0.4264882 -0.3403806 -0.05916238 -0.3376759 0.08573777 0.3657607 -0.0829378 -0.2206855 -0.055114206 0.17231897 0.22335656 0.7297979 -0.25560072 -0.38875422 -0.15410538 0.060222868 -0.37236384 -0.009097701 -0.35691586 0.12447225 0.13741599 -0.3124439 -0.038972933 0.17316367 0.33558416 0.09996062 0.3215487 0.38479617 0.48386723 -0.0099204825 -0.48593113 -0.1362116 -0.2840672 -0.28775695 0.5504691 -0.12224142 0.014030105 -0.26517838 -0.03956543 0.14939444 -0.26617485 0.32319134 0.1073249 0.13544899 0.10391467 -0.45685107 0.14641416 0.061511867 -0.5699361 -0.07863585 -0.20608228 -0.077935375 0.2460492 -0.31444052 0.41938955 0.37683412 0.10365777 -0.37320736 0.16043027 0.22258359 -0.116983056 -0.050081056 -0.3432719 -0.15378334 0.0055542914 0.45014846 -0.3927907 0.0029565163 -0.18093863 0.6542829 -0.118876316 0.062622085 -0.042910267 0.43256068 0.2585079 0.24411029 0.37395653 -0.25222164 0.23879693 0.36937043 0.25349554 -0.36019394 -0.25526276 -0.5574064 0.50976586 0.2071555 -0.10629329 -0.11580701 0.0013371587 0.087692216 -0.7910553 0.45406875 -0.34507698 0.23691116 -0.047044802 0.33694458 0.15179074 -0.068940155 -0.07283827 0.036630467 0.26840526 -0.24224102 0.06378247 0.14753713 -0.16398911 0.20202674 0.094749495 0.0049955905 0.09716515 0.080796994 -0.5510939 0.37972823 -0.5065617 -0.018925756 -0.15517163 -0.30193642 -0.28515005 0.28887102
6414 0.44729814 -0.25291097 -0.034885377 -0.0041887686 0.23752616 -0.0822441 0.27493703 -0.15872338 -0.019182224 0.07156036 0.027655467 0.16390029 0.3712858 -0.47753027 0.6539671 0.48334932 -0.09335145 -0.09081887 -0.41991845 0.5223266 0.13798682 -0.28633797 -0.048428085 -0.4883959 -0.20741095 -0.23646347 -0.066107795 -0.07689366 0.08653926 -0.051999796 0.011830805 0.04125816 -0.04110577 -0.26033795 -0.0743486 0.22890587 0.29815736 -0.0008884584 -0.19111998 0.13546444 -0.051760893 0.052928984 -0.3206383 0.2548734 0.39702535 -0.070500396 -0.3990232 -0.35141245 0.032407314 0.22694129 0.22356063 0.121813774 0.062585905 -0.28566623 -0.1476398 -0.057435744 0.16038066 0.14181219 -0.10186609 -0.024941612 -0.2663778 -0.08346309 -0.024125226 0.08807438 0.046689928 -0.18982698 0.1780202 -0.10623962 -0.28181282 -0.6026909 0.178883 -0.31310517 -0.52710503 -0.3094097 0.36299875 -0.066925496 -0.18895204 -0.30692634 -0.045271907 0.17690733 -0.13756719 -0.12923662 0.33167493 0.17149377 0.5467718 0.21500453 0.12210114 -0.460445 -0.14876004 0.16957906 -0.36035043 0.32300487 0.31997865 0.12432176 0.022460917 0.26559713 0.45563167 -0.088245034 -0.086563416 -0.08459195 -0.4115113 0.13427526 -0.08838115 -0.13577382 0.26171607 0.04899016 -0.018536964 -0.047722246 0.5290597 -0.19492753 0.40544134 0.09090724 0.18872006 0.2035853 -0.058991805 0.26508835 0.07194461 0.30059665 -0.23604591 0.07782173 -0.00495385 -0.34118974 -0.32657668 0.056231003 -0.17584454 0.031327087 0.021941358 0.05008231
5315 0.020513367 -0.045465823 -0.14898178 -0.077457726 0.26930866 -0.06794016 0.31161207 -0.49634805 0.0029734203 0.64268625 0.592225 0.22062723 0.17639636 -0.31336638 -0.009798742 0.10763208 0.37065765 0.19427118 0.19008403 0.6924472 0.042093884 -0.27412322 0.16750649 -0.124835074 -0.15631826 0.12069729 0.17933884 -0.06916987 -0.12802956 -0.025174325 0.12610446 -0.45042592 0.1958065 -0.062327813 -0.22347958 0.1343436 0.1754732 -0.039774075 -0.34767228 -0.34921238 -0.12922671 0.01733015 -0.00040182797 -0.06235209 0.28525165 0.16079867 0.18426426 -0.083784334 0.10478514 0.22099517 0.45834887 0.3992184 0.06161567 -0.2979625 -0.12388974 0.471241 0.11244281 0.25184184 0.16103272 0.28701186 -0.38014668 0.4230833 -0.05729297 -0.35235432 0.42878726 -0.17603064 0.41797295 -0.53647333 -0.062390905 -0.11906411 0.18232383 0.048727557 -0.004337953 -0.42550445 0.15266202 0.16929464 0.17959069 -0.055856805 -0.1801292 0.4615088 -0.07057215 -0.14162584 -0.29313827 0.41126016 0.10562496 -0.14304322 0.37083405 -0.17150404 -0.026109682 0.07232229 -0.10164318 -0.05750514 0.00224883 -0.19970505 -0.05462464 0.006840844 0.30936944 -0.36399347 0.07242407 -0.12773925 -0.42211542 0.28156573 -0.20066676 0.20167567 0.110273495 0.21707089 -0.079287484 -0.15816861 0.4024832 0.023160912 0.23079377 0.44647825 -0.017634265 -0.30891186 -0.5921615 -0.20127386 -0.056507017 0.1759334 -0.52241963 0.17724839 -0.33044916 0.111383565 -0.26904127 -0.24270992 -0.15147157 -0.21798766 -0.28882173 -0.32841757
6936 0.23873986 0.36647967 0.25302684 0.22675224 0.25457454 0.11965535 -0.031731743 0.099471584 -0.41236216 0.2678847 0.046344306 -0.38316032 -0.30613673 0.22191934 0.40114307 0.14753631 -0.4419931 -0.02960397 0.021767821 0.32256278 0.18484828 0.31006274 -0.06861772 -0.1694425 -0.5012484 0.30680516 -0.29273018 0.0711966 -0.21799867 0.056127176 -0.08272856 0.16434246 0.5457455 -0.023627628 -0.42661855 -0.014207718 0.36500505 0.33129522 0.032799948 -0.0613007 0.019341873 0.095385715 -0.17527926 0.105504625 0.16327491 -0.068379395 -0.43397793 -0.224519 -0.18746255 -0.21369864 0.2808803 -0.07274865 0.24954161 0.09364833 0.40996233 0.19278325 0.15090932 -0.24986537 -0.90856004 0.05182035 -0.24057318 0.09054257 0.20987716 -0.23587203 0.34518266 -0.08636239 0.15461887 -0.390681 -0.18904215 -0.27114767 -0.21447784 0.14721015 -0.25974455 -0.14732419 0.1815678 0.25923637 -0.25463137 0.024723537 -0.3696199 0.0611362 0.0076046586 0.14052017 -0.48482913 0.1199973 0.33539966 0.01833893 0.080787264 -0.28501883 -0.031823143 0.039795328 -0.24904557 -0.247501 -0.27673995 -0.37101474 0.25840715 0.26034573 -0.2608075 -0.44417346 0.3978817 -0.060951445 -0.512793 0.101374105 -0.39193702 0.017229417 -0.32068282 -0.006312338 0.21677226 0.21427333 -0.3158197 -0.11209959 0.37785685 -0.5171008 0.020097416 0.27137813 -0.010317405 0.17201294 -0.08837404 0.19731466 0.2250473 0.12580028 -0.45332378 -0.33370748 -0.36211547 -0.07840444 -0.048915297 -0.5085296 -0.8514182 -0.09067224
6793 -0.30285114 -0.035050843 -0.09912268 0.37199265 0.24294138 0.029246153 0.46296623 -0.53133065 -0.2274979 0.26116043 0.48963857 0.18289985 0.3800421 -0.6901931 0.30834228 0.08465854 0.25256705 0.3894256 0.22249143 0.74000716 -0.09390595 -0.23280738 -0.27276003 -0.13509205 -0.085086875 -0.3479597 0.104009435 -0.16669025 -0.0313609 -0.02305781 0.18603298 -0.1737898 -0.004633163 0.087075375 -0.05401035 0.14931755 0.4574614 0.103576586 -0.24655584 -0.5285645 0.026222803 -0.029457185 0.39925972 0.09041894 0.18983884 0.14755803 -0.3313657 -0.37318343 0.24359833 0.1861427 0.38863486 0.35907477 -0.08271087 -0.28014222 -0.035533763 0.21970315 -0.18728854 0.17246053 -0.028544249 0.18875545 -0.018674025 0.03714809 0.2724326 -0.17203794 0.06254321 -0.4436762 0.3152894 -0.67490464 -0.0136413295 -0.6488235 0.25670347 -0.014231088 -0.27860886 -0.17441809 -0.1879245 0.17665148 0.16444637 0.032606624 -0.19249567 0.7378512 -0.10280833 0.4474572 -0.13650334 0.78943306 0.25900954 -0.24024288 0.36411187 -0.087096214 -0.0007183976 -0.21088915 -0.16901784 -0.08949268 -0.0066637136 0.032804742 0.035682216 -0.07250621 -0.05308721 -0.011696178 -0.09333983 -0.29647216 -0.42368403 -0.089954995 0.034179065 0.15101852 0.08741483 0.17112443 0.19344088 0.21097761 0.2203983 -0.098333105 0.08944339 0.19421455 -0.20379363 -0.34710038 -0.30935764 -0.24053115 0.34514326 0.18700276 -0.36618578 0.33467853 -0.042653266 -0.11010366 -0.38280177 -0.12940684 0.11312318 -0.27344757 -0.06863445 -0.13817613
5059 -0.11370836 -0.25891227 0.030650105 0.011162943 0.42252553 -0.40266767 0.1472297 -0.029339168 0.25684366 0.13365732 0.61456096 -0.023550773 0.5458548 -0.07657363 0.3183191 0.13939853 0.03386829 -0.029162636 -0.12537962 0.57094544 0.45112443 -0.40233082 -0.40213075 -0.43388966 -0.014268506 -0.59462553 -0.05700149 0.44762868 0.43248296 0.03647939 0.23867828 0.18781799 0.3117728 -0.40101367 0.12972645 0.24368244 0.4699356 -0.19198807 -0.04846482 -0.16807233 0.0011775496 0.03062485 0.013131669 0.060396455 0.091793574 -0.2190205 -0.2926154 -0.15788747 0.22160025 0.17071024 0.13590115 0.39707103 -0.28821132 -0.20977269 -0.31353205 0.061177935 0.21628393 0.24751589 -0.15052299 -0.43879554 -0.16931412 -0.056697935 -0.1893787 -0.253731 0.7010976 -0.31411344 0.22440298 -0.2626247 0.21009527 -0.049051337 0.50618625 0.13536906 -0.26826975 -0.10047629 -0.1577247 -0.6141387 -0.096606195 -0.2145794 0.24644278 0.4599842 -0.4220475 -0.10075695 0.17335036 0.12819064 0.23100758 0.020619718 0.11350548 -0.3050236 0.08387685 -0.05017921 -0.08677031 0.15545613 0.0758709 -0.08205389 -0.0013021835 0.2375989 0.37758583 -0.1797091 -0.25583848 0.04522935 -0.11162143 0.37315008 -0.08011856 -0.38871065 -0.18502949 0.41702157 -0.59876657 -0.27500576 0.08302056 0.3687191 0.2124587 -0.11573381 -0.24166945 0.10277457 -0.29439104 -0.122090414 -0.1926624 0.34036213 -0.20642334 0.20286147 -0.20678411 -0.05142784 -0.23018558 -0.11495845 -0.09648294 0.1224242 -0.19530109 0.28142405
6820 -0.2170854 -0.103175975 -0.23315689 0.23610944 0.51238567 -0.34239578 0.10268603 -0.14058295 -0.29698125 0.5767156 0.35819674 -0.16593674 0.26483506 -0.6770284 -0.08025084 -0.23891759 0.2989053 0.29562128 0.11881481 0.57587844 0.049847893 -0.41593927 0.01293336 0.39378804 0.035859704 -0.13750178 0.025906958 0.1676959 0.08407054 -0.15548949 0.11850261 0.008601303 0.07674539 -0.060725793 -0.22787844 0.06800579 0.29282743 -0.18412805 -0.08256191 -0.12793425 0.066380545 0.12020262 0.31778553 -0.121390894 -0.16865632 0.030501846 -0.3546016 0.045186702 -0.13788351 0.31945568 0.3230096 0.28873616 0.32684666 0.119151466 -0.0023222317 0.50245094 -0.13598922 -0.14839578 -0.14558452 0.20840591 0.036214393 0.1098527 0.20042808 -0.20975184 0.1715017 -0.30489552 0.4642914 -0.49963608 0.010252689 -0.4229001 0.5869251 0.050405685 -0.0714363 -0.22297055 -0.28280488 0.16904886 -0.1870986 -0.09562546 -0.16208716 0.84938085 -0.4728366 0.044692975 -0.35739458 0.30984724 0.07689345 0.1395479 0.32276803 -0.31190175 0.01648366 0.057892118 -0.17078346 -0.4884202 0.30062148 -0.02501106 0.04610864 0.14074919 0.1462073 -0.37098065 -0.09648522 0.016299084 -0.45214355 0.13587013 -0.20458269 0.05681401 0.2882312 0.19940387 0.07907398 0.075071976 0.35808763 0.02811359 0.08907112 0.14266598 0.09695707 -0.09991057 -0.31059638 -0.4152581 0.16390394 0.3389764 -0.4058322 0.24533132 -0.14226308 -0.36561906 -0.6925668 0.0885073 -0.07283199 -0.17258854 -0.3931302 -0.26579547
7425 -0.018820241 -0.2655775 -0.07577995 0.06738162 0.18608879 -0.308808 0.3894316 0.15503384 0.06504497 0.11508612 0.46968266 0.028516024 0.46307576 -0.03740443 0.16379164 0.2493222 -0.13734622 -0.44777262 -0.16693439 0.35416508 -0.022708884 -0.343267 -0.14407486 -0.37149528 -0.16050255 -0.40224704 0.20018734 0.2738333 0.3156697 0.04256242 0.0041114553 0.040200703 0.008875442 -0.4327788 -0.22913112 0.4195306 0.40124264 -0.24859728 -0.31318957 -0.68268186 -0.0921495 0.08204718 -0.20394057 0.03059122 -0.014373102 -0.1440293 -0.17616177 -0.19919261 0.32395804 -0.012842458 0.21388143 0.13321544 -0.16130456 -0.13518277 -0.07470005 -0.19742706 0.43734464 0.09872937 -0.1547523 -0.3009624 -0.33852193 0.04737962 0.058216326 -0.48748806 0.7229023 -0.37816343 -0.083377 -0.26643208 -0.35876292 0.02218492 0.25060645 0.3633693 -0.21692179 -0.0111259725 -0.1347851 -0.24677484 0.13188432 -0.3315423 0.20389429 0.41923794 -0.3106766 -0.024615822 0.17171279 0.114982665 -0.10066665 -0.016420174 0.2490844 -0.21971549 -0.1431731 0.026557986 0.0653681 0.030290052 0.2741443 0.053390715 0.3404557 0.14111882 0.29337847 -0.5460493 -0.1585262 0.1898854 -0.15264435 0.13752827 -0.015139296 -0.19837922 -0.110994555 -0.1563408 -0.6154368 -0.07145173 0.27335146 0.44448715 0.77741265 -0.16172363 -0.29094344 0.232724 -0.15894614 0.22538337 -0.017045198 0.59555036 -0.25230688 -0.24560921 -0.07088201 -0.0083625205 -0.026582826 0.09121296 -0.22096147 -0.08022936 -0.32788742 0.3289296
6884 0.5885189 -0.14857958 -0.25975478 0.0019606685 0.2461123 0.10181027 0.19379227 -0.09590359 0.08728959 0.29229507 0.06733574 0.10856208 0.20839569 -0.46776524 0.6614658 0.46548635 -0.226996 -0.15919349 -0.3878109 0.26535246 0.09903279 -0.4010265 0.110068165 -0.47578475 -0.5444796 -0.207328 -0.19228978 -0.06509082 0.12234612 -0.26177475 0.10976074 0.0029026116 0.0380516 -0.33309254 -0.27970016 0.22950767 0.3736673 -0.16288161 -0.059301224 0.053559147 -0.17118643 -0.34296244 -0.27254048 0.1864626 0.17994641 -0.056125388 -0.67069507 -0.33987674 -0.08404847 0.09090739 0.25186428 0.20953338 -0.028935146 -0.31736803 -0.21945648 0.045617476 0.39016914 0.026528971 -0.18088397 -0.076201595 -0.20712997 0.0438298 0.1892095 0.19281489 -0.11948277 -0.092086054 0.18627094 -0.19353965 -0.25225317 -0.4188222 0.23678978 -0.0006193965 -0.2529607 -0.16452059 0.27037984 -0.10008994 -0.24537621 -0.044631694 0.0060750446 0.18559071 0.20801163 -0.15231302 0.078073345 -0.06217553 0.4297467 0.31775144 0.11223957 -0.6135483 -0.32720855 -0.0016707117 -0.6450945 0.26046675 0.30018738 -0.13912058 0.09498394 0.32756454 0.19294852 -0.14304721 -0.12720682 -0.06933494 -0.28905505 0.1059136 -0.24783328 0.09378346 0.21589011 0.08301341 -0.053606838 -0.032576352 0.47399923 -0.28339905 0.366034 -0.052282274 0.22886458 0.23304772 0.038491584 0.09762002 -0.00177322 0.3519444 -0.11685225 0.012248978 0.06146554 -0.16668059 -0.349613 0.09044152 -0.29390624 -0.11731494 -0.24888209 -0.06539225
7476 0.100428276 -0.257619 0.28839448 0.21336341 -0.14107361 -0.10738721 0.07905556 -0.49371275 -0.041341927 0.3325529 -0.18849269 -0.34783217 -0.24346828 -0.22749981 0.046537623 0.24852125 -0.18295924 -0.15063752 0.036564544 0.32486263 0.25721502 0.8233011 0.060247276 -0.2903257 -0.25817087 0.2269293 -0.33242336 -0.136865 -0.3485994 0.6155119 0.09478745 -0.19936118 0.14082122 -0.13518007 -0.014640232 0.2464392 0.22526112 0.34136721 0.08985362 -0.08640888 -0.32260463 -0.14385495 -0.24114044 -0.21082544 0.5178123 0.21699823 -0.1783157 -0.28782457 -0.1608558 -0.23425539 0.032540742 -0.030532438 0.10319313 -0.15665905 -0.28298023 -0.20313935 0.3618271 0.094000734 -0.37547633 -0.26109952 -0.03513793 0.011378666 0.40665066 -0.21488108 0.3750096 -0.34264734 0.19248888 -0.37595695 0.0746118 0.051441137 -0.0883357 0.15789823 -0.561603 0.08564912 -0.3002341 -0.13499059 -0.48546502 0.32455647 -0.09730365 0.507054 -0.07679151 0.15357032 -0.16720206 0.4102299 0.17524824 0.35559982 0.21011432 0.24823478 0.4111123 0.20170668 0.46654812 -0.07659216 -0.046116784 -0.123620205 0.14640245 -0.027824128 -0.17256625 -0.25974533 -0.05382524 0.022616291 -0.45094264 0.22869061 -0.40163338 0.34625062 0.051003344 0.16243732 0.1913055 -0.11736526 -0.11823754 -0.03646795 0.19932097 0.026743852 -0.12641656 0.18895435 -0.412316 -0.18725577 -0.069139555 -0.07321029 0.22980683 0.36133787 -0.53968 0.008764177 -0.42496186 0.17986727 -0.25446156 -0.44117808 -0.4164531 0.42099568
6864 -0.021498479 0.36676896 0.24998197 -0.05063821 0.08853166 0.17856424 0.10987674 0.23046008 -0.22576521 0.6274501 0.13004608 -0.38474733 -0.094567835 -0.11872598 0.38400206 -0.040450323 -0.2965016 0.069778115 -0.04864398 0.29045886 0.03084714 0.1648403 0.048223674 -0.10752042 -0.22452232 -0.22002776 -0.3129622 0.16761862 -0.06869773 0.020860862 -0.08413304 -0.05121731 0.31991553 0.19897738 -0.22626168 -0.13464378 0.35713235 0.2829653 -0.10856648 -0.19512597 0.18007068 0.07181915 0.023602698 0.25363258 0.13784009 0.014730945 -0.018483244 -0.41567037 -0.18151495 -0.36085302 0.3700934 -0.08663619 0.14912967 0.15209551 0.5313169 0.22899099 0.040892854 -0.20666939 -0.5916198 0.40313268 -0.32102153 -0.07836768 0.34443164 -0.11244339 0.26000702 -0.09235789 0.4732295 -0.511164 -0.08135427 -0.14745586 -0.107912034 -0.10022393 -0.27565497 -0.25411347 0.057006795 0.14528683 -0.21738276 0.18971118 -0.026992945 -0.005032181 -0.028768616 0.1837052 -0.40015396 0.12325968 0.17653786 -0.105875276 0.17345501 -0.13435414 0.022248155 -0.11437839 -0.10333968 -0.3257959 -0.2711092 -0.28188154 -0.16378035 -0.11624884 -0.0707877 -0.5329498 0.00847586 0.028163904 -0.7052262 0.41148442 0.0066938694 0.30108753 -0.25537294 0.34260502 0.15158403 -0.036363352 -0.17085029 -0.083316624 0.34715176 -0.36440754 0.0800114 0.3573296 0.21656652 0.14907917 0.031355888 -0.11342539 0.12135972 0.1496758 -0.3303151 -0.16717447 -0.43172228 0.0154340165 -0.078927524 -0.12918897 -0.34392902 -0.48568475
7070 0.25705922 -0.100454815 0.017690513 0.1259768 0.07361799 -0.1460532 0.037210077 -0.10283454 0.033382844 0.08613987 0.49808115 0.15815191 0.06790012 -0.3238386 0.5658848 0.29203406 -0.12253737 -0.3585699 -0.4259306 0.39074928 0.19080308 -0.33507597 -0.2354924 -0.5207628 -0.39668864 0.06615295 -0.19894172 0.24598406 0.054301463 0.016022144 0.4233096 0.04712787 -0.17455797 -0.38211697 -0.22306213 0.36069974 0.48985824 -0.41071346 -0.01457889 -0.07655885 -0.20697416 0.07685562 -0.19898847 -0.11405575 0.03190649 -0.0038296406 -0.7096484 -0.36672348 0.27479076 0.033690967 0.05750902 0.5125614 -0.24028373 -0.26750743 -0.3812768 0.02140702 0.13287114 0.18330395 -0.1996739 -0.19949779 0.017437823 0.030924635 -0.09822579 -0.0131646115 0.47770837 -0.34155986 0.17072064 0.111879915 -0.11471095 -0.61306983 0.19526151 -0.100234464 -0.22018982 -0.085857354 0.3868223 -0.50258327 -0.14153609 -0.19599894 0.029121857 0.09750965 -0.3475298 -0.071896926 0.27335486 0.30430308 0.47164264 -0.10538443 0.07364533 -0.54263395 -0.25703576 0.044135503 -0.38185787 0.2537589 0.21237639 -0.07964112 0.10257921 0.27301857 0.19945687 -0.22150774 -0.40768716 0.08416719 -0.074224114 0.009862078 -0.06771199 -0.07982991 -0.032206696 0.11763278 -0.15572476 0.03321455 0.50026363 -0.12111103 0.31634 -0.20398472 -0.20932269 0.11933152 -0.15807936 0.24006233 -0.03379576 0.2578915 -0.11606661 0.092759535 0.113652095 -0.098770365 -0.16950464 0.052370433 -0.026412351 0.11102875 0.03661837 -0.10857285
5231 -0.2021731 0.10229363 -0.2198568 -0.13962601 0.22239414 -0.19741307 0.19402374 -0.10166242 -0.28051794 0.6307494 0.6172769 0.13208571 0.34116307 -0.41827458 0.28125724 0.039523505 0.2664725 0.41703498 -0.1455299 0.24329323 0.0031595046 -0.20520684 0.23177354 0.07810756 0.08140867 -0.26583347 0.13443357 0.030648125 0.03521312 -0.36085197 -0.08624434 -0.17896841 0.4372715 0.014072317 -0.4132819 0.07551709 0.23919137 -0.014452884 -0.2044109 -0.24785626 0.3486315 0.0531887 0.09397063 0.111052364 -0.01571174 0.14470117 -0.042903576 -0.32517946 0.22014396 0.047390413 0.40696046 0.46498698 0.045683812 0.057151176 0.12885788 0.26415324 -0.092525035 0.1520008 -0.2595563 0.17183787 -0.11865198 0.1697377 0.22128686 -0.17540376 0.48447913 -0.029441925 0.4252505 -0.34643742 -0.50880975 -0.28166708 0.36107183 -0.25125352 -0.08295809 -0.06433988 0.15289149 0.31995177 -0.03493077 -0.06357379 0.08494191 0.36728713 -0.12248713 0.106020555 -0.08438587 0.28280264 0.13126005 -0.26416865 0.18548125 -0.32859662 -0.20031236 -0.22739795 -0.37092674 -0.08527099 0.33617973 -0.20071688 -0.26236135 -0.030133702 0.038186733 -0.32498088 0.14588809 0.06990907 -0.49464187 0.111114964 -0.06126768 0.09160756 -0.005716228 0.025125075 0.05309152 0.1936554 -0.032285627 0.10260171 0.32608736 -0.016754886 -0.28902382 0.20847782 -0.17590527 -0.22506219 0.015754221 0.13155998 -0.4480253 0.15419412 -0.35584274 -0.22330205 -0.38325703 0.049595024 -0.12261924 -0.34250033 -0.28362647 -0.40579432
7201 -0.1633765 0.021394096 -0.15446752 0.1648138 0.34273294 -0.33261758 0.51950794 -0.17892615 -0.08625431 0.24150634 0.78616923 0.17252834 0.62236035 -0.38616183 0.49614763 -0.055709623 0.31694365 -0.10732509 0.08437407 0.35800195 -0.011134898 -0.33125666 0.068252705 0.119444095 0.0033397283 -0.0557407 0.20582496 0.20955902 0.187283 -0.010558098 -0.09082672 -0.02680162 0.11161524 -0.1600835 -0.0989566 -0.046600122 0.14641523 0.18314652 -0.32197815 -0.32799363 0.2410868 0.17782122 -0.0074078776 0.058576945 0.18736263 0.18870728 -0.26877177 -0.13173404 0.41110575 0.09636907 0.30660725 0.4897504 0.11604068 -0.08203601 -0.25192198 0.35826734 0.11147749 0.31506872 -0.23014778 0.28839082 -0.3534098 0.06428299 0.23335974 -0.46224108 0.5611595 -0.516262 0.49050564 -0.65790224 0.19964407 -0.21339054 0.3570472 -0.14130285 -0.014127927 -0.42889598 -0.14901716 0.31482616 -0.07403489 0.048274066 -0.25150758 0.39423546 -0.18671633 0.26818234 -0.20630877 0.37770835 0.10571891 -0.06893343 -0.025487904 -0.23951165 -0.20083594 -0.3385681 -0.41854095 -0.17627007 0.14424895 -0.026231091 -0.29133594 -0.051140413 0.11124178 -0.059354026 0.11501126 -0.030861363 -0.55214226 0.19908395 -0.019968841 0.27154863 0.14406182 0.2974278 0.08561136 -0.082033105 0.102494135 0.039372955 0.36602083 0.24196433 0.058458783 -0.29217112 -0.27367565 -0.4010931 0.12900792 -0.032528117 -0.52784985 0.024963217 -0.6141258 -0.07981839 -0.2612384 -0.21101023 -0.16027266 -0.22490929 -0.38793904 -0.24205291
373 0.11695096 -0.21914981 0.14361857 0.18817072 0.33517244 0.01792532 0.17120047 -0.34228736 -0.5827179 0.021889443 -0.22861278 -0.22703841 -0.23668575 -0.39099583 0.3008949 0.19597399 -0.32059765 -0.32412562 -0.118311115 0.35745865 0.15344937 0.6695508 -0.14298345 -0.35142136 -0.17199525 0.278843 -0.25470138 0.2923972 -0.33840314 0.10924242 0.120527126 -0.22754021 0.3269618 0.09210752 0.031098211 0.0040159463 0.11871243 0.5673817 -0.083339736 -0.0010990358 -0.41310093 -0.18667962 -0.22617468 -0.15733196 0.48196664 0.42489433 -0.1281373 -0.4010412 -0.17368835 0.17509377 -0.100557245 0.10576124 0.1835621 -0.06933266 -0.4399024 -0.17536527 0.6910444 -0.11221471 -0.46447304 -0.17344628 0.03641122 -0.11119922 0.42729136 -0.42950544 0.15398362 -0.05752241 -0.13275506 -0.2901457 0.11056842 0.18454762 -0.06833927 -0.012531966 -0.11149921 -0.06483231 -0.14332181 0.2948737 -0.63507515 0.0458453 -0.39339754 0.45767313 0.17169824 0.4045854 -0.024117844 0.5468962 0.20425203 0.291793 0.46740627 -0.0124809425 0.41440555 0.4063218 0.3182616 -0.059956115 -0.12090158 -0.14240308 0.27982223 0.20260276 -0.019139929 -0.30172065 -0.105377115 -0.34025544 -0.6102158 0.13811533 -0.074993186 0.23984748 -0.0460972 0.21920183 0.2935489 -0.2274505 0.0462726 0.033359837 0.056730628 0.0013323518 0.19733335 0.3032852 -0.15237483 -0.2706053 0.23204601 -0.2543328 -0.21334362 0.27344808 -0.500562 0.11113224 -0.37317383 0.19739386 -0.15149046 -0.10909956 -0.48044375 0.24458039
6686 -0.18457969 -0.08398274 -0.08230317 -0.2670832 0.23641795 -0.431512 0.17896943 -0.40762785 0.10534149 0.5109825 0.73501074 0.0861851 0.48954025 -0.36565745 0.30704993 0.26130357 0.22271366 -0.033751097 0.12155937 0.3670462 0.43340904 -0.0129794115 -0.118921764 -0.5259242 -0.28314242 -0.15535708 -0.033565108 -0.0033771037 0.11874402 -0.016713468 0.30178425 0.3861023 -0.14963025 0.099599436 0.063860826 0.5497564 0.33088776 -0.41760686 -0.16768995 -0.037943777 -0.19694911 0.11887526 0.09620101 -0.24541135 -0.11655215 -0.0078795375 -0.4275058 -0.32789147 0.19617815 0.17950624 0.46671006 0.4216123 -0.36269382 -0.084214225 -0.43560144 0.07957349 -0.1262688 0.28864247 -0.3423706 -0.32750547 -0.1101 0.039892543 0.021997051 -0.47751656 0.94349575 -0.3935438 0.054479737 -0.35544896 0.18581949 -0.0011145616 0.075721785 0.16080965 -0.30226293 -0.06383725 0.08883003 -0.3320354 -0.059764903 -0.24135472 -0.25154725 0.3832602 -0.41039792 -0.16924885 0.45214707 0.39669675 -0.112054355 -0.26802802 -0.30399668 -0.21886459 -0.30026355 -0.22814497 -0.12484999 -0.10528186 -0.16908294 -0.054454662 0.36473504 0.321144 0.4267166 -0.47254428 -0.11843726 0.16086411 0.24163489 0.33039823 -0.020924324 -0.28187662 0.048039187 -0.054260176 -0.38348326 0.25405154 0.09527789 0.23002471 0.21908183 -0.3336468 -0.08928258 0.09299221 -0.3061591 0.22137032 -0.13133015 0.36360914 -0.100551985 -0.16517504 0.2501781 0.10074554 -0.112038784 0.024926523 -0.17593099 0.057822645 -0.17000869 0.30962685
5991 0.35843405 -0.32718763 -0.09124669 -0.015023402 0.2414247 -0.10676405 0.32321423 -0.032087713 0.10454707 -0.023944331 -0.008384961 0.06433821 0.08664279 -0.4081796 0.5217668 0.41322097 -0.24102148 -0.23808621 -0.38510925 0.270919 0.073388994 -0.37881386 -0.101433426 -0.47080177 -0.60834366 -0.19795555 -0.15376543 -0.01725548 0.07988802 -0.10167032 0.2749926 -0.10949604 -0.12052607 -0.18528098 -0.21060894 0.19775432 0.16972834 -0.2920168 -0.0865927 -0.1102463 -0.24819326 -0.17833863 -0.37092802 -0.03487573 0.3921483 -0.05007431 -0.5494341 -0.379009 -0.084268734 0.098957345 0.33688924 0.16975135 -0.020631 0.0010186489 -0.17438467 -0.14773974 0.25750446 0.09156511 -0.26510853 -0.117525205 -0.15250316 0.17301744 -0.005778873 -0.08450722 0.11366406 -0.41539735 0.03183152 -0.16638431 -0.4065141 -0.66672707 0.24265775 -0.2869162 -0.55319166 -0.2054479 0.2805416 -0.092735894 -0.19218832 -0.28672177 -0.07433255 0.10634179 -0.17370531 -0.3020339 0.46010467 0.48508605 0.43676007 0.058755666 0.19172536 -0.61165076 -0.062840395 0.15697218 -0.5270591 0.11568697 0.23407137 -0.012056916 0.1250947 0.22572154 0.30127338 -0.2048671 -0.14751646 -0.004831157 0.07956157 -0.06266805 -0.31939238 -0.17097658 0.16653784 0.32235813 -0.01053187 0.12884061 0.6387105 -0.06910214 0.41600072 0.020455945 0.21483336 0.2571377 0.0037101554 0.3340746 -0.04995945 0.10724687 -0.072401285 0.13537738 0.054345705 -0.48461422 -0.26608303 0.110489175 -0.26622772 0.09809976 -0.14107062 -0.034504816
7452 -0.52995616 0.01581605 -0.48447058 0.04200842 0.31674796 -0.2865828 0.29636848 -0.41159442 -0.43243858 0.6314192 0.7439539 -0.34418017 0.30663475 -0.4462653 0.3116141 -0.112587385 0.13768788 0.015780596 0.16260841 0.35556835 -0.04445214 -0.3271832 0.08243969 -0.27734488 -0.18709312 -0.033649243 0.04878626 0.22702551 -0.02283304 -0.24707969 0.20061275 -0.40074998 -0.13705829 0.049568947 -0.13703376 0.21470614 0.17257322 0.2518826 -0.40299365 -0.5677909 -0.07567394 0.025055412 0.37810355 0.14499173 0.20234682 0.07487208 0.04955969 -0.30227977 0.16593201 0.20601566 0.45938447 0.3698464 0.27124467 -0.1746447 -0.14778835 0.31481922 0.19732745 0.17753589 -0.38952464 0.05226406 -0.020360803 0.057307437 0.3689003 -0.38816965 0.24348442 -0.24693128 0.5332849 -0.64217234 0.1448283 -0.44450605 0.3006769 -0.34120995 -0.007803232 -0.23701964 -0.111128464 0.015862705 -0.05989464 -0.1790349 -0.30789283 0.6399086 -0.17882437 0.14327878 -0.18397884 0.32884046 -0.119134896 -0.14179125 0.063152745 -0.3464403 0.020100545 -0.29284796 -0.1256701 -0.335003 0.21739347 0.29298234 -0.27188596 0.0844248 -0.052715436 -0.245868 0.06259548 -0.11709656 -0.5687049 0.34581003 -0.16229098 0.16994436 0.17965026 0.27358457 0.036142927 0.07254195 0.28367063 0.23921603 0.0031804706 0.19993283 0.00083865115 -0.079635724 -0.46029404 0.051398437 0.02813269 0.11195645 -0.51914114 0.02756011 -0.036218442 -0.01723975 -0.33247384 -0.043741178 -0.27776968 0.17491432 -0.18281023 -0.395178
6008 -0.19881885 0.044438295 0.099326245 0.31406343 0.3372755 0.096577294 0.11389275 -0.30789036 -0.20701483 0.33052582 0.34847215 -0.016002111 0.23024952 -0.29056695 -0.023103496 -0.05393594 0.14387359 0.31429288 0.15539649 0.53445184 0.2820822 -0.0821693 0.13500921 -0.010855768 0.17548458 -0.13600504 0.08363141 0.018058743 0.07505663 -0.11076252 0.5100551 0.113751255 0.05961755 -0.082031064 -0.20349342 0.066220224 0.51937395 -0.06254743 -0.3473766 -0.36719736 0.14559342 0.15279104 0.22463983 -0.06483974 -0.025286674 0.14171983 -0.24781615 -0.03233609 0.22398809 0.3072908 0.4840767 0.54822874 0.12453852 -0.019207269 -0.21720487 0.58053625 -0.09335725 0.32973602 -0.21347848 0.27784038 -0.06457965 0.18728332 0.27592307 -0.31069094 0.40542302 -0.4220332 0.3671788 -0.61814123 -0.028852671 -0.5000307 0.49749282 -0.101944044 -0.10233515 -0.16018708 -0.31482533 0.29427508 0.17015268 -0.19369113 -0.10034158 0.721189 0.015699843 0.19498105 -0.2432919 0.630526 -0.20189132 -0.2317594 0.41017163 -0.058622133 -0.27455488 -0.15564507 -0.35634813 -0.20484884 0.06332304 -0.27219528 -0.09902938 0.084671915 0.3440221 -0.105754025 0.13124143 -0.08887036 -0.45971748 0.29759008 0.23470283 0.29056475 0.106786445 0.29473603 0.15228459 -0.022674968 0.23706374 -0.14665748 0.39098763 0.15639341 -0.08891114 -0.19122559 -0.27354318 -0.30263835 0.24399419 0.25042439 -0.21719366 0.14878859 -0.6002711 -0.26255837 -0.37063852 -0.35404646 -0.24902149 -0.30302715 -0.3351568 -0.50680333
6850 0.3864534 -0.08467022 -0.15147111 -0.10516174 0.046575904 -0.056552514 0.35521078 -0.045122024 0.025070405 0.10001414 0.050707787 0.10149819 0.063599475 -0.38335076 0.625001 0.42292523 -0.19489673 -0.17577027 -0.18591656 0.22559164 0.09300028 -0.41126254 -0.044985205 -0.55643785 -0.5054303 -0.32933804 -0.30815047 -0.029814769 0.12496633 -0.09837605 0.15606974 -0.02994346 0.19305798 -0.40149885 -0.1703164 0.019026246 0.06852264 -0.30870607 0.03273225 -0.08446546 -0.22475155 -0.12840034 -0.25043616 0.22640477 0.30540174 -0.3731842 -0.3347282 -0.30519927 -0.1491741 0.062157307 0.22675388 0.14324825 -0.22164886 -0.2319677 0.1370161 0.061322425 0.12586637 0.115879476 -0.18622828 0.13746011 -0.16761833 0.22152795 0.28794217 -0.055828452 0.093052596 -0.23814656 0.24442093 -0.23586594 -0.27760506 -0.86591876 0.21354668 -0.08430211 -0.36904705 -0.15563597 0.33601493 -0.16313191 -0.17605254 -0.117333494 -0.14974254 0.15942943 0.08881483 -0.10450958 0.21839489 0.072603226 0.5782028 0.22360045 0.16068557 -0.42894042 -0.11893466 0.104107924 -0.5058881 0.15250285 0.23655954 -0.09134934 -0.015908409 0.21129489 0.32240146 -0.10977845 0.06551691 -0.090905845 -0.038837332 0.26472452 -0.23887794 0.017226309 -0.0071647656 0.23610565 -0.0071077514 0.12393866 0.504483 -0.26548505 0.384319 0.07484489 0.024230072 0.25400314 -0.062434334 0.34717917 -0.0024181397 0.20465471 -0.018828519 0.36449552 -0.00093071186 -0.15895367 -0.2768848 0.048431404 -0.09804971 -0.0883348 -0.23577046 -0.1521878
5872 0.32253498 -0.35162783 0.14017121 0.1116909 0.32865632 -0.12794323 0.0858477 0.00837957 -0.027530555 0.20432894 -0.00082292804 -0.124842696 0.07000991 -0.29991397 0.3106111 0.51343167 -0.30396518 0.018111322 -0.31884453 0.36009687 -0.11071082 -0.09994958 -0.23325749 -0.3428662 -0.44129044 -0.31116113 -0.21536815 0.1977558 -0.07567091 -0.07012987 0.027569838 0.064193584 -0.14958708 -0.28600645 -0.2215464 0.29264864 0.3422748 0.015995108 -0.121600285 0.051468424 -0.06768044 -0.13198172 -0.22195888 0.10530455 0.20213158 0.1371237 -0.4954394 -0.34376687 -0.09136919 0.052930824 0.27531928 0.15041073 0.15888378 -0.21076566 0.12170229 -0.15299869 0.21272671 -0.042917274 -0.33354977 -0.19829476 -0.09366397 0.08727633 0.062832944 0.1602765 0.0064818533 -0.26753724 0.25856033 -0.06162228 -0.3822398 -0.50029117 0.19567639 -0.32439595 -0.6280565 -0.12970896 0.22948538 -0.2858729 -0.2578645 -0.5764534 0.13168034 0.23698363 -0.120151125 -0.113674544 0.12806462 0.038746893 0.5116098 0.21904482 0.13595395 -0.5750168 -0.10141932 0.17911728 -0.41494954 0.10289143 0.3770902 -0.09683919 0.0041727377 0.24760893 0.3590833 -0.18253347 0.021555653 0.05902581 0.027944352 0.02086765 -0.31718603 -0.19743489 0.2077166 0.03501894 0.0070069637 -0.030409828 0.30490032 0.062099993 0.25909477 -0.25138766 0.30015227 0.2753098 0.17968963 0.18764845 -0.2588452 0.28626275 -0.06346941 0.036383547 0.20676725 -0.2784999 -0.25933716 0.066789694 -0.05727654 0.08541074 -0.084460564 -0.16239333
5273 0.3196309 0.22219197 0.34220693 0.13123566 0.071657375 0.12432182 -0.028083133 -0.07974847 -0.32832906 0.75363976 -0.30692333 -0.39171672 -0.14373156 -0.20225595 0.6475768 0.19806705 -0.26345304 0.11118652 0.19577602 0.26311293 -0.03777204 0.24659823 -0.23227485 -0.12832837 -0.5285695 0.13517909 -0.54313076 0.05797296 -0.14752255 -0.0116733955 -0.12486011 0.28784013 0.60688823 -0.1392259 -0.15412973 -0.026614951 0.3776853 -0.05658555 -0.0028723893 0.08410156 -0.13148299 -0.06025575 -0.24422304 0.17069574 0.18876542 -0.123672545 -0.27283356 -0.052226283 -0.20996118 -0.46965444 0.32448804 -0.047335483 0.11155617 0.079004005 0.35107023 0.23326911 0.1521147 -0.16520704 -0.3954312 -0.021866782 -0.28782424 -0.0676848 0.4604294 0.016597062 0.3325122 0.05430096 0.40732986 -0.56162786 0.19379158 -0.124307565 -0.08706467 -0.07169402 -0.37665877 -0.029678578 0.23529175 0.2004918 -0.03203523 0.09168099 0.09814906 0.13668281 -0.017130706 -0.01272619 -0.5126991 0.042923648 0.3574589 0.2008718 -0.023081949 -0.26351938 0.21103916 0.3689801 0.13166071 -0.37398094 -0.17537482 -0.38123116 0.29954794 0.1286171 -0.27010322 -0.35899317 0.32889965 0.03177554 -0.2480551 0.36761656 -0.13377966 0.4067918 -0.1480648 0.38655186 0.07202254 -0.22738239 -0.27737617 -0.109153524 0.549063 -0.3425225 0.0025246504 0.12120329 0.31816444 0.3550766 0.07668137 0.0033251075 0.018764483 0.16357368 -0.17522636 0.039485533 -0.32973748 0.35145044 -0.21018276 -0.385788 -0.8144981 0.22280918
6429 -0.015571249 -0.3283245 -0.06404107 0.43446702 0.78649664 0.59250796 0.14294931 -0.35730106 0.4625682 0.25266963 -0.50651866 0.03921385 0.38824198 -0.3201696 0.4828875 0.089010365 -0.37161097 0.5396824 -0.09949996 0.815578 0.1598903 0.16618896 0.25201648 -0.24611026 -0.09659115 0.44820476 0.28266543 -0.19506969 -0.112843856 -0.10604075 0.21490403 0.6753543 0.21681488 0.50390285 -0.011417532 0.47097993 0.84907824 -0.96696705 -0.64160585 0.21108912 -0.439998 0.49229252 -0.15586804 -0.30982336 0.12411302 -0.18716031 -1.0160774 -0.5134991 0.5296441 -0.26269725 0.5917423 0.63905156 0.48849145 0.32627496 -0.44497576 0.21957144 0.5253788 0.49509382 -0.10569728 -0.44180834 0.04053267 -0.52697015 0.7306651 -0.26381108 0.78062016 -0.10018895 0.13561837 -0.36027598 -0.01465082 -0.6302122 0.44638532 -0.51662743 -0.104665704 -0.16501243 0.14073057 -0.44448018 -0.12914212 -0.10978932 -0.311745 0.0023172393 -0.04665494 -0.18469232 0.031450227 0.9827015 0.22631694 -0.5855464 0.71551526 -0.5464831 -0.078754224 0.6150872 0.233071 -0.4692529 -0.066677876 -0.67759395 0.9379137 0.45552018 0.24846463 -0.83674353 -0.03569556 -0.78274935 -0.5351668 -0.3620739 -0.28384075 0.78309804 0.5827619 0.24474095 -0.17481776 0.46077275 0.34737054 -0.02523378 0.9222879 -0.116932236 0.24506783 0.48767668 0.059592295 -0.16140006 -0.017228667 -0.18157099 0.5137435 0.39628485 -0.7360491 -0.86887145 -0.18546385 0.39519915 -0.26287925 -0.8200461 -0.6760974 0.24469408
5422 0.27178732 -0.16644305 -0.24519277 0.1202673 0.35120305 0.040709313 0.2817643 -0.35567603 -0.087393224 0.3212835 0.3315742 0.022838175 0.1217497 -0.3246025 0.38698664 0.22370821 -0.21545951 -0.2692035 -0.16632389 0.25745305 0.2221435 -0.39335716 -0.069086805 -0.28646547 -0.6150942 -0.2391931 -0.1971134 -0.004721156 0.048885766 -0.088733464 0.29910895 -0.12978649 -0.15776882 -0.28294384 -0.20702712 0.10397583 0.25626287 -0.2260699 -0.17101613 -0.018310146 -0.2606521 -0.1643862 -0.49390918 -0.14916384 0.22068605 0.11225407 -0.5162121 -0.26884165 0.1364724 0.25443423 0.23900029 0.27837434 0.041876383 -0.2855424 -0.32005513 0.014461729 0.10572515 0.116469026 -0.27714235 0.1463523 -0.048362818 0.19589615 0.19545157 0.06757045 0.011712958 -0.15664215 0.03342671 -0.10922607 -0.18036813 -0.54353744 0.090868674 -0.13346238 -0.45961618 -0.1609723 0.25245914 -0.06508106 -0.24066882 -0.37881413 0.025489112 0.22789425 -0.2061695 -0.30652884 0.23376389 0.26501122 0.2902559 0.3163923 0.00073368207 -0.4063473 -0.2769081 0.020391839 -0.5182689 0.21564639 0.450788 0.01102397 -0.046313785 0.26562586 0.24638622 -0.09777222 -0.12363625 -0.1346092 -0.14792663 0.028462892 -0.34266937 0.07843244 0.19579825 0.25881606 -0.015056978 0.025557473 0.68711877 -0.027646882 0.28163645 -0.008149145 0.26522473 0.039239857 0.07544333 0.038792677 0.014775125 0.11771688 -0.14192843 0.0469212 0.113305606 -0.343309 -0.27832496 -0.060600314 -0.023314241 0.10113938 -0.24584295 -0.12910745
5288 -0.11302858 -0.051666938 0.024040712 0.16917482 0.33416516 0.044236645 0.37415138 -0.46052864 0.06063902 0.23875181 0.6346925 0.31507185 0.52497005 -0.5906793 0.25457183 -0.079524934 -0.08546772 0.35932186 0.46575254 0.47953787 0.18340299 -0.504175 -0.06992127 0.18864933 -0.23055962 -0.09403136 0.19334589 -0.049689047 -0.29509604 0.24227075 0.03536045 -0.11752213 0.10654902 0.015845595 -0.04462868 0.25883135 0.536276 0.18449685 -0.3510571 -0.05131702 -0.02730008 0.24506167 0.2156379 -0.22514321 0.09488007 -0.09455242 0.014291308 -0.44294336 0.21396816 0.15618895 0.41583613 0.16581291 -0.11491737 -0.17693053 -0.2684904 0.39283597 -0.18228482 -0.06597537 -0.10220222 0.45073885 0.060800467 0.3793222 0.0282528 -0.53041875 0.3382627 -0.21034257 0.14632577 -0.8151161 -0.13390163 -0.22603479 0.58355224 -0.07435771 -0.37966186 -0.069717795 0.018042944 0.15790161 0.22388996 -0.07305087 0.11925581 0.5486608 -0.33485222 0.20572554 -0.14928903 0.53451496 -0.14780934 -0.06370554 -0.12304584 -0.41591856 0.1157522 -0.26151583 -0.39847413 -0.12754704 -0.08910809 0.10945134 0.06259364 0.16472967 -0.0021744838 0.025295166 0.0724551 -0.12412475 -0.6846718 0.20320164 0.014118316 0.39610064 -0.14271104 0.17655769 0.18236348 -0.21691251 0.2383611 0.074193574 0.34329778 0.49909317 0.10187553 -0.008959257 -0.072088204 -0.4727711 0.08529714 0.03422833 -0.30029574 -0.04583813 -0.025367243 -0.17440501 -0.58670604 0.087168664 -0.013012404 -0.35787764 -0.31719628 -0.30095285
5346 -0.0061714444 0.10132862 0.11366009 0.06406722 -0.024162753 0.09977781 0.38246843 0.26560658 -0.43851227 0.6442392 -0.15257512 -0.38834554 -0.0811385 0.057085738 0.42307365 0.37076136 -0.23536478 0.16872007 -0.009782899 0.22709714 0.036543608 0.18081559 -0.2720803 -0.3286409 -0.4239055 -0.082163304 -0.37812123 0.05546287 -0.40561426 -0.049995616 -0.038443264 0.13954993 0.38717818 -0.095210426 -0.21846794 -0.2628132 0.6178208 0.093097806 -0.02630864 -0.11262408 0.122667134 -0.094037645 -0.008041775 0.07273935 0.00070662407 0.059138324 0.006668289 -0.076489076 -0.38192907 -0.39280298 0.78035015 -0.12195607 0.09557621 0.012182687 0.56820667 0.20292786 0.3926739 -0.2312426 -0.39114153 0.31461555 -0.4567248 0.09026886 0.2500122 -0.16992415 0.02996602 -0.26888698 0.3609902 -0.32114258 0.0041833674 -0.13955875 0.05864081 -0.05080847 -0.23415281 -0.3037764 -0.07076691 0.12090401 -0.36375284 -0.033901896 -0.07224796 0.24216017 0.060653456 0.24357042 -0.43492523 0.09386283 0.42302966 -0.027912917 0.26824096 -0.25010243 0.013194599 0.17434055 -0.3743009 -0.40815964 -0.40716213 -0.28452915 0.08340287 -0.017044174 0.022423543 -0.06313076 -0.048575617 0.072982065 -0.41996253 0.36112216 -0.4357719 0.3352058 -0.045444448 0.08150415 0.4117661 0.08123094 -0.09582639 0.032597773 0.31595346 -0.45655182 -0.022480704 0.69579214 0.027073644 0.31188938 -0.010755471 -0.11146103 0.32921422 0.3434837 -0.46370587 -0.07340498 -0.51253957 0.01390616 0.14506254 -0.3990147 -0.6785394 0.029493427
6965 0.4067566 -0.15584718 -0.25419906 -0.04667827 0.12228425 0.0029420296 0.28379822 -0.20254432 0.004467593 0.16719398 0.0453445 0.11358264 0.046377808 -0.633138 0.58922726 0.41900948 -0.08858776 -0.12677428 -0.31512955 0.40165532 0.20336968 -0.36214787 -0.11844086 -0.4595856 -0.4892872 -0.27265525 -0.16949627 -0.017141677 0.24183024 -0.15707888 0.39200044 -0.07545845 -0.21397144 -0.30526492 -0.20760825 0.21435155 0.31201997 -0.095971815 -0.17233995 -0.031604532 -0.20463589 -0.0024105436 -0.17880291 0.115124434 0.07072763 -0.026720773 -0.564023 -0.43677437 -0.20028615 0.012095033 0.37691292 0.3346209 -0.04809442 -0.12830625 -0.18250754 0.018315127 0.010845129 0.15775381 -0.09353277 -0.045068752 -0.08632071 0.15574394 0.016257534 0.11873043 0.20125665 -0.077024505 0.11843719 -0.1660512 -0.27924633 -0.6729847 0.05399112 -0.15777208 -0.4385547 -0.0762484 0.3369091 -0.104595885 -0.20418946 -0.21631803 0.1912172 0.17466019 0.07327867 -0.0537905 0.16062905 0.2133284 0.50743246 0.116160825 0.18392795 -0.4669817 -0.21713586 0.074108146 -0.54542196 0.15461905 0.33058554 -0.067074016 0.08178387 0.25046304 0.4096286 -0.16534361 -0.06303286 -0.014327278 -0.30586317 0.061064195 -0.19856973 0.055242922 0.1287518 0.092525676 -0.17997542 0.047367092 0.6517054 -0.14281514 0.30447894 -0.08292651 0.14820041 0.27292418 0.018310597 0.20163195 0.030623926 0.067830615 0.16764444 0.22500134 0.2115619 -0.3343779 -0.4634028 -0.01949926 0.016282074 -0.07487692 -0.060889415 -0.017485313
5481 -0.03885398 -0.2089744 0.12018514 -0.106906936 0.28536645 -0.56069905 0.21646298 -0.24683005 0.38773572 0.5668095 0.40431404 -0.043688826 0.31435373 -0.055909917 0.37583396 0.23571469 0.35637096 0.016156612 -0.044769943 0.36902806 0.1345351 -0.03627369 -0.2794384 -0.27612293 -0.048533574 -0.04712125 0.016545756 0.50535166 0.14221746 0.35690102 0.039014198 0.3538146 -0.040912226 -0.14444786 -0.16263494 0.4495148 0.25193056 -0.33576745 0.09144056 -0.06944104 0.01908255 0.13061363 -0.40653887 0.08009403 -0.035902955 -0.24740203 -0.22055335 0.099426635 -0.100415565 0.3227374 0.2802751 -0.088984296 0.02994498 -0.53424937 -0.3128833 -0.1511319 0.09715259 0.25163877 -0.10529301 0.076027185 -0.04722614 0.015477115 0.008863994 -0.25569928 0.4234129 -0.51105154 -0.26858905 -0.28970352 -0.13777629 -0.29254097 0.1743482 -0.21007974 -0.39884102 -0.0027525346 0.005157132 -0.5995758 0.016916333 -0.32552153 -0.20975102 0.52656335 -0.4747155 -0.32647696 0.10730223 0.3233556 0.2875668 0.085568465 0.30472147 -0.71339196 0.037610676 0.18822806 -0.1496887 0.2541139 0.22438225 -0.13004953 0.4474441 0.10018826 0.1524015 -0.3961032 -0.22085586 -0.24908082 0.044619314 -0.026652656 -0.12772758 -0.24879779 -0.30741912 -0.19427493 -0.3092462 0.17192744 0.52262276 0.15336488 0.39934173 -0.14757845 -0.24651228 0.09337084 -0.6027938 0.07417593 0.07880205 0.8026233 -0.2664066 -0.2852374 -0.11157248 0.029636668 -0.29577437 0.1650837 -0.3930839 0.06548725 -0.33596912 0.12586641
5209 0.20773382 0.02869417 0.32290232 0.14885348 0.20910905 0.0070994566 0.23745577 -0.0370336 -0.30684608 0.43291044 -0.037018638 -0.2477723 -0.38674897 0.024872163 0.37740594 0.28808632 -0.28560385 -0.033640854 0.20222843 0.06635267 0.093596675 0.42681357 -0.26359278 -0.413499 -0.37587008 -0.2543719 -0.21691601 -0.008590433 -0.37139902 0.27521914 0.043569047 -0.019592956 0.5265032 -0.0071708043 -0.31048787 -0.009469293 0.1950935 0.25592306 0.19800314 -0.038040537 -0.1692677 0.2947695 -0.43941155 0.07537537 0.14990708 -0.057851028 -0.31153092 -0.22427079 -0.34443334 -0.3326643 0.3830833 0.30305013 0.07548598 -0.05091658 0.5121369 -0.04073188 0.28103566 -0.2942634 -0.63804513 0.0020236159 -0.034215093 0.08301603 0.4851022 -0.0068343035 0.19803125 -0.121511355 0.044903487 -0.15408054 -0.13846275 -0.07995316 -0.22768033 0.13717845 0.02170169 -0.07670483 0.0062170424 -0.038185846 -0.4635684 0.19998075 -0.19702624 0.086752474 -0.10490049 0.36830682 -0.5223365 0.22267076 0.24088927 0.08179954 0.19894052 -0.31628707 0.047510218 0.020721445 -0.09790279 -0.3119544 -0.20744343 -0.2626837 0.32668865 0.1302985 -0.08299012 -0.35236287 0.21663566 0.02306897 -0.4508592 0.23560596 -0.29416585 0.10615703 -0.18408042 0.090271644 0.43526655 -0.1492877 -0.055203363 0.023689881 0.24271208 -0.45710757 -0.11871544 0.20715848 0.14962828 0.20738673 0.109391876 0.136415 0.47876948 0.5804321 -0.3110734 -0.037050042 -0.10899052 0.2781367 -0.2502544 -0.46306762 -0.68674195 0.054606844
5628 0.012739385 -0.27217537 -0.175507 0.4115247 0.32489118 -0.4510104 0.33168858 -0.12778062 0.17148632 0.31686452 0.4419893 -0.074296914 0.43411893 -0.2054898 0.45864013 0.3985771 -0.03761637 -0.024235107 -0.26375827 0.39836293 0.49060744 -0.33029768 -0.4216413 -0.36233923 0.0018174195 -0.3711616 0.46061373 0.4470854 0.11640491 0.0029406904 0.38804233 0.2810261 0.102984644 -0.24579869 0.14292161 0.54616195 0.26959383 -0.38226706 -0.037111815 -0.284125 -0.0034970657 0.35641322 -0.33849692 0.08856014 0.2340219 -0.101586685 -0.11326133 0.08373422 -0.013310584 -0.015341996 0.2509604 0.17156899 0.005910472 -0.15567237 -0.25968793 -0.119824536 0.20598796 0.41700372 -0.3741421 -0.27396604 -0.3077624 -0.06565121 0.33245635 -0.33490497 0.53016543 -0.43846858 -0.19545822 0.0015337819 0.008072939 -0.28241003 0.056658026 0.0048169293 -0.20672551 -0.13489123 -0.005251161 -0.4438503 -0.060495734 -0.16399938 -0.18138526 0.22033441 -0.4574607 -0.019471398 0.15326355 0.3745938 0.17292334 -0.027851468 0.2614061 -0.48194125 -0.034058724 0.17050326 -0.073975466 -0.21348242 -0.050529607 -0.16345213 0.4249406 0.03974993 0.47504717 -0.10429685 -0.041326392 0.13651477 0.08394536 -0.038118817 -0.17873955 -0.234361 0.015190873 -0.08811741 -0.5678656 0.18715955 -0.011268381 0.23893318 0.41405237 -0.26043582 -0.60074675 -0.22820413 -0.45258033 -0.063854605 0.13790174 0.18125388 -0.3187868 -0.4303933 0.20167096 0.06697463 -0.3027379 0.14792836 -0.29568684 -0.0010048309 -0.3191026 0.15842351
7399 0.11207521 0.028981475 -0.0285521 -0.015246644 0.027784137 -0.10840725 0.074150555 -0.124750175 -0.16624907 -0.03274166 -0.03536142 -0.41887128 -0.104473196 -0.14447644 0.06338256 0.30582926 -0.19298853 -0.27049753 -0.15507779 0.29496217 0.33200315 0.42137656 -0.04511645 -0.43326232 -0.046973947 -0.021242065 -0.4641868 -0.04155543 -0.21838622 0.27144346 0.33263057 -0.16268955 0.059150137 -0.085123375 -0.12974952 0.13512161 0.20352714 0.43660823 0.27621233 -0.06889693 -0.20408276 -0.2969115 -0.062219035 -0.088338226 0.19087908 -0.0065448424 -0.063105054 -0.11967525 -0.01643127 0.15388565 0.014004351 -0.18463063 -0.0908928 0.13740651 -0.4648612 -0.20235384 0.5930907 -0.17090556 -0.67537796 -0.21350598 -0.0419725 -0.07067707 0.39851636 -0.24118045 0.29843608 -0.26684245 -0.17265598 -0.46412826 0.04933252 0.33928832 -0.16209571 -0.0056324108 -0.39580756 -0.11247909 -0.05937484 -0.2334073 -0.41958454 0.32226366 -0.30228466 0.49691972 0.110543616 0.37556827 -0.20781812 0.5763626 0.32350132 0.4975337 0.33407682 0.19339724 0.3641955 0.5339097 0.15593478 -0.15602502 -0.17453729 -0.39981237 0.1826768 0.22585113 -0.0590453 -0.11153077 -0.06235083 -0.12127201 -0.5190685 0.43977243 -0.49975136 0.25088707 0.1150236 0.47068992 -0.03356301 -0.12342044 -0.21688834 -0.14926061 0.4863458 -0.13132562 0.088154376 0.35141778 -0.120710045 -0.24412599 0.23755515 -0.41450477 -0.014610024 -0.056598328 -0.65838003 -0.067487784 -0.35386854 0.06420091 -0.12064359 -0.27535716 -0.66475105 0.3938135
6774 -0.014920843 -0.055608407 0.111144036 0.0053722165 -0.07213378 -0.2374839 0.12633948 -0.13427623 -0.28699887 0.25377956 -0.1810856 -0.5069286 -0.3723436 -0.44919118 0.23858939 0.18298922 -0.46366674 -0.04205351 -0.06348414 0.22499624 0.38193336 0.74123615 -0.124119624 -0.52195275 -0.20085642 -0.18133569 -0.08561226 0.004876008 -0.13271126 0.4616629 0.45714334 -0.25547805 0.06609854 -0.0410126 -0.09779965 0.11786858 0.1988527 0.24387266 0.16239575 0.023235718 0.10602289 -0.44704008 -0.35378417 -0.0011157729 0.25413394 0.18697897 -0.38401526 -0.3547035 -0.18024066 0.0069672368 0.010435622 0.32047826 0.19633041 -0.13775209 -0.39295715 -0.17671886 0.07887354 0.019310793 -0.44754422 -0.10251002 -0.035664387 0.072856404 0.655726 -0.35718143 0.32116437 -0.13528974 -0.057357658 -0.4512264 0.066911094 0.26420537 -0.5018294 -0.11567545 -0.06843852 0.14639434 -0.022858644 0.08292695 -0.085639216 0.4068633 0.05467244 0.30395243 -0.11482291 0.25725698 -0.210867 0.45890677 0.50358063 0.14830016 0.1763632 0.21283159 0.10402073 0.29506123 0.037697237 0.18110587 -0.32611465 -0.32584196 0.38983873 0.10276921 0.05210722 -0.20070162 0.046439618 -0.34675568 -0.47007528 0.57697403 -0.29941824 0.23068164 -0.17278104 0.64143836 0.015398631 -0.055024985 -0.3653157 0.24278621 0.41000697 0.16809799 -0.20257749 0.53573596 -0.2094564 -0.34311888 -0.12482225 -0.48219553 0.29754564 0.09134237 -0.5585155 0.30936703 -0.28863636 -0.023550212 -0.20960233 -0.095771424 -0.48417518 0.6510694
7054 0.5607626 -0.28728917 -0.30365163 -0.011952466 0.13555725 0.054692242 0.18698101 -0.074033394 0.08490121 0.43816102 -0.009741078 0.07199808 0.12506641 -0.51452774 0.5431262 0.37292543 -0.15317675 -0.24691351 -0.22583683 0.5150575 -0.050100215 -0.33319104 -0.12975357 -0.59627175 -0.5304121 -0.1534546 -0.18312033 -0.09352719 -0.0057010036 -0.0941534 0.37298352 0.0013712602 -0.32352555 -0.06415371 -0.3378179 0.07407679 0.4051411 -0.26209757 -0.046493147 0.1236164 -0.5110804 -0.14748444 -0.54023963 -0.029016485 0.26437703 0.011787541 -0.6202697 -0.21941504 0.0506244 0.1937366 0.11818058 0.20759188 0.02442293 -0.21880934 -0.29266897 0.025893655 0.4309749 0.11417437 0.019090056 -0.053164326 -0.07678243 0.10394502 -0.07491796 -0.10233422 0.22959913 -0.31665394 0.22479498 -0.115541935 -0.23875044 -0.6954366 0.2702247 -0.21586937 -0.5900249 -0.1940755 0.15480259 -0.17201647 -0.313864 -0.25505015 0.027001003 0.21803346 0.17636156 -0.10359399 0.2226211 0.27169454 0.46773332 0.18244429 0.18535782 -0.62698925 -0.2724744 0.04079114 -0.39657187 0.020809079 0.2734129 -0.1358922 0.14889114 0.3544532 0.29647535 -0.16889739 -0.10513609 -0.16961525 0.0014824822 0.003961677 -0.29956013 0.0745797 0.12821929 0.21459247 -0.016502464 -0.049139608 0.5457776 -0.1155805 0.30814737 0.007035941 0.19365959 0.13287495 0.086000174 0.20582736 0.034880977 0.1243897 -0.06809546 0.09307088 0.12048337 -0.33623418 -0.19735053 0.01730694 -0.16884024 0.09703075 -0.13464539 -0.0013800715
7195 -0.21797484 -0.31165215 -0.033748657 0.30083203 0.13030784 -0.3244919 -0.48408738 -0.31827664 -0.0421132 0.05276323 -0.20415144 -0.28106785 -0.33142063 -0.31859294 0.26309097 0.42235172 -0.41538975 -0.11839107 0.07468108 0.2965421 -0.0006745059 0.45015362 -0.40028515 -0.47173485 -0.53438526 0.14825414 -0.2410679 0.10109368 -0.07244452 -0.1239032 0.085308 -0.1938384 0.027205868 -0.13086115 0.18515438 0.049726643 0.438228 0.42636272 0.39116794 0.2327461 0.011181628 -0.31334049 -0.12901877 -0.17031698 0.34131646 0.18932137 -0.2738847 -0.50624055 0.41415584 0.09006597 -0.22960515 0.16606945 0.112687446 -0.042069323 -0.34749353 -0.047423124 0.20006351 0.0028956484 -0.8980449 -0.2711106 0.24213605 -0.1724731 0.7477193 -0.09051024 0.2246543 0.24338774 -0.014048759 -0.25818074 0.19249745 -0.010645271 -0.16249079 -0.29442248 -0.56840235 -0.21367441 0.05830936 0.01110255 -0.5054737 0.15097831 -0.31672305 0.07227805 -0.008784302 0.28957307 0.026954804 0.5971872 0.0070262 0.06956729 0.4062247 0.0661586 0.45040226 0.5125854 0.4096248 -0.42188638 -0.14169537 -0.47760898 0.22348186 -0.016294403 0.028788343 -0.03096746 0.022666875 -0.23013613 -0.3037399 0.13896063 -0.21342781 0.2907847 0.14596544 0.44421026 0.20358026 -0.22283538 0.023013858 0.018137772 0.37523323 -0.09897133 0.24708098 0.25383815 -0.21532421 -0.048552282 -0.08187638 -0.3987949 0.09473585 0.17578778 -0.582412 0.28943756 -0.13406861 -0.11139108 -0.51107836 -0.263535 -0.6965816 -0.09403248
7448 0.12550306 -0.61052305 0.45546657 0.25217083 0.08712901 -0.24121967 0.027351541 -0.13838075 -0.06532547 0.5237769 -0.47748956 -0.4445883 -0.06399932 -0.5486429 0.3054701 0.36801055 -0.3806762 -0.017299877 0.03731207 0.18636012 0.10435166 0.51704407 -0.15075982 -0.62288207 -0.30902535 -0.011319445 -0.29239938 0.13466085 -0.35328814 0.39473376 0.17983183 -0.1954276 0.29070953 0.3190747 -0.16551825 0.2077767 0.56120193 0.3340953 0.4131836 -0.019165471 -0.3812467 -0.049102664 -0.014351519 -0.2878553 0.21189228 0.36954656 -0.27677208 -0.031736836 0.18838197 0.0026526966 -0.045375008 -0.077088416 -0.018210355 0.18936469 -0.23860763 -0.4701694 0.31336376 0.0737271 -0.512687 -0.3178607 0.13873443 0.01647394 0.20541 -0.11560695 0.2292469 -0.015859656 0.22282098 -0.42158082 0.13790256 0.4445361 -0.065556064 -0.010212578 -0.29709914 -0.07062525 -0.060283855 0.19950275 -0.37608504 0.01212011 -0.036660284 0.257324 -0.005439867 0.18530665 -0.130021 0.6732828 -0.16917549 0.13375235 0.37945193 0.12287957 0.107842565 0.35004342 0.19967242 -0.2392049 -0.20540133 -0.51558375 0.11648266 -0.14620678 0.0096475715 -0.05390739 -0.0011818715 -0.10939479 -0.18186234 0.5486388 -0.08274946 0.26953945 -0.037869506 0.22860764 -0.313943 0.010612542 0.08672497 0.093273014 0.32290643 -0.049159367 0.17843053 0.057356697 -0.086243495 -0.24222001 -0.00301027 -0.34139052 0.12822121 -0.014173579 -0.70403296 0.032958966 -0.112346604 0.19496572 -0.32009104 -0.32211414 -0.6036687 0.17127353
7416 0.46315408 -0.29979345 -0.27087307 0.0054415213 0.13306686 0.13186264 0.11637492 0.0006421576 -0.0060411133 0.1318509 0.014022945 0.066627316 0.29982176 -0.51160717 0.60956 0.43250987 -0.13801071 -0.04074147 -0.11949434 0.4914261 0.043317582 -0.48517677 -0.22945397 -0.49912515 -0.20953979 -0.08134149 -0.07386382 0.17882286 0.1570689 -0.24022171 0.094427526 -0.01150479 0.005522896 -0.16662975 -0.33650452 0.27612987 0.30778575 -0.27445537 -0.22935851 -0.073690504 -0.37785178 -0.05670659 -0.2641782 -0.069861405 0.19176307 -0.0590993 -0.44250727 -0.31307375 0.24586092 -0.107259884 0.09014572 0.17400302 0.18263051 -0.41682115 -0.10228991 0.15039909 0.37214074 0.23808838 -0.14918067 0.036524795 0.003472448 0.057239614 0.04243788 -0.08384279 0.003785917 -0.1691507 0.38012654 -0.046416033 -0.4048439 -0.6978874 0.36359176 -0.12542443 -0.6676015 -0.3331424 0.22529176 -0.27617174 -0.22404355 -0.28719658 0.036476567 0.1186973 -0.011939273 -0.20183545 0.34758356 0.23527834 0.61373395 0.28097543 0.11590858 -0.6008962 -0.1651428 0.05923118 -0.2803547 0.11967673 0.4191494 0.004647296 0.12038833 0.31933242 0.32861438 -0.10133462 -0.22139078 -0.11804579 -0.21648063 0.059040576 -0.39585632 0.06771717 0.4027325 0.1365888 -0.22168441 0.04218217 0.64796406 -0.11656623 0.5380802 0.10601077 0.30895507 0.32079858 -0.047281656 0.23457152 -0.13713099 0.2715451 -0.16890478 0.017226974 -0.041423403 -0.3258469 -0.19794104 -0.07495837 -0.048221797 -0.026023038 -0.13375188 -0.00403566
6147 -0.13360658 -0.40727133 0.14140405 -0.2361849 0.5976358 -0.16657658 -0.0048653833 0.203149 0.11033352 0.45408174 0.45102245 -0.0040000887 0.24142717 -0.41465637 0.21212086 0.25874972 0.33193436 0.2142695 -0.29492986 0.7114461 0.22290729 -0.45004314 -0.12432105 -0.27478355 -0.10658579 -0.39774284 0.26873383 0.33564925 0.1419074 0.27600437 0.08801473 0.16160475 -0.08935548 -0.19842686 -0.0738696 0.49882987 0.33601826 -0.2867783 -0.27388382 -0.0640029 -0.031534612 -0.05893133 -0.11781886 0.0033176164 -0.078425355 0.030413233 -0.22581547 -0.05558804 -0.079881616 0.0008045689 0.3004607 0.21260965 -0.21616477 -0.26388377 -0.19081657 0.16876917 0.075501315 0.12988742 -0.2381932 -0.061648335 -0.07871263 0.09681619 -0.0666542 -0.35644624 0.77402776 -0.4684953 -0.13384841 -0.4530367 -0.017124344 0.087745026 0.2762953 0.14402413 -0.12644522 -0.22098666 -0.0017612898 -0.39153618 -0.09936244 -0.08851765 -0.18282464 0.7171332 -0.8511641 -0.11237597 0.1904243 0.50634307 0.026998373 0.06442352 0.015669527 -0.24323139 0.04937506 -0.081124544 -0.4388075 0.029063325 -0.07917114 -0.086137 0.6076413 0.41382253 0.5151456 -0.20878829 0.051259197 0.1065671 -0.037638333 0.24817039 -0.030023232 -0.1336497 -0.21817566 0.22756885 -0.51250494 0.17373566 0.04470735 0.33421233 0.044973854 -0.21450683 0.034180593 -0.16041948 -0.3915073 -0.055638045 -0.075108424 0.38133737 -0.038862247 -0.21188685 0.29259413 -0.2129717 -0.30220833 0.01491913 -0.3260978 0.058425635 -0.09582939 0.16762611
5618 0.030126953 -0.146388 0.01768575 0.09058639 -0.14496562 0.0070538637 -0.16536343 -0.35956836 -0.062766224 -0.053630594 -0.013513979 -0.3625851 -0.11238952 -0.35678086 0.15674381 0.39826217 -0.15285961 -0.2767393 -0.0076005184 0.09179766 0.016824426 0.64123964 -0.30492806 -0.616175 0.12320441 0.19787012 -0.40999943 0.14137052 -0.18288432 0.19347294 0.30749658 -0.22045478 0.031819943 -0.12983902 0.058334664 -0.026056135 0.26046863 0.3464316 0.2840358 0.012916177 -0.26022214 -0.31058285 0.073626585 -0.29412073 0.58820224 -0.01589569 -0.36299717 -0.34668484 0.062336482 -0.03342674 0.10404242 -0.22932208 0.18045758 0.028144838 -0.16219914 0.060759094 0.42586765 -0.19489928 -0.45112658 0.11384558 0.26128387 0.007568434 0.27283862 -0.2156039 0.39075983 -0.12982164 -0.16567153 -0.24527852 0.07539171 0.1489721 -0.29069215 0.17960371 -0.28230253 -0.05822415 0.15098196 -0.14639361 -0.23651375 0.35338253 -0.15324344 0.23127331 -0.08110664 0.11654067 -0.03864443 0.58140147 0.25122613 0.4092593 0.23349446 0.22315897 0.21786885 0.087622955 0.26661703 -0.27539873 -0.18541396 -0.34927368 0.2804984 0.1816398 0.06662274 -0.16981854 -0.060653612 -0.10223287 -0.6454245 0.41781956 -0.23972042 0.4260786 -0.0235647 0.25827128 -0.2402068 -0.010325878 -0.110154875 0.15070724 0.6280129 0.05442182 0.1935605 0.4854759 -0.20305596 -0.015750173 0.20079526 -0.3969041 0.16120651 0.045372337 -0.86354566 0.27610624 -0.4207692 -0.05098058 -0.5941857 -0.46107247 -0.5071706 -0.07753009
6206 -0.24211778 0.12338582 -0.21603532 0.1799839 0.4841081 0.044353474 0.30642253 -0.26161215 -0.09995297 0.47602567 0.29934892 0.00034458196 0.5098213 -0.48606128 0.049420524 -0.03810617 0.2246485 0.21772474 0.18031952 0.55718756 0.20298542 -0.35123843 -0.0102618635 -0.20825632 0.06491021 -0.14931554 0.035916835 -0.03646033 0.06442329 0.07746984 0.20485003 -0.23276646 0.009220428 -0.02155816 -0.012884299 0.08950094 0.21970755 -0.08686355 -0.50694156 -0.105588935 0.10031784 -0.1264061 0.14969508 -0.19389196 0.25679 0.3740596 -0.24419476 -0.16772899 0.049010947 0.13492358 0.452479 0.52376294 0.08288273 0.043533817 -0.309797 0.33096462 -0.054807846 -0.12808396 -0.111592054 0.3842257 -0.38068143 0.13845107 0.32435432 -0.33360386 0.23721157 -0.68341917 0.29261273 -0.6256621 -0.2757896 -0.2939105 0.52512264 -0.12650281 -0.07498807 -0.33403364 0.076452665 0.39262152 -0.13265626 -0.018297916 -0.18076976 0.24292111 -0.32561648 0.11961555 -0.15006384 0.45520914 0.1108263 -0.27474672 0.22482193 -0.016735673 -0.19927569 -0.13596164 -0.5705394 0.09060223 0.08955775 -0.1849932 -0.09397931 0.14627026 0.19303316 -0.21463948 -0.030881355 -0.26759106 -0.65036446 0.3161525 0.02907023 0.15889245 0.1476314 0.32672864 0.089306325 -0.15352163 0.16089898 -0.03815147 0.24242122 0.4106616 0.12919134 -0.3103321 -0.41528663 -0.16717972 0.09140105 0.35160595 -0.32423216 0.027109211 -0.2910305 -0.39815503 -0.20365314 0.03862755 -0.30600008 -0.25204018 -0.10868467 -0.44624534
6150 -0.1925782 -0.08740211 0.050754588 0.18965806 0.2885805 -0.030205118 0.23262663 -0.09227097 0.30913466 0.009953665 0.51861656 0.08321804 0.53430456 -0.45199457 0.3121797 0.41936255 0.22156474 -0.255374 0.06656716 0.3180969 0.2933477 -0.5457198 -0.33094338 -0.16313647 -0.17237857 -0.33968532 0.0009620244 0.233701 0.14906192 -0.1154299 -0.024310023 0.09126027 0.09617028 -0.46750954 0.19986628 0.47669157 0.4197686 -0.2194511 -0.16143268 -0.35693753 0.26437488 0.26798534 -0.23235129 0.10315726 0.23829666 -0.12053451 -0.38551798 -0.006861246 0.09941095 -0.17692938 0.35265347 0.37373033 -0.4040337 -0.2740561 -0.28174862 0.016473731 0.26063552 0.46106142 -0.4102908 -0.14366587 -0.1953465 -0.04237467 0.1256288 -0.38034263 0.49659434 -0.28762397 -0.15831693 -0.20110744 -0.036280017 -0.15753289 -0.1707961 -0.10409748 -0.45739216 -0.14224629 -0.013383073 -0.24085191 0.30875745 -0.26792192 0.24716131 0.21353012 -0.55971855 -0.23409252 0.25270623 0.33775583 0.001106979 0.16137086 -0.058126558 -0.36080086 -0.022308398 -0.08235295 0.06430012 -0.0009408154 0.2210443 -0.1900708 0.0027914308 0.17230505 0.5045063 -0.111893475 -0.22527646 0.3292106 -0.1536253 0.20171441 -0.11483688 -0.1678018 0.07919298 -0.15219425 -0.48796734 0.0032775907 0.30900088 0.043717492 0.4878992 -0.40109596 -0.18376276 0.123686165 -0.29372156 -0.043276522 -0.09593657 0.33048874 0.11544602 -0.35714966 -0.035999276 -0.08693431 -0.27189007 0.10184676 -0.28657973 -0.14314562 -0.19172646 0.07171763
6242 0.42772132 -0.14968814 -0.19166452 -0.05435461 0.23687725 0.05473939 0.13675427 -0.055558477 -0.004217825 0.11080152 0.022955041 0.13243964 0.26115513 -0.48383617 0.7316091 0.49079195 -0.052659705 -0.257818 -0.16783318 0.073538855 0.01817388 -0.2860441 -0.051635753 -0.6047265 -0.43572047 -0.23696542 -0.14887425 0.12766264 0.11548046 -0.27080628 0.106426224 -0.20092988 -0.026772983 -0.2833273 -0.27643028 0.23001286 0.24415933 -0.26029503 -0.09015896 0.024535565 -0.2645457 -0.29287943 -0.2832246 0.085999176 0.20300907 -0.12141702 -0.5968739 -0.463639 0.14199558 0.02423852 0.2443483 0.23291786 -0.006939533 -0.26317653 -0.17904574 -0.13177519 0.27278182 0.077317245 -0.2859348 -0.0330195 -0.09604174 0.0924586 0.14913556 -0.01800769 0.070860244 -0.30848435 0.17448343 -0.18756807 -0.42639747 -0.4874736 0.22738591 -0.12632711 -0.49947494 -0.19667481 0.41654912 -0.22698861 -0.3126252 -0.39176524 0.111041635 0.0784553 -0.04952381 -0.10524029 0.32743156 0.32541215 0.39516178 0.11988947 0.21957679 -0.46960375 -0.26578444 -0.16005686 -0.3343499 0.14286894 0.3336205 -0.19450833 0.008496209 0.45555067 0.33908203 -0.21732067 -0.21323048 -0.08391831 -0.12883389 0.09607284 -0.20882617 -0.1387257 0.24125654 0.21000753 -0.15345943 0.13264553 0.4770324 -0.17125157 0.4108468 -0.1440481 0.33650026 0.20764846 0.11811289 0.171023 -0.166228 0.15390427 -0.06575065 0.07432798 0.09480797 -0.268666 -0.24986205 -0.08566957 -0.22989023 0.047689937 -0.12316514 0.032306157
1477 -0.032525443 -0.0857067 0.10188277 0.12351354 0.007845709 -0.028236967 -0.09119466 -0.06189199 -0.2779787 0.32005504 -0.0706449 -0.22898898 -0.37139827 -0.16398874 0.39705446 0.4284722 -0.26539794 -0.14267269 -0.06234871 0.48183665 0.08400441 0.46935472 -0.20505333 -0.7521454 -0.43682218 -0.019831028 -0.5300591 0.08397989 -0.2701402 0.44977108 0.069213994 -0.38516527 -0.09169757 0.10338305 0.16540311 0.26541707 0.29456675 0.489036 0.27654862 0.0634771 -0.06785716 -0.57960933 -0.06452064 -0.32947373 0.3886592 0.17163664 -0.3275168 -0.37369952 -0.033603802 0.2697212 0.022284914 0.14704622 0.09527968 0.06986061 -0.4403481 -0.3479726 0.24467215 -0.035415307 -0.583839 -0.17754288 -0.057067536 0.3331401 0.41822955 -0.37880048 0.23383197 -0.08599429 -0.26739517 -0.33807972 0.13446939 0.2483387 -0.046512883 0.09481231 -0.23312649 -0.28852853 0.24430244 0.13288994 -0.56532824 0.14305283 -0.17370307 0.5875205 -0.16669366 0.5329226 -0.14569226 0.4330085 0.20396715 0.25061986 0.21988827 -0.058164548 0.08043345 0.4896917 0.3952005 -0.15449499 0.09550275 -0.18591748 -0.27391106 -0.10269025 -0.2864048 -0.13526982 0.06650815 -0.49140403 -0.5694634 0.15354861 -0.32323083 0.20286964 0.42892322 0.3333643 0.014258116 -0.36779884 -0.08836493 -0.19952805 -0.013352613 -0.042080313 0.19903564 0.10223413 0.012881628 0.13077623 0.070366226 -0.15334713 0.11690131 0.15945335 -0.22122912 0.14123607 -0.43520084 -0.12169544 -0.17970835 -0.15865526 -0.48325258 0.30236688
5604 -0.09481953 -0.060181197 0.12540035 -0.065960795 0.30153477 -0.16712031 0.16667582 -0.18003932 -0.1119411 0.30045593 0.70226336 0.15678826 0.26836708 -0.15876286 0.44023097 0.2474008 0.32930705 -0.120178476 0.22646372 0.30281487 0.29350927 -0.29887494 -0.021910768 -0.4068263 -0.374742 -0.23859952 0.05813462 0.46233022 0.08024798 0.008487149 -0.07984577 -0.013137724 -0.018005766 -0.41522014 -0.08689453 0.4795405 0.33510384 -0.13053495 -0.36602455 -0.36942238 0.074162275 -0.1025219 0.03765403 -0.002961598 0.03209316 0.062329706 -0.20600447 -0.15980971 0.10829647 0.0375835 -0.047618244 0.22504888 -0.05883579 -0.20292643 0.10646125 -0.050915387 0.19039729 0.11013072 -0.29001358 -0.09080002 -0.28520644 -0.09785472 -0.14567976 -0.5533381 0.36410257 -0.5000704 0.011712905 -0.09047745 -0.1359092 -0.09985542 0.16288228 0.13142474 -0.28035372 -0.20621687 -0.011960242 -0.39916384 -0.23938517 -0.028886875 -0.1809093 0.46138027 -0.7642566 -0.03568678 -0.05933701 0.19431104 0.09457249 0.21680805 -0.034341294 -0.43396333 -0.022572964 -0.032664612 -0.65216273 0.12615322 0.22756532 0.2188782 0.255777 0.27517506 0.49725446 -0.05397755 0.06831025 0.14266703 0.006439143 0.16732532 0.14035116 -0.17703803 -0.24440321 0.034080047 -0.27793655 0.29654396 0.16905221 0.077540316 0.08349137 -0.23955621 -0.11402512 0.15695679 -0.19388758 0.0489176 0.0012107088 0.4923523 -0.15861191 -0.26932645 0.21006233 0.08226183 -0.30398053 0.051400933 -0.17447357 -0.021280643 -0.44511333 0.1312839
6739 0.08794891 0.028093493 -0.1917872 0.14426403 0.49669537 -0.22918083 -0.004220945 -0.13043709 0.08165961 0.23393537 0.46384996 -0.0862237 0.5602316 -0.31812018 0.36801535 -0.25476545 -0.022847058 -0.030563368 0.04752573 0.40329707 0.3401008 -0.33188513 -0.17504236 -0.11703221 0.20486963 -0.31904683 0.21886633 0.42488313 0.48106688 0.17485192 -0.21047835 -0.049676605 0.12121304 -0.07754635 -0.35329506 0.3638777 0.050785147 -0.25639758 -0.16395989 -0.19038303 -0.0979588 0.48944306 -0.21585992 0.0070098937 0.13862298 -0.045744542 -0.2707996 -0.40129092 -0.010369194 -0.09039084 0.37787578 0.34209692 -0.21992064 -0.47272992 -0.019865137 0.12522084 0.0124809565 0.4735043 -0.34533107 0.023068173 0.18356058 0.0029720725 0.1284348 -0.4991885 0.33449715 -0.26857993 0.36190078 -0.37526512 -0.2203525 -0.25417656 0.31355903 -0.17799993 -0.26186407 -0.039874017 -0.06676497 -0.29806626 -0.015665164 -0.062440418 0.015704092 0.39814764 -0.4848069 -0.043514866 0.20908488 0.1565053 0.022267083 -0.2324479 0.084224544 -0.18238458 0.03887627 -0.13689291 -0.4058508 -0.02671361 0.15031673 -0.030446347 0.2529663 0.14336815 0.120310925 -0.217172 -0.11950536 -0.022161866 -0.051965106 0.20296885 0.30994043 -0.15588185 -0.04205867 0.1341058 -0.45949316 0.06656246 0.20156015 0.4444996 0.20334883 0.243281 -0.19613248 -0.18519598 -0.26342094 -0.08023471 0.02934097 0.34129667 -0.37910917 -0.26746327 -0.2039202 -0.027562013 -0.4607028 -0.21398339 -0.14886712 -0.14430182 -0.39777556 -0.0013740615
6509 -0.020403955 -0.59026474 -0.016966373 0.45060718 0.10254684 -0.2213048 -0.12201882 -0.24725138 -0.23866571 0.026211377 -0.13456918 -0.3809247 -0.12099849 -0.1972918 0.35566226 0.2729733 -0.14266847 0.1880653 0.12108498 0.23726736 0.1323801 0.5593468 -0.44853136 -0.26060936 -0.19820777 0.10641375 -0.09392574 0.0400794 -0.45219553 0.45905554 0.119958065 0.0095532155 -0.019062202 0.05904508 0.0925434 0.2566719 0.1348341 0.08273894 0.13824266 -0.09221242 0.041644502 -0.09391637 -0.18621755 -0.26874986 0.35054684 0.04318687 -0.18539558 -0.375046 -0.119072035 -0.09830837 -0.1364059 0.008592509 0.3473392 -0.15416107 -0.11070864 -0.396111 0.28652948 -0.25003925 -0.67256504 -0.06483084 0.10363213 -0.26765043 0.2306313 -0.18274526 0.5472136 -0.0458158 -0.0020431734 0.13588582 0.25080365 0.032167252 -0.48680583 -0.18051393 -0.22182167 -0.1035445 -0.11556933 -0.07626384 -0.46466216 0.28513217 -0.13955297 0.30768123 -0.1898157 0.119760096 -0.15530875 0.7566642 0.19345133 0.3787242 0.23763934 -0.025220491 0.30758128 0.24759409 0.42784032 -0.367073 -0.28782392 -0.23866174 0.08645593 0.4028487 -0.12458512 -0.46832043 0.03384772 -0.022137903 -0.45678404 0.26160568 -0.005252265 0.55814976 -0.19695304 0.44689202 0.19645104 -0.18173279 0.19055171 -0.12955953 0.061978478 -0.1634344 0.056845672 0.40195283 -0.47615552 -0.35441908 0.14484996 -0.34874722 -0.055948317 0.190805 -0.85087794 0.010294444 -0.2858418 0.08904056 -0.42083883 -0.19055063 -0.6882853 0.32144156
5127 0.016534943 -0.17762 0.32872805 0.08622143 0.20246509 0.12393548 0.13185681 -0.023965143 -0.2679987 0.4291317 -0.1658812 -0.3911346 -0.33364987 -0.107692175 0.5900102 0.24749912 -0.4280489 -0.022028072 0.042052448 0.3504671 0.18019626 0.42931122 -0.41403794 -0.21739519 -0.5280982 -0.10947643 -0.4040224 0.06556268 -0.20134021 -0.29044858 -0.090048194 0.040396888 0.5861191 0.15232974 -0.47658992 -0.030919878 0.43884298 0.12910727 0.16568361 0.19978946 -0.009341692 0.018265344 0.13308144 -0.16526714 0.30474314 0.054379016 -0.20595461 -0.3589337 -0.15941267 -0.33956006 0.424905 0.043946143 0.15100001 0.20294572 0.36429808 0.0017884481 0.30198193 -0.45791805 -0.79126054 0.17296448 -0.16756026 0.053058155 0.64107645 0.0016687287 0.34570017 -0.09248752 0.2612255 -0.2781289 -0.22844256 -0.2927014 -0.19852091 -0.04949777 -0.60712457 -0.12355853 0.09720897 -0.018355386 -0.1754191 -0.027989138 -0.07811236 -0.043122217 -0.100340664 -0.004576319 -0.26993984 0.026360728 0.41063413 -0.13296217 0.07794916 -0.38708574 0.25389442 0.03425194 0.06839644 -0.32536423 -0.28204748 -0.25332317 0.05514555 0.032051723 -0.23758788 -0.38681647 0.23094624 -0.0026314654 -0.1850576 0.14615814 -0.31554785 0.12996066 -0.25360447 -0.12330931 0.28471723 0.13168864 -0.12990335 0.015905531 0.4220974 -0.25929967 0.31096855 0.33724052 0.11241777 0.10571565 -0.23062578 -0.10561639 -0.084519714 0.14279495 -0.36308363 -0.26550743 -0.03802726 0.021981357 -0.18354018 -0.14362402 -0.4035283 -0.2607074
5056 0.37340635 -0.0014604176 -0.21388711 0.16555232 0.12333059 -0.29306698 0.27006686 -0.18291524 0.10964055 0.3763441 0.17647852 -0.00991643 0.17276496 -0.38169977 0.523713 0.4441829 -0.18598725 -0.15428685 -0.3361674 0.3692172 0.026467027 -0.06307293 0.08307691 -0.55440366 -0.21222189 -0.17155622 -0.22364481 0.045779694 0.09573886 0.008058877 0.2530408 -0.022185288 -0.09712841 -0.019213438 -0.177051 0.13024813 0.112822786 -0.13005519 0.037983917 0.21640766 -0.053725615 -0.3470299 -0.2418514 0.07406722 0.32060668 0.010121665 -0.45229793 -0.09248008 -0.09828755 0.26416907 0.023155367 0.011328333 -0.097128324 -0.37417537 -0.31834418 -0.00024865408 0.08661531 0.04647144 0.01976173 0.10642294 -0.09991943 0.048341572 0.01711417 -0.07703027 0.15191162 -0.21024503 0.03668796 -0.19426194 -0.2812438 -0.55053365 0.21615404 -0.29089454 -0.44686073 -0.11759999 0.4941483 -0.33800265 -0.19614828 -0.42055765 0.1385656 0.5136029 -0.21818645 -0.22203638 0.38400578 0.1058999 0.56606406 0.15152223 0.012760011 -0.47635236 -0.1899045 0.436788 -0.2609939 0.3744765 0.40465087 -0.16432919 0.011331361 0.20328464 0.3531721 -0.35676482 -0.24637628 -0.16543426 -0.17567411 0.07456125 -0.3934258 -0.010607933 -0.013834088 0.09437746 -0.16944785 -0.023128964 0.72340375 0.10801885 0.25293306 -0.021578567 0.33543372 0.380288 -0.17101027 0.13859808 -0.02298689 0.26916343 -0.19820674 -0.09467831 0.12960315 -0.20932052 -0.35298285 0.27129522 -0.2430565 0.39333847 -0.36685786 0.01952496
6662 -0.46688774 -0.09198652 0.055579107 0.112316385 0.57543343 -0.20837481 -0.104011856 0.038854253 -0.15172218 0.11360886 0.6666019 0.019721856 0.335007 -0.3017229 0.19503355 0.27724418 0.15196522 0.27658904 0.045222703 0.3282253 0.35231936 -0.4326309 -0.08543376 -0.086549744 0.11716549 -0.5059297 0.09873199 0.23873828 0.0017697545 -0.16358493 0.2852027 -0.107402824 0.15138112 -0.23741114 -0.22415262 0.035168495 0.36237398 -0.056851815 -0.30516386 -0.27231187 0.17894202 0.004932116 0.12166258 -0.0751551 -0.3649344 -0.032126497 -0.20478953 -0.13500854 -0.062479503 0.10894085 -0.03099385 0.36006767 -0.088577814 0.0084402375 -0.15819092 0.109451525 -0.065000035 0.12532681 -0.23442006 -0.07678815 0.20696907 0.09599581 -0.07346317 -0.26825476 0.1288178 -0.41395697 0.473314 -0.33299696 -0.008327899 -0.40595677 0.12704876 0.004480112 -0.36495838 -0.29224995 -0.34232917 -0.2760648 0.022622585 -0.015592149 -0.08653194 0.5774024 -0.3546835 0.015451245 0.32706207 0.49987674 0.091455236 -0.028022807 0.08860047 -0.24115251 -0.18312047 -0.25597024 -0.12173814 0.10883323 0.0063858815 -0.122652695 0.24197568 0.04535393 0.32331562 -0.3182243 -0.058983035 0.27791643 -0.34654984 0.27351242 -0.1502892 -0.25357014 -0.11140276 0.19900121 -0.23026043 0.3104701 0.041410033 0.047107115 0.44993338 -0.24513902 -0.44504878 -0.26580822 -0.55554986 -0.47228232 0.13040954 0.46704906 -0.17377886 0.06682637 -0.07874888 -0.046318784 -0.3665087 -0.109647736 -0.21755013 -0.024672383 -0.18021303 0.035646953
6861 0.18079333 -0.1293002 -0.026486924 0.3476658 -0.05559123 -0.09737289 -0.12681457 0.030675134 -0.10490829 0.010710586 -0.45466277 -0.048708152 -0.10620107 -0.1769587 0.113939166 0.40785927 -0.35739493 -0.07930859 -0.1213361 0.45788547 -0.095666714 0.26319584 -0.16632526 -0.59676343 -0.20690477 0.034940165 -0.27492523 0.22670649 -0.30745828 0.23546003 0.3657586 0.07046992 0.13701063 0.21831492 -0.11110689 0.3049944 0.08857748 0.31690145 0.2493791 0.3142755 -0.028092505 -0.3171891 -0.07086418 -0.22710456 0.56423426 0.22778824 -0.51648504 -0.36575815 -0.20463838 -0.13654645 -0.09914473 0.20778969 0.50414914 3.1610645e-05 0.008831984 -0.27656075 0.56397265 -0.055854324 -0.53768 -0.08653945 -0.048942193 0.24364518 0.3669561 0.08659321 0.40222842 0.120563865 -0.06516464 -0.4639344 -0.108091146 0.42968017 -0.01132921 0.018514559 -0.06520403 0.06781102 0.43294498 0.03457792 -0.6008155 -0.18571804 -0.2158717 0.31887555 -0.028877025 0.0056027863 0.14068316 0.80065525 0.14253075 0.31892166 0.51392704 0.42079288 0.3851893 0.547308 0.34595552 0.074931815 -0.06495326 -0.22082663 0.112108365 0.15948136 -0.106620565 0.020785661 -0.12152639 -0.11481101 -0.56394166 0.3113484 -0.27406192 -0.09401951 0.17300676 0.33175084 0.36972237 -0.15002099 0.04622307 0.1036707 0.21157396 -0.08108347 0.18165834 0.3076334 -0.027001573 -0.04469591 0.07722885 -0.1980105 -0.03849665 0.055739585 -0.4810319 -0.24708307 -0.20391114 0.3143063 -0.5118378 -0.27394995 -0.6005118 -0.16394025
6854 0.027210692 -0.083429664 0.09139548 0.19812833 -0.00084331416 -0.0873771 0.13479666 0.21837881 -0.2441207 0.32570663 -0.09265347 -0.2037756 -0.013830423 -0.36192113 0.3961994 0.2527205 -0.4330433 0.12510087 -0.055999994 0.13448037 0.15626012 0.99587685 -0.060916424 -0.80093694 -0.099447876 0.008884236 -0.422842 -0.066320114 -0.3178932 0.26771104 0.37144268 -0.05299842 0.17109512 0.24345064 0.30910698 0.12359552 0.44717938 0.12916885 -0.10540483 -0.15737802 -0.25402695 0.010022952 -0.17855234 -0.34313133 0.27026284 0.05907179 -0.40014148 -0.14688082 0.101397954 -0.10852538 0.22337809 -0.03618724 -0.0019167627 0.030496536 -0.31154028 -0.22175375 0.38158217 -0.041541684 -0.2535645 -0.43029666 -0.08663586 -0.00840014 0.39551088 -0.22546479 0.43322617 -0.011621086 -0.011265789 -0.2517156 0.14535537 0.09792482 -0.17151225 -0.33822194 -0.22564283 -0.020554012 0.06290767 0.16727479 -0.3048757 0.24781358 -0.085509166 0.16303094 -0.2110347 0.41192043 0.2787758 0.3272874 0.03902733 0.3027465 0.41155934 0.38319045 0.15495315 0.38411984 0.25498426 -0.3734021 -0.21509893 -0.15687065 0.21818414 0.28014535 0.16834803 -0.29612252 0.25010294 -0.20821804 -0.645727 0.28589016 -0.11083213 0.41406423 -0.015723834 0.6292998 0.26912838 -0.06632965 -0.119241275 -0.13530852 0.076980904 0.2352387 -0.26028705 0.5412877 0.049946938 -0.5197294 0.34996283 -0.23734418 0.34963647 0.046609107 -0.45938447 0.17954497 -0.43426102 0.054078735 -0.063048005 -0.20995066 -0.55281204 0.47500005
6772 0.5409183 -0.22665818 -0.22898465 -0.019984 0.0076512108 -0.06438618 0.06386078 -0.027426628 -0.25732675 0.40073386 -0.026653057 0.122786306 0.14572613 -0.5712879 0.8164055 0.642647 -0.24893555 -0.15054446 -0.2638592 0.46766493 0.15795961 -0.19763687 -0.17673527 -0.7471388 -0.3759436 -0.27083525 -0.09274628 0.14070542 0.11267301 -0.22937675 0.27925095 -0.025912967 -0.02909274 -0.0860792 -0.25906816 0.35722357 0.35461816 -0.070262715 0.00343402 0.24750832 -0.18842128 -0.34003824 -0.27615312 -0.07131321 0.1478934 0.17834304 -0.6193214 -0.35113144 -0.009043785 -0.04789839 0.09675024 0.22355717 0.07803141 -0.24305312 -0.009313208 0.00022188389 0.13842401 0.22344749 -0.15763247 -0.03717604 -0.17119114 0.168964 -0.099372454 0.047631178 0.14799142 -0.15092033 0.18972671 0.08049868 -0.36057344 -0.4708743 0.17561522 -0.2892994 -0.39995074 -0.17857495 0.49896768 -0.15025719 -0.17756489 -0.2597972 0.21958713 0.24163686 0.05015277 -0.24809706 0.46772242 0.26202655 0.3431219 0.09823083 0.06733194 -0.16380626 -0.06547919 0.06724947 -0.42045286 0.15180615 0.30856657 0.0057713166 -0.0706738 0.07870373 0.27902848 -0.02570179 -0.123354904 0.15973774 -0.26073346 0.07545256 -0.29321614 0.07939784 0.15019676 0.15363395 -0.08908153 0.09301852 0.43093744 0.073070824 0.16066176 -0.14244619 0.20977944 0.21712928 0.011980858 0.07208018 0.03205052 0.23912239 -0.0007222395 0.13391142 0.054359272 -0.2521435 -0.2587624 0.08968735 -0.21315354 0.1105406 -0.13455452 -0.16822271
5894 -0.008099262 -0.43107843 0.3682873 0.2217249 0.16690788 -0.11636223 0.022079224 -0.12684818 -0.07536397 0.27808064 -0.18982096 -0.20293085 -0.06883507 -0.46066082 0.21979296 0.5454462 -0.11930836 -0.35405394 0.06733352 0.34456706 0.121228084 0.78175384 -0.1766564 -0.7786851 -0.22811185 -0.033774137 -0.36685184 0.28866118 -0.22568037 0.12405467 0.34608477 -0.12140135 0.3895395 0.023320613 0.24923159 0.29168752 0.22060435 0.14265038 -0.024096977 0.46368775 -0.39183164 -0.36135828 -0.37287632 -0.33825782 0.61849415 0.27447948 -0.4013657 -0.26860258 0.1081721 0.050433304 -0.12127623 0.17068268 0.188996 -0.112479836 -0.29504162 -0.49459204 0.28586394 -0.20649989 -0.48769462 -0.2592768 -0.11857781 -0.14070135 0.3913446 -0.27582204 0.5255105 0.10526454 -0.19023803 -0.19733606 0.04445051 0.30835587 0.04625784 -0.28371876 -0.31011283 -0.05845863 0.04597059 0.2791299 -0.32947865 0.21803121 -0.21123607 0.54023254 -0.20167474 0.20825788 0.054749683 0.34665582 0.43948478 -0.051227782 0.08938466 0.1877981 0.070707485 0.68522835 0.36086777 -0.13213602 -0.08149331 -0.10688155 0.33038557 0.0984251 -0.35847703 -0.22783397 0.092991166 -0.28023082 -0.35347667 0.29976204 -0.3104459 0.08555671 0.1355817 0.30040708 0.2088069 -0.025720289 0.2293567 0.19196074 -0.1770839 0.045713082 0.16361396 0.49168685 -0.21889564 -0.09444565 -0.17832382 -0.3828944 0.118774295 0.16695571 -0.59735894 0.17596222 -0.35759616 0.20541674 -0.30666372 0.013952921 -0.41606972 0.32231563
5454 0.46331865 -0.1266408 -0.21118522 -0.084560156 0.089455284 -0.15250993 0.059535272 0.027104838 0.09188429 0.13064133 0.048790067 0.124093 0.1494021 -0.488839 0.51582587 0.4792863 -0.12835416 -0.23182076 -0.35831 0.32337418 0.19151874 -0.24556771 -0.12796651 -0.66706383 -0.40405357 -0.15141173 -0.2644672 0.1518972 0.13445912 -0.079413705 0.21486126 0.070815355 0.10295548 -0.12344159 -0.29572698 0.2404601 0.2859746 -0.13367027 -0.086086325 -0.11562283 -0.3168338 -0.11868896 -0.33880228 -0.046107206 0.23178996 -0.10278455 -0.52118534 -0.41067338 -0.07895836 0.06667192 0.18320939 0.14535487 0.062672056 -0.24802187 -0.18268433 -0.13751048 0.28007576 0.15042081 -0.17382523 -0.009035067 -0.16859107 0.16442765 -0.026586883 0.01689706 0.18196304 -0.35047978 0.18995613 -0.0880632 -0.42652556 -0.66007245 0.16275579 -0.10787416 -0.5079679 -0.09948912 0.33644173 -0.28329375 -0.30664966 -0.30483377 0.10323708 0.090051174 0.06481828 -0.24594387 0.38960907 0.54688424 0.60148126 0.104824044 0.18529442 -0.5396978 -0.16708982 -0.12636586 -0.39828408 0.14760454 0.42884028 -0.059683446 0.16596553 0.3155277 0.36621338 -0.30384716 -0.32695535 0.12712759 0.043336272 0.12997533 -0.32152018 -0.13927461 0.017989703 -0.02780054 -0.21858495 0.09211514 0.51484907 0.0992958 0.51439506 -0.1244969 0.26548603 0.26778093 -0.044951424 0.26344645 -0.075630546 0.021459345 0.021231335 0.111519665 0.09353831 -0.25505558 -0.2492382 -0.20734769 -0.23984174 0.1552554 -0.14701384 -0.034745414
5035 -0.050862797 -0.0228693 -0.1269495 0.008103922 0.07884899 -0.16149467 0.064619094 0.12692891 0.23005968 -0.12367838 0.21986607 0.12716909 0.22475377 -0.41412312 0.37226605 0.08638616 0.07925462 -0.15075785 -0.051707517 0.0014586151 0.084060155 -0.33369815 -0.07026882 -0.30222973 -0.32063723 -0.25753507 -0.08372675 0.1972913 0.3110317 -0.30815363 0.10430936 -0.17828834 -0.24599862 -0.24078773 -0.056920756 0.19266376 0.12836732 -0.21901847 -0.25455505 -0.26887164 0.16748062 0.02721125 -0.21453391 -0.2156133 0.28526285 -0.03687643 -0.7388447 -0.28563288 0.021288784 0.46864903 0.3780999 0.21062036 -0.20597644 -0.21480219 -0.40297395 0.14170057 0.23303244 0.15640633 -0.36196634 -0.15793656 -0.22094603 0.18699144 0.17624868 -0.12588091 0.1635292 -0.021702206 0.086188875 -0.18656197 -0.26199874 -0.30038083 0.34853345 0.23293579 -0.38376707 -0.049322702 0.01484029 -0.14909132 0.15418653 -0.07437519 0.09887747 0.35991985 -0.566182 -0.02282363 0.29626012 0.14264633 0.3171061 0.19682382 0.049018536 -0.515566 -0.12065936 -0.036031112 -0.62779796 0.17754994 0.38521504 -0.007463282 0.22156219 0.32600793 0.6067804 -0.03306349 -0.31370628 0.2234203 -0.035690133 -0.039097507 -0.0958023 -0.021586066 0.12761971 0.23637609 0.11468713 -0.022471435 0.36732394 0.14734322 0.16598919 -0.23662786 0.030366492 0.2335465 -0.24613507 0.11212624 0.025785157 0.2829371 -0.007725587 -0.00079119223 0.010677028 -0.43715104 -0.26085678 -0.11753276 -0.0045531127 -0.048285965 -0.25389796 -0.14098854
7433 0.0944951 -0.06631439 0.26421058 0.32282233 -0.32363132 -0.2004842 0.07595426 0.014266709 -0.12515481 0.026693022 -0.35166788 -0.069092765 -0.42905578 -0.18199085 0.25056776 0.324344 0.25327778 0.0014990777 -0.2342628 0.021590922 0.011344071 0.7286498 -0.24983545 -0.5607239 -0.009791118 0.12441017 -0.52785057 0.31332213 0.034375682 0.3224429 0.116040915 -0.051698707 0.20805374 -0.049517818 0.10869975 0.41488084 0.4707647 0.60847497 0.1169187 -0.26757658 -0.25585556 -0.066827044 0.029023638 -0.06748073 0.100128844 -0.0995259 -0.15894206 -0.31810382 0.068502165 0.0023578743 0.56905717 -0.044066876 0.30751348 0.18229216 -0.37078148 -0.34484252 0.35927102 -0.0647028 -0.63634676 -0.26837534 -0.023815371 0.013093539 0.1642897 -0.36823788 0.32990032 -0.21240786 -0.05835815 -0.4480588 0.04489765 0.33947548 -0.14567769 0.2217215 -0.43788925 0.055631578 0.18281242 0.2546499 -0.47163692 0.050894424 -0.35205367 0.046357397 0.05865413 0.056085642 0.020329205 0.36250314 0.42009136 0.3381571 0.298919 -0.06075946 0.19314691 0.21557598 0.25240353 -0.17817336 -0.1874716 -0.32526731 0.23372595 0.29804745 0.08005243 -0.20832503 0.1276649 0.025327852 -0.45469013 0.4895638 -0.2812188 0.06399712 -0.03711046 0.3654364 0.13092043 -0.1267278 0.09116752 -0.15392551 0.84266984 -0.13322215 0.26521042 0.3343231 -0.12946609 -0.20942594 0.07273358 -0.6501579 0.26641095 0.032437623 -0.46174672 0.4237045 -0.3294827 -0.31470725 -0.33174297 -0.4404006 -0.7249972 0.21341564
6612 0.21076408 -0.2260013 0.21213402 -0.08585982 0.16035067 -0.004836443 0.11926119 0.12891868 -0.19216116 0.3657674 -0.3942538 -0.35822475 -0.18475612 0.05520142 0.3393955 0.30703586 -0.47787476 0.15222773 0.00802828 0.17086847 0.2245536 0.083744876 -0.122031726 -0.36223215 -0.40417227 -0.21294755 -0.29715198 0.16377191 -0.40559143 -0.10206249 -0.0826882 -0.0068997075 0.19044124 0.019364562 -0.38604718 -0.13950805 0.34176263 0.19168472 0.1463264 0.19087225 0.10605796 -0.048469942 -0.05424925 -0.029523307 0.44861257 0.41548768 -0.55944556 -0.14715661 -0.285444 -0.2294019 0.43136364 0.07437159 0.1655995 -0.04702375 0.28744024 0.036389668 0.28013957 -0.3094668 -0.36521214 -0.038914658 -0.12923118 0.103457466 0.29733932 0.2093577 0.12561616 -0.08801724 0.24061354 -0.1778586 -0.26537183 -0.20968723 -0.18023898 -0.011119745 -0.36157992 -0.22739807 0.13806248 0.10378532 -0.32249394 -0.23506401 0.07673751 0.13922818 -0.07452226 0.082961 -0.3338128 -0.05707522 0.36133826 -0.026045838 0.3543244 -0.41606683 0.10807458 -0.14863405 -0.11124767 -0.24580619 -0.023496965 -0.2358154 -0.1587049 0.020591628 -0.032012425 -0.3088975 0.04363231 0.19279258 -0.18838084 0.2625326 -0.48475605 -0.044977583 0.062435534 0.027751043 0.2752331 0.11902658 -0.109436795 0.0918139 0.2445172 -0.39280397 0.2959368 0.47831118 0.12593317 0.20345612 -0.25531128 0.043641955 0.16056126 0.20701432 -0.17497161 -0.20758814 -0.3510016 0.028133297 -0.033206124 -0.1982466 -0.5511763 0.004338536
7040 -0.023573687 -0.3819918 0.42291105 0.21912116 0.08408065 -0.40797445 0.23909764 -0.35384026 -0.12928322 0.344785 -0.20296957 -0.1558368 -0.38596448 -0.30091166 0.21626951 0.48622498 -0.10534112 -0.15164135 -0.07407326 0.22157733 0.15875326 0.33550972 -0.5566172 -0.42519778 0.036120318 0.1741008 -0.5723425 0.14075942 -0.2732884 0.01835368 0.030473929 -0.15182051 0.3072567 -0.11821694 -0.03858755 0.03468372 0.43276545 0.28452137 0.47542995 0.07554699 -0.28949326 -0.21051332 0.25644514 -0.36773968 0.29953685 -0.033949673 -0.25692517 -0.43051055 0.14221287 -0.06349099 0.14830789 -0.058314394 0.2316759 0.14888066 -0.08862136 -0.41789627 0.6749998 -0.099337935 -0.75696176 -0.010938415 -0.25903374 -0.13971832 0.45564604 -0.12920898 0.3227466 -0.009774543 0.2556158 -0.35613063 0.076015756 0.2091639 -0.20556359 0.14785919 -0.64029944 -0.10197169 -0.28969282 -0.1934365 -0.286243 0.25941494 0.0026418755 0.14275464 -0.112423874 0.026310358 -0.064362094 0.46922228 0.16114552 0.16751106 0.6369876 -0.06752405 0.29674447 0.47838542 0.31153074 -0.34393185 -0.22324939 -0.43558693 0.2427429 0.1779214 -0.07705189 -0.014383155 -0.08062256 -0.13034078 -0.21043454 0.035322297 -0.17602126 0.42536682 0.0702305 0.3552858 0.049216237 -0.09340824 -0.1355574 -0.036172073 0.4194041 0.06265439 0.2560615 0.22370245 0.09357015 -0.3543337 0.22750385 -0.5557853 0.1204034 -0.009327898 -0.45116642 -0.027883967 -0.006444829 -0.15332234 -0.079770185 -0.3651136 -0.13331515 0.08101387
7239 -0.14836293 -0.30362746 -0.021077009 -0.022084432 0.31036496 -0.14836767 0.35366535 -0.23734242 0.08635112 0.20065643 0.59059036 0.18886793 0.4160026 -0.19982266 0.15319349 0.09886513 0.23018211 0.20280778 -0.0035313303 0.30653092 0.16242601 -0.5560976 -0.29749975 -0.56214106 -0.010755825 -0.08266194 0.29840884 0.39710796 0.14713725 0.048377283 0.22755335 -0.047634654 -0.07613035 -0.3934878 -0.19644476 0.44670108 0.1386091 -0.16139136 -0.16937882 -0.4608707 0.03470483 -0.19523019 0.20359261 0.10413946 0.13625865 0.04468934 -0.16536668 -0.1990706 0.2349969 -0.110971265 0.3912948 0.043760806 -0.15725368 -0.14214964 0.067319095 -0.27857995 0.2820683 0.27121913 -0.15526439 -0.09253338 -0.32967818 0.005147017 -0.15129006 -0.5414642 0.4720629 -0.32356343 0.044196293 -0.13021931 -0.003618057 -0.10948084 0.32426468 0.21421786 -0.07554627 -0.21139935 -0.057243966 -0.22676183 0.109918654 -0.08926205 -0.059322182 0.5223112 -0.5100819 0.29611495 -0.007396095 0.41763982 0.1589965 0.19126587 0.39504325 -0.18981013 -0.048068006 -0.23696068 -0.1498341 0.10484017 -0.06393451 0.0452343 0.24405885 0.12365593 0.32560623 -0.29787505 -0.319293 0.04507466 -0.3718424 0.11323403 0.17574708 -0.21855862 -0.10535881 0.068580344 -0.49300924 0.15606284 0.231933 0.39827624 0.35056677 -0.083771154 -0.51898175 0.17953587 -0.47042343 0.29164526 0.0870641 0.50636387 -0.46862167 0.08637002 0.1866995 0.18945053 -0.29023975 -0.26044837 -0.2819077 -0.1790651 -0.23253213 -0.03732583
7485 0.034460615 0.19374534 0.467268 0.0762899 0.115295544 0.001277229 0.17614736 -0.1678137 -0.29937974 0.13270785 -0.1608633 -0.44584924 0.18859033 0.083548225 0.56723195 0.39462093 -0.5389824 -0.20533064 -0.23518743 0.23876522 0.42994452 0.4001949 -0.26990667 -0.15213503 -0.49190882 0.11175987 -0.08168079 0.21702705 -0.23681292 -0.19642545 -0.40607235 0.5109713 0.6281475 -0.44908348 -0.12030689 -0.06664328 0.49961534 0.26069593 -0.19473258 0.22693089 -0.12525745 -0.118178636 0.015874151 0.191481 0.30632183 0.11890351 -0.26363602 -0.23959436 -0.08484121 -0.37164712 0.44988716 0.10773971 0.13022573 0.12544683 0.31712496 0.05866174 0.32806966 -0.37183288 -0.060721274 0.36142784 -0.16292503 0.181718 0.07985536 -0.21614286 -0.10751635 -0.23511966 0.013403323 -0.29956743 -0.26376277 0.28132313 -0.0507124 0.0073171635 -0.519744 -0.30909935 0.26235968 0.46975318 -0.27673638 0.046474088 0.06845242 0.546516 0.048485097 0.00937712 -0.4022692 0.15667084 0.380607 0.07094245 0.14616413 -0.082172155 0.37413162 0.038793404 -0.17436695 -0.3647006 -0.2108583 -0.44275138 0.18343191 0.24331042 -0.060480796 -0.15248728 0.1922663 0.2669253 -0.612695 0.48577744 -0.4195034 0.15312982 -0.06729207 0.061534874 0.3997725 0.17994562 -0.4891301 0.19446506 0.6829659 -0.44975993 0.32544875 0.16169165 0.27168646 0.033823468 -0.1173532 0.088311195 0.05730699 0.21447423 -0.31773674 -0.03152444 -0.5523055 0.012287987 -0.07211331 -0.31713223 -0.62428904 0.060656313
5449 -0.36522645 0.11768653 -0.25664538 -0.07387394 0.12032484 -0.34773073 0.21060023 -0.53686994 -0.29613468 0.2342816 0.6875568 0.24466336 -0.049439758 -0.58914685 -0.07235745 0.10743002 0.1482958 -0.060682762 0.23146707 0.32875973 0.14372283 -0.09728638 -0.081667446 -0.05628921 0.011703756 -0.44298252 0.09436822 -0.028013507 0.05027774 -0.025453905 0.21938774 -0.48373967 0.44319147 -0.06271946 -0.12239674 0.29411528 0.03861164 0.2592571 -0.28371292 -0.3825989 0.06969811 -0.027195888 0.18307513 -0.3330033 0.12255056 -0.026000252 -0.14049308 -0.16901335 -0.024602147 0.2945325 0.40765002 0.5689254 -0.14891268 0.081546694 -0.30723962 0.33403695 0.009258321 0.14099918 -0.19144285 -0.007078102 -0.17036757 0.35830852 -0.055456277 -0.49810588 0.08557149 -0.3146756 0.3483232 -0.4611555 -0.23170017 -0.01979472 0.40394747 0.02347133 -0.4378617 -0.31940353 -0.13318951 0.14946397 -0.14489275 0.04302816 -0.09084707 0.62846863 -0.03442778 0.16362974 0.10442617 0.5036663 0.3789981 0.070002586 0.1925412 -0.15506846 -0.30058256 0.18690947 -0.3088597 -0.078614645 0.30222178 0.13544752 0.051780365 -0.12869823 0.16688445 -0.058432892 -0.2433238 -0.04860195 -0.41807514 0.2418694 0.1017831 -0.030831119 -0.05070658 0.5387707 0.17863607 -0.036687743 0.054038398 -0.017382849 0.14083734 0.2885179 -0.16450487 -0.48096132 -0.5401678 -0.22333376 0.2220832 0.28765693 -0.24892657 0.060559493 -0.2760985 -0.27362338 -0.48110968 0.0969075 -0.20281102 -0.23472194 -0.10472722 -0.24113041
6601 0.49072555 -0.0396996 0.13447377 0.1587169 0.010915885 0.037830796 -0.16872369 -0.063736334 -0.43991834 0.096986316 0.15857421 0.10116007 0.019004893 -0.43917623 0.13864827 0.36348808 -0.4248792 -0.0030958776 0.013545919 0.13714404 -0.19930707 0.70665514 -0.046615615 -0.43258786 -0.029797893 0.1066865 -0.43952453 0.18466295 -0.3028034 0.30686563 -0.047915637 0.15415466 0.3401969 0.05087299 0.14559342 -0.11473083 0.29412422 0.514598 -0.22429596 0.008456597 0.05900558 -0.14849031 -0.28850317 -0.16648845 0.34211624 -0.18055332 -0.47995293 -0.62418157 -0.13810566 -0.055214845 0.035953667 0.10552217 0.6208247 0.23449953 0.20564736 -0.15366144 0.14521827 -0.14396943 -0.5467975 0.15932699 -0.24042593 -0.011886668 0.22814736 -0.26135397 0.10009696 -0.15838268 0.20020404 -0.21130079 0.014837845 0.21332578 -0.2624749 -0.1597011 -0.18060258 -0.24015844 -0.00073459797 0.202134 -0.4513775 0.3626755 0.016201833 0.31683978 -0.12557015 0.07548972 -0.40120962 0.68084425 0.38303664 0.23634039 0.3000843 0.42269838 0.106192514 -0.09511418 0.084813066 -0.42749622 0.011333001 -0.098948225 -0.088378675 0.12302922 -0.2276222 -0.24335596 -0.13469136 0.24576451 -0.3124281 0.12631947 -0.21599352 0.38455915 -0.009741158 0.27107078 0.36913484 -0.11349632 -0.116212316 0.26153117 0.37499192 -0.33418384 0.21330795 0.27714363 -0.059964415 -0.049635287 0.16112795 0.014789903 0.52056724 -0.14912246 -0.507615 0.099235356 -0.47317952 -0.09210396 -0.318545 -0.3927683 -0.44481957 -0.06106508
