775 128
10643 -0.086468704 -0.5110814 0.05061041 -0.03889292 0.16800292 -0.56207037 -0.012849291 0.37109265 -0.10059977 0.30702412 -0.00017626569 -0.19943646 -0.028178012 -0.25999907 0.029929936 0.43627596 -0.16945785 -0.16653353 -0.5419092 -0.11111551 0.057317264 0.24239022 -0.091416106 -0.22038016 -0.014626869 0.26932818 0.0014226488 0.22002317 -0.09667668 0.012651278 -0.28149828 -0.38739976 0.19870183 0.32533696 -0.008362418 0.21087937 0.42054313 0.012464176 0.19207437 0.114868134 -0.3572636 0.3394984 -0.26424366 -0.43774146 -0.010803357 0.052252017 -0.24025801 -0.0019699452 0.1205957 0.18465343 0.04634443 -0.19291171 -0.076163255 0.20716088 -0.048554704 -0.44260585 0.36322528 -0.21673621 -0.3171046 0.21290745 -0.1248599 -0.00071444997 0.044701993 -0.28527397 0.19823465 0.2887854 0.32395762 -0.21806607 -0.24300094 -0.03684229 0.12384901 0.07228297 -0.16345295 -0.094245605 0.14703268 -0.29661337 0.2245066 -0.33979958 -0.370512 -0.22316454 -0.054472163 0.12899828 0.25610507 0.6001948 -0.6025099 0.3164026 0.41453153 -0.25248358 -0.13672253 0.07369368 0.01415044 -0.0026621926 0.32240415 0.26343584 0.30471876 0.24721614 -0.44006935 -0.5022759 -0.07772259 -0.24619576 -0.37052882 -0.03774309 0.044738196 0.46061713 0.37515256 0.19121896 -0.28946102 0.08890352 0.007921001 -0.27702147 -0.18265516 -0.3269253 -0.2634828 0.2648385 0.3029325 0.09716565 0.116013914 0.08404014 -0.22123344 -0.022633074 -0.048002418 -0.02105393 0.059028435 0.08011126 0.07551365 0.38834187 -0.22187136 0.10531182
11108 0.19554351 -0.047669154 0.39822614 -0.04472877 0.38927248 -0.39590517 -0.03562794 0.009729009 0.2336521 0.24011233 -0.01094141 0.10464523 0.13787197 -0.4000957 -0.039288104 0.33877304 -0.44805726 -0.14971246 0.058090568 0.17502408 0.13791664 0.10477331 -0.31265217 -0.30600008 -0.14708294 0.21148176 -0.26592085 -0.15816897 0.058585837 0.30808204 -0.01724313 -0.14259955 0.04562979 0.4059936 0.17984393 -0.09718166 0.34334978 0.23575278 0.31330514 0.17682351 -0.13907553 0.46140578 -0.16066492 -0.62759054 0.11534461 0.01883519 -0.043941606 -0.2465078 0.023590473 0.08147979 0.12559903 -0.41407475 -0.07985814 0.20435236 -0.02212687 -0.45645455 0.5142138 0.05536526 -0.52754575 0.0005427901 -0.12598217 -0.05874352 0.021092726 -0.038155172 0.2812238 -0.0015051805 0.37192753 -0.2916169 0.18037324 -0.024789412 -0.27216917 0.22264466 -0.18280105 0.16498078 -0.20886 -0.41773134 0.19772936 -0.43952298 -0.35341817 0.03619583 -0.24922314 -0.009517022 0.035626616 0.30422375 -0.18221909 0.18917158 0.30283594 -0.1948983 0.030471187 0.2212988 -0.009534918 -0.13883418 -0.2337013 -0.095653586 -0.12209376 0.11092361 -0.011488591 -0.41808242 0.0538402 0.01008523 -0.18142429 -0.013476169 0.06476319 -0.14351402 -0.15400957 0.19310068 -0.22818024 -0.09098383 -0.017478932 0.10585203 -0.048503798 0.0011984495 -0.1877963 0.13987795 -0.004920179 -0.09213919 -0.03790161 0.19107631 -0.1919834 -0.1512502 -0.25758526 -0.18827586 0.117978774 0.08626338 -0.17460425 0.056256477 -0.27552068 0.029373042
10920 -0.072591074 -0.4718798 0.055320658 -0.3176257 0.4860317 -0.22106025 0.089932464 0.13859545 -0.065775864 0.4133067 0.063987605 0.050188214 -0.1226502 -0.37832713 0.0036223424 0.33944935 -0.049712073 -0.13563257 -0.27942958 0.27522314 0.22679383 0.21165219 -0.15901619 -0.13312638 -0.14379552 -0.025688048 0.05769526 0.05336526 0.045814376 -0.18447417 -0.21726823 -0.12930328 0.52898484 0.32586694 0.0036777053 0.52003175 0.48270866 0.035348184 0.27260616 0.47017285 0.03590752 0.16433506 0.02275708 -0.17028828 -0.041046415 0.14450604 -0.06847255 -0.13308209 -0.010633366 -0.07926535 0.25908914 0.022597563 -0.06822828 -0.11683867 -0.30243483 -0.30605522 0.31775737 0.059884854 0.097090706 0.036478423 0.08313403 -0.3847289 -0.12674847 0.065324575 0.5320892 0.00994074 0.17239414 -0.075942904 -0.6397887 0.04022935 0.174061 -0.035359584 0.07473594 -0.17930466 0.5768617 -0.3622927 -0.007340396 -0.32499862 -0.5225281 0.23214176 0.22918001 0.005449663 -0.021238247 0.6179051 -0.023462161 0.41060427 0.10929823 -0.34251377 0.03348532 -0.13905124 -0.14949222 0.23695228 0.054723024 -0.16616577 0.3813381 0.22600307 -6.385731e-05 -0.5530398 -0.021271966 -0.36873755 -0.08688225 0.26315948 0.12632655 0.013712444 0.2090992 0.22619581 -0.071283855 0.07706256 0.1790236 -0.22863615 -0.3378959 -0.014815968 -0.09175616 -0.012777914 0.2519196 -0.02954056 0.036486026 0.22857387 -0.073478036 -0.0060485834 -0.33545956 0.28997672 -0.09999986 0.48274598 0.086586446 0.43863618 -0.118399486 0.08394875
11041 -0.35602492 0.15098006 -0.008755774 0.19249848 0.117605105 0.11282417 0.12044491 -0.03153392 0.11624412 0.23083878 0.26445225 0.06177798 0.15222591 -0.7396007 -0.35251164 -0.007479513 -0.1195788 0.030327749 -0.116384156 -0.086613104 -0.0643591 0.36637354 -0.20189244 -0.076920584 -0.009141401 0.06260249 -0.28606817 0.120981164 -0.1592488 -0.1769868 0.21407694 -0.114854254 -0.10268703 0.4128803 0.14171886 -0.02608569 -0.040564094 -0.53436565 0.08988535 0.12212981 -0.3190871 0.31069803 0.24026375 -0.19981392 0.14497276 -0.2525249 -0.0070643197 0.11484077 -0.19555937 -0.3225502 0.2876356 -0.051265877 -0.26196122 0.05985163 -0.025693707 -0.018886924 0.23982647 0.2818602 -0.22412202 -0.04112635 -0.017538983 -0.0012271816 0.16530363 0.044709627 0.2629909 -0.15746331 0.33343577 0.0030957528 -0.025532866 -0.09655511 -0.24527994 -0.3046572 -0.46655002 -0.13666487 -0.14682102 -0.31397364 0.035856463 -0.1833939 0.49977782 0.34120727 0.026182368 -0.21641712 0.3743636 0.32190794 0.09234825 -0.08198744 -0.12908 -0.17191562 -0.19888173 -0.17886037 -0.041156452 -0.060231 -0.10102964 0.09563651 -0.07583525 -0.2851147 -0.09005209 -0.08657834 -0.58473647 -0.16184588 0.13343182 -0.25091478 0.16502269 0.19972205 -0.1254449 0.37416273 0.07585099 0.12650661 0.24042389 0.020492775 0.08294324 -0.37332186 0.1795703 0.3128626 -0.1277815 -0.17894593 -0.30367738 -0.061127037 -0.1695549 0.10466611 -0.37574816 -0.2284246 -0.09842465 0.11928272 -0.043034554 -0.12490344 0.015256726 -0.07970067
12064 -0.31104085 -0.06439306 -0.4209127 0.02810246 -0.033806022 -0.15842527 -0.072164066 -0.12022689 -0.2836812 0.12147176 0.27163738 0.10241225 -0.04789691 0.01689986 -0.02563275 0.22481325 -0.07424414 -0.09451513 -0.22940515 -0.025272075 -0.053404916 0.31281683 -0.117414795 -0.23952252 0.2663599 0.17481214 -0.13734195 0.021189066 -0.2370907 -0.22813334 -0.16969721 -0.09402317 -0.11988218 0.18909192 -0.16141139 0.08517221 -0.031108344 -0.6928959 -0.16486993 0.2262108 -0.082438216 0.04336196 -0.42792302 0.121403836 0.15090804 0.08005177 -0.30963165 -0.20398982 -0.11678622 -0.04768293 0.4016765 -0.011511834 0.025552316 0.061613932 -0.35535443 -0.15433085 0.37734 -0.18168503 -0.181886 0.007343362 -0.041324936 0.003170276 0.30733526 0.16557433 0.26936927 -0.18397927 -0.15645409 0.31664512 -0.1690957 -0.46465337 -0.20165055 -0.5911066 -0.552076 -0.43303388 -0.18657157 -0.109263204 -0.34152877 -0.27425447 0.16735236 0.45331115 -0.106530555 -0.26081666 0.32345137 0.68244696 0.19573224 0.014201745 0.3956151 -0.3348829 0.23621675 -0.4193211 -0.11375683 -0.027461387 0.09435447 0.09593208 0.3247972 0.15425096 0.21240827 0.0013800524 -0.2500045 -0.10903757 -0.114252776 0.09573735 -0.021565776 -0.19298714 -0.13611439 0.2772228 0.22316393 0.25455052 0.3509416 -0.10106828 0.57628095 -0.10232127 0.23329939 0.06196593 -0.26392347 0.17966686 0.18023394 -0.19019216 0.040951677 0.07924324 -0.16630316 0.014007364 -0.2024201 0.03426375 -0.5332171 -0.5261233 0.035703715 -0.38612515
10720 0.15056556 -0.51672804 0.17120363 -0.5504058 0.29884213 0.031967923 -0.31358063 -0.06387562 0.024506312 0.2525746 -0.24692711 -0.18808295 -0.050000656 -0.25330624 0.028540991 0.13227862 -0.22695294 -0.025948223 -0.56560445 0.007972948 -0.045184527 0.21783864 -0.0953997 -0.2552903 -0.17152075 0.40450963 -0.005125154 -0.25212783 -0.008473846 -0.02511362 -0.21338867 -0.0038440437 0.10856633 0.5541533 0.24807675 0.5456412 0.6056549 0.24124256 0.047239047 0.26746443 0.025214825 0.23702791 -0.13940533 -0.2840017 0.019605864 -0.19912952 0.20975882 -0.36531043 -0.040103413 -0.25826937 0.1000434 -0.12136214 -0.12945625 0.22195667 -0.26913393 -0.13080679 0.19590029 0.054187793 -0.33233148 0.08236847 -0.121594205 -0.032393493 0.07009777 0.41537884 0.13367909 0.24400243 0.41774106 -0.3446589 -0.017870322 -0.28249255 -0.1226059 -0.20005177 -0.12503476 -0.1481687 0.18614063 -0.25537416 0.368922 -0.24645582 -0.3841357 -0.06350863 -0.18229656 0.2531787 0.32822278 0.44348234 -0.2399514 0.3843677 0.32753357 -0.2515542 -0.18782067 0.33381158 0.12602691 0.0669304 -0.029238258 0.093968496 0.22950853 0.07656597 -0.6029543 -0.34597662 -0.11873176 -0.15064465 -0.020768829 -0.08698574 -0.17089169 0.3730929 0.1990885 0.12912792 -0.028280836 -0.14355795 0.18103436 0.02818226 -0.21938603 -0.03199819 0.09334576 0.27168882 0.0035170333 -0.24493404 -0.1351264 -0.029765015 -0.19127038 0.14397377 -0.066045515 -0.2334155 -0.06537007 0.29838613 -0.2497742 0.060965285 -0.33288696 0.21386951
7455 0.15505542 -0.42526373 0.0036838895 -0.26495877 0.42808497 -0.22329853 -0.0010534788 0.1883014 0.104791425 0.22522624 -0.1291382 -0.18999046 -0.14721134 -0.25011656 0.01112397 0.30201802 0.025313346 -0.2572446 -0.37418917 0.14915763 0.19317444 0.44797948 -0.0052358266 -0.07654488 -0.3300051 0.27974027 -0.24477074 0.024006533 0.25578776 -0.027330112 -0.28678522 -0.18658474 0.2824 0.27977782 -0.031637028 0.47004732 0.48620662 0.036179867 0.2610164 0.045175746 -0.11062589 0.33226028 -0.2509428 -0.1481081 -0.051945813 -0.1580633 0.039648265 -0.13079949 -0.24006566 -0.010388935 -0.012471933 0.028628686 -0.120043255 0.1115522 -0.14555486 -0.26555765 0.25922978 0.008514919 -0.17053698 -0.3125923 0.22939813 -0.22255233 0.29334188 0.052761864 0.11983679 0.037120517 0.22568645 -0.15499586 -0.17107761 -0.070799135 -0.084561095 -0.2464227 -0.2351602 -0.013961225 0.28223222 -0.41566598 0.03370178 -0.3060324 -0.52190304 0.28405988 -0.274838 0.35656333 0.101926416 0.38509324 -0.30835253 0.19911882 0.27898705 -0.08333932 0.16231099 0.21636114 0.07484531 -0.15845045 -0.1516549 -0.14689188 0.19527155 0.083890356 -0.2067078 -0.49846873 -0.1339181 -0.065725066 -0.15259762 -0.17152703 -0.19003856 0.35059807 0.42607263 0.42033905 -0.03444081 -0.13079481 0.17267846 -0.08962256 -0.3725445 -0.19458176 -0.033620358 0.040120527 0.06429826 0.09955532 -0.20075056 0.12767252 0.1199517 0.098366596 -0.28803915 0.13087432 -0.11493786 0.34773594 0.26882607 0.24528177 -0.11760954 0.43181846
11017 0.053758185 -0.0055699726 -0.06912129 -0.074234314 0.00049561216 -0.08636025 -0.013513646 -0.05767975 -0.1988713 -0.118077494 0.072911434 0.0041226493 -0.43254194 -0.23089261 0.505713 0.31507272 -0.10115581 -0.11450187 -0.42442837 0.3071313 0.066417746 0.32026815 -0.23412216 -0.30406833 -0.29067954 0.09194331 0.043203242 0.027441695 -0.0810416 -0.34935436 -0.21170896 -0.3375169 -0.026995154 -0.00625471 -0.15386279 -0.14263181 -0.0818967 -0.33731636 -0.19693518 0.3534624 0.056440465 -0.059200082 0.090725645 0.16407903 0.23717381 0.15826996 -0.2475061 -0.10856199 -0.3517369 0.12952556 0.04682992 0.1797744 0.07527104 -0.19216518 -0.3639715 0.32814062 0.36018053 0.23298873 -0.059901413 -0.108278066 -0.055682745 -0.2774342 0.07201634 -0.0691083 0.4448862 -0.09535637 -0.104108535 0.18954122 -0.28854546 -0.20131458 -0.26984942 -0.2620067 -0.25707895 -0.3878324 0.1611793 -0.19744149 -0.18572986 -0.26513317 -0.20912951 0.09175744 -0.0044858665 -0.15384398 0.268467 0.44471422 0.3485573 0.059995934 0.15368433 -0.13322295 -0.046753794 -0.21315205 -0.28717032 -0.12196549 0.2544862 0.16764757 -0.038556535 0.27027756 0.23853827 0.08234991 -0.17773505 -0.1600316 -0.33413222 0.11253961 -0.10171781 -0.110911615 -0.091539256 0.074043304 0.14789477 0.34448096 0.21337153 -0.18772343 0.15099631 0.016014375 0.2469364 -0.24098249 0.06734734 0.11749891 0.18596764 -0.037708927 0.26815552 0.191668 0.07832629 0.13511713 -0.21531703 0.021417731 -0.18863298 -0.39256838 0.048227448 -0.21778253
10649 -0.18638377 -0.45494807 0.18197763 -0.055182 0.21414763 0.37978023 -0.1608161 -0.30057696 0.15235727 -0.026975684 0.4946953 0.028755117 -0.10465311 -0.4918151 -0.052676126 0.3906887 0.15323476 -0.24332348 0.3573657 0.049045805 -0.34322482 0.0125425905 -0.604871 -0.23633263 -0.2992665 -0.07484631 -0.25724936 -0.096675105 -0.26255298 -0.111453325 0.05011203 -0.14997306 0.13724233 0.16251534 0.10237286 0.29653957 0.05540909 -0.3155042 -0.07685294 0.22895657 -0.32440776 0.46244586 -0.1222717 -0.34011632 0.29095742 -0.08681683 0.023021903 0.09598984 -0.008164367 -0.11672615 0.14447473 0.12266793 0.09819267 -0.36805958 -0.20745839 0.3309641 0.3033034 0.13226861 -0.40983662 0.4027778 -0.21956792 0.075886525 0.031170072 0.25902975 0.053494353 0.26357383 0.3810045 0.14629233 0.12982824 -0.04654697 -0.6538404 -0.17101799 -0.19611335 -0.15142553 0.1252852 -0.40185001 0.27825734 -0.005628627 0.33420187 0.23289177 -0.18557082 -0.03424505 0.14179341 0.5882928 0.08269796 -0.30614153 0.011588467 -0.050696258 -0.060608026 -0.1027292 0.04240461 -0.07144976 -0.19662642 -0.047177717 -0.15822148 -0.03664476 -0.07055195 -0.19218695 -0.40633065 -0.039515942 -0.29993677 0.037179638 -0.13195124 0.11717974 -0.08427609 0.28581065 -0.102093935 -0.024671217 0.30256304 -0.18669403 0.031071603 -0.3833061 0.2384825 0.07072969 -0.17713942 -0.31277013 -0.004529134 -0.31343615 -0.38015226 0.2514682 -0.08723659 -0.22192 0.14187142 0.0689829 -0.20795202 -0.2723618 0.09282846 -0.3263931
14262 0.31316155 -0.29511425 0.41361523 -0.10063055 0.29814795 -0.22453816 -0.042583685 -0.19109833 0.25881436 0.18803194 -0.064885326 0.00925122 -0.104699686 0.024791079 0.16351604 0.52517855 -0.28976443 -0.15567422 -0.14642332 0.22330067 0.1763903 0.29386306 0.0068001356 -0.2497684 -0.11039192 0.51196414 -0.2096031 0.02341289 -0.2525344 0.1884509 -0.19823974 0.011819486 0.2790199 0.11132628 -0.051151477 0.22591953 0.7780378 0.18942988 0.371881 0.10116829 -0.27342936 0.31592673 0.028336689 -0.37110373 -0.37792352 -0.18017988 -0.07679151 -0.32247144 -0.12501106 -0.011154628 0.20419545 -0.13816708 -0.03345356 0.11426128 -0.31891778 -0.0017227907 0.48917538 -0.22106874 -0.37031206 0.39278966 -0.29541853 -0.1699023 -0.10578393 -0.004986662 0.12921743 0.16170874 0.36605534 -0.68321025 0.11513326 -0.24495661 0.17229088 0.019901196 -0.14153853 0.04089658 -0.32038963 -0.28498587 0.43012956 -0.40224734 -0.5064899 0.13870022 -0.11626812 -0.026725933 0.3163323 0.30647805 -0.5074793 0.29956004 0.27039605 -0.122751534 0.26846784 -0.05590616 -0.11028944 -0.18707216 0.080246836 -0.24260712 0.2184813 0.2518468 -0.39786854 -0.47774512 -0.0016469371 -0.3324142 -0.22931084 -0.21040711 -0.20017575 0.1549054 -0.06920124 0.10617432 -0.07512679 0.1793086 -0.23400806 -0.23203196 0.19329044 0.11073219 -0.14756733 0.31588343 0.20546453 -0.023021715 -0.46642885 -0.12231259 -0.24048474 0.08599061 -0.1443553 -0.55407107 0.21237926 0.098086126 0.22601835 -0.09172895 -0.47451892 -0.012104167
14425 -0.1417625 0.061987404 0.13129385 0.101445705 0.13502797 0.06055563 0.08513818 -0.43871534 -0.19267756 0.24016143 0.16222885 0.04380077 -0.053739935 -0.6724278 0.30457518 0.41776797 0.05217639 -0.062446147 0.06364141 0.31268468 -0.24299811 0.28398913 -0.37120464 -0.05972983 -0.08512303 -0.027620673 -0.15504067 -0.13552494 -0.113325894 0.03839452 -0.25787884 0.073203355 -0.06118673 0.1465896 0.22170252 0.13020411 0.036849156 -0.4663694 0.11645136 0.05444007 -0.10413517 0.40040952 0.014620183 -0.043628428 0.19064659 0.13747977 -0.31731796 0.053048566 0.19949703 -0.13824749 0.40911973 0.21671341 -0.026853 -0.3048282 -0.05562803 0.049124934 -0.16691664 0.3049073 -0.3203796 -0.16478725 -0.25237933 -0.13457893 -0.14292851 0.3796307 0.2778944 -0.18513012 0.45223004 -0.08027219 0.17624968 -0.001591899 -0.72945786 0.021346655 -0.5591963 -0.4077025 -0.10608629 -0.19334787 0.16448532 -0.17713739 0.3335831 0.28920543 0.06435794 0.14918604 0.19801894 0.6517225 0.35777608 -0.26708728 -0.123923585 0.15587083 -0.21183942 0.07251199 0.06209811 -0.1582588 -0.026450556 0.24075677 0.021428037 0.24737822 0.022611056 -0.13113303 -0.3567951 -0.22606815 0.24091119 -0.26670775 0.23457858 0.11219436 -0.19798316 0.21318813 0.116960034 0.12611152 0.104543366 -0.31468937 -0.048965864 -0.08188482 -0.25618637 -0.25038353 -0.11413458 -0.43621552 0.11668987 -0.10148495 -0.27246806 0.24494521 0.042945452 -0.08852657 0.19635029 -0.000645153 -0.03642473 -0.231139 0.048214745 0.029220184
5096 0.38400424 -0.47376856 0.34150422 0.054570045 0.26474375 -0.282862 -0.17341591 0.21525607 0.08105225 0.029985594 -0.22598419 -0.038635295 0.24229164 -0.19984965 0.09550204 0.25585836 -0.38864726 0.11969149 -0.3982194 0.41839015 0.23418264 0.23105209 -0.11130884 -0.35970756 -0.0606703 0.3400386 -0.31724674 -0.15550056 0.038245976 0.26045635 -0.07859064 -0.05164517 0.037915543 -0.083722755 0.12367818 0.027464144 0.586543 0.27038908 0.15838318 0.0078903055 -0.33354717 0.08872163 -0.18596129 -0.30418134 0.08574595 0.055443037 -0.18852653 -0.37904236 0.26360846 -7.898576e-05 0.052935738 -0.020733438 -0.0025907771 0.015586666 -0.01356213 -0.23652014 0.3895008 -0.16497073 -0.23331696 -0.12797523 -0.1472221 -0.29872406 0.09056242 0.009183118 0.17423283 0.10690884 0.12550627 -0.38855007 0.23009221 -0.059732605 -0.12329843 0.018826166 -0.28984872 -0.08886115 0.007223096 -0.60435164 0.056319486 -0.31202278 -0.31409368 0.20860343 0.027559511 -0.047141172 -0.062396087 0.71183646 -0.14842927 0.29604778 0.64574677 -0.19474965 0.19979733 0.3004879 0.062760465 0.17327194 -0.04012773 0.07195597 0.25889516 0.23074336 -0.32689956 -0.54606515 -0.16338131 -0.120895855 -0.20499648 0.06919438 -0.3083567 0.12878315 0.088914074 0.25953996 0.054049592 0.026889814 -0.24262427 -0.114863954 -0.037283216 -0.109446704 -0.4342609 0.28331354 0.0208368 -0.18232243 -0.3128879 0.06564564 -0.36014226 -0.004088869 -0.07587898 -0.26041803 -0.005222563 -0.13187002 0.082107544 0.052954823 -0.4389514 0.21207063
10635 -0.028550455 -0.25732577 0.063837625 0.17568174 0.2804669 -0.13270953 -0.15925643 0.020838944 -0.056945372 0.04186622 0.23264876 -0.24397668 0.117454894 -0.86611676 0.057475742 0.046203766 0.14031513 -0.11769704 0.12474455 0.18786225 0.13926065 0.26338816 -0.16550125 -0.110138245 -0.08512997 -0.07040094 0.21244255 -0.038373202 -0.23028533 -0.1847724 -0.0599261 -0.06173654 0.15457825 0.3394305 0.096414804 0.3308407 0.18688215 -0.46359795 0.11875397 0.38845462 -0.10360058 0.28957155 -0.0580641 -0.29984307 0.12916316 -0.008369067 -0.28421783 0.18321048 -0.16040047 -0.22501907 0.034933746 0.07202625 0.14552969 0.035687715 -0.28662816 0.16324963 0.098660074 0.08671173 -0.6271582 0.0009176996 -0.10051551 0.5042413 -0.08398514 0.43504226 0.41822317 -0.1225569 0.1702601 0.21168156 0.17339757 -0.4110207 -0.68102485 -0.12997095 0.016550852 -0.27024326 0.13139711 -0.62024 -0.00023015513 -0.081188306 0.07111417 0.42640767 -0.20079882 0.020752778 0.044475026 0.37331676 0.16656485 -0.055822805 0.0031167693 0.13409394 -0.27128413 -0.030958641 0.19970834 -0.503285 -0.12679636 0.17121801 -0.32610402 0.07939552 -0.082600705 -0.15511142 -0.52192146 -0.20811987 0.12107381 -0.6007607 0.035115045 0.07224642 -0.09010667 -0.10805445 -0.28492498 0.29857558 0.1486978 -0.13962924 0.027724419 -0.42254224 0.3843409 0.0967199 0.0097189 -0.32421458 0.2200105 -0.3796415 -0.20763978 0.24741657 -0.3301391 -0.11380864 -0.22975582 0.3155757 0.07368702 -0.2180157 0.22490723 0.050441753
10983 -0.06915724 -0.428921 0.07471363 -0.28066164 0.273556 -0.03774784 0.1400109 0.18133144 -0.1307062 0.13786964 0.0010487403 -0.22402075 0.04315513 -0.3768311 0.29464394 0.3110045 -0.0015789828 -0.09382519 -0.52324015 0.025418527 -0.18584794 0.22496718 -0.208163 -0.2803786 -0.21677808 0.03828769 -0.13436128 -0.081960425 0.24678145 -0.06759058 -0.11606466 -0.10734997 0.18380456 0.1894115 -0.16102521 0.52146184 0.41395098 -0.030529754 0.12850033 0.05363609 -0.14898004 0.20295085 0.13997726 -0.0981547 0.12633464 0.09187592 0.14239274 -0.43718988 -0.04122952 -0.2202874 0.17817393 -0.0126721095 0.1457718 -0.071054846 -0.1865848 -0.42572078 0.34709144 0.15558939 -0.22073966 -0.23609811 -0.30360645 -0.24619107 -0.13028535 0.050291155 0.3137899 0.09232469 0.07940639 -0.12225565 -0.25926182 -0.3465903 -0.0759362 -0.1961217 -0.032964405 0.0023340022 0.6350581 -0.13023014 0.19377947 -0.22728571 -0.4962198 0.22385591 -0.025520893 0.18001527 0.09889815 0.5100602 -0.063346416 0.36479494 0.2224666 -0.20896725 0.37774786 0.07551238 0.06431921 0.20623818 0.36664513 -0.00470485 0.26463532 0.54524815 -0.3906189 -0.34517476 -0.06367879 -0.33764312 -0.14324301 0.19399585 -0.043455165 0.23432316 0.25825086 0.1635269 0.06962937 -0.13048331 0.309915 -0.17414442 -0.27330795 -0.23756051 -0.033816505 0.19704938 0.27055734 0.20014866 -0.038840763 0.04350513 0.092217736 0.06790261 -0.12664175 0.37199733 -0.07931967 0.34042716 0.4131947 0.019887216 0.11538577 0.1161292
11043 0.18466613 -0.2131474 0.19422999 -0.046200626 0.1632247 -0.17135672 0.1231873 -0.0871413 0.08488447 0.3316342 -0.09954913 0.013671543 -0.1350403 -0.3311213 0.20454991 0.479012 -0.1134401 -0.2918467 -0.4103489 0.040664572 -0.07637524 0.25537062 0.077539854 -0.099695556 -0.11808296 0.20636329 -0.061162777 0.43317637 0.05754127 -0.13108967 -0.49021584 -0.27807105 0.3240252 0.17510211 -0.17159064 0.70821756 0.55863684 0.021739103 0.3662721 0.14621535 -0.43869397 0.2921722 -0.11283498 -0.064957835 -0.12419447 0.16566096 -0.056688227 -0.26943296 0.040352073 -0.09535093 0.342879 0.15081285 0.18551293 0.31977823 -0.48151755 -0.31964895 0.58378977 0.10067603 -0.071104 -0.10357219 -0.15927857 -0.16735168 -0.12861505 0.32227156 0.24157354 0.13530011 0.37601107 -0.16830105 -0.036786728 -0.13247742 0.08275653 0.045850016 0.014681258 0.12488359 0.30084008 -0.18889177 0.18837005 -0.15246984 -0.14886922 -0.019027641 0.13801065 0.116405666 0.19015874 0.3467625 -0.2818102 0.1338865 -0.19159856 -0.23286815 -0.30092797 0.06050986 -0.15164092 0.2014327 0.26689678 0.22795503 -0.025998786 -0.030374933 -0.31756854 -0.6106288 -0.0071992264 -0.53672 -0.074354835 0.17537472 0.021687975 0.27610368 0.09803955 0.11652425 -0.097530834 0.16773258 0.21148768 0.109816685 -0.30810335 -0.35312578 -0.022308322 0.1156258 0.30756843 -0.07412911 -0.025186077 -0.045498557 -0.20896006 0.26639616 -0.06755463 -0.064445205 0.06696465 0.53163624 0.34068894 0.03972181 0.05722824 0.1854391
11196 -0.22908781 -0.08359741 -0.15664877 0.096225426 0.037811574 0.15331756 0.15591519 -0.46664345 -0.14289445 0.11827139 0.097366765 -0.27798748 -0.30767348 -0.27811956 0.093469955 0.34126717 -0.3754335 -0.46224833 -0.22957665 0.08454675 -0.055753082 0.53452003 -0.052523263 -0.00305377 -0.27008116 0.12784168 -0.11559751 -0.22496153 -0.18055461 -0.27847108 0.0015714513 -0.34349895 0.00868647 -0.0063199657 -0.5445937 0.0097448295 -0.15375906 -0.5942135 -0.077887945 0.045161568 -0.31313393 -0.31565756 -0.31461382 0.05554826 0.25722066 0.24038284 -0.3544807 -0.03289575 -0.23610906 -0.0027259302 0.30740878 -0.010487279 -0.082710534 -0.32352096 -0.30937722 0.052607782 0.41876045 -0.10816117 -0.30191278 -0.13556953 -0.37922004 -0.011839745 0.15840317 0.16201474 0.3699952 -0.36738694 -0.110981256 0.09951188 -0.06976407 -0.45407072 -0.19082053 -0.34186608 -0.3949429 -0.16267684 -0.18521832 -0.18354747 -0.34590298 -0.23394732 0.017769853 0.23865765 0.07059837 -0.06797272 0.08539557 0.68394136 0.33406746 -0.0015089598 0.29020768 -0.27207124 0.17610455 -0.11446011 -0.011318487 0.061046142 0.16966173 0.09090165 0.3215833 -0.0027698588 0.11771553 0.062626 -0.005156054 0.032675985 -0.11575491 0.16274986 -0.3766301 -0.07035062 -0.23386836 -0.25645828 -0.11314308 0.2712739 0.1041121 -0.23508257 0.29729304 -0.5093816 -0.07288024 0.09143291 -0.01095248 0.2586494 0.064125 0.069719255 0.2726183 -0.04770416 0.17953844 0.005648182 -0.13493344 0.10342934 -0.36944902 -0.512573 -0.2813827 -0.20071915
10875 0.44378674 -0.3875336 0.19306761 -0.29360107 0.39775985 -0.27048782 -0.31189463 -0.23101693 0.2551495 0.56560475 -0.23872589 -0.21141528 -0.29281312 -0.42432395 0.14339153 0.40094522 -0.61563367 0.074073985 -0.30550283 0.05947321 0.2199329 0.009087381 -0.18038476 -0.44249624 -0.16372651 0.3697366 0.067728594 0.0926072 -0.03427195 0.09739079 -0.18277453 -0.009768974 0.31643373 0.3296552 -0.0611603 0.32989573 0.51806855 0.34917703 0.26357728 0.25569832 -0.31599036 0.27070197 -0.26756117 -0.3180557 -0.03627433 0.11134891 0.04042459 -0.4017718 -0.019839605 0.0703111 0.044235244 -0.14315453 -0.15457202 0.12222191 -0.19227469 -0.07896128 0.20964035 0.094196625 -0.31246954 0.31125608 -0.1967007 0.036748763 0.19475509 0.0370193 0.25860894 -0.06401268 0.071230024 -0.45114535 -0.1428811 -0.23260844 0.09815268 0.17178378 0.011936789 -0.14846961 -0.20292017 -0.34220836 -0.06337139 -0.33961925 -0.36800158 -0.20976223 -0.1950798 -0.062742 0.28421098 0.44725645 -0.3057099 0.14584206 0.6218398 -0.5391344 -0.082299896 0.08860995 -0.048195332 -0.20597276 -0.08394081 0.09904888 0.020431954 0.2013759 -0.4786852 -0.39410365 0.009842153 0.014253776 -0.23567572 0.18262035 0.05200785 0.48077884 0.19498654 0.19037306 -0.28150743 -0.16099034 -0.06848596 0.019835832 -0.3739088 -0.1938356 0.10295801 0.46470833 -0.034913566 -0.03492058 -0.040905852 -0.01598877 -0.09213756 -0.024019854 0.072444566 -0.17671765 0.09840351 0.09211416 0.0678427 0.008382705 -0.27702162 0.049092684
10747 -0.18630464 -0.24101228 0.08705727 0.31022114 0.0743996 -0.113032855 0.06518001 -0.37605527 0.06349628 0.12169143 0.22815977 0.046418402 -0.039727718 -0.39237398 0.24005005 -0.12879777 0.021460444 0.066113785 0.18431592 -0.04828372 0.09182922 0.32703862 -0.4774773 -0.17231795 -0.14282078 0.22537525 0.16294728 0.20551276 -0.024296297 -0.43926713 -0.00017685871 -0.35981202 -0.04557751 0.036413472 -0.006432711 0.271091 -0.019770706 -0.4769517 0.020482747 0.21545139 0.007158149 0.23878424 0.075086705 -0.011490669 0.24466011 0.110981464 -0.20365687 -0.05501832 -0.021601303 -0.061196003 -0.35493356 0.39897057 0.34381172 -0.26523894 -0.34403887 0.028875029 0.14887623 0.19999774 -0.6650568 0.05443921 -0.22212897 0.015262046 -0.27367797 0.47364524 0.2406494 -0.13571656 0.3420637 -0.25195098 0.0501671 -0.12737039 -0.48748392 -0.035574097 -0.36499354 -0.27878603 0.19283822 -0.41081983 -0.063174926 0.19479601 0.22243758 0.529624 -0.12210513 0.10838486 0.19010991 0.35349578 -0.047871158 -0.16411364 -0.00192633 0.056681205 -0.03898943 0.2422154 -0.21285836 -0.104187615 0.005025103 0.39159775 -0.2930615 0.07158042 -0.24583983 0.14440951 -0.64674395 -0.20583333 -0.20244226 -0.34551498 0.082048446 0.15412836 -0.08141415 0.38656145 0.09456504 0.19932339 0.50367546 -0.25290683 0.13370998 -0.29784894 0.4868469 0.013823913 -0.11567664 0.029444065 -0.065750286 -0.30038533 -0.33408177 0.18319732 -0.090878956 -0.059060514 -0.051616326 0.34175333 -0.06890779 -0.4792518 0.044342164 -0.19023572
6190 0.055071104 -0.4851962 0.19579268 -0.23170239 0.32334158 -0.34553626 -0.16532949 0.21436621 0.19078438 0.5732826 0.03295513 0.10505685 0.34259486 -0.49697688 0.30469075 0.4700616 -0.119339205 -0.059761014 -0.2634883 0.10156648 0.03485251 0.31958047 -0.31470105 -0.2692236 0.028542684 0.287914 0.08254226 -0.29218882 -0.107675105 0.21074335 -0.2940712 -0.21158442 0.49759525 0.34842333 -0.21859555 0.3411848 0.8582822 0.38368276 0.42235693 -0.11091582 -0.07259836 -0.048523743 -0.06631477 -0.24774444 -0.3037398 -0.0325246 -0.13986818 -0.3107431 0.039921846 0.15093899 0.11015305 0.033763163 -0.07973894 0.17622057 -0.39556125 -0.41460025 0.32376936 -0.03793009 -0.23183542 0.26880744 -0.14331232 0.23357828 0.24627401 -0.3279067 0.3053386 0.053890668 -0.050825804 -0.25007623 -0.15714298 0.14613992 0.0448016 0.13822408 -0.35649833 -0.022751685 -0.071955025 -0.38379854 0.030073335 -0.30582246 -0.2624686 0.13475046 -0.3187067 -0.14669445 -0.09410198 0.5004461 -0.19963112 0.15643612 0.52869475 -0.28650245 -0.10255007 0.2368823 -0.064174674 0.074464425 0.1813982 -0.038623217 0.17115635 0.39143515 -0.2384522 -0.37914422 0.024475826 0.112502106 -0.26163188 -0.017975029 0.17096655 0.1626059 0.014677768 0.028568255 -0.048733488 -0.07844843 -0.123399906 -0.1639051 -0.32927385 0.015593115 -0.10644983 0.51062685 -0.02961878 -0.055041786 -0.283856 -0.030126655 -0.10652817 0.044116706 -0.12738653 -0.15842175 0.12208776 -0.21772593 -0.04076715 0.059745245 -0.16202469 0.14218056
11189 -0.14049777 -0.22466466 -0.29005516 0.25995016 0.19067763 0.1455246 -0.063763596 -0.39273247 -0.28753865 -0.1337961 0.36586607 -0.004752582 -0.09647023 -0.27846417 0.39946818 0.46456766 -0.46518707 -0.5028699 -0.08732351 0.553586 0.14638105 0.5885169 0.010128404 -0.004734445 -0.30953994 0.19714539 -0.24223115 0.12722062 -0.24258286 -0.33741054 0.06883102 -0.16195439 -0.048030086 0.1566943 -0.2901778 -0.19776297 0.003193916 -0.3315789 -0.2951256 0.4770329 0.02608293 -0.26333335 -0.19754408 0.039855435 -0.038788695 0.23327938 -0.2796036 -0.1983953 -0.16130868 -0.09710771 0.054558694 0.21196406 -0.16403382 0.16006894 -0.28275734 -0.06564986 0.33200878 -0.014764396 0.19317383 0.027355215 -0.11216796 0.027060235 0.30584332 0.068110384 0.18746199 -0.28373924 -0.10868645 0.048875187 -0.12747756 -0.13260153 -0.1563639 -0.6438594 -0.3823356 -0.3503441 -0.07842436 -0.17834139 -0.018536683 -0.2392055 -0.13924481 0.4633869 -0.033927307 -0.30042255 0.13204576 0.9072833 0.34488046 0.040690783 0.0818171 -0.04977069 0.32596698 -0.34716058 -0.1825079 -0.31058225 0.15736464 0.12832427 0.28873476 -0.026707962 0.25279868 0.22490177 -0.34977093 -0.01695114 -0.1527442 -0.1821325 -0.20890655 0.042911183 -0.0023902806 0.06769515 0.17391492 0.11082737 0.0073539973 -0.30527294 0.5422021 -0.2603852 -0.08466375 -0.076815344 -0.095387906 0.12651435 0.20266561 0.019541766 0.17678551 -0.12119574 0.04770633 -0.02575567 -0.0076169027 0.07801427 -0.395631 -0.39407253 -0.05430458 -0.3167434
10925 -0.11493139 -0.091752894 0.034012668 0.3234272 0.4825773 0.2891327 0.26814333 -0.27468967 0.06814429 0.34230867 -0.08760663 0.03616339 -0.5361355 -0.312527 -0.03559088 -0.20385213 -0.11690916 -0.10458356 -0.42050493 0.17448644 -0.039441325 0.286788 -0.13709883 -0.3976836 -0.49283087 0.16163519 0.22407675 0.2950307 -0.28630728 0.18153389 -0.07132455 -0.28537992 0.09484785 0.37301508 -0.39711624 -0.29040682 -0.38878036 -0.4353522 -0.3357696 0.2836262 -0.437103 -0.06275914 -0.43221748 0.017791003 0.1737337 0.014365833 -0.3426463 0.099761866 -0.3889672 0.11006382 0.13839407 0.047302336 0.055857357 -0.060631517 -0.57267445 0.1991855 0.33692962 0.03145199 -0.07274432 -0.16577168 -0.31629732 -0.023526363 0.17805481 0.019193452 0.13687517 -0.3149595 0.10932331 0.42663738 -0.26483724 -0.06273063 -0.21711645 -0.20336093 -0.6769623 -0.14992195 -0.5215554 -0.4481693 -0.11591347 -0.3631103 -0.22167063 -0.062545754 0.0981868 -0.060857795 0.13588943 0.34659728 0.12149905 -0.025663948 0.33303136 -0.1978504 -0.18605538 -0.25276965 0.1104519 0.17427759 0.18594408 -0.3782137 0.09885482 0.30560765 0.49704105 -0.23311803 -0.07037632 -0.26994535 0.08842683 -0.34424973 -0.035183936 -0.28631258 -0.2270471 0.39192963 -0.12158951 0.18744113 0.120883316 0.033211168 0.19956547 0.15007317 -0.29035416 0.13924028 -0.430202 0.0022453058 0.03344312 0.037105996 0.13844205 0.35187286 -0.1267458 -0.029633522 0.13958657 0.25414762 -0.036585193 -0.20752837 0.1005286 0.18113783
8785 -0.15795271 -0.25813642 0.11594429 -0.08104339 -0.08152836 -0.0691241 -0.18286356 -0.32056323 -0.008809253 -0.0068114093 0.28634787 0.17925309 -0.126159 -0.07267677 0.095187776 0.4016766 0.027952993 -0.06693312 0.32880342 -0.018242436 0.105369136 0.47197944 -0.1015252 -0.4631319 -0.12493778 -0.01943902 -0.25308555 -0.15787761 0.06923252 -0.34873992 -0.011858968 0.11633792 -0.16519746 0.340715 -0.24454723 0.13974054 0.032276236 -0.6536453 -0.28476134 0.27604562 -0.3283346 -0.10077008 0.162522 -0.34608853 0.02938896 -0.10970083 -0.47035673 -0.09391875 -0.17722681 0.05757988 0.45220682 0.21768032 -0.11585235 -0.2791339 -0.14467582 0.1067771 -0.046290945 0.43591124 -0.40860158 0.09838028 -0.1603444 0.19073708 -0.044062153 -0.21145971 0.12064206 -0.09470608 0.38509506 0.10360487 0.068954594 -0.0021199714 -0.24073279 -0.10925346 -0.35620338 -0.38561752 -0.06980113 -0.14921257 -0.079472944 -0.0051270006 0.06665771 0.22340749 -0.039792042 -0.0028394565 0.18170308 0.597446 0.34080148 -0.05745726 -0.052571513 -0.09166454 -0.30288553 0.026859071 -0.021404684 -0.067524195 -0.1184469 0.040559363 0.24761915 -0.050014608 0.41590995 -0.090014726 -0.65811396 -0.28930497 0.25737727 -0.043795664 0.06086283 0.25615343 0.008412511 -0.10660246 0.022835033 0.25953227 0.07990412 -0.39906967 0.27235776 -0.19456613 0.17102405 -0.105896465 -0.20373152 0.10991349 -0.09074903 -0.22409153 -0.041672997 -0.08319824 -0.34849858 -0.4631374 0.015022006 -0.18981454 -0.0106753 -0.27268034 -0.16425312 -0.36354685
14284 0.23258388 -0.02307632 0.13915855 0.25252336 0.23735592 -0.14220335 0.030564005 -0.040023837 -0.032289434 0.14545381 -0.17455825 0.12951723 -0.22677554 -0.22726478 0.1574288 -0.002453987 -0.28371686 -0.37446672 -0.6628559 0.23907174 0.016876156 0.13760076 -0.28768986 -0.2525194 -0.5325862 0.28828573 -0.09005173 0.00043944354 0.0060646804 0.046685044 -0.14806673 -0.14160767 0.12762728 0.1533573 -0.32293996 -0.22732027 -0.33927295 -0.5783339 -0.29758254 0.14376386 -0.24983189 -0.33596107 -0.37546867 0.15084341 0.13376512 -0.4063115 -0.43353772 -0.09444663 -0.652877 0.051041745 0.4614771 0.14374046 -0.11432809 -0.11529485 -0.36454996 0.050815407 0.46645668 0.16948354 0.16218092 -0.17986651 -0.3524891 0.06510359 0.28496507 0.041922025 0.32456493 -0.19555002 0.10382385 -0.041160155 -0.41215518 -0.1749297 -0.24838145 -0.3063732 -0.75994337 -0.11670361 -0.175062 -0.12285947 -0.091245286 -0.133426 -0.03259034 0.20644702 -0.012716451 -0.059272613 0.28636196 0.32760987 0.06370687 -0.2282537 0.04272443 -0.099203594 -0.011007433 -0.13279983 -0.20852476 0.071479335 -0.011110824 -0.22083487 -0.18333691 -0.03944674 0.38911837 -0.10364998 -0.10839647 -0.29982835 0.26292974 -0.26828533 -0.18848135 -0.0331725 -0.19511704 0.36703056 0.14623071 0.38740835 0.07462373 0.04110775 0.16057485 -0.016966023 -0.009826588 -0.039927937 -0.16147442 0.20751604 -0.22301525 0.21418655 0.013785758 -0.034629244 -0.19524294 -0.051331222 0.11391054 0.296807 -0.05383799 0.03807218 0.26488242 0.17063293
11317 0.06271452 -0.408867 -0.016409462 -0.24359988 0.5626873 -0.041356467 -0.068687156 -0.057562593 -0.09478708 0.56743044 0.17503834 0.009136021 0.041862115 -0.16498972 0.17156605 0.29730475 -0.23387662 -0.14714876 -0.24862206 0.43958238 0.028524803 0.4428704 -0.21513276 -0.2693377 -0.36036178 0.27904788 -0.044903807 0.31782925 0.03490646 0.0466396 -0.31763923 -0.15158704 0.36329412 0.2588721 0.36667448 0.59088373 0.37257475 0.32483926 0.12386754 0.18478917 -0.12296386 0.4376713 -0.09035237 -0.12878484 0.105313346 0.029220346 0.094182976 0.26343584 0.128684 0.3882934 0.20787042 0.2134028 -0.015621727 0.13502598 -0.45454893 -0.54718035 0.23485191 -0.07264908 0.09989422 0.15301974 0.090370625 -0.02967658 0.2673079 -0.1531485 0.60810757 0.028889794 0.24221061 -0.47786382 -0.073421635 -0.07009791 0.13628055 -0.023159582 -0.024787428 -0.2547832 0.43999678 -0.40316913 0.30088815 -0.58251476 -0.5055865 0.01335119 -0.214462 0.07301284 -0.17520194 0.35990095 -0.36417517 0.16005342 0.2906184 -0.25925845 0.1145777 0.14207888 -0.20243914 -0.05209254 0.22330077 0.30324134 -0.046434015 0.112381384 -0.2926174 -0.7180798 0.009113638 -0.13875422 -0.07025398 -0.12396423 0.024214007 0.40296543 0.2712472 0.14009587 -0.05357866 -0.069783464 0.062685445 0.19196668 -0.45407447 -0.14700602 -0.05665137 0.07196863 -0.044687316 -0.025404837 0.022545421 -0.2474751 -0.028286725 0.3241589 -0.19318683 -0.039825313 -0.017664481 0.13781928 0.24826004 -0.105401136 -0.31132218 0.068452604
10821 -0.117552884 -0.28851107 0.07665441 -0.21258156 0.068056695 0.015891915 0.10262021 -0.064247504 -0.24735959 -0.05265485 0.11410037 -0.14575155 -0.17242883 -0.29691118 0.27806324 0.5453966 -0.11204501 -0.28355223 -0.25755712 0.21487999 -0.056291353 0.49927932 -0.050497793 -0.08295489 -0.18486634 -0.08542653 -0.29109246 -0.24325922 0.10910067 -0.22502871 -0.15193956 -0.004397786 -0.019031044 0.23708907 -0.38839602 -0.1701822 0.13932085 -0.5289721 -0.18027827 0.15218864 -0.031606264 0.04547294 0.1069975 0.1067838 0.15700856 0.30767503 -0.33860278 -0.013122367 -0.1722907 0.06449975 0.24437352 0.016104015 0.0048324554 -0.2085202 -0.3279697 -0.014568674 0.37242812 0.3863405 0.046649072 0.16263926 0.17466916 -0.18539865 -0.13584626 -0.064542376 0.3323082 -0.3614956 -0.1561924 0.23737758 -0.3899011 -0.211175 -0.1440408 -0.32789963 -0.4286881 -0.1954307 -0.14097254 -0.11712425 0.0077725793 -0.26595742 -0.1380988 0.14255688 0.009983876 -0.30380896 0.21832444 0.7954904 0.6164294 0.17617156 0.16722195 -0.20224053 0.23530644 -0.19712207 -0.25853086 0.19937202 0.36606723 -0.09791549 0.27597114 0.110912964 0.2763517 0.3450747 -0.23935792 -0.29885614 -0.20392463 0.11504712 -0.19319007 0.07739884 -0.033187877 -0.12016399 0.10800764 0.24698779 0.22839028 -0.36235714 0.16882949 -0.18766315 0.041162573 0.06190405 -0.04886957 0.04735144 0.22106357 0.024199713 0.38413128 -0.0678056 -0.042811714 -0.07774343 -0.0647039 -0.09597677 -0.15667516 -0.21519329 -0.18646778 -0.10120462
10895 -0.20889969 0.016003575 0.13516201 0.2618823 0.16317464 -0.031112684 0.12811573 -0.37701818 0.026767083 -0.04050919 0.06746163 0.09516522 -0.30872154 -0.27523306 0.08975099 0.12582476 0.04968519 -0.28786796 -0.29853708 0.064705424 0.16462943 0.46984723 -0.24294306 -0.4142479 -0.27857086 -0.027908709 0.23815423 0.5359917 -0.124916404 -0.008296891 0.16231291 -0.3152709 0.17906295 0.47638056 -0.31282288 -0.22409889 -0.14937879 -0.42191008 -0.100052565 0.122542575 -0.017726408 -0.23968786 -0.33221725 -0.07737984 0.19288383 -0.43011752 -0.2293478 -0.21674705 -0.23075059 0.16455646 0.014937999 0.0368476 -0.23586026 -0.028483735 -0.13310719 0.0676275 0.24000618 -0.0027574298 0.12081209 0.041874122 -0.29467466 0.117025554 0.21928355 -0.06319166 0.4683461 -0.38388097 0.03618741 0.1681489 -0.60927093 0.2311892 -0.30618018 -0.12842923 -0.49894723 -0.09212122 -0.34254065 -0.26942822 -0.055017587 -0.024274983 -0.041253738 0.032546103 0.22504137 -0.0709058 0.1295603 0.49073833 0.24733846 0.28702727 0.17381024 -0.35329327 -0.044356573 -0.08296083 -0.25241145 -0.056997404 0.2206017 -0.2460608 -0.00063234766 0.10714869 0.4032954 -0.0017631443 0.14407787 -0.31192675 0.060715165 -0.2765515 0.015803874 0.30799878 -0.2958506 0.111635834 -0.08223437 0.40050676 0.11889357 -0.06635444 0.004058604 0.12761493 -0.22165048 0.32309568 -0.2893165 0.10732197 -0.28440353 -0.11031694 0.14223443 0.27949473 -0.39401972 0.10804387 0.18566401 0.24068023 -0.048770517 -0.0869257 0.08612619 0.2732352
11740 -0.07630572 0.0018462252 0.14771846 -0.20427553 0.020850768 -0.066984355 -0.04090974 -0.15623309 -0.296256 -0.046963513 0.22216071 -0.1277799 -0.1305658 -0.11525973 0.17223969 0.41763553 -0.3201245 -0.05515664 -0.33592045 0.23300812 -0.13431996 0.4671629 -0.1983122 0.18590684 -0.2487708 0.15984151 -0.09249684 0.04684227 -0.05012017 -0.2783644 0.15731831 -0.13167582 -0.21330555 -0.012521193 -0.34445098 -0.17650409 0.025912665 -0.5195342 -0.038065568 0.23186734 -0.061315622 -0.19378567 -0.03928422 -0.21033011 0.1591558 -0.022861581 -0.42108577 -0.17248888 -0.20964186 -0.07597058 0.4492942 0.27013633 0.055877168 -0.17226449 -0.07158092 -0.25343442 0.4467568 -0.14377977 0.07703603 0.014999516 -0.086479224 0.0756353 0.3166558 -0.056195177 0.3859329 -0.1313345 0.13769856 0.29846185 -0.26389086 -0.4994136 -0.21267982 -0.45819074 -0.45803088 -0.4084653 -0.3358519 -0.31087023 -0.07796603 -0.1747684 -0.034728743 0.4468277 0.08188776 -0.058450345 0.17648013 0.5375439 0.42518756 0.10095991 0.1590226 0.006945819 0.37189606 -0.16500014 0.31630766 0.15594652 0.23220573 -0.025793733 -0.05167121 -0.059979502 0.18653986 -0.0853108 -0.24656667 -0.23324122 0.13578343 -0.36375028 -0.2605818 0.11064668 0.013719902 -0.012456976 -0.07857658 0.26365483 0.16829559 -0.32883427 0.25485247 -0.23064342 -0.102182195 -0.2757363 0.020050684 0.114394225 -0.011923274 0.08247083 0.24711178 -0.22739296 0.14607102 0.0049182046 -0.08315627 -0.12734792 -0.3196239 -0.32941407 -0.031167075 -0.21119122
10862 0.22830541 -0.6459423 0.3736265 -0.1866773 0.35356212 -0.46835968 -0.01017755 -0.1765334 -0.07478984 0.485793 -0.32844383 -0.106720716 -0.10362358 -0.4237237 0.40883788 0.22812669 -0.32374123 -0.19684353 -0.119699016 0.17189439 0.055653784 0.06472524 -0.27370983 -0.18213639 -0.06631689 0.14729369 -0.13698539 0.12025995 0.0988268 0.120646514 -0.21929358 -0.059220105 0.14205515 0.30849624 -0.19293928 0.2714324 0.6791349 0.07009724 0.11967603 0.39244804 -0.12054835 0.047329944 0.032106113 -0.084168546 0.024165384 0.22568592 0.00877488 -0.33399215 0.20387156 0.011489916 -0.1041665 -0.15800965 -0.040436026 0.029238315 0.002567138 0.05834117 0.15572062 0.007718797 -0.24849291 0.2424597 -0.32397965 0.2329301 0.00452827 0.14074051 0.2296478 -0.13417003 0.119429216 -0.266288 0.005914195 -0.32536882 -0.12644027 -0.16450083 -0.25536838 0.026969442 -0.064489044 -0.42017728 0.09457062 -0.5956146 -0.43928766 -0.46260148 -0.0807882 -0.039453413 0.13315465 0.3518474 -0.49239627 0.3208606 0.42752117 -0.38619107 0.08660943 0.078492746 0.20750852 -0.10597871 0.34951055 0.013746901 0.19741516 0.13242446 -0.43501133 -0.24587053 0.069321714 -0.11602233 -0.021110272 -0.083748594 -0.14786151 0.22070329 0.09740078 0.07695068 -0.07098466 -0.27524862 -0.48810723 0.2949265 0.03132725 -0.109803885 0.07065317 0.6647841 -0.03536457 -0.25178027 0.008027213 -0.06739063 -0.14081977 -0.3064684 -0.121679634 -0.24235658 0.105476804 0.07845601 -0.1975733 0.0090256715 -0.2013497 0.2673493
14521 -0.25024003 -0.5122407 -0.02910611 -0.2437155 0.2090911 0.00050592644 -0.011280283 0.19821551 0.14018822 -0.21512344 -0.04053374 -0.051925432 -0.05411362 -0.13587078 0.016196642 -0.09108944 -0.06347015 0.050360285 -0.24929038 -0.059159994 0.046374265 0.20245494 -0.23770522 -0.066643186 -0.14659657 0.1243594 -0.12425 -0.119878516 0.024761146 0.028930763 -0.09920664 -0.051795185 0.19110118 0.50501585 0.060444467 0.25332633 0.29271758 -0.28153276 0.059856046 0.52510214 -0.071430236 0.30756646 0.11459391 -0.06456671 0.07902411 -0.058262467 0.06094961 0.17187536 0.086260796 -0.31907323 0.17648822 0.053550843 -0.030182252 0.20261465 -0.22080359 -0.14988892 0.054226022 0.25384966 -0.24437502 0.0685703 0.16849588 -0.22145876 -0.11968294 0.18636954 0.38988253 0.303156 0.22518948 0.01601911 -0.32463706 -0.18701948 -0.34531018 -0.25778392 -0.069303885 -0.051879454 0.42700687 -0.3704872 0.14677235 -0.2505772 -0.06367632 0.12531418 -0.10357161 0.10194078 -0.0063847685 0.3284519 0.00047631504 -0.14984882 0.05014994 0.06343564 -0.039074574 0.23874353 0.075275354 -0.12960917 0.009735578 0.15327173 -0.18063705 -0.054222748 -0.34216493 -0.40663996 -0.51286095 -0.27604088 -0.008929151 -0.53670716 0.15180482 0.26558328 0.108574234 0.038166955 0.00074915454 -0.016389795 0.35665548 -0.26497126 0.050337747 -0.20705816 0.2937827 0.25712642 -0.092271246 -0.30660546 -0.05786986 -0.40550107 -0.10369588 0.09323864 -0.12975149 -0.2066505 0.16398267 0.18163837 0.08712197 -0.13128297 0.26611802 -0.1385147
11448 -0.20394602 -0.13373695 -0.18755318 -0.04822324 0.086693905 0.05807296 -0.14489888 -0.32938066 -0.11450765 0.029573046 0.15302034 -0.048828408 -0.074218385 -0.2293327 0.051152922 0.15203525 -0.37152404 -0.50239336 0.046664603 0.16118109 0.24427395 0.21381943 -0.23075698 -0.11689003 -0.19271754 -0.09436442 0.08402343 -0.1252187 -0.25141624 -0.431562 0.1390516 -0.4236946 0.13317934 0.17991722 -0.24018945 -0.18608926 0.07172279 -0.45762017 -0.18698962 0.13571888 0.26764488 -0.16648355 -0.40378842 -0.12454664 0.13986482 -0.0033598484 -0.3976685 -0.22507663 -0.044994757 -0.025243107 0.28056663 0.12882435 -0.11778147 -0.034459878 -0.5122707 -0.15366447 0.34722504 -0.15016383 -0.072481945 0.013718497 -0.013791758 -0.029578306 0.35597804 0.30497697 0.42424247 -0.33615586 -0.35892272 0.20871031 -0.12228968 -0.28291595 -0.33084622 -0.31359863 -0.37096965 -0.22442393 -0.116161525 -0.2094132 -0.42388958 -0.19442922 -0.06984292 0.3069433 -0.020879993 -0.17202958 0.38839427 0.81633925 0.46022534 0.24795823 0.2570082 -0.45958215 0.20702995 -0.3817385 -0.09311625 -0.119965374 0.34328124 0.12929043 0.1825149 -0.030756867 0.17766522 0.2650938 -0.29564592 -0.115264386 -0.28737032 0.025969794 -0.30636555 -0.05124173 -0.29425764 0.14667308 0.06643362 0.47255382 0.48727262 -0.38644537 0.24247982 -0.13704939 0.03934025 -0.06158071 -0.102030605 -0.06109931 0.2650756 0.11591037 0.328818 0.047792114 -0.106873676 0.10547305 -0.11358556 0.20120655 -0.5614268 -0.41726843 0.034056894 -0.37562782
14454 0.22792715 -0.6000918 0.45153052 -0.12070151 0.13867462 -0.49693677 0.049106088 -0.098266914 0.0765363 0.17067981 -0.14929926 -0.12209435 0.17791754 -0.21170527 0.07333957 0.48506704 -0.4292569 -0.22023806 -0.3400841 0.4988032 0.17998156 0.21308218 -0.019675257 -0.28122276 -0.061588105 0.07896391 -0.06152879 0.081117876 -0.32598576 0.47825357 -0.039907053 -0.054466907 0.1800362 0.28713876 -0.24166581 0.176059 0.5180466 0.23932107 0.20862983 0.15699673 -0.29562548 0.14658062 -0.22003241 -0.27985725 -0.25910237 -0.036329705 0.106358625 -0.30365062 0.13474934 -0.17899762 -0.13321048 -0.22569764 -0.25164002 0.1325271 -0.29225212 -0.2375169 -0.012203153 -0.34534523 -0.4199751 0.34915975 -0.46838573 0.027567552 -0.16349444 -0.076204695 -0.06418481 0.004738147 0.042396605 -0.45111445 0.03226319 -0.121852234 -0.08120672 -0.22119898 -0.2509848 -0.36443487 -0.17203388 -0.40497166 0.42679214 -0.7151539 -0.4993504 0.05513131 -0.026709955 0.07007704 -0.049321353 0.74910045 -0.6789119 0.33844692 0.29037967 -0.2455613 0.08542743 0.06327562 0.09762637 0.0073070386 0.057355497 0.23737228 0.411388 0.06893229 -0.12072775 -0.29484403 0.013595679 -0.4617685 -0.2753858 -0.0009229118 -0.07458167 0.32891676 -0.0037596223 0.14339338 -0.17968431 0.093830034 -0.23443715 0.017490748 -0.12027508 0.03367798 0.05391547 0.5199033 0.37691492 -0.08737481 -0.13769731 -0.09826851 -0.01634318 -0.2043403 -0.119488746 -0.09997909 -0.17915763 0.1716098 -0.104760416 0.21732053 -0.33909243 0.05595869
8804 -0.33299896 -0.021328134 0.19436342 0.09175293 0.35382763 0.047378954 0.246481 -0.25450256 0.06782112 0.22405691 -0.1157909 -0.03496356 -0.44905454 -0.48821712 0.1095918 0.11171547 0.077267796 -0.289765 -0.37407094 0.032580458 0.03314103 0.4588703 -0.1973431 -0.3313443 -0.04066348 -0.05898381 0.041732166 0.29264277 -0.15974368 0.028546764 -0.039857954 -0.05366616 -0.091170356 0.12842792 -0.3505518 -0.3305103 -0.2846636 -0.5716658 -0.23236094 0.30266026 -0.10814766 -0.10483954 -0.37479866 0.122907706 0.02428266 -0.1958685 -0.1012635 0.0133544365 -0.36855325 0.20668621 0.50958145 0.095177196 0.01594498 0.15802744 -0.15852281 -0.045238186 0.49099034 0.29237863 -0.06282154 0.06262431 -0.18100472 -0.09326294 0.48974472 -0.07601484 0.30778405 -0.110033415 -0.069378406 0.107163444 -0.33135006 -0.045514606 -0.06843081 -0.13598052 -0.35394815 -0.029529728 -0.3143622 -0.41630676 -0.08172021 -0.40577054 0.08513338 -0.045364216 0.20049241 0.021676505 0.3057502 0.3529581 0.13028921 0.116819985 0.21643585 -0.2063617 -0.03996174 -0.38698 -0.18240638 0.008983768 0.023135213 -0.33482873 -0.17216052 0.24861374 0.5328069 0.08323875 -0.25822288 -0.3555409 0.27161598 -0.13554645 -0.106290236 -0.06172627 -0.035696816 0.3344472 0.005329337 0.005421688 -0.011384138 0.00018442623 0.18306574 -0.03537232 -0.061912525 0.21066326 -0.37599745 0.22511502 0.102757 -0.19846836 -0.03362838 0.054126564 -0.13667688 -0.2593979 0.19569607 0.19975667 0.0030229557 -0.077012815 0.046303026 0.11182394
14358 0.0003824162 -0.10990958 -0.031156123 -0.023061728 0.3184873 0.22134273 0.10906729 -0.06321504 0.34758702 -0.0011472177 0.11075198 0.21545938 -0.26244396 -0.30724472 0.2344202 0.32452285 0.16207534 -0.025009979 0.003165916 -0.25987944 -0.34155175 0.54321605 -0.33017272 -0.34683925 -0.67562115 0.35914004 0.038511906 0.03923442 0.018083816 -0.14548202 0.029804615 -0.09047138 0.12778328 0.26388457 -0.029173965 0.3797204 0.08107336 -0.24278498 -0.1297191 0.37202126 -0.10676163 0.29943934 0.00498009 -0.3760818 0.35752943 -0.15060885 -0.10213049 -0.10224575 -0.23681588 -0.42380267 0.26286322 0.05419117 -0.12859726 -0.053999804 -0.08990049 0.042959586 0.16272129 0.2815423 -0.338059 -0.011182551 -0.060738444 0.010040746 -0.265786 0.28439885 0.19987296 0.3651957 0.24780205 -0.16877179 0.05608622 -0.28519905 -0.4510622 -0.2399062 -0.33600852 -0.002195128 0.49222222 -0.24615493 0.18997486 0.18966724 0.16639094 0.0714935 -0.16817375 0.20981514 0.28229445 0.45389625 0.4051567 0.03996506 -0.18234275 0.13954517 -0.0057242177 0.15068138 -0.09773551 -0.15332417 0.07486699 0.3116198 0.18293105 0.073476635 -0.5385552 -0.21311799 -0.26220587 -0.046804894 0.008302612 -0.33713418 0.097922176 0.29942194 -0.052331332 -0.18114774 -0.3022427 0.12174589 0.22520383 -0.22481048 -0.15219411 -0.1820604 0.29208815 0.25429353 0.033483334 0.054769583 0.014768873 -0.41955742 -0.29296687 0.22324446 0.10400278 0.031109538 -0.08628267 0.193924 0.153471 -0.3252794 0.13953866 -0.12122222
13981 0.0771482 -0.2774183 0.16583651 -0.23683481 0.29967132 -0.24873818 -0.2073697 0.23956172 0.039936718 0.260009 -0.07321167 -0.037723098 -0.2505082 -0.16820143 0.19849335 0.023521915 0.14987175 -0.16345187 -0.11735975 0.2051016 -0.053056065 0.3817413 0.06765812 -0.301509 -0.27712762 0.3894697 -0.08136524 0.022104101 -0.0061294744 0.092338264 -0.41412583 0.0042761182 0.20332049 0.27955908 0.12410962 0.5533307 0.33066493 0.01741571 0.09566204 0.106898695 0.008114918 0.3284942 -0.2018238 -0.25664645 -0.12622793 -0.056362897 0.05903226 -0.12752458 -0.05108695 0.233117 0.13525356 0.1093321 0.07743711 0.11383529 -0.40943822 -0.51684815 0.21697445 0.13199745 -0.25230777 0.071641155 -0.038319502 0.16103932 0.08998412 -0.16192336 0.20018727 -0.02508473 0.2827332 -0.2500071 -0.11283263 -0.042182744 -0.13126208 -0.11836934 -0.19094974 -0.12466181 0.16586828 -0.185695 0.17946684 -0.3255267 -0.39194867 0.04085188 -0.08195169 0.077627644 -0.08369489 0.5491693 -0.21114239 -0.061839636 0.3429068 -0.36298987 -0.023328334 0.24221712 -0.19348088 0.16979086 0.2707982 0.20562758 -0.10196818 0.21730469 -0.48564228 -0.7240828 -0.16241954 -0.47902408 -0.15328652 -0.092195235 -0.016779708 0.33003494 0.34689814 0.18185902 -0.4240278 0.057698485 0.17902935 0.037387308 -0.5442395 -0.13241911 -0.07455099 -0.0046244394 -0.14508379 0.14192154 0.028780978 0.13262388 -0.08668258 -0.09760153 -0.1950919 -0.12621562 0.24700564 0.17010604 -0.008956656 0.025515463 -0.06617921 0.47082353
11994 0.0077957152 0.02426321 0.055500038 0.198314 0.25079626 0.02186327 0.39347732 -0.11654071 -0.041457485 0.021565381 -0.31389207 -0.17622828 -0.33508235 -0.19528364 0.16934577 0.10792027 -0.14045246 -0.4571362 -0.29451278 0.27836993 0.21369764 0.3917639 -0.2792083 -0.55171555 0.051928382 -0.105702 -0.01137925 0.037728485 -0.43311355 -0.002668225 0.020098219 -0.13387886 0.22771254 0.3479016 -0.23190701 -0.17218044 -0.2707741 -0.28239623 -0.2485324 0.1663857 -0.5220144 -0.18987285 -0.23883808 0.34749603 0.03355757 -0.30530015 -0.11196408 0.10932192 -0.35109797 0.09273396 0.39486432 0.22454815 -0.11688473 -0.06383425 -0.40069765 0.08512147 0.5681259 -0.19615568 0.091780834 -0.07466129 -0.20892705 -0.11418185 0.17838752 0.048533447 0.3486494 -0.4241263 -0.0067156274 0.006495568 -0.43734685 0.101187944 -0.39324233 -0.056261856 -0.44374928 -0.32530928 -0.38819215 -0.3423634 -0.053342488 -0.26589602 -0.05318389 0.28386495 -0.21201617 -0.16952789 0.02124816 0.5681638 0.3257623 -0.22288787 0.45933607 -0.36883852 -0.08268378 -0.26224625 -0.30659965 -0.34081948 -0.0014881687 -0.3079932 -0.010983112 0.07024634 0.6248368 0.05687229 -0.044586826 -0.4137508 -0.16060473 -0.3969997 -0.22801334 -0.018054774 -0.40945795 0.40744534 0.08375416 0.1537933 -0.1949236 0.05422441 0.27912337 0.050591357 -0.14191465 0.1355919 -0.4173949 0.0070004263 -0.0055461633 0.14124694 0.004320359 0.29492882 -0.13546106 0.061292425 0.29398736 0.23491915 -0.41640037 -0.36791983 0.1467134 0.30342555
11450 0.36131427 -0.3294764 0.33151492 -0.40180567 0.18611765 -0.42970535 -0.20900582 -0.004776876 -0.15814182 0.21654151 -0.10775113 0.13369398 0.31992984 -0.26875776 0.14272489 0.3349257 -0.41784132 -0.17277254 -0.4482807 0.08264337 0.2587636 -0.0026923409 -0.33752945 -0.46127993 -0.13756615 0.1075546 0.008828145 0.13589478 -0.2461044 0.22840868 -0.1865971 0.13125677 0.4679921 0.39276502 0.19035321 0.30418324 0.5393749 0.1937694 0.5307505 0.16825576 -0.10556095 0.19280128 0.01429241 -0.22871009 -0.10998921 -0.1486566 -0.004600144 -0.2176212 0.015418193 0.15188332 0.12496523 -0.1516629 -0.051901024 0.21372785 -0.20545183 -0.3107001 0.24339066 -0.038638026 -0.59435976 0.30748433 -0.3772377 0.2705425 0.06535511 0.088731445 0.2386477 0.31490618 0.48742226 -0.388391 0.06091655 0.13662781 -0.18612422 -0.022285022 -0.15486267 -0.55682933 0.0016512772 -0.4255541 0.15374291 -0.33329433 -0.46671203 -0.23111589 0.05327491 0.23216183 -0.0115715675 0.6771411 -0.44080552 0.33443528 0.31351218 -0.3341738 -0.10204349 0.21777287 0.043858983 -0.11221286 -0.087432295 0.05139391 0.018869884 0.10802667 -0.10387352 -0.26577976 -0.15108362 -0.17917565 -0.14184101 -0.082756214 -0.045448408 0.21829946 0.29093686 0.08926576 -0.37092116 -0.13014936 -0.16028717 -0.10535353 0.030930523 -0.12087489 0.285176 0.14077331 0.18472923 -0.21745452 -0.017624127 -0.04465912 -0.3209697 0.030383794 -0.3790595 -0.2486524 -0.2003044 0.26389542 0.04767279 0.2084622 -0.29477793 0.09025274
11284 -0.07980521 -0.11405283 -0.06578004 0.015479322 -0.2805676 -0.038757976 0.08748826 -0.11210518 -0.19218919 0.054602705 0.21005714 -0.034938276 0.079441935 -0.21969451 0.45477554 0.301309 -0.2956249 -0.3806347 -0.485593 0.39799252 -0.01333728 0.50011784 -0.052931085 -0.24008109 -0.2820113 -0.044035614 -0.09027723 -0.13040203 -0.101106785 -0.31297907 0.18438612 -0.097271204 -0.3343112 0.12038716 -0.57030153 -0.32651666 -0.15105982 -0.4379772 -0.20151423 0.37964985 -0.042973023 -0.2632261 -0.32662743 0.07520008 0.2600003 0.27869985 -0.21778235 0.024377616 -0.23133816 0.16322683 0.26055273 0.1569486 0.041176993 -0.051850554 -0.33284783 -0.14082171 0.43250167 -0.10836934 -0.12317342 -0.17017244 -0.21799517 0.025045864 0.3759886 0.09248783 0.33822832 -0.2722207 -0.2732501 0.12962301 0.04077306 -0.3644843 -0.33758068 -0.39296347 -0.4383238 -0.36104533 0.12003691 -0.19463423 -0.12903544 -0.35058132 -0.15929475 0.30415142 0.2164525 -0.06809794 0.24151582 0.574346 0.39723304 0.2349531 0.34256122 -0.28775147 0.24125646 -0.16369349 0.39749017 -0.14029607 0.12720867 -0.08064137 0.24790314 0.05646307 0.34717014 0.23451123 -0.17339498 -0.21154465 0.09483079 0.06377792 -0.14481165 -0.1316932 0.060479973 0.013389668 0.08255555 0.15592642 0.0010046941 -0.3036745 0.19542544 -0.12693454 -0.010685275 -0.06057013 -0.11790212 -0.15255487 0.092289224 -0.22616625 -0.05113979 -0.21312772 0.013244168 -0.09074514 -0.1989184 0.18354137 -0.35541078 -0.31113547 -0.09936654 -0.057188176
10717 -0.1427005 -0.14876515 0.23948157 0.2640095 0.073574394 0.22570148 0.08633537 0.030511495 -0.09958247 0.24551767 -0.13274059 -0.2499148 -0.3502711 -0.049038097 0.20338613 0.0920389 -0.49933255 -0.048535917 -0.40033853 -0.15509592 0.3856733 0.6230942 -0.32061863 -0.21390173 -0.1238658 0.20194754 -0.055195633 0.21305178 0.108053565 0.03265038 -0.039187714 -0.31645605 0.05791832 0.036222447 -0.3349757 -0.29167786 -0.12738779 -0.26872936 -0.050553072 -0.060286824 -0.15409927 0.007950878 -0.21961573 0.21610765 0.15604328 -0.009922319 -0.14641656 0.30409145 -0.1384059 -0.10515124 0.2535745 0.3291066 -0.2964913 0.19422102 -0.33201733 0.117004916 0.4390271 -0.12770724 0.090422645 -0.06751684 -0.19193617 0.05649885 0.31623468 -0.069714695 0.5071826 -0.40460226 0.24697316 0.018598592 -0.08479413 0.15644982 -0.35824078 0.08575254 -0.76140845 -0.0978607 -0.005231711 -0.49794823 0.022478495 -0.02133769 -0.012326193 0.37936243 -0.084805645 0.057031285 0.21575622 0.14583555 0.4603588 -0.18032427 0.40986276 -0.3274167 -0.10499004 -0.081078105 0.065952376 0.10183974 0.069535635 -0.5390428 0.17974128 -0.16329819 0.4600038 -0.2660336 -0.19039734 -0.49589878 -0.08624573 -0.25371277 -0.25982955 0.28785935 -0.12029029 0.6511805 0.13097681 0.06279287 -0.14951488 0.0919491 0.15149334 -0.06426999 -0.45698142 0.30594555 -0.28746426 0.20541127 -0.1667992 -0.109267496 0.21552576 0.23327525 -0.2002694 0.16623655 0.22104797 -0.020916153 -0.2549108 -0.05065063 0.07415062 0.20021795
1384 -0.069799826 -0.14601004 0.11593602 0.372621 0.28313702 0.14024243 0.13053188 -0.18683712 0.07984793 0.34430057 -0.07552148 -0.038603775 -0.4045808 -0.27928764 0.27014422 0.11317471 0.069281965 -0.61540014 -0.15840338 0.16221087 -0.0170131 0.75835115 -0.17354763 -0.33098367 -0.12712653 0.02081277 0.19743818 0.1663347 -0.14571656 -0.097367086 -0.06299863 -0.36115587 -0.1783652 0.342239 -0.34668902 -0.42545485 -0.1530716 -0.52175725 -0.30348644 0.16783941 -0.4937896 -0.15844642 -0.18363428 0.092055246 0.22534761 -0.24758653 -0.4161876 0.0704272 -0.17169157 0.2010572 0.12527122 0.056838155 -0.095250666 0.0012092129 -0.1528491 0.25795794 0.3400528 0.27354786 0.20765637 0.0018624911 -0.11877148 0.12628967 -0.18625179 -0.1322187 0.43700466 -0.08789054 -0.008775029 0.03230556 -0.3024461 -0.28013992 -0.06417369 -0.12713952 -0.27580813 -0.13453148 -0.21701486 -0.36246428 0.005002342 0.0043822806 -0.009216828 -0.05529257 -0.07744547 -0.24947329 0.25158966 0.3885627 0.35512996 0.012970929 0.34148666 -0.066311345 -0.31086925 -0.19314878 0.066778794 -0.3205418 -0.14947152 -0.17838807 -0.056402273 -0.027181443 0.33286056 0.011504331 -0.13685699 -0.42861807 0.07086207 -0.4184507 0.031071255 0.2947127 -0.2412885 0.19719535 -0.10380478 0.46201694 0.11849408 0.17758152 0.1440541 -0.07928166 -0.15300964 0.2589523 0.15962732 0.35589033 0.05175988 0.12623763 -0.04425203 -0.0037949986 -0.30828327 -0.002444867 0.4916488 0.009167174 -0.23334667 -0.11034203 0.18088531 0.22164428
13172 -0.17572398 -0.401691 0.12126539 0.106768124 0.23796415 0.0227478 -0.0215934 -0.29511252 -0.37163407 -0.23294605 0.10966357 -0.16303006 -0.23362446 -0.36371675 0.28716072 0.3998461 -0.42966864 -0.2433044 -0.034393247 0.5732978 0.19082862 0.43133345 -0.20146388 -0.09347741 -0.18573625 0.13634932 -0.18498892 -0.08873355 -0.040443845 -0.26770532 0.045191273 -0.13991119 -0.033179358 -0.13183303 -0.2895439 -0.32729277 0.20065312 -0.45193696 -0.13060366 0.3214957 0.0602816 -0.26646775 -0.32788464 0.12051092 0.14431085 0.1739435 -0.4164853 0.13304497 -0.13710447 -0.15990649 0.11159587 0.30736902 0.02149821 -0.12786795 -0.2057801 0.10107107 0.40166196 -0.021307651 0.07944996 -0.26368982 0.0584715 -0.069133215 0.2274794 0.063953035 0.09383688 -0.20458415 -0.09894427 0.27289855 -0.08187177 -0.2894722 -0.17890303 -0.5109543 -0.41074362 -0.20683736 -0.050485462 -0.22649449 -0.39939356 -0.22319847 -0.101608515 0.22464463 0.0320494 -0.11163137 0.074437104 0.7069925 0.3684186 0.20584121 0.17908713 -0.24086007 0.24446745 0.06209782 -0.08382074 0.10211894 0.23656753 -0.07308713 0.15487504 0.099155895 -0.003922743 0.23541822 -0.23721515 -0.13726483 -0.08583091 2.0059808e-05 -0.09198114 0.22652149 -0.10642945 -0.16091421 0.2631409 0.20432448 0.19433016 -0.3630283 0.21034102 -0.36245018 0.11268029 0.12254138 -0.03369494 0.1440092 -0.15905541 -0.09113805 0.27086487 0.03707472 -0.2980784 0.1706777 -0.055395342 -0.05170012 -0.106773786 -0.3690982 -0.04748257 -0.103786334
943 0.27862498 -0.64709145 0.4828467 -0.16691957 0.52431583 -0.5479979 0.07669193 -0.21786204 0.30347115 0.16618226 -0.3128287 -0.21781467 -0.058443915 -0.42711917 0.20818368 0.26858288 -0.63970566 0.16079941 -0.15322779 0.07465581 0.16653511 0.19504279 -0.102176525 -0.36982238 -0.030615186 0.023739658 -0.0009534439 0.16087157 -0.021380745 0.23746821 -0.1343558 -0.10562866 -0.02382857 0.24026726 -0.17305684 0.43209204 0.43116057 0.14219256 0.1718809 0.19688283 -0.3171565 0.15187581 -0.3967068 -0.07110987 -0.15595214 0.10043293 0.009080499 -0.12985429 0.16064164 0.022856444 0.19782473 -0.17579456 -0.20575193 0.1756223 -0.115421504 -0.3701206 0.26016384 0.0054665864 -0.2178287 0.023119846 -0.33043146 0.07754021 -0.21954708 -0.13390593 0.0311823 -0.035832442 0.19546683 -0.38617414 0.055899553 -0.039427895 -0.0717506 -0.11441759 -0.2122815 -0.12459035 0.14168915 -0.13341662 -0.06948627 -0.60432243 -0.6189339 0.014539832 0.2761815 0.009236945 0.012456954 0.4740727 -0.43249664 0.38993227 0.42595345 -0.2350026 0.21499835 0.11265673 0.011847028 0.17032947 0.23033033 0.06409038 0.016959779 0.12391209 -0.16707003 -0.13409823 -0.060575344 -0.17148125 -0.16074848 0.079492114 -0.15527229 0.1726477 0.24516049 0.1352884 -0.48984385 -0.103975244 -0.2694398 -0.1701759 -0.29284132 0.024592137 0.08751509 0.35431653 0.24516326 -0.24781738 0.073067375 -0.016929002 -0.18982223 -0.16439165 -0.09553105 -0.08625984 -0.1482778 0.34761998 -0.11737626 0.14721876 0.113907 -0.14006983
14031 -0.021719867 -0.5527605 0.19817825 -0.07854502 0.033948485 -0.22151186 0.073409416 -0.55510175 -0.014366617 -0.047462083 -0.1260694 -0.3018978 -0.2343669 -0.61812025 0.09788495 0.13566472 -0.31365234 -0.1045158 -0.2619049 0.19599523 0.04430469 0.35519126 -0.4799722 -0.30966944 -0.041774306 -0.09890729 -0.027785208 0.14273019 0.09033956 -0.156555 0.08274985 0.0986584 -0.077020064 0.26279393 -0.27310798 -0.069541395 0.12500267 -0.5760097 -0.12243058 0.0015256698 -0.33357224 -0.3034804 0.11500129 -0.03216888 -0.10930387 0.18465862 0.1072048 -0.17444988 -0.14226642 0.3375731 0.19070739 0.291997 -0.25744426 -0.14343566 -0.08426177 0.098515585 0.14856143 0.033429418 -0.16083752 0.17532 0.19369544 0.095486455 -0.023125883 -0.35387197 -0.046335086 -0.08962844 0.32713276 0.04899272 -0.44437626 -0.13456699 -0.20352778 0.17577139 -0.4365331 0.15158322 -0.3557586 -0.30207646 0.19954367 -0.25746876 -0.07659541 -0.120060906 -0.10392663 -0.11995678 0.40682486 0.2676044 0.1988385 -0.04471888 0.22065215 -0.26833448 -0.010790568 0.16824965 -0.11981462 0.019178977 0.08886601 -0.0798824 0.1116945 -0.17760302 0.19642884 0.07219224 -0.12914884 0.14380498 0.34612682 -0.1416893 0.0076385243 0.14609179 0.019901654 0.064516254 -0.36186442 -0.020085467 -0.052460365 -0.1263882 0.11395797 0.28334108 -0.0041489764 0.26762268 -0.267573 -0.0034388057 -0.12566468 -0.29335147 0.18467677 0.052842405 -0.029789705 0.046235573 0.39325976 -0.14565198 -0.00525085 -0.07978844 0.07122241 0.15184794
5956 0.24113458 -0.40222308 0.12415417 -0.24982488 0.18677615 -0.24398144 0.17292437 0.28267384 -0.14141878 0.3492936 -0.09491194 -0.111215435 -0.025046034 -0.4534552 0.10358854 0.26403356 -0.070134275 0.068322174 -0.53528947 0.24534026 -0.20089975 0.31480724 0.11830426 -0.27116528 -0.4169709 0.01786094 -0.027166389 0.117585115 0.0666299 0.13325521 -0.19945092 -0.058125377 0.30778643 0.30761543 -0.25850466 0.4225841 0.6390429 -0.046597935 0.16772206 0.02423477 -0.17907405 0.3028896 -0.16045721 -0.043631103 0.22840455 0.01501044 0.070416726 -0.0126013905 -0.20138058 -0.14869528 0.47586322 -0.3012366 0.13675359 0.110616 -0.34927288 -0.18804415 0.70017165 -0.08712912 -0.18425371 -0.21212195 -0.22546189 -0.26808456 0.10580914 0.062405962 0.4806043 0.12091279 -0.0033122003 -0.40693873 0.025724148 -0.051946986 0.32207662 -0.07542735 0.14845753 -0.05999242 0.44100425 -0.32664654 0.18934393 -0.16751911 -0.6350208 0.36670023 -0.106191 -0.011541227 0.21665783 0.4368216 -0.22537203 0.50841475 0.22479397 -0.2584724 0.29157513 -0.030409273 0.05324706 0.14977956 -0.11652889 -0.062258948 0.10184634 0.35056797 -0.034014706 -0.7663448 0.035868887 -0.5479373 -0.18990178 -0.054125626 -0.093585774 0.25994825 -0.0082620075 0.24932472 -0.19344747 -0.0744514 -0.22814713 -0.30514354 -0.39278212 -0.3017271 0.12122419 0.24195814 0.38718426 0.00802508 0.05362974 -0.010418695 0.19516821 0.104721695 -0.18496381 -0.009029949 -0.19262874 0.63852555 0.16310255 0.36523843 -0.095954254 0.16961904
14199 -0.115173124 -0.46718428 0.15830238 0.17977208 0.14907652 -0.13430138 0.09606052 -0.31147644 0.15850197 0.26837075 0.383297 0.057919364 -0.17734842 -0.47268698 0.28557244 0.29749972 0.024747405 -0.34759167 0.2786814 -0.18324117 -0.112596616 0.49409768 -0.44921827 -0.43153647 -0.2645939 0.13956043 -0.00249822 0.22661631 -0.19412577 -0.1731901 -0.037293196 -0.2895039 0.032866687 0.31229386 0.013634177 -0.03448852 0.042981856 -0.20164552 -0.014719769 0.15956146 -0.3101783 0.035645716 0.0836449 -0.2895782 0.52624196 -0.23355766 -0.43620318 0.007645051 0.103498004 -0.071812816 0.42573464 -0.23105638 0.21668555 0.0016286818 -0.15589008 0.33832318 0.23344459 0.11531402 0.10516085 0.18699154 -0.08714371 0.47625524 -0.21670274 -0.049670443 0.16426177 0.0072180135 0.08903942 -0.1663742 0.2935225 -0.20857193 0.025498703 0.0044607893 -0.349962 -0.24956264 0.07809504 -0.5045844 0.22668247 0.12966013 0.14024463 -0.029572323 -0.40671837 -0.31602266 0.15791379 0.6178712 0.22815944 -0.06739863 0.19797836 0.0022145142 -0.46079218 -0.32334214 0.38218343 -0.6531168 -0.036200963 -0.29218173 -0.060174823 -0.0953562 0.37656856 -0.069987334 -0.6174665 -0.13398643 0.08302934 -0.6635335 0.21278635 -0.021330424 0.036449328 0.16255715 -0.37388572 0.16778688 0.17906392 0.01718087 0.30783424 0.19290166 0.13829921 0.08973284 0.10831181 0.22883609 0.31689638 -0.04338647 -0.23790699 0.31887078 -0.2510302 0.13506213 -0.05074769 0.19932769 -0.37875542 -0.08494873 0.38386652 -0.21001849
11471 -0.11804686 -0.18379904 0.07628648 -0.033455957 0.14942333 0.18561491 0.093270205 -0.14064176 -0.1603982 -0.08165263 0.17770688 -0.16625969 -0.071433835 -0.38795018 0.054900408 0.11445773 -0.43451154 -0.27099922 0.0043442925 0.2760218 0.18430005 0.23482756 -0.19524077 -0.23379952 -0.0636885 0.06322121 -0.024025336 -0.23465194 -0.21483228 -0.32166108 0.067915216 -0.15877567 0.057785425 0.11329992 -0.25988764 -0.17422284 0.1578745 -0.5476853 -0.1043078 0.4012253 -0.25052103 -0.25015256 -0.24409182 -0.15131499 0.3278644 0.1016358 -0.49827054 0.035253797 -0.24332005 0.12577364 0.3405071 0.30179986 -0.13214801 -0.31075132 -0.42494804 0.12094196 0.073403224 -0.1728451 0.13431919 0.05611746 -0.28822628 -0.3829876 0.15456672 0.12688883 0.17856677 -0.30544588 -0.29250377 0.34487584 -0.3938472 -0.27586234 -0.12784755 -0.31332478 -0.4605114 -0.21511333 -0.00023764948 -0.0018745256 -0.004075181 -0.6236275 0.09613355 0.07997253 0.03954291 -0.118682645 0.1950353 0.49490765 0.2814609 0.2949614 0.30866304 -0.11030301 0.2670418 -0.1952322 -0.093480915 0.008387964 0.2179412 -0.16804689 0.33902678 0.28030083 0.5144042 -0.02021087 -0.13187125 -0.33012506 -0.1370919 0.016373519 -0.17612217 -0.2400535 -0.14257397 0.1415716 0.22255024 0.23530863 0.16338941 -0.42895678 0.38441104 -0.01856172 -0.09405656 -0.04660109 -0.14112541 -0.11128424 -0.054838356 -0.0005360055 0.081222475 -0.28629264 -0.08200568 -0.16954903 -0.12595212 0.29475746 -0.29865256 -0.45362845 0.13422468 -0.3491308
14353 -0.28249323 -0.3223641 -0.16640387 -0.09728137 -0.063435994 0.38633287 -0.010218167 -0.15697443 0.25826046 -0.0009593787 0.041254118 0.2987859 0.21174368 -0.22206531 0.29883182 0.4152976 -0.03887633 -0.34670576 0.22021364 0.0777931 -0.07530967 0.39070305 -0.49075252 0.028615475 -0.044180505 -0.013349915 -0.16642186 0.044087667 -0.29686657 0.034376573 -0.19272856 -0.2949557 0.106842384 0.41172293 0.056698207 0.14476769 -0.0540929 -0.1397738 0.13643019 0.16214748 -0.16493799 0.43029708 -0.26644963 -0.11644542 0.4021132 0.23062909 -0.20890515 0.22326012 0.12769327 -0.36275083 0.06663774 0.003239831 -0.0012537546 -0.100419216 -0.047318358 0.102393426 0.23338157 -0.021741455 -0.19156186 0.1796252 -0.37324664 0.18166888 -0.026982551 0.2455025 0.24161118 -0.18840444 0.13035667 -0.0631339 0.24467495 -0.3328499 -0.45553225 -0.08483016 -0.6639794 -0.17789908 -0.1808836 -0.42892304 0.08098007 0.0106813805 0.13051033 0.25984952 -0.2526308 -0.14053306 0.23429455 0.48498774 0.095325015 0.12996095 -0.17615382 0.022977969 0.021904541 -0.37960282 0.23721933 -0.3048583 0.053534824 0.16014138 0.031597987 -0.14676423 0.22250925 0.17806345 -0.6945568 -0.22812168 -0.2166341 -0.22714575 0.3275611 0.29750216 0.122028075 0.10309729 -0.03625059 0.074917756 0.030799085 -0.20395431 0.04831624 -0.043348152 0.10753945 -0.06050264 0.11829489 -0.18660973 -0.04786074 -0.34986424 -0.22814265 0.21375322 -0.050934423 -0.40354878 -0.093047105 -0.074412204 -0.16747205 -0.22225463 0.41906294 -0.35757264
11378 -0.11544917 -0.013679342 0.18319851 0.05871328 0.17135766 -0.15063284 -0.06053739 -0.26949778 0.07193745 0.19443856 0.3975717 -0.055514548 -0.13252722 -0.5955165 0.082448184 0.07867146 0.04487662 0.07516564 0.17286424 -0.19046302 0.030490963 0.20510471 -0.2926318 -0.4569534 -0.3046374 -0.012710971 -0.016064642 -0.11099467 -0.034312066 -0.4152245 0.06682812 -0.4172493 0.1090995 0.27283904 -0.11243302 0.24964285 -0.24728504 -0.31049317 -0.17680009 0.18248859 -0.10165184 0.09875833 -0.1282534 -0.39725208 0.32004622 0.022204459 -0.3269014 0.06278349 -0.09828488 -0.3135376 -0.039016668 0.20214647 0.021845909 -0.43866792 0.026329426 0.33944365 0.1619241 0.29987535 -0.8050288 -0.0053558834 -0.4758082 0.4013116 -0.38963324 0.05970326 0.13288215 -0.018350726 0.60728097 -0.061566703 -0.18445718 -0.11340287 -0.54359335 -0.013580712 -0.32347983 -0.10226786 0.18774706 -0.31987295 -0.08635139 -0.101228364 0.1903074 0.3895206 -0.11773498 0.119344376 0.44392794 0.41155767 -0.059008375 -0.31102917 0.17911372 -0.21200776 -0.11938049 0.16701919 -0.047016077 -0.14199987 0.09979602 0.3381672 -0.24183442 0.37620008 -0.012425082 -0.0034182598 -0.4307308 -0.1215582 -0.049147416 -0.31453332 0.14813341 -0.0070029395 0.05859858 0.20912915 0.038436323 0.029050585 0.098955736 -0.46911296 0.11214729 -0.44430363 0.24427551 -0.3212515 0.23607984 0.07201101 0.0553718 -0.22441486 -0.3436194 0.087187156 -0.069265254 0.121762104 0.041793212 -0.10303732 0.115509756 -0.050874747 -0.010506576 -0.24237512
14461 -0.1432413 -0.40930995 0.21242924 -0.45082322 0.32846236 -0.02714849 -0.14290053 0.45647824 0.08413282 0.4515266 0.0033364184 -0.09845371 -0.1633676 -0.06928237 0.3783714 0.2140774 0.1236663 0.10509595 -0.36917365 0.11873452 0.17933014 0.0564725 -0.012057073 -0.12947907 -0.09142656 0.43402064 -0.10751222 -0.102219515 -0.02990746 0.1298801 -0.29324007 0.065423466 0.13484207 0.2814988 0.28906277 0.36779964 0.03380496 0.047602687 0.093403704 0.40568164 0.025397742 -0.11877422 -0.19546637 -0.45892066 -0.027438294 0.0097549185 -0.031312168 -0.039119262 -0.0366186 0.21934082 -0.015405056 0.21126315 -0.13304485 0.28128812 -0.5423704 -0.5438026 0.23270832 0.003063828 -0.051359948 0.089673 -0.15835404 0.09715754 0.18421967 -0.09752837 0.48000658 0.069752626 0.14985928 -0.16847308 -0.41111308 -0.119909234 0.037504178 -0.16325134 -0.028252766 -0.23302266 0.15149361 -0.29026023 0.23228103 -0.5240479 -0.43921128 0.17547208 -0.27431735 0.23240678 0.054861337 0.3144545 0.06150771 0.37281156 0.45850232 -0.45293704 -0.066643395 0.176629 -0.066418186 0.010017966 0.37053967 -0.02188109 -0.0017718807 0.24651617 -0.4709844 -0.88496286 -0.15271059 -0.4734097 -0.0713744 -0.21029137 0.026470808 0.037712466 0.38936192 0.2793715 -0.02210524 -0.054196715 0.3081658 0.18882322 -0.39654005 -0.2166145 -0.25753757 0.29614857 0.08412348 0.37528473 -0.2971747 -0.06933804 0.051431395 0.043830857 -0.18416938 0.037683714 -0.004939915 0.03476113 0.08177397 0.025601167 -0.3267558 0.08664018
14547 -0.10983035 -0.3582587 0.23966269 0.32939777 0.33221227 0.2894833 -0.03414384 -0.44649437 0.09131789 -0.33589736 0.13333432 0.24027853 -0.1457321 -0.666097 0.323633 0.21678706 0.19192441 0.0414954 0.05026669 0.028559102 -0.07026168 0.14789632 -0.63634324 -0.011170661 -0.551407 0.15883157 -0.15721515 -0.031041564 -0.18166986 -0.16009834 -0.20763913 -0.06259392 -0.0595679 0.017941106 -0.040062193 0.41916454 -0.0006137782 -0.43143427 -0.23159614 -0.009290386 -0.36480486 0.0872379 0.117344216 -0.20520256 0.18351956 0.27021417 -0.02107404 -0.042963427 0.036937494 -0.16386351 0.05610761 0.16519162 0.13873424 -0.088413656 0.041995414 0.03806716 0.27170587 0.18327177 -0.37881738 0.14732175 -0.15777697 0.22135882 -0.16907825 0.3430362 0.15066044 0.0027657375 0.08101294 -0.51064926 -0.14944018 -0.056179557 -0.49227872 0.09578758 -0.6135343 -0.24480669 0.24201207 -0.5540265 0.23012596 0.0040049814 0.31374145 0.39861292 -0.42748088 0.03967928 0.3357225 0.85322094 0.1570004 0.11678819 0.26041603 0.17204781 0.07468573 0.27608934 -0.10403338 -0.1630197 0.20790043 0.46131906 -0.24783324 0.121048674 0.33544418 -0.17528069 -0.57534796 0.21078701 -0.010956799 -0.22748813 -0.007901705 -0.3736942 -0.22363159 0.2908748 -0.2754403 0.044785 0.2202273 -0.7063823 0.017977124 -0.16108409 0.40184206 0.0031320332 -0.01054583 -0.199961 -0.15925999 -0.34999847 -0.46728283 0.23145333 0.06579307 -0.48755172 0.16294533 0.36041874 -0.1577885 -0.20300092 -0.062666915 -0.3272833
12135 -0.12393489 -0.068090826 -0.011803776 0.04279766 0.20055664 0.19630003 0.015629457 -0.29802072 -0.2012225 0.10762663 0.24531403 -0.32076165 0.08075191 -0.28446445 0.6290874 0.36796972 -0.4807599 -0.27306253 -0.33477658 0.5002898 0.033530314 0.28398776 -0.10873154 0.003175736 0.07324312 -0.07135212 -0.17062706 0.26071018 -0.23961598 -0.20826353 -0.16988309 -0.2702872 -0.34806922 0.05965173 -0.32206196 -0.12510176 -0.13581459 -0.7094497 -0.25461683 0.16459581 -0.12392296 -0.17954415 -0.40092796 -0.20493813 0.23208986 0.089380115 -0.41506985 0.10423481 -0.14132357 -0.07975065 0.09576592 -0.10731305 -0.27145827 -0.3204331 -0.10329703 -0.2512401 0.36947924 0.021676876 0.09467319 -0.11719716 0.012506917 -0.097080186 0.46858934 0.29360485 0.36733243 -0.057640504 -0.09166257 0.0917153 -0.10093267 -0.3918967 -0.2077101 -0.2378429 -0.62903047 -0.40050983 0.21548377 -0.38777202 0.19068351 -0.15419286 -0.09795041 0.1494582 0.026985595 -0.19332512 0.32738027 0.5452579 0.4750595 0.3536888 0.4640609 -0.23305918 0.16268103 -0.18287571 -0.20015906 -0.148689 0.022862025 -0.060977988 0.35214007 0.1997109 0.31494293 -0.037354525 -0.06594689 -0.28520027 -0.033335567 0.17065166 -0.3128198 -0.3209402 -0.5889314 0.09432998 0.084295966 0.5172915 0.16026261 -0.2299679 0.46417218 0.20843247 -0.092014335 -0.29107976 -0.10294874 0.118035845 0.29951635 -0.26114827 -0.095250025 0.17385036 -0.107109636 0.01801969 0.0676121 -0.055951964 -0.28549632 -0.29790837 -0.20802039 -0.32916933
6542 0.023823887 -0.38684878 -0.17375718 0.22475024 0.0077016815 -0.000654096 0.0704047 -0.3728882 -0.16158813 -0.14090243 0.18917465 -0.23894359 -0.2778106 -0.20286515 0.73388976 0.4845286 -0.19041285 -0.09912441 -0.38059226 0.57544225 0.09323755 0.3102118 0.0476891 -0.54995894 0.007451867 0.06886017 -0.11723993 -0.08163165 -0.31547305 -0.4418671 0.008613721 -0.1073442 -0.42101577 0.19944222 -0.5502735 -0.15244567 -0.031975765 -0.67328054 -0.371857 0.28183624 -0.18047671 -0.3712057 -0.12535644 -0.0765828 0.06501558 0.11936373 -0.12326293 -0.21137947 -0.16958041 -0.009409418 -0.052402016 0.16208678 0.2244159 -0.3121586 -0.25122264 0.09238782 0.6176682 -0.21677776 -0.13721584 -0.019970901 -0.14736842 -0.34202638 0.3051733 -0.22319788 0.16547199 -0.15210702 0.034049354 0.17351523 -0.232447 -0.56356126 -0.37557462 -0.36719614 -0.35789376 -0.38632512 -0.15754016 -0.21991207 0.013981217 -0.098959394 -0.07784348 0.24964924 0.1907971 -0.27863228 0.3532769 0.4467131 0.432207 0.28439495 0.18330488 -0.28970158 0.2730865 -0.18309316 0.077413514 -0.22686926 -0.066399746 -0.05538598 0.057875205 0.17393678 0.30051166 0.0011022943 0.017039113 -0.35550827 -0.1970911 -0.042905457 0.027113812 0.13288918 -0.3282194 -0.14836559 -0.014548379 0.33549523 0.026774768 -0.27113065 0.37964612 -0.100574724 0.21640666 0.050318338 -0.15633015 0.13361816 0.010652606 -0.25327554 -0.0043911682 -0.096386515 -0.2407627 0.030938173 0.115346245 -0.092208385 -0.17443661 -0.30067956 -0.1900908 -0.08482709
766 -0.2148422 -0.27660358 -0.062015433 -0.070148826 0.17193672 0.040393848 -0.16109703 -0.14947179 0.43113342 0.022390522 0.018081987 0.02004315 -0.08884546 -0.54902947 0.02056035 0.206267 -0.121144824 -0.3312241 0.16589916 0.28220382 0.12909395 0.11808723 -0.34153134 -0.038270723 -0.13730468 -0.037648723 0.12876901 -0.12949842 -0.055327922 -0.29080704 0.10979386 -0.35012454 0.23256214 0.115313664 0.12988138 0.28807932 -0.1116729 -0.18263082 -0.050609987 0.36354363 -0.19488747 0.38986862 -0.23012121 -0.59010285 0.106653236 -0.014019022 -0.039516028 0.17332415 0.075711586 -0.41345075 0.09654866 -0.13216273 0.07717789 -0.09218442 0.053132083 -0.13903908 0.29934 0.15616162 -0.18277317 -0.047203165 -0.18514378 0.22272432 0.04827701 0.22030039 0.18872541 0.15698871 0.34976238 -0.211075 0.05771692 -0.16425847 -0.4967461 0.25640947 -0.19471413 0.09304677 -0.12278656 -0.40750673 0.17858791 -0.1690873 0.13854949 0.45999593 -0.30098015 -0.21269265 0.17987588 0.4789313 -0.10553441 -0.32669023 -0.12695387 0.031129954 -0.20314626 -0.07243995 -0.051030133 -0.30373472 -0.1766048 0.32649228 -0.27750286 0.1380026 0.00051079085 -0.012482569 -0.5003733 -0.1837254 0.012456621 -0.37487236 0.1673125 0.0946435 -0.24254274 0.09464236 -0.19582874 0.15697275 -0.14873534 -0.14315417 -0.16684392 -0.2898179 0.14021057 0.25533053 -0.05625109 -0.4683468 0.20726892 -0.312124 -0.43736213 0.21052895 -0.435377 -0.30442753 0.096911445 0.20453243 -0.08250976 -0.2882633 0.27791122 -0.3637914
10610 -0.34415686 0.13345985 0.10773267 0.03771622 0.15594725 0.11132964 0.115821175 -0.43650252 0.078952745 -0.010472536 0.56615776 0.11489153 -0.0762276 -0.56227344 -0.054028105 0.70129913 -0.14029382 -0.023633182 -0.082362436 0.29569662 -0.03832829 0.23271303 -0.058528606 -0.6507508 -0.4474121 -0.046350274 -0.42018926 -0.11357445 -0.13165171 -0.14799541 0.25968343 0.06114711 0.1216921 0.30835325 0.0018175947 0.3579439 -0.039132114 -0.098927826 -0.0058944267 0.02703244 -0.06862848 0.40188345 0.1418591 -0.26480174 0.37944365 0.02177124 -0.09190486 -0.0465938 -0.14725594 -0.03951261 0.32163888 0.061649073 -0.3672855 0.012674689 0.061561644 0.19931212 -0.08720588 0.1141793 -0.13814412 0.040886987 -0.30633342 0.102612935 -0.26699612 0.10400846 0.26439735 -0.11960249 0.22787023 -0.07793578 -0.12821539 0.012911213 -0.7795994 -0.2085706 -0.5827428 -0.28754535 -0.049904354 -0.21874335 0.14455768 -0.19779469 0.18067735 0.5338166 -0.32369757 0.0027551043 0.006196952 0.2843064 0.5321872 -0.34390885 -0.09173291 -0.06804001 -0.053059127 0.07348904 -0.29076332 -0.047902007 0.03345582 0.018275343 0.032194085 0.07932124 -0.03389397 0.13555637 -0.43116108 -0.27164438 0.07852637 -0.3039023 -0.23174179 0.15957469 -0.25102228 0.15963565 -0.34681255 0.08589965 0.11220034 0.0015215278 0.14855933 -0.2081365 0.21187873 0.13894512 -0.46703574 -0.4346126 -0.15017666 -0.4434157 0.006020349 0.1694113 -0.34611368 0.05055725 0.029857451 0.3193174 -0.041955188 -0.3822687 0.2332274 -0.21181856
1154 0.048343204 -0.43376026 0.11363527 -0.05773763 0.33285847 -0.2659521 -0.31349266 0.07208189 -0.07077803 0.27202368 -0.11881839 -0.17823423 -0.033675633 -0.31552637 0.09781948 0.17199694 -0.34957844 -0.21262637 -0.234869 0.20111367 0.19371052 0.27587682 -0.09731006 -0.22082552 -0.5640399 0.5366865 0.0059627704 -0.24475136 0.1267977 -0.071510956 -0.113303214 -0.5065926 0.24061435 0.22499104 0.062599055 0.33402583 0.56954217 0.3041232 0.078459784 0.16696997 0.050837636 0.24763763 -0.014907418 -0.15942939 -0.037413612 0.016194254 0.06273224 -0.46312398 0.008030349 -0.07787107 0.06502742 -0.39356285 0.0364887 0.04935972 -0.21849829 -0.08157506 0.19517031 -0.15370972 -0.24900271 0.12683462 0.017447282 -0.081342265 0.33460265 0.014573168 0.41534564 -0.046242084 0.28614897 -0.2736236 0.07110725 -0.14611371 0.04002415 0.00071266055 -0.15109423 -0.08689464 -0.13073522 -0.41721338 0.123656705 -0.23391269 -0.46709883 -0.09068645 -0.0196812 0.22007228 -0.096710004 0.30236065 -0.43903935 0.01142169 0.15812248 -0.29135567 -0.019881247 -0.07242835 0.1454599 0.06813559 0.016825603 0.005567373 0.1174211 0.33147213 -0.49286827 -0.893601 -0.10461589 -0.03754875 -0.41081518 -0.060970604 -0.44872165 0.14526376 0.3222109 0.273888 -0.051707044 -0.0473738 -0.022956515 -0.30042875 -0.15157151 -0.4315413 0.00056095334 0.30214706 0.0996666 -0.16372898 0.038762424 0.15666735 -0.12350593 -0.11815019 -0.33574897 -0.18710104 -0.049982183 0.2209993 -0.096060574 0.16769794 -0.17085654 0.29395196
14315 -0.24389963 -0.21489714 -0.1972979 0.15064494 0.32801613 0.01224274 -0.08392976 -0.37572014 0.26230234 0.073343776 -0.0036633501 0.32006407 -0.1476718 -0.22682407 0.079479374 0.42619127 -0.02400837 -0.14989251 -0.30982715 -0.1413917 -0.119849384 0.14956267 -0.29460585 -0.3354219 -0.24928182 0.23184425 0.12167612 -0.090145946 -0.32990846 -0.06124477 0.14323302 -0.22021692 0.5757737 0.39110404 -0.09231138 0.34756917 -0.0549303 -0.40383387 -0.22508729 0.18877465 -0.1435716 0.22720595 -0.011186888 -0.3761568 0.37475947 0.08304162 -0.36311108 0.16139922 0.030025518 -0.6106527 0.06170141 0.1001476 0.04053462 0.10129605 0.21045072 0.10587929 0.399886 0.07846942 -0.14975217 0.1887267 -0.28404105 0.1723545 -0.14373691 0.2652788 0.061858207 0.31925866 0.4690674 -0.23157935 -0.12104923 0.028147817 -0.2111939 0.056305293 -0.17915662 -0.27268678 0.19919638 -0.08117544 0.33956522 -0.08390297 0.23173568 0.18864588 -0.32816035 -0.17210671 0.37812755 0.6954826 0.29627362 -0.3045748 0.27301547 0.20215149 -0.0030077938 0.16337982 0.22826172 -0.08562605 0.1726139 0.1551693 -0.104807384 0.0835766 0.0443958 0.0026202279 -0.5811048 -0.08666203 -0.10601753 -0.25824845 0.3225211 -0.06920396 -0.2327491 0.14317028 0.1394163 -0.12580128 -0.05100408 -0.120865144 -0.15961155 -0.15107022 0.15204857 -0.045549307 -0.16413921 -0.27497563 -0.1274125 -0.3393309 -0.5945127 -0.045843948 0.20625296 -0.45063353 0.08996865 0.09147684 -0.19685505 -0.38379 0.23019709 -0.48074952
4910 0.11309855 -0.17588885 0.3581835 0.085904 0.26169872 0.1257313 -0.12591735 -0.2758501 0.12243347 -0.14193435 0.44530004 0.18657269 0.0009916362 -0.7159891 0.17172243 0.29517034 -0.2047134 -0.04481699 0.18852997 -0.15719055 -0.106851146 0.48722526 -0.45169094 -0.32878467 -0.2577475 -0.032836087 -0.020978991 -0.31519085 -0.3405366 -0.39228094 0.2836623 -0.028047258 0.19630048 0.15264706 0.09422722 0.14984415 0.060756974 -0.29915878 0.11088475 0.12994505 -0.30569825 0.4940084 -0.09955234 -0.6903913 0.39801627 -0.023128146 -0.3688757 0.22879453 0.048755065 -0.26108515 0.19023149 0.10204812 -0.21620911 -0.07438492 0.052378874 0.29023838 0.0897875 -0.07305291 -0.24274953 0.016452685 -0.1275972 0.31658047 -0.121426694 0.2890459 0.12605616 0.06812867 0.32502842 0.19853362 0.3201897 -0.1528938 -0.46261832 0.096223295 -0.40196827 -0.13393635 0.22377203 0.060598604 0.09258061 -0.36390388 0.59983003 0.32760912 -0.31159887 -0.008979029 0.29013035 0.64591783 -0.05337051 0.16986988 0.31101856 0.23573156 0.14611544 -0.019837491 0.44194272 -0.22062361 0.18913038 0.053679235 -0.22670345 0.35524884 0.12030914 -0.26520777 -0.39595947 -0.37521407 -0.2583688 -0.4365887 0.11367253 0.13780867 -0.16047482 0.35788333 0.10739495 -0.086942784 0.045245957 -0.37643364 -0.043299805 -0.026805257 0.032398283 0.13582295 -0.16000696 -0.39777178 0.15791218 -0.18583944 -0.18921179 -0.00050312304 0.092617586 -0.1270475 -0.2613264 0.102936156 -0.3113939 -0.16442047 0.18814169 -0.2973894
14234 0.074215345 -0.15104853 -0.28063205 0.2641707 -0.25292218 0.2488739 0.034087356 -0.31610247 -0.24479781 0.14059247 0.08283894 0.01439855 -0.18689474 -0.09531968 0.5071719 0.31382585 -0.095829785 -0.22028865 -0.23073745 0.39017552 -0.02896796 0.3125094 -0.26380324 -0.51443756 -0.2683673 -0.07285067 0.25635967 0.048906963 -0.26511037 -0.4708756 0.054857593 -0.12227671 -0.021838099 0.5117318 -0.41281894 -0.083401635 0.150529 -0.3585958 -0.2252252 0.22531223 -0.0030646648 -0.44884428 0.2995067 0.20104271 0.07258157 0.073914535 -0.30069873 -0.122445986 -0.027105844 0.15957333 0.18177614 -0.009875779 0.21759379 -0.08757428 -0.4894289 0.10106567 0.6329921 -0.27090478 0.1896801 -0.20147276 -0.328011 -0.058652285 -0.0026684478 0.04271531 0.31100053 -0.4144118 0.1270068 0.28995875 -0.23177688 -0.22489485 -0.22356756 -0.35964832 -0.44320247 -0.41526473 -0.047657933 -0.31014645 0.13215388 -0.34220836 -0.07283905 0.25331506 0.14308941 -0.37077296 0.32211003 0.7435561 0.53728586 0.0879994 0.38948193 -0.4609779 -0.031147063 -0.36469203 -0.10837301 -0.5223578 0.23070021 -0.09177478 0.3932759 -0.10822636 0.33712703 0.4007664 -0.33986104 -0.21484324 -0.27075264 -0.12028075 -0.11195339 0.14986627 -0.22852644 0.15858477 -0.03005431 0.3707108 -0.03469172 -0.024023667 0.5127857 -0.07745079 0.031114066 0.18188885 -0.13613272 0.009330148 0.23938076 -0.0725285 -0.08492058 0.008425599 0.038141288 0.38489714 0.15211953 0.042237323 -0.40965113 -0.59520614 -0.041094072 0.2608106
2284 0.053226996 0.14318877 0.018683191 0.23944628 0.18191552 0.0078118667 0.07807514 -0.50306714 -0.19697477 -0.0882231 -0.06450469 0.16000187 -0.17999168 -0.35935953 -0.20485315 -0.0034013225 -0.101761565 -0.2354578 -0.082998864 -0.11374788 -0.08500492 0.20758204 -0.16859943 -0.16590707 -0.5068233 0.06173571 0.0026306561 0.047494266 -0.2501427 -0.03608133 0.19812255 -0.34554783 0.11616136 0.10589112 0.120929405 -0.19038047 -0.1986366 -0.08290784 -0.023354871 0.24122739 -0.10708549 0.22907363 -0.13554348 -0.26697445 0.5795539 0.17603652 0.09154162 -0.35078835 -0.2586291 -0.1335387 0.023835856 -0.22651449 -0.19502388 -0.11774514 -0.15006097 0.027513294 0.028408047 -0.072399914 -0.31597653 -0.15932368 -0.2566021 -0.11762337 -0.016998144 0.31499812 0.42721474 -0.11562894 0.026318094 -0.07634597 0.17110944 0.13232279 -0.21472621 -0.03644172 -0.49364242 -0.31682855 -0.47119632 -0.13405234 -0.043725673 -0.027896782 0.019549988 0.067526214 -0.06875211 -0.034590375 -0.3431329 0.6037464 0.12487694 0.014876772 0.20656449 0.089059144 -0.23232143 0.21628357 -0.19234163 0.07709168 -0.06654332 -0.17656836 0.20133217 0.24406525 0.023400811 -0.12110801 0.34773546 -0.039296016 0.15717092 -0.2679142 -0.13265109 0.008798027 -0.09127626 -0.10635969 0.00063835835 0.123273835 0.3561378 0.062716156 0.13261603 0.22458449 -0.05110946 0.22295795 -0.21733557 -0.18110073 -0.2437692 -0.25567895 -0.20782496 -0.051657386 -0.23364076 -0.22131498 0.07269011 0.11199528 -0.07969058 -0.28858408 0.07395083 0.12274354
14123 0.37659565 -0.21409291 0.18901525 -0.14841874 0.35810658 -0.34715107 -0.15496796 0.042703893 -0.019118892 0.27164787 -0.21389934 0.07623789 0.027619008 -0.32808694 -0.18283531 0.44538838 -0.23291734 -0.1359306 -0.31549838 0.33882344 0.07328551 0.1813879 -0.20617256 -0.39467263 0.14914909 0.2572926 0.024858035 -0.11043245 -0.17545778 0.46244416 0.053603116 -0.18210812 0.44516718 0.20509453 0.07490708 0.30898425 0.37654415 0.07716141 0.34601274 -0.16463171 -0.10864396 0.16461304 -0.35386187 -0.29396486 -0.11534075 0.23255505 -0.16609783 -0.29945144 -0.3448629 0.25162023 -0.07776979 -0.026551746 0.19621861 0.01543832 -0.5878913 -0.37473816 0.1698919 -0.09292002 -0.37481135 0.16300991 -0.4627541 0.25700042 0.04855457 0.23892666 0.34803176 0.24806796 0.11934348 -0.4335452 -0.15928623 0.17428346 -0.012755989 0.055863347 -0.19060804 0.01400794 -0.10407724 -0.36016458 -0.13024145 -0.42737526 -0.6708195 -0.10604391 -0.17469214 0.03092149 -0.17290978 0.8271454 -0.26823395 0.09660835 0.3283522 -0.033721205 0.1587695 0.1317929 0.09316935 -0.14034116 0.2245973 0.13189405 0.076578304 0.30350965 -0.3034375 -0.7263767 -0.16476505 -0.49871278 -0.21625425 0.25128293 -0.019310785 0.4152842 0.2118732 -0.121089935 -0.43966877 0.013804007 -0.32197717 0.100964636 -0.13889411 -0.11198779 0.07236228 0.33187056 0.29502362 -0.07332787 -0.16240478 -0.064456955 -0.02798423 -0.06015957 -0.34089768 -0.3760986 0.40222085 -0.15972148 -0.3579089 0.22919427 -0.12155827 0.39441735
10560 -0.08726383 -0.08685857 0.04343698 0.12446234 -0.03412013 0.16234544 0.12505092 -0.18345167 -0.35619766 0.011391731 0.07833525 -0.04840691 -0.04279362 0.033117644 0.3309842 0.23784237 -0.14825483 0.020542493 -0.27087814 0.39356163 -0.030355923 0.59428316 -0.24684164 -0.35268867 -0.32531318 -0.003911003 -0.0668104 0.22450456 0.056168005 -0.32882485 0.02351953 -0.2995999 -0.06463751 0.28748262 -0.110762365 -0.18821375 0.3530151 -0.5354049 -0.4724825 -0.03670185 -0.0004599421 0.07163583 -0.01960572 0.042014726 0.5062188 0.23713478 -0.616016 0.053538866 -0.105884954 0.19471692 0.1300984 0.1181989 0.09450909 -0.10980924 -0.37499243 0.2886862 0.23178566 0.027017156 -0.092986256 -0.069389135 -0.14752127 -0.039967168 0.015814863 0.08181855 0.25757432 -0.3981043 0.0759319 0.26766953 -0.26582626 -0.17981255 -0.27585727 -0.17967987 -0.8345762 -0.48372018 -0.28280127 -0.33889043 0.051170565 -0.016447594 -0.26094502 0.32183498 -0.1077489 0.004808491 0.10575113 0.37743995 0.628914 0.3337465 0.4040988 -0.41258678 -0.10888473 0.09291276 0.05457853 -0.023107266 0.031251825 -0.11070345 0.26777896 0.026372874 0.3512676 0.3251118 -0.31668738 -0.18596761 -0.2586513 -0.08025815 -0.24222387 0.14207907 -0.21745382 0.100416735 0.48349518 0.20196554 0.09214953 -0.14858939 0.25986952 -0.04900083 0.03408063 -0.19967537 -0.15965395 0.011885695 0.013252332 0.19240832 0.121231005 0.06176696 -0.18936001 0.3879422 0.10338411 -0.078493476 -0.05330923 -0.33086386 -0.009679025 0.16532588
10940 -0.38102636 -0.43560624 -0.07842947 0.013330202 -0.070824675 -0.111989506 -0.07666758 -0.03383073 -0.14465757 -0.12373347 -0.14757507 0.08047526 -0.27287847 -0.3481974 0.27756208 0.16149034 -0.07215845 -0.206682 -0.12963572 0.3176731 -0.033017565 0.30721638 -0.20723262 -0.22555566 -0.15646952 -0.11100405 -0.20214063 0.12139845 -0.14237091 -0.35037726 0.35890397 0.032573868 -0.30457252 0.4423752 -0.11925865 -0.33816308 0.12900941 -0.6565307 -0.1454672 0.6188948 -0.2817321 -0.123028874 -0.3552763 -0.22831996 0.17792091 -0.18401314 -0.3516955 -0.029030092 -0.17430083 -0.11824663 0.14430161 0.17240924 -0.009397347 -0.4162723 -0.26941872 0.03896384 0.41366723 0.36736 -0.02033309 -0.152805 0.005421983 -0.023537789 0.29609758 -0.15597299 0.24282765 0.0704475 -0.012347342 0.19435932 -0.04744884 -0.1866504 -0.51965463 -0.31622523 -0.25219652 -0.15462762 0.1113291 -0.26608455 -0.24374071 -0.024498783 0.02053271 0.14111014 0.28990087 -0.1931707 0.19298941 0.5486837 0.09929715 0.18503216 -0.043775335 -0.32815036 0.01215248 -0.26249325 0.21845031 -0.068458155 0.053212527 -0.31247398 -0.015031564 0.067700386 -0.0034818065 0.26424098 -0.28862187 -0.12565096 0.06427778 -0.1773493 0.07012248 0.09506297 0.09762538 -0.08241842 -0.23759307 0.39216113 0.25096485 -0.23857196 0.17715779 -0.14766438 0.15006123 -0.000980496 -0.024231026 -0.06386765 -0.020619484 -0.21784069 0.044955615 0.013272864 -0.030398404 0.21506417 -0.06995467 -0.32347006 -0.13033532 -0.3119488 0.36654162 -0.13276786
14270 0.08420683 -0.30856526 0.118090495 0.3142067 0.084588416 0.34209496 -0.21743792 -0.12916441 -0.1651704 0.01363194 0.1519119 -0.24651119 -0.05076389 -0.32812396 0.4437642 0.24903508 -0.439415 0.058818147 -0.34342012 0.38533083 0.14411989 0.4090263 -0.04511966 -0.24262324 -0.07916915 0.039146595 0.19008346 0.2924302 -0.27749792 -0.123561785 0.1659079 0.0625376 -0.054000758 0.18590166 -0.5599022 -0.22554767 0.13144387 -0.4567866 -0.2657051 0.20354968 0.049695298 -0.55800873 -0.04794515 -0.03544971 0.11182448 0.34292632 -0.23302229 -0.08595955 -0.38990316 0.058727674 0.26464403 0.28698558 -0.34855452 -0.23119636 -0.22146168 0.23465516 0.4758749 0.16844667 -0.047887854 -0.006661046 -0.48311204 0.1331946 0.15343124 0.062079072 0.3371271 -0.14558369 -0.10589255 0.035935517 -0.45665973 -0.4366807 -0.15605438 -0.3484458 -0.33589375 -0.26018277 -0.2290409 -0.06860704 -0.011412141 -0.16529518 -0.07736162 0.23462033 -0.08357908 -0.06988155 0.39528808 0.56515104 0.46923944 -0.066903 0.45450914 -0.2584804 0.36262548 -0.2750428 -0.026015345 -0.102685265 0.21219872 0.14038879 0.17509747 0.102653034 0.13238987 0.38956478 -0.20789456 -0.14804964 0.0050104316 0.23573908 -0.23453449 0.13355833 0.08437784 0.16374335 0.03967353 0.49624303 -0.4154893 -0.019060934 0.37553006 -0.075511076 0.08544329 0.35855544 0.16903135 0.026257632 0.010860597 0.03770816 0.08980872 -0.06531295 0.027715204 0.017773107 0.20055953 -0.16471651 -0.24200301 -0.25236017 -0.43509817 -0.15346949
4237 0.2948783 -0.3192232 0.3611162 -0.16821223 0.38012782 -0.34808123 -0.11093494 0.006944552 -0.031839207 0.055242226 -0.28848317 -0.22840247 0.052581772 -0.24720639 0.11463683 0.22826383 -0.71411663 -0.021467006 -0.2390872 0.11296199 0.30136248 0.3699597 -0.269844 -0.33919975 0.094020784 0.2914121 -0.026491554 0.10169411 0.094127975 0.07861826 -0.17713943 -0.23081864 0.2505813 -0.024700899 0.02653357 0.14518216 0.28669527 0.2694706 0.23622465 0.21184175 -0.20446151 0.060149252 0.0056243124 -0.16513202 0.17034374 0.2892183 0.055025194 -0.30825287 0.10204888 -0.038776677 0.058516495 -0.016721394 -0.13632484 -0.009115402 -0.0039630183 -0.13153185 0.17896464 -0.31003132 -0.33973888 0.09391768 -0.14059527 -0.082615495 0.2111746 -0.08334066 0.21186712 -0.110956855 0.118484765 -0.24138154 -0.05582567 -0.028497366 0.023136131 0.07311304 -0.3689556 0.08034394 -0.07822294 -0.37673432 -0.16902213 -0.5135617 -0.30081466 -0.10500503 0.10484927 -0.09450095 0.1369591 0.55390686 -0.19137979 0.26856175 0.6519469 -0.5548663 0.15982677 0.068681486 0.1022259 0.2936086 0.10220873 -0.052194778 0.40611383 -0.085949376 -0.20817702 -0.14467867 -0.015202674 -0.45699435 0.001074112 -0.08417312 -0.01596829 0.47247282 0.1996819 0.11008066 0.021980079 -0.1564645 -0.41357464 0.014818435 0.09076296 -0.18933138 -0.09176633 0.1991707 0.26734707 -0.14973995 0.009541004 0.06881203 0.11925626 -0.38175833 -0.07770722 0.05647511 -0.10351465 -0.1924004 -0.24882881 0.10339252 -0.2582087 0.014881515
14650 -0.0017279428 -0.51138735 0.37550014 -0.34564665 0.25852108 -0.10839007 0.017813388 -0.005315579 -0.34877756 0.14843988 -0.20812897 -0.14467503 -0.18459249 -0.21995662 0.15888822 0.14573884 -0.29540297 -0.06750014 -0.5030401 0.21321963 0.023877563 -0.05562708 0.041976135 -0.084956296 -0.3507012 0.31936365 -0.3153662 0.14525884 -0.006384717 0.19965033 -0.16111942 -0.25108254 0.11101676 0.19578207 -0.21774402 0.60708696 0.46440533 0.16643795 0.10596671 0.10539848 0.027370332 0.2604179 -0.18509027 -0.142722 0.26403317 0.04159453 -0.0061309724 -0.17223857 0.05770198 -0.09728039 0.085426055 -0.20005296 -0.13150999 0.31529576 -0.18221961 -0.36864102 0.6782941 -0.028702648 -0.39852798 0.30825654 -0.17589758 -0.14225613 -0.072223514 0.0022843562 0.526345 0.012276313 0.020286186 -0.3754113 -0.28218347 -0.044394765 0.3231243 -0.12585022 0.047060218 -0.15152301 0.264664 -0.3812179 0.03578522 -0.34107628 -0.5477058 0.47622108 -0.10926269 0.46939817 0.12062571 0.5712036 -0.36933625 0.3297479 0.09203313 -0.17518452 0.17367382 -0.07376457 0.09850856 0.06672544 0.22445834 0.17435992 0.05804349 0.27158445 -0.39067528 -0.44537595 -0.3335822 -0.23172757 -0.41567117 0.18091014 -0.21840328 0.3832753 0.118392564 0.54875594 -0.11252069 -0.07068472 0.04613973 -0.0974273 -0.46726096 -0.4262014 0.037181366 0.26379433 0.08162817 0.13090934 -0.05933402 0.20740168 0.20538715 0.01813729 -0.24870628 -0.031081388 -0.16779011 0.66829425 -0.067072906 0.12726976 -0.05866274 0.22820212
11175 -0.018500479 -0.20145287 0.14174668 0.13214883 0.21245681 -0.09031954 0.013117985 -0.09598583 -0.25492135 -0.14854923 -0.089861594 -0.07764806 -0.034449585 -0.23012042 0.1734556 0.41459367 -0.66278577 -0.10281576 -0.25913638 0.28527465 0.089154884 0.36927685 -0.0654508 -0.06630202 -0.17999311 0.33754683 -0.16723193 -0.17744318 -0.06185089 0.0076019242 -0.18932182 0.100556 0.052610014 -0.13665725 -0.22694205 -0.15426958 0.0884954 -0.47634408 -0.15883951 0.27865988 -0.16079931 -0.21580066 -0.081904404 0.036491454 0.3011076 0.50921136 -0.2352217 -0.06543864 -0.1105474 -0.11580221 0.20257686 0.32872382 -0.08501775 -0.23561747 -0.14278997 -0.058913678 0.47206622 -0.1693084 -0.19955258 -0.23120798 -0.23785114 0.010131366 0.059514638 -0.04919501 0.050792802 -0.15791862 -0.26127338 0.14512622 -0.034036815 -0.19682284 -0.21920611 -0.3837488 -0.59844655 -0.20964661 -0.21870829 -0.14502123 -0.44921237 -0.6177827 -0.2200933 0.38412452 0.10549485 -0.21361662 0.18022366 0.6158043 0.28869286 0.11044506 0.43454742 -0.33718407 0.2842444 -0.06492756 -0.0058442494 0.17678745 0.20863992 -0.22262923 0.36906338 0.2467104 0.10924984 0.45870817 -0.22996849 -0.16869621 0.02732521 0.037868917 -0.10931183 0.21068746 0.24231113 -0.36762506 0.24213342 -0.045258116 -0.22656722 -0.14688464 0.43494478 -0.31855372 0.08185426 0.025858117 0.25158107 0.13896658 0.019657075 0.042628355 0.07948774 -0.27250874 -0.115017295 0.24672978 -0.1804092 -0.027118118 -0.18812159 -0.4132388 -0.06565071 -0.029900294
13972 -0.028131159 -0.12942292 -0.22488274 -0.20174304 0.076704964 -0.066301554 -0.32227892 -0.6041124 -0.124672785 -0.14455804 0.19328946 0.23477128 -0.23775853 -0.526439 0.07042111 0.2400126 -0.16440262 -0.21145807 0.11755531 0.09168746 -0.1388222 0.5490896 -0.33191675 -0.26055717 -0.401203 -0.05426392 -0.08844509 -0.25882307 -0.007804 -0.5138105 0.25054306 -0.311225 0.1337686 0.45703766 -0.32017618 0.3982924 -0.105758354 -0.25248206 -0.33572686 0.2515886 -0.17672436 0.25272793 0.06392495 -0.4577286 -0.01185632 -0.018114606 -0.48864943 0.15490656 0.34252906 -0.336646 0.42186236 0.08883443 -0.059573323 -0.1331126 -0.15729503 0.155702 0.22151272 0.2572223 -0.19600962 -0.26172593 -0.1948235 0.3158478 -0.3090504 0.08072061 -0.13111997 0.099950545 0.50736815 -0.010170512 0.061760567 -0.13829026 -0.14039762 0.06395761 -0.4292054 -0.4506756 -0.07293696 -0.068718664 0.13070343 0.16541326 0.21444237 0.52861565 -0.17876592 0.06933651 0.32385144 0.5874011 0.04590468 -0.10931182 -0.025936112 -0.11678527 -0.033554498 0.30916193 -0.17486128 -0.08482819 0.03713895 0.5006414 0.0864232 -0.071287245 0.10410858 -0.10357294 -0.566616 -0.37893653 -0.17339122 -0.29916444 0.014085477 0.119388014 -0.2935532 0.17965153 0.12992255 0.38222638 -0.03628303 -0.31508195 -0.035154045 0.015525639 0.3248137 -0.075122245 -0.1507993 -0.5489716 0.2553027 -0.43111458 -0.27806246 0.30007458 0.08833324 -0.1611081 0.09973371 -0.2588158 0.15836738 -0.5418261 0.122237705 -0.2800143
10531 0.10435371 0.0074104047 -0.37448052 0.20286784 0.100794666 0.31919912 -0.024673857 -0.4448949 -0.2948201 -0.30380955 0.40438446 0.038395837 -0.1727717 -0.3052451 0.22927524 0.58900845 -0.58253396 -0.14054461 0.07933813 0.33686638 0.012753961 0.71061635 0.09769432 -0.08157055 -0.08986704 0.12825869 -0.49469012 -0.20828764 0.027866043 -0.39564884 0.187774 -0.45515352 -0.18952177 0.11260396 0.028316159 -0.14406179 -0.030262899 -0.34769964 -0.26076004 0.32541963 -0.16594668 -0.08416759 -0.3255468 -0.25191295 0.30603066 0.099886134 -0.25590554 -0.28226063 -0.3080332 0.2281183 0.12239216 0.14209715 0.05926762 0.06971873 -0.40200022 0.19901471 0.3484298 -0.035356298 -0.015887579 -0.15431507 -0.14786485 -0.3132977 0.35961464 0.15663174 0.26100263 -0.21046032 0.07895173 0.13735892 -0.26817265 -0.32043564 -0.11759675 -0.37862292 -0.44806293 -0.1113156 -0.16158131 -0.021659456 -0.02247975 -0.34953737 -0.08346531 0.29808792 -0.08761893 -0.31706613 0.07976545 0.72423494 0.41902938 0.25454247 0.17281203 -0.24103552 0.04019432 -0.22481786 -0.18895604 -0.23796055 0.12245959 0.15630844 0.2929606 0.044072375 0.17713699 -0.04570664 -0.2554512 -0.23786859 -0.08378231 -0.08163013 -0.09569033 -0.23591211 -0.18801422 -0.050703093 0.4348883 0.19996874 0.14601672 -0.2305148 0.4911251 -0.20807132 -0.083432496 -0.14427575 0.04406295 0.076859854 -0.055191796 0.12559111 0.11099351 -0.19699611 -0.13611974 -0.20499514 -0.07904957 0.06775295 -0.17488557 -0.40478805 0.17501074 -0.20181534
