746 128
10920 0.18164863 0.006050704 0.1543555 0.08828993 0.1567356 -0.19742481 0.25321752 -0.025573023 -0.0040339185 0.09635115 0.05249073 -0.37282184 -0.41781357 -0.1791857 -0.06721474 0.07330228 -0.03886018 -0.047990542 -0.40113473 0.21493447 -0.08433794 -0.2838187 0.17361212 -0.4203222 -0.15765037 -0.10270579 0.45299587 0.32783708 -0.03254657 -0.005400562 0.078561164 -0.42545047 0.10724582 0.03374367 -0.22823754 -0.086286105 0.30757585 -0.25350076 0.13444148 0.15339309 -0.18712473 0.07070278 0.03987023 0.071249254 0.40014303 0.076965444 -0.5054637 0.06160629 0.106697276 0.21979797 -0.15102404 -0.100786716 -0.012478038 0.14793412 0.24041805 -0.18254416 0.5386872 -0.4475368 -0.31024578 0.3072276 0.09803633 0.17540424 0.09582664 -0.11627914 -0.03451421 -0.14105248 -0.087650225 0.41586682 -0.10414283 0.011824682 0.088460766 -0.21213783 -0.28846943 0.12967484 -0.076833256 -0.26190668 -0.11630631 0.30355197 -0.18253352 0.056489184 -0.11483878 -0.22949862 0.16559221 0.5656199 -0.10326499 0.25536677 0.17727147 -0.04517186 0.040332988 0.09346422 0.03880762 -0.35729316 0.27854452 0.1341253 0.31468815 -0.13526842 -0.1815115 -0.46558836 -0.24499075 0.12958367 -0.15775402 0.25419706 -0.035707064 -0.31322268 0.10261094 -0.24010704 -0.24027848 -0.08938372 0.14418173 -0.026764302 0.33476642 -0.4493051 -0.17773822 0.14132355 0.13685904 -0.09957216 0.5823324 0.4291513 -0.05412743 0.15717226 -0.19194861 -0.2824398 -0.009610342 0.10712123 0.059986938 -0.08114041 -0.373028 0.13642673
10940 -0.057069734 -0.00533509 0.30442107 0.08883254 0.19718896 -0.12754644 -0.005336945 -0.28924274 -0.18410014 0.03510815 0.28302467 0.30875722 0.18499681 -0.06392761 0.34012407 0.262514 0.17114593 -0.19334273 0.091473565 0.2558657 0.3261313 0.23343241 -0.08930835 -0.34557503 -0.032632805 0.1606208 -0.16252263 0.051582485 0.010383363 0.20242247 -0.14055513 0.06994677 0.015225438 0.17424266 0.042423572 0.25369564 0.34083053 -0.12157162 0.049661238 0.48932576 0.16682579 -0.20337366 0.24756914 0.11793716 0.29418856 0.31259078 -0.24916013 -0.53984034 -0.2596395 -0.037982587 0.33797964 -0.046895828 -0.36998636 0.13516583 -0.073228635 -0.31532028 0.39660892 0.12285006 0.24747694 0.101115175 -0.23172617 -0.17793924 -0.07305988 0.3255035 -0.032225728 -0.03916617 -0.0067553227 0.014455483 0.06818172 0.010881938 -0.20332013 -0.41617367 -0.2874475 0.23355877 -0.025723666 -0.29324803 -0.0032519768 0.1538604 -0.26010242 -0.08848083 -0.40409786 0.04845476 -0.025139686 0.15336907 0.4106109 -0.106091626 0.43732882 -0.27293316 0.56731486 0.28271887 -0.22533715 -0.22232546 0.09602191 -0.016161209 0.06589762 -0.091863215 0.08154816 -0.19086793 0.04945933 0.09518801 -0.3040925 0.07533151 -0.27704918 0.15799238 -0.09347559 -0.09053801 -0.37079218 -0.05776479 0.06613905 0.09338558 0.15494627 -0.09316689 0.025161048 0.30603388 -0.4933273 0.12479023 0.24936473 -0.04671359 0.14202723 0.015384386 -0.069317974 0.040162534 -0.18283488 -0.32975546 -0.3294329 0.0013140606 -0.24480388 0.1854725
11017 0.27471444 -0.60440236 0.3663395 0.02789604 0.07550949 0.17562202 0.2922304 -0.028686734 -0.050119985 0.19036712 0.23182884 0.3197263 -0.06845435 -0.10204961 0.017218705 0.31206897 0.4051315 -0.2397648 0.23801 0.44629717 0.20780107 0.011811976 -0.2945003 -0.18670171 -0.23056066 0.11436843 0.06464832 0.027454522 0.1453764 0.092006154 -0.028004842 0.0068258233 0.023089686 0.09505684 -0.2642287 0.42429167 0.40391847 -0.32979438 -0.17595819 0.4990275 0.03667968 0.17223656 0.21852832 0.17415383 -0.07803064 0.3186635 -0.11372188 -0.21300773 -0.067361616 0.11279488 0.39185485 0.22101638 -0.25812134 -0.028505297 0.16217813 -0.0677342 0.070075795 0.11767675 0.052334223 -0.004227609 -0.16823994 -0.28311223 -0.09498055 0.00343733 0.16198325 -0.19189271 0.070222236 -0.020500097 -0.20327765 -0.08672385 0.08594499 -0.2758202 -0.18967791 0.32356995 -0.1076427 -0.6081585 -0.3703977 0.21173742 -0.21794745 0.01119402 0.0434122 0.14256103 -0.05071984 0.49337935 0.36480653 0.13320816 0.17409398 -0.35382468 0.16331731 0.27786505 -0.056427747 0.14369474 0.08522263 -0.25498724 0.4884447 0.26521283 -0.14020759 -0.3680224 0.038037702 -0.17447121 -0.23701228 0.04375906 -0.3032212 -0.06644724 -0.04002071 -0.03828516 -0.0060047996 0.039171293 0.18903099 -0.057192676 -0.11974651 -0.21454883 0.06520401 0.20252927 -0.4046263 -0.20723777 0.11849407 -0.03855819 0.013424354 0.0015207754 -0.010021289 -0.020411497 -0.26539066 0.086573616 -0.2582299 -0.097284175 -0.45702398 0.17840646
13867 0.1543994 0.15911628 0.22102897 0.16492438 0.2565814 -0.34962562 -0.13144737 -0.21169102 0.01029815 -0.112391785 0.24767722 0.1600391 0.16095074 -0.020459084 0.10915326 0.36987814 -0.55172896 -0.021104613 -0.35504556 0.061670944 0.008489679 -0.049006492 0.122998744 -0.18975528 -0.18290652 0.48513684 0.0057664094 0.20564397 -0.024908023 -0.115315706 0.037038952 -0.124433756 0.12791324 0.023743547 0.053226363 -0.2933599 0.20793688 -0.27321416 0.15075046 0.14345968 -0.3427942 0.098088466 0.01394658 0.093545675 0.030951362 -0.012399137 -0.27541825 0.0044798 0.09026818 -0.07317598 0.3075231 -0.4444603 -0.051516484 0.5553982 0.11641507 0.090455115 0.12156867 -0.4457933 -0.42768103 0.26671454 0.25310612 -0.08136387 0.16775542 -0.060447253 0.09147707 -0.11173863 0.20310815 0.36257085 0.093687214 -0.036015254 0.27907732 -0.3323431 -0.29230917 -0.20941332 -0.07203479 0.010409111 0.2109841 -0.046852715 0.07509165 0.03680081 -0.08592806 -0.0033584437 0.31982976 0.02798115 -0.53654313 0.2781379 -0.10032506 0.19022463 -0.22867508 -0.058391415 -0.086723275 -0.31641254 0.36597955 -0.059277482 0.35727763 -0.46442723 -0.34735024 -0.3901355 -0.12904663 0.15747003 -0.33052495 -0.048301842 0.11629378 -0.0877095 -0.29969713 0.22893342 -0.07051425 -0.05402483 0.42926282 -0.17617974 0.63199 -0.35586774 0.15627703 0.34382626 0.0029892721 0.34424183 -0.33016744 0.29255188 0.1548414 -0.22759245 -0.43378386 -0.47151625 0.0037076047 0.45121393 -0.25938842 -0.324904 -0.17316853 -0.40814465
10720 0.11271222 -0.0070935823 0.007849555 0.19663669 -0.24630259 -0.08509172 -0.0778398 -0.2526729 -0.14352916 0.064325556 0.1812182 -0.17407586 0.09653592 0.035848062 0.16735712 0.18182325 -0.3513774 0.26215908 -0.09965714 -0.13184604 -0.11324434 -0.5038211 0.047003765 0.1503142 0.3402665 0.1353193 0.21612409 0.22515394 0.37802976 -0.15229625 -0.106853664 -0.29461253 -0.106274255 -0.098354824 0.14530651 0.2239574 0.19683078 -0.22523715 0.22866037 0.18983896 0.051519293 0.2467824 -0.17177634 0.1728348 0.23838948 -0.09670916 -0.38721865 -0.048345104 0.18458855 -0.066368386 0.46679944 -0.26893282 0.14176734 0.5034651 0.31288823 -0.032522775 0.103365116 -0.47912776 -0.24975671 0.2548542 0.25665748 0.24679549 0.17214741 0.05283374 -0.13438755 -0.13618611 -0.042254638 0.602648 0.02725255 -0.33351928 0.3059496 -0.38802534 0.006787529 0.14016652 -0.16823499 -0.45803538 0.035077065 0.26669922 0.22803311 0.31439984 -0.25607035 -0.14366043 0.35165203 0.46049756 -0.27764362 -0.0102178585 0.08499609 -0.0759763 0.37373856 -0.06925453 0.023350174 -0.08626431 0.07526529 0.04381916 0.2795691 -0.12407824 0.0054930397 -0.40025073 -0.16410793 0.29274595 0.07198882 0.056082383 -0.21659623 -0.13688786 0.105604395 0.019979956 -0.19824511 0.07222247 0.41618225 -0.3697382 0.6123044 -0.3980703 0.12667842 0.1660171 -0.087761775 -0.15972874 0.1409853 0.15478733 -0.027427295 0.037955426 -0.24000308 -0.23896678 -0.32003012 0.21110526 -0.03242432 -0.21805274 -0.42302436 -0.07758236
11994 0.053458102 -0.18490306 0.31748965 -0.18627775 0.2057683 -0.058278456 0.16063504 -0.047592446 0.011232988 -0.100036405 0.38158393 0.12776574 -0.14644517 0.15614118 -0.05231501 -0.0045492495 -0.013564659 -0.47227994 0.04407428 0.10569896 0.075149186 -0.11991984 -0.28281906 -0.63067085 -0.44488752 0.2053482 -0.07796064 0.049364686 -0.10552942 0.17868531 -0.22913313 0.0069405693 -0.12867 0.25833824 0.06160038 -0.027492939 0.2339333 -0.07479221 -0.07863165 0.08533761 0.16110909 -0.14613427 0.20568097 0.08444571 0.3462526 0.29434204 0.10042649 -0.49744582 -0.45842114 0.26738715 0.37588474 0.058953192 -0.18596388 0.21267743 -0.015864296 -0.22037682 0.44429186 -0.028023824 0.04915533 0.10009516 -0.3120614 -0.1580189 0.3058007 0.1417253 0.054971334 0.20650333 0.06492187 0.16367036 -0.16767552 -0.28808746 -0.10412539 -0.25966582 -0.32871905 -0.08316104 -0.13777436 -0.11405768 0.154126 0.13261409 -0.19196364 -0.22857869 -0.37373477 -0.0124265235 0.12405888 0.1029613 0.1727146 -0.07783473 0.21560408 -0.0075760623 0.10881165 0.12095176 -0.2370126 -0.4299301 0.27120575 -0.021031346 -0.20565203 -0.008915542 -0.071459614 -0.050948 -0.055053502 -0.18111888 -0.26316315 0.031162186 -0.50712913 0.09331749 0.12476351 0.09883065 -0.3016522 -0.03632357 0.1722867 0.2989323 0.04264341 -0.06523888 0.1071428 0.09250308 -0.35501122 0.3625182 0.10245118 0.23197916 0.14868963 0.10067113 0.09113177 -0.19675769 -0.31947607 0.033829987 -0.027861044 -0.3280813 -0.24982706 0.27560085
11422 0.08915542 -0.07996167 0.20957215 -0.06915158 0.39255443 0.031531617 0.06510306 0.09737274 0.0383184 0.06778741 0.24621823 0.22279373 -0.061965603 -0.114366695 0.124062896 -0.20446242 0.24207532 -0.26793915 0.01640118 0.26667804 0.11533345 0.076356255 -0.13141063 -0.58834183 -0.12607484 0.35897404 -0.0874497 0.08788456 0.08233456 0.15359415 -0.06898467 0.077036455 0.08578125 0.2791939 0.04404993 0.29096088 0.0037820747 -0.2226114 0.029949741 0.29514953 -0.09800148 0.2485901 -0.055937644 -0.062399648 0.3841493 0.00021963572 -0.018008428 -0.41273025 -0.34148926 0.25189313 0.39327934 0.20070723 -0.11281054 0.09402374 -0.0242177 -0.12510641 0.2330959 -0.040977784 0.053280704 -0.030642614 -0.43647373 -0.043001205 0.10896273 0.20752779 0.12488707 0.2654828 -0.049534433 -0.024724018 0.03879517 -0.033001345 -0.13192007 -0.38598356 -0.3990518 -0.07732091 -0.0829345 -0.3816128 0.053234376 0.10567646 -0.12917748 0.0075123236 -0.31981102 0.24146049 -0.08551327 0.37560514 0.48493165 -0.24606694 0.4220908 -0.33335707 0.044427536 0.18494776 -0.17610347 -0.39116383 0.11758532 -0.2382127 0.28949192 -0.0006822703 -0.29966715 -0.25553605 -0.013839664 0.027615681 -0.30182415 -0.1224684 -0.30458882 0.02941689 0.00038069786 0.255393 -0.2653766 -0.057483245 -0.11215634 -0.24207443 -0.3195627 -0.22515948 0.1740827 -0.008830644 -0.36533174 0.14560927 0.13771464 -0.22476847 0.06764606 -0.041120347 0.02230734 -0.069362275 -0.36981884 0.1652487 -0.27089748 0.043883014 -0.12944023 0.079172544
12991 -0.08611683 -0.07846494 0.33806792 -0.16079356 0.047017697 -0.089735895 0.053752188 -0.24005431 -0.23277208 -0.21932217 0.21974617 0.18132073 0.10069523 0.15672986 0.18245195 -0.06753123 0.27193794 -0.5398038 0.13464043 0.18749484 0.05706951 -0.3752281 -0.1856178 -0.46254176 -0.32023522 0.015837729 -0.06831003 -0.06366799 -0.056936946 0.010707553 -0.13572806 0.13844419 0.048472054 0.45786735 0.2836985 0.08767444 0.19732147 -0.18171649 -0.26248798 0.59280294 -0.026618285 -0.09999294 0.41095844 0.036553416 0.6836595 0.18880782 -0.0030432406 -0.49921578 -0.2144425 0.29901928 0.3810887 0.30621803 -0.31595302 0.17506367 0.10141347 -0.20586717 0.2136939 -0.07127189 0.07143409 -0.061939765 -0.12490166 0.09357568 0.24236079 0.14219438 -0.07449746 -0.00060662866 0.25538373 0.05112416 -0.10783265 -0.10506103 -0.24147101 -0.6726483 -0.21217057 0.3326133 -0.0067523173 -0.27652773 -0.12910436 0.016747503 -0.096037075 0.076761976 -0.50115395 0.14783582 0.31851533 0.077893175 0.28020582 -0.07648342 0.32848915 -0.20182522 0.17534184 0.0015689426 -0.25885704 -0.35315555 0.342603 -0.14651139 0.051875524 0.23718795 0.17935936 -0.21141852 -0.09003049 -0.18570334 -0.4011294 0.12349159 -0.36791414 0.11348076 0.030017959 -0.12001966 -0.27782202 -0.09613696 0.02333797 0.067799404 0.034717303 -0.03140663 0.08066323 0.13517573 -0.5151348 0.10786921 0.23887868 -0.14170621 0.28704587 0.070200324 -0.0049911793 -0.18793935 -0.25293496 0.020758424 -0.07380314 -0.13252412 -0.12759507 0.043107815
12661 -0.05105075 -0.24370259 0.19079328 -0.087240264 0.25881824 -0.43070176 0.100923754 -0.29436868 0.047797013 0.1885335 0.397724 0.48065117 -0.09112692 -0.09217082 0.31920242 0.2632863 -0.06645529 0.09621866 -0.26937988 0.38214552 0.21267831 0.1033821 -0.29922557 -0.16191372 -0.102538 -0.1369998 -0.015489203 -0.23432882 -0.11739586 -0.62039846 0.28191537 -0.05022535 0.2639073 0.15863198 0.2719388 0.4653238 -0.021628113 -0.18190393 -4.6561287e-05 -0.12160712 -0.1609407 -0.070654064 -0.2157016 0.028218362 0.010963174 -0.18038203 0.043096177 -0.11750997 -0.113247216 0.36073375 0.24911854 0.09360025 -0.3254098 -0.048548892 0.0030237194 0.45068792 -0.026771687 0.21112353 -0.007600888 0.58510685 -0.3139291 0.1787825 0.28031766 0.010546798 -0.10535667 0.16801418 0.21356344 0.11457559 0.03152267 -0.2062424 0.07838467 -0.3803069 0.22997077 0.007856631 -0.09344668 -0.5194492 -0.0400015 0.35748413 -0.03603005 0.3059051 -0.24144262 -0.097004145 -0.050697226 0.63598764 -0.17297068 0.13200548 0.23666064 -0.08993469 0.06691978 -0.10101307 -0.24172314 -0.18295878 0.19706996 -0.02967127 0.2067522 -0.21149117 0.012873997 -0.35423243 -0.11205946 -0.10434031 -0.25435552 -0.10027051 -0.4576077 0.4848637 0.119114585 0.17394686 0.16192262 -0.09215668 0.16374366 -0.10881349 0.041296124 -0.105327025 0.22535686 0.28077906 -0.5168029 -0.6642657 -0.05477973 -0.22516182 0.05886949 0.25404727 0.10572808 0.021991337 -0.075012445 -0.27698922 -0.21598798 0.3640599 0.010552932 -0.06711815
3551 0.15114535 0.27735767 0.047226273 0.2744592 0.17173484 -0.035214428 0.18414015 -0.3050409 -0.043459836 -0.14014152 0.13797218 -0.15230982 -0.08372428 0.032285035 0.16438337 0.30672875 -0.34492758 -0.053596463 -0.6819272 0.2643105 -0.2913129 -0.104346305 0.18543144 -0.25072548 -0.1785758 0.3668488 0.19588952 0.34145108 0.21070735 0.027448239 -0.37508 -0.38880873 0.15631744 -0.110507585 0.13741784 -0.15520808 0.28024372 -0.110322416 0.19123401 -0.15500896 -0.35931745 0.33065346 0.052454915 0.014894901 0.43188247 0.16573489 -0.080432646 -0.17861736 0.060216274 0.23298028 0.40828666 -0.17093298 0.23864299 0.41929355 0.09279308 0.107674345 0.16024302 -0.430798 -0.2119261 -0.08969437 -0.05562258 -0.040570267 0.09924807 -0.35388815 -0.00125793 0.0018957615 0.021142565 0.3949161 -0.0014740768 -0.33320293 0.3298989 -0.13354841 -0.11363324 0.18788998 -0.23087178 -0.15343095 -0.049719635 0.52976775 -0.19851291 -0.08089421 -0.014912121 -0.028058838 0.11960181 0.020672511 -0.3105 0.109630585 0.05947295 0.3694317 -0.003549266 0.08485829 0.18188384 -0.26217288 0.046589326 -0.19141671 0.3951189 -0.07158046 -0.3158799 -0.02711155 -0.36892506 0.14127232 -0.07095954 -0.08817775 -0.16157499 -0.11965988 -0.37096474 0.22514859 0.2624644 0.35788473 -0.009204134 0.12276205 0.63014114 -0.34731263 -0.07498038 0.34085608 -0.12049851 -0.23698933 -0.2097738 0.3923084 0.21132423 -0.02068959 -0.2545244 -0.34262553 -0.27570495 0.32088712 0.051120978 -0.13339509 -0.3660078 -0.4159026
11041 -0.038359437 -0.31299666 0.4912715 0.05115249 -0.08147191 -0.18342735 0.10948319 -0.04569902 -0.32288238 -0.042202417 0.09338882 0.07381548 -0.15433599 0.02235248 0.021841425 -0.022046162 0.24489792 -0.14766467 0.03433598 0.16733697 0.24575411 0.43137193 -0.27122802 -0.6475538 -0.13727726 0.057600334 -0.24110839 0.07615318 -0.104121804 -0.12112597 -0.20396249 0.014512356 0.1020462 -0.011963842 0.26234126 0.3006357 0.19426188 -0.34606352 0.17017874 -0.3276 0.08448929 0.2434135 -0.15385704 -0.23986697 0.12755467 0.009484267 -0.31954798 -0.29789445 -0.1040005 0.5366156 0.3512453 0.27042887 -0.24373549 0.079410866 -0.03280509 0.10947858 0.24592137 0.15942462 -0.15886492 0.62360334 -0.071168765 -0.031793695 0.07620652 0.18261045 0.022060286 0.08349395 0.2655042 0.031963218 -0.12992471 -0.10988525 -0.058213685 -0.107666746 -0.16678654 0.2630851 -0.27461556 -0.1845598 0.06267602 -0.04368105 -0.059383716 0.1640121 -0.20951486 0.096650355 -0.043570325 0.2926906 0.23015173 0.049370494 0.27157253 0.19543736 0.03474273 -0.020617101 -0.20129123 -0.15822993 0.32901084 -0.10352236 0.34739593 0.10697239 0.111514084 -0.05520119 -0.26375845 -0.060101356 -0.4578407 -0.060108736 -0.16029397 0.031678002 0.049268983 0.21718593 -0.10816589 0.065044336 0.17342843 -0.12682208 0.26557082 0.117319986 0.02992351 0.076525934 -0.26963946 -0.2715506 0.17880403 -0.24989417 0.1053327 0.2915803 0.1497082 0.12922698 -0.22836193 -0.04790775 -0.4033639 -0.10561108 0.069110386 0.1663717
11196 0.1177372 -0.13612334 0.4028661 0.11598318 0.1428687 -0.08397328 0.055403188 -0.12821853 -0.0037307246 -0.12668967 0.3618938 0.27388197 -0.071478635 -0.016157817 0.21220402 0.29643562 -0.03236232 -0.071707755 0.13547003 0.32642356 0.023083167 0.10035044 -0.18562762 -0.14507098 -0.3030354 0.18952963 0.022981951 0.0189691 0.13979948 0.1519558 0.17290418 -0.04269861 0.24296197 0.2999783 0.15144311 0.1597694 0.44192868 -0.009610715 -0.39755455 0.18745956 -0.30666748 0.21867229 0.23011617 0.24930443 0.15562207 0.14532135 -0.09202489 -0.24928588 -9.0125235e-05 0.28241387 0.33221424 0.27769247 -0.47377914 -0.23693508 -0.0164371 0.03828149 0.29546386 0.3609741 -0.21547078 -0.2080897 -0.13339795 -0.25166714 0.08325137 -0.034949243 0.16107486 -0.01267166 -0.055252112 -0.25676864 -0.096619844 -0.16701011 0.19517806 -0.43236718 -0.55309945 0.13212307 -0.1411515 -0.37261707 0.10166586 0.24637839 -0.011716683 -0.00023071733 0.059137918 -0.086296335 0.19421665 0.14962354 0.25246418 0.096626006 0.27963915 -0.47991794 0.20099893 0.4387955 -0.38386092 0.23325184 -0.11910035 -0.08250153 0.45456007 0.16667446 -0.22548841 -0.27012205 -0.079486705 -0.125256 -0.2306422 0.099466845 -0.5088802 0.3218797 -0.03826372 0.017709548 -0.05846795 0.06257625 -0.09869191 -0.007618159 0.016509688 -0.02109798 0.07240128 0.23179904 -0.46929258 0.022438604 -0.18670385 -0.29933628 -0.025032794 0.11768097 -0.1395984 -0.37991673 -0.36421898 -0.048558563 0.19062103 0.22861674 -0.03438383 0.09421341
11317 0.1953559 0.08914798 -0.054790534 0.45130265 0.3382671 -0.17446102 0.079870574 0.12716879 -0.24023965 0.0034747135 -0.09256584 -0.556129 -0.1610044 -0.3783932 -0.05738773 -0.008289153 -0.17899458 -0.0047314567 -0.31751966 -0.014349151 0.21708035 -0.32299006 0.34100905 -0.20409931 0.17781079 -0.0212747 0.39481685 0.27708194 0.055724308 -0.3213349 -0.101930216 -0.22974262 0.06294777 0.14034474 -0.26112562 -0.018412128 0.14773706 -0.39503416 0.29524812 0.09009624 -0.13688233 0.19050618 -0.019477649 -0.17143951 0.28276044 -0.053655945 -0.39312208 0.0060550286 0.049825765 0.08988003 -0.09667852 -0.21434836 -0.19909024 0.41227597 0.12031216 -0.23815504 0.35468948 -0.5414094 -0.3781684 0.34254664 0.20260622 0.34277713 0.39442545 0.1403596 0.06291967 -0.23047833 -0.20324008 0.4916588 0.011985367 -0.045156043 -0.07841307 -0.20945215 -0.21988544 0.11500996 -0.21055049 -0.483337 -0.17336865 0.47303632 0.08564778 0.18278477 -0.17093359 -0.17122263 0.11451673 0.22926053 0.047734138 0.43534803 0.005794008 0.2640699 0.15993695 0.14521903 0.12668651 -0.60888565 0.33046645 0.03731471 0.2337625 -0.0076693418 -0.20283155 -0.40677157 -0.11217979 -0.00089409226 -0.033213418 0.053504724 -0.32502034 -0.27267212 -0.038220417 -0.33327714 -0.36953256 0.25488877 0.28835812 -0.1088651 0.34984666 -0.4515739 -0.0154218245 0.10253484 -0.028027521 -0.081986964 0.31954825 0.20190169 0.009128617 -0.09138348 -0.42999944 -0.40162435 -0.2965309 0.3051098 0.21991289 -0.14445628 -0.3082141 0.028675357
6698 0.20863426 0.13487771 -0.090044044 0.2406628 0.443849 -0.03242823 0.2580268 0.054734435 -0.00900557 -0.15164946 0.29806527 -0.25121582 -0.06014169 -0.11795896 0.29417425 0.14402519 -0.013355854 -0.18580644 -0.16042465 -0.13587251 0.052367046 -0.26866674 -0.065592594 -0.22356424 -0.15776807 0.04197327 0.3269198 0.11038954 0.21055195 -0.054572534 -0.11214637 0.033765096 0.064476766 0.05790264 -0.044370342 0.22891034 0.4371938 0.06647952 0.2596242 -0.18239696 0.33391377 0.18314905 0.111333385 -0.07636914 0.19273648 -0.2110929 -0.17315243 -0.28709036 0.13377236 0.06190687 0.3502956 -0.3225077 0.04032545 0.17750908 0.6166024 0.05510173 -0.005255909 -0.3904781 -0.41553825 0.13835157 0.21330985 0.37620884 0.019069625 -0.13089785 -0.00017683093 -0.38698897 -0.09644256 0.26823002 -0.17343266 -0.11829687 -0.015306731 -0.11215703 -0.2781903 0.15921763 -0.005170512 -0.15543008 0.2754783 -0.30627328 0.09313304 0.010861026 0.059823997 0.012451008 -0.12462781 0.015411918 -0.3094275 0.17242983 0.4665745 0.2676262 -0.07704115 -0.00962421 -0.02888838 -0.11939064 0.13897675 -0.13441268 0.20738287 -0.046441924 -0.48223805 -0.5370935 -0.35219347 -0.14067483 0.054963734 -0.07992946 -0.018887868 -0.058106042 -0.26327538 -0.054212045 -0.0051528946 0.067290016 0.39099684 -0.055225685 0.7733412 -0.21083182 0.3052401 0.36805755 -0.027714895 0.14193736 -0.34390578 0.36075303 0.20567048 0.18408498 -0.22311606 -0.2919815 -0.22442551 0.1456685 -0.20750915 -0.26083702 -0.103794806 -0.26984197
10875 0.22785802 0.12416614 0.35677442 -0.058042053 0.123551406 -0.1672741 0.10117466 -0.36333275 0.03685809 -0.115597956 -0.22359866 -0.4424288 0.15810084 -0.0030369577 0.51643234 0.09657413 -0.2850434 -0.31121016 -0.35891291 0.21291195 -0.1353794 -0.42818654 0.23850499 -0.025079025 0.008966531 0.40140244 0.07190735 0.4650087 0.20258069 -0.06053625 -0.06145134 -0.38568044 -0.042563416 -0.052992787 -0.08305155 0.008079715 0.121368036 -0.19653235 0.15986997 0.24553628 -0.18120067 0.13858591 0.120212205 0.06742615 0.07883517 0.044137236 -0.074497044 0.020542566 0.10523714 0.0275178 0.45453346 -0.12167143 -0.0075396467 0.026564801 0.062593505 -0.016788095 0.32770267 -0.21456693 -0.4388958 0.24260473 -0.25188988 -0.3170239 0.06531586 -0.013347244 -0.06572033 -0.08951551 0.17679381 0.32495582 -0.05851943 -0.40743157 0.45605123 -0.29942212 -0.4815825 -0.302865 -0.012273295 -0.17392497 0.14700118 0.11403034 -0.04114531 -0.042767957 0.16153355 -0.004689804 0.058075525 0.21964213 -0.2924715 0.063549556 -0.13589829 0.042440213 -0.052023925 0.060420007 -0.25260782 -0.47071353 0.3176038 0.009495293 -0.061707437 -0.23173766 -0.39948395 -0.14215781 -0.129609 -0.051486284 -0.11612778 0.15189736 -0.20235814 0.07137354 -0.16063517 0.091877095 -0.092263974 0.098461345 0.3618054 -0.19542183 0.33944467 -0.46685997 -0.28884685 0.26678932 -0.09627467 0.06768592 -0.0018938651 0.33794552 0.16168255 -0.055167984 -0.09189902 -0.32401285 -0.23248209 0.32862246 0.22125274 -0.20909253 -0.131611 -0.27576137
13754 -0.015705727 -0.17868343 -0.03549977 -0.16028014 0.046095237 -0.07416661 0.111606285 -0.2849232 0.094817825 0.25186145 0.3536419 0.10965029 0.01362777 -0.1950563 0.024996346 0.34611702 -0.16430475 -0.034289118 -0.122203134 0.07790573 0.2716201 0.27591595 -0.7226803 -0.3045194 -0.08726507 0.13477683 -0.03782293 -0.19761415 -0.3082062 0.020128641 -0.2713069 0.032006577 0.0024491549 0.10839354 0.046905994 0.45126146 0.074638456 0.101048246 0.055009764 0.062366262 0.081425205 0.079944335 0.061565854 0.20479506 0.3497645 0.24954756 -0.19471918 -0.4470208 -0.20112549 -0.1262031 0.26495668 0.35237026 -0.046306435 0.10964146 -0.23441344 0.117330216 0.015266822 0.25991553 -0.2096857 0.22687782 0.06665003 -0.004754818 0.013410164 0.003392471 0.13161846 0.11166374 0.14697608 -0.18897697 0.018614931 -0.20802236 -0.037856072 -0.5851524 -0.4086083 0.118838795 -0.10737406 -0.5775003 -0.049568 0.32143587 -0.12343294 -0.06172139 -0.2138586 -0.20108487 -0.22192624 0.39232022 0.24620706 0.33834204 0.3369913 -0.17882341 0.12713605 0.09540569 -0.23651579 0.27190772 0.0023626965 -0.09527216 0.20710433 0.030626886 -0.10657033 -0.27251413 -0.113720626 -0.07884341 0.30212757 -0.057536792 -0.23540245 0.49484244 0.2695066 -0.13873567 0.10281163 -0.3084117 0.109805636 -0.17300841 0.1335806 -0.09515387 0.3520026 0.19130427 -0.2876708 -0.19784397 -0.15135609 0.050924193 -0.20029858 0.08950967 0.08130918 0.034409497 -0.19429098 0.031866115 -0.14936702 -0.09137042 -0.23415084 -0.036871973
11754 0.18220176 0.08824139 0.02086709 0.21565016 0.50922006 0.09205993 -0.06468586 -0.20848574 -0.026532432 -0.21764676 0.12611212 -0.2093665 0.09657955 -0.03997042 0.4462364 0.09545337 -0.55155 -0.10803589 -0.5608325 0.09418644 -0.0669925 -0.17774552 0.36381373 -0.1204308 0.12216082 0.46538648 0.3268711 0.57159775 0.28545257 -0.34020793 0.33923602 -0.45263094 -0.08204821 -0.17028482 -0.061863944 -0.11315567 -0.00048402886 -0.32935447 0.10675939 0.096119 -0.4795097 0.31047165 0.14118522 -0.13535748 0.6185451 0.11194737 -0.010913714 -0.13448517 0.06017941 -0.071909696 0.36518112 0.024180843 -0.099600144 -0.01860723 0.26631242 0.14151345 0.20202431 -0.5087658 -0.5483852 0.22577499 -0.05841685 0.19760585 0.2796258 0.19777027 -0.11694221 -0.32127717 -0.17966703 0.4193885 -0.034614302 -0.3607122 0.20904954 -0.27463755 -0.46823302 -0.3288191 -0.0041802027 -0.100524694 0.032012355 0.099839 0.2951151 0.17972696 0.36434206 0.011049546 0.14585996 -0.0030957041 -0.079742745 0.21499588 -0.1050531 0.13723926 -0.1918523 -0.044621028 -0.09815383 -0.102940336 0.23534083 -0.017469887 0.31258604 -0.20592277 -0.08665414 -0.24292296 -0.36166206 -0.036488384 -0.011645827 0.15873532 -0.110194355 0.251626 0.06461745 0.050614435 -0.0649137 0.25214735 0.20365843 -0.14692473 0.19830024 -0.2185876 -0.22339918 0.29897952 -0.16578232 0.13521126 0.03051291 0.25787225 0.21774939 0.12779008 -0.19103056 -0.2724074 -0.10210993 0.26172048 0.12827745 -0.33828342 -0.13359609 -0.5985356
4942 0.26954612 0.21196756 0.15390879 0.20432794 0.20588705 -0.017645726 0.22441801 -0.07777959 -0.19587448 -0.08394481 0.10591965 -0.33096343 0.01573736 0.107936546 0.6290901 0.1858252 -0.3449459 0.021747744 -0.46723652 0.052217744 -0.1395253 -0.063303925 0.55633473 -0.017521303 0.07560241 0.29832727 0.44401357 0.47593758 0.33111355 -0.12610723 0.35215744 -0.35620293 0.15958965 0.03959388 0.03225466 -0.02298461 0.34977287 0.2531448 0.25022772 0.25009516 -0.30106512 0.31934652 0.13309208 0.12232234 0.3904445 0.13970506 -0.13065833 0.052844767 0.07283117 0.32371122 0.26760432 -0.05935307 0.016462471 0.3494799 0.097951554 0.15542059 0.087844156 -0.44376263 -0.15012622 0.15475133 0.059451833 0.112662956 0.39981845 0.105297655 0.071087554 -0.2901367 -0.055223104 0.47988197 0.025387326 -0.14793122 0.2468254 -0.2359872 -0.4494538 -0.16761217 0.0373247 -0.27543676 0.03921523 0.6743627 -0.035614252 0.10029326 0.042588864 0.048137896 0.020512871 -0.1482238 -0.22674544 0.16331658 0.1714844 -0.22499314 0.089707084 0.073848635 0.04099091 -0.41427982 0.2843146 -0.040510267 0.006448202 -0.20924032 -0.20317215 -0.17680985 -0.57797587 0.09279087 -0.04644992 -0.033782087 -0.08183097 0.26100293 -0.25955373 0.09217555 0.24306576 0.24443819 0.00930023 -0.18043284 0.50317705 -0.16615027 -0.056131322 0.056426477 -0.00073256006 0.008116218 -0.25071195 0.25174758 0.28629485 -0.10269161 -0.44062793 -0.19562113 -0.55807924 0.3554489 0.01941534 -0.45698565 0.065234594 -0.40125504
10649 -0.03320414 -0.14591761 -0.06777973 -0.00036770682 0.12595081 -0.13548838 0.099593736 -0.288009 -0.30807102 0.054045 0.27248123 0.4831807 -0.056681298 -0.34723043 0.36329785 0.19363827 0.2680065 -0.17391945 -0.18470357 -0.07495287 0.04694999 0.50284076 -0.36301243 -0.32186726 0.09468192 0.029776843 0.115173124 -0.4647793 -0.23875555 -0.3879644 0.36118594 -0.16977619 0.01223889 0.078325324 -0.3335221 0.18142211 -0.023361854 -0.1842911 0.1281107 -0.1941987 0.06968222 0.123553164 -0.0027645025 -0.23485819 0.41335624 -0.08422548 0.0021865051 -0.37481302 -0.17204002 0.43101504 0.3489134 0.21538226 -0.17988054 0.2548033 0.109927416 0.055406712 0.04993546 0.1281603 0.06115344 0.4959915 0.022582069 0.28171903 0.014781984 -0.10200446 0.26810515 0.15377763 0.2754706 0.06313498 -0.0073245894 -0.50351363 0.023812717 -0.43900567 0.045632012 -0.2700134 -0.11331788 0.117188536 -0.1615484 0.1379198 -0.10118651 -0.03655742 -0.22863176 0.3588296 -0.3727829 0.3312934 0.0135524655 0.046991132 0.34160307 -0.19454792 -0.012340537 -0.09380797 -0.23590863 -0.005764434 0.24941422 -0.18950434 0.03704898 -0.0061644553 0.10186117 -0.013196473 -0.28511348 0.076793015 -0.18474983 -0.021908773 -0.30661643 0.19945708 -0.11434602 -0.1602645 0.14370961 -0.06465955 0.07440604 -0.11346188 0.3295646 -0.04202558 0.11618979 0.5456052 -0.8589141 -0.41598576 -0.27472806 -0.21940874 -0.045419972 0.07444838 -0.14083482 -0.36972 -0.22783172 -0.15657133 -0.28387585 -0.27839363 0.2909352 0.11478943
11108 0.30194387 0.42821336 0.10518896 0.11549876 0.28601676 0.0007547393 0.077260114 -0.1364925 -0.04294308 -0.025773967 0.076925166 -0.25225398 0.094283596 0.24814235 0.65124464 0.041766584 0.0026916852 -0.11353695 -0.13319027 0.31371084 -0.18200776 -0.4067731 0.42307106 0.3301835 -0.019560065 0.2690009 0.31620714 0.20561054 0.22391309 -0.30234036 0.56848377 -0.72424036 -0.04794714 -0.26080364 -0.076518476 -0.21819045 0.0734705 -0.12359348 0.018355088 0.17464185 -0.33052477 0.27820507 0.09610847 0.28874457 0.2480393 0.08050793 -0.1366316 0.12164475 0.07933688 0.16372567 0.5284981 -0.07297864 -0.107030034 0.2581734 0.14202993 0.1350583 0.3086411 -0.18525204 -0.32137692 0.13201208 -0.11402392 -0.010098959 -0.0115751065 -0.08574696 0.10157077 -0.16497083 0.36768264 0.34457964 0.09350936 -0.35464728 0.4780614 -0.36403778 -0.19618931 0.2573396 -0.30147067 0.07345965 -0.030852463 0.24971558 -0.34487915 0.033752736 0.13999331 0.19082418 -0.3771868 0.20840856 -0.4297982 0.16226901 -0.0711884 -0.16837528 -0.027761577 -0.064300016 0.017105939 -0.3634131 0.14746937 -0.3150955 -0.078299396 -0.2561263 -0.2531936 -0.19291383 -0.38877305 0.2872939 -0.13197677 -0.24656062 -0.082690775 -0.025001189 -0.3106415 0.10337117 0.08391543 0.0124939345 0.3439132 -0.43337795 0.5111629 -0.23715113 -0.0011370266 0.43452772 -0.0139389625 -0.048535112 -0.019225175 0.41046712 0.21201664 0.051022172 -0.6163146 -0.32042542 -0.15668385 0.03441367 -0.10800683 -0.52642107 -0.35759133 -0.16875066
10983 0.1391562 -0.10237918 0.015524696 0.32639277 0.44057542 -0.092520595 0.25507903 -0.23042272 -0.20977007 -0.0070106564 -0.018687246 -0.13113704 -0.24069421 -0.014487528 0.09990401 0.24402186 -0.37454805 -0.1408294 -0.18629675 0.07231637 0.27553746 -0.35279587 0.16807559 -0.2850519 -0.25474226 0.15991288 0.23625232 0.5937901 0.1370706 -0.13730894 0.26783195 -0.6027262 0.008849883 -0.09829415 0.14487833 0.032754317 0.23535438 -0.13983549 -0.1263267 0.20827861 -0.13646448 0.25612292 -0.08300374 -0.018976772 0.36691344 0.15086845 -0.16550308 0.28171995 0.12764522 0.20684752 -0.22602682 0.08128166 0.026750667 0.5860198 0.22474821 -0.42614976 0.4159028 -0.7165648 -0.32293424 0.0768154 0.19165623 0.42168692 0.22571266 0.05405901 -0.09588335 -0.24841078 -0.06811631 0.38439822 -0.02301931 0.11435317 0.10050009 -0.4568189 -0.099734716 0.34432355 -0.032261282 -0.29739243 -0.07517296 0.23979072 0.061137944 0.27472013 -0.09729348 -0.18171601 0.02767546 0.43121853 -0.13837677 0.2099469 0.1675992 0.17121758 -0.017190602 0.38215795 0.19423634 -0.3758446 0.44568732 -0.009117188 0.1256192 0.13056055 -0.07611637 -0.64454263 -0.3026851 0.14139779 -0.28234175 0.120367125 -0.097617485 -0.09806518 -0.14892237 -0.27309695 -0.19778918 -0.1525651 0.14638868 -0.2819115 0.17906013 -0.4129008 -0.14966476 0.115136765 -0.012902455 -0.008726434 0.36961406 0.40895027 -0.05420892 0.021977281 -0.5566117 -0.28405982 0.20644471 0.42126384 -0.08919439 -0.17299323 -0.4038464 0.021722492
7007 0.21546309 -0.122501515 0.33242065 -0.32967028 0.23862718 -0.378218 -0.079146154 -0.17690903 0.28059062 0.08853511 0.2371309 0.19223274 -0.2118736 -0.06637529 0.103278786 0.25544512 -0.012260623 -0.33170617 0.17370361 0.027298728 0.174613 0.099193655 -0.06437591 -0.0044768807 0.21729468 0.04145112 0.056306787 -0.1458608 -0.04874729 -0.21914396 0.30623397 -0.058902763 0.03833786 -0.04701993 0.07729131 0.067369744 -0.03667421 -0.4766635 0.032720614 -0.24994932 -0.107493594 0.016644325 0.20361833 -0.3055581 0.19400911 -0.13190217 -0.4789512 -0.37754712 -0.03935929 0.38606343 0.29090092 0.25580978 -0.23298393 0.05994656 -0.3544839 0.066716544 -0.02009746 0.21057655 -0.3809372 0.16118114 0.021264663 0.056090333 -0.087396525 0.16569853 0.16949111 -0.01344336 0.49571642 0.15776652 0.35530347 -0.34208098 -0.1961008 -0.2864127 -0.0971683 -0.10012303 -0.23256977 -0.22124992 -0.49318284 0.29032698 0.040752064 0.148728 -0.08280731 0.18812588 -0.13468334 0.28374633 0.07021747 0.0023616566 0.37836587 -0.16255377 -0.32101673 -0.19061548 -0.2344922 -0.2245724 -0.02066842 -0.2773279 0.2524731 -0.013971568 0.36791724 -0.3560117 -0.36921632 -0.019834071 -0.10276015 -0.0035971692 -0.38114244 0.06311452 0.08203178 0.045695752 0.03775338 -0.020411562 0.2656906 0.09165246 -0.01854554 -0.08894344 0.20828754 0.1414563 -0.6637481 -0.43044382 0.025079165 -0.2628318 0.074034594 0.13342598 -0.1397485 -0.12620172 -0.3144453 -0.26205236 -0.2130149 -0.10374485 -0.13870588 0.07114056
8804 0.03849669 -0.35254288 0.3798087 -0.012770475 0.19227675 -0.052290257 0.1375904 0.14059281 -0.012521284 -0.0935634 0.10874874 0.23090433 -0.11384958 -0.04694186 0.25143233 0.12095137 0.2134269 -0.3159576 -0.14185101 0.15176187 0.15822396 0.20402287 -0.07006345 -0.47218215 -0.23286107 0.3186939 -0.11679402 0.07925039 -0.08226346 0.032352507 -0.26983836 -0.11709876 -0.15786818 0.40351552 -0.10099922 0.08863671 0.008991058 -0.24829124 -0.0740314 0.35353297 -0.19744624 -0.13174409 -0.03430957 0.10332699 0.5655291 0.048605487 0.029486388 -0.36565402 -0.45190147 -0.042321507 0.24990661 0.15562841 -0.2717512 0.13183664 -0.21200667 -0.2845818 0.5341057 -0.029265692 0.10778978 0.021229532 -0.34834754 -0.15345277 0.088624425 0.19670318 -0.03969221 0.0840777 0.024106769 0.21660346 -0.2621362 -0.21177466 -0.14355193 -0.33954352 -0.23162629 -0.16160221 -0.18846849 -0.38836327 -0.05349034 0.0703995 -0.33303013 -0.19516534 -0.58110815 0.055361383 0.24588345 0.14799617 0.22635297 -0.3106428 0.26057175 -0.24557279 0.15420939 0.13182445 -0.32793504 -0.47849208 0.18929173 -0.06577411 -0.14849816 -0.04179488 -0.08452361 -0.040406898 -0.15304148 0.01874723 -0.2850591 -0.30068547 -0.4363432 0.07755554 0.045292757 -0.13516742 -0.2084871 -0.088954896 -0.040226903 0.043759115 -0.13678811 -0.17451133 -0.055662744 0.29025245 -0.5247931 0.43656844 0.1857271 0.13431317 0.2135116 -0.041338116 -0.13116407 -0.08645481 -0.30055624 0.07580719 -0.15707071 -0.19446115 -0.10618434 0.24441701
12808 -0.19673549 -0.1176502 0.3322765 -0.114284776 -0.029028162 -0.11967961 0.14254345 -0.16014871 -0.2787262 0.0710372 0.19323233 0.019674852 0.057411507 0.10387146 0.20614146 0.08453154 0.23499256 -0.50478494 0.17974837 0.089055 0.18216753 -0.09496916 0.014395835 -0.52180135 -0.4460997 0.1929652 -0.07820806 0.23352718 -0.06912993 -0.06387735 -0.22894348 -0.17614952 -0.22568953 0.28190985 -0.009623469 0.2352556 0.029701088 -0.1805637 0.00068094686 0.47002587 -0.060310658 0.09919786 -0.02163201 0.11555914 0.38712367 0.10989323 0.10620848 -0.29413632 -0.07582501 0.29659882 0.1452917 0.2466736 -0.2598216 0.03168994 -0.052790567 -0.014059913 0.3231694 0.110903926 -0.065807626 0.19108786 -0.27835023 0.12650363 0.11721124 0.03501141 0.1394304 0.23000012 0.050565023 0.06128346 0.020975133 -0.2438411 -0.062188033 -0.35816622 -0.3524439 0.09534216 -0.058166925 -0.36312988 0.16989909 -0.16480811 -0.24713156 -0.08345528 -0.5327838 0.22233413 -0.014996189 0.21222405 0.19887377 -0.3817015 0.3250044 -0.044063628 0.1004738 0.14639312 -0.22102702 -0.58369434 0.203572 -0.122453354 -0.05445264 0.13917638 -0.27402672 0.0021432214 -0.025590433 0.06659032 -0.29736254 -0.054759473 -0.5088043 0.11962678 -0.00070552184 -0.011011355 -0.20737804 -0.18667684 -0.042633735 0.1287357 -0.023721049 -0.21083473 0.0788512 0.1227448 -0.55341554 0.26801488 0.21464229 -0.098450236 0.15466113 0.12802516 -0.07843097 -0.15400669 -0.3714587 -0.041083734 -0.21084887 -0.043359984 -0.052377347 0.3583918
13713 0.35184258 -0.25076768 0.061727986 -0.015189568 0.3872054 -0.115752816 -0.031452157 -0.14563175 0.0192904 0.067698546 0.5475832 0.37404206 -0.08510788 -0.3212964 -0.052450452 0.5251008 0.0470538 -0.060662948 0.034990598 0.19485283 0.297377 -0.044823855 -0.08833225 -0.18274574 -0.21742441 0.16592176 -0.11756135 -0.22323216 0.12596299 -0.30373684 0.04750942 0.09605418 0.17638788 -0.048661906 -0.34658325 0.17636538 -0.0031819462 -0.069323026 0.056543883 -0.3779911 0.37666133 0.13573796 0.025725802 -0.3595011 0.019926256 -0.037623394 -0.024698095 -0.1628842 -0.0517991 0.016578978 0.44381967 -0.5012415 -0.09199478 0.44843882 0.00574793 0.3692206 0.15431066 0.28071448 -0.36077383 0.31482637 0.014849112 0.093750596 -0.07133538 0.14198335 0.05582423 0.039430898 0.44872975 0.34498927 0.041180525 -0.47352025 0.08408998 -0.19781017 -0.0971152 -0.22671814 -0.08868096 -0.22652388 -0.06510786 -0.34849298 -0.20025072 -0.015430951 -0.048011277 0.098220676 -0.32763743 0.19690405 -0.25888777 -0.088973984 0.046209116 0.057301793 -0.039387975 0.084027246 -0.35510486 0.024481257 0.21976529 -0.39328283 0.1909205 -0.0543143 -0.10054132 -0.05096102 0.022777643 -0.00048760782 -0.37707725 -0.07532851 -0.15909806 0.14329737 -0.15538669 -0.18177244 0.057601117 0.16262697 0.2117578 -0.15940358 0.091195434 -0.14423366 0.12247014 0.13917677 -0.5049711 -0.34706187 -0.027809078 0.092482805 0.39375532 -0.051380277 -0.1846671 -0.24868207 -0.17870048 -0.1426515 -0.33367532 0.0025746182 -0.119626194 0.04934599
671 0.037074957 -0.4279316 -0.0731812 -0.26476008 0.6136025 -0.05499212 -0.07969902 -0.173182 -0.003535632 0.06386226 0.72021896 0.29467395 -0.19092314 -0.12835945 0.16861972 0.44198573 0.051256064 -0.3102756 -0.21078849 0.03194445 0.14866039 0.14379251 -0.32904458 -0.32190683 -0.34652764 -0.12052891 -0.07538143 -0.32006833 -0.13142087 -0.28643033 0.36870202 -0.19302809 -0.042985804 -0.14604118 -0.028294113 0.58289075 -0.01813238 -0.38022143 0.13155223 -0.087435596 0.01619334 0.10807927 -0.18768944 -0.27298802 0.23329888 -0.19159245 0.073000126 -0.26913103 -0.24489842 0.3987295 0.271857 -0.03273042 -0.5035322 0.16821219 0.0024978071 0.18660842 0.09897213 0.18047856 -0.33270615 0.7345007 0.08304927 0.32097897 0.30825242 0.18215345 -0.13053297 -0.07273357 0.654934 0.25094765 0.010185666 -0.26073286 -0.0947357 -0.16486922 -0.065780126 0.00919026 0.119341984 -0.022779666 -0.2537062 -0.2379513 -0.0505275 -0.16348295 0.012909047 0.055816013 -0.47042754 0.32278645 0.038312107 0.12767427 0.0653852 0.279643 0.16293296 0.44610533 -0.24937215 0.20402452 0.27363098 -0.4879006 0.21505062 0.044774543 0.19991575 -0.06186373 0.04606302 -0.017536702 -0.3631811 -0.10061535 -0.4117041 0.027587548 -0.24488454 -0.13811317 0.11360156 0.12897553 -0.012085782 -0.30036998 0.10635512 0.18635225 0.23446652 0.46520728 -0.6471175 -0.052673187 -0.039366975 -0.16640936 0.38669097 0.41745192 -0.20787005 -0.0014256844 -0.15464422 0.010417896 -0.32131505 -0.29674283 0.21720472 0.2382528
12296 0.12701972 0.29904687 0.24112715 0.24969698 0.11006718 -0.10423693 0.25552848 -0.37427646 -0.19993745 0.19342971 -0.17628568 -0.35856205 -0.21678169 0.11137795 0.15825775 0.18196078 -0.29602775 -0.13644263 -0.34330237 0.27750218 -0.03086641 0.045403227 0.198016 -0.15414454 -0.02538601 0.29561642 0.3221849 0.2924415 -0.14846428 -0.2509037 0.50703126 -0.7878617 -0.2225492 -0.21889926 -0.1589586 -0.0312709 0.048054766 -0.14058538 0.14425741 -0.01647864 -0.20820843 0.23649374 0.16425577 -0.12806626 0.36542758 0.18355867 -0.35636383 0.38942254 0.030483983 0.051407803 0.2793676 -0.21744253 0.0059979255 0.1958695 0.15080374 -0.23241244 0.3760455 -0.3438973 -0.3878333 0.054786365 0.22827408 0.2188856 0.13136111 0.03275423 -0.22199444 -0.032592602 0.2964788 0.5307232 0.035772916 0.09833179 0.26777583 -0.23321712 -0.2973783 0.2220528 -0.20381953 -0.3232968 -0.21141326 0.25705823 -0.12328302 0.06575685 -0.24828476 -0.214786 0.21772315 0.45503256 -0.2736319 0.25262228 -0.15726928 0.063113205 0.22232138 -0.026292993 -0.06584557 -0.33249277 0.13646919 0.34992516 0.07261817 0.06960285 -0.2977767 -0.6199311 -0.2853658 0.012249012 0.1623357 -0.076204985 -0.18274452 -0.029092886 -0.100819245 -0.24867521 -0.12548289 -0.24441351 0.1489848 -0.1938085 0.43420064 -0.3629489 -0.34442285 0.21268602 0.04099097 0.063372344 0.3407265 0.1804219 0.09384603 0.027730787 -0.43893078 -0.42918533 -0.046780888 0.0075895833 0.1312383 -0.3403288 -0.25235814 0.02524165
11155 -0.09739608 -0.25658664 0.6033652 -0.27623758 0.1885314 0.06790216 0.20651868 -0.21134101 -0.35260698 -0.06309694 0.13980445 0.17022735 -0.011016291 0.2570365 0.50082344 -0.01925079 0.33586594 -0.34740245 0.039691366 0.22001174 0.14718726 0.22437976 -0.36349192 -0.3112245 -0.24982725 0.02563097 -0.03135997 0.01592354 -0.17930679 -0.025845928 -0.0134111615 -0.029570531 -0.010604694 0.13204505 0.012862427 0.007998325 0.09899852 -0.18372342 0.053846058 0.23917632 -0.033968616 0.016271282 0.15170483 -0.07471627 0.49077266 0.13314934 0.08115411 -0.35940552 -0.30569133 0.24389951 0.47112226 -0.17434894 -0.28480098 -0.035532683 -0.2949722 -0.08639282 0.43420187 -0.13369195 0.07698398 0.066438116 -0.23123765 0.00967889 0.13726911 0.05229006 0.15036745 -0.016468346 0.090325125 0.1888889 -0.14759724 -0.18567139 -0.11977122 -0.28592768 -0.42888954 -0.06655967 0.23348895 -0.21654144 0.084255524 -0.004128211 -0.19663228 -0.04333367 -0.7153303 0.15322334 0.028838985 -0.09683688 0.1864617 -0.162777 0.13503739 -0.21604463 0.20912914 -0.14723007 -0.20860502 -0.4011182 0.3293454 -0.052943774 0.05431723 -0.0005543312 0.024574196 -0.34436494 -0.2078266 -0.41624394 -0.3477476 -0.12135239 -0.5434233 0.050989874 -0.23956323 -0.1376361 -0.0077141277 -0.38087416 0.019041559 0.039129086 -0.04694026 -0.13370363 0.009734906 0.11385509 -0.4115525 0.16064803 0.16730085 0.047112674 0.23378198 -0.004625359 0.15987808 -0.197691 -0.4999958 0.1291592 -0.21223831 -0.32329634 -0.1798243 0.4657922
11429 -0.1338375 -0.47785863 0.5911934 -0.048578978 0.31497285 -0.10352598 0.14234687 0.014227214 0.14138551 -0.044561997 0.263953 0.455705 -0.05167649 -0.0013047471 0.013647284 0.0025284123 0.32870206 0.04245493 -0.106151626 0.29812682 0.09694721 0.19060329 -0.07883382 -0.2884734 -0.2207038 0.65214366 -0.22262105 -0.05398872 -0.004945313 0.1469276 0.06658384 0.1426918 0.36398166 0.5119327 0.04510469 0.22250825 0.50292605 -0.3008373 -0.1997201 0.28149697 -0.090886354 0.068080656 0.21700963 0.28325716 0.22397657 0.24727389 -0.21653542 -0.65744764 -0.17964044 -0.010726122 0.11994629 0.44483137 -0.35621968 0.19886781 -0.50069475 -0.23424754 -0.13477005 0.3480109 0.1494498 0.050717477 0.10231765 -0.17900808 0.28943723 0.3710151 0.0145197585 -0.01626179 -0.14582644 -0.15650035 0.16738829 -0.19592287 -0.2553822 -0.71421343 -0.36933368 0.0853061 -0.15241842 -0.36936203 -0.08248911 0.105790235 -0.37988767 -0.0481589 0.14602551 0.28227386 0.0058434675 0.29154113 0.41045266 -0.023333713 0.49988258 -0.21102628 0.07939144 0.5801141 0.10965048 -0.12056366 0.087070316 -0.3453022 0.22317603 0.043994687 -0.11187491 -0.41865566 0.0012801352 -0.23460723 -0.23747715 -0.0430273 0.06066865 0.18946542 0.04084745 0.11404722 -0.1867339 -0.13496673 0.108888336 -0.14212003 0.1661884 -0.027275344 0.20292251 0.3863199 -0.6663108 -0.0649892 0.12262402 -0.07113434 0.39295954 -0.009934604 -0.28740025 -0.07677412 -0.22543523 0.004164304 -0.3430129 -0.20990327 -0.19742501 0.08426877
10601 0.17191412 -0.27726424 0.17045625 -0.20397232 0.4683428 -0.37929258 0.046848383 -0.33095148 -0.082236424 0.20069762 0.4894361 0.26009235 -0.09084533 0.080295675 0.4013261 0.35361776 0.1657945 -0.18710381 -0.110074274 0.10860943 0.30421865 0.056499716 -0.20692919 -0.2769833 -0.27112338 -0.017834257 0.11444223 -0.18081234 -0.084831655 -0.35992175 0.486197 -0.20843007 0.11904734 -0.021426424 -0.20786172 0.14036594 -0.01639863 -0.12725933 -0.053253673 -0.14090745 0.31587765 0.09967276 0.14575033 -0.28169602 0.24153711 0.026802573 0.011354228 -0.4465387 -0.036808968 0.14412856 0.3898509 -0.14932618 -0.24464017 0.24825446 -0.07440471 0.36800113 -0.015725207 0.1318251 -0.35933152 0.39441434 0.0006949466 0.31036803 0.16214523 0.15306228 0.054897044 -0.06346225 0.20775503 0.12441948 0.09998195 -0.39364505 -0.1545952 -0.21907637 -0.18493386 -0.04663826 -0.04806717 -0.009447695 -0.3060609 -0.11788691 -0.1545817 -0.15119085 -0.12911384 0.25141922 -0.08467693 -0.054005068 0.17395951 0.08254025 0.30091217 -0.17408302 -0.17522313 0.15577514 -0.33043316 0.18851149 0.17708966 -0.2855226 -0.17144433 -0.32855907 0.2098092 -0.3414808 -0.23154642 -0.07215097 0.04702981 0.039366968 -0.20673594 -0.06864861 0.056904156 0.19207294 0.1359248 0.18712391 0.53162074 -0.1681369 -0.10496867 0.06445959 0.2995909 0.47192305 -0.75839126 -0.31969884 -0.009488641 -0.09421998 0.15714303 0.2993578 0.13696465 -0.16474636 -0.15585594 -0.21871157 -0.17386487 -0.11304856 0.21624276 0.054540507
10895 -0.07992296 -0.09563782 0.4514093 -0.11462464 0.11301251 -0.09638123 0.15842618 -0.1858175 -0.31747955 0.08895555 0.3113351 -0.042552713 -0.055725902 0.16417551 -0.025855506 0.059990518 0.28726485 -0.3297429 0.08451223 0.1249915 -0.056813225 0.031344984 -0.12019667 -0.6227559 -0.37556288 0.011797167 -0.3580438 0.19104338 -0.12463379 0.08783768 -0.15440638 -0.21532951 -0.08127305 0.25757563 0.0041765785 0.20428754 0.27720323 -0.13505787 -0.07097753 0.37534657 0.10842218 0.13967967 0.2584741 0.19593708 0.3034766 0.3021511 -0.26463822 -0.41061726 0.06053223 0.27816856 0.15666626 0.035781823 -0.26515162 0.13615805 -0.2410596 -0.21924685 0.24307582 0.0036153786 -0.06401303 0.109871335 -0.33403957 -0.020075195 -0.12190299 0.00020657538 -0.014207242 0.11755971 0.010603226 0.14291586 -0.21187866 -0.34892714 -0.009167252 -0.49280503 -0.22732458 0.16300102 0.17698815 -0.27942187 -0.02060113 -0.05034091 -0.22062603 -0.11149352 -0.6352711 -0.013732593 0.24774005 0.13011324 0.42193854 -0.04695425 0.080508105 -0.17993803 0.083251655 -0.115809016 -0.33437237 -0.5104166 0.2824042 0.040442392 0.03378927 0.0748352 -0.081122376 -0.21473335 -0.24315888 -0.15482245 -0.37269452 0.051780604 -0.27656728 -0.120014824 -0.1647968 -0.04925019 -0.3445869 -0.16408576 0.042170085 -0.009012407 -0.08984361 -0.06570509 -0.026718684 0.38015106 -0.25162244 -0.10374939 0.28015405 -0.11824742 0.11085143 0.0013030451 0.026979238 -0.20087706 -0.36106917 0.029749794 -0.21780908 -0.111540675 -0.04593007 0.07306424
1384 0.09012546 -0.11530893 0.6630494 -0.05289491 0.09204939 -0.13138743 0.033909563 -0.18281268 -0.16502205 0.044415396 0.33539733 -0.09739869 -0.30195013 -0.0400758 0.23254713 0.17249534 0.35698485 -0.35168564 0.30657178 0.2122526 0.13898927 -0.09798816 -0.2476773 -0.44670016 -0.21797277 -0.064069964 -0.23362724 0.22861643 -0.09130349 0.30451846 -0.18634416 -0.026686098 -0.20416926 0.118982896 -0.05834585 0.043615736 0.12692006 -0.30954748 0.00086990313 0.3181598 -0.019328924 -0.06665189 -0.05586404 0.2676718 0.18195952 -0.06917247 0.049056012 -0.39093766 -0.34542826 -0.08780325 0.39802817 0.30992612 -0.22873493 -0.06582306 0.085081406 -0.21868695 0.487755 -0.10106641 -0.23212904 0.21479337 -0.17732897 -0.15851538 -0.049522534 -0.09159034 -0.13920224 -0.10299421 0.033813104 0.05219639 -0.15797527 0.09694133 -0.20303226 -0.25270206 -0.28652266 0.2472627 -0.20342018 -0.5902336 -0.054284323 0.023604536 -0.2574464 -0.00090950815 -0.36123982 0.10226684 0.25811943 0.3297061 0.27524036 -0.35123712 0.5551338 -0.14237961 0.05373653 0.29733032 -0.11271257 -0.50948775 0.061575823 -0.27144068 0.15404662 -0.019322144 -0.13668278 -0.11519706 -0.36195493 -0.087638676 0.016983487 -0.008688106 -0.4758861 0.21299033 0.063676864 0.02124465 -0.31417447 -0.2569076 0.13732886 -0.062441945 -0.06631017 -0.09037319 -0.09112338 0.12386368 -0.4879822 0.399732 0.39880598 -0.016359854 0.05045892 0.089224964 -0.09974158 0.041736446 -0.13433394 0.28145185 0.033405293 -0.24828975 -0.21825248 0.39116853
11541 0.1573625 -0.29004064 0.42429247 -0.2867857 0.039928917 -0.04790271 0.15093674 -0.1448904 -0.10005416 -0.02626776 0.18735217 0.32916552 0.047819156 -0.17173378 0.10051649 -0.01613905 0.13108009 -0.054976497 0.35381582 -0.006341289 0.1881783 0.20035654 -0.3730923 -0.48393652 -0.2293439 0.36120686 -0.19438389 -0.094384864 0.04510779 -0.011998037 0.07567892 0.020872314 0.16130088 0.036629517 -0.2152816 0.27581447 -0.19542706 -0.45611826 -0.29186437 0.09416244 -0.1392247 0.16501318 0.22981222 0.040006116 0.17974845 0.10757199 -0.18747401 -0.60064 -0.07751904 0.082174286 0.32120126 0.17517945 -0.43866435 0.043662205 -0.101647615 -0.104943 0.21926384 0.3074933 -0.051608715 -0.04385494 0.005907969 -0.2129738 -0.09746948 0.20972022 0.0853025 0.28393826 -0.04234791 0.062853195 -0.09239905 -0.27935758 -0.20283203 -0.59378743 -0.52973765 0.048379473 -0.13813518 -0.5623822 -0.31335813 0.33052757 -0.38935116 -0.21902582 0.1766075 0.16000383 0.009909124 0.27590057 0.46741033 0.078643896 0.31215817 -0.35219207 0.15042953 0.42394778 -0.221976 -0.08385588 0.06836709 -0.040787116 0.2112715 0.035748553 -0.15243398 -0.09682467 -0.25000232 -0.16760613 -0.04848565 0.017265676 -0.12353068 0.07458154 0.24594356 0.18151806 -0.2813822 -0.062478937 0.095680125 -0.25397903 0.23959447 -0.039345983 0.28342608 0.15872543 -0.26571223 -0.16328883 -0.062250335 -0.2983676 -0.20217998 -0.0901835 -0.1699551 0.06031091 -0.6015878 -0.03148587 -0.298744 -0.26115528 -0.1592976 0.18021615
11284 -0.04096031 -0.07898596 0.3775158 -0.10803793 0.31651074 -0.1964335 0.48752886 -0.32292858 -0.3054033 0.27830622 0.47065762 0.2257556 -0.032578677 -0.22940722 0.20996845 0.12026329 0.43107176 -0.042290084 0.23501393 0.13200168 0.062022153 0.16625185 -0.36870596 -0.2786752 -0.06744395 0.28682792 -0.004088711 0.17434354 -0.11743049 0.15746601 -0.050238736 0.0624708 0.4203263 0.14778434 -0.12065764 0.23462206 -0.07275015 -0.16120636 -0.18117185 0.41257522 -0.06943206 0.1729417 -0.1695074 0.29053417 0.2816363 0.22634564 -0.16993533 -0.23031573 -0.14237572 -0.09585624 0.38782975 0.21770813 -0.5338104 -0.13805552 -0.20906037 -0.36122835 0.11091722 -0.09025271 -0.122809194 0.12259778 -0.08646645 -0.26650295 0.24627139 0.18117346 -0.11679556 -0.14767559 -0.13934305 -0.14351985 -0.071220525 0.02530305 -0.11152315 -0.79998773 -0.30999732 0.07038481 -0.258352 -0.7879567 -0.393189 0.29820544 -0.34705502 -0.24416834 0.08434111 0.06952638 -0.08434958 0.32715732 0.63396674 -0.060799845 0.5446245 -0.24598634 0.22537594 0.5462766 -0.10616738 0.06330033 0.085535325 0.094639674 0.39961606 0.07895171 -0.3517774 -0.307263 -0.030313985 -0.33705527 -0.0935283 -0.2486618 -0.28959078 0.16783252 -0.1924689 -0.25334454 -0.34891874 -0.10340373 0.020382645 -0.051043063 -0.0767422 -0.03137836 0.07766917 0.017773293 -0.51104826 -0.030536652 0.055486005 -0.057855073 -0.21318895 0.18945567 -0.07142075 0.11700404 -0.3019193 0.22352774 0.19431688 -0.12251574 -0.09914153 0.2406282
13666 0.1482984 -0.13685873 0.4976957 0.23339923 0.27803963 -0.15228297 0.21513215 -0.13491048 -0.46704555 -0.16620165 0.46570256 0.06337852 -0.25585127 -0.03665988 0.23098384 -0.0233168 0.3243581 -0.30277616 0.032627705 0.15836546 0.16257608 0.18335365 -0.28447536 -0.47444412 -0.16454977 0.099985376 -0.19047399 0.15518968 -0.16449486 0.07425588 -0.14165129 0.027700245 -0.106602825 0.3459564 0.13815121 0.2083076 0.24011816 -0.09879887 -0.00547481 0.3764415 -0.12699929 -0.11641714 0.110524155 0.35392475 0.3664835 0.13980815 -0.037653197 -0.473937 -0.33788577 -0.00848504 0.34458727 0.21919507 -0.23401749 -0.13001676 -0.19232622 -0.04098875 0.45966274 -0.19305487 -0.06338782 0.115931645 -0.31638557 -0.11322213 -0.14033777 0.036182344 0.07054062 -0.003739867 -0.02734327 0.19047756 -0.2731207 0.0015755951 -0.13579048 -0.26561874 -0.18441968 0.041105308 0.05370433 -0.18307133 0.04105542 0.04304666 -0.39533907 0.08798273 -0.6170629 0.21112767 0.16781528 -0.007281719 0.26419136 -0.24651363 0.1351787 -0.11978464 0.17560999 0.005387106 -0.23368439 -0.5620319 0.24833426 -0.11043452 0.07152536 -0.0959921 -0.12721197 -0.18796179 -0.12221185 0.0257702 -0.34633622 -0.13057418 -0.3602096 -0.034726012 -0.14876719 -0.15067393 -0.18161322 -0.12765838 -0.040662155 0.023878666 -0.048184413 -0.19086075 0.039443724 0.31523496 -0.25006866 0.111647524 0.40168905 0.09405177 0.20001052 -0.12190482 0.044076696 -0.08126031 -0.2708552 -0.0029063632 0.030785022 -0.34312996 0.01859844 0.2738195
13294 0.12683092 0.2697625 0.12634455 0.37051797 0.2981469 -0.19703867 -0.04283942 -0.24683416 -0.113238014 -0.014835208 0.14889003 -0.20812832 0.07156437 0.10499209 0.7788053 0.23548464 -0.29143623 -0.04602957 -0.41394117 0.056807186 0.04687514 0.04190421 0.31889245 -0.111272395 0.14089124 0.48063782 0.34509903 0.19079047 0.24352564 0.027074661 0.19018161 -0.2358378 0.1262295 0.062286716 0.10441404 -0.18143357 0.25774878 0.00048020112 0.20701876 0.29752067 -0.058868818 0.43963677 -0.056731388 0.41104716 0.32149082 -0.2258176 -0.16967387 0.03083896 0.0048565925 0.09165012 0.13366853 -0.07218591 0.20068127 0.33799303 0.39486533 0.2229899 0.14080258 -0.2706787 -0.41237974 0.3715966 -0.09679448 0.16659665 0.174801 -0.43954137 -0.08268425 -0.21710323 -0.016917747 0.42764196 0.19160329 -0.036989067 0.28403166 -0.21322156 -0.3579948 -0.06491129 -0.11795624 -0.21559729 0.092786565 0.2790143 -0.04413416 0.06755177 0.025028294 -0.09620795 -0.04738251 0.37487102 -0.25316256 0.15059717 -0.108212955 -0.21253923 0.089753315 -0.05054658 -0.04918548 -0.49240926 0.20996961 -0.16436327 0.029241273 -0.30983353 -0.19569606 -0.042173807 -0.28733438 0.13256855 -0.016804181 -0.3399073 -0.15669316 0.015772162 0.14730282 0.28404096 0.08671941 0.030803287 0.3400575 -0.38692594 0.7256245 -0.2449339 -0.29174873 0.02372705 0.028874274 -0.07533063 -0.043493 0.2555875 0.058720782 -0.17419083 -0.36592978 -0.1675823 -0.40886512 0.3456511 -0.2335734 -0.37863812 -0.47522432 -0.26430282
11224 0.011390952 -0.036385622 -0.038957387 0.1837109 0.45049873 -0.004544359 0.28100273 -0.19671613 -0.023655543 -0.09308273 0.12699492 -0.34631813 -0.114014454 -0.09206956 0.051347062 0.1584407 -0.264649 -0.3937588 -0.42315906 0.027580371 0.020106813 -0.35808754 0.18516147 -0.3833981 -0.17940356 -0.009265039 0.3510187 0.18747191 0.009429545 -0.22472629 0.28926444 -0.44434425 -0.20519893 0.21350077 -0.08828805 0.02779201 0.40521935 -0.03694579 0.28410912 0.11978725 0.021352973 0.1827612 0.12252956 -0.11651154 0.48223674 0.31423202 -0.1280731 0.056272417 0.10175148 0.42409968 -0.2169452 -0.13428557 0.08282096 0.5500768 0.022064777 -0.46849653 0.40919626 -0.43433756 -0.43871924 -0.019414961 -0.009748367 0.18677276 0.34412903 -0.074575834 0.0413475 -0.30157304 -0.05600872 0.2636823 -0.059054688 -0.16441937 -0.07722979 -0.09053426 -0.16880597 0.13679606 -0.109778546 -0.57978934 -0.25517887 0.22344561 -0.11346165 0.3433339 -0.1376772 0.0029831287 0.26872423 0.46466702 -0.22996375 0.49796805 0.03783813 0.4370713 -0.035429828 0.299456 0.25014198 -0.37504706 0.31986213 0.12619968 0.26388466 -0.15220876 0.03078766 -0.6097709 -0.27771345 0.13867094 -0.06713849 0.08237419 -0.22975388 -0.4925758 0.0658108 -0.37255278 -0.36322 0.17222446 0.10411622 -0.26967633 0.5298703 -0.48810515 0.06206854 -0.1839995 0.16616848 -0.19164738 0.33608094 0.17409985 0.017450359 -0.34539035 -0.39364597 -0.6504103 -0.1514508 0.5045088 -0.1717692 -0.38939464 -0.592608 0.24109241
11583 0.031425264 -0.18500651 0.2279688 -0.2588472 0.72488487 -0.10059872 -0.020312792 0.033250507 0.11311286 0.07379746 0.15793352 0.13456158 -0.34102684 -0.2907596 0.24513511 0.15486243 0.19162124 -0.14882621 0.09601361 -0.21811198 0.420201 0.31044856 -0.1422854 -0.24980104 -0.0040516797 0.14189067 -0.18511975 -0.16772185 -0.089451596 -0.021254096 0.20908949 -0.24756071 0.40970823 0.020829497 -0.34209475 0.46816823 -0.22231457 -0.41581893 0.054886237 -0.18982527 0.06743456 -0.038329445 -0.14135174 -0.0912769 0.015173186 -0.19817404 0.1748496 -0.4248175 -0.03940306 -0.00752416 0.41629475 0.13380475 -0.3497364 -0.23727332 -0.2431738 0.26392856 -0.26004204 -0.16528991 -0.2961961 0.49089018 -0.09621363 0.10977882 0.13078807 0.23511556 0.011453115 0.06621781 0.50269294 0.34733918 0.18061538 -0.4348975 -0.22152175 -0.4841658 -0.2474728 -0.13298932 -0.20294215 -0.33884597 -0.20852257 0.2919021 -0.084335536 0.06518784 -0.07508778 0.14641534 -0.20666583 0.344486 0.32714355 -0.06281944 0.22597812 0.0066686594 -0.052355867 0.4458609 -0.19446324 0.2846758 0.04085429 -0.38252273 0.35261482 -0.19414614 0.07529355 -0.2627548 -0.10640038 -0.029377094 -0.18283522 0.29818353 -0.41870716 0.068159446 -0.19539857 0.11297329 -0.16398259 0.1418548 0.11687013 -0.20150058 0.2580207 0.010288798 -0.026411124 0.29249215 -0.54294634 -0.30821994 -0.1860191 -0.15738562 0.23515896 0.17783102 -0.23439088 0.13521025 -0.21359693 -0.46170527 -0.3617115 -0.093149856 -0.0628771 0.39684734
13699 0.061114162 -0.24139062 0.13665053 -0.13119599 0.25514087 -0.082134135 -0.20899792 -0.5329743 -0.23165512 0.03726392 0.28441614 0.5148251 0.04313266 -0.36670446 0.012067273 0.46378106 -0.082122706 -0.31935483 -0.31516105 0.2833598 0.3974515 0.4243521 -0.17266706 -0.4914086 -0.0037703887 0.026523344 0.09566554 -0.08852742 -0.25392318 -0.34252426 0.027867027 -0.1276635 0.27421004 -0.115418576 -0.03284443 0.4316341 -0.51508445 -0.34536138 -0.04381738 -0.022875844 -0.0028783833 0.19300853 -0.1793126 -0.2562666 0.2884372 -0.1424105 0.012993678 -0.10632585 -0.18967073 0.11654101 0.43728027 -0.03851604 -0.6578616 -0.14123696 -0.36475813 0.3921062 -0.124390796 0.080308504 -0.17491312 0.34631866 -0.10301747 0.013365065 0.10525916 0.24406232 -0.00034131968 -0.019501528 0.2057471 0.22283946 0.15881583 -0.5054243 -0.007016825 -0.43398198 -0.075350046 -0.16817515 -0.2520454 -0.25706652 -0.2330496 0.17646271 0.16996756 -0.16685736 0.13215162 0.20235433 -0.28682745 0.26504767 -0.05751593 0.25599873 0.2417613 0.30562627 0.007952101 0.15712538 -0.25886032 -0.04441971 0.24747893 -0.398671 0.3037556 0.029826257 0.2419246 -0.28874633 -0.18668789 -0.25463176 -0.024987543 -0.15230647 -0.38599765 0.5180313 -0.029733354 0.016467536 0.27684847 -0.053580504 0.03257778 -0.076786205 0.010449893 0.029654121 0.14654645 0.27947322 -0.5324573 -0.44160366 0.058343492 -0.09373631 -0.0036522322 0.06522117 0.056744345 -0.07889006 -0.1490914 0.010925576 -0.051977556 0.080804534 0.124592245 -0.22502063
2346 -0.22095798 -0.16177937 0.057557475 -0.16173233 0.026846444 -0.15772294 -0.10836982 -0.2464358 -0.13153914 -0.13684209 -0.10402124 0.12222407 -0.25423482 -0.4502834 0.1282887 0.47985196 -0.11438822 -0.029250337 -0.14982355 0.134638 0.19623594 0.4330529 -0.28299516 -0.36013815 0.17461513 -0.20385252 -0.26600382 -0.0011969362 0.23273286 -0.45622104 0.1792801 -0.14739646 0.043749444 -0.2535059 -0.1310176 0.19109493 -0.2324533 -0.12000884 0.10240627 0.08453661 -0.054583497 0.014072296 0.16431746 -0.34709114 0.09614744 0.25728762 0.23662238 -0.50730586 0.04219351 0.19417873 0.26081136 0.13991685 -0.40217835 -0.12880413 -0.038564455 0.4128991 0.18985698 0.1224126 -0.24445422 0.1906345 -0.023085712 0.009202785 0.38700575 0.12603556 -0.3011501 0.20320165 0.6378321 0.3097152 0.11731568 -0.41083512 0.06902826 -0.38235357 -0.1351725 -0.107419506 -0.16969329 -0.22381353 -0.4323647 0.42397022 -0.152652 -0.080627546 -0.12172165 -0.0024681063 -0.14120375 0.30184823 0.08464273 0.17755853 0.036338385 0.24010654 0.059616927 0.24575274 -0.17644523 -0.15027614 0.35180706 -0.0367759 0.46611357 -0.117426455 0.09062517 0.05796015 -0.42302576 0.017986316 -0.17299333 -0.12009715 -0.37532315 0.28448117 0.005980163 0.052570283 0.18526067 0.027919205 0.12919536 -0.0170259 0.05144417 0.07207464 0.13739374 0.42567652 -0.6926198 -0.44621548 -0.0637064 -0.19636916 0.15839016 0.26522556 -0.1926675 0.03640976 -0.21392982 0.0404929 -0.22817084 -0.17578371 0.0021861168 -0.10301987
11270 0.06235188 -0.4149375 0.48395923 -0.020248543 0.07363667 -0.39634994 0.12471175 -0.24075468 -0.008137118 0.13256781 0.43765685 0.2996891 0.0048222477 -0.17030011 0.14939725 0.39209554 0.23056366 -0.07432145 0.3064836 0.12282567 0.12616658 0.20798767 -0.22738883 -0.49977905 -0.38656014 0.23709986 -0.10098899 0.059266537 -0.1454535 0.19011344 0.11465728 -0.04570904 0.26288724 0.50980425 -0.022516204 0.5114296 0.57707745 -0.06384627 -0.13649486 0.2144333 -0.08453126 0.13131456 0.028670216 0.33807278 0.14881945 0.26670584 -0.17604677 -0.321238 0.0797554 0.22530316 0.30370915 0.295068 -0.27801225 -0.05476561 -0.19887142 -0.17323726 0.07474111 0.5542139 -0.25372377 0.045821458 -0.25909522 0.0012568978 -0.03584194 0.12479282 0.1587439 0.16210085 -0.1163656 -0.06722369 -0.14887483 0.017909976 -0.04746279 -0.5707637 -0.47001517 -0.022188237 -0.07276548 -0.39792192 0.11807938 0.26525295 -0.4678969 0.0980542 -0.23538731 0.17859055 -0.05352532 0.40958843 0.26234144 -0.01215983 0.6132526 -0.13937427 -0.106137335 0.79328114 -0.12024062 -0.2041411 0.19144388 -0.31421623 0.28283122 0.14703207 -0.28983933 -0.1555037 -0.4138664 -0.06754131 0.3944954 0.06511859 0.069905974 0.3495577 0.08240141 0.16491053 -0.032031775 -0.08995554 -0.025880992 -0.10035716 -0.0125050945 -0.09737484 0.30699417 0.035919894 -0.39246115 -0.1167477 -0.032682523 -0.2193912 0.023436563 -0.11023358 -0.20444311 -0.12631881 -0.15026294 -0.039421227 -0.18629608 0.069566034 -0.15450716 0.089148775
13354 -0.42032552 -0.37350658 0.2293477 -0.025800942 0.06720529 -0.45400935 0.137952 -0.39043957 -0.17802602 -0.012200209 0.25944513 0.09330725 -0.0215476 -0.36335486 0.089335635 0.3943238 -0.097803876 -0.2936791 -0.16579667 0.37403995 0.15873788 0.5385068 -0.41515815 -0.23695894 -0.14456642 -0.04982242 -0.25892264 -0.14572147 0.040822063 -0.29465 0.17282799 -0.32828006 0.050716747 -0.053552747 -0.005782375 0.06319324 -0.22579439 -0.38797495 -0.12232249 -0.21207874 0.101305135 0.120291434 -0.08554833 -0.097453706 0.65067583 0.18685752 0.26451808 -0.43476826 0.008030497 0.3480455 0.112998344 -0.12065529 -0.43173632 -0.22465058 0.14295565 0.4016476 0.062808365 -0.11097126 -0.11485194 0.30978543 0.12784214 0.07366623 0.331596 -0.08659333 -0.102267325 0.07625301 0.4558941 0.28835386 0.073313616 -0.41221476 -0.08904554 -0.04428459 -0.4444888 0.18815112 -0.19916703 -0.36416456 -0.18790166 0.19051626 -0.11029439 -0.07061353 -0.33277884 -0.01800456 -0.060886595 0.571702 0.026223 0.09643684 -0.11435293 0.198839 0.10823149 0.1471687 0.037217986 0.02600459 0.13116887 -0.3619729 0.4218097 -0.12814996 0.18288234 -0.0561513 -0.40750602 0.39675352 0.23084304 -0.15463682 -0.32847515 0.20407467 0.042150594 0.1019738 0.3532635 0.06384134 0.14983287 -0.12419728 0.19220738 0.09252627 0.0069194413 0.5257431 -0.5683875 -0.70617163 -0.12326106 -0.38955402 -0.024905898 0.15479393 0.061537288 -0.07872448 0.03798936 0.070327275 -0.15184437 -0.19352318 0.13426055 0.1053637
12507 0.11485721 -0.35086134 0.32726502 0.013842431 0.3749342 0.0976376 0.05037063 0.107007585 -0.29045364 0.06307549 0.30377728 0.124605894 -0.15081474 -0.36310387 -0.16012801 0.26775026 0.28596577 0.1215563 0.08292643 0.26109985 0.09893593 0.11455719 -0.32136434 -0.35091272 -0.33776504 0.20478296 -0.033469953 0.1819964 -0.09367163 0.0015626202 -0.0839327 0.13244319 0.22024165 0.122177616 0.033897158 0.68661404 0.2325641 -0.12849712 -0.09753848 0.18548869 -0.020687066 0.0035526543 0.26414606 0.20051986 0.4490254 0.30943716 -0.03797333 -0.52352124 -0.36296487 -0.080205895 0.29466182 0.19634393 -0.17920816 -0.013163084 -0.29296914 0.027010575 0.23716147 0.22497943 0.12496323 -0.12874469 -0.16726407 -0.11940468 0.19892137 0.50054914 0.27561134 0.44477692 0.03190834 0.075413875 0.15936087 0.14934458 0.18069576 -0.21640998 -0.28798285 0.014990212 -0.024256948 -0.507455 -0.13280685 0.45384583 -0.24946268 -0.12928523 -0.3147567 0.25395638 -0.08685706 0.1576833 0.39612207 0.09513297 0.077703685 -0.07887063 0.32267335 0.34555513 0.22556062 -0.111540474 0.012315231 -0.42851338 0.20001413 0.23981017 -0.10100581 -0.42891195 -0.09823005 -0.23959811 0.11009226 0.0109945135 -0.19819145 0.29593167 -0.06461557 0.22330092 0.03555906 -0.1708097 -0.06883362 -0.26511326 -0.1490605 -0.42202842 0.37211087 0.23801573 -0.3363327 -0.1372952 0.062264413 -0.09305316 0.23057227 -0.040457737 -0.07369079 0.0130272955 -0.43278286 0.3285131 -0.24103236 0.16399753 -0.4452569 0.14160648
10717 -0.14257061 -0.47965747 0.37360558 0.063047044 0.013865476 -0.10455549 0.08943564 -0.0025478618 -0.24077098 -0.02389261 0.34061933 0.042216007 0.06348972 0.114847966 0.33049968 0.27566794 0.10153078 -0.41084164 0.13046789 0.2209459 0.019261176 0.16231558 0.0023633963 -0.40634158 -0.24761306 0.22498198 -0.068094455 0.14031652 -0.047056347 0.08622895 -0.19820817 -0.07080164 -0.25321087 0.3094152 -0.064670004 0.19927476 0.25133434 -0.062138747 0.035985235 0.5552228 -0.10205754 -0.17226468 0.115508415 0.2085949 0.42414168 0.13601005 -0.027814869 -0.35178813 -0.24244899 0.06456533 0.33795074 0.16485319 -0.2153487 0.255153 -0.2386219 0.070600316 0.38400978 0.056085218 0.04991795 0.24729052 -0.28578135 0.06998994 0.17491253 0.2044821 0.100946955 -0.08265205 -0.04460269 0.1612857 -0.14936179 -0.11020442 -0.10353995 -0.37391144 -0.32184333 0.042829886 0.012637119 -0.5692398 0.074744806 -0.060029805 -0.36180946 -0.049911406 -0.5245831 0.18205148 0.15306523 0.091033824 0.25597653 -0.24801433 0.23350987 -0.1464493 0.023174867 -0.051215675 -0.03696631 -0.6598778 0.31406134 -0.042528328 0.00449526 -0.036164667 -0.10549693 -0.06959614 -0.025160572 -0.07392238 -0.3915044 -0.23351945 -0.30727 0.11453703 0.024530176 -0.15282965 -0.18878455 -0.046747122 0.033673022 -0.013092922 -0.08342429 -0.098728575 0.041277297 0.10492871 -0.4130706 0.45822966 0.1265582 -0.049789228 0.1455207 0.082917914 -0.032372676 -0.0131142745 -0.38597977 0.17890741 -0.105389535 -0.09583475 0.045541767 0.2657038
11029 -0.0020176575 0.34021902 0.29672498 0.25588772 0.27736387 0.011423165 -0.1037956 -0.27317652 -0.27904296 -0.17408736 0.06323385 -0.363013 0.19475976 0.12243821 0.4575165 0.33173382 -0.3257778 -0.1528084 -0.32781494 0.12967342 -0.1443098 -0.3061089 0.17561333 -0.09355426 0.31487626 0.23513335 0.2842541 0.37366545 0.018954853 -0.09249873 0.014578542 -0.1495392 0.020524995 -0.16628703 0.020956114 -0.22759573 0.014111189 -0.18338186 0.08826234 0.19693023 -0.4262168 0.07654508 -0.012065165 -0.0046061776 0.41041136 0.12392251 -0.11555386 0.10039573 -0.2055171 0.2806511 0.5906217 -0.10049805 -0.2980554 0.19243771 0.1291947 -0.0047799074 0.18993068 -0.33613208 -0.11981676 0.30620003 -0.25386587 -0.14081752 0.335152 -0.017130423 -0.18391487 0.08816152 -0.020154057 0.549252 -0.4261445 -0.20725243 0.39151198 -0.22826047 -0.33754322 -0.33494484 0.039352003 -0.46696195 0.25531572 0.25133517 0.06459067 0.10150204 -0.34976318 0.029776158 0.036694467 0.27421302 -0.55610293 0.37721282 0.051807072 0.044333436 -0.24061912 -0.34603685 -0.079952054 -0.19914779 0.2620265 -0.1534643 0.13600491 -0.007212016 -0.04302542 -0.13262706 -0.5500465 0.017641935 -0.034183282 0.1918774 -0.009051957 0.03842059 0.087209135 -0.000593906 0.031177772 -0.009080714 0.42001408 -0.072714105 0.4656411 -0.32799706 -0.28049728 0.004285954 -0.14401194 0.11931663 -0.022608478 0.35634118 0.119920254 0.039314747 0.082183465 -0.41655278 -0.13081524 0.39861453 -0.19574012 -0.3027689 -0.18766822 -0.3562152
13405 -0.07439522 0.04921459 0.5213122 -0.10770137 0.12994051 -0.024077417 0.03225962 -0.18342848 -0.20227388 -0.10813846 0.13349627 0.059018835 0.06629951 0.14109395 0.44560453 0.076353185 0.013283189 -0.40741956 -0.03627207 0.05844976 -0.09612696 0.15255259 -0.22351521 -0.25728098 -0.089180864 0.24987482 -0.1505278 0.24373572 0.008739596 0.1809105 -0.122160524 -0.20922966 -0.24816772 0.3125593 -0.014031809 -0.022463659 0.20919672 -0.21846496 0.12298153 0.48976833 -0.16201125 -0.13201699 0.19778968 0.36520296 0.4259894 0.16480537 0.012947084 -0.3133954 -0.4506659 -0.10349675 0.2832913 -0.022628678 -0.35407144 0.02656635 -0.2527803 -0.27390814 0.28210285 -0.014013203 -0.24469742 0.15967584 -0.3822465 -0.17469168 -0.26282382 -0.010981237 -0.14380954 -0.08129458 0.09864177 0.12762047 -0.10674325 -0.2917522 0.0030906626 -0.4716698 -0.34545544 -0.17027482 -0.02815379 -0.15067919 -0.014918375 -0.121120624 -0.22819984 0.03490284 -0.4014839 0.20962286 0.23151214 0.03609553 0.29016513 -0.21324883 0.11640407 -0.2827492 0.064884014 0.042892557 -0.21834937 -0.3643146 0.2558739 0.12200207 0.008938162 -0.006342746 -0.14696987 -0.06935755 -0.13979149 -0.05827494 -0.27849662 -0.14102143 -0.292541 0.0749686 -0.085535765 -0.13756537 -0.19422188 -0.15312764 0.085466444 0.0034005188 -0.07758196 -0.2645982 0.023894286 0.5286533 -0.4328099 0.32012752 0.028910171 0.1220971 0.12402174 -0.012200103 0.00030057982 -0.09125115 -0.44428414 -0.015516399 -0.09630376 -0.11669268 -0.14847869 0.15943135
10646 0.21356991 -0.0022232633 0.46725014 0.09627022 0.5063875 0.1261493 0.049702235 0.0031013158 -0.015803192 0.052821107 0.39268345 0.2625711 0.046140596 -0.33359176 0.2170922 0.09420082 0.26600605 -0.088151775 0.4057404 -0.06655211 -0.095116496 -0.00026712727 -0.22335394 -0.6480832 -0.24311505 0.35068488 0.06487348 -0.07853699 -0.11572911 0.0014416769 -0.02646633 -0.05541832 0.10240014 0.20340937 0.08485548 0.32725346 0.114480376 -0.3291192 -0.2139876 0.25326827 -0.18317439 0.03263837 -0.018917277 -0.05558981 0.33483142 -0.24786721 0.0050203535 -0.52860373 -0.09833026 0.017036224 0.38319725 0.2773131 0.026158798 -0.18031806 0.06927672 -0.13840131 -0.15687494 0.102276824 -0.10668746 -0.20871702 -0.23105764 -0.0682729 -0.21957785 0.1802547 0.12824756 0.06274159 0.12722713 -0.0052848854 -0.19237413 0.001920102 -0.24442396 -0.7544322 -0.5389094 0.12194867 -0.15442924 -0.61667204 -0.24159174 0.19425873 -0.22072189 -0.100723095 -0.12736718 0.28583154 0.11786512 0.2546622 0.5897893 -0.042035997 0.6154744 -0.30919346 0.13774136 0.49020016 -0.18373922 -0.026291333 0.18710433 -0.3269443 0.22014135 0.14698449 -0.115834236 -0.21726261 -0.016489418 -0.12024024 -0.095901005 0.045791987 -0.1391822 0.060088996 -0.002205315 0.17343754 -0.3142957 0.05695454 -0.016559556 -0.5457451 0.01886166 -0.10475219 0.48925877 0.121085234 -0.41164845 0.082616545 -0.17994931 -0.031831414 -0.21782357 -0.10967322 -0.17084752 -0.01660065 -0.3234366 0.030534053 -0.24138698 0.17842624 0.05910832 0.20004354
12415 -0.19002175 -0.060172882 0.51751477 -0.23084384 0.15348591 0.08940266 0.12436578 -0.02414461 -0.21395238 0.06281724 0.4960402 0.1543604 -0.030593283 0.19005792 0.017032448 -0.16772974 0.22602808 -0.38502687 0.046918627 0.23337322 0.1585679 0.18850286 0.027603619 -0.68208104 -0.4073062 0.16336189 -0.21204698 0.2049771 0.0062514297 0.13646641 -0.12997565 0.0044354363 -0.09737194 0.29379582 0.18396172 0.14506142 0.19571409 -0.12307227 -0.05654607 0.49460262 0.053503722 0.1006285 0.00399173 0.10650264 0.4125003 0.15800647 -0.20006943 -0.45009983 -0.0072453753 0.2626806 0.14137587 0.15742865 -0.39223024 -0.0030329998 -0.14984868 -0.3759084 0.31098393 -0.059653383 -0.06859449 -0.024261178 -0.2718927 0.12676266 0.047569122 -0.09153012 0.0574761 -0.045204137 -0.09089883 0.13557695 -0.09873533 -0.25877902 -0.13460803 -0.2739535 -0.30556053 -0.008666665 0.13455677 -0.144755 -0.047423366 0.21360572 -0.40632835 0.053361878 -0.47312102 0.14804368 0.14065298 0.22986557 0.41736063 0.023350267 0.12113031 -0.0735968 0.1095331 0.21648248 -0.2775972 -0.39023083 0.17990062 0.06390609 0.0823272 -0.06930142 -0.13966843 -0.19794872 -0.06442466 -0.11659123 -0.40371364 -0.16405638 -0.42448434 -0.13801216 -0.046770226 -0.038038686 -0.28239834 -0.1618027 0.09403409 0.0048535326 -0.054161455 -0.23473664 -0.016721994 0.07488101 -0.21133646 0.1280349 0.35281244 0.17728448 0.20137991 0.25425786 -0.07043391 0.028086232 -0.49238968 -0.1074679 -0.110852696 -0.17931432 -0.116295956 0.28454664
12871 0.1525323 -0.11698652 0.13341635 0.31524882 0.2977654 -0.020883543 0.13059463 -0.3158797 -0.22052398 -0.14123319 0.009400444 -0.1863503 -0.22976175 -0.06559803 0.1059444 0.016217498 -0.06973785 -0.16325358 -0.13223629 -0.12610424 0.31043133 -0.45383528 0.117196925 0.015946455 -0.21749102 0.16103837 0.26250666 0.5443878 0.12887283 -0.14489092 0.3972919 -0.47865006 -0.1602353 -0.12116199 0.16797966 0.19369622 0.2201323 -0.3590883 0.14570202 -0.07437296 -0.27260554 -0.09808035 0.024942921 0.053568687 0.26563174 0.16424106 -0.29761854 0.22873826 0.19600597 0.04683813 -0.34767655 -0.3103632 -0.13891058 0.17928578 0.21175331 -0.2037151 0.33139408 -0.45541668 -0.32864165 0.06650726 0.07231279 0.29096916 0.34846237 0.12174655 -0.12622252 -0.24660416 -0.17898452 0.41741183 -0.23804577 0.00540746 0.14852193 -0.3295667 -0.41197398 0.17907493 0.11213112 -0.4986201 -0.05406883 0.48080987 0.17912857 0.33887035 -0.23669186 -0.08741435 0.008888795 0.6232484 -0.20385772 0.36813793 0.013979428 0.2555658 -0.0024254958 0.4296034 -0.04623158 -0.516297 0.2761783 0.22049835 0.20999481 -0.05390172 -0.023133243 -0.70583737 -0.15309414 0.32750243 -0.24359979 0.027119288 -0.40973383 -0.24539812 -0.062778644 -0.22013012 -0.45631707 0.030554086 0.38403365 -0.3906618 0.14167713 -0.46938163 -0.05836075 0.06807473 0.10794514 -0.13994311 0.41628543 0.37338775 -0.032815643 -0.11101054 -0.41867545 -0.610577 -0.041986298 0.26303527 -0.18427972 -0.33407977 -0.4874245 0.121019
13333 0.1963326 -0.2998358 0.4335794 -0.12560208 0.55544466 -0.16891725 -0.0026336089 -0.10228084 -0.0003629302 0.22493875 0.35602927 0.1333889 0.2006763 -0.13906099 0.25415558 0.15910704 0.025076775 -0.3442553 0.1072284 0.22477724 0.33900025 0.163196 -0.28781304 -0.41279504 -0.0056832633 0.19027111 -0.16668342 0.026816744 -0.12227493 0.30252358 0.14367497 -0.19890106 0.11756937 0.106609926 -0.21363467 0.33678856 -0.014702986 -0.56245804 0.25088668 0.2945346 -0.32524568 0.08391545 0.008603213 0.08285609 0.053670913 -0.055480428 0.14582428 -0.30633706 -0.15546708 0.14363386 0.45080858 0.023263363 -0.43065766 -0.32631037 0.10937805 -0.33074322 -0.041925598 0.10797328 -0.21024317 -0.046224743 -0.08312646 -0.22591913 -0.18066952 -0.03893927 -0.0418211 0.034924265 0.38610637 -0.0077384263 -0.040697183 -0.057910793 -0.3315502 -0.5453125 -0.38083377 0.10442595 0.03757628 -0.65706706 -0.04312886 0.14015095 -0.60878867 -0.06909903 -0.14516297 0.21580283 0.0899587 0.4673806 0.43190703 -0.03231336 0.4142915 -0.17123283 0.18301061 0.54462713 -0.17892596 0.34454894 -0.004212965 -0.24731782 0.31854147 -0.06940885 -0.22015879 -0.20122743 0.0033819363 -0.18797792 -0.08401095 0.18166523 -0.22753227 0.029767608 -0.39705405 0.047189288 -0.29983425 0.31280768 0.11512963 -0.15594137 -0.19739546 0.025318988 0.35276577 -0.027961472 -0.46255776 -0.11341375 -0.032757558 -0.009076834 -0.26205254 -0.007622451 -0.101095445 0.186383 -0.46243012 -0.15371054 -0.30826107 0.20867345 -0.16501608 0.4386024
11655 0.21938092 -0.15552811 0.2817838 -0.025007972 -0.14966728 0.026518375 0.2425754 -0.24027193 -0.37625387 -0.1784875 0.35910022 0.088784635 0.024964899 0.13307495 0.27494588 0.14761466 0.2202478 -0.08567575 -0.14730343 0.24236599 0.15060043 0.19676821 -0.44842294 -0.42520398 -0.29113838 0.3889404 -0.07748992 -0.05629063 -0.2744501 0.28434303 0.17464757 0.04146655 -0.032112308 0.08944108 -0.099894285 0.15519604 0.1899198 0.06860498 0.10150447 0.21931012 -0.3400756 -0.1633737 0.16992214 0.3001429 0.119261004 0.24330024 0.24347451 -0.63095456 -0.35553464 0.030336488 0.45776647 -0.010352413 -0.46553934 0.020333998 -0.38723677 -0.14673278 0.24320836 0.16698988 0.0061817486 0.40759096 -0.32790187 -0.088277236 -0.06969243 0.11064354 0.3460637 0.057883877 -0.4138994 0.088039294 -0.1635605 -0.2593448 -0.12958907 -0.43965757 -0.44002 -0.03968653 0.090385936 -0.25037184 0.09922372 0.20771618 -0.44768783 -0.21033189 -0.065445565 0.31412888 -0.032122914 0.18967226 0.30271405 0.22110868 0.15792352 -0.22656347 0.18053076 -0.065351695 -0.10797655 -0.43286738 -0.00873163 0.02017744 -0.00011164525 0.039226152 -0.0953476 -0.31068325 0.060379747 -0.23858413 -0.45042616 0.057863943 -0.18182397 0.10632911 -0.32607436 -0.11037432 -0.18430246 -0.16229503 0.27576825 -0.053454064 0.013201954 -0.15565649 0.10787354 0.31260148 -0.48839685 0.47893253 0.036068004 -0.16755821 0.021358397 0.05930057 0.12584592 -0.10547416 -0.3448366 0.03917199 -0.1477286 -0.27271047 -0.04892816 0.488495
10925 -0.19764969 -0.1925349 0.32770365 -0.19520128 0.079036504 0.0598492 0.09613029 -0.028048296 -0.084053874 -0.21936284 -0.12359511 0.04092983 0.07559902 0.12431312 0.33512387 0.11982937 -0.03880459 -0.3179359 0.07231278 0.29394108 0.15564784 0.23914996 -0.23080054 -0.43115553 -0.29171067 0.2735785 -0.14485885 0.07144171 -0.06807788 0.028702386 -0.26753294 -0.08258141 -0.1454401 0.18167754 -0.016200645 0.033598337 0.020828318 -0.3410108 0.16961646 0.24162254 0.12467273 -0.040737867 0.21552616 0.047680944 0.43706122 0.19741541 0.01885012 -0.18618922 -0.40107128 0.0855617 0.41101536 -0.1402475 -0.120289534 0.14985782 -0.105815545 -0.27430806 0.35910612 -0.05810157 -0.03194234 0.1449321 -0.49925104 -0.22205985 0.21195325 0.39309508 0.15096062 0.038240373 -0.11153707 0.2510694 -0.16593924 -0.2836061 -0.20659928 -0.40137017 -0.45104182 0.03673559 -0.25098866 -0.39618322 0.024883615 -0.2677023 -0.2513312 0.024285557 -0.5324241 0.07615865 0.35963607 0.10512968 0.3881639 -0.09648121 0.11474283 -0.16440365 0.28043923 -0.14667597 -0.19594385 -0.4910488 0.17362438 -0.021551251 -0.0841069 -0.017364131 -0.17598331 -0.19995539 -0.16914304 -0.18402755 -0.4706465 -0.0043505584 -0.34801775 0.025196088 -0.13426884 -0.13780475 -0.28524616 -0.10095287 0.014476387 -0.316858 -0.13919997 -0.16789693 0.067195185 0.47271398 -0.5206008 0.1940804 0.1445649 0.020182533 -0.063407496 -0.038610592 0.039523862 -0.36803043 -0.39704558 0.16669019 -0.24264514 0.0323607 -0.03564261 0.20958126
10970 0.03512593 0.33098975 -0.0901803 0.2788152 0.34503382 -0.19405359 0.17045227 -0.30518752 -0.12988786 0.07511166 0.16731548 -0.38171953 -0.0034491299 0.030979246 -0.015139051 0.27338767 -0.42656574 0.06875501 -0.14016119 0.063747205 0.024350142 -0.2945711 0.045375314 -0.21378417 -0.08277566 0.11891115 0.2367278 0.40592042 -0.1880864 -0.44444585 0.16080216 -0.25435317 0.12015789 0.18063475 -0.09222998 -0.10497585 0.0060470756 -0.1062419 0.15611191 0.058664527 -0.20345986 0.10592627 -0.06908719 0.056361422 0.29689798 0.1824887 -0.5352417 -0.11811165 -0.055313487 0.043799143 0.34267578 -0.063072115 0.07973108 0.4266105 0.39957172 -0.26856172 0.13924327 -0.35214722 -0.32404515 0.015924076 0.29127604 0.22340927 0.044422187 0.1560078 0.12010475 0.057980757 -0.31294334 0.3983185 -0.3651752 0.2556595 0.3467551 -0.20365088 0.082425445 0.4482523 -0.071355134 -0.3370643 0.0973838 0.10809949 0.19088401 0.20582728 -0.032121036 -0.06567762 -0.06464222 0.10834533 -0.13665201 0.16370343 0.12548622 0.26101083 -0.0015100407 0.302089 -0.029279064 -0.21354036 0.288608 -0.30883008 0.26498675 0.070847854 -0.12561277 -0.5940255 -0.45807332 0.07350719 0.053114217 -0.014218529 -0.022939589 -0.047435716 -0.17993167 -0.44346532 -0.2625065 -0.109336615 0.19896188 -0.30187246 0.4115247 -0.39468247 0.054249726 0.17382136 0.020874506 -0.2334305 0.3329846 0.5890271 0.22792517 -0.10922516 -0.5760134 -0.5735705 -0.2240406 0.23142835 -0.09523834 -0.24922629 -0.38697731 -0.08077628
11803 -0.08759402 -0.22897571 0.4996669 0.2207466 0.3754442 0.29134998 0.14997819 -0.027933577 -0.27999738 -0.09691767 0.6715006 0.30697295 -0.0154094165 -0.20712937 0.04801084 0.40899277 0.28838536 -0.0825919 0.18801937 0.4633025 0.15728883 0.28097308 0.07404959 -0.6240028 -0.42326942 0.43367025 -0.15107305 -0.030349584 -0.15776992 -0.3062347 0.049194 -0.016525947 0.16496827 0.27482256 -0.036765415 0.47304726 0.47392878 -0.21857718 -0.38228518 0.045640547 -0.39665678 -0.2523445 0.19440062 0.09574145 0.48527303 0.18515946 -0.04439096 -0.6386377 -0.20886162 0.008464164 0.12418321 0.16522071 -0.4591342 -0.08052862 -0.23975196 0.0019071879 0.19952254 0.017780535 0.039653607 0.12063387 -0.16550498 -0.20728241 0.11526885 0.20758218 0.03363399 0.36045608 -0.22240496 -0.05785619 -0.043943167 -0.32028013 -0.15710695 -0.4113042 -0.5248079 -0.03827347 -0.08556548 -0.69113004 0.05844655 0.1704332 -0.10930452 -0.30633065 0.28006107 0.29382697 0.3218629 0.41123948 0.37214446 -0.032537203 0.25026804 -0.1017455 0.48856533 0.03443105 0.00078073284 -0.025599254 -0.19183473 0.074684 0.10254008 0.1708026 -0.60721457 -0.3814884 -0.026004247 -0.19166104 -0.3519368 0.3175969 -0.16897672 0.25435904 0.102660544 0.17850965 -0.09188419 -0.26818275 0.004762161 -0.17403315 -0.1596263 -0.23988385 0.013104581 -0.0055368915 -0.32540646 0.090893306 0.11607532 0.015789611 -0.004699527 -0.15320507 -0.15621604 0.09978838 -0.31790116 -0.018599242 -0.13180433 0.19935416 -0.04678737 0.4200622
11738 0.14479244 -0.51616156 0.29802516 0.20442769 0.40220445 -0.1675568 -0.19438908 -0.43398556 -0.07662862 0.07448964 0.3847744 0.29371354 -0.014200436 -0.08677939 0.18276198 0.56780744 0.029375657 -0.19742376 -0.10354855 0.47845125 0.18588619 0.27533355 -0.0850983 -0.4984118 -0.4685867 0.1465669 0.19349304 -0.10085521 0.06848623 -0.38489622 0.49453735 -0.09801526 0.3966673 -0.072558634 -0.12594561 0.4822438 0.06937928 -0.20455474 -0.18825129 0.31994143 0.16100937 0.06423671 -0.07369861 0.036868386 0.428945 0.1682504 -0.1255739 -0.5281977 -0.13455622 0.08184639 0.2989078 -0.044022776 -0.30088252 0.12333769 0.1477571 0.17496678 0.21488096 0.54912853 -0.0412619 0.42727262 0.034679938 0.10063486 0.24903134 0.25521746 0.07581468 0.20508872 0.3732048 -0.30115685 0.08623619 -0.025359275 0.1258015 -0.27920002 -0.2273328 -0.05097272 0.03135382 -0.18484223 -0.3208296 -0.19833143 -0.10375904 0.112903304 0.05672354 0.09905008 -0.34376127 0.27270013 0.023555081 -0.20122093 0.12544662 0.10775465 0.14393912 0.48322004 -0.09488019 0.31977838 0.39279035 -0.1474025 0.18218336 0.03497396 -0.18010971 0.1701414 -0.07556375 -0.01391863 -0.2948421 -0.22929458 0.017042752 0.26255727 -0.1827341 -0.026349049 0.14129375 -0.06883172 0.048212007 0.15919578 -0.36013854 -0.032945067 0.24747287 0.077523276 -0.6926207 -0.3862073 -0.13050224 -0.15804067 0.24360812 0.1812467 0.0940565 -0.079839446 -0.33741775 0.21517079 -0.3399135 0.039858773 0.016689094 0.31625736
13656 0.0238139 -0.1760511 0.17149338 -0.10600377 0.35277933 -0.4117164 -0.07356281 -0.10985678 -0.121576 -0.031949013 0.43649763 0.6217062 -0.3065692 0.13852228 0.38738507 0.4962898 0.3363532 0.035624202 -0.15143506 0.28705832 0.16365 0.29184073 -0.21506199 -0.32116294 -0.02722015 -0.19658954 -0.07950015 -0.29457352 -0.13144413 -0.33770686 0.11012699 -0.19653401 0.33215782 0.00022641412 0.1236211 0.07902856 0.0069954256 -0.155176 0.20740406 -0.2249656 0.04778485 0.33036494 0.18283175 -0.17565575 0.072837636 -0.15476948 0.0064183935 -0.34429055 -0.038435448 0.19603452 0.4661137 0.05033541 -0.32540202 0.044414915 -0.17583288 0.31740367 0.32088402 0.10196977 0.069386445 0.10931969 0.027231155 -0.08586735 0.22502132 0.123836994 -0.10869376 0.2686913 0.3464838 0.30241668 0.16623254 -0.39585108 -0.14637809 -0.4586435 -0.19206549 -0.19886997 -0.3891474 0.05489257 -0.19997337 0.19318596 -0.42947614 -0.05546826 -0.25104886 0.12742569 -0.14112046 0.32703 0.01745556 -0.0746964 0.2962718 0.22658065 -0.11767521 0.2254124 0.10983677 -0.31474733 0.30789796 -0.23024784 0.048747707 0.00241909 0.08955735 0.037353583 -0.30876553 -0.15655065 0.014673847 0.107525915 -0.15269744 0.20076278 -0.2311984 0.1641192 0.309534 -0.004681337 0.084611215 -0.17153758 0.07231126 0.19483094 0.12185415 0.36911878 -0.59953076 -0.4163881 0.10375052 -0.109921284 0.46026152 0.056611348 0.1106981 -0.078766845 -0.07522593 0.06865163 -0.48305243 -0.21709642 0.10796197 0.1813221
12517 -0.31236085 0.043398023 0.22888356 0.119708814 -0.006939564 -0.12577534 -0.10888576 -0.04841561 -0.3000769 -0.14714564 0.4082258 -0.039430764 0.2352814 0.15925401 0.33113676 0.12121338 0.20468818 -0.41689923 0.15960616 0.36981604 0.07160731 0.07963817 -0.16622745 -0.5428628 -0.14649892 0.25468603 -0.12816216 0.10421153 -0.06827015 0.022754833 -0.28838634 0.04656634 -0.08711564 0.38439465 0.11974818 -0.06760427 0.2638745 0.009289939 0.049278364 0.7058613 0.04619177 -0.07271111 0.22646813 0.26479122 0.535804 0.03787537 0.11531882 -0.4829327 -0.09611888 -0.010918217 0.30196613 0.23904002 -0.24097064 -0.23472409 0.06251977 -0.0093866475 0.42755982 -0.19070785 -0.042019546 0.053456582 -0.094226375 0.20389403 -0.11375361 0.09224404 -0.23920316 -0.1813811 0.25608182 0.23714665 -0.090418965 -0.12782267 -0.16870493 -0.48286822 -0.43488467 -0.117280684 0.25755155 -0.34667045 0.13749406 -0.13385974 -0.3254643 0.07072932 -0.64444476 0.34673426 0.1180732 0.058283735 0.24086134 -0.10988354 0.07612375 -0.28072035 0.15253246 -0.07453027 -0.29849595 -0.5083928 0.17240298 -0.23298956 0.12708513 0.06798218 -0.047853597 -0.2853384 -0.21615246 -0.07220663 -0.13635238 -0.2516568 -0.17271627 0.14423405 0.08919523 -0.10924501 0.097196005 -0.3497333 0.02399741 -0.062610246 0.014543925 -0.15545857 -0.08654575 0.24829623 -0.43865 0.19910236 0.2436834 0.06916025 0.3123918 0.045619503 0.009683352 -0.06974316 -0.3975812 -0.009663984 -0.1877735 -0.26785183 -0.051772315 0.28543907
11344 -0.09489606 -0.40360224 0.28090048 0.19605114 0.20071392 0.10004804 0.2976061 0.037719075 -0.045710932 -0.070511624 0.24897932 0.02988278 -0.17872234 -0.17949043 0.21785656 -0.035504848 0.13190116 -0.45452744 0.14271058 0.18116091 0.07710924 0.07157635 -0.26479074 -0.21891963 -0.18551733 0.0047397786 0.17081934 0.5202214 0.25990632 -0.06495595 -0.032473404 -0.04919699 0.0152446395 0.2119015 0.017188666 0.17441 0.43051067 -0.027968671 -0.14588867 0.20262463 0.05817989 -0.0010638623 0.15336107 0.03416997 0.39124036 0.09524118 0.086784914 -0.5814961 -0.30817595 0.26634327 0.17339654 0.18296683 -0.30261424 0.07852829 -0.26568267 0.113281906 0.52625185 -0.17267844 -0.14665067 -0.09085022 -0.06033535 -0.25629863 -0.0778834 0.08647714 0.29623955 0.15737063 -0.004919037 0.023451142 -0.061094627 0.036465656 -0.12315704 -0.14518045 -0.33102894 0.1306052 -0.14852129 -0.0807069 -0.12817645 0.16900386 -0.26624507 0.014239479 -0.2423901 0.2603322 -0.2468188 0.10374753 0.09796225 -0.37540862 0.26590458 0.051571608 0.09466887 0.1786636 -0.032293204 -0.4456854 0.0009932902 -0.27300125 0.042177077 0.11105187 -0.09886857 -0.30257255 0.014972678 0.15305665 -0.21187538 -0.18292978 -0.5389548 0.1557956 0.06341669 0.1656798 0.0017326303 -0.1806998 -0.045083836 0.12822735 0.08570169 -0.09225922 0.5075343 0.28225213 -0.34482834 -0.04237165 -0.063763164 -0.25587744 0.054621562 -0.1592864 -0.061732437 0.09337872 -0.2289369 0.2665587 -0.15489073 -0.046009045 -0.37798268 0.44968042
13557 0.18816416 -0.25612926 -0.04001348 0.025810154 0.4310504 -0.41382766 -0.24975248 -0.3278453 -0.29631907 0.046638582 0.48281896 0.5997622 -0.38342056 -0.05368159 0.17228298 0.51105464 -0.043215957 -0.029492656 -0.2228552 -0.027221374 0.51031554 0.3007963 -0.20906383 -0.56887317 0.076495424 0.18079253 -0.17069894 -0.23433451 -0.3277075 -0.14300828 0.27132577 -0.15616511 -0.03222929 -0.26939133 0.14301775 0.37285316 -0.46453524 -0.4153577 0.0075820624 -0.22289324 0.10318826 0.21390632 0.016025756 -0.313877 0.18011709 -0.2782197 -0.11522042 -0.25638255 -0.11249317 0.07914106 0.42461237 0.21280168 -0.34919643 -0.20175773 -0.26981106 0.11479592 0.30693007 0.120443806 -0.22240475 0.47346437 -0.051900767 0.2930517 -0.14821771 0.13194194 -0.124096125 0.11993711 0.2775472 0.037638728 0.14708486 -0.4748811 0.10873449 -0.37069094 -0.17235507 -0.17756473 -0.12549952 -0.040148232 -0.3356628 0.17311896 -0.15750466 -0.208394 0.1056962 0.11101165 -0.17387377 0.27282026 0.30025283 -0.038007207 0.2738865 0.18003547 -0.03465505 0.177501 0.0016080844 -0.06602176 0.20260862 -0.18920113 0.19969122 -0.056650907 -0.00013686958 -0.063591085 -0.30402082 -0.04223299 0.12343669 0.20559573 -0.15254173 0.39262837 0.04907063 -0.054998875 -0.02758987 0.014315644 0.035198312 -0.24468623 0.24666242 0.10895225 0.26472157 0.5751953 -0.47202614 -0.23767266 -0.137812 -0.18960416 0.08770006 0.06862669 -0.018797789 -0.12259425 -0.2248161 -0.22981144 -0.22026041 -0.2634721 0.10816722 0.0024154126
10763 -0.13506202 -0.17369793 0.45381775 -0.032209925 0.050547153 -0.121232904 0.13409689 -0.12643309 -0.3118015 -0.19583337 0.40079203 0.22034997 0.2495617 0.19209 0.2124048 0.1689528 0.018383414 -0.10352686 0.19037876 0.25369087 0.18035072 0.06739465 -0.17960055 -0.59210235 -0.27904204 0.046097808 -0.045674756 0.23792106 -0.03927554 -0.1755849 -0.16466592 0.008402621 -0.031195695 0.4238978 0.19568703 0.18028669 0.19205566 -0.37099 -0.1551043 0.3029257 0.0010302002 -0.17114417 0.13668434 -0.038310178 0.55167407 0.22034672 0.03416243 -0.37445983 -0.35577685 0.28815863 0.38403502 0.03535237 -0.37838548 0.00012007856 -0.10747502 -0.026858456 0.4135394 0.15254204 0.08241815 0.083522946 -0.37458608 0.04445451 0.20831071 0.13195646 0.026885834 0.2977156 0.061350413 0.15497337 -0.2857045 -0.06674612 -0.029248087 -0.16685103 -0.29795226 0.015277507 0.16943778 -0.47062865 0.16933425 -0.009265025 -0.13637193 0.083641596 -0.4381908 0.20699932 0.28334707 0.24778967 0.23756567 0.03093355 0.2555988 -0.11858848 0.07125857 0.06677774 -0.22187258 -0.4701009 0.28627345 -0.04196123 -0.024216903 -0.031879075 -0.15442428 -0.32727087 -0.24413304 -0.15219031 -0.34955484 -0.038001288 -0.28756446 0.14660127 0.10984021 -0.04888741 -0.18688749 -0.2635424 -0.119250104 0.1044227 -0.234825 -0.25705597 -0.034716114 0.04825112 -0.2605878 0.14103413 0.22590686 0.12683594 0.05923447 0.09051302 -0.086720526 -0.027627721 -0.53721243 -0.060414087 -0.10829703 0.08393606 -0.111523665 0.31730556
5096 -0.059343964 0.17919827 -0.19968237 0.12979485 0.2313712 0.07113363 -0.15108518 0.01065227 -0.004056974 -0.23494375 0.05131974 -0.2357912 0.24409847 0.15570971 0.27491307 0.2974164 -0.35048747 -0.0735554 -0.6600998 0.3322592 0.13572313 -0.22575492 0.34278417 -0.47732213 0.14743318 -0.108905524 0.49087974 0.5168126 0.4264508 -0.28433344 0.11498264 -0.28260875 0.06795612 -0.07781115 -0.03619434 0.13919207 0.2214309 0.07203634 0.19935872 0.24171686 -0.41754636 0.49964455 -0.27782837 -0.24786912 0.532146 0.1049728 0.26239595 -0.37295625 0.3026878 0.32430157 0.5887259 -0.15486303 0.21384126 0.4661142 0.24036632 -0.30027562 0.4439663 -0.4907037 -0.17084534 0.20177886 0.19450282 0.24279918 0.22099347 0.078293554 0.09227051 -0.288795 -0.14784864 0.39681655 -0.14173187 -0.3238286 -0.24999169 -0.40622061 -0.52192646 -0.21681179 -0.14962526 -0.23119798 0.21460998 0.3856157 -0.1964456 -0.017825939 0.0045960913 -0.10569366 0.33093077 0.1467801 0.04886925 0.38924995 0.15213351 0.33216298 0.020855214 0.12021048 0.15174559 0.020229854 0.14051081 -0.06188007 0.012217679 0.038513053 -0.17772901 -0.24909008 -0.39372343 0.1844424 0.2472299 0.18709089 0.04053584 -0.24416284 -0.22121406 0.034973763 0.08911551 0.5504053 0.49531448 -0.34974384 0.48696578 -0.36626267 0.1264334 0.3650841 0.01557991 -0.19048554 0.03520116 0.31889018 0.24336053 -0.14800255 -0.2416678 -0.39117345 -0.14911954 0.39641193 0.07695541 -0.72388464 -0.13610916 -0.1276885
11218 0.080409504 0.063285194 -0.12157079 -0.0186431 0.19335599 0.19424817 0.16557676 -0.029360058 -0.5306926 0.1370752 -0.0698456 -0.29494557 0.033376925 0.21113636 0.106377654 -0.031328876 -0.308699 0.14472567 -0.30945027 0.14681889 0.09456957 0.05592377 0.41608196 -0.19028234 0.15221728 0.055400796 0.32362965 0.2845506 -0.014041699 -0.18096437 0.16989332 -0.19103366 0.06773633 0.21679616 -0.061527748 -0.07506899 0.21045318 0.048126243 0.25980726 -0.0022667844 -0.004666282 0.39289707 0.0050281086 -0.2304851 0.4447465 0.16067983 -0.1906681 0.09587521 -0.06256398 0.25694194 0.2075731 -0.08305822 -0.04299727 0.34533483 0.013325436 -0.093544975 0.38302654 -0.32801357 -0.057711307 0.13269699 -0.05521844 0.12914522 0.14842072 0.18020506 0.2215957 -0.104667775 0.031178655 0.43022528 -0.19789012 -0.25737134 0.011542618 -0.4066783 -0.16324514 0.21889141 -0.23240449 -0.2626345 -0.08312969 0.315324 -0.08087828 0.32664075 -0.364797 -0.09183175 0.0481173 0.3315627 -0.2294392 0.48741668 0.18218437 0.089435 0.274526 -0.09563237 -0.008432722 -0.552723 0.26822713 0.15453519 0.021002835 -0.09019755 -0.32167798 -0.43170068 -0.3940428 -0.077242896 -0.16248378 0.09542533 -0.13248153 -0.08656104 -0.22717158 -0.21183045 -0.29679552 -0.26484886 -0.06668908 -0.3689953 0.40874183 -0.2694042 -0.10857133 0.040320784 0.31793517 -0.042081155 0.16327323 0.23596175 0.14224754 -0.11067486 -0.46890268 -0.44063044 -0.22757195 0.2675624 -0.06408583 0.0070252917 -0.33969992 0.036035765
11430 -0.072779834 -0.4721243 0.14075062 0.048895195 0.33112237 -0.21365881 0.14425246 -0.3992408 -0.28015584 -0.104957595 0.40499598 0.43550092 -0.13792168 -0.2639531 0.27144074 -0.021689417 0.227684 -0.1809473 -0.030230474 0.2333017 0.18675627 0.1289855 -0.58909726 -0.74908507 -0.30251387 0.39203787 -0.1914676 -0.21370083 0.29461628 -0.10565294 0.10030173 -0.10376937 -0.36249143 -0.03974572 -0.013365218 0.038129617 -0.040010825 -0.041490227 -0.0033659153 0.099396735 -0.013822965 -0.07928883 0.25591186 0.07934101 -0.04680271 -0.07633326 -0.3134226 -0.19626701 -0.07418171 -0.13276725 0.36590135 0.1814477 -0.18663725 -0.21136457 0.052139137 0.12897635 0.17826486 0.3129949 0.004976973 -0.0047428035 -0.011153317 0.1603679 0.1501957 0.11127945 0.07303626 0.08320307 0.13535123 0.19391401 -0.104596786 -0.3865569 0.019745434 -0.30435073 -0.36563766 0.02259719 0.053963095 -0.43546948 -0.3942574 0.24759454 -0.036245216 -0.43963212 -0.20930895 0.20282598 0.06104145 0.5540952 0.42982325 -0.1983288 0.565595 -0.13787825 0.06354231 0.42618415 0.3147694 -0.036032107 0.1627265 -0.15391578 0.3562844 0.1942489 -0.113869116 -0.02480469 -0.15245175 -0.14995429 0.0021826744 -0.13459459 -0.22903939 0.15424815 0.0011863968 -0.11133448 -0.36594445 -0.0055195247 -0.026792446 -0.042576686 0.2621225 0.17048663 0.2855851 0.4244707 -0.5402898 -0.063776575 0.21656628 -0.32588574 0.18478183 -0.15084757 -0.08684835 -0.053276915 -0.11475977 -0.19408876 -0.1374015 -0.1871244 -0.036957018 0.07470518
13024 -0.17165308 -0.24206272 0.38985014 0.11737743 0.18695118 -0.061409965 0.051244747 -0.004892073 -0.31587845 -0.27331614 0.173828 0.3542094 0.0698479 0.042374462 0.09156828 -0.11849047 0.2124225 -0.30498168 0.054487698 0.16487196 -0.092904806 0.06866157 -0.17859441 -0.33928907 -0.23140393 0.3333121 0.070275635 -0.039978024 -0.21310095 -0.023810389 -0.1573361 0.036040317 0.045008387 0.2517003 -0.05999514 0.2845883 -0.039048396 -0.39596987 -0.325412 0.036242545 -0.1183418 -0.11999991 0.1817934 0.025282254 0.5456563 0.1428566 0.1733034 -0.4428158 -0.14008184 0.25427037 0.3948632 0.23601519 -0.25707892 0.100963004 0.0699019 -0.25639752 0.25982165 0.11355805 0.073598 0.20410705 -0.3825089 0.016534371 0.017854538 -0.05634011 -0.020230979 0.1663654 -0.073885806 0.1602164 -0.3416391 -0.08603685 -0.110373564 -0.40163314 -0.006744214 0.16173103 -0.14757736 -0.5177415 -0.006629099 -0.11595795 -0.39207625 0.15916447 -0.33266887 0.33940986 0.44374186 0.15895021 0.21409425 0.09930179 0.14182417 -0.018174054 -0.054202307 -0.08654524 -0.3892121 -0.20964445 0.40460876 -0.056416336 0.19966489 0.12979494 -0.0107680205 -0.02690195 -0.10931413 -0.16532429 -0.52330357 -0.017794833 -0.32679135 0.18796259 0.10392898 -0.14013657 -0.13902703 0.25411057 -0.15010843 -0.059515394 -0.10638178 -0.33584896 0.003607891 0.31858724 -0.37949347 0.08182992 0.25089654 0.022015369 -0.095927574 0.097556174 0.094827965 -0.19065112 -0.5520023 -0.054839317 -0.24545246 -0.046951912 0.122462936 0.17002834
12072 0.2013924 0.0652284 0.5253861 0.17952067 0.4741032 -0.0084050475 0.18321924 -0.17329596 -0.30284154 -0.23570153 0.33321333 0.31386998 -0.23992439 0.1273336 0.47102103 -0.14836043 0.24175867 -0.43990842 -0.056137152 -0.08682275 0.22419693 0.2626192 -0.36106548 -0.13667724 -0.23371011 0.22275867 0.086874396 0.20153724 0.07469635 0.01215513 -0.09761886 0.20371082 0.17185661 0.13490355 0.031181443 0.06370649 0.19567662 -0.19071402 -0.14026836 0.28486 -0.29227558 -0.1415518 0.084142424 0.13981412 0.34046137 -0.055635408 -0.0036163714 -0.5860654 -0.43963546 0.14234175 0.5625654 0.18330789 -0.3709637 -0.07557298 -0.37755543 -0.072897695 0.5644357 -0.17120136 -0.144307 0.19857734 -0.3721201 -0.12662327 -0.24765657 -0.03345576 0.07941748 -0.048456848 -0.08688567 0.26024434 -0.380576 0.17640068 -0.23769793 -0.3367586 -0.36223868 -0.113615334 -0.20133114 0.06206603 -0.111979246 0.3755399 -0.5424549 0.20175487 -0.54890454 0.08903706 0.26288494 0.098768055 0.34701803 -0.42827663 0.3325365 0.07075894 0.33605316 0.23610647 -0.3031925 -0.57834923 0.24544013 -0.28765363 0.1551703 0.14908245 -0.025172384 -0.15991832 -0.1076184 0.023565076 -0.4136665 -0.16534209 -0.54472667 0.30776122 -0.2119839 -0.0312128 -0.074425556 -0.06712194 -0.07448768 0.23495749 -0.07531231 -0.27928698 0.34511805 0.2876955 -0.21939297 0.30682805 0.40027532 0.10476033 0.15456147 -0.14583026 0.07244176 0.055826303 -0.30213594 0.026218982 0.043741837 -0.29911304 -0.31351694 0.5415376
12561 0.31432045 0.43295163 0.10749962 0.08383696 0.020596283 -0.14606455 -0.21722911 -0.32265785 -0.27870598 -0.20918067 0.12037582 -0.08668452 -0.12604499 0.084808625 0.19835384 0.45890853 -0.4522213 0.16227326 -0.06384093 0.08521662 -0.1455296 -0.08954795 0.3470834 -0.16592413 -0.06265019 0.2718316 0.07498695 0.109188594 0.29023 -0.27132323 0.35314327 -0.28790766 0.45181817 0.16248317 0.10005525 0.247531 0.3327969 0.08334296 -0.09374053 0.28078175 -0.3431177 0.23108748 0.122660056 0.056385536 0.15148987 -0.108828336 -0.10448003 -0.19535331 0.23894672 0.12488373 0.57748616 -0.2225728 -0.26544034 0.048198204 0.31282273 0.1298159 0.19448681 -0.086480476 -0.35513818 -0.20460033 -0.12227876 0.07461588 0.2968888 -0.265209 -0.06270073 -0.45507154 -0.16203701 0.33429125 -0.10011249 -0.15847768 0.3535567 -0.5188047 -0.7422552 -0.21825156 -0.12750588 -0.10789472 0.31150305 0.40309268 -0.07290354 0.27787888 0.29628897 -0.0451114 0.17952155 -0.059358407 -0.11054949 0.15094465 -0.40661818 -0.28141755 -0.010537621 0.23188938 -0.10131077 -0.31455743 0.3025742 0.10321022 0.49375832 -0.28594652 -0.18883903 -0.19365475 -0.32398286 -0.32778227 -0.046210848 -0.05741571 0.07125789 0.45834577 -0.0299256 0.21481265 0.15636902 0.26038757 0.32355306 -0.084838346 0.36393332 -0.07250525 0.035198577 -0.13084291 0.106475785 0.2979569 -0.100540556 0.05603551 0.3875188 -0.022887273 -0.50230986 -0.49176693 -0.3739241 0.11524259 0.069614284 -0.409642 -0.23078562 -0.14271457
12204 0.1876012 0.30834973 0.058482863 0.05577626 0.2533247 0.036963373 -0.13247438 -0.3102574 0.05529147 -0.1744423 0.3738619 0.15749238 -0.24324489 0.081887476 0.02293242 0.21648338 -0.32080358 -0.14060383 -0.20926276 0.3834764 -0.25766137 -0.47937313 -0.022817492 -0.5224106 -0.38278008 0.034238007 0.20524932 0.38030612 0.1368055 -0.017957779 -0.010353892 -0.40981567 -0.2653472 -0.15719949 0.09757108 -0.13737361 0.2405783 0.05810789 -0.12736651 0.2068817 0.100635424 -0.010526488 -0.17464316 0.18590158 0.32993168 0.15167779 -0.019778175 -0.30462563 0.12819168 0.18395725 0.3981768 -0.27914008 0.16126084 0.37139902 0.09895206 -0.12975332 0.41951203 -0.2705687 -0.31506687 0.18365124 -0.056178715 -0.11627431 0.25802195 -0.20446536 0.26492867 -0.18842289 -0.14981237 0.26295692 -0.09884694 -0.08917456 0.019386228 -0.22870989 -0.18682998 0.07128137 -0.32834098 -0.07729901 -0.0006371265 0.083685845 -0.11924994 0.09952891 -0.110644266 -0.35457885 -0.041178882 0.35387984 -0.032244194 0.07729654 -0.049713142 0.093977764 -0.27251682 -0.060143027 0.023395358 -0.0824467 0.15899551 0.15985799 0.11335024 -0.23584662 -0.22531778 -0.16999577 -0.16120373 0.1927357 0.017497934 -0.041041594 -0.051513363 -0.02147981 -0.34945446 -0.10458041 -0.016577667 0.37435383 0.42449582 0.027149629 0.37572727 -0.42599437 0.24440293 0.11621916 0.27000389 0.23212855 -0.041596774 0.46000475 0.27914745 -0.15804031 -0.12646568 -0.25780827 0.036159277 0.14105394 0.0950227 -0.81231207 -0.09913873 -0.01925322
