917 128
12767 -0.08499708 0.041339096 0.014217734 0.041541383 0.04352602 0.14367162 0.099311255 -0.12270934 -0.23537852 0.2818322 0.22837004 0.27346468 0.16407754 -0.04236787 -0.36563176 0.21645883 -0.088507794 0.21299912 -0.14798456 0.18413547 0.02090572 0.06646795 0.1864029 -0.28885916 -0.21633308 0.08316112 -0.037435643 0.48659828 -0.017440645 0.028895095 -0.13066906 0.32720342 0.42390624 -0.31205925 0.0150923235 0.4465865 0.5605635 -0.286588 0.29432768 -0.3420382 0.023366995 0.32499433 -0.42398715 -0.5574439 0.2615874 -0.1263862 -0.01773405 0.14405221 0.20022252 -0.21874847 0.08926422 -0.027656876 -0.19207315 -0.3356114 0.12321033 -0.35182875 0.15873949 -0.15535764 0.17476355 0.008590294 0.10993572 -0.11287783 -0.2241479 -0.29928887 0.18236788 0.13955423 -0.035721343 -0.23901795 0.10902026 0.14678128 0.18539427 -0.0986033 -0.08009974 -0.2970382 0.16675451 -0.29165283 0.090236016 -0.118003435 -0.123922184 0.19795372 -0.2173053 0.3371525 -0.22349535 0.49148652 -0.15531728 0.43427023 -0.27222046 -0.56817806 0.202042 0.06717682 -0.5371523 0.16648297 0.17564084 -0.046456665 0.42477256 0.05099621 -0.095888056 -0.085624956 -0.02900989 0.035959575 -0.30360046 -0.065489665 -0.104239084 0.22203727 0.17733851 0.06430938 -0.21791393 0.2687097 0.30355075 -0.1314537 -0.35799357 -0.2298031 -0.16528161 -0.017624058 0.08167279 0.092099525 0.09348435 0.25559616 -0.09495119 0.16702196 -0.27728856 -0.118847184 -0.27756307 -0.22091721 -0.2203248 0.03929862 0.025192942 0.07778402
10643 -0.067055844 0.19342206 0.3878405 0.013489516 0.10526126 -0.24175891 0.26096213 0.02025773 0.042519923 0.20377344 0.28452682 0.34217897 0.1614863 0.06077955 -0.43604228 0.20052575 -0.10103218 0.42798254 0.05670595 0.101013266 -0.10063201 -0.13760915 0.25762925 -0.5912135 -0.22573933 -0.040021766 -0.006286555 0.38186842 0.011299653 0.14629778 -0.098695025 0.08043278 -0.35951698 -0.28926757 0.032082453 0.29642832 0.045467637 -0.29984435 0.79684997 0.2505912 0.04761273 0.12866324 -0.36701107 -0.33923635 0.21913776 0.14494877 -0.32501218 -0.14098069 -0.0103028435 9.638456e-05 0.09238057 -0.32831115 -0.4685982 -0.112318344 -0.010245066 -0.27362758 -0.02438187 -0.07552849 0.17437898 -0.031893447 0.11344912 -0.31687486 -0.077559434 -0.20374842 0.55812865 -0.24549845 0.17300263 -0.25843924 0.18946171 0.2511799 -0.14897479 0.29630578 0.009163558 -0.08399814 0.10278814 -0.14508319 -0.1378607 0.26884505 0.073895395 0.19215791 -0.30402672 0.48299116 -0.26130044 0.2081591 -0.021402348 0.41676912 -0.07336961 -0.33380428 0.28036496 0.12268548 -0.18103743 0.24200997 0.22397439 -0.29481146 -0.03192093 0.21239172 -0.17947167 -0.21839036 0.17820886 0.26860708 -0.11104869 -0.03154765 -0.20602667 0.11496394 -0.07403527 -0.18698914 -0.5295694 -0.0049289637 0.30561414 0.17041771 -0.23421532 0.0373562 0.07209707 0.1975844 -0.16765817 -0.10296714 0.31581748 0.07683713 -0.12355116 -0.1279988 -0.31316876 -0.10999116 -0.49554718 0.31673187 -0.5923908 -0.21555386 -0.15931489 0.33175728
10895 -0.07223564 -0.21422003 -0.017688118 0.12782545 0.6239563 -0.12657206 0.07499989 -0.14711888 -0.021755403 0.033122186 0.34132078 -0.0357233 -0.02218762 -0.22716188 0.3731815 0.3180071 0.009844765 -0.12679505 -0.024132047 0.27400583 0.38960767 0.23426282 -0.51281416 -0.14509667 -0.36315936 -0.020213256 -0.10890419 0.20031597 0.26475468 -0.2036017 -0.26418874 -0.19610243 0.118444435 -0.082896166 0.28607717 0.48832974 0.10851951 -0.12641536 0.30263105 -0.12174188 -0.15889563 -0.010907624 0.045726378 -0.036924455 0.19963343 0.14284106 -0.10866039 0.20372523 0.17819257 0.22801961 0.24329664 0.3668397 0.04017789 0.14601567 0.23665954 -0.079710834 0.40071282 -0.041663986 -0.052802134 -0.03711792 0.002339054 -0.060126998 0.07322288 -0.09814733 0.044099405 -0.085085735 0.28976557 0.5020646 -0.056310054 0.15586151 0.12760425 0.3793109 -0.3119313 0.108665794 0.057691988 -0.10592584 -0.14124228 -0.18353209 -0.14233993 0.1391085 0.06729127 -0.11768171 -0.14033002 0.619282 0.25798765 0.27277666 0.42412877 -0.083827205 0.2741956 0.33374938 0.3299179 -0.05135955 0.42384043 -0.08242891 0.28630373 0.34695286 -0.21901721 -0.24729064 -0.64475876 0.019464307 0.110062554 -0.14076512 0.03760397 0.27617198 0.22087653 -0.122960776 -0.15708797 0.17875879 -0.16925943 -0.20708767 0.41390404 0.3564949 0.1988024 0.01208759 -0.069038 -0.19360602 0.21029134 0.25645563 -0.13537078 0.076533325 -0.23755561 0.17663667 0.012536349 -0.007349765 -0.005891716 -0.13555135 0.053093623 0.45982197
11017 0.27637255 -0.104949385 -0.03247841 0.3812092 0.369435 -0.104868025 -0.16745001 -0.04580963 -0.11856926 -0.2217783 0.094329685 -0.014606663 0.21196286 -0.64793986 0.057459325 0.16782486 -0.26064867 0.032963023 0.14363864 0.25502676 0.23742129 0.39134702 -0.1028679 -0.32757378 -0.46044096 0.055309474 -0.16094555 0.005089049 -0.3519509 0.13422246 -0.2479084 -0.1292937 -0.047894605 0.32316172 0.28322548 0.22595733 -0.065943606 -0.04816601 -0.09273071 0.24405207 -0.21009229 0.05642491 -0.011812127 0.19541958 -0.17755301 0.052660163 -0.04866071 -0.11103528 -0.037304483 0.09348509 0.038000226 0.07964949 0.0013746399 -0.11106111 -0.047793094 -0.18415926 0.088708416 0.01870077 -0.33930385 -0.034478 -0.15179044 -0.16474806 -0.009306265 -0.21818776 0.07789992 -0.13992518 0.26055005 0.13629472 0.30327803 -0.12465901 0.024118682 0.23752235 -0.5119787 -0.39879632 -0.37967375 -0.26384118 -0.12129215 -0.72386175 0.16499305 0.13194375 0.018824317 -0.3987799 0.15443885 0.3635126 0.40963417 0.16464558 0.45130727 -0.03307678 0.13585033 -0.0639575 0.16030908 0.19882475 0.14456685 0.033465244 0.113356106 0.0043299804 -0.3284828 -0.3688711 -0.09980728 0.15784279 -0.018429104 -0.455854 0.25107247 0.16556486 -0.16974626 -0.3928484 -0.27531314 0.12617768 0.3903788 -0.0062267436 -0.010245898 -0.037165694 0.12152442 0.029612206 -0.020804202 -0.085246496 -0.12065315 -0.058965765 0.0047638593 -0.06699286 -0.22502506 -0.037353277 0.17304882 -0.0025283843 -0.35173413 -0.20800616 0.08044594 0.18361598
10920 -0.5086433 -0.14141352 -0.08444929 -0.1328769 0.08689998 -0.12833738 0.21886492 -0.025310475 -0.17040238 0.14961734 -0.103349455 0.102979116 0.09329398 -0.190826 -0.14604531 0.2726978 -0.18037182 0.32187656 0.06127365 0.31699008 0.101775974 0.1629128 0.003018253 0.015035024 -0.1475213 0.22130622 0.015072131 -0.17954387 0.31205848 -0.17671993 -0.28048545 -0.15714191 0.069999464 -0.06608281 -0.0055648494 0.1113193 0.22546817 -0.41028965 0.4955825 -0.287498 0.13188915 0.00031157475 -0.61132514 -0.13079938 0.84583765 0.35500333 -0.4784412 0.04669776 0.43537045 -0.12381611 0.088475205 -0.090616204 -0.09877832 0.053107914 -0.09019682 -0.12915432 0.1284771 -0.01663007 0.11446861 0.10393889 0.20669109 -0.01093227 -0.06999737 0.046666455 0.23942338 -0.15094496 0.068628326 -0.121674836 0.43387014 0.018693682 -0.1720424 0.037406646 -0.14892696 -0.49307206 -0.115223594 -0.14488511 0.017035527 0.2748779 0.093607254 0.58010525 -0.17412627 0.08327949 0.20698841 0.5134146 0.0590833 -0.11725463 -0.004752736 -0.2579842 0.20357782 0.0440689 -0.030608606 0.37581265 0.20619099 0.5151094 0.34479815 0.058108035 -0.2563743 0.083097056 -0.10153483 0.17543146 -0.25734913 0.019099366 -0.047993615 0.068050794 -0.06197794 -0.00076773466 0.095165364 0.10101574 0.25192773 0.14176661 0.3554442 0.06368939 0.25721574 0.03735306 -0.22281271 -0.19335492 0.35888138 0.24719489 -0.021916285 0.1577885 -0.73753786 -0.0050524524 -0.43368128 0.20053828 -0.58959156 -0.04368921 -0.009484482 -0.02001508
13039 0.3215437 -0.15598178 -0.06496945 -0.07421626 0.44456968 0.25202954 -0.117370576 -0.33040252 0.10090561 -0.058349766 -0.059708193 -0.12288839 -0.14568684 -0.1354489 -0.23686409 0.34296948 -0.1866975 -0.13713706 -0.33964097 0.18054026 0.20660721 0.11902652 -0.16492985 -0.6263315 -0.048129443 0.06583291 -0.3376315 0.16237742 0.039238755 -0.37404183 0.023146568 0.0477311 -0.21951522 0.23941746 0.24499524 0.2484908 0.343351 0.38880503 0.15519916 0.36492506 0.13299543 -0.2104076 -0.4991652 -0.2022219 -0.07599539 -0.1034081 0.055036698 -0.020946689 -0.49705315 -0.035243943 0.24784392 0.3681467 0.51280034 0.32846832 -0.3294331 -0.03060204 0.64150095 -0.10445375 -0.68492824 0.08923354 -0.023815112 -0.13760096 0.22581327 -0.042557053 -0.33510914 -0.20170747 0.58731776 0.12979501 -0.1178851 -0.14519273 -0.1578416 -0.049859654 -0.46864685 0.08638269 -0.11441403 0.1899203 0.27595368 -0.55643564 -0.433934 0.2557762 -0.25130844 0.16417357 0.4562767 0.17010508 0.122136325 0.13143815 0.27335933 -0.28278795 0.38234526 -0.12329261 0.043626845 -0.13643248 -0.031576306 -0.22429535 0.005995872 -0.158308 -0.50412405 -0.3904289 -0.09503671 0.107593514 0.015439914 -0.08981093 -0.13272649 0.2650343 0.19433673 -0.078216895 -0.64944214 0.24334018 0.20399472 -0.12885743 0.18986149 -0.079981335 0.2939937 -0.13344932 -0.37872544 0.00028489344 0.05715474 -0.08205333 0.25383496 0.09444725 -0.071182884 -0.29161173 -0.14601912 -0.10816592 -0.109875835 -0.14718264 -0.4734026 0.1989391
12551 -0.20961288 -0.13950919 0.26402795 0.041473117 0.25824565 -0.14818536 0.049420487 0.013332431 -0.06488256 0.036577843 0.129525 -0.13262598 -0.009979072 -0.2681677 0.10992019 0.26278654 -0.028594304 0.0792508 0.13470647 0.26789883 0.45401812 0.30536234 -0.6481502 -0.20248948 -0.26754847 -0.0005826206 -0.20179541 -0.20879655 -0.05371836 -0.027661188 -0.32345185 -0.1306747 -0.09433802 0.39122868 0.3095459 0.44061866 0.1811574 0.1385869 0.14155397 -0.10923489 -0.25945923 0.019328207 0.3495531 -0.10589992 0.4587405 -0.006611652 -0.12328123 0.013415766 -0.058143914 0.42144108 0.0011273265 0.22449978 0.02603653 0.28129625 0.111787856 -0.29815456 0.24020424 -0.02779535 -0.3021255 -0.062546276 0.19103612 -0.19267645 0.16050601 -0.14665878 -0.029362533 0.044483688 0.22312433 0.53858715 -0.15074614 0.28441545 0.40802833 0.22475772 -0.22970279 0.074799284 -0.21430276 -0.26644596 -0.38233837 -0.11653319 -0.073000506 0.25635797 -0.31469437 -0.06409923 -0.14471185 0.5371853 0.45154434 0.1421776 0.43086123 -0.12279723 0.20317607 0.1466533 0.3394191 0.020211188 0.10951876 -0.016683143 0.5303108 0.07979768 -0.2836751 -0.46913296 -0.63799626 -0.02636525 0.046769924 -0.16079041 -0.06579217 0.13065065 0.43985823 0.13838609 -0.12753113 -0.08326848 0.022319783 -0.2158512 0.10797884 0.39145124 0.23510633 -0.11222485 0.05917325 -0.3251699 0.051739287 0.110509865 -0.058215734 0.100894526 -0.22732417 0.101164 -0.294635 -0.04739985 -0.10830085 -0.13907973 0.24670489 0.38384107
7007 0.25979388 -0.14963238 0.01706894 -0.2912109 0.1462906 -0.038510084 -0.4208534 0.0207419 0.336298 0.14833498 0.13473265 -0.0629098 -0.08296931 -0.22142637 0.016897548 0.06518413 -0.062404376 0.026387021 -0.48246828 0.06500439 0.30560845 0.075408585 0.21564157 -0.58989775 -0.42146668 0.05246714 0.078130946 0.35988933 0.104140945 -0.043198034 -0.018693361 -0.22527431 0.0146826245 -0.2409636 -0.12120958 0.263464 0.3501531 0.069145136 0.24669799 -0.08410742 0.1472241 0.09070148 -0.049533304 -0.29064384 -0.09344421 -0.23014069 -0.3860113 -0.3101096 -0.2123221 0.03474276 0.20883818 0.25527334 -0.037920464 0.57677585 -0.17159106 -0.2076381 0.28532094 -0.12887017 -0.43021002 0.051995095 0.04179971 -0.13391715 0.07841069 -0.06211147 0.10569936 -0.26304737 0.72245216 0.2370153 0.095349945 -0.1670397 -0.23043528 -0.2881056 -0.47361696 -0.32344905 -0.28484425 0.19342183 -0.07455343 -0.64168054 -0.09239013 0.081288144 -0.06485354 -0.2165759 0.36737558 0.5468552 0.024081565 0.12945154 0.18499313 -0.054747213 0.2254045 -0.09759167 -0.19494131 -0.46745184 -0.12701738 0.0009854906 -0.08483484 -0.05392435 -0.47969985 -0.006740967 -0.014466882 -0.47915182 -0.41275582 -0.047854733 0.29970258 0.045122053 0.064872175 -0.13575701 -0.1646554 0.31529385 0.026532482 0.06529436 -0.010933898 -0.023578614 0.06988438 -0.18508668 -0.13389587 -0.09958602 0.23616329 -0.37262714 0.00075372925 0.123166986 0.18621881 -0.33889353 -0.046689678 -0.25266683 -0.05599425 -0.22922073 -0.0857299 0.09594134
12296 -0.48194733 0.006175302 -0.1093989 0.21297608 0.3845642 0.12901473 0.4810667 -0.09829381 0.03621666 0.111025184 0.15708908 0.12531674 -0.00292428 -0.090836845 -0.051431034 0.51867163 -0.28997523 0.55427253 -0.24936634 0.4076097 0.15674877 0.055638663 0.09453455 -0.18863897 -0.60823154 -0.14077437 -0.2743167 -0.032273393 -0.020016445 -0.11659085 -0.085449 -0.14827792 -0.06554912 -0.22266255 0.15216754 -0.032627217 -0.07275886 -0.08646105 0.4455719 -0.28911078 0.12580734 0.35979474 -0.5030824 -0.076075755 0.5669082 0.08190379 -0.49016517 0.18893662 0.30793166 0.04337668 0.22343668 -0.0017586034 -0.21445535 -0.30852136 -0.46019226 -0.11941649 0.15687376 0.013671191 0.14770731 0.2608308 0.27706304 -0.42667165 -0.02783607 0.059301756 0.47163993 -0.1659459 0.116864696 -0.12484818 0.14225246 0.13736027 -0.26510033 0.16837616 -0.016946403 -0.29187533 0.068094805 -0.24915414 -0.15624115 0.2384631 0.22038876 0.66718334 -0.16021751 0.08612632 0.3473565 0.5756332 0.1614529 0.25196043 -0.2846507 -0.31597808 0.21235967 -0.101695955 -0.018191302 0.43569854 -0.18625422 0.030983912 0.19877155 -0.15094939 -0.5091329 0.009036796 -0.21371982 0.14280516 -0.16319217 0.02433691 -0.03225313 0.01753948 0.12360435 0.23314151 -0.016884772 -0.02948361 0.21893573 -0.021899737 0.23774385 -0.02227842 0.015004 0.14764668 -0.41287854 -0.2945564 0.16525136 -0.0022080143 -0.16683684 0.14414462 -0.32270533 -0.16667336 -0.08781484 0.0030469282 -0.16741157 0.03412321 0.09265306 0.12049793
13016 0.33022416 -0.1626926 -0.18815345 0.20812882 0.35685366 0.5274664 -0.70970964 -0.062046338 0.4509492 0.13172275 0.036974214 0.16720463 -0.20530887 0.14679246 0.241714 0.5867738 -0.68933076 0.22259055 -0.18299776 0.077346206 0.45536733 0.25495672 -0.02756144 -0.24457729 -0.36809385 0.13124628 -0.12260428 0.38449398 -0.282096 -0.2616151 -0.16312377 -0.14967985 -0.34958678 0.05513699 -0.0030855252 0.26332015 0.09430263 0.15509418 0.5075187 -0.15092675 -0.30300486 0.06205901 -0.3213915 -0.16889633 -0.11113838 -0.10186812 -0.31725764 -0.07910601 -0.44348723 0.19491673 0.30144277 -0.051520944 -0.02855944 0.21067943 -0.0810031 0.49842167 0.70650536 0.041523803 -0.43945473 -0.022648571 0.11322958 -0.056968126 0.05312681 0.06346304 0.029237878 -0.09589046 0.27524748 0.29128522 0.19049884 -0.24287044 -0.28249037 -0.10796747 -0.16070816 -0.0061778855 -0.42146054 -0.20053338 -0.05561066 -0.28626087 -0.43755654 0.2823407 -0.011845157 -0.0884333 0.08245713 0.19727126 -0.0117806 0.0055835736 0.3110925 -0.33586025 0.25064483 0.14629526 -0.12893768 -0.3418869 -0.18575378 -0.016973155 0.12506823 -0.30148354 -0.38405597 -0.017117843 0.09111424 -0.13223185 -0.0105556715 -0.25423127 -0.09791159 0.0060394392 -0.104296155 -0.1153574 -0.3700632 0.18473232 -0.19620839 -0.0367778 0.21811636 -0.19100375 0.12817378 -0.09873101 0.16921626 0.059559524 0.07403669 -0.18019883 0.34963638 0.30870998 -0.28240526 -0.026584087 -0.371551 -0.402128 -0.05635614 -0.36021778 -0.28276125 0.3084598
10940 -0.10097352 0.13320103 0.04922098 0.16735877 0.02826261 -0.052818175 0.041484 -0.27584743 -0.001553018 0.07716391 0.23683017 -0.15470676 0.23183814 -0.65008336 0.37221673 0.13991809 0.07898482 0.0068548284 0.046429098 0.12755144 0.0033825284 0.52367836 -0.39725804 -0.17701158 -0.25111875 0.12710756 -0.30970728 0.097563945 0.027947033 -0.0003570285 -0.45018002 0.0035668826 -0.17930189 0.32896212 0.2886167 0.26896048 0.26653013 0.04528263 0.08313712 -0.21808 -0.11852605 0.14646606 0.06651983 0.16565768 0.30297664 -0.017967097 -0.19985875 -0.05298064 -0.15954946 0.33464473 0.11341204 0.19914724 -0.040501382 0.039851706 0.43518633 0.13904479 0.17829344 0.055255916 -0.09537861 -0.14887233 -0.36399588 -0.044916134 0.40674755 -0.120352454 -0.16179581 -0.21583591 0.23595098 0.38818142 0.18341826 -0.15227297 0.20419781 0.12419203 -0.5425929 0.1785457 -0.38252494 -0.15132679 -0.25621545 -0.3967519 -0.08062341 0.32188004 -0.118059136 0.11641351 0.106066 0.5695761 0.14411066 0.100644566 0.2351994 0.021681802 0.19076481 0.16926503 0.12507465 -0.09120993 -0.0194009 0.17150643 0.2243433 0.2994252 -0.13823253 -0.061388258 -0.31576028 -0.14657891 0.036812488 -0.15568665 0.18285754 0.20170844 0.31062835 -0.050881125 -0.13705964 0.24446483 0.38458213 -0.22670962 0.12004478 0.2528125 0.24531245 0.20153876 -0.13499643 -0.25348455 0.072496675 0.123760484 -0.063824505 0.20638731 -0.09063594 0.12776005 -0.20663217 0.0612695 0.10426279 -0.23988909 0.2514892 0.64557487
12991 -0.1320366 -0.10365533 0.3337419 -0.14497511 0.07204503 -0.1910006 0.21753165 0.029113002 -0.19039422 -0.07431745 0.43680733 0.038929697 0.023249801 -0.31229144 0.1803421 0.04166099 -0.107682966 0.07395398 -0.013480498 0.069320716 0.33134833 0.4314322 -0.49249506 0.12440573 -0.32821202 0.12171113 -0.25828543 -0.0007106114 0.28238633 -0.02250953 -0.45265546 -0.09379844 -0.03415128 0.07212793 0.17975886 0.31613415 0.26851472 0.049547676 -0.08121598 -0.21876846 -0.08456729 0.070832245 0.020880975 -0.0086821 0.17233373 -0.2525718 -0.04228817 0.073485166 0.08770469 0.24243313 0.06812195 0.2520287 0.12536588 0.042438775 0.17301732 -0.045833003 0.35079345 0.07376995 -0.44874114 -0.096796036 -0.047930665 -0.11212367 -0.031400274 -0.43666026 -0.20663965 -0.06776112 0.2470261 0.27760947 0.30021977 0.09297144 0.27588907 0.33080757 -0.10695201 -0.046288162 -0.029511496 -0.20807773 -0.11980987 -0.14297004 -0.12382181 0.15582214 0.014829015 -0.13685444 0.1369093 0.45010915 0.39175448 0.2335203 0.35828257 -0.2882277 0.3117985 0.21055074 -0.02676734 -0.106219426 0.18534692 0.38189977 0.24039684 0.25671488 -0.34930113 -0.22373074 -0.3854477 -0.112799086 -0.17758995 -0.20370568 0.006655966 0.20386541 0.18672043 0.10889361 -0.23302574 -0.095132805 -0.11305545 -0.35755 0.44948032 -0.0011548941 0.03820114 0.12405833 -0.11508291 -0.4154557 0.18147153 0.063714 -0.069724895 0.016116504 -0.17953117 0.07484725 -0.17576154 0.011467967 -0.043733183 0.018211326 0.037980616 0.47441918
13210 0.23271655 -0.2594773 -0.16384771 0.44497013 0.3642766 0.22883172 -0.41434473 0.19514106 0.2688449 0.2978484 -0.09156732 -0.073329866 -0.10583102 -0.0910273 0.032598868 0.14313887 -0.06736229 0.37744504 -0.19571795 0.24259152 0.24530242 0.3613249 0.26037252 -0.10522283 -0.12468086 -0.23049964 -0.19625612 0.635756 0.06514841 -0.015368479 0.14770183 0.016760835 -0.06921891 0.04289638 0.0034156987 0.5122006 0.26307592 -0.07155821 0.21710822 0.338131 -0.06699896 -0.12505022 -0.14595373 -0.25238177 -0.14723784 -0.08299476 -0.1462959 0.17779799 -0.44277552 0.32755053 -0.018638825 0.05709843 0.11911552 0.5222328 -0.2793281 0.34432277 0.5296702 -0.24149671 -0.5827839 -0.03805149 -0.2451656 0.15858231 0.13498875 -0.027275614 -0.21268952 -0.16352136 0.60335636 0.087164566 0.31495798 -0.050817657 0.06879457 -0.17346062 -0.34166992 -0.078854896 -0.07492936 -0.3511384 -0.13768981 -0.21755041 -0.49723133 0.26541853 -0.254973 0.036432147 -0.09569262 0.31793514 0.19513264 0.36041433 0.36135104 -0.010244624 0.14669742 -0.029372226 -0.1578243 -0.6925811 0.005847374 0.0014904244 0.21453556 -0.19909805 -0.2029866 -0.38069898 0.23005117 -0.18234104 0.11126576 -0.54872406 -0.35281092 -0.12996565 0.30493027 -0.25244203 -0.2684522 0.19673735 0.16199467 -0.026234103 -0.24702539 -0.26132068 0.37265733 0.31678385 0.012731426 -0.23095821 0.2766325 -0.09369216 0.3544394 0.10875625 0.11201855 -0.28154725 -0.36177856 0.10533639 0.17402977 -0.07964125 -0.21948825 0.34226695
12344 -0.16801347 -0.14871688 0.15541093 0.1383512 0.50789994 0.0016154257 0.040469956 -0.23819044 0.26661453 -0.27838576 0.23466754 -0.31367707 0.22184509 -0.5674121 -0.048166048 0.35486373 -0.039722405 0.07535035 0.058726106 0.0985267 -0.014204471 0.2310264 -0.55263466 0.18557106 -0.3555503 0.005626316 -0.19261673 0.121021815 0.45627043 -0.028518502 -0.24334839 0.16028282 -0.11282304 0.117893465 0.48098257 -0.10596184 0.08963533 -0.03677748 0.2548741 -0.21143448 0.03894821 0.10036255 0.07342532 -0.023425395 0.26651648 -0.20190372 -0.29072654 0.03360635 0.35620373 0.20535654 0.22118932 0.17279711 0.094947524 0.1721795 0.07993271 -0.03315207 0.21668339 -0.07225097 -0.12107944 0.04375561 -0.1641139 -0.28081548 0.027310565 -0.37163788 0.078945465 0.04049865 0.20085876 0.45355594 -0.10844909 0.15385693 0.4405457 0.026598796 -0.15240993 0.110132866 -0.15691216 -0.2938122 -0.07423346 -0.20638186 -0.076115236 0.08968172 0.048659198 -0.03764296 -0.1655888 0.51770574 0.46114215 0.26957473 0.24795985 -0.23959193 0.2159196 0.1670354 0.25131506 0.061769698 0.17655334 -0.111476816 0.33425286 0.12234991 -0.16409718 -0.27952266 -0.3262088 0.19040753 0.04027208 -0.05839728 -0.16000517 0.12339482 0.3641304 -0.15220463 -0.12965564 0.0661957 0.04547306 -0.13822705 0.07623848 0.2977412 -0.07120051 0.028713241 -0.098283626 -0.10804338 -0.08026374 0.057017 -0.0015219885 -0.10412494 -0.5315999 0.15220529 -0.13470732 -0.10205637 -0.08212599 -0.08419667 0.21308324 0.38112488
10473 -0.030393658 0.07368132 0.11668534 0.046809185 0.020912075 0.10507159 0.5198 -0.26190624 0.24927497 -0.27391234 -0.007937548 0.31723407 0.47768372 -0.20805848 -0.07028049 0.17967004 0.017303694 -0.004314201 -0.30878404 -0.0031519586 -0.023322973 0.17233604 0.008119767 -0.19887036 0.06869945 0.095120035 0.33865428 0.20877023 -0.14726557 0.06591097 -0.0077342284 -0.024935877 -0.030339582 -0.12987664 -0.114899136 0.26288787 0.16325612 -0.3070354 0.2407782 -0.03476442 -0.36281142 0.13046017 0.093406186 -0.19083874 0.15463103 0.0847563 -0.28621772 -0.3047031 0.16176933 -0.17150265 0.49154082 -0.20341085 -0.38136205 0.16383593 -0.20130485 -0.3762318 0.4509627 -0.086062856 -0.33143842 -0.14096992 0.0521906 -0.38052887 -0.17554279 0.140426 0.3505986 0.10926333 0.100907765 -0.35484487 -0.03275368 0.17821214 0.08114227 -0.037293803 -0.26819628 0.11338002 0.33790633 0.04530762 -0.29967415 0.085296035 0.32430127 0.36185548 0.07755279 0.4204932 0.60418606 0.18415712 0.35004744 0.41559792 -0.3546806 -0.5898651 0.12580201 0.24567364 -0.18906732 0.36845508 0.20900632 -0.05942216 0.24198206 0.036446404 0.06576313 -0.07757284 0.14149818 -0.17353368 0.17642295 0.013522759 -0.059588235 0.4536077 0.28786656 -0.06927551 -0.16009189 0.116557404 0.65318084 0.05055198 -0.028115334 0.052612428 -0.237969 0.3545963 0.14124586 -0.121556655 0.24327719 -0.0506746 0.030998329 -0.0805792 -0.32529604 -0.019566398 -0.39376438 0.48746622 -0.16856952 -0.015821613 0.073660634 0.100585945
10720 -0.38711065 0.17993838 -0.1357406 -0.053318754 0.09037407 -0.08337975 0.34744978 -0.39153087 0.30280164 -0.07125917 0.17494643 0.19177434 0.036764044 -0.034169614 -0.352294 0.20660444 -0.4398658 0.19625966 -0.07147239 0.1739804 0.13418329 0.15237404 0.13434605 0.20588478 -0.24304499 -0.0018360208 0.001442347 -0.056443527 0.1118604 0.30932644 -0.37947217 0.10141936 0.1378498 0.015921092 0.14924519 0.12898642 0.15748353 -0.49313343 0.63768405 -0.05635915 0.057148844 -0.1977342 -0.16157044 -0.29169312 0.6390973 0.058184855 -0.35910034 -0.08610351 0.3176627 -0.13022292 0.12965639 0.023151975 -0.25174823 -0.33816895 -0.47606933 0.14896262 0.21884102 0.24345067 0.07034512 -0.250246 0.12883894 -0.20573407 0.210925 -0.025131218 0.59649104 -0.048746705 -0.041049037 -0.109400064 0.16078909 -0.28548524 -0.07086008 0.023247814 -0.11164087 0.14596324 -0.2386852 -0.32426777 -0.011046345 0.015561951 -0.2244619 0.60556346 -0.14178286 0.1275841 0.07095114 0.23088104 0.124178305 0.27121258 -0.17417845 -0.7083032 -0.0152079575 -0.2879765 -0.08567938 0.56914276 0.029216457 0.018551044 0.052561834 -0.18143359 -0.24079418 0.033666804 -0.10783938 0.18005769 0.22887719 0.055213843 -0.31724864 0.410611 -0.16177626 -0.011554277 -0.30354404 0.10249589 0.27291334 0.3042132 -0.04630073 0.103340395 -0.04483584 0.24121544 -0.19336432 -0.18028243 0.24799417 0.15727594 -0.009619198 -0.007568113 -0.27337125 -0.009655159 -0.35035136 0.23713359 -0.46633518 -0.4317294 -0.3251405 0.15896514
11196 0.3761494 0.16896619 0.5081843 0.16708083 0.5480309 0.014363292 -0.27651563 -0.04526454 0.020342527 0.04825136 0.05775027 0.21960343 -0.034470137 -0.5097161 0.14995293 0.22362499 -0.32249674 -0.15486677 0.34979853 0.16106437 0.3776407 0.2812028 -0.037394732 0.04626248 -0.3546214 0.01378716 -0.04108418 0.22750759 -0.27583748 0.02745139 -0.35297722 -0.1319451 -0.09142523 0.21210137 0.03651933 -0.0034268664 0.020174049 -0.12005612 0.10672326 -0.25587812 -0.21698436 0.16681147 -0.18121505 -0.07322224 0.2384602 0.033338822 0.1732307 -0.0716282 -0.19468924 0.09092293 -0.13796762 -0.090018794 0.13119018 -0.13437867 0.11942283 -0.09972565 0.07188464 0.3203526 -0.63286453 -0.022447601 0.15225373 -0.13969375 0.10550563 0.063616745 0.23342192 -0.42072672 0.22085421 0.29582328 0.21626863 -0.22680113 -0.05890286 0.48638216 -0.15826808 -0.38638812 -0.287269 -0.029360129 -0.1298987 -0.46436268 -0.058055438 0.1565996 -0.19346935 -0.25788406 0.23367389 0.12131263 0.3326612 0.07149462 0.6367917 -0.42662653 0.09350054 0.11019868 -0.11014275 -0.25643432 0.19164033 0.120440856 0.26163572 0.17815481 -0.27688047 -0.29724842 -0.37682816 -0.09818199 -0.10667495 -0.39048398 -0.052343186 0.15897965 0.04467897 -0.3864063 -0.32131213 -0.13452311 0.34091616 -0.2251059 -0.13718098 0.06294377 0.394445 -0.03210061 -0.26416993 0.055257786 0.22942097 0.32196 0.1977026 0.20113714 -0.1949266 -0.015066421 0.34001356 -0.068706125 -0.23295987 -0.43891215 0.24709046 0.26178345
8804 -0.26600644 -0.05750621 0.143534 -0.070283756 0.49506706 -0.1094439 0.0061264783 0.07560815 0.01830545 0.035029717 0.20827295 -0.0865771 -0.22381966 -0.26136622 0.24205166 0.1826487 -0.031204388 -0.1400668 -0.29712543 0.21603549 0.29376972 0.13448785 -0.5876575 -0.06599184 -0.4268094 0.0018866214 -0.1640859 0.19334926 0.1344757 -0.08697696 -0.37052426 -0.1903773 -0.18374398 0.02296434 0.26454514 0.3179057 0.17038226 0.01774696 0.07831775 -0.1215879 -0.28923836 -0.001034711 0.25516942 -0.106182255 0.05365509 -0.0788656 -0.0612159 0.026642041 -0.061165154 0.410708 0.04723583 0.45504263 0.20831344 -0.026905093 0.122526355 -0.10426407 0.3390276 -0.14084157 -0.2192477 0.20054656 0.105069056 0.082239635 0.11834195 -0.3434594 0.02819712 -0.109151475 0.15742975 0.6013031 0.015983358 0.31456462 0.42473558 0.114441775 -0.41944322 0.08526248 -0.049514264 -0.23985867 -0.36701527 -0.1131315 -0.1087228 0.48832884 -0.033349596 -0.1634152 0.011516257 0.5060039 0.2779224 0.1351866 0.30967376 -0.30116412 0.32689574 0.10448468 0.24849819 0.19105087 0.09062918 0.08709071 0.08317824 0.010169273 -0.24509142 -0.32235122 -0.4675158 -0.054934308 -0.13456245 0.05795121 0.016368989 0.33480284 0.2069856 -0.006754721 -0.20159812 0.050917886 -0.007057199 -0.2372858 0.2728759 0.19094807 0.18134212 0.059783883 0.012466754 -0.34407365 0.074824475 0.12249945 -0.06085622 0.03309858 -0.32620576 -0.0078026215 -0.18316491 0.0110802855 -0.04526956 -0.043155055 0.19156076 0.41389027
11422 -0.06877259 -0.172142 0.07630435 -0.09863925 0.30602872 -0.035061743 -0.044202782 -0.083217345 0.111180514 -0.094798855 0.36620942 -0.12761083 -0.043038934 -0.5258229 0.39415425 0.0709885 -0.024610788 0.016892709 0.12423507 -0.23103245 0.27194065 0.38291717 -0.40643677 0.23993263 -0.46871385 -0.2718866 0.27706417 0.057065953 -0.23601748 -0.010673807 -0.12000171 -0.28848845 -0.022213517 0.004431785 0.04476564 0.41508996 0.13607281 0.096280746 0.3227777 -0.11532008 -0.10163431 -0.12137277 0.21662904 -0.019887509 0.0036736084 -0.20200627 -0.106832884 0.11789044 0.07644906 0.051917695 0.052489366 0.18387319 0.22127731 0.081986256 0.119967364 -0.33251366 0.25781086 -0.031901356 -0.39350408 0.08711013 -0.098650455 -0.004887482 -0.16059448 -0.3168222 0.21004783 -0.12620378 -0.08213295 0.46223503 0.21705706 0.090761796 0.26006976 0.46663168 -0.7577096 -0.32694623 -0.10418769 -0.06919107 -0.2550351 -0.13382034 0.15329519 0.32030654 -0.0498921 -0.26979294 0.06441527 0.48957595 0.43873376 0.046408832 0.49774024 -0.3051329 0.049183413 -0.088082545 -0.107439145 -0.124996 0.16354625 -0.020464025 0.01441464 0.2307056 -0.17524616 0.04184637 -0.27059603 -0.043384917 -0.19069985 -0.42924732 0.24753518 0.39922667 0.23910512 -0.40451103 -0.28979352 0.21188691 0.24315043 -0.055494662 0.2665852 0.14484237 0.18642 0.028859207 -0.45017695 -0.28369695 0.2962762 -0.008379329 -0.1499539 0.24270138 -0.015075243 0.012338536 0.040148333 -0.16643785 -0.23750329 -0.22294015 0.2523509 0.5839579
11317 -0.11617922 -0.010505103 0.41907918 0.20504099 0.21349707 0.06895768 0.35863197 -0.13642535 -0.12074236 0.29283485 0.23110841 0.16367078 0.03145452 -0.06422864 0.11112574 0.024868017 0.14029005 0.23626646 0.058131274 0.36280814 -0.011544861 0.17649628 0.21892354 0.067328684 -0.20658566 0.12513529 -0.14870423 -0.09842207 0.17460397 0.049328137 -0.26165545 0.075403586 0.027884208 0.1361886 0.023505108 -0.13423453 0.07067306 -0.2578277 0.3307553 -0.369205 0.04332875 -0.05019154 -0.4952034 -0.15944941 0.46910056 0.0075705275 -0.28412828 0.15951273 0.3789509 -0.098863885 0.30048078 0.084004045 -0.20800251 -0.008555982 -0.38583055 -0.13235278 -0.00012208095 -0.031822816 -0.04267098 -0.10630954 -0.0011389409 -0.3894202 -0.16376057 0.14081842 0.4638321 -0.26625997 0.045108378 -0.2573009 0.3083795 0.09877779 -0.158355 -0.007961254 -0.06520642 -0.06551544 -0.13263007 0.22150932 -0.4204597 0.01747174 -0.22690395 0.67227465 -0.37167007 0.021654768 0.18526676 0.5075037 0.6369148 0.17470942 -0.25854644 -0.43574476 -0.11395964 0.114168756 -0.04109393 0.34676045 0.19197638 0.3114859 0.42924052 0.1852681 -0.38101748 0.18223514 -0.22616453 -0.16323516 -0.20967957 -0.08932288 -0.07777096 0.0029668012 0.37809515 0.30211845 0.13931115 -0.0027192724 0.3721696 0.05993221 -0.016759615 0.18545446 -0.25831023 -0.016028 -0.4288532 -0.5108587 0.088525794 0.17504826 -0.07945483 0.08223185 -0.49449664 -0.17775008 -0.083920464 -0.036209352 -0.60890007 -0.13942003 -0.020000497 0.25757724
12808 0.0451315 -0.23525017 0.2960741 0.15127039 0.45868817 -0.104877695 -0.10475739 -0.1420105 0.033586834 -0.2495066 0.06592563 -0.1127595 0.02260289 -0.35552084 -0.00572972 0.14293481 -0.067446485 0.023984792 0.077663034 0.25289875 0.1595753 0.35217458 -0.44853622 0.152612 -0.15425514 0.21356224 -0.22795187 0.23584092 0.087856844 -0.089618154 -0.52966917 0.118062414 -0.1131761 -0.04230916 0.10996109 0.15669836 -0.047302883 0.13188775 -0.035717122 -0.09121814 0.07608022 0.10936875 -0.018252727 -0.03725335 0.24374494 -0.028298626 -0.15565738 -0.07107689 -0.16119078 0.27806726 0.15667805 0.29475594 0.2083042 -0.23328257 0.16724452 -0.053619463 0.3010863 -0.13661617 -0.066647775 -0.044311423 -0.11454155 -0.18226731 0.06894126 -0.31829777 -0.10290369 -0.16359015 0.010494549 0.6283076 -0.027292078 0.15399252 0.44559184 0.20327708 -0.38057002 0.0089446325 -0.03197988 -0.27357152 -0.19584209 -0.15186869 -0.24750787 0.32590115 -0.19469412 -0.20815307 -0.04757199 0.4593738 0.3925562 0.20160426 0.3268109 -0.11808324 0.34614736 0.22380383 -0.010628654 0.021376777 0.49374464 0.06939695 0.17410506 0.38989708 -0.1509639 -0.31856477 -0.39198 -0.0697383 -0.14094211 -0.28567386 -0.047815546 0.18233937 0.24079747 -0.173829 -0.0442067 0.041012697 -0.07149695 -0.2303743 0.11204947 0.031395897 0.17558838 0.1556448 -0.014150218 -0.32945856 0.27341634 0.1748452 0.08178593 0.35332912 -0.52018595 0.029736783 -0.037604835 0.1678152 0.0458105 -0.156317 0.010417528 0.5929051
12943 0.21141843 0.08693179 0.053077422 -0.053783394 0.30515003 0.07269186 -0.36857778 -0.060736172 -0.035096366 -0.14629836 0.21629357 0.12146664 -0.04126507 -0.59632206 0.18114445 0.14401294 0.15590729 -0.48627526 0.09252696 0.2441036 0.011818177 0.2189956 -0.23937382 -0.35393286 -0.345123 0.09205731 -0.12211768 0.18475032 0.102334805 -0.416306 -0.2622204 -0.12036246 -0.24325663 0.5152406 -0.046538 0.4715177 -0.1309533 -0.19857503 -0.13835548 0.09821277 -0.13749234 -0.004072418 0.15910411 -0.43307385 0.047470205 -0.15578555 -0.2151574 0.09408672 -0.22014184 0.19432397 0.23351628 -0.16981377 0.1082566 0.205692 0.069899455 -0.33414012 0.15369071 0.06910009 -0.39589235 -0.022646908 -0.0070837424 0.15159595 -0.0882644 -0.18021253 0.22626261 -0.23647614 0.24532273 0.21073595 -0.06234713 0.0014699815 -0.08119006 0.2521754 -0.34491816 -0.5242717 -0.36315924 -0.036415648 -0.32555172 -0.1679554 -0.50065243 0.24728195 0.03010798 -0.14736958 0.08887406 0.58781683 0.13923125 0.2933985 0.3162174 -0.079837926 -0.03601784 0.23384257 0.064747065 -0.10009224 0.13342218 0.37738952 0.2856395 -0.11451465 -0.013082913 -0.14603049 -0.3712563 -0.18626527 0.034124378 -0.26986995 0.11232643 0.05781777 0.12698583 -0.13781819 -0.15355644 0.08823758 0.033825275 -0.17905761 -0.06603435 0.2083337 0.25895688 -0.1447516 -0.24618185 0.074221395 0.25260058 0.015441659 0.16217503 0.1117572 -0.300249 0.06155068 0.25474906 -0.14005074 -0.019129891 -0.17389685 -0.050892927 0.5544617
11976 0.22297081 0.11976786 0.4383694 0.12596183 0.6177683 -0.07637344 -0.09273703 -0.10418789 -0.031905163 -0.061514176 0.19309033 0.22282013 -0.036701903 -0.49367055 0.2664221 0.35740092 0.055887535 -0.25188833 -0.07351388 0.1614671 0.588564 0.19898766 -0.3617452 -0.13110915 -0.36693868 0.14869301 0.015725324 -0.028592682 -0.1929813 0.05301915 -0.31208208 -0.26211715 -0.22510467 0.13450344 0.027865177 0.2815377 0.23822558 -0.2581234 0.034065813 -0.049498677 -0.29188362 0.39948523 0.23488677 0.00034701554 0.18394013 -0.36509973 -0.07451764 0.09938979 -0.17045386 0.20329338 0.010020375 0.21351255 0.09042589 0.3298795 0.07713269 -0.11612794 0.30809888 0.39908108 -0.4806795 -0.042961273 -0.12506159 0.02077001 -0.33734334 0.015851798 0.12468475 -0.29263487 0.18722032 0.49807692 0.32034102 -0.052421857 0.14010721 0.09330236 -0.62596196 -0.53111815 -0.09307278 -0.113737 -0.13937087 -0.6304132 0.03309755 0.13186875 -0.1165667 -0.27624884 0.4204197 0.35084426 0.4243823 0.11635083 0.40163276 -0.29656202 0.104900636 -0.06725554 -0.073860854 -0.42064032 0.11944458 0.12811735 0.033728953 0.23683853 0.081419505 -0.021638136 -0.16369686 -0.2314595 0.079582095 -0.33564517 -0.057003483 0.06376769 -0.10913542 0.005235527 -0.20225291 0.30651945 0.12612242 -0.06874931 -0.07573957 0.1359472 0.29882264 0.011600063 -0.28021482 -0.17427383 -0.09322866 0.07799267 0.01977839 0.054982856 -0.06567519 -0.13091664 0.07656687 -0.047159925 0.07255176 -0.15868372 0.33234268 0.26331034
671 0.2672963 -0.2861785 -0.39907855 0.38102502 0.1747986 0.027960554 -0.3266137 0.0020275 0.32859755 0.028862052 0.03357525 -0.024047583 0.15178517 0.21881431 0.0012918303 0.23029785 -0.13733535 0.024876872 0.21341127 0.12501673 0.26491338 0.24821489 -0.35970438 -0.5791241 -0.270294 0.37671265 -0.082034275 0.24003689 -0.13556285 -0.3050562 0.16994722 -0.14706476 -0.21327956 -0.05191297 0.30498475 0.6409646 0.14251894 0.1993225 -0.19651848 0.124763034 -0.22823872 0.103405505 -0.25415292 -0.17866008 0.15864527 -0.00597362 -0.09234818 0.1654214 -0.34241623 0.29578292 0.22177722 -0.028578646 0.24323243 0.5133845 -0.10429993 0.035146456 0.36146456 -0.056023404 -0.14659007 0.22017798 -0.16420484 -0.03700543 0.25488365 0.2545352 0.11068518 -0.004194077 0.31238264 0.14570726 0.16425812 -0.100158274 0.13170922 -0.2334752 -0.5593455 -0.2987869 -0.104543604 -0.11530262 0.2524738 -0.5503572 -0.40914658 0.48824564 -0.012869743 -0.097909994 0.09331683 0.24537094 0.25960377 -0.31569716 0.28906453 0.04104671 0.3774943 -0.016200384 0.17492145 -0.6830655 0.017154964 0.105146185 0.0024690952 0.4658473 -0.5094262 -0.31099716 0.06620254 0.14496528 -0.32863903 -0.41703543 -0.016916156 -0.081800185 0.03666632 -0.111531004 -0.32153133 0.27295184 0.08986762 0.1157655 -0.0829908 0.0406542 0.36389032 -0.071026385 -0.17869556 0.20918322 0.24551105 -0.39026546 0.011827245 0.14074813 -0.08531537 -0.4533698 -0.32871336 0.13523051 -0.09930021 -0.23190586 -0.09433303 0.18945418
11541 0.15576719 -0.22298056 0.2591106 0.1379865 0.03105742 -0.0023880813 -0.13943417 -0.16984023 -0.061954513 -0.12776248 0.26817214 0.16058703 -0.114457436 -0.5545575 0.21591623 0.1997493 -0.06872705 -0.30321392 0.24777168 0.12616293 0.3798091 0.44990513 -0.1405103 0.07141622 -0.4305735 -0.101677164 -0.22729346 -0.056953922 -0.44131833 -0.38768166 -0.1827746 -0.18148585 -0.23488966 0.017429536 0.17764428 0.10956401 0.11784496 -0.16606922 0.017432807 -0.1082689 0.054971885 0.49439374 0.17774458 -0.009944626 -0.15767244 -0.05989459 0.033686984 -0.029458826 -0.11824162 0.24643323 0.114935674 -0.1699132 -0.21175209 -0.116271 -0.13732876 -0.23765357 0.06389372 0.08456837 -0.36232963 -0.1396509 0.051220827 -0.38675946 0.036063746 0.041795664 0.107496485 -0.5571855 0.035657298 0.36828685 0.35724273 -0.16458979 -0.18609442 0.032336622 -0.580005 -0.31211203 -0.17084934 -0.33641925 -0.10401318 -0.588563 0.059068907 0.13150609 -0.27328637 -0.28599414 0.3187238 0.5186966 -0.056739196 0.2787581 0.40643254 -0.35133153 0.286469 0.07225323 -0.005590436 -0.316516 0.34406585 -0.14974609 0.20299965 0.13858496 0.113165505 -0.19314806 -0.280627 -0.11812083 -0.11866658 -0.32948756 0.32193267 0.040235363 -0.04129886 -0.25637957 -0.106233135 0.40582633 0.34353364 -0.24772176 -0.10509042 0.1402359 0.28497252 0.0077332887 -0.3944406 -0.050166484 0.26576415 0.17407641 -0.039315067 0.1987506 -0.052680038 -0.09929691 0.16159037 -0.048394114 -0.21105982 -0.087356485 0.043188643 -0.034891933
11155 0.051909395 -0.36834332 0.17731217 -0.056697678 0.2621125 -0.16484864 0.012022234 -0.15726301 0.2214978 -0.06330065 0.35229558 0.014236518 -0.3108994 -0.6678671 0.29289383 0.38050574 -0.13592482 -0.0381912 0.07461407 0.22658479 0.12713432 0.21560945 -0.322732 -0.04844772 -0.47272494 -0.025580538 -0.24042869 0.07628989 0.12136894 -0.058035765 -0.1947244 -0.15938307 0.16909698 0.06789853 0.3236799 0.34669617 -0.02235656 -0.009914313 0.24081539 -0.015578702 0.0043527163 -0.09248846 0.1368738 -0.010230902 0.18816467 -0.23155808 0.009870586 0.15616249 0.022808867 0.36109707 -0.059571743 0.2494359 0.24200444 0.07460097 0.30559132 -0.24359103 0.24809512 -0.034863148 -0.15535283 0.14838803 -0.33015588 -0.10465595 0.12678498 -0.29678917 0.051575705 -0.17788284 0.21573022 0.4607136 -0.20940852 0.21914408 0.36742252 0.34971368 -0.1854037 0.05576894 -0.006894676 -0.12238626 -0.21147136 -0.19201353 -0.3177802 0.2247224 -0.06232242 -0.22351821 -0.15563515 0.38210502 0.5505658 0.2369071 0.36075008 -0.41001987 0.23730673 0.4319732 0.26532626 0.0036725628 0.29435602 0.1603428 0.3566694 0.29562765 -0.38136482 0.039357252 -0.3078732 -0.08937518 0.027538737 -0.08742141 -0.2736682 0.1922824 0.27543205 -0.12445158 -0.0082034515 0.27785304 0.06674559 -0.31133324 0.20474546 0.3482548 0.071394674 0.29172775 -0.32537925 -0.25124714 0.16906781 0.09665521 0.13974255 0.1137638 -0.40376988 -0.02557042 -0.13348798 0.0729736 0.0678628 -0.14551997 0.26164788 0.36125985
11994 -0.17998067 -0.025941415 0.060474046 0.025414687 0.30429402 -0.07511608 0.15716967 0.059233088 -0.06894356 0.063904405 0.37792185 -0.101268195 -0.22433475 -0.325394 -0.014898934 0.31560984 0.16565144 -0.0032396475 -0.25289118 0.26633415 0.15952636 0.17311421 -0.54730415 -0.06771371 -0.32481956 0.12146907 -0.18892808 0.11688888 0.19776405 -0.082350716 -0.2251955 -0.095917925 -0.27040258 -0.15645123 0.27030817 0.29064065 0.049940087 -0.19745895 -0.12773973 -0.11686527 -0.2829489 -0.021001317 0.27770102 -0.17405492 -0.04245696 -0.009905399 0.17417265 -0.0998594 -0.14222926 0.13037361 0.17160471 0.12235531 0.23141892 -0.24455422 0.4029623 -0.09532105 0.2801871 -0.07932561 -0.21046221 -0.0627821 -0.17679217 -0.1878835 0.04175596 -0.4483829 0.12371944 0.043373685 0.17603923 0.2863543 -0.08132673 0.1082864 0.42083836 0.13955416 -0.2050121 0.01839054 0.11064157 -0.2504925 -0.4110117 -0.14668052 -0.1616511 0.2732247 0.060979802 -0.08552642 0.055248752 0.33676514 0.4384597 0.22809151 0.30680355 -0.23190041 0.26736414 0.2326463 0.041419175 0.11339914 0.4571316 0.25563595 0.27664298 0.32058254 -0.12345398 -0.3385291 -0.4547264 -0.2946712 -0.22419333 0.071141064 -0.04431201 0.34536046 0.29372415 -0.05426669 -0.30689132 0.35106012 0.03101165 -0.2588556 0.35681105 0.07214259 0.22060394 0.18824664 -0.19781293 -0.19344415 0.19923435 0.18156038 -0.02218475 0.10252095 -0.1500429 -0.18688752 -0.027701788 0.089543216 -0.007314854 0.0192841 0.22043245 0.4208461
12266 -0.0020999443 0.25866738 0.22521096 -0.0052836086 0.39522704 0.25625068 0.31531593 -0.18940206 -0.15660818 0.29496074 0.1191076 0.19302706 -0.07396571 0.12827706 -0.10845345 0.38348484 0.086486235 0.37709075 -0.0012699844 0.53072464 -0.16489452 0.14378259 0.16769251 -0.38020366 -0.3280568 0.12280571 0.00450665 0.51781565 -0.11299582 0.23345536 -0.030746806 0.43071994 0.12449924 0.1198485 -0.063239425 0.29540512 0.44970825 -0.25225157 0.4133547 -0.1432369 -0.14355102 0.010431456 -0.2571362 -0.3252713 0.5786916 -0.35540438 0.084552124 -0.21193285 0.09684233 -0.2635919 0.13915595 -0.4271204 -0.17187437 0.06888075 -0.022566428 0.033142213 0.20032546 0.07509657 0.116902776 -0.03381281 0.09184999 -0.34027472 -0.31100836 -0.14559968 0.557818 0.1512609 0.054190714 -0.39969286 0.152069 0.1005012 0.29281428 -0.11320959 -0.060185082 -0.27528858 0.5891585 -0.171556 -0.12229662 -0.122740105 0.08329689 0.49946612 -0.4197832 0.27002588 -0.35685724 0.35424265 -0.08419679 0.0899323 -0.13556345 -0.36951318 0.098561384 0.3521261 -0.19600075 0.32173288 0.31976435 0.15215446 0.096170805 0.3376723 0.066805355 -0.36815503 0.2919586 0.025372362 -0.22780214 0.220328 -0.37928468 0.17018712 0.05973879 -0.051718846 -0.36324295 0.02875329 0.14916353 0.16683672 -0.10215736 -0.2780677 -0.0031852613 0.17860381 0.043619484 -0.1102819 0.4253521 0.20873554 -0.048230123 0.10673098 -0.53546286 -0.38030198 -0.48069605 0.041207984 -0.5076543 -0.021032602 -0.035232704 0.15547957
12514 0.11261322 -0.51578856 -0.1154247 0.24431588 0.43257853 0.31153455 -0.4121969 -0.0048307274 0.08705194 0.15659574 -0.07547595 -0.19379191 0.14309688 -0.10234856 0.005399375 -0.0032557084 -0.32721496 0.15853661 -0.4478003 0.19089593 0.19381307 0.16220619 0.089161225 -0.28058678 -0.13343693 0.14721397 -0.30539572 0.1215071 0.046155415 -0.32943204 -0.009126352 0.011109138 -0.12066401 0.3094068 -0.28919712 0.09207644 -0.08611912 -0.26952207 -0.13219863 0.24014966 -0.38614053 0.21123059 -0.2974499 -0.55963856 0.022146577 -0.14567864 -0.32618022 -0.13709317 -0.00031397617 -0.05529134 0.090735875 0.26792276 -0.026486669 0.82799935 -0.19012891 0.077855885 0.11001576 -0.05090475 -0.6725185 -0.1345149 -0.03723237 0.016742425 0.3654891 -0.08052875 0.015346931 0.044822037 0.48718834 0.43218458 -0.29521373 -0.36430928 -0.112555794 -0.37003306 -0.41306034 -0.2569513 -0.02010819 -0.29296505 -0.20767054 -0.20493281 -0.38544688 0.11450716 -0.12021287 -0.14319229 -0.0009589009 0.5169344 0.1522683 0.018374324 0.4811846 -0.0735129 0.17996965 0.21378668 -0.009224439 -0.3495402 0.16625416 -0.06951014 0.2621839 0.10099473 -0.36693418 -0.3380177 -0.0062034237 -0.104810156 -0.07274995 -0.40084574 -0.027440757 0.29461572 -0.038200367 -0.04442841 -0.33899254 0.29255214 0.11420135 -0.11524409 0.011659255 0.005425024 -0.03427724 -0.049798585 -0.07108009 0.21042567 0.47456875 0.109206945 0.19995457 0.053138435 -0.24880536 -0.1710405 0.17401531 0.057963543 -0.14815614 -0.011950082 -0.25548106 -0.0040756906
11224 -0.010596039 -0.03610475 0.0065902076 -0.03536578 0.05012654 0.086157225 0.15226085 -0.06302136 0.31288376 0.06024845 0.063384935 -0.026962703 -0.029025676 0.03357538 -0.084862925 0.1178607 0.0723602 0.054342475 -0.10930727 0.37164113 -0.103122346 -0.06676826 0.050143953 -0.025808148 -0.14009568 0.1995918 -0.009083237 -0.03698227 0.34249812 -0.47197303 -0.17730738 -0.001168994 0.16995889 -0.12255179 0.4053974 -0.03998975 0.14982429 -0.2078014 0.40773484 -0.29473126 -0.03392075 0.08231053 -0.25399667 -0.20183828 0.40534914 0.24422458 -0.6020283 -0.007021586 0.30310822 0.078159355 0.117728874 -0.027784372 0.005180361 0.048833806 -0.42707032 -0.05419197 0.33074623 0.06233735 0.00028358004 -0.091838606 0.081546456 -0.61012524 0.16398838 0.35161358 0.19316769 -0.12855974 0.03210223 -0.0041307504 0.27300593 0.087772064 -0.29722443 0.14465095 -0.1887206 -0.0631449 -0.26379222 -0.16596465 -0.20851083 0.022284955 -0.038426887 0.7719514 -0.15331626 0.2808707 0.3588641 0.5684385 0.13354379 0.24441853 -0.34529352 -0.4542255 0.094753966 0.10368842 0.24448456 0.38725922 0.14484052 0.19626617 0.33202145 0.26980296 -0.2908937 0.058321383 -0.11079008 0.12300568 -0.07445623 -0.14385177 -0.25788465 -0.18635337 -0.05023098 0.32387868 0.133542 0.2150929 0.3285325 -0.06580504 0.09738915 0.12267675 0.17431137 0.19886118 -0.15022895 -0.36064407 0.25234786 0.23339179 0.050695676 -0.049734175 -0.4402961 -0.036411673 -0.27600622 0.1335159 -0.57831275 -0.012755644 0.05515293 0.32831633
11376 -0.20026685 -0.068992555 0.23202656 0.04606295 0.15204531 0.27477664 0.3203314 -0.14438385 0.029030442 0.018184625 0.28839126 0.47122544 0.28698483 -0.1515951 -0.12714314 0.031546235 -0.024886286 -0.06323534 -0.33699685 0.14581428 0.022514522 0.06805295 0.23129123 -0.13725275 -0.16457105 0.08658946 -0.16421336 0.4833983 -0.06570928 0.35660782 -0.07188005 -0.044478714 -0.2185783 -0.53724736 0.05168187 0.23983885 -0.025442662 -0.20797555 0.74591494 0.3519007 -0.17605351 0.042796947 0.19499119 -0.4637412 0.26621705 -0.2535023 -0.008255881 -0.07386697 -0.02262648 -0.10649588 0.11543174 -0.42417747 -0.7711292 -0.06312989 -0.17665125 -0.37005508 -0.05622915 -0.29384974 -0.28267342 0.015526378 -0.07880745 -0.29845247 -0.4846185 -0.19255097 0.2068006 -0.253047 0.075009994 -0.37840852 0.006030769 0.19017078 0.32898974 -0.09216668 -0.3397493 -0.048060168 -0.08884988 -0.4904003 -0.053813312 -0.5383043 0.19090082 0.43495816 -0.17120962 0.38215718 0.16253723 0.19409563 0.09747399 0.13126889 0.020732844 -0.41554597 0.36628246 0.051187668 -0.42468363 0.37074944 0.16736673 -0.08107627 0.09148528 0.22466606 -0.25776023 -0.08058653 0.006424968 -0.053307306 -0.08969749 -0.0457744 -0.026895614 0.19808154 0.0069536488 0.049651623 0.07782346 -0.056960348 0.33194622 0.19909018 -0.7732138 0.2842758 0.016815094 0.25935346 0.14660466 -0.07099573 0.51439816 -0.03764569 -0.013947352 -0.13438378 -0.19488464 0.037332725 -0.8706808 0.41247296 -0.42927346 -0.16781323 -0.097422436 0.2429806
1384 -0.22005314 -0.07901047 0.054660525 0.11867022 0.28276566 -0.103104 -0.04405631 0.16937049 -0.018236412 -0.16288623 0.075084284 0.05821704 0.05858155 -0.3049817 0.1613611 0.2332382 -0.11560559 0.21629687 -0.01814627 0.14775753 0.1789205 0.42135686 -0.35523275 -0.01607836 -0.4346207 -0.27299023 -0.20260121 0.36985654 0.23063727 0.12093174 -0.15543936 -0.27599487 -0.23902738 0.046200655 0.28900012 0.2318084 0.028765183 -0.04628034 0.08393338 -0.12148215 0.016885271 0.029664332 0.06490496 0.006630443 0.036429532 -0.18423554 -0.07037941 -0.11362854 0.049801767 0.26181638 0.20820558 0.23543915 0.3934794 0.15668648 0.17442144 -0.38724434 0.2884409 -0.024325354 0.089698106 0.3007333 -0.21770129 -0.16601294 0.06138911 -0.29622966 0.07327696 -0.105596475 0.2761186 0.5570594 -0.09307459 0.2579496 0.086011566 -0.19008769 -0.1804968 -0.021730158 -0.24853738 -0.19189292 -0.28930393 -0.16155963 0.046842318 0.4197594 0.05185762 -0.22347093 0.11634101 0.48429388 0.5345492 0.13087282 0.44748908 -0.26135623 -0.08930181 -0.08200718 0.1266787 -0.17146042 0.38023952 0.21314432 0.20005608 0.24402504 -0.13869706 -0.10347417 -0.5591192 0.038147353 -0.11720588 -0.012062058 0.054585084 0.26237628 0.31957695 -0.08114009 -0.14974876 -0.07915942 0.095792435 -0.48680332 0.43828097 -0.12908216 0.033034466 0.066994295 -0.4995947 -0.18858857 0.27544984 -0.14882746 -0.11912348 0.18049213 -0.32172826 -0.16398498 0.10480534 0.2388767 -0.048241183 -0.24860103 0.20370573 0.59531164
11232 -0.32495466 0.14259346 -0.0026162895 0.017637014 -0.054232612 0.4412459 0.27885982 -0.16842718 -0.08075144 0.016396007 0.34570682 0.043634087 0.24718411 -0.41183466 -0.27807954 0.09022818 0.24405634 0.16439901 -0.21763426 0.030586282 -0.042455122 0.049240682 -0.08556961 -0.30966437 -0.23134826 0.17527917 -0.3628192 -0.0394458 0.21352494 0.15623188 -0.08713212 -0.0016817031 -0.343972 -0.25980207 0.08361996 0.23688143 0.058177084 -0.37642714 0.38423014 -0.007901792 -0.1360742 0.077213295 -0.14624432 -0.588727 0.30789447 -0.29679924 -0.062024016 -0.23329715 0.100287475 -0.2887624 0.24583249 -0.5609035 -0.27923965 0.008149424 0.22527696 -0.25903568 -0.11634177 -0.26764324 -0.19916774 -0.31301546 0.32060727 -0.43410683 -0.3537481 -0.074594155 0.27713704 -0.36492887 0.15500298 -0.24973024 0.053414714 0.055780686 0.056726597 -0.2650094 -0.2864155 0.1408105 0.19272962 -0.26240513 -0.29209378 0.09035989 0.018318161 0.48256037 -0.4581243 0.55326325 0.025184924 0.26925385 0.44893768 0.31614515 -0.5892861 -0.6140345 0.28719962 0.19338255 -0.04907324 0.5653116 -0.10075392 0.16117653 0.35168225 0.24987976 -0.27473924 -0.048392233 -0.16786064 0.007950516 -0.057230048 0.008870048 0.14507312 -0.047364842 0.26161316 -0.03947448 -0.3907492 0.16437922 0.41149738 0.15944158 -0.38517413 0.08683015 0.14850141 0.6275646 -0.21303451 0.17867216 0.009597322 0.09513591 -0.1692077 0.050912216 -0.16498297 -0.0001941527 -0.42560342 0.30743396 -0.28547016 -0.15842958 0.22401106 0.0022246463
12507 0.2288414 -0.113542885 0.1373524 0.12831886 0.20130487 -0.18614466 0.19695255 -0.1603096 0.15872777 -0.11050184 0.38808745 0.026432373 0.11564855 -0.40332335 0.15512258 0.11644545 -0.07226289 -0.14737168 0.31893775 -0.11387323 0.34486347 0.3553047 -0.2961681 -0.021124344 -0.44444963 0.26592973 0.18817866 0.3614605 -0.1913473 0.035763267 -0.57281697 -0.09123179 0.009855581 0.07620264 0.0304428 0.3905472 0.035741877 0.08279171 -0.12187404 -0.086094625 0.021233477 0.19146802 0.0012728942 -0.027369168 0.11870686 -0.0068564946 -0.35491472 -0.10951325 -0.21272863 0.28468588 0.119246975 -0.080398865 -0.22631806 0.10851063 -0.136961 -0.41921017 0.11002662 0.19868585 -0.42726573 -0.08519667 0.10739194 0.036539193 -0.066132985 -0.14697278 0.014827287 -0.24227686 0.05170699 0.29724032 0.0013008827 -0.075944655 0.18040667 -0.088468626 -0.68588036 -0.12399173 0.008828033 -0.2021513 -0.016312256 -0.65112567 0.1283354 0.04409931 0.033969875 -0.17358327 0.2975564 0.5743769 0.28136146 0.106700465 0.6107357 -0.44194126 0.04096773 0.08584684 0.020180678 0.14931242 0.22864942 0.30726162 0.3094468 0.049643323 -0.017603766 -0.4174612 -0.25883698 -0.41973442 0.06766021 -0.4161704 0.09499651 0.066318765 0.013722957 -0.45444575 -0.37385783 0.15193905 0.31546763 -0.054571178 0.075708285 0.15849347 0.18970774 -0.16807874 -0.4011758 -0.19358255 0.21549347 -0.011903021 -0.19640338 -0.036527745 -0.01620672 0.055742852 0.1309664 0.12830336 -0.08533456 -0.27103862 0.16926466 0.25649452
12586 -0.07517954 0.13701099 0.32474902 0.0415314 0.46955624 -0.030297732 0.14184165 -0.06720771 -0.12471396 -0.36900556 0.27162793 0.1212856 0.16236289 -0.4779583 -0.112593055 0.30564472 -0.046757676 -0.098009914 0.41590226 -0.1209009 0.19872637 0.6423998 -0.30782312 -0.19912434 -0.13522592 -0.24324135 -0.24566592 0.102611326 -0.30540442 0.20128085 0.027628755 -0.39076 -0.14622904 0.36911643 0.2691202 0.26916048 0.089442864 -0.13562188 -0.015312002 0.10414126 -0.051309112 0.134117 0.2291671 -0.008510934 -0.09448755 -0.14133652 -0.084183455 0.07846453 -0.22313757 0.26664287 0.0761738 0.1038106 -0.10002037 0.37806255 -0.0037757829 -0.24610643 0.18456507 0.09548559 -0.34445783 -0.15698062 -0.15954728 -0.07437594 -0.20721638 -0.059089713 0.13302417 -0.28953138 0.46339986 0.34453505 0.07692195 0.06220253 -0.23928389 0.12403796 -0.4444797 -0.44105396 -0.41572118 -0.2673228 -0.39877218 -0.44400722 -0.013086345 0.3657742 -0.19630098 0.16827363 0.23070394 0.37370592 0.31098142 -0.03539748 0.5902624 -0.27095997 0.13669744 0.058396593 -0.11484406 -0.36596063 0.24475412 0.15069962 0.041795537 0.024784267 -0.033106983 -0.12825616 -0.43474716 -0.06227172 -0.018485598 -0.45050496 -0.0063745845 0.232296 -0.22010882 -0.40067115 -0.061138522 0.18805276 0.3949664 -0.23574711 0.29915753 -0.0135501055 -0.07664486 -0.045074362 -0.39998105 -0.28759181 0.41437635 0.19475825 0.088177286 0.30940595 -0.37459904 0.34118465 0.36219317 -0.1331646 -0.07888836 -0.09789503 0.12300667 0.2739941
12523 -0.031210426 -0.23987432 -0.044524025 0.256749 0.4276716 -0.0746898 0.04817589 -0.12279578 -0.34617233 0.08119538 0.13345475 -0.10140784 0.004154823 -0.27154863 0.23603487 0.13096857 -0.35857093 -0.023334442 -0.08582661 0.34242618 0.2939634 0.6663444 -0.5246825 -0.10582697 -0.37081844 0.014677108 -0.2988763 0.06839489 0.19966821 0.027734676 -0.45947552 -0.0636344 -0.14587052 -0.13761947 0.20197478 0.2642182 0.23274596 -0.19021429 0.17287461 -0.108469896 -0.08603794 -0.12793644 -0.03468531 0.032763153 0.14055584 0.003057963 -0.38448414 0.027709544 0.044702765 0.123533934 0.056634672 0.17381358 0.12845321 0.03226623 0.35705143 -0.2089087 0.36373347 -0.113822274 -0.4522413 -0.026910909 -0.18369159 -0.22255874 0.26249143 -0.42601612 -0.19482371 0.01865325 -0.0066884025 0.5428527 0.029101916 0.3445578 0.5596382 0.31487805 -0.16504364 0.15961392 -0.08769016 -0.19262691 -0.13286862 -0.07489384 0.15979333 0.26927692 0.041516144 -0.313583 -0.11065141 0.42500585 0.4571971 -0.010836116 0.18881777 -0.06571506 0.060562227 0.041246165 0.14875032 0.03125781 0.37348586 -0.14998776 0.39007512 0.43093944 -0.048781477 -0.3270624 -0.50161105 0.12781596 -0.008494564 -0.25750053 -0.1275818 0.22535612 0.21026295 -0.24468204 -0.17233056 0.24599713 -0.03356281 -0.3775412 0.22845493 0.0901595 -0.16185106 0.066385426 -0.07895262 -0.40736693 0.3845939 0.12521325 -0.20849824 0.051511444 -0.4140297 0.08265642 -0.019765552 -0.039547183 0.096812606 -0.0662434 -0.04666662 0.70520777
12887 0.19760726 0.02133503 -0.38647634 -0.27159104 0.24471562 0.13171822 -0.21803576 0.040740836 0.09032181 -0.10493 0.25839257 0.008499133 -0.121819444 0.054368414 0.15572111 0.028875628 -0.155256 -0.30828097 -0.27642545 -0.046241134 0.084586665 0.1896139 -0.0355875 -0.49114445 -0.26883745 0.13200118 -0.13240843 0.20936796 -0.19190784 -0.21806596 0.21933328 -0.21302149 -0.20379895 0.11491929 -0.0077903564 0.6086194 0.06897988 0.20138875 0.1816383 -0.020932166 -0.010059279 0.07331155 -0.09098496 -0.40635148 0.29381302 -0.10565133 0.21706723 0.08446991 -0.26399413 0.1749643 0.16785386 0.11160743 0.0850617 0.5762764 -0.17111719 0.094358884 0.56144834 0.06829184 -0.39117205 -0.16008018 -0.17836581 -0.17381777 0.28408185 -0.08430319 0.02870538 -0.22213192 0.24571238 0.2609239 0.20455767 -0.21540503 -0.14387254 0.02902676 -0.22083686 -0.076651655 -0.3721925 -0.12498201 -0.19849561 -0.27686438 -0.37499413 0.48752108 -0.030051613 -0.10532008 0.35749993 0.30026942 0.13357878 0.3318236 0.37672034 -0.0835218 0.25858885 0.10405326 -0.24631806 -0.42869455 -0.059703536 -0.010411285 0.14877282 -0.0013854677 -0.37436736 -0.1246525 -0.3102938 -0.16604024 0.011019288 -0.303725 -0.26124552 -0.04980498 0.21409686 -0.038359746 -0.33983177 0.1057825 0.14955795 -0.31724775 0.32089534 -0.3085853 0.38677028 0.07420211 0.13452059 -0.47874 0.39124918 -0.7507057 0.058388475 0.18500571 0.023651216 -0.3251337 0.1590304 -0.37864518 0.06750159 -0.46278545 -0.56216294 0.24234045
12378 0.16821015 -0.27779734 -0.3000979 0.013081361 0.47732162 -0.21657354 -0.2687684 -0.10665753 0.26517954 0.016827209 -0.15212631 -0.04978429 -0.15242818 -0.20431323 0.13055868 0.23466864 -0.3738322 0.059863124 -0.15924236 0.22925556 0.51212335 0.25503817 -0.18199405 -0.6914536 0.0017100819 0.11779855 -0.041742783 -0.14641683 0.027299905 0.1172992 0.12115071 -0.09284463 -0.19076332 -0.3556091 -0.052704137 0.6464203 0.060726404 -0.25727102 0.3915488 -0.018539388 -0.006244785 -0.2850839 -0.5529802 -0.39868498 -0.14104998 -0.10400757 -0.4664128 -0.394628 -0.34299982 -0.10705652 0.373409 0.18502387 0.19906808 0.5430966 -0.38994348 0.031679247 0.3830506 0.12613632 -0.33381775 -0.07050383 -0.17641757 0.2188746 0.17294773 -0.072101735 -0.04659919 0.1335339 0.66720253 0.15581733 0.45542368 -0.23977555 -0.26062638 -0.32914454 -0.38761535 0.092862375 -0.093545854 -0.02581297 -0.075332485 -0.49192193 -0.35224158 0.23721573 -0.23739353 -0.07654307 0.28715667 0.11479594 0.03725456 -0.09235611 0.5190242 -0.18638594 0.36522692 -0.17952411 -0.47081625 -0.18272722 -0.34923318 -0.3573965 0.19498207 0.118020765 -0.44764945 -0.083227396 0.037960455 -0.04484696 -0.08025765 -0.24298507 -0.15543428 0.27287295 -0.13259964 -0.043491088 -0.5418373 0.2693255 -0.07749785 -0.058436155 0.12173293 -0.10174259 0.053464003 0.17591034 0.11210338 -0.11978302 0.10914128 -0.31600174 0.16357964 0.19193983 -0.011626336 -0.29332927 -0.10024491 -0.30729493 -0.12140643 -0.36544794 -0.33629316 0.2689561
12478 0.3274733 0.1085981 0.26164797 0.15585622 0.34381273 -0.09187717 -0.012595581 -0.25601137 0.020974964 0.03502598 0.09811687 0.121526435 -0.0044914936 -0.55143386 0.14098786 0.24223265 -0.07227596 -0.031005807 0.491165 0.09162345 0.14779174 0.39216042 -0.054465313 -0.24820617 -0.40679404 0.06455773 -0.029634515 -0.07445407 -0.35156727 0.43167144 -0.25298357 0.01492777 -0.3286102 0.51758754 0.017322043 0.26061657 0.0854641 0.043441772 -0.01705951 0.025233714 -0.20791897 0.19603735 0.011835491 0.098959275 -0.004619362 -0.07654484 -0.111687854 -0.2644079 -0.12677856 0.23170778 0.067083836 0.010838926 -0.1227742 0.08090993 0.11608192 0.046700284 0.22263484 0.0102859065 -0.11224946 -0.13451156 0.028592084 -0.11137303 -0.25758323 -0.28580257 0.13029076 -0.06985029 0.14912951 0.3091348 0.13856359 0.3344711 0.024382068 0.007201266 -0.41201603 -0.35626084 -0.43857515 -0.06536112 -0.32232624 -0.42777297 0.082216546 0.34135267 0.055488344 -0.26762506 0.10264956 0.7107684 0.198915 0.2704525 0.58742905 -0.42226636 0.05031349 0.05062683 -0.18502739 -0.27856845 0.25303435 0.03773228 -0.031454146 0.12790215 0.0084287 -0.2550754 -0.29340574 -0.20060648 0.3305321 -0.32150146 0.074152246 0.444812 0.26204374 -0.23147939 -0.22233187 0.19803554 0.39087266 -0.53476816 -0.04767186 0.002856687 0.28667948 -0.18779163 0.021290207 -0.18066534 0.2249411 -0.052693106 -0.16571102 0.08744544 -0.13844231 -0.12738596 0.30165452 0.17375119 -0.2708212 0.036204025 0.22501637 0.113671385
13114 -0.14729899 -0.45433715 -0.28359452 0.26225597 0.2458138 0.094392106 -0.42653626 -0.23145561 0.21536756 0.118923165 -0.22199793 0.0060341973 -0.2068515 -0.31777355 0.537983 0.4067345 -0.4390746 0.020828491 -0.11892629 0.30341905 0.08935418 0.4564315 -0.13080743 -0.40538028 -0.2374308 0.15310273 -0.35755947 0.097408086 0.12370601 -0.19618452 -0.013810642 -0.14909273 -0.112530865 -0.16388792 0.13731706 0.44668636 0.38742164 0.002346383 0.42334798 0.04706855 -0.091273256 -0.43853438 0.087024525 -0.17098844 -0.07530766 0.083346546 0.07873362 -0.049656853 -0.14575766 -0.024829134 0.42595354 0.015025587 0.09490813 0.28118545 -0.12665091 0.19201769 0.69291556 0.020650843 -0.61386955 -0.34025577 -0.13033253 -0.09821248 0.41611743 -0.06770255 0.05224197 0.03061515 0.61554205 0.38463798 0.24619234 -0.17450903 -0.082139835 -0.13704833 -0.53174984 -0.015771689 0.035598718 0.23020558 -0.16310139 -0.52679527 -0.3227084 0.13868162 -0.2522422 0.07149199 0.2497863 -0.08131205 0.20840071 -0.053005915 0.32462835 -0.18533865 0.53393924 0.2541864 -0.12747218 -0.45242044 -0.08864639 -0.3331982 0.0056304857 0.021970747 -0.56996286 -0.14672557 0.093983464 -0.0059969956 0.32625455 0.013055674 0.004352492 0.19452453 0.14664708 -0.038487848 -0.22284658 0.28860125 0.42718947 -0.2926828 0.013245108 -0.119933106 0.41512048 0.1623555 -0.13428612 0.40689048 -0.059494954 -0.22746961 0.20867172 0.34292367 0.05564153 0.027823472 0.075345635 0.15048993 -0.22426838 -0.16859634 -0.16552927 0.046311073
12665 0.0695091 0.25607786 0.11547032 0.029316733 0.21780448 0.06574379 0.2157526 -0.29843414 0.03519418 0.094812065 0.0077739567 -0.035675094 0.19544955 -0.2666978 -0.123809494 0.29883167 0.0038097072 0.44645825 0.36427486 -0.021474576 0.007753747 -0.07407781 0.17351499 -0.080719545 -0.3111639 0.11366643 -0.19780673 0.20032959 -0.21591647 0.25895125 -0.18477513 0.3467868 -0.16610003 0.17396943 0.258682 0.32073122 0.34876525 -0.10576964 0.2756743 -0.37723947 0.12221742 0.17222798 -0.06483808 -0.1141036 -0.032137167 -0.09261595 0.033933073 -0.080810875 0.1366408 0.017971775 -0.062139925 -0.13838571 -0.25426504 -0.15943883 -0.0157388 -0.22742964 -0.011669582 0.12674123 0.21476217 -0.12645164 0.019233359 -0.29392117 -0.50783134 -0.19186541 0.47595847 0.17489043 -0.18171102 -0.27214602 0.21177082 0.31861994 0.15403387 -0.28403834 0.076450765 -0.3970217 0.3625831 0.055763084 -0.19250937 -0.21072999 0.0058862935 0.09560738 -0.052398667 0.046702914 -0.2838977 0.6083248 0.16695942 0.57009876 0.06281325 -0.5669525 0.081924506 0.13662307 -0.46680188 0.023990162 0.31824383 -0.0832337 0.008298972 0.15588978 -0.19260776 -0.23276441 -0.3513421 0.16610052 0.08934261 0.28104466 0.20827046 0.18582425 0.67100954 -0.18294872 -0.23740369 0.27333936 0.44399288 -0.3195586 -0.32188675 -0.19852947 0.16434208 0.009410828 0.093434915 -0.38691345 0.19835207 0.033434283 -0.037320044 -0.115922846 -0.5095837 -0.2149795 -0.10413792 -0.013307689 -0.517461 0.080087245 -0.0141545 0.0127447955
12517 -0.18880348 -0.051931668 -0.104212575 -0.07845268 0.2296819 -0.04823106 0.23225945 -0.049014643 -0.08323471 0.013907928 0.26191533 -0.18891013 -0.015803538 -0.42382348 0.06279444 0.1945279 -0.24720311 -0.11450135 -0.04372622 0.24128048 -0.051051483 0.2994371 -0.37531036 -0.087189235 -0.43477696 -0.026727693 -0.31746966 -0.0068686604 0.09053069 -0.04396182 -0.43015367 -0.073966585 -0.0020675147 0.24819815 0.31810546 0.28001904 0.17291461 -0.12959468 0.11262445 -0.111346826 -0.078392446 -0.0020034162 0.1338291 0.08329256 0.12740229 -0.080400065 -0.082565814 -0.060213 0.21928805 0.233658 0.0855027 0.16762671 0.13557124 -0.18231463 0.23722479 -0.18849511 0.3246951 -0.21514045 -0.1245176 -0.026958432 -0.28837264 -0.16890852 0.111667715 -0.5891098 0.14156361 -0.15491717 0.20368451 0.5244216 -0.02240798 0.120752126 0.286017 0.36756393 -0.42637038 0.10722666 0.12503658 -0.22169927 -0.2097319 -0.28066877 -0.20309724 0.2686364 -0.2155865 -0.23319373 0.095864125 0.58683604 0.36024007 0.3415213 0.10895113 -0.23661874 0.11545922 0.08526967 0.25074083 -0.06610204 0.3104497 0.015393069 0.21845081 0.21251671 -0.23723935 -0.09839255 -0.3731027 0.033692442 -0.018440727 -0.10591677 0.021091074 0.103019185 0.39625362 -0.019750765 -0.3384134 0.18365426 0.08641432 -0.35973313 0.3224485 0.30342504 0.20548932 0.16382787 -0.08796915 -0.12502922 0.26746976 0.016061498 0.0808879 0.10316911 -0.32688317 0.2609633 8.893636e-05 -0.06406 0.059687164 -0.07197589 0.24433298 0.543309
12101 0.15491292 0.15753675 0.19849984 -0.113520175 0.42970043 0.1533863 0.093648165 0.1132709 -0.30408525 0.36676487 0.37571234 0.29096207 0.006154425 -0.1561649 -0.18619065 -0.028766083 0.08728115 0.20229232 -0.13234116 0.24472173 -0.13567823 0.102745906 0.1738156 -0.09613574 -0.30191395 -0.22356544 -0.21535778 0.3554066 -0.27983522 0.12134259 -0.2433127 0.2747375 -0.026742198 0.13367027 -0.14006703 0.48365372 0.26572612 -0.5588497 0.291143 0.22315705 -0.027444065 -0.05992836 -0.37428048 -0.38772726 0.15833256 -0.3901431 -0.08983976 0.09752208 -0.2597511 -0.12357384 0.032162447 -0.10802955 -0.4329135 0.13746685 -0.1852094 -0.13578174 0.07257118 -0.01577717 0.14014572 0.038043942 -0.28524232 0.075305544 -0.50495243 -0.0885705 0.4703005 -0.2019121 0.034483843 -0.3649387 0.4516039 0.24668871 -0.03143752 0.06704923 0.1922647 -0.22587502 0.27634037 -0.3188216 -0.18927734 0.15433428 -0.30427167 0.3010628 -0.30180773 -0.02585148 0.074815504 0.3664646 0.08916056 0.46046743 -0.315394 -0.15986113 0.049044866 0.0885856 -0.20566683 -0.16269512 0.0868475 0.047353815 0.17014448 0.39017507 -0.018063666 -0.28928992 0.24567464 0.0075868685 -0.13181187 -0.3770388 -0.38102314 0.026529249 0.0945626 -0.19869696 -0.1388365 -0.13207212 0.15585627 -0.18272726 -0.3203948 0.05624057 0.14723732 0.26951352 0.22248617 -0.021759843 0.5192485 -0.03946879 0.34771165 0.11876366 -0.0070746057 0.13302958 -0.34130996 0.15613513 -0.2004698 -0.17632404 0.08270598 0.3134962
12575 -0.080212876 0.007967504 0.1305278 0.023123248 0.25787732 -0.13233209 0.12559246 -0.20534025 0.36182153 -0.1716877 0.4544896 -0.20176068 0.050206386 -0.31127638 -0.08264251 0.24283372 0.067762636 -0.34208503 0.027409028 0.043282256 -0.08559855 0.16305569 -0.30715 0.012838599 -0.33375388 -0.090805836 -0.33790156 0.026588684 0.33645695 0.038593795 -0.2986414 -0.25252464 -0.20538612 0.23268461 0.2845097 0.026434375 0.20960996 -0.06527236 0.43281737 0.1003971 -0.112043835 0.06280783 0.13028261 -0.0816794 0.42933458 -0.12070697 -0.26661134 0.025540508 0.27520332 0.16891915 0.1978702 0.031946585 0.014198802 -0.19081074 0.17501579 0.0032465374 0.38520136 -0.17339516 -0.26064527 -0.011326251 -0.06526182 -0.19957595 -0.03501579 -0.40059748 -0.047114957 -0.20144078 0.009794852 0.54452044 0.25207603 -0.0797688 0.2899731 0.3111163 -0.46826178 0.13802968 -0.20729564 -0.061044168 -0.022777626 -0.20706047 0.00041621312 0.43736747 -0.2010234 -0.18764183 0.033638928 0.38239834 0.6904923 0.024575356 -0.059881758 -0.04732421 0.14868033 0.057114758 0.22678491 -0.02407155 0.09461848 -0.0062688394 0.38185742 0.18331754 -0.23715997 -0.01553808 -0.5232604 0.011155704 0.08331665 -0.089093804 0.031554747 0.031969547 0.41750312 -0.07285166 -0.1694921 0.13475463 -0.15747796 -0.18633406 0.29407284 0.41595492 0.13126448 0.25391987 -0.26359075 -0.17042267 0.33637774 0.073944785 0.06480301 -0.036840636 -0.40983212 0.23028994 -0.2466936 -0.030697482 -0.11541975 -0.11352769 0.23925869 0.62436587
654 -0.06759395 0.12379675 0.06560597 0.2071681 0.16340813 0.03332779 -0.022667248 -0.17073871 -0.013983916 0.15787408 0.317181 -0.15103413 0.09033377 -0.5900132 -0.10637799 0.27049327 -0.13301189 -0.18619475 0.3331491 0.14033666 0.2866516 0.25900128 -0.16354567 -0.15865305 -0.19780608 -0.20430052 -0.13362488 0.28206632 -0.19384858 0.043422505 -0.53955305 -0.25101486 -0.23581716 -0.091514915 0.32155553 0.15073884 0.048273105 -0.10122271 0.09502001 -0.1739259 -0.21704003 -0.17515072 0.23958491 -0.118739344 0.07557762 -0.030848045 -0.18493898 0.031166203 -0.2704544 0.17983991 0.27459443 0.50996774 -0.029911298 -0.13811317 -0.03441342 -0.13189301 0.25553378 -0.068956405 -0.26021227 0.25080636 -0.33960015 -0.2411282 -0.12942426 -0.22489023 -0.14662115 -0.31301183 -0.005576048 0.26558378 0.09311894 0.25224465 0.28262293 0.11554551 -0.3589161 -0.17578201 -0.059535757 -0.21728942 -0.08165383 -0.344919 0.084996484 0.02402142 -0.2729939 0.032702956 0.06326505 0.5829496 0.19929464 0.08503729 0.5968598 -0.20880678 0.029352117 0.09264051 -0.06501917 -0.04290387 0.42053583 0.11280454 0.3133389 0.48603764 -0.14156322 -0.36625218 -0.43053243 -0.12645188 0.0113036 -0.15580274 -0.19412845 0.15323152 0.34373972 -0.54137266 -0.030638877 0.25852764 0.085362844 -0.421173 0.24582167 0.10413675 0.2844706 -0.13157044 -0.41352588 -0.12368974 0.37004182 0.028000921 -0.18106188 0.027519735 0.004888311 -0.12540407 0.3213021 0.09750512 -0.049066763 -0.2861729 0.29381564 0.12563692
12967 -0.34501097 -0.23850629 -0.022375463 0.24859267 0.14886655 0.19544908 -0.1718414 -0.046293177 0.10426817 0.1831876 0.056476697 -0.19590978 0.12080231 -0.6381815 0.011436083 0.36341447 -0.009664325 0.12261413 -0.16456106 0.13206038 0.07187889 0.38484442 -0.53756005 -0.006607804 -0.35163 -0.16367689 -0.4397645 0.17033508 0.20186704 -0.13008782 -0.4061234 -0.074912965 -0.36806944 0.18250857 0.18880726 0.34823325 0.20743218 0.03433759 0.19755846 -0.14212362 -0.14798091 -0.02461562 0.15254618 -0.15555686 0.060489744 0.01753392 -0.17551817 0.048353817 -0.24100676 0.19034442 0.24091671 0.08609323 0.21962525 0.03671548 0.35536304 -0.08870209 0.27585873 -0.0599064 -0.2673015 -0.29217723 -0.21355505 -0.01771173 0.28352135 -0.5515319 0.06826972 -0.11901962 0.12373159 0.53970885 -0.013958652 0.17404829 0.5741101 0.18532419 -0.5242073 0.050258994 0.027602242 -0.11261597 -0.2724897 -0.08598601 0.015452958 0.20029673 -0.30319238 0.0949354 -0.09142945 0.60424864 0.35594088 -0.0084026195 0.17213313 -0.1506394 0.28544602 0.24858026 0.27199006 -0.07653649 0.24824354 0.044761278 0.12716842 0.22230603 0.013749381 -0.05398798 -0.3153014 0.095585816 0.12748569 -0.09341908 -0.04115795 0.079257466 0.33488083 -0.10826872 -0.24093963 0.17031218 0.13447878 -0.27480254 0.16562174 0.15215923 0.30245116 0.14256622 -0.10195335 -0.10765899 -0.011318385 0.26670563 0.019414924 0.043576304 -0.2236734 0.047297698 -0.11827219 0.13998583 -0.019219184 0.09868109 0.29906812 0.51678693
13022 0.08384351 0.20859313 0.24423577 0.12390085 0.25086403 0.2561 -0.0312759 -0.28953758 -0.060869843 0.15280518 0.074931845 0.05227494 0.12813245 -0.42229593 0.05884196 -0.047146622 -0.05738705 -0.11210272 -0.080228955 -0.11249825 0.18359026 0.08709631 -0.18858707 -0.32914138 -0.34970593 0.10761432 0.33156914 0.18362585 -0.20867631 -0.22239214 -0.2555163 -0.27809787 -0.30533385 0.40235567 0.25475898 0.16082689 -0.028729731 -0.20785262 -0.17769316 -0.1144443 -0.0629767 0.16577187 0.018350013 -0.110089 -0.1532089 -0.18399954 -0.15538003 -0.24844012 -0.15206374 0.09253072 0.18492785 0.020848127 0.08406516 0.13564338 0.091744035 -0.14414385 -0.15397562 0.08757887 -0.5378546 -0.19718283 -0.20535736 -0.013843298 -0.27568403 -0.15985964 0.35722443 -0.21398664 0.14302456 0.22413042 0.027424417 -0.011936569 -0.17616972 -0.08014056 -0.48997682 -0.1544698 0.059249785 -0.10885173 -0.17730026 -0.53203535 -0.10326885 0.22095826 -0.22649892 0.1396767 0.57009584 0.3412963 0.28556967 0.26117447 0.48279214 -0.25419015 0.1245155 0.061686516 -0.0044066557 -0.16007468 0.124062374 0.004809751 -0.1282053 0.36490703 0.1937871 -0.11037298 -0.11250765 -0.33043686 0.036043704 -0.2666134 0.12626025 -0.010500608 0.06402673 -0.088480465 -0.46153754 0.15728706 0.4840388 -0.3215365 -0.257506 -0.04677637 -0.020637557 -0.089114524 -0.10377187 0.15221556 0.13580924 -0.025584823 -0.11284653 0.15380158 0.119082876 0.08749865 0.091098204 0.056776885 -0.037739854 -0.11382037 0.17869328 0.23854518
13156 0.048013195 -0.21125302 0.36999324 0.00047960965 0.109856226 0.24213354 0.3091403 0.26120836 -0.14735137 0.2861046 0.291518 0.37751284 -0.17259546 0.14051533 0.024054674 -0.015670428 -0.08170182 0.19466318 -0.21052818 0.08895378 0.07474627 0.14979477 0.27338314 -0.26533374 -0.17775047 -0.21078418 0.025465675 0.44976097 0.117834605 0.3445504 -0.08638818 -0.10608374 -0.2569128 -0.20407018 0.12735306 0.6379516 -0.03233575 -0.6505218 0.75691926 0.39732826 0.010242517 -0.37445873 -0.24233423 -0.51324725 0.33156723 -0.1880758 -0.3022727 0.15291646 -0.06970264 0.10757068 -0.062308658 -0.34027576 -0.5859159 0.13917466 -0.19964221 -0.35730174 -0.13124235 -0.19096036 -0.05754279 -0.074962184 -0.31608725 -0.0046500317 -0.36208892 -0.32566476 0.54916036 -0.3296245 0.017282495 -0.39141858 0.45392087 0.5063162 0.0048306324 0.08496936 -0.057932474 -0.09156802 0.12120357 -0.21999195 -0.3079567 0.08726825 -0.27060205 0.47608006 -0.32661268 0.14939564 0.051356956 0.21948524 0.17087829 0.3846643 -0.19291024 -0.16964115 -0.16818734 0.07939293 -0.28905234 0.13140129 0.11003633 0.08310902 -0.18614554 0.17587286 -0.2908766 -0.009887534 0.030460842 0.03775701 -0.014600396 -0.57472366 -0.46730286 -0.10657085 0.109363 -0.1023754 -0.08661581 0.1495097 0.37407455 0.08781214 -0.73163515 -0.07543096 0.081798606 0.44123617 -0.072201446 -0.18079427 0.6701598 0.042281855 0.034660183 0.02653882 0.21446434 0.00954468 -0.64652103 0.37200394 -0.4932365 -0.2739523 -0.20708664 0.20676795
10681 0.123561144 0.045753397 0.33014113 0.31767452 0.53590125 0.18477397 0.067824 -0.22169563 -0.07409041 -0.21317008 0.07651009 0.38529816 0.2089574 -0.50311685 0.21425012 0.36978006 -0.11672375 -0.035701785 0.27200678 0.059459858 0.2938639 0.49687275 -0.2306912 -0.11381256 -0.4741465 -0.019821322 -0.007358315 0.3088428 -0.08093862 -0.2652766 -0.25928786 -0.42899734 -0.14065883 0.11642533 0.040991507 0.46185783 0.20381644 -0.11713755 0.112457365 -0.21286836 0.13943869 0.00822569 0.03151155 -0.15005326 0.039293956 -0.048650097 0.18416017 0.040279213 -0.19012585 -0.018704474 0.20988837 0.00835523 0.10058522 0.26999965 0.21534199 -0.20122893 0.27739036 0.26691785 -0.501223 -0.12258892 0.051904865 -0.13862844 0.04616304 -0.12832993 0.22738788 -0.48970643 0.16809443 0.34369484 0.02087767 -0.012844889 -0.25243315 0.27640632 -0.5225359 -0.45456856 -0.25791556 -0.08423161 -0.117475525 -0.3483864 0.138835 0.0035988027 -0.027657187 -0.36163405 0.33921254 0.23278685 0.38419327 0.11761455 0.36885697 0.03420555 0.13441187 0.19086494 -0.020633522 -0.3603347 0.1031127 0.1557979 0.025288811 0.22976841 0.11895071 0.15961397 -0.3963091 0.188885 0.032918323 -0.30027226 -0.110938616 0.09353621 0.046133563 -0.23135893 -0.3208554 0.2672016 0.30543357 -0.40784234 0.075647555 0.13725416 0.3154029 -0.41894487 -0.34963557 -0.14567265 0.4559888 -0.16665776 -0.015626471 0.2558836 -0.28429887 -0.05796705 0.47923765 0.059967026 -0.2572288 -0.45938855 -0.011711917 0.30565053
12427 -0.14286652 0.02305612 0.24757756 -0.29229 -0.09996525 0.12902556 -0.02549307 0.18205802 -0.14763041 0.09460118 -0.09174594 -0.07270252 -0.0020485579 0.039771188 0.06736161 -0.024949512 0.061480228 0.3131898 -0.63552946 -0.025017198 -0.062164847 -0.008589218 0.11498471 -0.046037517 -0.09094338 -0.06124794 -0.11178079 0.5994933 0.27602828 0.3749793 -0.077023365 -0.06559341 -0.1257364 -0.3335707 0.00664292 0.27283156 -0.04353594 -0.48227444 0.75061846 -0.112399295 -0.3404221 -0.0522217 -0.24196202 -0.49555415 0.07600391 -0.2254021 -0.026952023 -0.388001 0.28841206 -0.15044962 -0.062672995 -0.08775779 -0.10710487 -0.0620427 0.30100358 -0.35111484 0.12617773 -0.16851683 -0.11622591 -0.054854486 -0.0032962558 -0.12080171 -0.06585985 -0.50288373 0.09622703 0.055025656 0.21884517 -0.19353883 0.037367813 0.034685608 0.12801224 -0.29511598 -0.31477052 -0.23048566 0.056564186 -0.32856813 -0.1498102 0.06450764 -0.07235376 0.6405823 -0.21517874 0.44935158 0.08294194 0.29604557 0.13878618 -0.07898419 0.16314118 -0.18760063 0.06291626 0.15532094 -0.30180398 0.26756245 0.11396496 -0.08253763 0.40638092 0.015496269 -0.4670109 0.06997286 -0.15570034 0.028948022 -0.048428446 0.11507572 -0.39672425 0.20044777 -0.00865836 0.18609264 -0.18000357 0.12592824 0.36881676 0.20309655 -0.08507547 0.012897444 -0.092971705 -0.045619257 -0.32302344 0.15862079 0.18295357 0.0382735 0.052465126 -0.064066365 -0.08072428 0.124158844 -0.6158044 0.33275658 -0.48446628 0.14651373 -0.24240197 0.07049909
9147 -0.030441143 -0.16761535 0.24497207 0.17121312 0.6197702 -0.056558456 0.07965981 -0.18224937 0.055019315 -0.17016344 0.36753827 0.12844224 0.27459493 -0.57751715 0.2595469 0.24643944 -0.0068420647 0.064693294 0.2581719 0.09863354 0.20281547 0.47099683 -0.2851291 -0.0015444857 -0.208763 -0.039816428 -0.06691826 0.030654704 -0.33296573 -0.0080431355 -0.1989344 -0.07865958 -0.34281373 0.0755694 -0.07973083 0.251703 -0.21038851 -0.19870804 -0.09319165 0.041103408 -0.23937973 0.28358403 0.27887744 -0.28786707 -0.0790739 -0.40103295 -0.2489833 -0.019991733 -0.2280348 0.22459818 0.19910018 0.08464101 -0.06598249 0.011451076 -0.15168366 -0.12750971 0.27895576 0.39705032 -0.43003726 0.06842587 0.28616434 -0.04131712 -0.39225668 -0.3612466 0.012750699 -0.082410045 -0.11332927 0.5145878 0.17200685 -0.25781155 0.079905 0.19560267 -0.58279926 -0.50953287 0.06724016 -0.42712379 -0.42847028 -0.25074476 0.058216818 0.080508515 -0.10112348 -0.13103694 0.24363434 0.2091988 0.2512699 -0.0786973 0.6855593 -0.2099111 0.19783805 0.18472989 -0.038939133 -0.28167698 0.16160366 0.4625297 -0.01181036 0.13300288 -0.0029653844 -0.1993246 -0.3186907 -0.24838556 -0.15391241 -0.42154846 -0.079940856 0.25777924 0.16001907 -0.07605463 -0.1345821 0.084389105 0.12507604 -0.15596017 0.06097398 -0.13252485 0.19698392 0.053543266 -0.31470725 -0.27060518 0.31558207 -0.10637081 0.056831047 0.44169563 -0.49469197 -0.14951949 0.17263849 -0.039521627 -0.18116316 -0.268642 -0.061102465 0.32178202
12661 0.25129253 -0.3391338 -0.4650847 0.038192984 0.3778061 0.24062534 -0.49471277 -0.20917442 0.06221318 0.124644056 0.15980974 -0.3748986 -0.28255215 -0.13060698 0.012006378 0.24568163 -0.32454664 0.19958098 -0.2977451 0.18426238 0.5066614 0.56804436 -0.060028374 -0.3937795 -0.24190044 0.13554056 -0.25292122 0.31549037 0.062051587 -0.07746881 -0.03655278 -0.036464818 -0.24827206 0.050047945 -0.17012908 0.2967576 -0.07078949 0.22476427 0.34258628 0.32880715 -0.065086685 -0.09272297 -0.37145457 -0.091983415 -0.1885585 0.0802667 -0.18430892 0.22764874 -0.39577726 0.018420024 0.17036359 0.14049897 0.012669581 0.32983467 -0.17319539 -0.12303908 0.36737064 -0.12623024 -0.3403163 -0.15751378 -0.13076472 -0.04723674 0.12738903 0.13810031 0.0042470237 -0.0021268544 0.54536605 0.22460675 0.15612617 -0.034666173 -0.19238967 -0.15045066 -0.5753793 -0.014766524 -0.10314734 0.10602054 0.02429357 -0.2634994 -0.3534565 0.5536363 -0.39336056 -0.17402823 0.29040626 0.2641281 0.18330565 0.07684573 0.4176769 -0.2904673 0.3768109 -0.27014026 -0.38688582 -0.45701152 -0.4908402 -0.21557899 0.20720771 -0.11976915 -0.25749978 -0.16406883 0.17056315 -0.02114774 -0.131897 -0.3951581 -0.20840764 0.4491594 -0.084575236 -0.10904777 -0.452902 0.16966058 -0.1011127 -0.32164416 0.08957034 -0.48930916 0.07666182 0.47988963 -0.15525074 -0.19058232 -0.006320787 -0.05194069 0.10388763 0.3495706 -0.21017686 -0.4017627 -0.20137437 -0.20188093 -0.06819847 -0.14069396 0.1379518 -0.112403356
12274 -0.29299158 0.24878389 0.19952777 0.13573691 0.22841737 0.18526304 0.23722039 -0.22119664 -0.16366062 0.33073053 0.28357765 0.33315796 0.093290366 0.009381635 -0.2420097 0.50939554 -0.07658132 0.3666646 -0.015517489 0.39957735 -0.045307197 -0.01992558 0.1120089 -0.40864888 -0.47401392 0.4424215 -0.06616176 0.5103786 0.077939644 -0.006989048 -0.1323083 0.4195734 0.2328669 0.022958182 -0.11532097 0.22063296 0.61573565 -0.26714894 0.32338315 -0.35593286 0.16069047 -0.016894298 -0.18257464 -0.42737812 0.5105963 -0.25845215 0.2723956 -0.1611403 0.03973582 -0.25540036 0.1395191 -0.25256813 -0.337966 0.15396795 -0.10830379 -0.13821763 0.15866886 0.0078124464 -0.23898174 -0.13918634 0.26080397 -0.3422942 -0.11018623 -0.12222352 0.1793699 0.18960327 0.030182315 -0.3872704 0.036246628 0.14275043 0.13030589 -0.09115944 -0.18548594 -0.1027158 0.39683592 0.106525995 0.08208729 -0.21531114 0.0723475 0.40877187 -0.33744457 0.09294758 -0.16373247 0.18108833 0.08225549 0.04849863 -0.2803533 -0.45479408 0.10342028 0.25593254 -0.32464197 0.23776433 0.15172322 -0.16771637 0.18838218 0.20028047 -0.055070736 -0.24055421 0.13839182 -0.1093379 -0.062619604 0.18256924 -0.41956148 0.07975382 -0.03208758 -0.0060184007 -0.49703076 0.22503974 0.6478049 0.24243897 -0.32222003 -0.30793247 -0.14154883 0.08232542 -0.42743623 -0.12044573 0.18829145 0.08693909 -0.29259673 -0.25381035 -0.20673834 -0.24414168 -0.4547206 0.0031401508 -0.577479 -0.060761746 0.13299449 -0.22253497
10970 -0.012300351 0.10265944 0.25656438 0.26602203 -0.032448635 0.014112744 -0.010491863 -0.017982421 -0.09883402 -0.06612874 0.0705996 0.029065587 -0.17099124 -0.26660854 -0.15738145 0.24865523 -0.24731547 0.24926637 -0.26519355 0.2036559 0.08419848 -0.09415872 0.18571043 -0.16932492 -0.1261187 0.18476589 -0.070108525 -0.15792662 0.10550967 -0.32258657 -0.16944128 -0.33041516 0.33123592 0.011398652 0.040804923 -0.03314598 0.3002886 -0.5446865 0.5054483 -0.1025641 -0.049998723 -0.1831108 -0.27969766 -0.20774357 0.42378178 0.14416473 -0.32551482 0.13061625 0.34406677 -0.3123776 -0.27188113 -0.16351089 -0.18470548 -0.03734613 -0.19236547 -0.17293169 0.05773582 -0.056318134 0.13355112 -0.033761118 0.15509935 -0.2399674 -0.15522623 0.06642481 0.43399814 0.056231927 0.13317646 -0.18618561 0.24046369 -0.12371976 -0.16695203 0.084474355 -0.07725638 -0.16327713 -0.28037372 -0.38036686 -0.4568329 0.16107382 0.024474226 0.3492637 -0.12167374 0.27116692 0.26387295 0.54529756 0.027767645 0.56303275 -0.16629072 -0.32085153 0.116461895 0.032625798 0.12165166 0.34183148 0.0930875 0.29817238 0.35685816 0.21167861 -0.3659807 0.18455486 -0.4587025 0.1344678 -0.13935111 0.03454373 -0.4394316 0.1717648 0.049312904 0.12657975 0.032481827 0.4682121 0.43415603 0.11356083 -0.106821634 0.034927037 -0.04139416 -0.06399877 -0.40681034 -0.31637377 0.26604232 0.33695683 -0.09010888 -0.22281314 -0.37120685 -0.3290741 -0.27625823 0.32900646 -0.6088644 -0.086974084 -0.043101307 0.35492572
12281 -0.2921108 -0.008425012 0.10101229 0.3211293 0.08706603 0.042596474 0.29758933 -0.21288686 0.07789413 0.37620264 0.08670345 0.15358755 -0.020425668 0.0671209 -0.3120282 0.3390012 0.0055972426 0.47774547 -0.30072668 0.45110497 0.07867367 -0.029910188 0.16849674 -0.061253347 -0.34169817 0.24314736 0.00023519868 0.018885825 -0.13305067 -0.26051787 -0.18470638 0.06875305 0.1347308 0.031553484 0.24321839 -0.061230622 0.2902243 -0.43824807 0.37042633 -0.2074466 0.07783054 -0.13347253 -0.46526748 0.0573716 0.36126524 0.1340856 -0.5060791 0.39341876 0.35196167 -0.28437376 0.034969628 0.23471512 -0.054955296 0.080513515 -0.20176925 -0.1607421 0.33541158 0.12015983 0.08266905 0.0451794 0.16312811 -0.21382275 -0.058910068 -0.012454142 0.42169058 -0.16295671 0.21018727 0.14366671 0.22255743 -0.029308029 -0.20675701 0.24907427 -0.20193003 -0.10066999 -0.022300908 0.01806187 -0.3416861 0.2444906 0.03565578 0.59999377 -0.053527605 0.09428473 -0.0036730205 0.307859 0.33027768 0.3298119 -0.004547229 -0.41500416 0.21904516 -0.09367715 0.058357377 0.27815285 0.16172299 0.27291816 0.29076105 0.24078129 -0.5605228 0.3566179 -0.2574344 0.105528265 -0.30813667 -0.19729008 0.013529081 0.18711893 0.043759182 0.25158033 0.12342405 0.2366757 0.36961567 0.35455832 -0.005333419 0.21182054 0.051139694 -0.066539094 -0.5306638 -0.49143976 0.08439258 0.23708293 -0.21551834 -0.0124701 -0.38146085 -0.2734518 -0.49332786 -0.01789764 -0.46282777 0.098176 0.30745518 0.20672464
12536 0.3554994 -0.2644363 0.01815456 0.16485283 0.27465612 0.023465255 -0.36676967 0.11140864 -0.014675542 -0.13618594 0.2306173 0.0077308863 -0.05952376 -0.2161103 0.4834665 0.11745801 -0.25434023 -0.018114287 0.26852614 -0.038122665 -0.039421476 0.3246171 -0.1602983 -0.4371124 -0.35584378 0.116682574 -0.00079770276 0.13041663 -0.17386554 -0.11984319 -0.019371195 -0.16540009 -0.07494619 -0.14572 0.08091488 0.24651207 0.22804305 0.08827037 -0.030106362 0.12879097 -0.048793163 0.26983774 -0.061759017 -0.072729565 0.12282346 -0.1777602 -0.36039427 0.026287265 -0.15809792 0.13560885 0.15026842 -0.21870472 -0.024261216 0.082402736 0.039843637 -0.1568996 0.32202065 0.10480383 -0.2077693 0.003416806 0.34020293 0.07904667 -0.07908154 -0.02981491 -0.15623672 -0.11421524 0.03861155 0.43930304 0.020052489 -0.2070037 -0.17906554 -0.19893871 -0.78471386 -0.14548224 -0.077404425 -0.08519839 -0.05203089 -0.5706414 0.08626006 0.13646333 -0.1949386 -0.5038526 0.32801908 0.2453808 0.112340644 0.28819886 0.69799304 -0.36283416 0.39420938 0.22247002 0.20240544 -0.2678351 0.18243752 0.098586574 0.002959204 0.15586825 -0.048960198 -0.25500518 -0.19394684 -0.19694495 -0.084659636 -0.43687895 0.1845556 0.18960108 0.11106559 0.019660175 -0.16830553 0.05832754 0.1041411 0.054488756 -0.13953067 -0.015769893 0.14581901 -0.25230527 -0.5642264 0.07478818 0.36336038 -0.033347413 0.069305815 0.23719949 -0.0075200167 -0.21394761 -0.06553575 0.08611412 -0.17152268 0.0067247236 -0.14847599 0.5335688
2985 0.06477096 -0.19638826 -0.3204263 0.118352875 0.090656176 0.43440753 -0.6310585 0.032801773 -0.057199568 0.005441787 -0.045860466 0.1642971 -0.042628877 -0.06443246 0.015255572 0.56807137 0.06518181 0.17103966 -0.12776643 0.16658002 -0.010654433 0.44574866 0.03321031 -0.52785814 0.020144796 -0.03832785 0.0055955225 0.5615177 -0.12114978 -0.106745526 -0.008468396 -0.189492 -0.18167752 -0.12668064 -0.036941834 0.5131769 0.20567639 0.07737256 0.33595946 0.20730366 0.12463782 -0.10086414 -0.0988239 -0.2733588 0.19632392 -0.29281983 -0.18117343 -0.029330026 -0.33584365 0.18977724 0.21308689 -0.0036651907 0.2698512 0.33477944 -0.27251008 0.09656952 0.514962 0.083808266 -0.38430187 -0.19861685 -0.26530024 0.0675459 0.16278416 0.11786417 -0.19128637 -0.34945035 0.2750531 0.31748974 0.3204326 -0.13032283 -0.18084975 -0.3678421 -0.5293125 0.15571108 -0.12560129 0.07974236 0.14717603 -0.4921573 -0.42277122 0.5037532 0.020567458 -0.2939016 0.21289575 0.1714963 0.27756044 -0.17339452 0.3215565 -0.44228992 0.5286936 -0.2273884 0.04694857 -0.5465759 -0.40903258 0.021852959 0.2751759 -0.16258338 -0.65695006 0.07643479 0.14693438 -0.239329 -0.31877646 -0.33824947 -0.1190243 0.28727534 0.04557087 -0.035104778 -0.2906669 0.35158932 -0.23092178 0.016834505 0.02381218 -0.4574751 0.10427279 0.34127513 -0.18588829 -0.0038763802 0.22778013 -0.09309976 0.38295186 0.081258476 -0.11459631 -0.09613356 -0.13858241 -0.061079446 -0.104890384 -0.1964757 0.12679884 0.34932217
13028 -0.07874555 -0.13063152 -0.09146781 0.012149777 0.37361425 0.13908847 0.028232606 -0.090057544 -0.0326063 0.043869514 0.24750374 -0.18381636 -0.11386566 -0.4173715 -0.05409992 0.23853196 -0.14918335 -0.0724104 0.2658295 0.3538252 0.104195274 0.3818533 -0.38683805 0.08141259 -0.26960194 0.14667192 -0.035487164 0.14455125 0.33477503 -0.0068043596 -0.24676128 0.0033025756 0.07284289 0.08246784 0.5097472 0.22878715 0.17119728 0.0059311003 0.04284079 -0.09606947 -0.050302878 0.06370641 0.17170604 0.029438313 0.20926557 -0.13827273 -0.4287157 -0.006237998 -0.11261681 0.20726688 0.26615557 0.38389245 0.218281 -0.095147714 0.27619863 -0.20415996 0.36280638 -0.15224166 -0.09420225 -0.010285507 -0.25166476 -0.4006083 0.27522385 -0.46205366 0.11372116 -0.20309989 0.16782251 0.6244434 0.061558913 0.29655546 0.31793532 0.12924188 -0.3392425 -0.08001102 -0.19266436 -0.24247071 -0.21592459 -0.31423625 -0.15649173 0.21881527 -0.16278791 0.18979442 -0.095389545 0.4309721 0.56358457 0.12176371 0.47206587 -0.1553958 0.2773711 0.18411241 0.16336682 -0.046237446 0.5877547 -0.012771476 0.5394615 0.46186197 -0.15811619 -0.1861016 -0.48974955 -0.26307845 0.05873142 -0.1049398 0.117916 0.13713878 0.38066158 -0.2859658 -0.15427531 0.11921224 0.0120784 -0.19888785 0.18642196 0.4416194 0.1672241 0.036003824 0.0901016 -0.23679636 0.009342925 0.06530742 0.01352866 0.089499556 -0.28342485 -0.12400976 -0.14121175 0.07406764 0.056404777 -0.15043348 -0.020414062 0.427359
849 0.14741738 -0.16696987 -0.29872322 0.29459974 0.28464806 -0.030406991 -0.33596396 -0.12812363 0.1864165 0.0020771113 -0.29450673 0.12216582 -0.038701855 -0.12723064 0.18177713 0.5119268 -0.13876529 0.18868446 -0.32312047 0.19877397 0.5076505 0.13822338 -0.13067114 -0.6869131 0.30279806 0.2683218 -0.51270247 -0.1681245 -0.03624836 -0.011597474 0.23750275 0.07247528 -0.20726298 0.037870683 0.033786643 0.35964572 -0.059510056 -0.0916928 0.28472227 -0.12143702 -0.1492227 -0.22949167 -0.21930857 -0.48853928 0.28193298 0.05157595 -0.26828957 -0.09231757 -0.33659554 0.12418199 0.27928823 0.39785844 0.21806537 0.5382949 -0.63060665 -0.2246852 0.28701094 -0.0029491673 -0.4904971 0.08411662 -0.33803603 0.11103059 0.03207404 0.15383038 -0.3083726 0.26288843 0.59375995 -0.0818422 0.1622627 -0.09040997 -0.077017695 -0.26336607 -0.4879321 0.3543347 -0.108156465 0.19341882 -0.0003686834 -0.23214969 -0.44475085 0.16143146 -0.41806316 -0.17854963 0.33399558 0.474065 0.3850253 0.016052114 0.49674347 -0.18974355 0.4200518 -0.2811632 -0.11147394 -0.21192846 0.01059962 -0.2699438 0.26357305 -0.04149767 -0.2832817 -0.72072196 0.116921686 0.0069239936 0.060110576 0.08475702 -0.15815595 0.4728513 0.13879156 -0.38029596 -0.3774575 0.28702673 0.12257657 0.14528999 -0.063042186 -0.051699784 0.13775046 0.047714002 -0.10384835 -0.07264513 0.25463828 -0.20314465 -0.08294851 0.23610702 -0.0625196 -0.43940347 0.11881417 -0.3828513 -0.23885873 -0.2378333 -0.6396389 0.2670215
13172 -0.14165436 -0.25722986 0.16828579 0.13436887 0.104523145 -0.071328364 -0.073241346 -0.26706693 0.07793806 -0.38375708 0.1283299 -0.13703853 0.11024668 -0.40354195 0.22417305 -0.10519968 -0.058197625 0.026713619 0.029331375 -0.44086295 0.21766214 0.58993703 -0.27399716 -0.080798194 -0.31385672 -0.065447636 -0.26563165 0.19486964 -0.34372383 -0.1569098 -0.6345219 -0.1810918 -0.2710793 0.27921084 -0.08180015 0.051730152 0.24852851 -0.16481858 -0.09848005 -0.024654811 -0.011801408 0.291015 0.052980714 -0.39731345 0.13240398 -0.30862722 -0.04870755 -0.07619566 -0.24564669 0.23161083 0.2806681 -0.06794851 -0.2785956 0.061834477 -0.08832028 -0.15021312 0.17170675 0.07780263 -0.56899923 -0.1840402 -0.17414005 0.07482125 -0.046351057 -0.08597067 -0.04126748 -0.3037657 0.43547982 0.15139452 0.055211958 -0.07126171 -0.09191442 0.35067934 -0.5806681 -0.374606 -0.20427203 -0.028051496 -0.117019705 -0.41932946 0.047686327 0.017351119 -0.41433105 0.030428024 0.29263437 0.3027862 0.42313966 0.33800146 0.5073918 -0.29372036 0.10860737 0.13694261 -0.37259877 -0.3162199 0.2887274 0.4035596 -0.16724941 0.18752313 0.12939914 -0.32669732 -0.33620548 0.0662613 0.114992924 -0.5502377 0.01421294 0.3219957 -0.16237643 -0.17686717 -0.24771217 0.16834453 0.19628957 -0.28142902 0.22525288 0.23200843 0.04700224 0.02515708 -0.3982913 -0.03562552 0.11730906 0.18960658 0.20779899 0.2775461 -0.5169926 0.0084100375 -0.010582261 0.12563996 0.28588718 0.051689137 0.22390915 0.30288082
1131 0.2150566 -0.31415635 -0.4471974 0.3002095 0.2898478 0.074444465 -0.33708444 0.08733093 0.48324445 -0.07102881 -0.12762347 0.18685499 0.09531006 0.045320958 0.008148327 0.044761647 0.0010162812 -0.08684756 -0.049956396 0.39035895 0.17667036 0.5887911 -0.28207245 -0.5614064 -0.047810256 0.036885545 0.15331024 0.03916086 0.41697547 -0.53279644 0.19970584 -0.049494207 -0.13161027 0.042318575 0.1587749 0.41096067 0.22638619 -0.026479784 0.38118586 -0.113181934 -0.25309902 0.082369484 -0.29076502 -0.27206716 0.09855324 0.18024796 -0.23353966 -0.14530599 -0.23423956 0.17359743 0.32340747 -0.15697864 0.28634 0.48630196 -0.30040634 0.009575334 0.39093074 0.109681964 -0.5004965 -0.29502037 -0.050531775 -0.22199734 0.3307856 0.027131332 0.010758831 -0.10357313 0.62375677 0.1042303 0.1638677 0.091326214 -0.33957207 -0.02544369 -0.21496409 0.053728327 -0.20155916 0.056720562 0.022267256 -0.45222697 -0.39610407 0.41981226 -0.12854885 -0.17762522 0.36108792 0.3564365 0.18288717 0.22673054 0.30092496 -0.18069375 0.36782512 0.22740148 0.042450815 -0.43414575 -0.28014642 -0.09489063 0.16255634 0.3296964 -0.4231603 -0.15522 -0.17001323 0.21128054 0.07789649 -0.2773998 -0.27327663 0.06176591 -0.02033408 -0.16655186 -0.5727564 0.5184706 0.15440933 -0.07367507 0.32929328 -0.28052118 0.2474602 0.027667278 0.15076917 -0.07541828 0.19090416 -0.62410134 0.06184879 0.13262352 -0.13629355 -0.12740426 -0.031480964 -0.41614866 0.23045479 -0.49024123 -0.18072872 0.0816066
12755 0.31817582 -0.2529054 -0.3769311 0.10717084 0.21344136 0.29804495 -0.4335773 0.005082421 0.017313844 0.4722114 -0.40740126 -0.28189185 -0.0578895 -0.123366214 -0.36455074 0.4997187 -0.060203623 0.31746253 -0.00758313 0.14889318 0.1452143 0.17190489 -0.2699502 -0.6203267 -0.37752712 0.15855066 0.037379738 0.6269815 -0.01278478 -0.16128822 -0.07329212 -0.024187446 -0.005977322 0.095010966 -0.24188556 0.4750645 0.69465667 0.010872953 0.06347005 0.17975114 0.020665327 -0.029162938 -0.297267 -0.35269853 0.06649768 -0.14027776 0.0011094763 0.19508235 -0.41210675 0.0889977 0.2907907 -0.1546133 0.110336624 0.32794577 0.010316353 0.05039874 0.32348418 -0.03494668 -0.49512857 -0.19073263 -0.1141773 0.17666586 0.09562394 -0.0330176 0.040344626 -0.31839892 0.50055444 0.36189517 0.018865222 -0.3985457 0.2767459 -0.31325254 -0.32427853 -0.19147874 -0.28672728 0.15494937 0.2519382 -0.50523096 -0.3463192 0.43945774 -0.19490093 0.20732167 -0.061510976 0.2977527 0.05183153 0.045982275 0.4406591 -0.34484392 0.4750777 -0.28263178 0.014578213 -0.6353346 0.104445465 0.07351833 0.02624639 0.27840462 -0.11327574 -0.37793246 0.20479089 -0.30591324 0.033241235 -0.14535394 -0.2519258 -0.1544709 0.0825501 0.12893748 -0.19618082 0.50272256 0.08534733 -0.08782995 -0.032815717 -0.31385484 0.019663442 0.14324558 -0.12775983 -0.20161787 0.043275632 -0.15960576 0.19342878 -0.06107599 0.14844212 -0.43897557 -0.13230512 -0.10138787 0.07484635 -0.052395634 -0.41101292 0.24907887
12918 -0.2306891 -0.28908575 0.12220328 0.106113136 0.16162838 -0.098874755 -0.12849164 -0.19528693 -0.10573982 -0.015693475 0.1923344 0.108034894 0.18225065 -0.51317436 0.044386573 0.36660734 -0.09321832 -0.08413292 -0.052767973 0.38818455 0.103944674 0.35096544 -0.33781832 -0.040981885 -0.1631235 -0.0061247083 -0.16110772 0.3238175 0.3553259 -0.23808089 -0.34300703 0.1074011 -0.108083785 0.022120636 0.25422487 0.45392188 0.11068582 0.09735348 0.06276886 -0.120860815 -0.013380872 0.020759914 0.3451386 -0.111751884 0.29102245 -0.26354897 -0.101722784 0.0827457 -0.03656296 0.15705396 0.21901648 0.33434018 0.18668187 -0.041223545 0.11574147 -0.2034201 0.4526804 -0.010459049 -0.004553496 -0.045856576 -0.29105487 -0.10741879 0.11463018 -0.18700933 0.23393759 -0.060375318 0.31011483 0.55574757 -0.08022218 0.08598534 0.2762919 0.08273942 -0.2545395 0.040249873 -0.05388985 -0.4202564 -0.42404246 -0.13823946 -0.21402219 0.2490383 -0.084945284 -0.106697686 0.07205526 0.48854882 0.6412953 0.4146284 0.37136418 -0.19595057 0.32334438 0.15482657 0.29869375 0.031559028 0.16703323 0.34661606 0.47243035 0.36494794 -0.14165977 -0.13628855 -0.39510408 -0.31756815 0.16213915 -0.17705132 0.07052428 0.17325377 0.21581994 0.026721653 -0.2642692 -0.019937662 -0.11959488 -0.30876508 0.31950787 0.23579113 0.20461543 0.029387478 -0.21128842 -0.25959948 0.0075079687 -0.061349273 0.14061865 0.04524632 -0.35882834 0.17168769 0.070393376 0.06651731 0.03799185 -0.3045559 0.37263307 0.48785892
12625 -0.18970431 0.22963348 0.23241532 0.07871328 0.15677755 0.50617385 0.12914035 -0.0979195 0.07153506 -0.24652545 0.1112757 0.24938564 0.11761014 -0.030143306 -0.20238638 0.24633953 0.14924179 0.0461914 -0.052418828 0.19652386 -0.14441752 -0.15898463 -0.2872165 -0.187499 -0.39924338 0.025402926 0.07510768 0.2598752 -0.013799054 0.27203125 -0.10091421 -0.08265586 -0.17565732 -0.31773695 -0.004573558 0.10534459 0.027218213 -0.34918267 0.23042773 -0.17864102 -0.28662392 -0.09853884 0.287141 -0.25774238 0.2788185 0.09327938 0.103831545 -0.22168909 0.2111519 -0.07579136 0.21074966 -0.2955403 -0.3999394 0.029618267 0.50615513 -0.26378596 0.15662518 -0.018589467 0.041943505 -0.16736992 -0.11973205 -0.24950537 -0.39387122 -0.23125449 0.5358446 0.2895713 -0.15531364 -0.071740784 0.018844845 0.12111172 0.21381202 0.06206486 -0.14963877 0.03568106 0.24372199 -0.26977357 -0.569392 -0.14584298 -0.11052614 0.31444067 -0.27230567 0.5741641 -0.10136029 0.61825573 0.33085874 0.6279464 -0.15973395 -0.1799135 0.37169567 -0.10404161 -0.306519 0.30122957 0.48268116 0.16545078 0.12834913 0.2365967 0.10659428 -0.23410857 -0.31355608 -0.2943284 -0.12986578 0.41082567 -0.20115732 0.27508166 0.22961698 -0.21686506 -0.3308069 0.16601455 0.3023342 0.026720494 0.05268913 -0.12976147 -0.22387953 0.43670183 -0.07254973 -0.008563243 0.2845632 0.10028028 0.053030983 0.13936985 -0.10373679 -0.2287056 -0.78936344 0.18970342 -0.19745885 0.15747948 0.11905307 0.15471788
12439 -0.31369972 0.018470388 -0.06505687 -0.03563497 0.41065237 0.001871701 -0.20676032 -0.023785492 0.103595786 -0.021101896 0.114757024 -0.089419395 0.093505576 -0.43083233 -0.085325114 0.6052246 -0.32107186 0.006980295 0.0037022713 0.48199144 0.24931987 0.5068172 -0.46826747 -0.1872548 -0.25894487 0.28557333 -0.2426125 0.3344253 0.34065077 -0.05564754 -0.5612498 -0.06329125 -0.26980418 -0.19436106 0.22667266 0.32228705 0.37470135 -0.049015697 0.19266793 0.08127711 -0.33743256 -0.09591946 0.4352812 0.052240025 0.24055982 -0.051542345 -0.239144 -0.13943008 0.00093685 0.30807397 0.19132505 0.3776946 0.16536687 0.049051486 0.24313894 0.048024368 0.276511 -0.14081079 -0.32639226 -0.246622 -0.19474533 0.07552531 -0.0101296 -0.2969309 -0.0760873 -0.19606504 0.07570523 0.59395844 -0.051914547 0.21589078 0.10531392 0.042571448 -0.39695242 0.08682229 -0.0416851 -0.2721546 -0.23690067 -0.20867734 -0.031249003 0.10241846 -0.07914143 -0.22964698 0.0846519 0.58483106 0.3671632 0.24931255 0.22503023 -0.30265054 0.34777892 -0.029879536 0.340645 -0.2106474 0.24713777 -0.12209022 0.24541093 0.17702831 -0.050052263 -0.081609845 -0.12527637 -0.07585392 0.13635688 -0.1866164 0.06558251 0.1649463 0.06565808 0.10089904 -0.24552435 0.43583494 -0.31026486 -0.2288707 0.2852796 -0.060529668 0.13207865 0.2484998 0.0072768764 -0.2849296 -0.114402466 0.17421985 0.11201841 -0.19206494 -0.2323567 0.13873293 -0.08003893 -0.013590374 0.1612916 -0.030807296 0.20530936 0.3671702
10554 0.07680003 -0.012829862 0.14768216 -0.20489633 0.51764476 0.13416278 -0.06708965 -0.085894205 0.019187644 -0.27692017 0.4389668 0.10236122 0.012089526 -0.83816373 0.00044292837 0.39932838 -0.19247198 -0.20577084 0.1723741 -0.17067267 0.08527427 0.4200577 -0.32514876 -0.09827828 -0.3815907 -0.06497884 -0.09659624 0.16778614 -0.273628 -0.079644114 -0.36545777 -0.17566195 -0.20004603 0.1797125 0.18441129 0.41539186 0.20839383 -0.02121325 -0.036806952 0.055085797 -0.24425638 0.06896082 0.07587462 -0.18027225 0.011745603 -0.095824234 -0.22308692 -0.14877678 -0.3509798 0.14846689 0.19336955 0.044083845 -0.21131203 -0.021029511 -0.15654007 -0.06443554 0.1542337 0.26751536 -0.30969638 -0.058592156 -0.18506445 -0.05328295 -0.25781897 -0.31588995 -0.1750217 -0.24397065 0.12627533 0.37381253 0.05124899 0.010300967 -0.17646182 0.1177951 -0.55135393 -0.28281522 -0.22992238 -0.15003443 -0.039821718 -0.1648347 -0.018930653 0.122237116 -0.01875928 -0.17414007 0.41425228 0.48824206 0.35621944 0.10066502 0.5771138 -0.3521934 0.008753924 0.067642055 -0.41269344 -0.31089163 0.21934126 0.31861198 -0.08191793 0.06278828 0.008406677 -0.108161524 -0.2690756 -0.2105233 -0.028314175 -0.476594 0.11486458 0.3938356 0.093443155 -0.3250485 -0.015307544 0.053345587 0.32116067 -0.4174081 0.035420336 0.12739237 0.017254971 -0.31442216 -0.053947423 -0.29418388 0.33739692 -0.22957166 0.068166606 0.2827771 -0.31756285 -0.026575526 0.02240203 -0.08638225 -0.046151586 0.021632517 -0.07975196 0.19750078
11898 0.596677 -0.19103089 0.02318059 0.027039144 0.35176998 -0.007439331 -0.4352053 -0.10164719 0.24526353 0.123666614 0.037070308 0.086924225 -0.038701314 -0.1414714 0.1663486 0.38692427 -0.2538585 0.3528757 -0.13897552 -0.060992062 0.27894393 0.33154604 0.085457824 -0.4614584 0.21151824 0.018075319 -0.2402984 0.52738726 0.21820483 -0.14181022 0.08311863 0.0105074085 -0.36512843 0.1690449 0.38011518 0.4435258 0.106059566 0.10352232 0.29711533 -0.23951755 0.048995115 0.077146605 -0.018491223 -0.04303184 0.10430296 -0.017212963 -0.32776523 -0.00275003 -0.5020406 0.28787512 -0.04757418 0.16792995 0.2945947 0.55366004 -0.22825152 0.124291666 0.5654859 -0.07856169 -0.025530815 0.011665305 -0.17948346 -0.07816823 0.082494766 0.2198727 -0.2073591 0.03506591 0.5278036 0.16893 0.31207916 0.051381078 -0.24390629 -0.5228707 0.0032783283 0.16752085 -0.37742397 0.035132043 0.0033120867 -0.16979872 -0.12687741 0.44688943 -0.15926191 -0.32773033 0.16434917 0.68684983 0.25218537 0.49297416 0.39114916 0.056472138 0.005743098 0.064059675 -0.235424 -0.4290344 0.07398051 -0.012692873 0.19643365 -0.11662729 -0.17071828 -0.4950358 -0.40084028 -0.016151888 -0.010755643 -0.2427892 -0.16935422 -0.06703314 0.14851564 -0.1009058 -0.2966485 0.52774775 0.09404192 -0.2705663 0.21929486 -0.49447545 0.48581845 0.06998655 -0.0045918496 -0.3117143 0.22271211 -0.23625508 0.07105491 0.11742209 -0.04385289 -0.33142653 0.021706466 -0.17381819 -0.064031646 -0.30457067 -0.33564916 0.22061487
